import numpy as np

weights_dense1_w = np.array([
[ 0.20574914758019294,0.3724021888207424,0.02666071829908092,0.13104261185167057,0.1798420891623564,-0.0037682994062305936,-0.19180643977713857,0.041922330894315504,-0.01761679972412826,-0.12020875105875707,0.07084402883713564,-0.15195667355624995,0.0675467668566839,-0.06311901505436161,0.21413361375905665,-0.011587520674159024,-0.22704003922539548,-0.09430169264092197,0.05661869857861554,-0.09637425731434804,0.010928068278069358,0.21564093352154742,-0.06415529739107609,0.047292157548194755,0.11069379505802468,0.02882749045766403,0.0021667721585827337,0.3409368887787166,0.3228490516288096,0.08836662107610821,0.007065561386682545,0.08855503604642015,0.1105995875728701,0.07508336566914502,-0.027131755724860485,0.23438822306754514,0.02807383057641878,-0.2656651081392602,0.063307430024674,-0.056995528519238566,0.03174792249749356,0.17560275233034695,-0.02402290871472055,0.026378095843614655,0.019971986853021442,0.250780325484648,-0.047951609944284795,0.21083635177860288,0.18624819815294885,-0.21149580417469394,0.19256009965838555,-0.12218710824702816,0.1884149703115311,0.15421765319998867,-0.08469252915503352,-0.11681728159314922,-0.13773134329772935,0.03608146681465833,-0.23495346797847977,0.09081601569015822,-0.05011838210286713,0.18869759276699838,0.09232333545265023,0.0342915245966985,0.2497440431479358,0.38361287955427903,-0.12425967292045523,-0.2098000694418902,0.05859705576688691,0.2419248218800064,-0.009985993426510686,0.3336829124217222,0.09844682198777543,0.2565269820791496,0.18850917779668816,-0.12312918309858494,0.11248373727598557,-0.025718643447523476,-0.16702987118117266,-0.08572881149174671,-0.17871159934048728,0.17428384753816717,0.3915263083073625,0.16523992896321255,0.22525009700743648,0.012906425466340484,0.00697135390152645,0.07706172285741644,0.29967401028049073,0.00819605120855179,-0.019783571882710734,0.20659701494659427,0.4182812340916004,0.1789000143107992,0.1199261286032895,0.058973885707510526,0.0921349204823383,0.10588921331508054,0.10862123038459853,0.007725013782772863,0.04427751802321038,0.08770716868001753,-0.053227229113008895,0.3159719052124377,-0.11257794476114022,-0.19971986853022322,0.18323355862796403,-0.050589419528646276,0.061046450380935716,-0.08780137616517465,0.16844298345850947,0.132644139099319,-0.009326541030420916,0.215075688610614,0.1868134430638833,0.0670757294309056,0.10758494804788502,0.02081985421942434,0.13820238072350877,0.1084328154142857,0.15563076547732563,-0.0862940564026809,0.09185229802687177,0.07480074321367823,-0.0199719868530219,0.09693950222528289,0.1398039079711566,0.25172240033620596, ],
[ 0.527373501901975,0.032878412319360686,-0.2492730057221558,-0.12303497561343109,-0.13641243850554763,0.04079184107244565,-0.27923098600168983,0.4931761847904329,0.21422782124421066,-0.6306249056326961,-0.03834244645839694,-0.2847892276258788,0.47056638835305,-0.005087204198409767,0.41178091761584995,0.2744264042587463,-0.1647688915374345,0.23843914492924212,-0.09543218246279103,0.5051405354052149,0.027697000635795152,-0.23457663803785608,0.0757428180652349,-0.269433407545491,0.4253467954782818,-0.16976188825069044,0.25652698207914887,0.3764531106824395,0.1303831594555802,0.09081601569015854,-0.3010871225578286,0.24842513835575564,0.10739653307757184,-0.22148179760120418,0.5683537579447336,-0.31729081000462067,-0.3459298854919719,-0.0002826224554667838,0.4403257856180484,-0.3952946077135929,0.28102092821964864,-0.27480323419936725,-0.2794194009720008,-0.4387242583704005,0.23090254611678135,-0.03561042938887806,0.07781538273866398,0.02986377279437931,-0.19227747720291696,-0.1095633052361565,0.29844931297346516,-0.4119693325861629,-0.2281705290472631,0.26481724077285623,-0.768733078871048,0.023080833863162682,-0.05030679707317844,-0.411404087675228,0.6833810973199256,-0.006500316475746818,-0.3498865998685146,0.38455495440583426,0.8091480900028706,-0.0388134838841758,0.0350451844779444,-0.26990444497126903,0.03372627968576324,0.12143344836578256,0.11154166242442536,0.19029912001464552,-0.1812552014396934,0.1892628376779342,0.38888849872300146,0.4794218919576916,0.7798495621194286,0.06462633481685583,-0.14931886397188862,-0.01714576229834881,-0.09383065521514208,-0.1321731016735388,0.046067460241169096,-0.2494614206924663,0.7965242869919968,0.042675990775561654,-0.17974788167720168,-0.38248238973240867,0.33745121182795135,0.510698777029406,0.04295861323102836,0.29665937075550614,-0.2906300917055367,0.07866325010506449,-0.8548387203034163,0.43825322094462266,-0.8233734202613898,-0.07838062764959737,0.3557274639481709,-0.0009420748515568102,0.6646338077739253,-0.30608011927108264,-0.04974155216224453,0.16269632686400648,-0.23627237277065954,0.02289241889285025,-0.03071164016078049,0.49402405215683426,0.5239820324363691,-0.04974155216224262,-0.7478190171664671,0.37861988284102305,0.19350217450994306,0.5206847704559152,0.2711291422782928,-0.10381664864165278,-0.28375294528916617,-0.13415145886181076,-0.0916638830565601,-0.3951061927432813,0.2012271882927146,0.7054256488463716,-0.4929877698201218,-0.5910577618672729,-0.27744104378372936,0.47122584074913815,0.06048120547000197,0.42986875476575737,0.17711007209283972,-0.6011379627789412, ],
[ 0.03692933418105989,-0.004804581742943306,-0.376264695712129,-0.1515798436156265,-0.3440457357888569,-0.26048369645569225,-0.22882998144335526,-0.03532780693341225,0.2658535231095713,-0.1613774220718264,-0.03382048717092027,0.060481205470001215,-0.2977898605773765,0.1274627274157517,-0.13980390797115583,0.14639843193205976,-0.10824440044397535,-0.2342940155823901,-0.22449643712619,-0.013471670377274413,-0.1367892684461716,-0.10692549565179396,0.0842214917292548,-0.24663519613779528,-0.15016673133829106,-0.0401323886763555,-0.06773518182699566,-0.27244804707047515,-0.04437172550836551,-0.015073197624922713,-0.24842513835575467,-0.15572497296248042,-0.03787140903261807,-0.20631439249112732,-0.23203303593865138,0.08233734202613968,-0.11728831901892887,-0.19774151134195272,-0.10409927109712139,-0.18690765054903963,-0.10372244115649845,-0.2657593156244151,-0.37814884541524435,-0.19029912001464686,-0.13245572412900675,-0.2152641035809249,-0.0642495048762324,-0.07451812075821111,0.07244555608478402,-0.051908324320827384,-0.08949711089797747,-0.2844123976852573,-0.09976572677995615,0.08610564143236908,0.040226596161512126,-0.05925650816297655,-0.16410943914134335,-0.13839079569381998,-0.01752259223897301,0.25699801950492923,0.007725013782772877,-0.04804581742944059,-0.17805214694439733,0.08196051208551636,0.11417947200878815,0.09957731180964455,-0.005181411683567706,0.08035898483786837,-0.20405341284738907,-0.051908324320826565,-0.2957172959039485,-0.014413745228831959,-0.061894317747338376,0.09081601569015846,-0.08714192376908339,0.17211707537958434,-0.0020725646734265054,-0.12934687711886608,0.10560659085961359,0.12275235315796272,-0.0694309165597995,-0.13594140107977026,-0.024117116199876186,-0.18068995652875913,-0.013377462892118141,0.03410310962638724,0.030900055131090925,-0.016674724872570403,-0.03334944974514169,-0.2356129203745703,4.445228907190568e-16,-0.04748057251850521,-0.12077399596969109,-0.20866957962002164,-0.19661102152008328,0.0772501378277286,-0.07037299141135714,-0.09590321988857038,-0.05511137881612294,-0.16825456848819786,-0.0024493946140495965,0.048893684795842086,-0.21262629399656308,-0.356104293888795,-0.01761679972412829,0.1715518304686494,0.11097641751349177,0.11945509117751137,0.09298278784874153,-0.18879180025215506,-0.030334810220156824,-0.05520558630127892,-0.19274851462869716,0.07065561386682467,-0.24079433205813766,-0.1259554076532582,-0.0013189047921805912,-0.16175425201245008,-0.041168671013069404,-0.07216293362931633,-0.14385482983285458,-0.07263397105509521,-0.10334561121587463,-0.23985225720657954,-0.09449010761123323,-0.2440915940385894,-0.09778736959168463,-0.0033914694656076196, ],
[ 0.013283255406963193,-0.49703869168182074,-0.3512055046606948,-0.6864899443300665,-0.21695983831372817,0.6644453928036155,0.12020875105875643,0.655778304169286,0.1566670478140376,0.2837529452891654,-0.019406741942088884,0.04145129346853589,0.1645804765671233,-0.2906300917055366,-0.20697384488721776,-0.12360022052436416,-0.19387900445056636,0.3921857607034527,0.30570328933045965,-0.19924883110444416,0.2123436715410964,-0.5430119444378328,0.19971986853022292,0.36119149808720535,0.23655499522612844,0.029863772794376915,-0.7253976356993964,0.10004834923542313,0.4474855544898875,0.43043399967669427,-0.32341429653974507,0.036740919210749276,-0.5522442779830988,0.20961165447157934,0.06481474978716775,-0.27894836354622354,-0.17729848706315124,-0.22996047126522404,0.38983057357455875,-0.24428000900890126,-0.13132523430713822,-0.2218586275418274,0.027320170695172983,0.37767780798946415,-0.47546517758114976,0.31182677586558505,0.6933670907464372,0.19340796702478805,0.10579500582992447,-0.8633173939674373,-0.6094282214726491,0.18229148377640622,0.11276635973145294,-0.04983575964740057,-0.40697633587290877,-0.2272284541957061,-0.6094282214726483,0.10230932887916246,-0.19180643977713796,0.4008528493377836,0.36797443701842025,-0.5055173653458381,-0.2892169794282,0.08243154951129374,-0.43476754399385853,0.04710374257788169,0.11936088369235487,-0.5191774506934259,-0.17861739185533201,0.11455630194941155,-0.5639260061424136,0.6329800927615895,-0.056524491093459237,0.20339396045129912,-0.4007586418526266,0.30334810220156516,0.13933287054537827,-0.07225714111447229,-0.3090947587960677,0.18361038856858725,0.16655883375539463,-0.2915721665570954,-0.1690082283694439,-0.2023576781145849,-0.15685546278435,-0.21498148112545823,-0.507778344989578,0.2798904383977802,-0.5068362701380191,0.19971986853022317,-0.9097616841492306,-0.2380623149886204,0.05595924618252408,0.23071413114646983,-0.09194650551202692,-0.36053204569111524,-0.28921697942820124,0.042204953349782935,-0.39378728795110135,0.07583702555039068,0.3776778079894645,0.4482392143711329,-0.001036282336712711,-0.2646288258025463,-0.26396937340645577,-0.6165879903444877,0.36269881784969904,0.3210591094108499,-0.7695809462374512,0.3847433693761479,0.10438189355258884,-0.23401139312692165,-0.5667522306970872,-0.14206488761489458,-0.14498531965472466,0.09854102947293192,0.3039133471125008,0.6669889949028207,-0.3651482124637487,0.3438573208185449,-0.23872176738471018,0.20669122243174962,-0.11342581212754278,-0.2650056557431688,0.006594523960903552,-0.5385841926355139,-0.6942149581128373,0.3101310411327806, ],
[ 0.29176058152740675,0.5597808767955598,0.10909226781037643,0.8768832718298676,-0.2811151357048046,0.030240602735001045,0.027885415606107203,0.8089596750325603,0.32030544952960444,-0.4116867101306962,-0.034103109626386435,0.6585103212388023,0.11794777141501889,0.5765498091532842,1.2535247974826191,-0.41394768977443364,0.11286056721660716,0.330103027985803,0.55243269295341,-0.3833302570988098,0.6145154256710588,-0.7001500296776512,0.48083500423502834,0.06716993691606088,0.4301513772212261,0.684040549716014,0.34037164386778124,0.4931761847904332,0.5664696082416187,-0.485545378492816,-0.4012296792784046,-0.4377821835188441,0.7671315516234002,0.5738177920837685,0.24060591708782453,0.06867725667855415,0.16429785411165507,-0.7443333402157043,0.28064409827902587,-0.3796561651777366,-0.5291634441199363,-0.7949227597443518,-0.1705155481319365,0.5397146824573807,-0.6554014742286632,-0.4470145170641093,0.16175425201244853,-1.0901690182225212,-0.7132448701143025,0.006406108990592161,-0.13245572412900722,-0.2341998080972336,-0.8652015436705532,-0.10438189355258842,-0.29392735368598866,0.32247222168818407,0.3784314678707109,-0.8739628397900396,-0.004521959287476856,-0.5930361190555452,-0.35911893341377926,-0.4852627560373487,-0.41253457749709754,0.20339396045129937,0.5444250567151702,0.6502200625450959,-0.019689364397554542,-0.2525702677026075,1.0378838639610704,0.20744488231299602,0.6552130592583507,-0.3849317843464587,-0.7775885824756894,-0.310507871073403,0.7607254426328084,-0.0019783571882711275,0.13726030587195046,0.017145762298349305,-0.5302939339418052,-0.2654766931689472,-0.2946810135672359,0.11248373727598385,0.4203537987650281,-0.8534256080260805,0.22920681138397797,-0.09260595790811711,-0.013094840436650584,0.14865941157579798,0.4054690161104143,0.36609028731530563,-0.6738661413191918,-0.2651940707134805,-0.3688223043848228,0.2744264042587451,-0.30928317376638087,0.880934193691565,-1.2045369052016182,-0.4104620128236725,0.2191266104723113,-0.03598725932950225,0.4044327337737014,-0.8784847990775142,-0.4876179431662434,0.01761679972412781,0.4633124119960552,-0.2720712171298509,-0.7533772587906576,-0.22675741676992836,-0.5044810830091251,-0.8362798457277317,0.41441872720021233,0.6679310697543789,-0.05982175307391073,-0.07319921596603046,0.22393119221525537,0.2722596321001625,0.22289490987854144,-0.2888401494875773,0.08883765850188696,0.6066962044031305,0.4228974008642323,0.2940215611711448,-0.10174408396822815,0.9311467832795876,0.44070261555867163,-0.15412344571483214,0.5212500153668506,-0.3601552157504941, ],
[ 0.2893111869133581,0.1729649427459851,-0.7436738878196149,0.027225963210016763,-0.5520558630127874,0.014696367684299378,0.7856904261990864,0.1421590951000502,-1.0229990813064602,-0.3314219327779824,-0.4267599077556187,-0.5994422280461384,-0.8301563591926078,0.15817436757653006,-0.4570005104906191,-0.36967017175122496,-0.40113547179324954,-0.2098942769270456,-0.12765114238606215,-0.2771584213282624,-0.3714601139691846,0.12680327501966085,0.009891785941355067,-0.4442824999945912,-0.15157984361562812,-0.49402405215683526,-0.26688980544628504,-0.19190064726229494,0.15007252385313422,0.6455096882873068,0.23796810750346437,0.1705155481319361,0.11512154686034572,0.7957706271107522,0.3290667456490898,0.07715593034257279,0.10928068278068828,-0.41828123409159995,-0.1327383465844743,0.16514572147805828,-0.16034113973511221,0.044748555448989306,-0.016392102417102854,0.14479690468441192,0.30042767016173716,0.5518674480424759,0.5243588623769913,-0.2612373563369381,0.4923283174240317,-0.9032613676734806,0.44079682304382817,0.18728448048966334,0.1252017477720137,0.14187647264458425,-0.5472512812698433,0.5447076791706373,0.7680736264749574,1.0737769158054182,-0.8796152888993852,0.40452694125885863,-0.45247855120314184,0.9724096617778136,0.42393368320094577,-0.8782963841072048,-1.3787265452546311,-0.5071188925934865,-0.08949711089797627,-0.08346783184800777,-0.03127688507171442,0.15205088104140482,1.025825305861133,-0.9951136657003521,-0.8213950630731207,0.44597823472739523,0.002449394614048562,-0.6472054230201103,-0.07894587256053012,0.15808016009137482,-0.8743396697306604,-0.7200278090455181,0.6709457092793641,-0.15384082325936546,-0.12680327501966088,0.32171856180694003,0.49270514736465537,-0.5056115728309946,0.3725906037910528,0.29637674830003874,0.33377711990687714,-0.4872411132256207,0.10513555343383493,-0.06387267493560907,-0.4506886089851827,-0.127085897475128,-0.43599224130088376,0.602739490026589,-0.15713808523981695,0.008384466178862439,0.6496548176341602,-0.1462100169617478,0.14649263941721566,0.30984841867731466,1.2269582866686923,0.4556816056984393,0.581542805866542,0.6944975805683051,0.4408910305289842,0.28507185008134645,-0.036175674299814733,0.33820487170919883,-0.9046744799508183,0.15026093882344593,-0.22327173981916548,-0.440891030528984,-1.109387345194298,0.16853719094366512,-0.3904900259706482,-0.8749991221267507,0.14781154420939674,0.24437421649405588,-0.6581334912981792,-0.7620443474249887,0.5918114217485207,0.7814510893670772,0.15657284032888188,0.3204938644999157,0.45728313294608636,0.6945917880534612, ],
[ -0.001036282336713487,-0.619791044839782,0.6916713560136313,-0.39067844094096066,0.3298204055303357,-0.06255377014342717,-0.9172040754765338,-0.08977973335344451,-0.4261946628446834,0.5912461768375854,0.01987777936786752,-0.7470653572852216,0.3369801744021737,-0.08516356658081382,-0.20292292302552015,-0.0863882638878371,-0.356575331314573,0.09270016539327407,0.08186630460036019,-0.23127937605740412,-0.14997831636797945,0.4720737081155414,-0.40019339694169226,0.11530996183065816,-0.738775098591514,0.8365624681831987,0.9867291995214893,0.05878547073719807,0.15563076547732493,-0.1872844804896617,-0.477914572195198,-0.35158233460131766,0.3744747534941673,-0.27301329198140906,-0.5903983094711821,0.4585078302531107,-0.170232925676469,0.2967535782406629,-1.0421232007930787,0.38954795111909074,0.6483359128419799,-0.20264030057005233,0.6914829410433193,-0.1766390346670608,0.7188973192236474,0.4244989281118794,0.1152157543455007,0.3099426261624697,-0.34404573578885556,-0.23109096108709387,0.38144610739569534,0.009703370971043495,0.3863448966237938,-0.0878013761651718,0.269244992575178,0.3047612144789011,-0.6136675583046579,-0.2705638973673596,0.3285957082233104,0.8178151786372011,0.02496498356627798,0.6410819364849849,-0.2559617371682145,-0.604623639729703,-0.13075998939620334,-0.6981716724893804,0.25426600243541153,0.5828617106587209,-0.8051913756263287,-0.06924250158948649,-1.4174458216536494,-0.7335936869079475,0.1690082283694441,-0.19689364397554907,0.18521191581623447,-0.8050971681411734,0.2146046511848323,-0.15242771098202879,-0.17842897688501974,0.49421246712714645,0.2386275598995543,0.34800245016539716,-0.7522467689687881,-0.0756486105800795,-0.9550754845091524,0.1566670478140386,-0.2559617371682148,-0.0649089572723222,9.420748515681144e-05,-0.2037707903919211,-0.18615399066779362,0.33283504505532013,0.3243563713912997,0.3506402597497599,-0.09957731180964492,-0.6279870960483347,0.07235134859962972,0.11728831901892843,-0.04814002491459578,-0.01582685750616855,-0.029863772794377758,0.5805065235298282,0.8966668437125773,-0.1214334483657815,-0.11257794476114004,0.23401139312692226,0.4032080364666765,-0.2271342467105504,0.22515588952227988,0.2784773261204446,0.3152182453311913,-0.028639075487352544,0.19491528678728054,-0.399157114604979,0.5739119995689247,-0.056807113548926244,-0.02571864344752447,0.16750090860695133,0.18888600773731062,-0.3630756477903187,-0.2884633195469558,0.05661869857861529,-0.08224313454098346,-0.4629355820554326,0.11992612860329029,0.08440990669956643,0.5050463279200587,0.41667970684395184, ],
[ -0.6404224840888938,0.9053339323469077,-0.31097890849918136,-0.15487710559607815,-0.6700978419129616,0.359118933413778,-0.8117858995872322,0.37296743373167657,1.5229582050281074,0.7462174899188204,0.17136341549833725,-0.059915960559067574,-0.03382048717092025,-0.2141336137590551,0.00018841497031198313,0.04437172550836514,0.37909092026680136,-1.243161974115484,0.0726339710550964,0.18172623886547165,-0.052002531805982195,0.05106045695442528,0.18596557569748168,0.09901206689870985,0.029863772794377505,0.9097616841492293,-0.32096490192569366,-0.18822655534122007,0.33358870493656567,-0.754696163582839,-0.9147546808624853,-0.04550221533023553,0.2286415664730445,-0.1977415113419521,0.10221512139400585,-0.8105612022802074,0.3949177777729705,0.34583567800681564,0.9335961778936381,-0.855780795154975,0.4089546930611788,-0.2755568940806142,0.13490511874305802,-0.5464976213885968,-0.49835759647400046,-0.05190832432082771,-0.5614766115283637,1.6157525779065371,0.16081217716089105,0.16081217716089272,-0.38926532866362423,-0.6066019969179749,0.16231949692338518,-0.06453212733169918,-0.18492929336076752,-0.6369368071381312,-0.4318471119540293,-0.7800379770897392,0.9868234070066453,0.45266696617345453,-0.23438822306754498,-1.2177259531234272,-0.4029254140112095,0.6237477592163245,0.07517757315430172,-0.10447610103774418,0.09628004982919308,1.2555031546708904,-0.33566126960999254,-0.41385348228927915,-1.2888526044160304,0.8535198155112372,0.23806231498861918,-0.23627237277066027,0.3301030279858028,0.7777769974460012,-0.6066019969179743,1.2435388040561066,0.8987394083860042,0.6388209568412471,-0.9976572677995581,-0.20377079039192125,-0.8814052311173441,0.09665687976981545,-0.6945917880534611,-0.087141923769084,-0.1229407681282742,-0.054075096479409564,0.19133540235136084,-0.032313167408428045,0.3659018723449945,1.0174408396822692,0.3090005513109113,-0.14131122773364863,-0.04795160994428553,-1.2325165282928825,-0.17776952448893,0.4862990383740615,0.11474471691972268,0.3805982400292938,0.17362439514207534,-1.1727889827041273,-1.4324248117934175,-0.08290258693707313,-0.5146554914059468,0.07009036895588962,-1.0912995080443904,0.6723588215566986,0.10249774384947188,-0.6898814137956734,0.238627559899555,-0.33829907919435454,-0.11662886662283872,0.3440457357888563,-0.09910627438386536,-0.6390093718115583,0.3876638014159764,0.5324607061003881,0.40650529844712907,0.48328439884907864,0.2583169242971104,0.1586454050023091,0.2536065500393211,-0.14234751007036148,-0.15713808523981773,-0.012906425466339168,-0.9521550524693237,0.31606611269759377, ],
[ 0.17287073526083066,-0.006971353901526967,-0.20518390266925648,-0.2566211895643052,-0.4296803397954469,0.17569695981550246,0.13057157442589118,0.30862372137028793,0.25765747190101945,0.32190697677725194,0.5544110501416809,-0.23127937605740476,-0.4563410580945292,-0.036175674299815025,-0.18945125264824478,-0.32831308576784385,0.38973636608940304,0.277817873724353,-0.005840864079657093,-0.06905408661917647,-0.5029737632466333,-0.0014131122773357115,-0.17814635442955348,0.44739134700473143,-0.09222912796749522,-0.17145762298349307,0.006877146416370881,0.016863139842881958,-0.18898021522246652,0.1028745737900959,-0.10513555343383416,-0.36806864450357707,-0.2063143924911264,-0.2234601547894757,-0.05897388570750968,0.33057406541158213,-0.21479306615514537,-0.23203303593865035,0.42496996553765803,0.6057541295515739,0.24154799193938345,-0.03532780693341146,0.10296878127525333,0.4905383752060724,0.18229148377640622,-0.20452445027316768,-0.11832460135564171,0.02995798027953367,-0.19095857241073783,0.08893186598704345,0.2767815913876398,0.40518639365494924,0.2510629479401163,1.4930002247485754,-0.09863523695808658,0.1841756334795215,-0.5090972497817575,-0.2589763766931996,-0.319834412103824,0.15657284032888297,0.3782430529003985,-0.06302480756920703,0.012718010496027976,-0.09006235580891288,-0.25388917249478826,0.1313252343071377,0.9708081345301661,0.02458815362565608,0.0978815770768409,-0.1756027523303481,-0.47810298716551086,0.13245572412900597,0.17051554813193592,0.20565494009503618,-0.3967077199909298,-0.0562418686379929,-0.2332577332456752,-0.26246205364396347,0.13141944179229306,-0.22411960718556662,-0.14743471426877336,0.04738636503335074,0.028168038061573746,-0.04248757580525032,-0.3574231986809749,0.1944442493615003,0.11003434266193404,0.18068995652875783,0.9076891194758024,-0.20565494009503696,-0.256998019504928,-0.12133924088062652,-0.35591587891848203,0.292985278834431,0.1507319762492252,-0.4794218919576917,0.06867725667855304,-0.14950727894220092,0.3765473181675948,0.5061768177419298,-0.21111897423407155,0.5865358025797968,-0.21498148112545698,-0.09128705311593667,0.057466565945017443,0.4751825551256819,0.07706172285741623,0.15421765319998781,0.025624435962368176,0.011493313189002763,0.130006329514957,-0.12473071034623387,-0.020631439249113034,-0.006971353901527447,-0.24606995122686018,-0.1051355534338343,0.30702219412264126,0.1954805316982143,0.3813518999105393,0.5188006207528006,-0.3439515283036991,0.1158752067415922,0.005652449109345419,0.2795136084571569,0.08064160729333492,0.3250158237873915,-0.14263013252582868,0.6550246442880394, ],
[ -0.1629789493194749,-0.6938381281722142,0.09317120281905449,0.24795410092997633,-0.47763194973973105,0.03297261980451736,0.16693566369601576,-0.10438189355258837,0.4179986116361324,-0.3776778079894641,0.9761779611840445,0.6635033179520584,-0.3358496845803048,-0.8638826388783729,-0.6170590277702653,0.6339221676131478,-0.08921448844250969,0.736231496492311,-0.4421157278360085,-0.3649597974934362,-0.8307216041035422,-0.06679310697543693,0.27960781594231215,0.1203971660290688,0.07367025339180748,-0.42553521044859194,-0.5683537579447334,-0.07009036895588976,-0.008007636238240138,-0.21337995387781103,0.3800329951183599,-0.04201653837947159,-0.5472512812698429,-0.051625701865359586,0.7897413480607852,-0.3310451028373612,0.20791591973877516,-0.26707822041659635,0.10607762828539068,-0.15054356127891255,0.061329072836404326,-0.5074957225341117,-0.7118317578369654,-0.5209673929113842,0.4644429018179252,0.24748306350419658,-0.7301080099571847,0.18040733407329043,0.5982175307391112,-0.21922081795746595,0.008196051208552152,-0.3303856504412699,-0.8813110236321885,0.3061743267562373,-0.20735067482783945,-0.4530437961140779,-0.010457030852289615,-0.14234751007036223,-0.07348183842149633,-0.21761929070981825,0.5617592339838311,-0.22948943383944537,-0.47461731021474823,-0.06001016804422475,0.05171990935051494,-0.22986626378006894,0.32576948366863817,-1.2575757193443164,0.36985858672153693,0.38116348494022767,0.2928910713492755,-0.11625203668221586,0.26104894136662626,0.2795136084571556,-0.641647181395921,-0.6630322805262806,-0.5602519142213389,-0.47310999045225627,0.24720044104872926,-0.3870985565050418,0.02213875901160493,-0.1417822651594265,0.37193115139496385,0.2993913878250232,0.4537974559953244,0.02166772158582633,0.9698660596786088,-0.1324557241290077,0.38719276399019603,-0.1261438226235704,-0.40122967927840547,-0.0686772566785534,-0.452572758688298,0.2764047614470171,-0.20791591973877488,-0.002166772158582926,0.5822964657477876,0.7188031117384934,-0.22025710029418066,-0.06509737224263376,-0.04154550095369225,0.45502215330234796,-0.17588537478581476,1.3382173266376536,-0.13923866306022167,0.062176940202805404,0.5092856647520697,0.29976821776564544,0.15299295589296374,0.3565753313145731,-0.5284097842386904,0.20782171225361978,0.6738661413191922,-0.2926084488938094,0.10400506361196568,-0.576455601668132,-0.4778203647100438,-0.3164429426382169,-0.09741053965106172,0.21206104908562728,-0.2609547338814699,0.19067594995526896,0.6924250158948783,0.15205088104140743,0.3500750148388246,0.07790959022381903,-0.8363740532128879,0.33000882050064795, ],
[ 0.2334461482159872,-0.38917112117846864,0.3127688507171416,0.044560140478676846,0.029204320398286698,-0.0422991608349393,0.0953379749776349,0.3301030279858034,0.1682545684881977,0.2797962309126242,-0.01356587786243043,-0.18794393288575287,-0.0070655613866822346,0.2337287706714556,0.168819813399132,0.37814884541524363,-0.25454862489087915,0.2752742716251475,0.42496996553765937,0.3471545827989971,0.0451253853896121,-0.0266607182990817,-0.2761221389915493,0.07856904261990827,-0.27065810485251485,0.1150273393751892,0.1915238173216716,0.30174657495391743,0.5998190579867604,-0.17211707537958398,-0.20565494009503704,0.08883765850188739,-0.054546133905188594,-0.05360405905363107,0.008761296119486452,-0.37579365828635003,-0.1495072789422003,-0.3047612144789028,-0.27885415606106584,0.16090638464604812,0.3028770647757864,0.17852318437017653,-0.06236535517311729,0.1930311370841639,-0.22506168203712393,0.2040534128473887,-0.12030295854391275,-0.252476060217452,-0.24060591708782617,-0.06707572943090533,0.4263830778149955,-0.0683946342230861,0.004616166772632723,0.09392486270029819,0.022986626378006837,0.0534156440833194,0.4030196214963661,-0.038907691369331275,-0.13273834658447423,0.6253492864639728,0.22157600508636155,-0.5958623436102186,-0.1663704187850825,-0.16552255141868005,0.4017949241893409,0.12256393818765085,0.24088853954329267,-0.017145762298349635,-0.015544235050701422,0.375699450801194,0.18219727629125104,0.5449903016261061,0.022232966496760476,-0.2473888560190411,0.09185229802687152,-0.01940674194208694,0.28742703721024104,-0.09317120281905239,-0.17522592238972462,-0.1031571962455638,0.044277518023209714,0.4943066746123028,-0.1741896400530118,-0.4732984054225671,-0.1208682034548481,0.09072180820500184,-0.04738636503335,0.2130973314223422,0.18012471161782428,0.3921857607034533,0.15789174512106344,0.34282103848183154,0.23683761768159517,0.46086301738200625,-0.20904640956064421,0.25143977788073857,0.17277652777567465,-0.2408885395432928,0.11662886662283793,0.41696232929941884,-0.16740670112179615,-0.13254993161416254,-0.5188948282379581,-0.09788157707684073,-0.10391085612680946,0.046444290181792525,0.17409543256785506,0.11804197890017468,-0.18040733407329165,-0.09251175042296193,0.32765363337175324,0.1425359250406733,-0.09844682198777573,-0.04050921861697902,0.33113931032251664,0.2488019682963769,0.07074982135197978,-0.31427617047963535,0.29571729590394835,0.12491912531654585,-0.36806864450357724,0.28497764259619085,0.3896421586042473,0.4331660167462107,0.06698152194574901,-0.121527655850938,-0.04427751802321004,-0.027320170695172244, ],
[ 0.7642111195835707,-0.36147412054267347,-0.16429785411165512,-0.6407993140295192,-0.1896396676185569,0.2445626314643672,0.33961798398653403,-0.05350985156847443,-0.12736851993059525,-0.3433862833927663,-0.0390018988544869,0.20169822571849474,0.08685930131361509,-0.484603303641259,-0.2759337240212378,0.453985870965634,0.06359005248014205,-0.3673149846223296,0.7283180677392244,0.1404633603672461,-0.6448502358912165,-0.12915846214855425,0.1635441942304089,-0.014225330258521076,-0.8482441963425149,-0.012246973070249684,-0.5925650816297662,0.21432202872936695,0.5691074178259801,-0.22817052904726506,0.7995389265169827,-0.6313785655139417,-0.017805214694439603,0.8178151786372017,0.2173366682543524,-0.8800863263251631,0.23938121978080118,-0.15365240828905508,-0.9215376197936999,-0.050966249469269184,0.5527153154088777,-0.4098025604275813,0.14583318702112533,0.13386883640634303,-1.6219702719268174,-0.11502733937518962,0.014884782654611326,-0.593695571451635,0.015921064991324313,-0.5649622884791266,0.10485293097836747,0.6249724565233501,-0.8992104458117826,-0.03476256202247669,-0.7403766258391625,-0.9006235580891196,0.3503576372942922,-0.12473071034623362,0.4505944015000271,0.5876662924016666,-0.6070730343437537,-0.6669889949028208,-0.43665169369697476,-0.21780770568013197,0.32972619804517994,0.5707089450736286,0.16476889153743474,0.6619959981895646,0.43806480597431113,0.18417563347952162,0.5067420626528628,-0.6812143251613418,0.6103702963242045,0.2626504686142747,0.4588846601937347,-0.16929085082491171,0.26952761503064615,-0.07913428753084419,-0.00763080629761728,0.1406517753375574,-0.14865941157579823,0.15751491518043986,0.16363840171556462,-0.5274677093871327,0.21281470896687538,0.8463600466393981,-0.1624137044085399,-0.27810049617982036,-0.6333569227022117,0.3969903424463963,0.2847892276258791,0.3886058762675325,0.014413745228831919,0.5091914572669138,-0.7223829961744104,0.1742838475381663,0.6216751945428962,0.25426600243541214,0.5661869857861519,0.45643526557968356,-0.3583652735325319,-0.2782889111501318,-0.5488528085174914,-0.02571864344752279,-1.0016139821761,0.25643277459399333,0.5886083672532241,0.3357554770951484,-0.29703620069612985,-0.22072813771995983,-0.5109813994848726,0.7865382935654879,0.30391334711249934,-0.07555440309492488,0.16250791189369468,-0.5412220022198746,0.243526349127655,0.43373126165714465,0.2684913326939318,-0.528503991723846,0.5237936174660579,0.6485243278122903,0.36976437923638,-0.0691482941043308,0.447297139519575,-0.029581150338910664,-0.15939906488355615,-0.415549217022081, ],
[ -0.26444041083223424,-0.4021717541299639,0.040886048557602805,-0.38333025709881113,0.2301488862355362,0.06311901505436175,0.18097257898422653,-0.18850917779668747,-0.052944606657539806,-0.22675741676992972,-0.00810184372339615,-0.25643277459399205,0.19934303858959965,0.1089980603252193,-0.22826473653242155,-0.6309075280881625,-0.08619984891752572,-0.06792359679730761,0.13481091125790032,-0.0059350715648134825,0.14884782654610892,-0.15205088104140624,0.26472303328770114,0.13198468670322663,0.11210690733536131,-0.19519790924274713,0.1791826367662656,-0.3131456806577653,-0.056995528519238094,0.15647863284372718,0.12972370705949007,0.28912277194304514,-0.5570488597260445,-0.15252191846718371,-0.5485701860620247,-0.1275569349009075,0.2428668967315633,-0.44588402724223825,0.20848116464970967,-0.1189840537517325,0.3935988729807894,-0.2623678461588071,0.2640635808916103,-0.5285039917238465,0.12454229537592086,0.0833736243628519,-0.08440990669956636,-0.04635008269663675,-0.26321571352520784,-0.004333544317165098,-0.25643277459399394,0.24748306350419608,-0.10466451600805626,-1.229972926193676,-0.6209215346616519,0.3514881271161607,-0.45200751377736326,-0.09863523695808675,0.2860139249329052,-0.3734384711574549,0.33085668786704797,0.5950144762438158,0.01761679972412806,-0.429115094884512,0.10023676420573528,0.6020800376304997,-0.10155566899791575,-0.09910627438386507,0.2639693734064554,-0.18719027300450636,-0.021667721585825018,-0.20546652512472485,0.09373644772998654,-0.10551238337445687,0.5446134716854814,-0.1365066459907047,0.037400371606837526,0.1466810543875264,-0.20028511344115754,0.03259578986389516,0.45426849342110154,-0.49317618479043357,-0.20009669847084505,-0.013660085347586585,-0.2661361455650376,0.38822904632691063,-0.16448626908196673,-0.013000632951495377,-0.7640227046132599,0.5003359536622715,-0.13010053700011118,0.0571839434895497,-0.043241235686497265,0.09722212468075007,-0.19011070504433478,0.06943091655979933,-0.46331241199605516,0.6394804092373382,0.19877779367866522,-0.41479555714083616,-0.3800329951183602,0.04898789228099701,-0.1697618882506905,-0.5330259510113229,0.3196459971335132,0.10833860792913097,0.24183061439485123,-0.2816803806157393,-0.0833736243628522,-0.537359495328488,0.11446209446425563,0.45134806138127254,0.3579884435919104,-0.6779170631808901,-0.396990342446397,-0.573064132202523,-0.1328325540696303,-0.10400506361196608,-0.15939906488355585,0.11964350614782229,-0.21460465118483468,0.08996814832375641,0.06848884170824159,-0.1105995875728695,-0.3186097147967996,0.4359922413008831,0.33321187499594324,0.37287322624652014, ],
[ 0.5066478551677078,-1.1073147805208694,-0.19406741942087763,0.42666570027046236,-0.13000632951495647,-0.5981233232539573,0.14338379240707544,-0.023740286259252803,-0.6879030566074018,0.037023541666215465,-0.05520558630127956,0.3481908651357106,0.27555689408061496,0.7189915267088036,-0.13038315945558088,-0.07131506626291381,-0.18690765054903885,-0.10749074056272973,-0.038813483884175534,-0.8353377708761741,0.12783955735637323,-0.19246589217322924,0.3428210384818308,-0.15751491518044056,0.15958747985386745,-0.6033989424226806,-0.505140535405217,0.5343448558035037,-0.45511636078750384,0.2959999183594158,-0.13791975826804073,-0.014225330258520751,1.1047711784216652,-0.2613315638220938,0.1664646262702392,0.055394001271588555,0.7691099088116714,-0.3181386773710205,-0.3070221941226405,-0.20282871554036386,0.4018891316744973,-0.6211099496319628,0.1954805316982142,-0.16995030322100196,0.31710239503430665,0.20499548769894665,0.5938839864219483,0.6493721951786949,-0.2583169242971084,-0.5408451722792521,0.1221871082470288,0.09938889683933305,0.2836587378040111,0.5503601282799839,0.028921697942819197,0.1212450333954696,-0.2741437818032781,0.618566347532759,-0.0846925291550326,-0.0026378095843608926,0.5611939890728956,0.3197402046186688,-0.13820238072350752,-0.7527178063945693,-0.017899422179595434,-0.019406741942087972,-0.09854102947293107,0.0670757294309059,0.45803679282733284,-0.5460265839628188,-0.01092806827806811,-0.32124752438116055,-0.38643910410895055,-0.9485751680334055,-0.11097641751349216,0.3639235151567234,0.43307180926105493,-0.2791367785165336,-0.32096490192569327,0.26660718299081715,0.6661411275364196,0.3029712722609429,-0.9603511036778759,0.2145104436996792,-0.5571430672111981,-0.5886083672532249,0.479892929383471,-0.41262878498225447,0.5078725524747333,-0.37108328402856117,-0.13829658820866267,-0.4996765012661811,0.29948559531017904,0.22308332484885268,-0.45115964641096246,0.4182812340915994,-0.6586987362091133,0.4647255242733935,0.3632640627606334,-0.09722212468074945,0.521344222852008,0.2815861731305833,-0.27301329198140967,0.4409852380141404,0.7828642016444123,0.34489360315525824,-0.2794194009720006,-0.2751800641399912,-0.624689834067883,-0.10711391062210532,0.5004301611474278,-0.09175809054171588,0.13123102682198162,-0.19830675625288682,0.1510145987046921,-0.021008269189736115,0.1682545684881976,0.06443791984654375,0.37588786577150557,-0.6200736672952505,0.0034856769507635448,-0.4154550095369279,0.18323355862796473,0.08798979113548593,0.10249774384947272,0.36609028731530574,0.10607762828539137,-0.03890769136933095, ],
[ 0.04898789228099784,-0.12039716602906808,-0.24823672338544278,-0.011399105703847723,-0.3506402597497599,-0.12501333280170102,0.32284905162880845,-0.480175551838938,-0.33481340224359135,-0.02270400392254051,-0.5057057803161503,0.24239585930578558,-0.16410943914134363,0.06651048451997053,-0.32934936810455695,-0.01281221798118406,0.29486942853754633,0.015732650021011797,0.29816669051799805,-0.05708973600439434,0.05511137881612301,-0.10268615881978449,0.08563460400659118,0.3119209833507397,0.07018457644104592,-0.7615733099992104,-0.036364089270126354,-0.4879005656217111,-0.24070012457298096,-0.23570712785972533,0.2829050779227638,-0.3508286747200712,-0.17522592238972443,-0.016580517387414007,0.09825840701746377,-0.44861604431175706,-0.019500949427243286,-0.09439590012607707,0.08440990669956669,0.10278036630493949,-0.020066194338178682,0.3096600037070025,0.3163487351530609,-0.17305915023114188,0.17136341549833772,-0.6887509239738026,0.24126536948391583,-0.12689748250481578,0.13179627173291675,-0.09128705311593757,-0.28620233990321686,0.3021234048945402,-0.30429017705312333,0.2980724830328416,-0.013848500317898282,0.2171482532840397,-0.08874345101673103,0.17503750741941276,-0.10409927109712039,0.23589554283003691,0.22336594730431994,0.10428768606743252,0.1979299263122634,-0.10099042408698038,0.5310475938230512,-0.6253492864639724,-0.2996740102804915,-0.12859321723762024,0.17833476939986448,0.2683029177236208,0.17871159934048766,-0.23570712785972603,-0.12322339058374152,0.11813618638533088,-0.10362823367134169,0.2682087102384648,0.284412397685256,-0.686866774270687,0.12199869327671672,0.19114698738104863,0.39585985262452716,-0.4166797068439521,-0.27659317641732833,-0.3545969741263018,-0.2462583661971713,-0.09675108725497164,-0.16674724872570548,-0.05784339588564025,0.23985225720657954,0.10212091390884995,0.21526410358092443,-0.38398970949490063,-0.5332143659816342,-0.42139008110174037,-0.08214892705582705,-0.045219592874767296,0.36279302533485364,-0.1857771607271693,-0.33829907919435487,-0.030617432675624112,-0.4257236254189055,-0.08657667885814946,-0.37852567535586606,-0.14149964270396004,0.015167405110077943,-0.28488343511103564,0.34442256572947955,-0.21686563082857183,-0.7868209160209552,-0.4307166221321608,-0.08516356658081238,0.04088604855760214,-0.2257211344332145,0.24804830841513137,0.17588537478581442,0.24691781859326162,-0.1742838475381667,-0.16533413644836908,-0.6046236397297047,0.2981666905179983,0.0434296506568084,0.14922465648673325,-0.2683029177236203,-0.29957980279533547,-0.014602160199143368,-0.3669381546817081,-0.30212340489454037,0.04861106234037485, ],
[ 0.07319921596602945,-0.08346783184800899,-0.4627471670851218,-0.2795136084571564,-0.6922366009245662,0.04861106234037554,0.2803614758235596,-0.337357004342796,-0.4159260469627048,-0.22506168203712404,0.06660469200512775,-0.88686926525638,0.17315335771629653,0.4810234192053389,-0.1458331870211244,0.5138076240395463,0.44757976197504257,-0.3627930253348524,0.37701835559337393,0.2767815913876393,-0.025624435962367735,-0.5848400678469942,0.07913428753084391,0.34979239238335846,0.4179044041509772,-0.9175809054171582,0.2978840680625303,-0.5106045695442509,0.4525727586882978,-0.5878547073719768,-0.9994472100175186,-0.8680277682252248,0.2274168691660175,-0.4991112563552467,0.07451812075821017,-0.43976054070711335,-0.16938505831006692,-0.4239336832009456,-0.11248373727598306,-0.15808016009137538,-0.36495979749343777,0.9507419401919873,0.46171088474840705,-0.8747164996712844,0.731144292293898,0.04889368479584268,-0.6877146416370905,0.15968168733902324,0.357046368740352,0.4246873430821926,-0.36100308311689594,-0.24145378445422813,-0.3593073483840895,0.012529595525715972,-0.6447560284060596,1.1745789249220864,-0.44447091496490293,0.33547285463968196,0.07291659351056204,-0.5225689201590324,0.1134258121275432,0.5918114217485192,-0.04201653837947199,-0.21601776346216944,1.3518774119852368,-0.8074523552700672,0.09411327767061076,-0.8014230762201001,-0.27970202342746847,0.28723862223993024,-0.1549713130812352,-0.22732266168086057,1.0757552729936883,0.15921064991324474,0.27631055396185905,-0.13132523430713725,1.515798436156269,0.30796426897419854,0.8636000164229037,0.04851685485521889,0.8162136513895535,-0.38832325381206667,-0.23137358354256007,0.1337746289211881,-0.1216218633360932,0.6919539784690989,-0.4095199379721133,0.05727815097470637,0.4566236805499957,0.7083460808862019,-0.7058024787869979,0.14479690468441195,-0.7849367663178396,-0.6629380730411234,-0.15374661577420967,0.47235633057100873,0.6131023133937239,-0.28657916984383985,0.010645445822600397,-0.07046719889651236,-0.08921448844251018,0.6402340691185848,0.3215301468366288,0.3651482124637481,-0.8382582029160037,-0.2978840680625311,0.5082493824153562,0.39086685591127207,-0.39020740351518163,-0.21724246076919493,0.1558191804476361,0.8440048595105039,0.11041117260255628,0.35129971214584976,0.37711256307852936,0.8661436185221103,-0.24710623356357317,-0.30005084022111284,-0.3973671723870194,0.5457439615073513,-0.18794393288575317,0.8868692652563783,0.46067460241169444,-0.07056140638166879,0.5065536476825521,-0.2580343018416424,-0.51776433841609,0.22590954940352656, ],
[ -0.39152630830736157,-0.10080200911666921,-0.20358237542161045,-0.05558241624190274,-0.25247606021745234,0.31465300042025823,-0.21272050148171878,-0.3017465749539177,0.05087204198411352,-0.03900189885448693,-0.11615782919706001,0.29920297285471176,0.11088221002833626,0.8873403026821568,0.45803679282733334,-0.3763589031972837,-0.2481425159002872,-0.6161169529187082,-0.16938505831006637,-0.2145104436996776,0.06801780428246294,0.17334177268660914,0.08516356658081195,-0.04248757580525037,0.019029912001464068,0.11992612860328947,-0.3002392551914258,0.04955313719193212,0.10767915553304014,0.03447993956701061,-0.35535063400754835,0.38587385919801603,-0.08186630460036103,-0.011493313189003125,0.29656516327035054,0.09731633216590597,-0.0860114339472147,-0.1298179145446452,0.36543083491921496,0.15242771098202945,0.12002033608844492,0.24672940362295148,-0.45455111587656954,0.18031312658813625,0.349603977413046,0.04992996713255532,0.2878980746360204,-0.0984468219877761,0.3950119852581258,-0.301840782439073,0.36863388941451086,-0.11022275763224562,-0.3138051330538556,-0.07753276028319558,-0.4322239418946535,0.34979239238335796,-0.20640859997628236,-0.5074015150489539,0.2767815913876399,-0.22374277724494304,0.31568928275697083,-0.18398721850921076,-0.0844099066995663,0.33622651452092833,0.045690630300546535,0.2483309308705981,-0.06575682463872434,-0.398591869694045,-0.19142960983651677,0.4783856096209792,-0.4181870266064443,-0.2835645303188551,-0.07451812075821027,0.28073830576418274,0.9685471548864274,0.1387676256344431,-0.10202670642369376,-0.11917246872204403,0.1711750005280261,0.033349449745140876,-0.03900189885448693,-0.07009036895588991,-0.38248238973240883,-0.356763746284885,-0.3650540049785918,0.01309484043665151,-0.17550854484519232,0.2979782755476869,0.7771175450499109,0.2599184515447578,-0.35553904897785965,0.5291634441199359,-0.2635925434658327,0.21356836884811994,0.9344440452600408,-0.3442341507591684,-0.40386748886276685,0.5748540744204816,0.48686428328499676,0.012435388040561381,0.011304898218691078,-0.06189431774733777,0.04446593299352204,-0.32341429653974474,-0.3407484738084058,0.22364856975978775,-0.13763713581257267,0.35525642652239287,0.26528827819863626,-0.3759820732566612,0.3137109255686995,0.0520967392911387,0.5536573902604345,0.30598591178592666,-0.08243154951129553,-0.107208118107261,0.10268615881978499,-0.0477631949739728,0.2613315638220936,0.2856370949922817,-0.11851301632595267,0.5850284828173057,0.39388149543625584,-0.2591647916635123,0.8292142843410499,-0.24164219942454052,0.625443493949129,-0.03523359944825667, ],
[ 0.5036332156427223,-0.04597325275601324,-0.18577716072716952,-0.052661984202073894,-0.47631304494755167,-0.4130998224080326,-0.3078700614890415,-0.6847942095972613,-0.3870985565050412,0.03956714376542145,-0.27904257103137814,0.19340796702478705,0.5556357474487055,0.060763827925468514,0.013000632951495407,-0.2980724830328428,0.26227363867365167,-0.6336395451576796,0.7609138576031192,-0.5404683423386268,0.13000632951495633,-0.034668354537321054,0.32473320133192385,-0.6870551892409992,-0.8113148621614547,0.7934154399818582,-0.17579116730065955,0.11408526452363217,-0.11568679177128054,-0.3233200890545877,-0.4092373155166457,-0.23655499522612747,0.06943091655979919,0.06622786206450393,0.3294435755897137,-0.019406741942088374,-0.004992996713255174,0.01563844253585757,0.014696367684299461,0.7134332850846147,0.33462498727327944,-0.38888849872300024,-0.2124378790262518,-0.27263646204078507,0.1801247116178229,-0.31568928275697117,-0.3785256753558669,0.051719909350514445,-0.07404708333243198,0.4141361047447469,0.17447226250847847,-0.15921064991324374,0.293550523745366,0.696193315301109,-0.19491528678727915,0.017993629664750616,-0.23683761768159423,0.031276885071714194,-0.19491528678727957,-0.10438189355258855,0.11992612860328952,-0.03513939196310223,0.002260979643737663,0.8867750577712226,0.08959131838313282,-0.31079049352887095,-0.5945434388180366,0.6723588215566991,-0.16684145621086074,0.4660444290655733,0.0924175429378071,-0.3963308900503068,-0.2291126038988219,-0.03400890214123093,-0.5073073075637986,0.3527128244231865,-0.46076880989685004,-0.34479939567010226,0.7820163342780106,-0.16250791189369684,0.04776319497397259,-0.6703804643684288,-0.11154166242442677,-0.4570005104906195,-0.38069244751444786,0.10692549565179442,-0.34291524596698764,-0.2716001797040727,0.3882290463269108,-0.041451293468536834,0.22214124999729523,0.5127713417028319,-0.3268057660053521,0.07536598812461244,0.2986377279437784,-0.336320722006084,0.23533029791910273,0.49506033449354847,0.606601996917975,-0.42638307781499596,-0.20716225985752895,-0.39454094783234744,-0.31597190521243856,0.05285039917238426,0.1400865304266229,0.6619017907044085,-0.317761847430398,-0.1793710517365773,-0.09656267228465962,-0.30494962944921333,0.15195667355624912,-0.10315719624556312,0.41498397211114796,0.3031596872312543,0.5402799273683155,-0.11465050943456712,-0.16589938135930327,0.7899297630310957,0.9372702698147124,0.8570054924619998,-0.09675108725497006,-0.30268864980547494,0.8246923250535726,-0.055205586301278975,0.23448243055270104,0.4201653837947139,0.4398547481922697,-0.48092921172018394, ],
[ -0.5221920902184091,-0.29345631626021074,0.27037548239704806,-0.9224796946452575,0.26802029526815413,-0.08177209711520492,0.3255810686983266,0.06726414440121689,-0.2970362006961289,0.06415529739107695,-0.13377462892118708,-0.4845090961561036,0.12341180555405382,-0.008290258693707097,-0.4944008820974581,-0.030240602735000635,-0.30363072465703267,0.22346015478947728,0.1030629887604083,0.33848749416466656,-0.03391469465607499,-0.28884014948757814,-0.06990195398557818,-0.2224238724527629,0.15581918044763687,-0.22157600508636047,0.1590222349429335,0.20424182781770034,0.24823672338544292,0.31898654473742244,0.30089870758751536,-0.347437205254464,0.010645445822601535,0.21959764789808936,-0.20367658290676574,0.19661102152008364,-0.004521959287476767,0.3496981848982027,-0.13405725137665428,0.2817745881008958,-0.21648880088794947,0.007630806297617155,-0.15186246607109422,0.0063119015054359535,-0.3417847561451178,0.14140543521880453,0.047386365033349365,-0.5023143108505432,-0.015261612595234243,-0.05897388570750792,0.04267599077556198,-0.09411327767061056,-0.05369826653878579,-0.17918263676626625,0.34178475614511855,0.03353786471545307,-0.21413361375905637,0.05115466443958054,-0.8676509382846028,-0.0037682994062310706,-0.11248373727598383,-0.1431953774367642,-0.09279437287842898,0.3935988729807901,-0.10645445822601451,0.2688681626345557,0.1255785777126361,-0.32887833067877825,-0.3308566878670496,0.35308965436381046,0.21319153890749784,-0.20697384488721648,-0.4848859260967264,-0.0662278620645036,0.29797827554768747,-0.11088221002833608,-0.02571864344752372,-0.17287073526083027,-0.5892678196493144,0.03805982400292907,-0.016015272476480297,-0.17494329993425703,-0.36750339959264194,-0.14592739450628156,-0.440137370647738,0.13895604060475458,-0.27866574109075576,0.21055372932313718,0.04050921861697916,0.2774410437837306,-0.4170565367845753,-0.22411960718556664,-0.5248298998027712,0.2656651081392602,-0.10928068278068799,-0.24946142069246827,-0.04616166772632559,0.08177209711520464,0.16863139842882077,-0.38333025709881136,0.11342581212754203,0.333871327392034,0.18210306880609423,-0.44484774490552587,0.05718394348955013,-0.2556791147127486,-0.1956689466685259,-0.06462633481685615,-0.042299160834939495,0.37852567535586656,-0.2590705841783551,-0.008196051208551582,0.1749432999342571,-0.3142761704796349,0.22996047126522462,-0.11606362171190328,-0.505611572830995,-0.2733901219220318,-0.41225195504163087,-0.008196051208550974,-0.5470628662995317,-0.19661102152008333,-0.23043150869100323,-0.5633607612314793,0.062176940202805155,-0.16891402088428753,-0.1752259223897248,-0.31908075222257887, ],
[ 0.6173416502257334,-0.5676943055486445,-0.299674010280492,0.32671155852019645,0.3169139800639955,0.75780501059298,1.4598391899737457,0.18379880353889913,-0.6668947874176663,0.5582735570330677,0.05482875636065505,-0.0987294444432419,0.1942558343911879,-0.042393368320091,0.12454229537592305,-0.007159768871838749,-0.9131531536148366,-0.4788566470467578,0.385497029257392,-0.06858304919339785,0.4924225249091886,-0.09279437287842894,0.5917172142633642,0.6662353350215766,0.22280070239338565,-0.44946391167815797,-0.48224811651236343,0.3098484186773124,-0.1421590951000511,1.5651631583778913,0.8389176553120915,0.10899806032522105,0.580789145985296,0.6914829410433199,-0.734629969244662,0.5111698144551855,0.5227573351293427,0.968735569856737,-0.11804197890017441,-0.9790983932238724,-0.07169189620353827,0.2819630030712075,0.5442366417448599,-0.11954929866266584,-0.5042926680388123,-0.030429017705312752,-0.4905383752060716,0.3242621639061456,-0.0899681483237574,-0.45935569761951267,-0.35949576335440264,-0.3493213549575792,-0.026566510813924596,-0.09844682198777491,0.23193882845349564,-0.5254893521988585,0.7201220165306729,0.4450361598758371,-0.2823398330118289,-0.2375912775628408,0.2121552565707857,0.2825282479821426,0.2449394614049913,1.1571505401682705,-0.3576116136512861,0.053038814142695234,-0.12491912531654506,-0.3696701717512246,0.1998140760153788,0.9135299835554597,0.6381615044451551,-0.09279437287842848,-0.07781538273866197,0.5404683423386282,0.09882365192839858,0.0389076913693319,-0.2843181902000998,0.7413187006907198,-0.887151887711845,0.6250666640085053,0.1919006472622956,-0.08375045430347501,-0.18068995652875922,0.5989711906203578,-0.37909092026680224,-0.13283255406962977,-0.044371725508366655,0.32482740881708105,0.15742070769528513,-0.35544484149270444,-0.3732500561871439,0.45652947306484054,0.3536548992747452,-0.08469252915503371,-1.0197960268111628,0.5480049411510894,1.0760378954491552,-0.8480557813722043,0.16872560591397595,0.2523818527322969,-0.605565714581263,0.11870143129626536,0.553092145349501,-0.7118317578369673,0.5445192642003266,0.38643910410895116,-0.3778662229597755,0.14413745228832145,-0.013000632951495646,0.5675058905783312,-0.10805598547366184,-0.14771733672424053,0.5741946220243903,-0.2528528901580744,0.10570079834476803,1.2800913082965466,0.20235767811458613,0.11380264206816482,0.7430144354235247,0.45587002066875043,-0.4698127284718037,0.7072155910643342,-0.20216926314427378,-0.759029707900004,0.7144695674213275,-0.1286874247227764,0.09241754293780759,-0.8176267636668899, ],
[ 0.10353402618618628,-0.14922465648673394,0.729636972531405,-0.3109789084991832,0.5018432734247651,-0.7337821018782598,-0.0006594523960902765,0.14696367684299527,0.30005084022111417,-0.5033505931872565,-0.16646462627023756,0.4607688098968508,0.23561292037457024,-0.7131506626291458,-0.6595466035755164,0.12774534987121755,0.00706556138668255,-0.008101843723395796,-0.12661486004934971,-0.15657284032888308,-0.29892035039924497,-0.35214757951225245,-0.6986427099151579,-0.33321187499594307,0.7283180677392255,-0.31974020461866937,0.16533413644836817,0.3284072932529995,0.3132398881429198,0.13801396575319716,-0.7140927374807042,-0.2708465198228263,-0.5843690304212151,0.15911644242808806,-0.45728313294608763,-0.2265690017996167,-0.5374537028136435,0.6862073218745972,-0.0483284398849073,-0.18690765054903943,-0.018841497031153127,0.672264614071544,0.17503750741941343,-0.41818702660644363,-0.004521959287476813,0.017993629664751522,0.1830451436576543,0.6768807808441772,0.529634481545714,0.043900688082586195,0.30513804441952486,-0.39331625052532104,0.3628872328200096,0.9265306165069552,-0.16655883375539468,0.18794393288575223,0.012058558099937309,0.10833860792913005,0.23203303593865254,0.014507952713987679,-0.7946401372888833,0.3220011842624073,0.057749188400484285,0.016109479961635313,0.4583194152827996,-0.011399105703846555,0.17711007209284033,-9.420748515541824e-05,-0.5301997264566491,-0.19642260654977273,0.0252476060217441,0.06208273271765,-0.07319921596602971,0.12670906753450437,-0.07894587256053108,-0.35393752173021137,-0.2562443596236835,-0.2704696898822037,0.08789558365032861,0.20235767811458535,-0.006406108990592223,0.13707189090163946,0.3520533720270955,-0.05106045695442479,-0.33245821511469853,-0.16674724872570595,-0.25417179495025566,0.2389101823550217,0.7572397656820437,0.03353786471545319,-0.03429152459669901,-0.35676374628488533,-0.6429660861881009,-0.14263013252582848,0.28196300307120675,-0.11069379505802582,-0.00659452396090436,-0.06528578721294483,-0.3809750699699165,0.034668354537322296,-0.20235767811458502,-0.1996256610450669,0.33434236481781254,-0.28799228212117667,0.2785715336055992,-0.11681728159314901,0.1630731568046305,0.15195667355625012,0.09288858036358473,0.38135189991053936,0.8560634176104438,-0.5639260061424135,0.17522592238972431,-0.3417847561451194,0.1252959552571675,0.5285039917238448,-0.3359438920654598,-0.603493149907835,-0.2802672683384031,0.12416546543529831,-0.5092856647520688,-0.07414129081758755,-0.25643277459399494,-0.0059350715648139075,0.01102227576322441,-0.45068860898518276,0.12501333280170157,0.005746656594501858, ],
[ -0.5741946220243923,0.8594548870760501,0.1736243951420763,-0.05511137881612328,0.44880445928206814,0.241076954513605,-0.02138509913035917,-0.39670771999092985,0.508060967445043,0.5323664986152328,-0.45389166348047894,-0.20320554548098635,0.2050896951841019,-1.0614357352500123,0.21969185538324618,-0.25115715542527295,0.028921697942820825,-0.5489470160026445,-0.1388618331195988,0.5402799273683151,-0.07272817854025049,-0.20895220207548829,-0.32558106869832576,-0.08977973335344384,0.6546478143474149,0.18323355862796503,-0.2339171856417662,0.5294460665754035,0.3346249872732791,0.014131122773364658,0.32388533396552316,0.1284990097524646,0.02958115033891053,-0.8437222370550376,0.5108871919997174,-0.251062947940115,0.1495072789422004,0.8211124406176522,0.04352385814196308,-0.5171048860199968,0.9579017090638253,-0.3549738040669266,-0.289688016853979,-0.8897896972962055,-0.4867700757998416,-0.48903105544357983,-0.39717875741670716,0.5463092064182833,0.6545536068622586,-0.31220360580620776,0.7484784695625587,-0.4180928191212863,-0.18351618108343112,0.6002900954125385,-0.07668489291679276,-0.2940215611711448,-0.16109479961636053,0.3169139800639959,-0.42996296225091535,-0.26745505035721895,-0.3808808624847594,0.17456646999363354,0.6127254834530994,-0.18879180025215558,0.39830924723857714,-0.04295861323102867,-0.4295861323102914,0.10843281541428605,-0.2206339302348023,-0.02647230332877095,0.45954411258982464,-0.33076248038189365,-0.3737210936129229,-0.41715074426973126,0.17164603795380395,0.32426216390614554,0.3236027115100559,0.54640341390344,0.5935071564813235,0.4087662780908671,0.38983057357455897,-0.6414587664256084,0.48205970154205297,0.13123102682198076,0.4159260469627056,0.26029528148538117,0.0006594523960897626,-0.48978471532482654,0.32539265372801296,0.11926667620719957,0.3038191396273435,0.045690630300545265,-0.4157376319923929,-0.8240328726574815,-0.6153632930374611,0.2768757988727956,-0.12680327501966213,0.1425359250406736,0.6601118484864499,-0.31813867737102075,0.9264364090218012,-0.5229457500996544,-0.7010921045292086,-0.1532755783484308,0.40217175412996414,-0.11427367949394468,-0.9527202973802585,0.07093823632229045,-0.07282238602540735,0.15911644242808798,0.2242138146707226,-0.12765114238606226,0.9255885416553973,0.06830042673793019,0.27103493479313817,0.6400456541482714,-0.33839328667950963,-0.18219727629124893,0.0784748351347525,0.20358237542160829,-0.4618050922335623,-0.47866823207644527,0.008572881149174358,0.3295377830748686,-0.35883631095831214,0.34847348759117774,-0.3814461073956953,-0.13085419688135774, ],
[ 0.517764338416087,-0.015638442535857628,-0.19953145355991148,0.5507369582206065,-0.3128630582022981,0.017051554813192763,0.5245472773473039,-0.17409543256785537,0.21526410358092482,0.2801730608532474,-0.15384082325936563,0.2653824856837921,-0.13311517652509733,-0.36524241994890305,0.3025002348351634,-0.1469636768429946,0.06792359679730726,-0.15468869062576832,0.04145129346853664,-0.1919006472622945,-0.04314702820134086,-0.44757976197504334,0.17004451070615675,-0.13292676155478592,0.1842698409646783,-0.01554423505070222,-0.392562590644076,-0.20028511344115812,-0.07432970578789945,0.0197835718827108,0.444470914964902,-0.1710807930428709,-0.038530861428707534,0.030429017705312762,-0.3075874390335754,0.6486185352974474,-0.07922849501599821,0.2168656308285732,0.19340796702478655,0.014319537743676294,0.032407374893583044,0.3211533168960062,-0.16118900710151499,-0.045690630300546875,0.2194092329277785,0.0728223860254071,0.08252575699645054,-0.1716460379538051,0.8370335056089787,0.036269881784970426,-0.14234751007036184,0.20301713051067516,-0.20556073260988061,-0.1553481430218579,0.09976572677995589,-0.1848350858756118,-0.2414537844542273,0.17588537478581495,-0.21498148112545723,0.03909610633964238,-0.03485676950763361,0.4119693325861636,0.3422557935708962,0.4200711763095594,-0.15384082325936502,0.6458865182279305,0.07225714111447268,0.5464976213885973,-0.41215774755647516,-0.12181027830640549,-0.17164603795380506,0.3142761704796333,-0.2749916491696805,0.20358237542160934,0.06245956265827343,0.1493188639718883,0.14149964270396073,-0.3850259918316142,-0.020254609308489754,0.17013871819131274,0.01545002756554568,-0.08921448844250984,0.33716858937248406,0.07659068543163769,-0.05595924618252505,-0.2538891724947885,0.2438089715831213,0.3848375768613029,-0.2810209282196485,0.03193633746780456,0.502785348276322,0.24343214164249838,-0.05548820875674647,-0.020819854219424463,-0.13876762563444206,-0.4441882925094355,0.20433603530285493,-0.06773518182699509,0.24117116199876013,0.4660444290655729,0.007725013782772709,0.44456512245005797,0.0327842048342067,0.44786238443051035,-0.050024174617711484,0.23636658025581617,0.248613553326065,-0.4130998224080324,-0.5076841375044214,-0.287050207269619,0.011587520674159397,-0.37249639630589787,-0.22873577395819908,-0.2607663189111601,-0.040697633587291476,-0.11427367949394392,-0.17174024543896094,0.3241679564209892,-0.13075998939620329,0.16448626908196592,-0.044465932993520876,-0.07753276028319477,0.050212589588023264,-0.043429650656808386,-0.007065561386681799,0.4361806562711949,-0.2774410437837298,-0.18850917779668702, ],
[ -0.34536464058103655,0.32520423875770343,-0.2349534679784791,-0.17343598017176415,-0.018276252120217218,0.047197950063037813,0.0255302284772116,0.025530228477213313,-0.23919280481048838,-0.0580318108559517,0.7704288136038501,0.3848375768613014,-0.0686772566785525,0.1707039631022469,-0.756957143226576,-0.22223545748245135,0.4040559038330788,-0.20914061704579937,-0.3723079813355866,-0.4816828716014288,-0.4584136227679545,-1.0435363130704163,0.24672940362294965,-0.1948210793021239,0.26368675095098837,-0.23938121978080076,0.09232333545265062,-0.058785470737197545,0.15704387775466044,-0.08751875370970587,0.10994013517677806,-0.5280329542980666,-0.9187113952390265,-0.38389550200974587,-0.9110805889414102,0.2092348245309567,-1.010657900751055,-0.1675009086069515,0.4382532209446228,0.3118267758655843,-0.02317504134831956,-0.32633472857957124,-0.6206389122061846,0.08893186598704306,0.5380189477245786,0.23646078774097115,0.5043868755239691,0.04314702820134009,0.2384391449292412,-1.1837170509821944,-0.3079642689741979,0.6099934663835825,-0.9827724851449471,0.26415778837676673,-0.13038315945557907,0.07489495069883385,-0.6411761439701408,-0.5096624946926928,-0.5878547073719784,-0.3429152459669874,-0.0731050084808744,0.21432202872936745,-0.044277518023209374,0.4592614901343585,-0.24691781859326117,0.04107446352791404,-0.5075899300192653,0.5728757172322108,-0.47593621500692795,-0.907783326960958,-0.3800329951183589,0.5435771893487692,0.553280560319812,-0.42449892811188017,-0.66435118531846,0.7366083264329318,-0.6148922556116813,-0.15939906488355565,0.3163487351530605,0.5829559181438773,-0.27423798928843435,0.01959515691239912,-0.12812217981184088,0.14611580947659286,-0.8722671050572339,0.6969469751823539,0.34885031753180046,-0.10749074056272907,-0.6602060559716056,0.4995822937810254,0.44173889789538584,0.01177593564447005,0.36156832802782907,0.250874532969803,-0.36825705947388837,-0.13490511874305566,0.494400882097458,0.3089063438257541,0.4829075689084544,0.10598342080023576,0.3461183004622826,0.6813085326464969,0.544330849230014,-0.10362823367134302,-0.38304763464334296,0.45040598652971525,-0.0929827878487412,0.6374078445639098,0.7696751537226054,0.5820138432923202,-0.3353786471545253,-0.6425892562474779,0.308435306399976,0.576644016638441,1.0270500031681573,-0.6322264328803426,-0.9301105009428741,-0.19256009965838547,-0.16392102417103283,0.4074473732986861,-1.294222431069908,-0.10570079834476981,0.5854053127579263,-0.5320838761597647,-0.2388159748698675,0.774950772891328,-0.04597325275601273,-0.13151364927744982, ],
[ -0.4586020377382683,-0.5075899300192656,-0.09543218246279049,0.26915078509002294,0.12623803010872592,0.06990195398557797,-0.11238952979082871,0.09194650551202792,0.09185229802687185,0.06952512404495577,-0.0018841497031148718,-0.3858738591980168,-0.1568554627843506,0.12699168998997287,0.017428384753816584,-0.12802797232668572,0.07856904261990881,0.020066194338178318,-0.14225330258520638,-0.13330359149540855,-0.20753908979815186,0.35544484149270494,0.04578483778570215,-0.4646313167882368,-0.2437147640979665,0.020254609308490004,-0.54131620970503,-0.43815901345946656,-0.07056140638166859,-0.12049137351422434,-0.07941690998631104,-0.07329342345118557,-0.11954929866266625,-0.03966135125057732,0.16759511609210714,-0.3282188782826878,-0.22506168203712423,0.041922330894315754,0.37466316846448044,-0.2646288258025461,-0.30297127226094317,0.025341813506900648,0.025907058417835686,-0.09985993426511122,0.051343079409892065,-0.271505972218917,-0.11361422709785392,0.060575412955157566,-0.43363705417199033,-0.5251125222582379,-0.4091431080314906,0.3818229373363181,-0.2232717398191643,-0.4204480062501818,-0.23259828084958492,-0.10391085612680953,0.12746272741575146,-0.24267848176125292,-0.18568295324201473,0.1494130714570446,-0.13556457113914688,-0.12397705046498841,0.26896237011971075,-0.17221128286473975,-0.0835620393331645,-0.043147028201340934,0.08610564143237022,0.028356453031885654,0.21686563082857307,-0.310413663588248,0.23721444762221827,-0.1227523531579625,-0.1675009086069518,0.3990629071198234,0.16401523165618784,-0.25483124734634655,0.1951037017575906,-0.29006484679460215,0.30730481657810776,-0.11973771363297843,-0.09204071299718362,-0.4752767626108378,-0.26613614556503873,-0.23090254611678193,-0.27518006413999185,-0.03080584764593561,0.08714192376908327,-0.14950727894220028,-0.017899422179594643,-0.08346783184800921,0.04606746024116923,0.3041959695679675,-0.1817262388654717,0.010174408396822779,-0.44918128922269107,0.13254993161416265,0.16147162955698205,-0.4559642281539068,-0.02920432039828771,0.08977973335344486,-0.3503576372942926,-0.21074214429344854,0.12002033608844524,0.2425842742760966,0.08648247137299359,-0.2713175572486053,0.016957347328036988,0.18134940892484938,0.07875745759022075,0.06726414440121678,-0.297224615666441,-0.3057974968156163,0.10598342080023612,0.12105661842515954,0.06754676685668423,-0.09835261450261922,0.057843395885640435,-0.21413361375905576,-0.26849133269393194,0.32850150073815537,-0.10918647529553252,0.25294709764323103,0.05577083121221316,-0.015732650021012654,-0.1767332421522167,0.21535831106608025,-0.013660085347586198,-0.5563894073299523, ],
[ 0.0791342875308438,0.045313800359923675,-0.02458815362565496,-0.20527811015441333,-0.09816419953230848,-0.10560659085961344,-0.04371227311227572,0.11879563878142077,0.10485293097836715,0.11286056721660769,-0.12350601303920965,0.10673708068148273,0.0660394470941915,-0.3531838618489653,0.23674341019643946,-0.5408451722792512,-0.010928068278068977,-0.08582301897690263,0.15525393553670194,0.03551622190372362,-0.016015272476479773,0.004427751802321389,0.09750474713621729,-0.4268541152407746,-0.10221512139400632,-0.11380264206816462,-0.03692933418105982,0.12369442800952016,-0.3590247259286231,0.1400865304266235,-0.07611964800585899,0.043900688082586965,-0.03382048717091982,-0.11003434266193445,0.0745181207582105,0.32652314354988426,-0.022327173981916543,0.09910627438386496,-0.14394903731801023,0.20461865775832352,0.09062760071984668,0.22148179760120534,-0.15478289811092297,0.01658051738741542,0.058220225826263544,-0.12284656064311858,-0.018276252120218085,-0.10240353636431772,-0.09571480491825819,-0.042487575805250394,0.4564352655796853,0.00602927904996904,-0.08798979113548498,0.49440088209745875,-0.3722137738504304,-0.32953778307486825,0.26858554017908837,-0.26698401293144025,-0.2523818527322964,0.02967535782406719,0.1207739959696919,-0.037871409032618014,-0.6612423383083199,0.22195283502698382,0.08054739980817972,-0.03579884435919139,0.11201269985020541,0.15723229272497324,0.031559507527181396,0.053792474023942466,-0.002072564673427256,-0.16222528943822845,0.12510754028685675,0.10447610103774409,-0.26462882580254615,0.1943500418763449,0.05482875636065591,0.08139526717458144,-0.3588363109583119,-0.36637290977077297,-0.25096874045495987,-0.05991596055906661,-0.583238540599346,0.05454613390518788,0.011681728159315067,-0.3643945525825023,-0.13970970048600082,-0.10381664864165391,-0.3529954468786543,0.2375912775628409,0.07602544052070324,-0.17258811280536282,0.048893684795842884,0.09100443066046948,-0.07725013782772766,-0.05548820875674602,-0.008478673664019143,-0.1551597280515466,0.04729215754819411,-0.4055632235955713,-0.0467269126372601,-0.04248757580525061,-0.0308058476459355,-0.0667931069754384,0.12425967292045498,0.10438189355258849,-0.2602010740002246,0.09505535252216754,0.03429152459669849,-0.17202286789442886,-0.025624435962368068,-0.014978990139766678,0.0430528207161842,-0.42694832272593003,-0.23146779102771653,-0.1583627825468419,0.07979373992693391,0.024776568595966306,-0.0739528758472761,-0.08968552586828898,0.24889617578153347,-0.2889343569727334,0.09204071299718308,-0.14479690468441175,-0.1698560957358456,-0.3251100312725479,0.09335961778936423,0.2519108153065182, ],
[ -0.46001515001560345,-0.15591338793279133,-0.18907442270762234,0.01893570451630933,0.061894317747338244,-0.031182677586558443,-0.06782938931215172,-0.038907691369330887,-0.08912028095735433,-0.07414129081758769,-0.09769316210652901,-0.04908209976615373,-0.3794677502074249,0.058879678222353626,-0.22515588952227983,-0.1301947444852677,0.04597325275601322,-0.01431953774367689,0.05680711354892656,-0.06406108990592085,0.0024493946140499694,-0.023646078774097128,0.23617816528550487,-0.03419731711154318,-0.08827241359095271,0.1640152316561885,0.07188031117384945,-0.08356203933316379,-0.5471570737846873,-0.5146554914059486,-0.015261612595234337,-0.34781403519508725,-0.2714117647337609,-0.11700569656346102,-0.022798211407695237,-0.008572881149174446,-0.411498295160385,0.020537231763957026,-0.2534181350690103,0.0281680380615734,-0.2095174469864235,-0.08836662107610835,0.17635641221159307,-0.08440990669956623,-0.08968552586828939,-0.33613230703577224,0.21290891645203022,0.06858304919339782,-0.24927300572215588,-0.06490895727232297,-0.12209290076187215,-0.2064085999762839,-0.10513555343383485,-0.06594523960903567,0.08327941687769715,-0.06858304919339803,0.0697135390152672,-0.11267215224629616,0.053886681509097784,-0.23203303593865113,0.2042418278176999,-0.046726912637260254,0.12463650286107769,-0.15723229272497263,0.15704387775466166,-0.11559258428612479,-0.07800379770897453,-0.11276635973145174,-0.030240602735000968,0.35977838580987015,-0.2426784817612526,0.03589305184434698,-0.016486309902258908,0.0077250137827728944,-0.18624819815294902,0.01610947996163605,-0.15327557834843122,-0.5720278498658093,0.12718010496028387,0.11644045165252663,-0.049835759647400675,-0.36599607983014987,-0.10108463157213655,-0.24616415871201577,-0.21545251855123598,-0.06001016804422293,-0.08902607347219861,-0.024682361110810666,-0.1722112828647395,0.0742354983027431,0.047857402459129,0.16024693224995804,0.029015905427976475,-0.1797478816772012,-0.2168656308285729,-0.07838062764959666,0.16486309902259033,-0.3276536333717535,-0.015826857506168693,-0.11615782919705936,0.08704771628392816,0.10579500582992461,0.016863139842882093,0.005181411683567325,-0.16486309902259028,-0.1720228678944284,-0.10334561121587564,-0.07536598812461198,0.2700928599415812,-0.21818453562075354,0.06161169529187071,0.1904875349849583,0.003862506891386587,-0.33773383428341985,-0.1321731016735391,0.2543602099205682,0.1705155481319362,0.014131122773364532,0.24541049883077035,0.12642644507903764,-0.04022659616151193,-0.04578483778570214,-0.14310116995160793,0.11493313189003442,-0.06933670907464341,-0.13339779898056492,-0.17381281011238794,-0.11841880884079758, ],
[ 0.1392386630602231,0.0056524491093455885,0.2420190293651616,-0.19246589217322896,-0.2801730608532486,0.07838062764959756,-0.44682610209379686,0.17955946670688952,0.15223929601171765,0.13594140107977026,-0.4481450068859777,-0.14856520409064203,0.39538881519874813,-0.8849851155532629,0.0971279171955953,-0.0011304898218696706,0.016580517387415363,-0.43853584340009016,0.12991212202980096,0.24183061439485057,-0.15384082325936527,-0.048328439884908043,-0.15760912266559562,-0.024399738655342958,-0.05228515426145021,0.1379197582680407,-0.3800329951183592,0.045125385389611306,0.12388284297983138,0.09646846479950442,0.015544235050701618,-0.9684529474012715,0.3450820181255696,-0.07206872614416111,0.1976473038567962,0.050872041984113936,0.3240737489358341,-0.03740037160683967,0.0808300222636476,0.20735067482784078,-0.38540282177223767,-0.1309484043665142,-0.1964226065497717,0.05171990935051604,-0.030617432675623425,-0.02468236111081086,-0.03702354166621579,-0.12774534987121897,-0.35186495705678505,0.05266198420207357,-0.11728831901892858,-0.016863139842881472,-0.07687330788710485,-0.2862965473883724,-0.10767915553304072,-0.16646462627023795,0.026095473388146974,0.21008269189735754,-0.03005218776468865,-0.05803181085595158,-0.11059958757286834,-0.02958115033891026,-0.17965367419204498,0.22807632156210925,-0.11493313189003433,-0.04324123568649581,0.18700185803419542,-0.06905408661917602,-0.23391718564176614,0.01695734732803761,-0.1399923229414683,-0.38643910410895066,-0.5974638708578661,-0.5212500153668518,-0.27320170695172086,-0.10174408396822653,-0.10334561121587513,0.04719795006303813,-0.23646078774097204,0.15591338793279216,0.22411960718556678,-0.210271106867669,-0.24663519613779433,0.23730865510737376,-0.12369442800952052,-0.168160361003042,0.39152630830736274,-0.8646362987596179,0.3332118749959431,0.1902049125294912,-0.09317120281905207,-0.10353402618618655,-0.3641119301270348,-0.8891302449001167,-0.25379496500963244,-0.14517373462503524,-0.09656267228465985,0.2146046511848341,0.2859197174477493,0.3105078710734044,-0.0683946342230867,0.03768299406230681,0.1813494089248486,-0.13349200646572051,-0.025907058417835548,0.48856001801780186,-0.06773518182699474,0.011399105703847279,-0.1180419789001752,-0.022704003922540253,-0.12312918309858562,0.1861539906677932,-0.05058941952864691,-0.6078266942250008,0.21535831106607967,-0.1283105947821532,-0.10777336301819554,-0.051814116835670596,0.06481474978716702,0.07640227046132653,0.013660085347586193,-0.2028287155403632,-0.06151748780671523,0.13264413909931844,-0.24541049883076982,-0.2069738448872171,0.1774869020334629,-0.050777834498957564, ],
])

weights_dense1_b = np.array([ -0.07046961309866395,-0.11197911122527425,-0.28979421715368386,-0.03677934601450818,-0.16874093657049946,-0.20841629408221302,-0.12375622464724274,-0.07529629892733958,-0.02027208048043758,-0.0002896011497205368,-0.12983784879137403,-0.03349719965100876,-0.10773162769603971,0.10290494186736408,0.017569136416379236,-0.04170256555975731,-0.18476553352170247,-0.21835926688928478,-0.14663471547516516,-0.019403277031275968,-0.10454601504911379,-0.15512968253363424,-0.039289222645419494,-0.20330000710381685,-0.11738499935339093,-0.02712597435715695,0.06815280390089966,-0.19326050058017155,-0.019692878180996506,-0.10589748708114297,-0.19229516341443645,-0.10512521734855486,-0.043536706174654036,-0.33313785589519085,-0.021333951362746215,0.10917963344464239,-0.029828918421215295,-0.11497165643905312,-0.20638908603416922,0.008205365908748544,-0.028091311522892074,-0.07761310812510387,-0.16922360515336704,-0.10638015566401053,-0.0012549383154556596,-0.14885499095635593,0.019017142164981918,-0.2115053730125654,-0.03407640195044983,-0.10802122884576024,-0.1895922193503781,-0.12414235951353678,-0.0660290621362824,-0.09856092462155602,-0.10358067788337867,-0.1385258832829901,-0.04730152112102102,-0.11757806678653795,0.033111064784714705,-0.05705142649494575,-0.09016249127966046,-0.1974114503928326,0.0032821463634994173,0.005888556710984249,-0.029056648688627194,-0.09643718285693877,-0.03967535751171354,0.025581434891980753,-0.055217285880049025,-0.14489710857684193,-0.2859328684907434,-0.12954824764165349,-0.053190077832005266,0.06226424718991542,0.017665670132952747,0.01785873756609977,-0.2769552328494067,-0.12066714571689034,0.1439317714111068,-0.10473908248226081,-0.20059706303975852,-0.15763955916454556,-0.16536225649042655,-0.07027654566551694,-0.18215912317421767,-0.06023703914187166,0.020851282779878653,-0.0055024218446902,0.003475213796646442,-0.04150949812661028,-0.04672231882157994,-0.0157349958014825,-0.2141117833600502,-0.03127692416981798,-0.19683224809339153,-0.1816764545913501,-0.02847744638918612,-0.017472602699805724,-0.07201415256384015,-0.012645916871130109,0.11574392617164123,-0.1777185722118361,-0.11632312847108228,-0.019017142164981918,-0.08437046828524973,0.10956576831093644,-0.09373423879288043,-0.059271701976136536,0.03417293566702335,-0.14267683309565113,-0.11400631927331799,-0.049039128019344236,-0.11217217865842126,0.00038613486629404914,-0.1881442136017754,-0.04585351537241833,-0.022106221095334312,-0.12114981429975791,0.007915764759028008,-0.05676182534522522,-0.035427873982479006,-0.08224672652063246,-0.05772716251096034,-0.06091277515788625,-0.180711117425615,-0.15368167678503156,-0.011777113421968499,0.011197911122527424, ])

weights_dense2_w = np.array([
[ -0.07769168470398718,0.823590199552903,0.17551125267921683,0.43931293052892617,-0.8451766250901812,-0.17414994656425586,-0.3829159629090116,-0.607142527273711,-0.047062297117309304,0.2340474156226498,-0.3152396017651133,0.08449821527880433,0.22967178882455322,0.46896995660491714,-0.22947731652241576,-0.1528552294801833,-0.17706703109632105,0.2471742960169397,-0.7583447421857248,-0.36249637118455896,-0.30804412658601965,-0.009042962049399604,0.024211801616136893,-0.2592315787494733,-0.5135041137944356,-0.08352585376811418,-0.9283135342540212,-0.22772706580317603,0.14283990592009527,-0.3918616888073438,0.0679680695971049,0.2030290834316959,-0.18640170159892666,0.1676351244426457,-0.3591903420482197,0.9733338721988843,-0.04832636708120299,-0.02110024478193374,-0.4229772571493666,-0.03208792985270998,-0.12475398182129406,-0.5065031109174813,-0.3645383303570051,-0.19281928756946887,0.021100244781933387,0.5017385395151114,-0.17473336347066995,-0.18134542174334767,0.08663741060231792,-0.25893987029626725,-0.4399935835864096,0.3232129661527551,-0.04929872859189153,-0.3474247677688922,-0.07759444855291757,0.3155313102183196,0.4423272512120605,-0.27858157281216933,-0.09723615106882057,-0.24338208612525522,-0.08459545142987372,0.3001679983494473,-0.3508280330562996,-0.05056279855578667, ],
[ 0.16977431976615867,0.07778892085505548,-0.003208792985272336,0.10083388865836554,-0.08527610448735436,0.07312158560375263,-0.545397571345009,0.09587484495385619,-0.3541340621926415,0.0755524893804734,0.05824445449022393,-0.18504039548396373,0.40576645841018366,0.5960576060518656,0.009723615106881633,0.23501977713333852,-0.3243797999655817,0.028198483809956685,-0.5339237055188895,0.0941245942346175,0.3530644645308837,-0.5265337580376593,-0.5196299913117719,-0.0600919413605307,-0.39050038269237974,0.32019864546962395,0.04074194729783557,0.11152986527593634,-0.2667187623817721,0.1406034744455127,0.0884848974726254,0.19826451202932277,-0.17094115357898412,-0.33711773575559684,0.11775297894434016,-0.15606402246545506,0.4454388080462627,0.24834112982976422,-0.019447230213765442,0.0786640462146753,0.19943134584214967,0.0018474868703086474,0.2352142494354752,-0.03763039046363291,0.4329925807094535,-0.067579124992829,0.3359509019427729,-0.676277430683641,-0.5551211864518918,-0.23093585878844725,-0.20905772479796295,0.29443106543638664,-0.35325893683302095,0.22918560806920724,0.2782898643589615,0.25864816184306005,-0.07166304333772072,0.2572868557280975,-0.5884731862684975,0.475873723330804,-0.503683262536486,0.5265337580376586,0.35073079690523373,-0.8715276220298306, ],
[ 0.1331162908132139,0.10520951545646179,0.10443162624791394,0.1393394044816191,0.05211857697288652,-0.3342978873746017,-0.0312128044930913,0.026545469241787783,0.3188373393546608,-0.15732809242934834,-0.2140167685024719,-0.5972244398646911,-0.09081856509827768,0.4835553792652405,0.10666805772249476,0.03597737589546316,-0.9663328693219297,-0.2828599634591965,-0.10025047175195438,-0.8600537562037113,0.286263228746605,0.2533001735342758,-0.2947227738895912,-0.47674884869042317,-0.2568006749727539,-0.0159467287752865,-0.23424188792478645,-0.03704697355722111,0.013807533451772873,0.14128412750299502,-0.38145742064297994,-0.14488186509254156,-0.04890978398761704,-0.1585921623932458,0.20750194638086186,-0.29316699547249037,0.43347876146479825,-0.07749721240185026,-0.31630919942686997,-0.3602599397099764,0.06825977805031153,-0.04404797643417585,0.03957511348500967,0.06553716582038353,-0.7811952376868982,0.017988687947731927,0.03918616888073424,-0.2945283015874557,-0.1629677891913428,0.7206171155710235,-0.4001267616481932,-0.41160062747431386,-0.5423832506618762,-0.4177265049916504,0.36628858107624473,0.1720107512407421,0.33877075032376686,-0.7418145965040254,-0.4276445924006693,0.5044611517450359,0.5281867726058267,0.5451058628918034,-0.17152457048539838,0.18183160249869273, ],
[ -0.21508636616423008,0.28198483809957753,-0.7300490222246993,0.08187283919994817,0.11687785358471817,0.2298662611266898,0.01584949262421727,-0.3290471352168872,-0.5546350056965486,0.35092526920737066,-0.04074194729783527,0.6248395067682359,0.23677002785257567,-0.03996405808928529,-0.8491633072840009,-0.17434441886639318,-0.13544995843886495,0.06300902589259573,-0.48637522764623664,0.24678535141266608,0.679777932122117,-0.5582327432860948,-0.2317137479969963,-0.10725147462890611,0.020419591724451232,0.2506747974554175,0.7890713659234715,0.42219936794081514,-0.46245513448330583,0.16812130519798943,-0.20361250033810746,-0.12028111887213012,0.1580087454868317,0.14050623829444603,-0.2374506809100591,-0.011473865826120875,0.4152956012149284,0.1752195442260145,-0.7808062930826231,0.4423272512120603,-0.23920093162929865,0.2709971530288017,-0.15499442480369877,-0.075746961682612,-0.3320614559000199,-0.10238966707546805,-0.4189905749555442,0.15149392336522005,-0.29093056399790845,0.08498439603414845,0.2898609663361521,-0.26399615015184413,-0.3543285344947789,-0.10812659998852751,-0.3899169657859676,0.3493694907902689,0.024114565465066455,0.18260949170724292,-0.1838735616711382,0.07273264099947704,-0.5053362771046555,-0.574471180514586,0.3359509019427733,-0.13156051239611233, ],
[ -0.3889446042752788,0.18377632552006845,0.3633714965441781,0.6974749116166429,-0.20507104260414022,-0.2392009316292968,0.14964643649491405,0.5068920555217578,0.19573637210153344,-0.4208380618258532,0.2691496661584932,-0.1794006987219727,-0.07739997625078056,0.2647740393603956,-0.05843892679236188,0.04385350413203782,-0.18008135177945356,-0.8343834123215426,0.30444638899647425,-0.6721935123387502,0.2663298177774972,-0.5481201835749363,-0.3711503886296852,-0.12728212174908607,-0.4729566387987385,-0.05532736995815796,0.1692881390108144,-0.21304440699178354,-0.4939596474296041,0.01089044891970758,-0.21975370141553355,-0.06543992966931642,-0.17901175411769565,-0.4692616650581237,0.20147330501459507,0.026837177694994132,0.036366320499737724,0.10511227930539353,-0.07205198794199541,0.2823737827038522,-0.11979493811678651,0.20429315339559007,0.0238228570118606,-0.15304970178232222,-0.700975413055121,-0.33449235967673885,0.4436885573270232,0.15781427318469468,-0.4455360441973314,0.3660941087741072,0.12524016257664047,-0.33974311183445555,-0.26380167784970787,0.08624846599804294,0.20458486184879646,0.7430786664679212,-0.30648834816891884,-0.34343808557507133,-0.16316226149347968,-0.28558257568912276,-0.3835966159664931,0.02635099693965022,-0.6518711567653676,0.08478992373201086, ],
[ 0.16238437228492938,-0.2628293163390197,-0.11172433757807337,-0.28373508881881526,0.025378635428961925,-0.01604396492635498,0.2215039521347718,-0.4185043942001994,0.2750810713736918,-0.05124345161326707,-0.055813550713503274,-0.05950852445411692,-0.49502924509136204,0.057369329130604226,-0.13836704297092997,0.15518889710583664,0.15421653559514928,-0.1333107631153529,-0.42025464491943865,-0.48161065624386495,0.05260475772823191,-0.7540663515386966,0.10443162624791232,-0.14449292048826576,-0.2505775613043473,0.45360664473604373,-0.2676911238924607,-0.1619954276806545,0.001653014568170076,-0.30133483216227364,0.055910786864570544,0.08673464675338735,-0.035005014384774484,-0.32224060464206844,0.29491724619172965,0.008459545142986564,-0.258745397994129,0.013418588847496821,0.1626760807381344,0.237547917061127,0.37163656938502776,-0.5301314956272047,0.502613664874728,0.20244566652528295,0.45827397998734815,-0.4048913330505649,-0.9097414293998763,-0.028101247658888273,-0.4032383184823959,-0.4193795195598191,0.11882257660609744,-0.2938476485299718,-0.34100718179835005,-0.30405744439219945,-0.48141618394172536,0.386708172800696,0.06670399963320892,-0.2383258062696765,-0.27226122299269623,0.4208380618258523,0.08965173128545173,0.27790091975468706,-0.20487657030200265,0.12533739872770722, ],
[ -0.08644293830018167,-0.07555248938047253,-0.2603984125623012,-0.44728629491657024,0.047548477872652685,-0.03840827967218395,0.34110441794941937,-0.5124345161326808,-0.6097679033525691,-0.36512174726341834,0.4856945745887537,-0.11775297894434064,-0.397695857871473,-0.12582357948305237,-0.32000417316748503,0.5870146440024641,0.6596500488508727,0.05980023290732386,-0.239200931629298,0.16170371922744728,-0.4137398227978273,-0.3890418404263489,-0.34032652874086894,-0.218489631451637,-0.11133539297379869,0.39254234186482373,-0.031115568342021768,-0.13943664063268657,0.23151927569485883,-0.06495374891397213,0.2368672640036447,0.213530587747128,0.05727209297953381,0.12319820340419463,0.33458959582780906,-0.24795218522549073,-0.08906831437903787,0.04365903182989959,-0.25446700734710037,-0.3831104352111501,0.01964170251589992,-0.2169338530345366,-0.3064883481689193,0.05347988308785151,0.23949264008250332,-0.5496759619920358,-0.25971775950481674,-0.4204491172215771,0.05406329999426441,-0.3975013855693347,-0.014877131113530083,-0.0478401863258584,0.42015740876837016,-0.6790000429135684,0.08926278668117783,0.2433820861252542,0.2907360916957711,0.3730951116510603,0.09402735808354921,0.4299782600263201,-1.1363988975412949,-0.08887384207690037,-0.16744065214050682,-0.1821233109518986, ],
[ 0.3430491409707956,-0.08284520071063538,-0.03617184819760197,-0.306002167413576,-0.7695268995586391,-0.40508580535270217,0.2846102141784347,-0.35277275607767894,0.06330073434580068,0.37027526327006594,-0.12300373110205744,-0.37640114078739995,0.15616125861652502,0.24182630770815386,-0.06884319495672428,0.01954446636483186,0.3271996483465788,-0.06446756815862877,-0.011668338128258711,0.21323887929392155,0.18124818559227956,0.29832051147913835,-0.12990749782794378,-0.31737879708862776,0.17726150339845823,-0.23142203954379054,-0.2071130017765866,0.06952384801420694,0.0009723615106880662,-0.5987802182817924,-0.005542460610922166,0.13671402840276123,-0.229380080371345,-0.7057399844574932,0.41393429509996604,-0.15742532858041977,0.025670343882168902,0.012057282732534157,0.05649420377098268,0.2814986573442334,-0.25621725806633966,0.3044463889964749,0.18922154997992224,-0.32282402154848144,0.03500501438477557,-0.00048618075534405565,-0.06145324747549469,-0.20896048864689407,0.25242504817465605,-0.06193942823083843,-0.4058636945612534,-0.1583004539400389,0.17901175411769657,0.014877131113529011,0.11843363200182207,-0.1995285819932182,0.04754847787265288,0.02110024478193361,-0.3218516600377941,-0.43046444078166457,0.2660381093242921,-0.1827067278583123,-0.3984737470800221,0.1625788445870661, ],
[ 0.3504390884520262,-0.18173436634762377,0.07633037858902371,-0.2908333278468395,-0.19593084440367137,0.005542460610923145,-0.09820851257950812,0.14760447732246817,-0.21216928163216472,0.04647888021089447,0.1988479289357357,0.07623314243795462,-0.06291178974152684,0.10102836096050383,-0.28052629583354416,-0.3099888496073984,-0.5173935598371894,-0.10034770790302151,-0.10180625016905401,0.34781371237316916,-0.020516827875521195,0.5212830058799418,0.2559255496131333,0.2736225291076572,0.04774295017479151,-0.28636046489767425,-0.10997408685883495,0.2788732812653749,0.16734341598943855,0.0502710901025802,-0.5327568717060627,-0.21216928163216398,-0.13029644243221722,-0.21391953235140354,0.2185868676027063,0.21343335159605914,0.31407276795228817,-0.09422183038568666,-0.23142203954379098,-0.34820265697744385,0.2731363483523157,0.4101420852082808,0.13583890304314097,-0.017891451796663314,0.14283990592009532,-0.23103309493951574,0.057661037583810464,0.29880669223448164,-0.06116153902228785,-0.49113979904860866,-0.05328541078571285,-0.1783311010602145,0.03276858291019188,0.3051270420539573,0.19972305429535556,0.022364314745828444,-0.3643438580548686,0.5743739443635177,0.32010140931855396,0.023336676256515625,0.14079794674765142,0.11862810430395972,0.4437857934780943,-0.03889446042752797, ],
[ 0.2674966515903229,-0.5521068657687588,0.02926808147171585,-0.5087395423920648,0.47178980498591344,0.0874152998108686,0.048423603232272905,0.44534157189519497,-0.01273793579001526,-0.11162710142700594,0.13146327624504478,-0.11551654746975817,-0.33167251129574415,-0.0756497255315419,-0.18085924098800332,-0.061453247475494646,-0.15839769009110785,0.2810124765888886,0.08021982463177627,0.16598210987447534,-0.026156524637512807,0.07730274009971184,-0.13399141617283347,-0.14371503127971552,-0.02012788327124588,0.1554806055590424,0.1993341096910795,0.022267078594759883,-0.14711829656712402,-0.15246628487590985,-0.08634570214911216,-0.02985149837812807,0.16189819152958468,-0.35607878521401803,-0.02275325935010366,-0.144395684337197,0.28062353198461315,0.08420650682559747,0.02353114855865453,-0.24250696076563674,-0.059897469058393465,0.29452830158745436,-0.3841800328729064,0.07302434945268368,-0.3130031702905297,0.088193189019418,-0.18377632552006834,0.26584363702215286,0.0741911832655087,-0.08527610448735462,0.6432171393202416,-0.6675261770874464,0.21994817371767056,0.3072662373774711,0.12932408092152992,-0.1438122674307848,-0.5909040900452167,0.11726679818899755,0.1759974334345634,-0.4091697236975936,-0.2048765703020021,0.0886793697747629,0.06359244279900719,-0.07915022697001903, ],
[ -0.5112676823198541,0.1722052235428792,-0.46877548430277854,-0.09548590034958145,-0.09674997031347564,-0.1490630195885012,0.026642705392857416,0.5956686614475893,0.04861807553440942,-0.0035005014384766695,0.2963757884577629,0.03549119514011986,-0.14118689135192616,-0.14789618577567407,-0.005834169064129757,-0.03169898524843408,0.0016530145681698805,0.295306190796005,-0.30746070967960815,0.3830131990600803,0.37309511165106085,0.16967708361508882,-0.9378426770587652,0.1649125122127174,-0.045603754851276185,-0.3629825519399029,-0.19670873361222307,-0.5875008247578075,0.461774481425825,-0.00427839064702789,0.03782486276577127,0.07953917157429394,-0.10277861167974216,-0.11172433757807361,-0.35423129834371087,-0.3025016659750974,0.2142112408046103,-0.5330485801592708,-0.4384378051693081,-0.06855148650351853,0.05250752157716489,-0.16870472210440235,-0.11882257660609713,-0.3442159747836213,-0.225198925875387,0.20370973648917665,-0.02110024478193377,-0.17133009818326006,0.1763863780388384,-0.3039602082411302,-0.03889446042752734,-0.009918087409018547,-0.10258413937760442,-0.14497910124360966,-0.05980023290732434,-0.07749721240184791,0.24843836598083469,0.3190318116567966,-0.6637339671957634,-0.08265072840849674,-0.41947675571088766,-0.26671876238177294,0.26487127551146594,0.14002005753910057, ],
[ 0.44271619581633537,-0.46867824815171116,-1.1391215097712202,0.41762926884058094,0.3362426103959787,0.3715393332339602,0.2136278238981975,-0.04715953326837836,-0.041811544959592106,0.10307032013294853,-0.1429371420711657,0.14896578343743208,-0.1488685472863627,-0.13574166689207123,0.1249484541234334,0.10443162624791177,-0.16831577750012605,-0.13875598757520627,-0.2527167566278633,-0.5311038571378948,-0.3360481380938408,-0.06223113668404448,-0.12271202264885098,0.0716630433377186,-0.39827927477788455,-0.10375097319042854,-0.29054161939363343,0.11007132300990416,0.17016326437043489,0.10083388865836551,0.057174856828465764,-0.6762774306836415,0.0002917084532066544,0.31601749097366366,-0.11464142211013992,0.6944605909335101,-0.16841301365119474,-0.30483533360074944,-0.8655962168146327,0.01750250719238753,-0.44932825408901506,0.1142524775058636,0.037824862765771614,0.3343951235256702,-0.7501769054959453,0.020711300177657415,-0.24377103072953143,-0.6644146202532439,-0.5280895364547595,0.032865819061260855,-0.13554719458993345,-0.029851498378126694,-0.24542404529770243,0.44466091883771336,-0.7810980015358283,0.42171318718547113,-0.45380111703818193,0.16092583001889657,0.156064022465454,0.3905003826923803,0.5286729533611741,0.03801933506790896,0.19165245375664586,0.23249163720554794, ],
[ -0.3784430999598458,-0.23774238936326467,0.006612058272679302,0.2590371064473347,-0.014099241904980325,-0.23219992875234213,-0.05834169064129083,0.2248099812711105,-0.8248542695167985,-0.30600216741357533,0.03636632049973904,-0.1716218066364665,-0.3903059103902421,0.036658028952945454,0.15557784171011171,0.19388888523122738,-0.44728629491657107,0.15314693793339101,-0.0022364314745843598,0.3522865753223338,0.36249637118456013,-0.3020154852197533,-0.5833196702618477,-0.01682185413490455,-0.0616477197776318,0.16530145681699368,0.11347458829731329,0.2996818175941028,0.018085924098799288,-0.30551598665823143,-0.0423949618660067,0.1547999525015603,-0.11794745124647915,0.391083799598792,0.19427782983550082,0.3291443713679549,0.03704697355721977,-0.15207734027163436,-0.629020661264196,-0.4272556477963934,0.04764571402372106,-0.3373122080577364,-0.04103365575104129,0.20370973648917765,-0.19670873361222188,-0.5083505977877897,0.10589016851394485,-0.05766103758380916,0.03840827967218425,0.1981672758782535,0.709629430500246,-0.06913490340993131,-0.2226707859475965,0.18834642462030413,0.07934469927215664,-0.1962225528568775,-0.5828334895065042,-0.7259651038798072,0.21003008630865078,0.04220048956386745,0.197972803576116,0.06505098506503992,-0.016043964926354844,0.5168101429307749, ],
[ -0.16403738685309954,0.48481944922913606,0.49045914599112583,-0.2712888614820084,-0.7517326839130472,-0.05474395305174469,-0.08128942229353353,-0.590612381592013,0.08838766132155648,0.18581828469251693,-0.5650392738609102,-0.21615596382598512,-0.3015293044644112,-0.10277861167974166,-0.39088932729665465,-0.021003008630865454,0.5893483116281156,-0.5688314837525937,-0.24727153216800826,-0.47480412566904706,0.16238437228492789,0.2991956368387598,0.07107962643130795,0.24464615608915058,0.5284784810590338,-0.11512760286548229,0.20273737497848887,-0.14070071059658124,0.3071690012264012,0.37513707082350656,-0.018085924098798674,0.4372709713564821,-0.07059344567596292,0.17784492030487004,-0.15285522948018604,-0.044923101793794405,-0.44038252819068213,-0.09538866419851276,-0.4643998575046837,0.45846845228948474,0.4830691985098977,-0.5678591222419079,0.13613061149634803,0.4832636708120331,0.19836174818039193,-0.0225587870479678,-0.4112116828700394,0.4398963474353395,0.22704641274569498,0.6478844745715454,0.21897581220698195,-0.5362573731445417,-0.07633037858902406,-0.23783962551433177,-0.44582775265053903,-0.863554257642186,-0.5200189359160478,0.052410285426094154,-0.8509135580032418,0.4321174553498348,-0.9844187934207294,-0.23667279170150718,0.11503036671441406,0.3877777704624524, ],
[ -0.6500236698950588,0.08974896743651986,0.20915496094903152,-0.08051153308498257,-0.007389947481229606,0.13681126455382897,0.019058285609489075,0.42025464491943904,-0.4171430880852372,0.6357299556879427,0.34635517010713684,0.14429844818612877,-0.11629443667830915,0.10637634926928986,0.15275799332911533,0.16238437228493002,-0.28110971273995794,-0.20283461112955883,-0.6176440315891433,-0.11853086815289225,-0.47626266793507815,-0.1266014686916038,0.16782959674478187,-0.49298728591891605,-0.3779569192045024,0.3962373156054402,-0.12261478649778222,0.49366793897639677,-0.5096146677516836,-0.2644823309071907,-0.08508163218521736,-0.4648860382600269,-0.07623314243795341,0.13146327624504411,0.024309037767204174,-0.25028585285114147,0.3208792985271052,-0.028587428414234117,-0.32894989906581934,-0.008654017445124947,-0.10676529387356494,-0.33565919348956613,0.2252961620264535,0.33877075032376774,-0.03801933506790836,0.26020394026016175,0.2207260629262205,-0.19816727587825417,-0.15586955016331805,-0.5278950641526207,0.6245477983150283,0.0193499940626959,0.2784843366611004,0.5256586326780397,0.5481201835749372,0.3640521496016609,0.17930346257090346,-0.4377571521118267,0.17152457048539665,-0.14954920034384442,0.6322294542494655,0.25223057587251835,0.4233662017536418,0.015460548019942021, ],
[ -0.15868939854431396,0.13904769602841152,-0.3334227620149847,-0.1292268447704613,-0.5469533497621126,0.17881728181555967,0.04083918344890426,-0.0705934456759652,-0.25777303648344274,0.11162710142700494,0.09918087409019566,0.4103365575104196,0.29326423162355947,-0.5027109010257975,0.5676646499397702,0.08760977211300727,0.2089604886468949,-0.318156686297178,-0.36833054024868905,-0.8286464794084816,0.0422977257149368,0.1063763492692892,0.2606901210155056,-0.3935147033755132,0.13943664063268707,-0.12280925879991915,-0.05688314837526039,-0.001653014568168756,0.40148806776315676,0.2741087098630029,-0.2649685116625337,0.4437857934780927,0.14906301958849982,-0.7267429930883587,0.06466204046076367,0.19058285609488726,0.1944723021376402,-0.12611528793625829,-0.335853665791703,0.2711916253309378,-0.15275799332911563,0.2688579577052859,0.26263484403688186,0.05629973146884641,0.12339267570633268,0.43046444078166424,-0.09781956797523186,-0.2059461679637611,-0.4309506215370075,0.27362252910765805,-0.617255086984867,-0.779736695420865,0.3714420970828914,-0.16063412156568938,0.06446756815862797,-0.1560640224654548,0.14945196419277684,-0.24289590536991212,0.008265072840849649,-0.2850963949337795,-0.212072045481095,-0.0059314052151972895,0.09558313650065026,-0.605878457309816, ],
[ 0.15742532858041902,0.017988687947732444,-0.2553421327067199,-0.1579115093357634,-0.08867936977476315,0.014002005753911502,0.23521424943547448,-0.09295776042179166,0.17687255879418315,0.0046673352513031865,-0.18854089692244103,0.09918087409019585,0.19116627300129968,0.12319820340419463,-0.3892363127284853,-0.03150451294629808,-0.0017502507192389638,-0.31650367172900873,-0.0695238480142052,-0.333228289712845,-0.7086570689895579,-0.11172433757807476,0.09850022103271355,-0.16248160843599802,0.1200866465699924,0.29666749691096794,0.06855148650351879,0.2481466575276272,-0.2282132465585198,0.37251169474464796,0.3364370826981172,-0.13817257066879307,-0.11094644836952258,0.12562910718091572,0.09179092660896648,-0.41461494815744715,-0.05532736995815843,-0.4857918107398229,0.5813749472404736,0.36706647028479455,0.1561612586165238,0.2673994154392549,-0.4476752395208463,-0.3764983769384699,0.2505775613043487,0.10452886239898115,0.28558257568912265,-0.11532207516762022,-0.3707614440254091,-0.3581207443864625,-0.08002535232963905,0.26166248252619434,0.0767193231932984,-0.1839707978222069,0.3315752751446753,0.036074612046531764,-0.14070071059658165,0.22092053522835747,-0.2495079636425904,0.1856238123903775,-0.026448233090718105,-0.31125291957129186,0.11960046581464813,0.15995346850820785, ],
[ 0.0759414339847473,-0.1463404073585739,-0.3083358350392258,-0.05484118920281309,0.13049091473435598,-0.5417998337554628,-0.2583564533898535,-0.046089935606620044,0.1427426697690281,-0.12689317714480974,0.08148389459567007,-0.14021452984123756,0.072829877150546,0.12261478649778201,-1.0471361108601185,0.13486654153245292,0.16150924692531046,0.35238381147340203,0.17308034890249943,-0.2828599634591975,0.22539339817752416,-0.07895575466788227,-0.5166156706286396,-0.03267134675912383,-0.2953061907960064,0.25086926975755575,-0.23492254098226847,-0.1172667981889969,-0.12037835502319873,-0.011571101977190325,0.4983352742277007,0.2458129899019757,0.03306029136339883,0.2529112289299995,0.5235194373545249,-0.44952272639115354,-0.026934413846064008,-0.5254641603759002,0.22228184134332218,0.3157257825204574,-0.007098239028024166,0.1687047221044027,-0.2620514271304695,-0.4048913330505654,-0.07253816869733935,0.32972778827436733,-0.18115094944121068,-0.5807915303340604,0.17006602821936528,-0.005056279855577808,-0.3745536539170931,-0.212752698538576,0.19758385897184164,-0.5312983294400309,0.22237907749439068,0.15985623235713953,0.18912431382885406,-0.15703638397614383,-0.2464936429594585,0.3748453623702994,0.09363841347927372,-0.07001002876955088,-0.03529672283798214,-0.26759388774139137, ],
[ -0.09101303740041523,0.18377632552006906,-0.18435974242648223,-0.3653162195655565,-0.1542165355951485,-0.18358185321793113,0.012154518883602514,-0.1755112526792193,0.09966705484554039,-0.307752418132814,-0.6873623519054863,0.19233310681412513,0.3286581906126104,-0.1386587514241374,-0.1471182965671237,0.27021926382025013,0.027323358450338234,-0.06232837283511329,-0.19884792893573638,0.010793212768639756,-0.2091549609490308,0.14439568433719818,-0.12844895556191024,-0.22325420285401015,-0.5172963236861221,0.13156051239611316,-0.1806647686858677,0.35617602136508664,0.020905772479795838,0.22276802209866584,0.5486063643302811,0.40090465085674354,-0.20711300177658526,-0.059411288303048454,0.1463404073585737,0.026448233090719277,-0.09042962049400258,-0.3176705055418356,0.25738409187916494,0.20264013882742035,0.02810124765888787,0.004764571402372265,-0.10841830844173464,0.2343391240758563,-0.8334110508108541,-0.17648361418990804,-0.08994343973865872,-0.2928752870192844,0.021683661688346748,0.22986626112669067,0.41422600355317246,-0.0986946933348516,-0.167440652140508,0.05153516006647381,-0.11600272822510235,-0.04764571402372183,0.05620249531777685,-0.18688788235427045,-0.24386826688060087,-0.3108639749670165,-0.243382086125255,0.22257354979652738,-0.350730796905232,0.0004861807553435413, ],
