import numpy as np

weights_dense1_w = np.array([
[ -0.6469788422374013,0.3953,0.0003318405537955937,0.7842023005400962,-4.044035400089108,-0.00983371696671876,-0.26049032908166797,0.0445,-1.2388338117157738,-2.0923689023483623,0.13536349570072323,-0.49649946016328445,0.12335383819043506,-0.40654634161101383,-4.000844906556094,-0.9610842106200768,-0.955497055126317,-0.1001,1.2459241037956137,1.9994698286099544,-0.06831629820960021,-0.17462159917981163,-0.2031512398329105,1.0942330193489673,-4.100936787188861,-13.446160393467927,3.780218545108557e-05,0.8255070168197284,0.15714951348117454,-2.8912826739692465,-2.042291452391822,-1.4344593582495626,0.33694047246520986,-0.3894538364069377,-2.400152890481969,0.6394840714208408,-1.3571634897426108,-0.282,0.4252128349375167,-2.430527709788719,-0.06992773170195911,1.9782495217668308,13.088276705286502,-1.4375180303551047,2.6531254075971358,0.5137676567447045,-0.2602068795239214,-4.404268097648568,2.9856691703918234,-0.006831872446122604,-0.7348026318675113,-1.7091898561085064,-0.06867517836764467,-0.7390202057865298,0.020748778102540014,-5.961534593684391,0.40264099950115867,0.9043608105847818,-4.031955064295194,-1.1662406047019156,-0.5588372439390488,1.0089000899261598,1.267481208541003,0.9332199955080743,0.4601813624547828,0.6656895576612073,-1.6077645375949747,2.1154467802284698,1.9950982332519522,0.7404191757193452,-0.0106,0.20790426917639807,0.1045,-2.9757444596165814,2.1114814887818767,5.480473456115335,-0.31442189618499805,0.057128380570398866,-2.465009962113056,-1.202978171945318,-1.403806720370982,-2.0635428948972185,0.5176592877990678,-1.138839278166956,0.2391,0.0137,-3.565896765706376,1.2506994428632174,-0.004532478447402723,1.6122751665963855,1.5512404014667152,0.9284712196334564,1.6050741705943068,-2.1853253627740377,0.1273,0.6372143214034217,-1.0384645668953894,0.5831765585554204,-1.0808063965629175,-5.921441426819028,-2.6118005655511207,0.7090826989785453,7.919370263065387,-0.08477797414135813,1.66557608838687,3.4127376957474524,-0.6533685787645284,0.6351849369450353,-0.05747118270952803,0.7614164839419837,0.32523289439224073,1.3838837852028203,2.6629191970945123,0.2283,-5.481991289336873,0.0712,1.8278688904182274,-5.360396157042802,2.251220030890339,-0.057416656819071474,-0.291981846668254,-0.0916,0.03049457514728227,3.863547113969925,-4.475141212843858,2.1529542210423758,-1.2159809076377082,-0.2948295560449022, ],
[ 1.3279638557384792,0.5095890426964466,4.624600095145967,-3.1465513891346957,-1.0087530249344896,-0.27751422667124365,-1.0604694593963095,-0.42966760383745956,0.2274,-0.2756186034881756,-3.560744463343734,-0.3600723665775551,0.6317662924181839,0.23618576742855404,1.4037364644970705,3.8444934780526734,-0.25790922477512834,-2.1679053543067432,1.3674925632511299,-1.8163430913543839,0.45891995418728315,1.4515542742533722,-0.03600963283450278,1.5869873846037539,0.06776364618466352,3.520064893572356,-6.233899819335125,3.1459625815320944,-0.3331404515688758,1.9465849335032976,-0.2422916407610532,-0.08566828494242605,0.24820901984217877,-0.1205759805746101,-2.9568688053132823,-0.3368,2.876955440083207,-0.0003,-0.5177033587449016,-0.5105225747964912,-3.287825238283207,0.4042808963222243,2.5924913343445564,-0.4657,-0.15076840493359575,-5.870603103092612,0.1302198506213266,0.02408899884663885,-0.6194990974105186,-5.833389517791454,0.3168,3.2342341531378884,-3.086689637642633,0.08035623149952954,-0.08454137873654217,-0.4626029259284081,-0.6701180769978433,3.3406926951900147,-0.20395176429240847,-0.0069,-0.3714,-0.5856083831250538,2.2810857848023818,0.5282785633471294,0.0372,1.3967138373593369,-0.31580004438355647,0.1729840750135639,0.1184,0.054528727326110096,-0.06653233729264788,2.354722722364773,-3.23357057199085,-2.5461065938878664,-0.8576419385109875,-0.4601617262818454,-0.23815022157735077,-0.7636151733660375,-0.10662808576619875,0.4901508980526179,0.0489,-1.005837639865791,0.9742203221027648,1.0804914106583656,-0.19391110397398292,0.32907835290640425,-3.1009310707291804,-1.025252990235252,0.0456,0.3149,0.38663932221180314,1.452649401979309,0.9413515290240273,-0.6350307991817813,-0.4729694079290307,0.14041168492136288,-2.20997372649875,-0.4697853227212324,0.6993727816308896,0.00017233900647383785,3.205659073084165,-0.678149808545526,-1.5002469201320336,0.0243,-3.9840110047244828,0.32226471238258325,0.5562,0.03271402563416116,0.8265243204815073,2.359376487075963,-0.9366751183003622,-4.683586968724939,-0.12575464017117072,-1.4609215835892218,-0.5176209711167612,2.5058854992030093,-0.0973,-2.9783322014510674,1.7476000677687336,0.8614194704421061,-0.5233,-1.7723670791724915,-1.2572344283134453,0.018123599490001554,-4.3910117021312045,2.9084474628177706,-1.0342392014108868,-1.5060603945145474, ],
[ 3.246407383693876,1.0485871933878608,0.2513413339222552,4.312181748100855,0.2725702440006123,0.4209609706298741,1.091051840990238,0.05660594217136673,-1.5414160377311814,0.2655753009332302,-1.2403502584541497,-0.0021852764622791246,-2.080418041096975,0.31247292916884667,-0.00575891130298015,-1.2508916681855622,-0.1149,0.7930967931230526,-0.12741895387924496,-1.4920574589446365,0.5589298387566333,-0.8617343066523987,0.5585074178249718,-0.9599955909105524,-1.6741241139031289,-0.07212396304957133,-2.383343256287079,0.5654874681516143,-0.8405738756787979,-1.654541115540767,0.0709624767364545,0.04688470656292653,1.9764304328536366,0.048946084530919025,-0.9462149528772094,3.5450729707675013,-1.1760215858496834,-0.2099,0.20312287048831026,3.6678231529428427,-0.8016836007376761,0.6806421888689663,-0.5322172723868577,-1.7645487375703737,0.6712482178743617,-0.2285,-2.1006332157836214,0.386212828172981,-0.027805047373750582,0.008269782821292237,-1.8217811759267037,2.483741794170393,-1.6758620150669388,-3.6092035735424353,-2.7697519341769747,0.517734436378978,-0.1742,-0.1469,-0.7011316342503505,0.2728,-0.0050919225447620805,-1.2727099429348634,-0.3391346184468866,0.0670534191440002,-0.023064511600448864,-4.93441576158762,-0.36259074721006956,-3.6142992522428066,0.27812212031343503,0.7761710888920457,-0.9935677278551335,-0.3878268600013566,-0.3487246984869197,-3.3218961656006627,0.6399288061195688,0.23473256307613866,-1.0832665012480633,-3.132220849051386,-1.5106341223477,1.797608410329083,2.5965608743220305,0.6077634403299175,0.7396643356565484,0.852308503726527,-0.3856873691015752,-4.289192268355196,0.08551220610503803,0.4793224328385987,-2.6887257967888805,-0.2501,-0.0,-1.9708848609470473,-1.5272551437808295,-5.596730411854736,-0.05746383794386683,0.082,-2.045787150131283,-0.1018,-0.1617958806446269,0.8019529300662678,0.04327166337480604,-0.07966292723392639,3.966811398563993,-0.2790525020776602,1.725592891272415,0.2511828612479725,-1.1772217422249842,-1.5171036933776552,-2.3993755188766994,2.1427138969956148,-10.336584391057247,-0.2587686814432908,-1.8653589882832373,-0.030587703765332437,-1.2871559847847773,-0.48484177249703614,-1.5643969418347408,-1.9744424562312446,1.622155663000235,0.06593888320587514,0.04313775468496817,0.01176322231348274,1.2808622612019571,-0.7206422766799818,-6.435001565537739,-12.489830530519495,-0.1038,-0.9732938376839885, ],
[ 0.7431770146350307,-4.611387204900268,-1.3527813649617693,2.1285228897915283,-0.2303,0.05563512036033291,0.1276,-0.2777988490751091,-0.5996845965551431,0.24737452171734226,3.196665696901081,1.0240593406673795,0.01364293088809477,2.156089240337108,-0.2197,-0.9239515807752119,-0.12783452783555405,-2.084948657515935,1.3093707018821232,-1.160085662439681,0.2254,-0.9669682750249008,-1.484153125609015,0.8155246205976433,-0.026157665031850897,0.19422117209385217,0.2143823447741926,-1.8087716175787878,-0.4527406240775621,-2.2602079550814995,0.20542227225694706,-4.231533746629672,-2.0996033592581202,-0.3719846887177257,0.0688,0.5077472042505464,0.9910014847944657,-0.11230531055974338,-0.10460140836470687,-1.1613018864162676,-0.8510191905245255,-1.8447809727019306,-0.6637318300706874,-0.12590203248770088,-1.0862970885713816,10.370955305953192,-0.8565449601599361,-0.21693926592569662,0.1123,0.5323046364793163,1.301215345785565,-1.1413546113116007,-3.9193533472975517,-1.0396139404964406,0.14745018362093765,-0.09681809894136113,1.2867808813999015,1.8836734499214463,0.9256424774033472,-0.01426198896258768,1.5194122992131769,3.050097318315761,0.5833307182919591,-0.1386196831015226,-1.5319583185640502,-0.2937561881099369,-0.2477429537164922,-0.5511,-0.7882354839339936,0.2711703348811709,1.9543636151125865,-1.0754864156578834,-4.498655095024514,-4.9494046912331235,0.5593986415003288,-1.0745955002760206,-0.23301666138155364,-0.7040532078842495,-4.4101149763675105,-0.04250333759880534,4.761611644305744,-1.0785556887747538,-0.32814133371813087,0.28751513583812965,-1.2584999639254484,-1.6230208647275024,-1.343940473887303,-0.22171168978917216,-0.864253620471216,-0.08060760492046522,-1.6973855441611547,0.09238885148427922,1.1893524668217768,0.18786060433888044,0.4857128116539628,-0.0456722913445727,-0.8040949954262389,2.8211852474215227,-1.198632158910267,-1.0046065097259602,-0.345959745716864,2.479478628262328,-0.11412551245477975,6.928052469527971,0.5374523625536323,0.005262393025870338,-1.377766602394417,0.3408,3.4134946434286,0.04649686480643933,-0.33797933930642965,-0.17796652981920183,1.004756941958139,0.47721635539795565,-0.24868613428422542,-0.06712585492520609,0.1997733977966334,-0.6826398953533704,-3.027384554477868,0.4850465025027302,-1.2325204999039174,0.6555535663574074,1.2633846323021751,-0.9641919290872148,0.28439277283361386,0.196531617034088,4.122795134577117,1.2219866461367375, ],
[ -3.677228440662751,2.2797434141287813,3.124524666947243,0.0010493773040963369,0.795501935256812,-0.05239329178255802,0.02403210988928448,-1.1873160223147372,1.9452096715434781,1.031513659820273,0.031274552263358533,0.0161929628889192,-1.7955048103286673,-2.3064009799807006,-0.0009155991843519432,0.3328619729795482,0.15921041628957558,0.3789031998501937,-1.4741804708619515,2.2259916780172637,-2.9100138104594953,1.1574755811061666,-4.613837696942797,0.28101868063682467,-0.617641798682375,2.2966722925310004,0.19791326586353208,-2.7069174221177295,-0.5191076866593956,-3.6743090491114465,-0.2865032663695638,0.4634233428286691,-0.20229217580546074,2.4537660204444753,-0.05840112328733704,-0.012763480091933632,0.1744,-2.45963216081608,2.2654437456330716,-1.1527785677486049,-1.9703766563131067,-0.27991329398616815,0.30411288565550726,8.175114505856829,-0.6957,1.5763552855260028,-1.3749701371761733,0.6089435802359918,3.0712531934790364,-0.0024365778350432825,-2.308161235974311,-0.2486,-0.026566893063312495,-0.1108,-0.027997257690798718,0.1202009975567711,2.5575281515962938,-1.5558231755719323,0.009045799607834817,-0.051543460702325315,-0.1745933253249953,0.15101636079223155,-2.0343352330146165,0.2159,2.5005148283700542,-0.40335536033493985,-0.2113789822186048,0.11993755466640277,-0.12008410138503464,1.1862093907632574,-1.1875416531251781,-2.300613160341154,1.0859655735659515,-0.21739060406023522,1.0233892661216961,-0.003922039038277814,0.6681585267632951,-0.009084499407218897,-0.5629,1.2100744173135496,-1.6370732665540175,0.9255075684841266,0.4462,-1.6537520864106106,0.2433,-5.440941342311488,2.320988511517264,1.5209734444325422,-2.5656757847301805,-0.871597051843562,1.326330441829267,4.960547937271148,-0.16397518331740396,0.2913,-0.6314663115062822,-1.6816697519255268,1.5056079708212737,-0.1492641583728288,-0.036756269392182246,-0.604073690973828,0.5621701899100117,-2.0041578030962146,0.07109184816944092,0.06566250522191065,-0.026026358087683082,-0.23756720130031508,-0.6313141948643867,-0.5191885693219366,0.44056970912920257,4.948104764968825,-3.574988780518732,2.999708497736315,-0.04294668769939872,1.4230752992710776,-3.3788514891210664,1.3719367828895057,5.31210586047927,-4.138552035717698,-0.10075579403063319,0.4060674337910607,0.571557387807639,0.3121,-0.0589691843681903,-1.1164242964950666,0.5578126736277532,-4.712056556028271,-0.09702821142413372,-0.5237226747147135, ],
[ 0.12335510304265962,-1.0889012671806597,5.159953055647469,-4.33099650292491,-0.9829878363474063,0.27559880695788097,-0.4393195316931504,0.5763260853590972,2.6005566332738126,-0.4561753121335414,-0.453,-2.6478316712096013,-1.450863801849552,4.224248463947454,-1.2813265913236829,0.03064044320150589,-1.688175583704257,0.48631174872050753,-0.1355,-0.10895960109996619,-1.2253720861673925,0.013729649018612088,2.555552857155901,0.7658740392875822,3.2769137407409765,-0.3923761410195018,0.019053468181065902,0.06288069752572367,2.762330499601644,0.5976434497903758,1.6482156567881683,0.181,-2.6927869136452887,-2.288959787207126,1.443698941548869,0.1478565812933228,1.1849122418619473,-0.8382726405191565,-1.4742861920298331,0.2041307093246883,-4.925389878059756,-1.5417357867268482,-0.014046943976292936,0.1537,-3.843732359248478,4.0733118436423545,1.5203624157869535,-1.502871580631822,-3.2281988908739536,0.5247503316548331,1.8867611772644726,-0.17645541653658012,0.3890603625163602,-1.6474210544355155,3.1676865311118725,0.5840237221058762,0.8054804078844223,-0.4526406292246262,0.6157956162075383,-1.5830788360998018,-2.833006287316095,1.8877125498853726,0.45,-0.1064690741300286,2.4471239151435396,0.826360785943866,-0.095,-0.3216680922447588,-0.0332,4.444833365586401,1.6540876879261264,0.46212041213582955,0.13573920873497003,1.152826648384456,-0.9708958877736407,3.077872461639979,0.009962789874119206,-1.6671617310363536,0.9228984719765276,-0.5834812341734844,-0.05277635509747509,4.755053009952293,0.15843888938240103,4.610418490025949,0.523,8.67489647189949,0.20450472699306843,1.6091658403045415,0.7508132110914635,-0.622630451937954,5.040605475961443,-0.0678,-0.010090933955164442,1.2315063941529418,-1.195182835591548,-1.3252159116318536,-1.5395447474071842,0.003876634268321384,3.878659710176964,-2.83650089780729,0.1555,-1.9146080946604358,0.25857669318638266,-0.18579670432168194,1.7187781853340889,1.0043907663669858,1.1918331833521532,3.146298170361344,-3.1589438020155454,-1.2757647473554672,2.547489277708041,-1.076111016940814,1.9830747294999505,-0.3591145120985697,-1.1776,-0.30298705637709866,-0.6002939906117043,4.401221930917009,-0.12682987416890856,1.9746785909421507,-1.4573539235657367,0.9840700101252046,-0.04523113627975053,0.8295,-2.273262433838754,-1.0321781378678756,-0.7893185391942333,2.131652188454327, ],
[ 0.40091394223245613,-1.0102951576612282,0.39884192697580234,0.24292267468059708,-1.2379944261061928,-1.7337991595989222,1.767601001333023,-0.27685119274972947,-2.6732899044936755,0.08286094356554469,0.14260732514645702,0.26734305069376757,2.790320905665861,0.17556630824440783,-0.2154,0.5800394945628629,-1.2852920647025183,-7.46763719069247,-1.6385759937389426,0.3025490296575804,-0.1592,2.3111883209193613,8.46316101779559,0.17960200959429737,-6.443880006604921,0.888,0.5930903808001072,0.21805796246167033,-3.4367981042738864,0.9755513519221024,-1.7825868786347172,-1.3775149780284819,0.396424086713853,0.17864039330016895,-0.8400243857114829,0.4867,-4.804853616325431e-05,-0.45342830671729095,3.212033382603412,-0.3712162455031143,0.9726636423835948,-0.5054838797793247,0.734,-0.5981013976406048,1.6311989776746334,0.3513788858360265,-1.0559562211942728,0.329,-2.8665083510569263,0.6182241132100994,-0.8014786726074523,3.475899364978396,0.013459507442875739,4.68895119172243,-1.2234817306457673,-0.4965149302062264,-1.3292961416179239,0.17830138555674244,-0.2897303593189056,0.84737222784826,-4.13618277551729,0.8206966832507893,-0.014797859859082774,-0.6418,-0.016729377025470317,0.257249177444467,-2.3743152243556773,0.9893029913335403,0.0954833556753879,-1.140966598918823,0.6790681161618703,-2.0067271551516037,0.8707892280712899,1.4993769675643511,-0.4895997717638748,-0.8546,-1.191659986496764,-0.4624209595623934,-1.7193496719956418,-0.07822503649396224,-1.6688984641762787,0.3694,0.07815447635307636,-1.2723270891482572,-1.4606727653136466,2.052760914148265,-1.5199289256634385,0.005573967821074472,0.3797161541445704,-2.5130091780450705,1.9478550576336886,0.6288598107641701,1.6366095480007727,0.3722,-0.1057,-0.6794594311794768,-0.18371305954833334,-1.7597184907593149,0.1517590632401187,-0.0010605272416672473,-0.8048487907152829,-0.055115582937663256,-0.6197511538032711,2.3146331366323976,-0.1195,-1.2808440161538288,-0.10854852342336176,0.6661781117997659,-2.1149869128674266,-1.5025544670849889,0.7396478240064916,0.04972008153499196,-2.7392059843419325,0.6877215065241579,1.2529525907353032,1.3041507902855043,-1.8607196563074047,0.22211283456022857,-0.6080881216149849,-0.3854,0.2320625139775877,0.4699188504307181,2.7606481353717336,-0.370647972592289,1.2425968457831318,11.627004484335705,0.019012173217811883,0.16670596101880192, ],
[ -4.436695627292539,-0.915216779775522,0.5646749587780917,-1.0957720138116969,-0.3446476791120401,0.016382122916997366,0.4021714605993407,-1.1506728834484117,2.2043070321037344,-1.1159559136480741,1.4225143999415957,-0.5411895589288422,-1.142199707819653,-1.9266152975324595,0.0002,1.7848087333457663,-0.9178303126064598,0.8192238096131617,0.0771,0.657791431004909,-0.17154527303808106,-1.8873332007149561,-0.5940387076918258,0.6538529353364115,2.21967535036141,3.4996813130792064,-1.600253619466738,-1.7771510287555206,2.314036013362136,0.47939813289599265,-0.9343884025526387,-6.162424942082667,0.2427,0.3569299058961238,0.021838984192338807,2.7011602514267454,2.7027056145904274,2.668699680200217,-0.397416510086687,-0.636194188813871,-3.6667588848605406,-0.2925,0.1432,1.4990271958629884,-1.1289325498256337,-0.9733206655331536,0.8986323932675098,1.1790145196475765,0.34875524445571426,-0.8087922273070568,1.2052054332703594,1.0355366033998725,-0.3282177031859714,1.0371174137481498,-0.1963,-3.2221384742946384,1.9332903612506414,-3.222725378893237,-2.8558251248309907,1.8383696096168074,-2.1520821550668163,-2.533316308573996,-1.9479861229391817,-1.3028812160254026,5.529253755426199,-0.1109,-1.838196772039755,5.210588022403377,1.1627247869285067,-1.6305812018260584,3.5079191682916404,0.4644154391115769,-0.07314883570811995,0.5464491741505371,-4.299272787147325,0.2867800352417805,0.014092125284500408,1.32,-1.9590556492938143,-1.547126171529857,4.994724456828818,-1.194442797233975,-0.11352303727518609,-2.4051588713728096,-0.37546653302492095,6.392106034313212,-3.444671012154419,1.1397480871438532,0.38760893124094636,2.0502082264904757,-0.4345349024565607,-1.8821153440406628,-0.16487004399837651,-0.14358493375334266,1.8857340981249135,0.014833346744063341,-1.7134979990759083,-0.54197893962321,6.815583583122422,-3.7702571125666413,3.584879116167862,3.338390899586449,-2.838752952233003,-0.088,-0.45602583086417947,0.6289051368133128,6.326328127187817,1.8690845119234998,2.1279091671574752,-0.45284381271224877,-5.055141178905826,-1.390486083988712,-0.0028965198634589187,-1.3254710403555192,0.7616475547882999,-0.625215833923326,2.7697648768112946,0.5652,-1.122359186077099,0.4099291222891157,-0.8169998951064694,-0.025407287081605247,2.5708237199300177,2.0533199424440554,1.486992060622278,3.4286030093775945,-1.2778572104102477,0.5570560478265331, ],
[ 0.21204447065899018,-0.0074,-0.15435888787455765,2.8538040186756195,-4.290867333114987,-0.6747913786899938,-0.2524332821582409,-0.05598029128966234,-0.9082760334838224,-0.17957643922538524,-1.1751052498118562,-0.9243919264552789,-0.3291566510939217,0.5540527517436115,-0.11275750557903132,0.04910554485972455,0.4137,-0.6308466454996504,-0.0062,0.8626622920431712,-2.661236882424751,-1.9146576549271075,-1.9347654548699276,2.1549400766213562,-0.0979,-1.9828075149793125,1.0449788947478997,4.990550299408561,-1.6534199442084105,-1.0979207648244136,-0.4171280270331049,1.9800550088146232,-1.2759891966803705,0.0861185912286062,-0.0626,0.8198038470686435,1.06414680712552,-0.9214355474203411,0.20593120442647728,0.9432622822898369,-1.2669573786986887,1.3261978064685238,0.5565658180589197,2.629687821500288,-0.23828857543806004,-0.2171,0.08354416735473054,0.0318,-5.812430593229658,-3.6435210266884543,2.015722279705185,0.9680466041145315,3.8064397110857393,-1.0289885591198782,-0.7649231082518624,-2.110087699750768,-0.5636074239608184,-0.20229614574583482,-2.4654678862776773,1.0957505960350693,-1.5866735776221423,-0.965340867045145,7.96893509147698,0.5085948995748604,-0.2654993586724313,-0.5026544071254407,6.465272236013709,0.8018202561530461,2.2044499751693567,-0.31935973848483057,-4.291049925635592,1.2535308208225149,-1.802235995934815,0.24860853251980136,-1.1150716047473266,1.7286801094431015,0.005411243442205977,-0.8285512347527235,0.2199291106419368,0.5242894042529251,-12.90433615888419,3.811849339465789,-0.5933232589988242,-0.7820444020478192,-0.3794,3.9551094460212712,3.0782735578109497,3.0590438821115082,0.7909743184274813,0.3066469885910945,0.5746538335331973,-0.06020192213400399,-0.35622261600456206,6.548757976677805,-0.6657437437140079,-0.47993476512797,0.04833410742712316,-0.1587,0.9080771512145833,-0.6455162729870385,6.541820445833064,-0.043026851609185776,-0.17403658042210385,0.6684854060304373,-1.8552044749026186,0.5044,1.6886859224339488,0.1637,-6.360459598113334,0.015491460637270353,0.38513806719987964,-1.0471492283832382,-0.0219,-3.1829446435650985,-1.3648209712970858,-0.1116,0.1407036334466114,2.561687191499749,0.4048,-0.3582548938686913,0.7202504543290273,-2.635466692943663,0.006,-1.1050757160961338,-1.6749880275309628,-7.434727653425154,-0.9830384283170074,0.9015532358766803, ],
[ 1.4046724774503254,-4.836394268249916,0.8869254944053789,-0.1783326505560127,-0.20925553514946826,1.6958332747071012,0.1034966766502972,1.3121813645171134,0.05710909639533335,-0.5356147158198908,-0.8724640264419474,2.3485457248114283,0.1727527505867978,0.1823487532202397,-1.2303854060278465,0.16213294941050405,3.294972955674377,-5.847527700601223,0.1738236868604559,-1.6497670902453772,0.49879584133812194,-0.011749111022225901,0.6831783170699524,-5.158240141550227,-0.8236194564498387,-0.11362447101226034,4.417119331348378,-0.0966554084971493,-0.4404223243623022,-0.42068013972527174,-0.9396830353335403,-0.1683545901640801,-0.09326894749693959,-1.2811595812245662,-0.3913240544901374,-0.07910082318742295,0.2207,-0.0070613443774190454,-0.6363809109224795,1.585569196686683,1.393854486379961,1.2356773452559116,-0.47943782378925254,-0.07920887200573681,0.041198580236725464,4.469006162371709,-1.944944618365074,-0.27151488873055574,-0.42683626758312904,0.9824193587697398,4.262692908183874,0.7361704621728068,-0.9355,-0.5832228603776224,-0.8387549857794374,-2.0628315953729626,1.8618295715740942,-0.5812041513644712,-0.08717392875287176,0.06681221699392284,-0.010900844133534733,0.0945519761452292,2.0665331825680724,-0.04860839737885715,-0.28034923431068903,4.772656671635394,-0.022793940158605343,-2.7640238142306295,-3.538607486945285,-0.6987030837327767,0.46955815345112545,0.017748810622618984,5.155919864321059,0.6722814600443833,2.7412597057036265,0.2686885621527867,0.5400995092255281,-1.9997545928395926,0.39801397494086155,8.296603318293245,-7.522854426219888,-1.6155551237029249,0.05353896474965249,0.3178,-0.024306545303446298,-0.25824227284134776,-4.168044239215198,-2.220731434270316,-3.345925533775238,-1.1996926134868364,-8.339598824118687,-0.3553826251217508,-0.4804,7.021664924123096,-1.8099616510191068,0.0842555926361985,0.9133595252932939,-0.10498014940327603,-0.41615212395443424,0.2500419529613251,-16.716626962073025,0.483,-0.4092581752343082,1.4205,2.714342272062241,-0.40397743952841997,0.36426872555240813,-1.3755653749532195,-1.0058671068551035,0.8187081742860369,1.4386147273486616,0.9919035887189711,-0.8849844195156261,0.3208964390121937,-0.2996234621662678,1.3942286482625965,-5.666567989965182,0.016909947628704108,-3.3266901662656285,-1.953111104509097,-0.11030920205298037,1.571319929285593,0.735,0.4531857678853555,-1.3097809407327525,-3.8855346968116207,19.429944679476712,-0.8890835583633834, ],
[ 0.2478,1.7687714425170735,0.11885613699043358,0.5525365350299958,0.6303844247646906,-0.6625927730818926,0.1012,5.3617943936355275,-0.0005849767156957583,-3.6345658984171645,3.0038692245203995,-2.4177367789764737,2.485322664825395,0.17173623626959936,2.26803380523454,1.7758746393851992,0.0823665068247772,-0.7140323818749097,-2.0524856361051613,0.686100731741268,2.464978809960722,0.04745836510065127,1.4059798595696105,-2.9361325221052947,-3.089924969219041,1.0359109638024326,3.5280762665949346,-3.2585782921547257,0.22369005950063614,1.78364204819127,0.08153873407561152,0.4281089835380065,-0.3358304093376356,0.23459670340999542,0.011966807189091894,1.5166988245952029,0.022936636454247254,-0.03857559706934668,-2.57995247812031,5.713449913365974,0.3215,1.9206251744368932,1.4496389750823457,-0.6949912846225934,-1.1411570778966875,0.2166,0.15088433760700495,-0.268,0.9406404466966258,-0.0712,-1.135288898402117,-0.5374755898299264,0.0049,-0.3709764242787886,-5.668521901892915,-0.10667340154992819,-3.3623843101828976,-0.14640143355280788,-1.2454245627044307,0.6638,-0.0076331897426686725,1.3698897867620019e-05,1.6663650395379581,1.9496149302355514,-2.0091184477753354,-0.10873342414151989,4.000217228680755,2.041260374404678,0.009040051233620155,1.1805537349476003,0.1980777286884947,1.781370589936865,0.004298205021131684,-1.1930830281230547,0.04280423251686459,-0.0206,-1.0061688616922764,-0.38467339005245665,-1.4181365304220441,1.854557054855663,1.171711219041852,-0.8672602835483048,-3.928032753818692,1.0559077132674546,-0.7563228299144765,2.4927444968123327,-1.000472265177213,1.8075000033529176,8.279721239337693,-1.4966391622181288,0.09749224440716865,-0.7502237279014717,0.35421373567729586,0.4892,0.8352019688478658,-1.0187310715574827,0.1834,-0.33232423604343353,5.3499191110954945,4.5977482793271935,1.436306248652319,-0.1407,0.06351238629911253,-1.5917152200700717,-0.9539321952869049,-1.0561080576940567,0.2417160811450713,2.0748907775185903,0.1679857441176833,-0.0982,1.0598197477969336,-0.17464121043739259,0.16649918385532186,0.4341326350943431,4.723953724702012,-0.819768606611754,0.5064539420864157,0.38425997456903993,-2.7203285704399542,-0.13900683612419013,0.3720825708135068,-1.6004956033979638,0.4136,1.0703379933938117,0.014191746659784335,-3.35529790350253,2.1082062612996904,0.05612979703917465, ],
[ -1.422739609745393,-3.541748817391286,-0.3473448615238234,-0.6802,-0.49025199206738995,-0.29624737949861246,-2.692488360155851,-2.778331783373756,3.296037188664841,-1.8848577084656728,-6.794763107312327,-1.6784712548589078,0.048687807640826974,-0.5144,-2.551547370209917,-0.010035995898799242,3.459749652053503,-1.9329775655790626,-0.8955114490594042,-2.5810719699120526,-0.6845,-1.116965606791874,-1.6226889797109059,-0.0798377442049932,2.7366139836831116,-0.013,-2.741673309609506,-1.0440069864929964,-3.0171683389094692,0.9078113382048474,0.3895580696602995,-0.6702,-1.7096007803046323,-2.8360965172031802,0.8664624339431298,0.648224199017646,0.25553311395241624,0.46093173684566713,-1.886619600844322,0.02838074473826773,-1.2726373298122997,-7.0318104527392915,0.1548,0.1421,-1.9040603191068408,-1.136333750507213,-2.8481890652757276,3.0330475739464995,-0.01855584348362017,0.7808451665776492,-0.009606938523948165,0.014239328730997869,-5.042816217785415,-1.7352241676082527,1.3720926748387232,1.284239756010351,3.4386186220152637,0.8950093327293899,1.6753509155876964,0.7378504106102877,4.725372052356114,3.794930869774954,-0.9616469559384864,-1.1638780813064664,-0.7865786139880019,1.2567704069999164,-0.6965300120061149,0.4673198528526291,1.7130356234333026,0.24226426592204975,0.4829934440000563,-1.2211308022510616,-0.3829495376473526,6.102439454556416,-1.5363545439777575,0.6083465997418332,-1.6274891608871693,0.27012156576441215,-1.2781177548761387,-1.7618672092933994,-0.10487520534712,0.1672,-0.9356854798701724,-0.5801633367314529,0.2259,1.2451957979925175,-1.9980358327025576,1.1657096912112184,1.2713686270398994,2.509255274845853,3.358921184211556,-0.35834500561067795,0.16123248651472702,0.5405,6.003822362347013,0.8153022508454395,-2.065459155252551,-1.582417222385415,0.7403056457294038,0.036911392630655064,1.0145522780015328,0.11983468819269401,0.9704295046904446,-1.6540366077754143,-0.4573359150538814,2.0560853314659258,-1.4802991491234343,-2.777156140063065,-0.5028670422537561,-0.7134586061508781,8.937021332337462,2.6197585897119824,2.3107874572831313,-3.0900318997537815,0.08284530755079361,-2.168898813359815,0.6753708145836812,0.10569168630101083,0.285,23.23563363857992,3.278904477687207,-1.2868530117909545,0.41887246556430247,-1.269780619464962,-1.2694636269616926,-1.493250255562529,0.9407162743241368,-3.4257297422978596, ],
[ -1.194480402564528,-2.3206618628764737,-1.6078779339026015,1.6884775850969216,-1.6870573450966648,4.76582120764696,0.1921,-2.3377525064315106,-2.3428733747539012,-1.3907702731326186,-2.9511629484697295,1.864126915883406,-1.6669881943027665,-1.3646291558608419,-0.2423,-2.0413089803920657,-1.7624604781757545,-6.6226526443720175,-3.2471703848627866,12.744618819102469,0.9701842728072143,-0.07986924181332489,0.3790165788364033,1.0460545470083185,0.07256998508147461,-1.4840887474309608,-1.5804995915010849,0.19452361459342277,-0.0605,0.08015507747528029,0.677343064563822,0.7476126390628469,0.14840842569604584,0.9303764482186438,-0.5823,-0.24023942035345833,-0.7300020974809505,-0.05839070118589402,0.2213,1.1776188206034335,0.4178,2.964414695288725,6.7766363016848645,-1.457607022526186,-5.160235361870175,-0.5780941451827057,-0.0896,1.7194918850474346,0.038498842592321,0.05997493804886167,-0.47219173803383807,-1.009518820550179,-0.005954081866317284,0.6908563469756768,0.5983836460376759,2.511157408882644,5.783146959867087,2.3714343962560225,7.0780160898917135,0.37040874780001215,-1.2943806388984742,2.624689521858339,2.1981736966062133,10.168355522668412,2.3976799616922966,-2.5573144115587536,-0.2195858565454365,-0.462912727922847,0.4694929540049918,0.8622604236076646,0.646600803141338,-1.8715991775330583,0.0995,-3.0967218480648135,1.1525019530414726,0.39105646753770845,0.07270616078474915,0.22164840531506558,0.980602033186187,-2.4371748511968843,-2.4991558952784274,-2.362510601197955,0.02694486984758937,-2.277464322536014,3.235778370358267,-0.3058028340392416,-2.411914688639062,1.4856006586054038,0.05375894798460809,-0.28680124930905604,-0.1381,0.0607,-0.007073558146604042,0.1032,2.9527837772127725,6.955217766963891,-4.362188922504435,-3.3647901426316973,0.3826242661364491,0.28828246411055947,0.6946270547747443,1.5599027219501693,-0.04613654603236113,0.3631941137738439,-0.5627727233785648,0.115,-1.4119985556360222,-0.945411075241921,0.03702088642327666,-1.3322701745002363,0.11020046632657295,2.695449347016791,-8.384116771080592,0.7653330201921034,-1.9944559632520669,-0.6973158230186721,-4.067188995636409,-1.7408606033767131,-0.1692,-1.0840294770379972,1.7592561283962105,-0.08991908405917817,0.0988885952168717,0.06998597331116853,3.577303869580712,0.027958828419148096,1.337198814133122,-1.3944942734367047, ],
[ -0.6157927373655668,0.2804368540834107,1.3509670456890106,-2.2218880259841463,-0.6507320940063096,-1.1113584980122326,0.797302632364524,-0.37735919053851213,-0.9633671866949424,0.44581839977976634,0.08622951069636756,-0.07847906447262729,2.184889319587109,0.9579306045870407,-0.1384,-0.0757,0.7987182160687787,-0.09600612894648156,0.30310297601516967,-3.3193026636000207,0.74044707881639,-0.2043,-2.5053268406449245,1.4239950023126335,0.1694,-0.060054701542004985,2.7268781778466797,-0.4057534963760781,-4.602390091892805,3.9501469846921804,0.020572792342937164,-1.632360277047408,1.1727,-0.7058485343832291,0.1767,-1.3588682295007308,-1.8656098111138029,-1.110197277145895,-0.3259,-1.6881572650913306,-0.9071357041761862,-0.6593,3.5743406015704964,1.5357629061625224,-0.14697747115351006,1.6111618511454378,0.6304,1.645835395801552,-0.06656019542941069,-1.4087243959699904,-1.5202693174644895,-0.2095457199683675,0.08918887184441493,-1.003113689846965,-0.20191687174056486,0.1287,-2.6898963420685194,0.6566,-0.19063311544215983,0.7386864695634446,-0.2016123518716098,0.775389591013242,-5.0410925879029564,2.8670200668958052e-05,-1.4112582362157648,-0.6129464041410452,1.7012536176853008,2.1987818686615004,-1.6158904001151029,-1.3520312476734844,0.16446977923377948,-0.21239611189081486,-1.326652998661515,-4.167742026376443,2.611081988265483,1.051516082841288,0.18301626998433976,2.9303392693848367,0.3331115901914735,-0.384027217174231,-0.10119979207971329,0.27792690746194754,-0.014394860484760345,0.23434262353027185,-0.31858677598251395,9.176700849827789,-2.215609610837675,-0.015630454727684873,0.2774514724179017,-0.6580217097402568,0.0724901223230151,-0.5304,0.6410054606404236,-0.20427992550745774,0.27156114399839254,6.688413609078686,-0.5615132446410869,3.358059763317248,2.1072634340575984,-0.3287580465115173,4.627446579886485,-0.36792235419481933,8.458259578329717,0.4681,-1.4680469584909441,-0.0221965956928733,-1.4375590040838735,-1.6734596759619023,-1.6304682399652934,-0.4307334839872187,2.9956941045031176,0.8872675229175306,0.054585101788705986,3.3568167835146254,-0.03659455425037407,-1.110019345318484,-1.7616327059826675,0.06941776310095837,-0.4533605487576943,-0.6582,2.1992928105444824,-1.9785158962144387,0.8815366247178376,1.4477639169128045,0.31749395159588045,-0.5245229227937838,0.1126,-0.2968156791333461, ],
[ -1.4175782178429757,-8.41152944904964,1.600181426867001,-3.2477983218620614,0.9712951459679442,1.1501705537030096,1.329440043563947,0.4064712002899586,1.0602244806728454,0.004676209473620059,-0.5368,-7.889312671316889,0.029976337053094337,-0.7422578893862968,0.7385651757725209,2.588917696748791,-0.7856585828494568,0.11293176750404732,3.0224440876575507,0.02008264565402527,0.0585,-1.0388842599719006,-5.421263275521322,-0.29811138062520787,0.0745,1.2187145204157903,-1.0466280231718756,1.145671438299011,0.5853043995706511,-0.009641456590651423,1.059291132206532,0.04458521573507981,-1.4947814084685445,2.7985618518909336,0.5302769068636186,1.331564854303625,-0.8774719629368424,-0.1002,-1.744285851586879,0.1091,-3.5561572660476717,0.37239486955618023,4.22770550325414,1.1348773135663461,-0.5455344549028915,-0.7311,0.2561,-0.1347,0.07126919613078102,-0.10824604877088384,-0.3038,1.6633174481647606,-0.6724882148110488,-2.007269915887295,-0.7759427805351522,3.015558469090999,-1.031164979961858,1.7385912797804108,-0.14050363800256496,0.23464768428535449,-1.2096895918546926,-1.276696390791058,0.2101,-0.1072,1.6876640271327337,-0.3378331916565591,0.8517009035634906,-0.3126499323976723,-2.065290800108433,-4.646641351258026,-2.8597900705970325,0.043144955816499596,0.20832959687151234,0.6050833243705276,-0.429205654881324,0.2592939814182844,-0.5881256302123808,-1.537819062640275,-0.2522766124095699,-0.01677459922491126,-0.14693659212939109,0.5745042920983787,0.7772852876554244,-0.1723089814351361,0.5470315810777449,-0.3033449333677272,-3.609760808035393,-0.15876393590146948,-0.15677001448293515,0.1084,0.0966976225071805,7.764156681526351,-1.3685476488545107,-4.870357477698106,-1.4083777240577915,-0.0021917781274249466,4.302368411048493,0.43861487498794877,-0.16936681456147007,0.03146052890943198,0.07023983125765985,-0.767163992963853,0.8451149731402987,-1.156712301631023,-2.444662283524382,-3.731397762586069,-0.21738170919662578,0.7095298792271003,1.1415440465335331,-0.09688008044810449,-1.6266958728234133,-1.1788328425182213,-1.314575727070452,0.23383436789283962,0.7389097601356314,-0.3250069910329437,0.1754417971398163,-0.1843369613360603,1.406647594656877,0.22369422924831833,3.519668867632299,0.1584,0.06277577750852031,-1.0750165943870997,1.6008387983888501,6.536856499047588,-0.3207,-1.7246770060786631, ],
[ 0.058572898521546186,0.3055999193263734,-1.8661309228750964,-2.257741217187416,-0.43186741021641956,-5.776908733475466,0.2976,0.2409683447694361,-0.4415,-1.3022233249938597,1.4826435880953632,0.22321061384103963,0.40222124840071616,-0.7305110466423776,0.9499212798744645,-0.971451261548948,0.2104532165771677,1.5911495386180656,-2.586015041745892,0.2363717586747165,-0.0272,-0.9286022458093794,3.683210216294123,-0.16492789375210765,-0.30429809089864124,-0.4861140620140004,0.39922910443260884,2.736565388144033,-1.7938627686288653,1.8256876763670775,-1.494685144631725,-1.3146768870119103,-0.048409344381489784,1.109107337364439,-0.07262337053482178,2.9081314127058104,-0.6398342815299267,-3.251151538157785,-0.37176547858396697,-0.025804017987327343,-1.3111511940574005,-1.076188715944288,0.4901,2.505183079581716,-2.373905267303038,-0.6466050754230934,-6.091049355985557,0.07705579814428413,-0.10877425880102648,-0.3791382181129554,-0.3832,-1.3901998593072404,0.7599403989837976,1.6985311556522344,-0.6844,-1.2406257661682436,-0.4718,0.3561,-1.2165423663268768,0.02322986393701583,0.1204,-0.8470955203204135,2.9252453488043324,0.7944684496055954,3.290000360647764,2.2255505771933493,0.24191199627952775,0.553013748731475,0.17348053603681468,-9.87517076278045,-0.43289657201188414,1.3333856796930215,-1.8318506169638529,-1.2191490046265048,-0.19950424665004526,1.4697740210830286,-0.30571326901618606,-0.04167135845376508,-0.14277977308027803,-0.04866896846517901,0.8664,-3.384349849849992,0.12152494264017737,-0.06816000624036637,1.6301331399986914,2.0352630923979467,-0.09450356094293673,0.7485063703871042,0.7697734338088909,0.7519,-1.0287822711758015,0.1537,-1.215185168522219,1.713730978245976,-0.1632,0.42482920624246384,0.6508,-0.071972037956816,-5.620861071125588,1.7287615912286471,1.2597077092856797,-0.842452416153684,1.039708077641591,0.3352856939422354,5.790011983968445,0.02277592707290238,0.1058162258911279,-0.1362001877188255,-1.1011199361219943,-0.8840001790904274,-0.16850225787124923,0.8959,-0.33260615402384053,-5.8402917392204685,0.4003,-2.536791965777189,-1.1932127737196632,2.4496465771495686,-1.126278549212014,0.07478127527342343,-0.1995,-0.022451127151779264,3.2024043592417706,-1.8435042707958627,-1.69298130966044,-1.733764455460301,-0.5496,-0.00806024502524257, ],
[ -2.999637214249097,-0.3809297832887872,-1.139498959998145,0.5717900109835958,0.7654249808759125,-2.4064940238327455,0.9518653377905801,-1.7234194974438874,-0.3352737871641588,4.394805695290404,-0.19321822323246407,-0.34598191819177193,4.557730156387812,0.355937260467428,0.06281196157252533,-0.3995,4.64183641720357,-0.7649893336237901,-0.1692269005528124,-0.24431770282221718,0.055285832913698776,1.8604137963074594,5.254731992218342,-0.008906834774690129,-1.7819455027195152,-0.03585913145976231,8.002299791846326,-0.8240079660939201,0.332776549064176,0.8236922150485668,-0.3772,0.9220529524814006,3.1336969649933666,1.4962893474026295,1.2524443968400705,-0.2489251499371521,2.397622396821683,-2.6758779845446714,1.3981903979737162,3.4383578137798643,-4.023008035608822,-2.944195984973241,-0.4825,4.709798984199486,4.906784278321819,-1.1965889619076675,0.3308978125084878,3.6749914860041977,0.4193,0.47369825875036753,-0.08846075733007133,-1.953125500705971,-2.172421868272815,-6.314313128630271,-0.4588,0.3713,0.7258165971808579,0.012433864712640597,0.020379646358492987,-0.6808033257862391,0.21235358638750312,3.958996160607595,2.820265068864158,3.3917789544219206,5.897961031701019,-1.3053971724526892,-1.1882219879654337,9.957103136981255,1.4569685195186324,-1.6279861559112578,-3.086048038805064,-0.6287974252129782,-0.018873714107414275,-1.2776217198746505,-0.3093852913041826,-1.617492864112373,-0.8676676085182824,-0.16435406408946537,-1.5670600980057823,-0.06639247118122635,0.07126375642616663,0.8558325994411857,-0.09204315668249363,0.015692288329623834,-0.3875,0.22600474510667232,3.7157133723471865,0.3323863451957642,0.6463652312107826,-2.5460830917553343,-0.8884147073374087,1.2893249630984145,0.9874044171277641,-1.1039192446516406,-0.8780303957945514,1.1729560987273981,1.3064306727860722,-2.4933359924951,0.3265799523120706,-1.9197815075228337,3.16240691132278,-0.0657,-0.03152214675385009,11.775903670541185,-0.5432935414566684,-0.010187387255462737,0.0028108673948800244,0.3771,-4.6159197275776735,0.7681791412114916,0.4513500046794519,0.0553,0.2076950756232466,2.651531466462975,-1.3941181757582077,-1.1157127605969799,-1.9237049345830142,-0.11531793535174716,0.0499356385857423,1.5459631578583712,0.8972885753847304,0.5661330516860066,4.101950327434817,2.1470201226474255,1.6249144932842017,-0.4935948756838159,-1.8238586331170397,0.03609008112379283, ],
[ -0.36222125755032064,-1.2881079802520892,-0.8405919615029729,3.4377100166897714,-0.8633974082315887,6.637329465947746,-2.1429962547949333,0.850051938398007,1.659626119518499,-0.4051814370319889,0.20963567619084444,2.362307810696478,-1.6763100781698121,0.6852528712666635,-9.912232055695428,-0.9884025940957585,0.4421928720738924,1.6937586163603378,0.4458990598899605,0.602046223391835,0.8907948126600388,0.01278624839488488,-0.16296033447992622,-1.8845671166223987,1.3389983961190564,-1.3230099534612116,-0.07537368764312195,2.367819560869211,-0.966532416479877,-0.16807924085847914,-0.39188011341220585,-0.6520350900013574,0.8039341717607025,3.8028800054043406,-2.9721914435359573,-8.41296985039055,-1.5519291049977628,3.8900748318780956,-0.13222285049330396,0.8648216271272475,1.4577917119569812,3.290110550124573,3.1806134054058988,2.768484057880872,-0.5780033691292433,2.357519495109915,-1.5838734729091166,-0.005910272828697721,-0.8033985592118562,-0.8039259291959158,-2.1365789643603836,0.9214235769422561,0.3116,-1.0921695146900354,-0.2069,4.26165411815248,-0.2514,-3.0284571233505604,-0.2069,0.7626252865940443,1.2056917578378887,2.9659100870904105,-10.214252405991331,0.17055905955895634,10.733579266918504,1.4866380819108915,0.04920682184548745,0.7137,1.7535816574199716,1.4778460333189454,0.0981,-1.8843861175068741,-0.2432,0.18471131318698877,7.8014874141904205,-1.276028599359602,0.34561595505698034,-0.366,1.370320316004581,1.523769330496502,-0.05313674708921293,1.5440279795036145,-2.0345225422341806,-1.0520541513588024,1.8816750404950129,2.3553732037057196,1.1363222266244122,-0.6555961138348028,1.7320739728855918,0.5083921569293872,-1.9473737128030504,-0.8963283981306654,-7.441755568561706,1.5166699261699295,3.2276481260359033,2.002536514107779,0.9166058912310155,-0.15268777765861138,1.027923500878073,1.3951337026875756,6.8114728917817775,0.007273337387448231,-0.4073423281864662,-0.20152650674097108,0.1487,2.9470711661615745,-0.10268659986653476,0.7467096620709827,0.09752374249448996,-0.3237,0.8229771302630196,-0.1095,-0.5004496900585429,0.9309388052363786,-0.41960040560819684,-0.16670512468013854,-3.6370232223292787,1.9944408883606326,0.9949,-2.140382899685051,-0.1027,-0.5261018908872519,1.6371075160395203,-0.10096599505214399,2.8372927355366993,-2.7607766558875975,1.3373197291081353,-1.0093680176945965, ],
[ -1.7163700777217976,1.6402972216420872,0.09796449246379442,0.1754769701761819,0.49646215212816286,-1.8535418690889258,-1.0992475200659133,3.783993216491505,3.2775161632843384,0.0681,-1.6327977310512336,0.2470236564250089,-0.9901315934183297,-4.231884764474432,-0.9735029364584935,-0.0966421102248256,-1.943322978564575,5.440284143813722,0.1094,-0.32692126168036656,-0.8526894390990628,-1.2190921183059236,4.723385811779359,0.3310291029327697,0.1654,-6.045500437765926,1.6260225795618506,3.601048298537919,-2.0522489649589644,1.3865930411546767,0.3085145822290652,-0.3688,-1.2979707117701629,-1.9371263436545583,-1.2672540174543223,6.000009265244415,-0.3721331037873834,-1.4020137531971364,-0.1362655622166888,-0.6201508512844635,1.7594032146709742,0.0081,1.6382733465701256,1.4593802135743763,-0.3628,-1.5368412571557293,-0.1681520589018728,-0.688087233361848,-2.4543196910819285,-0.24713900011652945,1.9024137902904792,0.17715326756496189,-0.07590426734842202,-0.4007469268034992,4.445462535308787,0.5481433662332085,2.009305810341825,0.0543,2.5217486268375087,-2.99322086424635,-0.8219509846431717,-0.10479375389080589,1.6459305733235645,-1.9381924379277513,0.2057658270482322,3.089638921773841,0.1333,-7.3243465112307815,-7.166422242290262,1.3361067656638035,4.288456216739891,0.057716186792233205,2.1136321480251143,0.2939843984881545,0.16883945260650413,0.09549829861136748,-1.7442456262511574,3.255982286786189,1.3856260402483012,-1.0124469095325153,0.07906024440765362,2.3063610318215164,-0.34285099424313187,-1.1308059310304341,-1.06698463491626,-0.9380034307997935,0.21392779037112758,0.1418733010644736,0.0816928244043021,0.0028537099129397193,-4.05152686701007,-1.3020785693621382,-0.3275687011501045,-1.165183765695215,2.2741675293552306,-0.9819643547794138,2.028876317872899,-0.26447845770172507,0.5047360003020345,4.534630647165189,-0.0003300752525625109,1.3993889411937568,0.08857655383613393,1.3695365102000088,0.10802526896571524,-2.553650011269138,-0.2077,-0.06515055636338661,-0.0449,0.4018,-1.2554606536418762,0.02606845025797702,-0.55706144943123,-1.9302047769609136,-1.5330790573783342,-1.9568187698091697,-0.019405811879553488,-0.2902,0.25716261531903656,-0.253141904283207,-0.21038489326862264,-0.2087,-1.3183587958905214,1.3999173187255645,0.066,-0.3563161796455194,-0.186,0.45016267844933655, ],
[ -2.6009655205447064,-0.6026,-3.526883505789325,-1.3191382600900423,-1.7403876332434274,0.9231098014857647,4.369125058972045,-1.2119777470161095,-1.313820819420271,3.568438445366139,1.402705261069781,0.5778878144705679,-3.024666984995011,1.7891861602206907,-0.06106472325633215,0.014436558501184292,0.46372593313730426,2.5431765580421937,-0.10873478174491118,0.88889473637891,1.0928520907997945,0.17295271023685632,1.3022589764856127,0.3786785282533673,1.0759337509182485,-0.11745234916639893,-0.08845647468762025,1.4961095914938276,-0.1509,1.6614,1.7388563024708799,3.5363055419416236,1.9319210385657457,1.7423368800021533,0.7489162422607353,0.5851969222174884,0.5549,-0.03958066766619205,-6.737847829932697,-0.7194216698098793,-0.8040976791681558,-1.4737735296605123,-2.5077732724169013,1.543257325540322,-0.5353,-0.0323,-0.23405852773748076,0.13071442192734828,0.9395811502808304,-2.8194913482853625,-2.802477763913953,-0.968680008526972,-1.5257031119730393,0.5488790739974584,10.308333416172731,-2.2869533313292094,-3.4997055487064967,0.10539756141445458,1.3711220718648627,-0.2522,0.2252,0.1565367843393528,0.26,-1.7746513540891184,-0.3796,-2.7052414865437284,0.07499550944540889,0.017293413255539774,0.2121,-1.8574047393479125,0.6774,5.477081996217699,0.002368329368975273,-0.3610959034062901,2.2355999486708464,3.1390660766774525,1.0400675579907113,1.32634447748718,-0.25339800172979826,-4.94236986267545,-1.3770600742899468,-0.0889,-0.1918,-1.2669507820305086,1.6198198482892021,-0.7814851828323828,0.23669823285745464,2.4992737778450227,0.8584526687219727,2.2397747147554496,-0.18413515869549935,-0.5813103431519335,-0.8142631156368635,1.2806038790405225,-0.4126767584254331,6.384713030929767,1.3539232228990112,-0.9002,-0.5163268937840564,5.731661478121332,-0.27064205218788384,0.05086142874685237,1.0940452350645162,0.5034975847023665,2.682915541826321,8.630787060922183,-1.6181108122657886,-0.9679057527533519,0.22530111509980794,-3.4688651278854925,-1.7118535154789154,-8.525778892077042,0.5954680640768067,-0.9183916557378013,0.1122,1.429257241090953,0.7923540585805071,1.144612009882727,0.7887,-1.012290766639666,0.3291027751777713,-2.038449833724071,-4.15408589549373,0.3900880417177379,0.6284837277861739,-0.5714439669470197,-1.1864533974390048,-1.1029399501436197, ],
[ -4.6723695693038625,4.22781545181187,-1.6479415140352296,0.300887420464267,0.06600954592883812,1.1794264462263677,1.9042102688968359,-0.9707594773194158,2.7144753729470166,-0.2668777992471649,0.18436753155696273,1.345694810685829,0.35056691369127696,1.475814815336484,0.08298567940333346,-0.6745432584496358,5.072247944777681,0.4030945130047112,0.21296943816266967,-4.533028420689499,-2.450530845020508,0.38202712294667457,0.6324145601750849,1.0143478536460573,-3.954423830907232,-2.4007046462280277,-0.8846309400497506,0.3486,0.7411778713497674,0.1465,1.1693536307203027,-1.418794951658357,0.8657195153325192,1.07832433231635,-1.7654419367585799,-0.2405,0.6970215788511246,-1.030871809638541,0.8345265643039197,1.5484085660765714,0.3790233288257775,1.9463205836396211,0.729160036036185,2.0273020697514306,0.4188874089016385,-0.8994479157539899,1.445206910927347,0.9845446145342337,-2.332202878333107,3.0210502796852645,-1.579818003228546,-1.056431046623632,0.005621759920823921,2.6083546087332934,-0.1768,0.1995,-0.0011875558833748469,0.07301006957554651,0.808303993748283,3.106731564125733,-1.1751095479015785,5.34261389297131,0.0613,-0.4817451323453025,0.4865,-0.0121,-1.7826813195465352,-0.5922803143972124,-0.5628,0.31735934745853156,-0.750227178287474,6.353620773548341,-0.0777,-2.111465031516526,-0.8395623866811014,-0.3757,0.5421106295158435,0.25342125341248634,-0.7936184036964525,0.21657563211692196,3.7021284698927794,-2.0296190037484685,0.5674668453755829,-0.0027449181303922797,-0.6504616329843828,-0.3253206994921081,-1.05104815736849,1.6357560192734362,1.3450481011935422,-1.5221824751559168,0.3048105745465748,0.6901203963296434,-2.3736284421272527,0.932327240377354,2.696006739964105,0.12142118071126945,-0.7131254975239176,1.3139181074406432,-1.6385070814026579,0.0368,0.5452771426528263,0.7778771159457603,-4.343670544625726,3.4977381502658504,-0.6320762548929874,-7.667855166839213,0.3877562791807776,3.9241332972635243,-4.815039005175511,0.6177097371979332,-3.571233766952177,0.35452930982489006,2.7331869207832304,-0.9993346112270654,-3.8719589523538422,-1.084269786580731,-1.4035116180451774,-12.569446797631343,2.083445815606541,1.1439423719137658,-0.5406,1.151996570876145,0.017011624094098503,0.1009034981307079,-3.7288978114442264e-05,-0.4784,0.1327,-0.8998354464477283, ],
[ -2.660044385707904,-0.09479105797697625,0.011782227592280434,0.2023678398754007,-7.227078976626203,1.1677039803557623,1.4806296269596264,-0.4211,2.246209333522842,0.9212301407552848,1.7003402094878342,2.873118147389599,0.10691903495376981,-1.0323147146270484,0.14802240442256362,-0.6773820641033163,1.1339037278796134,-0.080266653886526,-0.3004080262373139,-1.1271860007977705,0.07849360407637992,0.27710890947035544,-0.03345495260257163,-3.2306567114706692,-1.6364123588190491,0.03390423503163531,2.1759894918347737,0.2501497308619822,-14.483502263006214,0.058306522956415585,0.3438,-1.9222011841368936,-0.5661479724386977,-0.8956,2.933315240464552,-0.2665,1.061170283355616,-2.0018350027486274,0.4269009349134929,-0.5489,1.0168,-3.0056751251575946,0.47061616529216077,-0.9303209436677826,9.316343879989912,0.5629417467827345,-4.40027499523159,-0.45994666256192573,1.6570880424384278,-2.0381308777581366,0.7890505897594571,-1.038920893433775,-0.16474570609180905,-0.59103288615782,1.6885280715295279,-0.3270424180322151,1.844191200593368,0.02581434090854106,1.7419598671902197,-3.9729567581930003,-0.40090293056868587,0.8756261681551212,1.8181293319538285,-0.2004,0.28937568534779107,-1.181822379145359,0.12523222119971053,2.013438080081663,-1.3347088491344354,-0.0281,1.2091289928540512,0.1811025974720813,-0.2153362884766315,1.8709049726740008,-0.03706957461832767,1.6894661986632473,1.2140141299030378,0.4194510300253697,0.8087838631371028,-0.295527773309148,-0.6653942350872322,-0.6809,-0.34712299541617414,-8.715956875507459,1.190681303883876,-0.2906693301614327,0.001095611765769715,-0.5199,3.715158815652703,-0.9813319775947196,0.15533198654771133,0.0485,0.7117576159510568,0.883604030643645,-2.073472540949439,-5.284384105100525,0.5731781344121247,-2.8896728901472493,0.4138777757668626,0.9095961890314767,0.09309737953535786,3.797165696455901,8.554848941486949,0.9586661230912481,-0.5087554980348896,0.1961313421223257,-0.28136914300008176,1.3827781884759094,0.12532132386715225,0.005809797584172454,-1.118026237006516,-2.9084434407566455,-1.4112248797738125,4.194769818281113,-0.09921828786821851,-0.7839214923123059,-1.7728126608373174,0.044688492944532525,-3.2701615617079964,0.25753877396807606,4.114403595223555,0.7993110962938541,0.7843339910679027,3.0043293719441033,2.8749466230477063,0.037673558489831276,0.5790213169390497,-0.1389, ],
[ 1.7179246372426948,-1.6151606792902684,1.8370679190287595,0.3259715680710701,-0.16276913586250039,0.11406536763213604,2.668373036959433,-0.1848,0.2285,-0.05424965321482425,2.194884119051057,-0.08036868713610723,-0.41831716732395674,1.8867312741357818,0.8647185339176865,-1.1534827794425926,1.6562373747849912,-2.255296249143562,1.7740348314538328,0.05619935725074872,-0.0458,-1.7742081402884016,-4.568044159396755,0.1945833357739879,0.21503513553321724,-2.2700864948720736,-0.4239823115912176,-0.2126,-0.10339413310651002,0.003964127840573578,0.0986382526238706,0.08261011737819221,0.4663098089251873,-3.5233184597293037,4.3237851997846075,0.5581177551070297,4.700161638545424,0.2302,0.877867043629116,-0.07152160951155306,1.2069858479862625,1.1042170630656636,-0.1711,0.9987922047597622,1.0376057851251732,0.017731412018420573,0.5282715112174983,0.1822903251163786,0.707793578900102,0.7136954021781383,-0.1511,1.381524740984343,1.5129464155089734,-1.8201857487911155,-1.0547650934660617,-1.911017274825761,3.8018939508142746,5.472487667978636,-2.7369804532932016,4.039540976466243,-0.5732078095989751,-1.4294135463403066,0.4196164087810692,0.22298744712767915,-0.43396932113355646,0.6856,1.7386324281242733,-0.3733052312616211,-2.887055223323402,0.056759933118342036,-0.2069794212086879,0.13764936296380983,-2.35497506276068,0.17696596038590143,-0.00020362758743651437,0.005730462064028191,0.13681839147946934,-1.842928190729509,1.4796702786030713,0.1806,1.1717681206412274,-0.0947,0.9469004548710547,-0.6158951008733551,6.190239939715106,-0.12133407225845944,-0.1282036762509881,-7.433099287414102,2.815776034210609,-0.0920998995286284,0.3446127640460776,0.058909848874995105,0.9973350017573425,0.10004243847399646,3.8404049248816525,-3.6971693850217022,0.1345387219473419,2.4420630350037595,4.494292640622259,1.6977576039174274,2.7182927761374738,3.7338281316122215,-0.3450402638638589,0.7817510541596082,1.4550197471167303,-0.49534754919382273,0.2639,0.03298888667370375,0.3773089848627166,0.23988666172180112,0.0005944070755501848,3.578395179394084,-0.2428,-0.09993704794610228,0.4122814275803189,-0.467401228707214,1.5590919790774045,1.0947614220719801,-1.0484609219194665,-4.405897438392612,-0.2863157309018707,-0.0823,-1.8816071659487779,-1.2652487418796623,1.3502216855866167,1.3387517007811023,-0.776076635507255,-1.9773015441225994, ],
[ -1.4204339070391767,0.2781184027882482,-0.2538780605054809,-0.3559009354625209,-8.376692986251662,1.2900586351696095,1.670298747451445,0.044964956003724896,-0.2923379591051656,-4.880997502371719,12.20163324452852,-1.388183108310055,4.687874343395808,1.8941817035318986,-0.8035,-0.38007744759071244,0.4289,4.925938198004647,-0.3952,2.1148151209677195,2.6009597395863144,5.900111941312443,0.2619,-2.6279569447447506,-0.506301523213246,-0.18243485497702522,-0.12095496960105212,-5.2026255554882885,-1.1546686133700104,1.1049902814500914,-0.7094128446041871,-0.5605,-1.1973646488460488,-2.1606031807931805,-2.2226965520285225,1.97368976595634,-1.0728,1.9715932731686356,-0.6394066796268658,0.331,0.282165327961823,-2.056049800751204,0.21011664496607635,-5.433782586124447,1.9266444623777184,-0.2974805643930629,-0.21544604155965222,1.5388716685398545,-0.6326298900650218,0.09672405727947032,0.12331632186996487,-0.9372707887196516,0.3169600432483677,1.5069520143915376,-2.1551507811977633,-0.03989083629422674,3.0931466491995145,0.7401572045170796,-0.021927205718335965,0.11546385522589364,-1.4543325307038926,0.2275,-0.2453149819371876,1.3162675782266942,2.0045933904334388,-2.827980447795949,-3.3460026699803564,-1.910476223143847,-1.390178228161441,-1.1356774152922053,2.7514088673951025,-0.9988129648273788,-1.3861576975185366,-0.1774606751522445,-1.015231325603774,4.0664052157095565,-0.14896305565235246,-0.1692,1.522089833584073,2.2901323035296564,-0.12713768809432854,-0.3129639416234793,1.3934178816440461,9.289513974454461,-0.9259,0.1362083406944271,0.28688647148678537,-0.2528770082696854,-0.14159351554635186,0.15749412169570262,2.5965005396788694,0.023308980656961287,-1.2662805706499876,-1.2831153673689826,0.23807938866781528,-0.1432,0.6232419370777071,-6.70964943679661,-1.9973193200944424,2.1861762964910034,2.473511234660618,-0.8505395096496073,0.5778,0.5139383637776778,-8.131461915503852,6.202710649430211,0.12213258481438813,0.9568376632584443,-0.24440524226964766,-0.32209624820081667,-0.8654180533037135,-0.06498198947878987,0.3274,0.6121,1.7895615206522988,2.63888698790816,2.872808366709906,-0.5390031937797721,-0.008522283350564963,-2.1728731363274014,-0.527263887680239,0.028826544258789496,2.8384819461570756,-6.859489008426529,-5.65667048434901,-0.48706446391117625,-0.0488,-6.722532048281412, ],
[ 2.4538281332000993e-06,-0.07345894710024153,0.4463853706425233,-1.2268483117977995,1.4454232412830896,-0.018279596878401996,-0.9330880884163952,-0.22512665647554841,5.360192037044464,0.0002179540658850034,-0.4147086024557493,-1.988863883487263,0.7571366138162479,1.18644595816146,1.7206183827375747,0.6125415456603787,0.8389362839321761,-2.25781667298912,-0.14678464441606487,-2.41309178302757,1.5424591795970652,0.9537364040158084,-0.04201960742791714,1.697626155131674,0.07377910986955324,1.334074758006524,-2.751465885618191,-0.10741963649401168,-0.0749,-0.8880720007001016,-2.9026463886017515,-0.3790087417586174,2.0074565053273377,-0.38511647288725304,-0.11745835706678733,-0.09322440120962319,-0.8376826904321203,0.10900071444145519,2.176263252477719,1.1433317775262524,-0.15159037691623925,0.0269,-0.6246739912266938,-0.106,2.868237928819621,-2.625483329208901,-0.1206,-1.3517703192124955,-3.3117363158961797,0.8818249786009401,-0.4343,-0.15093319071284794,2.4346366078264676,-0.33305832807833813,0.4439098944058434,0.8751427617799398,0.3580600305170325,-1.471947688734074,-1.860825085588303,0.1586,1.1552483868962584,-2.2952804465373644,1.1663632627384797,-0.5943636623092823,2.0967358770418167,0.28144112360212464,3.068855149726244,6.250112665883055,-0.3202047362335274,-3.2896327084084387,-1.2570855910500063,-2.0805454384335547,1.5278518774929766,1.722675360465422,0.2678951594829999,1.2936166983159028,-0.04751985229576981,-0.39246624938074,3.141169564686101,-3.542071539308429,2.434494769629672,-1.3478587483816091,-2.4707052522771065,0.5680815116084335,-1.68578635423188,-0.8390385836260607,0.0925,-0.3051858589176792,-2.194644894029425,-0.15512492404102687,-0.6512629139762385,0.3883885800386281,0.0069744989556600615,0.002268526185657312,0.9854850591942464,-1.7657996796285442,-0.16793995256285651,-0.484,0.4673645023330774,-2.1298783506375067,-0.535301909421469,-0.14360821229686377,0.005745851584993171,0.3514798755911778,-0.2967071478637299,-2.6775666348703457,-1.5744099168832333,-0.3119373569489952,0.0836,-0.3277549655250092,0.02494175922927762,-8.295273100217587,-0.1457853506662733,1.1143284475147173,0.70198410297059,1.1648427686127243,0.0028796795968925944,-1.731182207400713,2.373117430125769,-0.64863775419241,-1.4883700766747054,3.852558765983652,0.007085517502281663,-0.3265187972357782,2.9618128267662094,-0.25540647905701874,2.529536814414118,-1.6524667039810053, ],
[ 0.084,0.0481,1.63446338658136,0.19952438913391543,-0.9606135479242893,0.45909770962655316,-0.9870955211624858,5.345622854314501,-0.2973653629591284,1.7355643641209648,-0.5653139583754544,-0.06524662764035047,0.09457123418475262,-0.7369956352056717,-2.70873739885087,-2.6133958797813737,-0.8650694863621329,1.4665891631661945,0.9927144297966838,1.8080019388605233,0.04541437688916411,-1.972841325838921,0.1035,-0.4313232650590047,1.087008167916287,2.719246228165328,-0.01159108636124296,-6.387044295734147,-1.5829968971744397,1.8870561129285477,0.06820202044139959,-1.8143242264590203,0.7377460805754067,0.28559092563907845,-3.443044077736383,0.10396569223597431,1.2973108225816332,-1.8341289304048496,-0.34145901583556837,14.72960145335606,-4.600259467006971,1.7208554752185248,-2.71642049500812,0.9202940513117822,0.0618,-0.31842088008647834,0.002482605456898768,0.8464866779765707,-1.8681615291202074,-0.6379004888041021,-1.9800292974740947,2.8576536050302974,-13.485085711813165,-3.1753818143863675,-3.975338248681296,-0.3498,0.7309410168878672,-1.110223241848328,-1.4515330659676935,-1.0259935129239701,1.671430637802748,3.4619779403704123,-0.8150103306866329,-0.5760858665018311,-0.01162917377034375,-1.7653428573095342,-0.2655322744597677,3.631474389012762,0.004685262517912862,-0.8448091687765468,1.70561885970952,-0.1722,2.2194229019237874,0.1109,0.05419712577324058,-0.899423881370778,-4.0838600950820805,0.16053405008214428,0.9311161258819167,-1.4706151621394286,0.15150561548607422,1.4450351948892506,-0.577923626216944,2.498930323853459,0.57051929580622,-2.291826302455881,-0.6299208970723509,-0.1102,1.16328693738377,0.6962409734317236,0.0807,-0.1832,0.00731067648859654,-0.7443977630645437,-0.082,-2.3920696617967794,1.3238110558759446,0.9764755831454106,-0.6560337775360628,-5.9027304576292305,-7.616799053943206,-0.4154071373521125,-7.774186125776173,2.861622992404936,-8.321338064700063,0.1108,0.19271415819511106,-4.419226787368017,-1.252855039983964,-0.2886422871535929,-0.9096800325898957,-0.17178074237728655,2.559389533340979,-0.8449797098895128,14.33047289887977,-0.6756948020861988,-0.11024558721490724,-2.1313454423661797,0.022235770396963356,-0.13619512519971433,-0.6993797015942417,-0.08581185945418748,0.9674391672280663,-0.5022039917852614,-0.996014200814404,-0.17990228290795257,0.5545343200565873,-0.6405895057235247, ],
[ 3.003617727419944,-2.550743963952401,-0.2007,0.019816237602475247,-1.356977263508095,1.193127103642732,-2.1658224357797162,-0.0413,-0.5603664237329238,-2.1573105860526747,1.5532694446776087,1.4922225352893173,0.15771334696992187,1.027199956055893,-0.6275822787784038,-0.1398339618761637,2.1821480762389913,0.1027849783047396,0.0603,-0.3406848263376336,0.0026,-3.2670118453282644,-3.820519367238094,0.02191112027329259,0.6473057077282172,0.610669810139797,-2.0727086854434744,-0.0826194932511584,0.049466547697709105,-0.5463,-0.4315098381610296,-2.3176187275604323,-10.228476244558182,-1.8131316216523512,0.045301541501190444,-2.111190362045528,-0.5644335239086675,0.0218,0.4796510023845657,-0.05071821864067606,0.7668738648618669,-6.653951137444793,0.4758257847344273,0.3977522618861742,-3.065266497893367,0.26645743653095755,0.7257052107719266,0.0011226610428549456,-1.8791338492857945,-1.7582061541553269,0.17063772005562633,-8.913938239067033,-0.4039201974181327,0.29170467635500535,0.07062986254217708,0.7599536522667081,0.4703585201597435,2.57351963890792,1.9082907868326955,-0.2463,-0.6316175132875428,1.6638207601833008,-0.05131039044545041,-1.7982784174019757,1.0882422759018637,-0.2230330490709556,0.1611560719877004,-0.47261451367287977,-0.28239115229111506,1.1701600942522261,-1.413916816690569,-1.3593564802479676,-3.6879950884053527,5.783311588680058,1.367615502274205,1.6967151035241848,-0.7221113561925617,-1.7325919838872827,0.135,0.1236,-0.17616583413014938,-1.7702400363077309,-1.3253595760190744,0.2442873360445837,0.8642794332512528,0.2989246943479782,0.009819292797991364,1.726246343443608,1.7016185623303277,0.7688428625345524,0.0508,-2.588457419749781,-1.1682341971843992,-4.627891919882199,0.0025945110075115394,-0.0832,0.4138606458204931,-0.3250762989572571,-1.2952737898340663,0.2155810589841583,0.0924,1.425234836455674,-0.46626599274813474,3.7343033577811804,6.40750443730131,3.4267610054249227,-5.523449474840194,-1.2083313415819847,-1.9156487219327498,0.20219435658794904,-0.3515038214960373,2.487704403431992,-1.257050034960352,-0.00812097877463136,-0.1403,0.27,0.014977167432802564,3.494501509997386,1.2050306862938718,0.7827151208919261,-0.08537456221209551,-3.318592786155109,1.1980073241112823,0.122,0.37723087756402407,-0.1551664701326392,-0.919953480931028,-2.116125228144037, ],
[ 0.1478,1.8039553308089804,-5.099382704849039,-0.2043,0.8611969922344183,0.6361162864872432,-0.887572361662563,-0.38557927498157274,-0.1046178364565801,1.4115745566417632,1.329922890272845,-0.4932820009570097,-0.8057313429493786,-0.24037963641466753,-0.933545637281302,-1.2118186123049068,-0.6507848621158688,0.32481087730334623,0.22734439172131662,0.6901641324394976,3.320116749560104,-1.3586320536805143,0.1874319858935749,-2.1854434563709324,-4.471470925617005,0.04583332478970031,-1.0432283575933288,-1.2485789544408712,1.4047497010515615,10.056109742710138,0.4993724481592198,-2.5041918842019637,-0.5955134071207291,-0.007126841676536812,1.0488032206365911,1.1701029216297107,0.5991252416957498,2.3661569059717844,1.1542868793430507,0.2201,-0.9534264298076396,1.5353934404633047,-1.4186188471850518,-2.9402104959065998,0.940374468880282,1.079811599472732,2.8868193844968495,3.393721451988734,2.1714128405366533,0.047892399279632396,1.0586650592735734,-1.4123806415094147,-3.30560666431084,1.6177870555811134,3.3599501539812104,-1.0337473457223403,0.0277,0.8618723554702608,-0.021584986472552914,0.01444235776115713,4.098259328549755,0.0613699571846253,1.0396972207416417,-0.17764142494476398,0.545812372804913,1.061013673659192,-1.494916183547555,0.8244099214178641,-5.0908055781618335,-0.14896200178253602,0.15222298402572446,-1.221235012313874,-0.6418280761171953,-3.677959213948406,1.230919125693158,0.08927376730724357,1.2867547837148112,0.8493775772869895,-0.251,-2.11227761151071,-0.2658661949250183,-0.5259141942289378,-0.2618,1.638274886856321,-6.003308273739513,-0.1785,-3.148910145505926,-1.3868393023072647,-5.027189626462414,-0.11295609889112856,-0.10729559082297557,3.146555834155169,-1.1655082621813313,0.06884488734299826,-1.395104143828719,0.6713670543715785,-0.17138879685312855,0.5109366373523883,2.711128096906796,0.6570047401417904,-1.6200283576680552,1.5795626739280921,0.1925,0.06433944510236352,-0.163054994400113,0.5186,0.3294355611630658,0.14220297730415005,0.20530745836331218,-0.6085379134874921,-1.4584037478265321,0.030104953708556932,-1.715771559996993,-1.3977142563203069,15.239775797833145,-0.5971833424916592,0.09932140171381353,-1.1692328537376393,0.7368035084681941,3.281209878328043,-1.1675717518242086,-1.5416797554380002,-1.6904694329423937,2.199198601407708,-0.4210749987645038,1.3299458502165407,6.219241996546434,0.2983978287827538, ],
])

weights_dense1_b = np.array([ -1.9042008195704847,-0.2261756804383476,0.9819849272469411,-0.2519064643463382,0.06516143658608492,-0.38995329802905615,1.1250657871395973,-0.2439032881124984,4.964768068299772,3.713922926577197,1.185168247803218,1.0253104293196702,-0.10648218406440799,1.4517493371798487,-1.8924910038778746,-0.0432,0.6428277137528787,-1.0734958082218158,-0.733678096628933,-0.0201,0.0011434989785409483,-2.9445710566064243,-4.399979019958302,-0.19064294382515717,0.7777980480086537,1.1006753181645061,0.0706,-0.6665711534419663,-0.12333831259070505,1.891124664017831,-0.5753171498276983,-0.1089,-3.000492963373403,-1.4663241666626363,-0.0221,-0.6300644801216752,0.8600410810550816,4.582146995774803,0.596400209767094,-2.276731680896309,-0.422510789385601,-2.0774468248546945,-3.8852611155406,0.11735057885514706,0.1818042628033456,0.11175865437283028,0.0197,-0.1611918385397022,-0.040224491310603766,3.2781915600497054,-1.1744389732299985,-1.1983317698269969,1.9037835851848313,-1.718699060555955,-1.9462581676682467,-0.08172970481926896,3.7699603244204014,-0.1218,-7.63252993043486,-0.15362465721176227,0.11344092048045916,-3.2955905478295664,-0.6092795519932763,-1.236272448443589,-1.896776467530604,2.3251283635742546,-0.13935228518387024,0.9626658007307047,3.2728434267314395,-0.8852323866249153,-0.2962,3.026400822001297,-0.6783693628867525,-0.23041219800229937,-2.7150243600325434,0.0185,-1.5356965634919437,0.27892209020607894,-4.2613123925722665,-0.1085,-0.035246634208217165,-7.9389621270718465,-1.2610796329568132,-0.4489066510875861,-0.1887,-0.0005508876147142598,-1.1994876250991422,0.0007520337748819402,-2.28424937831211,-1.1159349550209492,-1.4321633311293496,2.6889207937252824,-1.5686830903673883,-0.026444010535205908,0.24799735590167413,-0.1882,0.8086802213563008,-1.6583110465703892,3.28725362211278,1.681146045961331,0.4577020414383415,1.4971136067399857,1.6911036426910289,0.16288470842623726,-1.960772194452731,0.2648928148174869,2.95407813609121,2.9435683452476984,0.0354,-1.8347772088605185,-0.8880093378602645,0.0326753276287442,-1.2947126462099556,0.0004,1.2166640810870546,2.9115508154910525,0.41129077519936885,-0.29067676690907157,1.7194553972804947,0.9003778631444581,0.23868963023198397,-2.3754270384855927,3.1853812485071105,2.9094078497639457,-0.1872,-0.1592,-0.5199825865848954,-9.204565468426424e-08, ])

weights_dense2_w = np.array([
[ -0.9065797743258877,1.1427351671720611,0.3127779867434093,0.9195294675134766,-1.066105216129222,-1.2957795123235396,0.6578998912450872,0.09220689827447948,-0.08194365754927822,0.8898997078595642,1.8389847132313544,-2.833850932464582,0.9401143056609174,-0.15133834930558226,0.32229007482330957,2.0455305588027657,1.5672175209725947,-2.2717148162954666,-2.125302223237213,-5.010698209343601,0.3716163969572015,1.0534110051909444,-0.20598906204664744,-0.8002252903460145,-0.6389827814552065,0.2684167811614912,-1.0742676007211287,2.959361787384472,-0.5535997413222561,-0.7191649858816433,0.3560559082014718,-1.5646854399951962,-7.92848179862037,2.985731231596157,-0.34910294118579566,0.27256114385566077,0.06772814029946629,-0.4953333362829237,3.5791581840647764,-3.648141097466076,-0.24670006093927901,-1.4234990871550832,-0.3749,-0.36580215100500124,1.4056015845040981,1.5007916344607786,0.8690319955190171,0.2753491683177231,-0.09241921109452847,-0.2663,-2.9818229205914726,-0.14556844310153144,-3.009527925026648,-1.7614261396030946,5.004662008012789,3.221528579198081,-4.39232059172463,1.823329886081219,-0.3419423765588355,0.9391705796011312,-1.2833100203822365,0.3087,1.5554218187461977,-1.765183706257249, ],
[ 2.219408175961896,-0.21554117392424268,-0.0020884560107651885,0.6684266278251365,-1.5152074027582902,-0.350036413079576,-0.9834581776927801,0.9828406004603972,-1.5409816054102388,-0.3428305790099522,0.3733256318938234,-3.7279082426787062,0.4173,-0.02964521411285078,-0.00983428778162458,0.2417,2.1951543964260125,10.08015469761426,-0.008387431884341219,-0.18855669829161836,1.4736438888385954,0.46094787587509817,-5.994262446062345,3.1238903047963107,1.2893692137884705,-1.895216916949778,1.14250543360204,-0.178839906895792,3.1671010784356692,0.36268762638341534,-1.7681205890026626,1.116220277057087,0.6810805119202976,-0.3467,0.1745278954148242,0.23120553025774018,-1.589873489065749,-1.050960047253532,1.406259890921456,-1.9677637893064421,0.2051,-1.9548611449437292,5.57261802610058,0.1628007631386749,2.1454866203937604,-2.67747876926871,-0.58141443181008,-0.02649276918163858,-12.70021588236514,0.919513561016187,2.968005234391221,0.3028,-3.7583017058395165,0.3041713263880122,4.721588523222121,-0.1192142590278966,0.895798677898278,0.2646,3.507355267819095,3.942741730463574,0.12700808827723004,-1.2591949473925954,-0.07953730614386527,-0.8963, ],
[ -0.1746367301384145,0.1082,0.1074,0.1433,-2.9845480156304123,2.868112656534708,9.943770814250618,-0.030386532802967037,-0.1692631768421651,1.9738426163360194,3.9274195447059346,4.143120006328417,0.7338472914024073,0.541616129104839,0.1097,-1.5313387401862708,0.13086656080569947,0.45183453974643706,-1.7811684883111678,1.7372348336665109,-0.46205971054457573,-0.6389176466786335,-0.3031,-0.533696329261365,-2.1130033331215894,-0.0164,-0.592509681668242,0.02150651272281932,-0.8278312880083143,0.6150139671984387,1.7000425937207395,1.3145926818802298,-0.0503,0.2911535562143346,1.7891687879176263,-1.4572406387660417,-3.923878601703094,-7.453613186243597,-2.777126819663387,8.531047687340806,0.14863329433971595,-0.0453,-1.777239180813355,-4.188271517673394,1.676848088537545,1.8616011946608575,-1.0186936502488853,-0.3029,1.4343231423389808,1.2764789969962078,-0.36269775107926727,0.09828102019207331,-1.55551891840506,-0.45667003113088755,1.5672885638849174,0.15870789858151801,0.3484,1.3146242134934045,-1.9060787672510238,2.665210650385201,7.200778808737725,-0.9249997575382478,-0.1764,-0.8930989349298354, ],
[ -0.07537466137376776,0.29,-0.1654458456617377,-0.4823083826968112,0.06731290054873063,-1.8967883413968314,-0.48877019854145226,-0.5803491088122172,0.031770304819962444,-1.6088388129081872,-0.8626820010401463,0.6426,0.2435,0.403770392212499,0.07589687670713387,0.8328319357399239,-2.2804608812061486,0.6375729663892407,0.2345153670770148,-1.661263500785967,-1.1177473857898932,0.48055097617403186,-2.3828959331563104,-1.4502263314444497,0.35791860152777155,0.277277299690851,0.9275750665736825,0.4217680033657814,-0.4756,1.950417119482096,-1.964603462358369,-1.8404115799593588,1.517472317444257,1.8062872328187538,-0.1386623970003892,0.044494495795097115,0.8265383247356815,-0.17871327920706404,5.573499963736898,-1.2304657545398594,-0.5529210870970029,0.11985321845620467,-3.2652012273475304,1.0537151620728498,-0.3415,-4.629220923843385,-3.6662286213260247,1.5203106645393272,-0.7200786694408348,0.0874,-0.43776888504538947,11.160180624178242,-1.8748301256529232,-0.1340597671211476,1.4029653461298983,-0.0878041605459222,1.4286006960831905,-1.2179481764430746,-1.902001428729729,0.0748,0.12552847280051888,-2.7238871837656378,0.5100534518031108,-2.882464897980473, ],
[ -3.770703657366393,-0.08362229174525726,0.37044700148758875,-3.8797658499192846,0.24553530581390365,-0.246,-4.863124978471901,2.6415842196281716,-5.358174039894196,1.1655536624364786,-0.6845840901113657,1.070510646379053,-0.0796,0.026150028427067696,0.6274744471189307,0.028223890430810996,-0.27085694188922077,-0.7778330666448476,0.9999209960716997,-2.4089099184361062,0.1439989630445741,-0.10282412530308241,-0.3817,-5.157815838083053,0.7132156188769463,-0.035764709583332784,-0.9558410608856419,-1.9601457531560817,-3.931137689420252,-0.009621214112228597,-0.5376815988020457,1.654372111712937,-1.3370786498829008,0.0008405389353985533,-2.8035343818019545,-2.090063788697794,0.023624984946575833,4.211642029744978,-0.13853397665390796,-0.8846206789855088,1.0119196317932528,-0.6677245161427829,0.0245,-0.8380998162324116,1.312491513249399,-1.346946061295883,-1.0784318001841802,-0.33953580687314383,-0.4582,-2.446865669873445,0.1288,2.683106373300535,-0.2713,0.09044872591030696,3.256445415139586e-05,0.05242869462602906,1.21999651252767,-0.3532,-1.4910957121430535,0.6627315084477821,11.830180120226437,-0.14413629247169385,-0.3053781847284596,1.297537584795439, ],
[ 6.672489493872922,-0.2703,-1.3150351381304355,-0.8529303333295941,0.0261,-0.0878360818657831,0.2278,0.16044130513537613,2.30099011989618,-2.433456861529183,-0.9399333733835631,-3.6995538553953153,0.001051067278985969,-0.327585670095122,1.316173986731735,-8.896601895940215,-0.6572882063550097,5.7641914117872,0.761105372411577,-3.756325815291095,-2.0510772623051494,0.04900202675222177,-0.2143666538308698,1.876522303300952,1.6495221294966969,3.6455196427741487,3.0433382624126324,-1.3792396144685883,0.06157095214037511,-0.3099,-0.013012078399575607,0.42417132840945104,2.753064906487373,-0.28502655165743856,0.5738144826321722,-0.4965124096437352,0.09971121883091288,1.1714522578836006,-8.654314806134629,0.09578721541250261,6.407645979028474,1.4842051051374598,0.15087852533594864,-0.08061609266034495,6.631671900204026,0.5495407856713362,4.499083642278502,1.471687671176655,-2.5743436795759786e-05,-0.4313,1.8799704014323015,-0.37828413910590464,0.6943397470482309,-1.1899683494690412,-0.9352214861645974,-1.0491744972317614,-0.8017418578055475,-0.4272455098260372,-0.0026719966965098162,1.5352584367177369,2.499997528354292,0.5302531688796885,-0.2107,-0.5761852698269588, ],
[ -1.9245099976931532,-1.6901251328614757,-0.3314401677735502,-0.46,-0.9678841128071826,1.0348414710750249,1.0693607625390529,0.5061554765995906,-0.022358379417830244,-0.5670581727909894,1.1328793501720036,3.192838735120648,-0.409,-2.610608483794825,2.3208540515366014,-0.6098628696735603,0.7632576861280327,3.301410122069166,-0.009103377260247634,0.1663,-0.5889084047467369,1.703446031414027,-0.9418009535137698,1.6096026944453936,-0.09121047760957858,-5.876991769571519,-1.7083336500833892,1.0098532670437357,-0.026250765001085242,-0.7246647697677286,0.25446266316170496,-1.1755898313448465,-5.766863667083916,0.17502156906540733,0.3441,-0.2558952439329007,-0.00936932365073364,-11.576272795148238,0.3273791100814183,-2.300434543725473,0.05491162130854921,0.9719472380033974,-0.3152,0.5502037094891082,-1.7322921669835245,-1.1659909128815333,-1.9312282000321224,9.114974537737744,0.782582773149296,2.3315388672099253,2.361967974787828,-0.9112387289762474,-0.867819764983518,0.4594277403215584,-0.1381770746969354,-0.04081074606477228,0.21528386860885587,-1.7084376549759117,1.3056741674047134,0.4659150503886119,1.0763545872230615,-4.1564622168042105,0.18961714445206276,-7.734182789381812, ],
[ 0.3528,-0.0852,0.16755740482687054,2.2964353138221427,4.925226174641659,0.588382699813677,0.30010370504070866,-0.3628,-2.267037196957442,1.5116072045509157,2.766792923001187,-0.3871,-0.1605222793601798,-1.460743771517309,3.0704725230327723,-3.155869880108816,-0.622891917959394,-5.136751865175831,0.616260379322521,1.8684104631002687,3.1230386236833305,0.5268736190480571,1.2067432396223163,-0.06458063708460138,2.577601694274507,-0.238,-0.014688228008653891,1.061543852647175,-0.5133158479581507,11.664858513581025,-4.379869156586142,1.583695508656904,1.6483785087244824,0.5044523339359518,-1.4857691191936986,0.21516886806193325,0.09455329507076454,-0.44778700667570964,0.3273706479271361,0.47366471804607485,-0.44711709289124263,-2.1672766205397993,0.17699090682334973,4.034851937934267,0.036,-3.4384631467745517,-0.7260447183389398,-2.2137742738316857,3.5292131017748476,-4.436187804646107,0.663232117238338,0.31935693733369486,-3.5210758811968175,-0.46227295422425174,0.12583310397151865,-0.703672272297923,-0.7475134855348087,2.0837205323463204,0.4344804326033893,1.8249039323428413,0.2736,-2.199934238849442,0.6230364774247823,0.11935007717522048, ],
[ 0.3604,0.07268342310928648,0.0785,-2.1910908826917637,-0.2015,-1.2417734120299573,0.7362664959428742,3.058975811627949,-0.2182,-1.3674598818196415,0.7135543865246968,-1.6502360942230443,-0.07482157989604767,-0.02804499841799784,-1.0712061997284281,-0.3188,0.22010937022917565,0.4366013748731714,5.730523635130628,-0.980054742813819,-0.0211,0.3723552988532506,0.004080038354257895,-0.5202420293454466,-2.1078799755764814,-1.8082815137267374,-1.8576629897499777,0.2868,2.6832223614458397,0.0517,0.32234897939425144,-0.29536898655193794,2.5803205967512834,-2.1967474822701747,-4.003992181283195,0.23366826943163027,-0.12100337515464878,-1.2488795758667302,1.3775956135111223,-0.7500128602924144,-0.22406575443530286,0.5272660837973104,0.5630964301712555,0.2256412783767853,-1.8092553588010285,-0.2376,-1.5333071753264922,-0.2358905008018269,2.621440372761865,2.3389050084197813,-0.0548,0.6544680991299631,1.9135422545184344,0.8857754910354096,1.0437088523671074,-1.7325953535226937,-0.16909456698647382,0.9546348355160461,-6.852165347646056,0.20142325502354727,-0.02112073090464179,0.08614336444322616,0.4564,4.863146865301499, ],
[ -0.40017225808630796,-2.3029184712789923,-0.06719368375481903,2.642785704846702,-3.793770286362642,4.318770392013611,0.01518984670375222,1.05292509411088,4.230084330104158,4.005874334718253,1.4195809187203436,1.7548517009029043,-0.3411,0.04944787709920029,-0.22665174877545693,4.514449195343517,0.5496445741666226,-2.453487557650986,0.0825,-1.7307503665089146,-2.2583486223289104,-0.11338242394142334,0.893755096178769,-2.2006846150561574,-1.8608422114721155,0.441522723637594,-4.269226792358099,0.9741669273919248,-1.77443605648932,-1.7533451500471235,-3.692435621363863,1.337800882953941,-1.5438159963991729,-0.000863565259129455,2.999830560673702,1.6599313295324665,-0.14874527182180022,-0.013384724215704184,2.115802838266029,0.0019669612043890215,-1.1113726038001643,-2.129845868787453,0.05202169684641527,0.06839539103010481,-0.3219,0.09652126187144738,0.7951878041962034,-0.26260709391144743,-5.7608498526011065,-7.727667656552733,0.7521354466824707,1.7197548368320925,0.2262,-3.56441208670099,-1.5011510677042432,-2.182771522795968,-0.008952867340830195,3.885229717550203,-2.534179293464713,-1.1881260313580257,0.1468326076001024,0.16893598836352877,0.6443214538284076,-0.018268247970616373, ],
[ 0.7910712722115087,1.2275481296438877,-1.1511007951638506,-1.2466811984006532,0.03742346742811049,1.1118206630524827,0.0274,0.6610188606918137,0.0033780095120262924,-1.456923510049942,0.3048,0.0365,0.3285428531234722,1.97650891996804,-1.295558269175678,1.4626864599732112,-4.025139726507275,-0.6668233774471718,0.48254756266867993,0.3939,0.3837,0.1745,-1.174403432431634,0.41084696847929036,0.4175582243005793,-0.5992374301157704,2.579327948408229,0.5246426689827214,-0.9935466146901369,-0.045260116931672235,1.0577034731071622,-0.10497369747453919,-0.10738174792176597,-0.5733217713655652,0.4840496092864595,1.1444868963477963,0.01621614801928473,0.2672020046776218,-2.635190599329151,-1.75761644346461,-3.1518264107589666,-5.436388549553149,-0.1222,5.469391257688251,0.9427390519792851,-3.7202307460950914,1.1405349792710777,-1.8266668833347885,3.2684060788918443,2.985564381343296,-5.335826500221996,-0.005492099543055383,-1.3718082960679538,-2.7652573124071576,1.2516588128341959,0.0983634731069706,-0.47018117489849565,-0.4948572471238564,-0.6826,3.469706457659001,-2.8518377187508444,-0.2743,-0.39022435268095323,0.144, ],
[ 2.9552609409218125,-2.194454841472517,-5.342623529956995,2.7984185793689766,1.5999302609109396,2.082486627846596,-0.34205877997181044,1.2340704653562806,1.213857379080832,0.8135633212635178,-1.2483381087099732,0.1532,-0.7171165471098799,-2.3216379945576393,2.180414299696166,1.134221074143428,0.7764263832424687,-1.4461294187529523,4.48907677517575,3.3468867974851473,-0.16544951601104851,2.0703678854764975,-0.4975158433681257,7.836329629427488,-0.4096,-0.1067,3.403285954533768,0.1132,0.6013320509194439,0.2692332163892813,0.5819287648353437,0.48985738136388,8.457205628610226e-05,-0.7655142048655645,0.3629299301699703,-0.7367411714332891,12.168764374173415,1.34642437881219,-0.8902,-6.2265151118678,-0.07100052580206899,2.142028123863921,-1.3572658218561404,0.21552320172811532,1.2129477926662902,-11.88266242935412,-0.5149212816852411,4.192154523264179,-1.048654841977164,-2.3225006120990184,-2.8642479583390643,-0.0307,2.4698011116208543,0.6732123524568683,-0.006468370531071854,-5.702738320477982,-1.2902483313764284,0.8725768460577006,-1.0559690825596189,1.8762407987946428,0.8935511289239813,0.010524967369180464,0.9024312618810889,2.922474525437321, ],
[ 9.938755929197043,-1.1902720623756335,-0.013298498263466536,1.1290964255136267,0.9049910528559759,-1.0436641786677305,-0.38331102781815374,0.27015047147565374,-0.21597649894323567,-4.030785706228313,-1.7587598216085651,0.934619314502894,-0.4014,1.0175802795689068,0.16,0.1994,-0.22232845013235084,0.06569470319966897,-3.3127279506660434,2.663189505006102,-1.8724622869305845,1.109016868779799,0.6874303001782185,0.8659967078758389,0.21346570914486712,-9.402414304269096,0.009396227950119095,2.174420748775829,3.9535812007240345,-4.064805841985666,3.815001730081582,-0.7052344658771835,-0.9846910731012098,-0.37089924792626217,-0.03034519180976183,-0.04615906110782704,-1.970996950306424,-1.9880398238990082,1.1142903909192179,4.744144274169672,-0.6123675775725472,-0.1724126464445032,-0.0422,0.2739063683738696,-0.24772345948939006,0.7138979500064442,-1.4379252331545629,-6.245639212327998,-0.10629817023425044,0.2038,2.411449008240552,0.6740437700274635,0.7493411794417661,0.047925021924125004,0.0816,4.465816190404277,0.40496531826784876,0.8128832025401116,0.002678900034837849,1.136226635943583,0.0772207319497501,0.03008884801409724,-0.0165,0.7678202176282791, ],
[ -1.3029966873789955,2.853429399942166e-05,0.8099054591458996,-1.4550982552073788,4.121999300926664,-0.0563,-1.7319818671598342,1.1852265148605523,-0.5602650099276025,1.3589506763890515,-0.5811,-0.10907947068195913,-1.1659759128653382,-1.7795422162451555,1.4569801448463273,-0.034373909806022555,0.7166134732210464,-0.21508756783018482,-0.8976182165690063,-0.5130357708030108,-0.6891361019671516,0.09897119888423832,1.6717213624133374,1.9363056214061722,-1.414099843052258,-0.1184,0.7458150965754559,1.505622337284453,2.775215647611947,0.8380844366560096,-3.2706599134560816,0.23754163624492924,-0.0726,0.23566880590837913,-1.1427849130558743,-5.557343474052683,-0.37684757174793293,-0.5328314393677366,2.8780748545362034,1.3124135057906048,1.302495126867714,-1.3089999180771998,1.9069767258157986,3.1942778993235064,1.5955085842312955,-0.05744979602457414,-0.8640960128981381,-3.4930885805549403,1.9779317128095029,-0.043445162263350164,-0.6892220290054879,0.3200272491536198,1.2607787571324731,1.6305558929000687,0.7863875964593546,-0.05484182310162375,-0.8663149523913714,-0.06758719647279007,-0.3810948050903613,0.4444,-0.05395516510495035,1.6337798943495827,2.6109549542304578,0.3988, ],
[ 0.7138415721728362,0.018243036549706017,-6.592013734556257,-2.646666169643441,1.4306877396609636,-1.2800336144910096,-4.657790089150609,0.4322,-0.429,0.6538,0.10285004371329523,-1.1677029041685965,-1.8620007720960245,1.9378266503656854,1.9510062968594415,-0.1697002255551276,-1.0007564435540446,-0.3844978273986567,-1.4387600370390643,-0.6492832015638352,0.15733742511991,-1.8610964067125193,0.1726,-0.9467695429435703,-2.594655867470038,-0.8930879052852214,-0.867108724729991,4.925297288604662,-0.7752373488163442,2.6821652086919334,-0.0875,-0.4781,-0.0784,0.0258350982625605,3.419943278512127,-0.2574,0.010146021653603142,-4.252330793279978,0.5818911003842879,1.4620558653984381,0.008837116995437592,1.1999515636136884,0.6072125004499708,2.5631790484320374,0.496310218208598,0.2676,0.227,-0.1260656338165423,0.1821678753299969,-2.233170295335778,-0.41156284542525146,-0.013449171517897346,-2.05282312388974,0.19228602167428965,0.06484907979468857,-1.6894743991360102,0.1844,0.7498311062972596,-0.898919111582991,3.2858397419127603,-0.8354966488005018,0.3520294609701616,-1.9769738618262156,0.6308334159360828, ],
[ -1.2025336008811356,-0.13633517612369794,-0.3002905812505941,1.844450254959732,0.35312935374499277,-0.06227958978195269,2.130961002613709,-2.8146587080607857,-3.1265753115901243,0.13498457341431905,0.0071409527644601305,-1.2593357874134197,0.5209856305675603,0.4137497471304023,0.9080773393281266,2.3967194807145398,-1.4000748049366563,-0.9839901257097017,0.5276529747074652,3.8161139892372176,0.06470804907232972,-5.415158599287339,0.0640626233587892,-0.9450257030292687,-1.942046043218001,-1.0712607106015135,0.007120429758825161,-0.8865658285804425,1.5472704736751268,-0.021929264188525525,-0.3654083219824079,2.2189916992048797,-1.5047374960107476,0.1289362980326242,0.466361879664138,0.3234642995824914,-0.09269700534333733,1.5554894041943679,-7.484325258466148,0.2789,-0.5122357323456903,-0.217474637103387,-0.10378996002981777,2.0600889183845794,0.4883739427607394,0.5561877443339721,-0.09404207999688594,0.00779483528765756,-0.3651472571006215,-4.537251825313039,-0.6348,-1.16598847942526,0.16510436671185336,-0.05508764880757181,9.904953262704026,-0.1605,-1.4854283885844992,-1.649207027327734,0.0085,0.32060317320638865,1.8150985909903545,-1.183521579742041,0.7928771669213508,0.6668985233477069, ],
[ -1.5691186454535648,0.12981050957270895,0.9382622865156545,-0.1624,-0.6494650170029443,1.4219913155096662,-0.0524266122363123,-1.868516797404207,-1.9287391182227125,0.0048,2.114972030693948,-0.05911403205256075,1.3953296421430612,-4.9961050266110725,-0.4003,0.0807420091404184,-1.9473263157560436,0.8933488354519232,-0.0715,0.09429755132590076,3.0753176210465987,-5.054506960253635,2.6201930344840583,-1.1440576540344276,-1.6373499914056646,-5.554501883647919,-0.8134237373200847,-0.9248456595492497,0.057911383262255506,-0.8688366842011346,0.346,0.04823094803161446,1.3783419473437633,-0.378863592710871,0.0944,0.14588190956824765,2.0962787520836015,-8.11684555363681,-0.09181146493074288,0.37735400276596975,-2.6581574392789302,0.275,-0.6696176758295311,-6.394612490208856,-4.970614709645835,1.7614351975035207,0.2937,-0.1186,-0.24555640661222944,0.42003012294823655,1.1531299237288097,-0.8523106578244252,-3.757283348589021,4.218909387753152,1.7881691088327916,0.0371,-0.1447,-1.0039799490886088,-2.254853348820187,0.31061395755824084,-1.6394003598457525,-0.616556387546978,1.0392168393491958,0.20849566834868116, ],
[ -0.1316723155291768,-0.05164531431076271,2.8189816582942733,-0.0564,1.7921555159846811,-1.9419321813955148,-2.431883055880701,-1.949199866186255,0.6317370982878266,-0.25190170432767234,-2.296955949363264,0.1258846528637565,0.0749,-1.0784351284945184,-0.24372329028335887,1.35103717882328,-2.2291268411395064,-0.47544724019439316,3.1906310904168578,-0.759533253396395,2.5642693178307514,-1.550081390404658,0.009540838956553376,-0.4053695833827212,-0.9697682252770412,-1.685012771107389,-0.8449287602172806,0.6549292492632344,1.0660788544436006,-0.06188195014900679,0.5125,-3.5398086516830607,0.00010005112369114861,-1.3100389071591212,-2.4282339582447547,-0.8247308053095864,-0.0277,-4.5963107775904835,-1.5043005840823238,-2.681760646415204,-0.5881245896134569,0.1735,0.25346226098716623,-0.19572296190681998,-3.3754936630197814,3.0624874876652277,-0.05699253591924925,-4.387312585887653,0.1749,-7.942679063825305,-2.5411786053989616,1.0727261485845545,0.5302357513498412,-0.04031120538136313,0.18238472399280914,0.8806296327695466,-0.873243023220307,-0.6915368424569532,1.1997305563403664,0.3855,-0.2495329632799932,-1.1811125637014075,-0.11904228966677388,1.2606006372880274, ],
[ 2.9345641484598164,1.431449574795928,0.008717286416268795,3.8376533440313105,-0.2987826368815067,-0.22067230854039996,1.3119670970588344,-0.5257376435446822,8.610534445214345,0.0017416826301402178,-1.2750620060167104,0.3431798712838332,-0.2861105223116347,-0.1426,-1.3337158630365686,0.2779,4.711307090230814,2.7752078833765568,0.10770131948660396,0.0111,-2.3859845730295453,-0.08290819021189133,-0.1321,5.634397318881568,4.711038709890014,-0.3440734066395351,0.3091878188207504,-4.657130100135571,-0.014732313648965644,-1.0393697440227587,0.5642,-0.1426092951729773,-1.335585713259018,-0.06095483000755804,4.138854971773867,0.18196331537281646,0.0020229057077567163,-1.150416554316404,0.8499824785777289,0.5831095183892467,0.0289,-0.18967112943130632,2.3914202027302913,0.241,-0.0703369513427802,-0.584864622355513,-0.0925,-0.6568213984018232,0.12085559925082824,0.2364,0.3111117327779317,-0.4316058686823237,-0.005501315872198598,-0.14583394160203528,0.10414446379443383,0.86389221434945,2.270819103162328,1.8097957453759932,-0.6560986192693111,-0.3517410968088011,0.27320675796758775,0.6554123921636985,-1.531912395687777,-0.0003319230397405193, ],
[ 1.9822557692573815,0.4314880616424838,0.9306426176468621,-0.6358544894333409,0.0756112846414377,0.9575376607597075,2.8953404273626515,1.207305538448737,0.18029251517272543,0.26329890341830536,0.867466922185475,-2.961549965052378,-0.9218792532767627,0.6700871842814853,-0.1559,0.15267852342998522,0.08240269269529037,1.1075855065313256,1.2593652635957755,1.0127763205985987,1.5305824926590363,-0.12921519725471176,0.44157920329210865,0.18341081737955314,0.3127728787995865,2.4571850748673763,-0.3254,0.42566056251842777,1.8524268467185605,-1.373518841631995,6.576108530704967,2.1667983253375755,-0.0876298116694736,0.5153515851251971,-2.7280751267039465,1.4251762354937016,-0.3809855433659692,0.05988435040096091,-0.1993,-0.2974,-0.08158661993429761,0.05615070265851881,-0.062357407819944345,-2.016067045697738,-2.9254005850250704,-0.0078765664598296,0.6961843372330324,2.098475700167798,-2.436077836382399,-2.0470511298880307,-0.418084512862281,-0.08642013363658851,1.4639104534699554,-1.339838104208827,-0.8689678897305692,1.5632908720191172,2.035409911822579,2.556846665601772,3.9156197847065135,0.1065,4.450447589687271,0.019159052514597624,1.938033516746609,-1.97350355516877, ],
[ 0.07948735076296254,-2.3370399715608583,2.7282258553030645,1.5133231712443647,0.3562161101214858,-6.191847475277022,1.6183045431438416,-0.01748744541073737,0.23265025393236405,1.5234546138785576,0.1698102066489385,0.028714985961976275,-0.55334281019137,2.918936152248295,-2.8730546092450138,0.597304153694246,-1.864256451412547,3.1570838807106463,-11.994609116124144,2.5547965103415584,0.9461568123461916,-10.201616761968662,-0.2419,-1.8153349223367083,-2.584697222877906,0.27371514077938636,-8.310731536943118,-0.8921097640330238,0.17086904181184875,0.7402171910843229,-0.15015659971181078,5.1403894294129415,-1.0128943813559097,-1.6653429471895358,-4.515017305918463,-4.303416089461224,-0.388,1.2467939966582406,-7.127866943751954,-0.6641245266120462,-0.4129,-0.04246683071913253,-0.46195024788960626,0.9808988465983819,-1.6185504379759257,0.11409703632564919,0.0976,-0.0567,-0.5608909403106819,-0.5337785379054008,0.388,0.10657038385804629,0.05298123242379971,0.7028711184151897,-0.05798906065369597,3.711502777551064,10.376450664251065,0.5373898175473698,-0.5174299575895084,-2.273359553700496,0.35673426081116166,0.43986766279780865,-1.6839215876343978,-1.1289998512518404, ],
[ 0.079409945603786,0.19121768860474295,-0.24803881160055863,0.07996932526984346,0.016382288047390062,-0.5651980131310034,-0.20036032927855327,0.006443153713461741,2.746335408395802,0.3787749349988887,-0.6342204473562731,1.6942596080170083,-0.052020810740175616,3.480573797869634,1.220133877121398,-0.0032863635877290647,0.21747597998963575,-0.9047047296963231,-2.6496902995892224,1.9536535305529203,0.3379444508074627,-0.6168,-0.6209004475884374,-0.5751763970767947,0.2052,-0.7772210729656801,-0.5695120639746838,-0.1354,0.5730147530107517,-0.9350756031280653,-1.032086611004994,0.5902,-1.0106751256465225,0.00020929726931408628,1.0117117045756443,0.5855991165465078,10.839562411640564,-1.4218179512976283,-1.9800765658938124,-0.0566,-0.464234615445982,-1.8395951459002906,-0.16659945251325523,0.014136827711918789,-0.1672,-5.787729779726348,-0.002759977315616687,1.0747232753876879,1.930382404066686,-0.7511090425029392,-0.8595213621127362,-0.9527261941258763,-0.0783662790158228,-0.34,0.3127367769937006,-0.06753631200460974,-0.05385674797425407,1.841242200979442,-0.14686646590516025,0.145848006713196,0.6350337962015631,-0.04333645059958333,-4.759177328806579,-0.007233408603992737, ],
[ 0.6789169560745394,2.0190032375973432,0.9492973206333021,-0.005205648865974181,0.30474393424398727,0.04538611829777665,0.7981532672911192,-0.27948838129108783,-2.207130644519655,0.4446393131862192,-0.24358002769925982,4.792206424760628,1.4003222052973152,1.8143903991729353,-2.535765394322671,-2.982391805931095,-0.2277969225662747,3.0278904389691665,-0.28941876429129154,0.8119701155024028,-0.413572841406435,-0.04889958934637471,-0.839861057215063,6.533350061208736,-0.0223757121559277,0.047861710629041876,-2.9951755992039746,0.05784917445253324,-0.2936205044826402,-1.1519150548599277,-3.101923258973206,1.6942076268136237,1.6396524359142564,-0.3475946152212345,-0.2951,3.811313342639691,2.5739795185733403,1.4034594371360027,2.044967046314659,0.24262509161564183,-0.06617960028198595,0.23388164167454306,0.4608720307036296,0.03645742641383015,-0.179,-2.0722398121184664,-0.078,0.4543985693511207,-0.40570582554913454,1.4286060785038952,-0.054353341242502566,2.9967645007330326,0.06665276384710922,-3.250893089690168,1.176279399287771,-0.8274497732577302,-0.1439,2.0730018232431555,0.5762195665340426,0.4997517000154367,-0.005732805035763907,0.7201979780002733,-5.986516397846874,1.4146603723719982, ],
[ -0.10150853805106207,-2.1719490384998763,1.6675495608149686,-0.7151954154093247,0.7394556129905028,-0.9745078359278081,-0.3418842156630822,0.5559933786619463,0.1414,2.2198349264755297,0.6368725557853774,-2.451937418134345,1.3157367000299822,-0.0633,1.2089374093674916,4.070389070087944,-0.2242,-2.556940566681949,1.0425274870725183,-0.0406,1.3231892635878773,0.0169754066888674,-1.123691090566026,2.3886688545451147,0.8063100238013521,-0.2186330159861623,-0.09204625658921349,-1.9848771950237118,0.4711,2.010778292748704,0.01221028341165642,-1.5966047755468165,-0.07093949035443071,-0.0585,-0.8558600587251888,-2.6865039721804083,0.23944172800374802,-0.06499361025160427,-0.21310176094232094,2.1611800401097354,0.4941503469395405,0.943081430634397,1.0069553080572886,-1.6110700742599693,0.38332150749591,-3.2818613793522218,0.9561690078255022,0.005370170846493546,-2.8226479562930433,0.15612006722479377,-1.34348669625853,-0.005183526799483284,3.322099736423926,-0.2662827733493246,-0.7414787852731195,-3.0435272942419758,-2.061023665753072,-2.8013102691850436,-0.1268199842428305,3.6809353744179605,-0.04598019983688235,1.7601403550040762,-2.833152355928842,-1.0091626138908478, ],
[ -0.4139038462477117,-2.367158818579023,2.527827247678413,0.25104815638980965,-0.38334167103713784,0.7437509225367246,0.0904,-0.39487213391634096,1.2813612110178527,0.09491927772133353,1.6904809829752345,-0.7196,-0.9158567799559072,-4.4984400358769125,-0.6520322140487544,0.16958417669301315,-2.0075313644571264,0.7377105177928145,0.20576784916379706,-0.051553404472740524,-0.14756672144736854,-1.0546658090398195,-0.001897265453080039,3.114168016662784,-2.8398509149963354,-0.14497083069300154,-0.0014650266485965499,0.2929009652238687,-0.2282,1.9198653367959804,4.019891648666816,-0.2937,0.5590162475350486,0.796263647698942,-0.3997352336581622,2.3649855483944635,2.371363626334589,0.32369671647056825,-0.8067197475367303,0.054457304641769205,-2.26944654054937,-0.6564078835062914,0.5849007725887776,-0.04333958738852485,0.2522,-0.7337809916396932,-1.9000538829802365,2.2940974276150468,2.71319906849205,-1.2213458209681511,0.8177274938091588,-1.4626093770570663,-0.2289,-0.01733179647466853,2.369297624903175,-1.4572837438001662,-1.6794829623441476,-0.1484,-0.001643206942768951,-2.315220705026852,0.4805687747373746,-1.0339308929858664,0.4835949011624442,0.8459547293871688, ],
[ -0.09137544501009878,-0.8893957835519897,4.973598924641631,0.1513,0.04390500039131264,0.1713,-1.6244736370648998,0.2938219212938568,0.011,0.37097403439104826,-0.04349683215464639,0.30727958547478795,0.9518644837373393,0.2679019031199315,3.7843314407261976,-0.1616291740141862,2.9889824591929908,-0.10640149513306997,-3.578729484949047,-2.6226211475546783,0.025975234740196352,-2.1365577327636274,2.1427732863740077,-2.60598513613878,-0.18146512330300968,1.3869600128253587,3.0703855004542255,-1.8701981026542935,-3.816781424100581,-0.9331516533613244,4.296856113408727e-05,-0.9701085897182395,-0.39041879240125793,0.05440749807743088,-2.8498847398438834,-0.14959665175603915,-0.3893,-2.3114693953132552,-2.357470711770163,-1.8758085574541106,-0.568324679982685,-1.0674269257010345,0.7212081786145168,-1.93673032346322,-1.1007744925823881,5.8459759718427335,-1.0378983550951717,-4.580093538853392,-2.072574884847748,0.5341919246858858,5.111504759395003,-1.9834821019874207,-2.2910858998795107,1.4126383684571193,-0.3506,1.855602133100685,6.065772823167887,-0.026641066904692992,0.07672748370101878,-0.5272856850753531,0.4599995149541312,0.03849115767080358,0.9666820989551895,0.1785027312245723, ],
