import numpy as np

weights_dense1_w = np.array([
[ 0.2802056946350731,0.619900600356333,-0.2039201660778332,-0.5099230912270226,0.2762045931285822,-0.09681214983212891,-0.4733451502429671,-0.6744315547900696,0.41855940221842197,-0.3813480057259412,0.08272631574000376,-0.2863760784999089,0.2608007257096355,-0.191102708400463,0.23445291023067522,-0.6821627313976757,-0.21949457939877795,-0.18658489139172385,0.0013090350827155222,0.1881531739124515,0.06639728630632394,-0.04166180121736742,-0.725428312270746,-0.09533872372490029,0.43660467567990574,-0.03983995151343691,0.648423733548099,0.10433860324376366,0.7065592290470561,-0.22842802846809326,-0.004023526208336281,0.1893775286316097,0.1951455284043884,0.2877972111475565,-0.5805449362584836,0.8393818573133441,-0.18976384623530665,-0.26314189801574894,-0.4151901640321516,0.1732907797016717,-0.4424888047105322,0.2580979977426471,-0.129388883057781,0.19395161920574175,0.20857028014322995,0.6363557534297481,0.08730752593261842,0.5654400264923162,0.3746129649656376,0.2506366850114862,0.3656704177098244,-0.11889017977136727,0.4974481105487464,-0.14039121273117725,-0.12237671487448018,-0.015324681560283989,0.037470433436713434,-0.20098173417116816,-0.23480572475783276,0.29346788233620646,0.07452256967647591,0.2670817506695033,0.33042466446435526,-0.12039721628040387,0.13067443539934562,0.2989793610464635,-0.008701309627406098,-0.6780006898664137,0.14950843045384105,0.6271451105670354,-0.09440034411981861,0.34823382777038614,0.2952881002912451,0.6323809579120798,1.0095334619923615,-0.3230181725696746,-0.04324326035352717,-0.3980676663838175,-0.298014789531026,-0.5886103456812242,-0.1997493525840558,-0.0945207583627769,0.5755345153142437,0.17246142700507888,0.22654887738030627,0.04572784993287281,-0.3560832559666616,0.29058264978658443,0.11903283475518324,-0.08165641510277803,0.030755183153122152,0.09051583832601223,0.1374437745754988,-0.27354823347984525,0.1066840282760082,0.2772716653435772,0.15928741261566307,0.5797722475507883,0.11713213016026926,0.25372047011256654,-0.08134383931115485,-0.18712506164332268,0.15935665445123376,0.8204638302025483,-0.05897209314919001,-0.027926672123096952,-0.06939693633381935,0.1938929464343323,0.0016494768241503005,0.24396480244631893,0.07461545243158246,0.05151444826175413,0.13592632982146377,-0.20225954392068538,0.16479020127647576,-0.2463389605981671,0.3964790413424827,-0.18453673494076858,0.08647505183144263,0.4091795130751862,0.37111776828402054,-0.26835070310308506,0.32924575544166856,0.28143101923650654,0.1762446023224769,0.04502925126257123,0.18503643403378578,0.1760653137714011, ],
[ 0.980636846606904,0.39832450231636646,-0.23831839554480236,0.09357603670526654,-0.38087717398124277,-0.19709315700972246,-0.12071238219825016,0.753068146969003,0.5066027209440359,-0.528240477850727,-0.30326743018831237,-0.2881264457498541,0.8793755743523144,0.49243870717972216,0.32065965400459345,0.019073917165964325,-0.47896381489517825,0.18352863324788968,0.20794604732402422,0.3323818512533418,0.056903986607220514,-0.5353255580469056,0.2346842626946048,-0.47492486196094624,0.25426081857815674,-0.19865989292162517,0.30161959778401704,0.20519443662888673,0.4076663607595385,-0.03462830835978104,-0.4524174250235082,0.7695130905001611,-0.06980965784151738,-0.21950216533027853,0.7518751056047562,0.16182520689404947,0.05501527041293186,0.15061645686757455,0.5857530294864461,-0.6298562670791954,-0.08164401762338852,-0.09692969810433634,-0.8155527393241166,-0.6166067089865942,-0.1273799683253139,-0.2757590466190339,-0.115723996310695,0.22325214717661404,-0.170519645335019,-0.4846513581527624,0.3286485397418386,-0.24391619510354756,-0.27749547810424013,0.4539794389595273,-0.5242023461450978,0.337611824907976,-0.5405189090174609,-1.0457128522027095,0.6976169376502711,0.014804308128551769,-0.8747131682422921,0.11734816293891125,0.9111780206636325,-0.0486665071893946,-0.1739185307388224,-0.12182460836497483,-0.0036013159237619176,-0.24445570766056737,0.06449700849977139,0.21611002014125807,-0.7299187165063278,0.03502550422284808,0.48430102423146854,1.1179488600486263,0.4188634697911099,0.21856012237101238,0.2008510210683659,-0.20269539109194118,0.1468596155006151,-0.36867147613701645,-0.13389794080600997,-0.8533371458977793,2.2642281199429677,-0.04677036438492166,-0.09302761145532787,-0.8752018342174203,0.5487076436416624,1.1189076302508645,0.004071158846843365,0.11762859517246135,-0.3312593692722324,0.4618852373954322,-0.6653903538073276,-0.03574637397286331,-0.7167987285616841,0.05746742475798741,0.9089129112107689,0.21328794597666148,-0.05104823648288627,-0.7551850770469789,0.1684462463000342,0.13956292440731827,-0.470083706559007,0.19772687099702393,0.2045184514000275,0.2947083980766092,0.8309429122258282,-0.7001974316288381,-0.8657777167974858,0.3752794429635982,0.0243309484339137,0.3611756209937293,0.5439347647365985,0.34795424620931314,-0.5488296459227386,0.022564971112729953,0.30479356499809396,-0.4445907271757541,-0.06787715357637254,0.39098516858196913,-0.3502905128379843,-0.8432763507876924,-0.2846379690616149,0.6764446906432712,0.0019657752015385457,0.6404253763012642,0.22110790145711348,-0.03789123264354709, ],
[ 0.6424735922658089,-0.3703441334207561,-0.44569268539103263,-0.5208758020081021,-0.15582477802096412,0.04567078745225837,0.054962119509960036,-0.6120445798223999,0.9660206100776119,-0.37330827746694345,0.10286981750201159,0.18334998346949039,-0.391618749191354,0.46960684375434314,-0.05250970365748744,0.29414265429481107,0.1048843493954079,-0.01751943351203089,-0.4200509611764604,-0.44411252597268813,-0.28014162144851684,-0.38247097421730664,0.3329576684074255,-0.5014661000089856,-0.09523525044165965,-0.1694641436928816,-0.23639234313339436,-0.32001116297383275,0.06650814568136676,-0.11599642049049469,-0.0942823370092886,-0.5435355602679405,0.0897369966576505,-0.14155133474542228,-0.27100800285994475,-0.28453555586685203,-0.030123325844059447,-0.24827225829170155,-0.16202231716966947,0.1403707424515211,0.47251050658733684,-0.7805341625739666,-0.3172560515336722,-0.18130563488636064,-0.17397217868882506,-0.48414343954031214,-0.23798839342050204,0.0038043369962445566,0.5900382680615435,-0.4282936308917589,-0.059346495363819446,-0.13060254723113976,-0.4597036744924611,0.10196723952563216,-0.28107261674368533,-0.17310266982224035,-0.23689539520692032,0.08847987529526997,0.4575106536267589,0.20022901545470645,0.4573214294806257,-0.21385116355342274,-0.030760911631316307,0.6970606999616983,0.12182968134102083,0.15636851645125524,0.41173785796081663,0.27514391531395543,-0.6251451610366632,0.29932595345234236,0.04405034501368912,0.7398255368522131,-0.11771153121346424,0.1916727261590181,-0.3289074855399231,0.08445990026258128,0.47135658028895366,-0.5768684453203926,0.37224419266891623,-0.12860298491198657,-0.29304973382711874,-0.31314357875673604,0.19662649538423305,0.010444616893023798,-0.17501350080829253,-0.21721598879731494,0.33662254870351405,-0.4205640286415054,0.7842515607186122,-0.4182751255627804,-0.29174438667572367,-0.07195885443966882,-2.2476823261410872e-05,-0.21797441137147552,-0.21967806213895436,0.2643698130234926,0.08231203358735315,-0.19204284242184674,-0.12843295882828532,-0.27013454174799695,-0.44438864206132467,0.070811704897655,-0.04641258099527196,-0.7609043629118373,-0.5962411758304194,0.39150193390818255,0.0005641013274890611,-0.026492618466966197,-0.055571337240221806,-0.35136936547998654,-0.8232610377842954,-0.41621529196958373,-0.2897621180011324,-0.09921898602726913,-0.071341475385405,-0.06700701342604805,-0.1276593993876014,-0.10378578735928759,-0.26719632793435966,-0.25268920185329263,-0.20230807024083564,-0.3500362942149193,-0.0025023101444193677,-0.18102507475522217,0.3684171365194065,-0.0593212269068796,0.16167248804479142,0.16966362231999177, ],
[ 0.26064442553190953,-0.5267168472160434,-0.5610133804736769,-1.4711186477651015,-0.46769294303038345,1.4276283195759187,0.056111598596404064,0.3843655576624097,-0.20176070085620432,-0.0167525426418273,0.05168550674304516,-0.05093751563260756,-0.105035474450425,0.07154904679307524,0.4811918172731795,-0.18329555514564427,-0.16451655756414635,-0.07873843239932729,0.3757897296465526,0.0008161633739867252,-0.10452416272018697,0.3712175243904473,-0.17430725074788056,0.6631726148559421,-0.275592940295192,-0.3444228228880664,-0.507479294298323,0.10868857695927761,-0.3084367507544512,0.7555904109210877,-0.09662437498442533,-0.1411635731706499,-0.25735957989477576,0.635506402747876,0.20577792971089298,-0.36119093048330353,-0.6931363012356693,-1.0254825366407707,0.8108599647417565,-0.8063508050133753,-0.07755786586687893,0.05833820555889001,0.432543457654959,0.5474811796296392,-0.7084545486011066,0.33844686238108973,0.6118152179183024,0.15573729282728221,0.39803100920429585,-0.9736563906186099,-0.49657581582889165,0.1360304340615414,0.2166555473939196,-0.6057154747601399,-0.16870321316418638,-0.3975899870755488,-1.1867876907938955,0.11922975731845878,-0.45201049012219674,0.5375632949447594,0.39947998536727997,-0.8790376405910668,-0.5277245672419703,0.3155781689513338,-0.7169886582347021,-0.0448972170241266,1.0306202265045326,-0.06970330872589786,-0.059828092097955955,0.010757514123005643,-1.1878879870622794,0.5110815660188548,0.6217352397939314,0.006345949885036825,-0.9597982751058968,-0.06098461133698462,0.09783731739593433,-0.23608996372126717,-0.31297970689549204,0.15945824297726663,0.17036359255300265,-0.4960654184526957,0.0336218239250399,-0.5503343625349891,-0.48174150157923623,-0.21585637637856978,-0.7980771968796733,0.3147185348743587,-0.2710574588896888,1.099750755269946,-1.2303681280836505,0.5066201966590583,0.15116622832018856,0.11356582915639224,-0.5065856969495639,-0.725500580674259,-0.5511962882393825,-0.1403281864473621,-0.3193855864304607,0.07328447990035707,0.48405791555827726,0.16570392187110125,-0.07254605586978749,-0.23829900352757905,-0.6117710234015832,-0.6670007896020478,0.06465372463047624,0.36091585465916376,-0.6248275685577646,0.533818572713405,0.3680938163809027,-0.14892343906873248,-1.0581351537901242,-0.004576841593699657,-0.2017196046990664,-0.6651355398092379,0.17685220301995475,1.5473404340740706,-0.09998048535387706,0.684878264795526,-0.1782241203159354,0.3842565175905858,-0.106059076038932,-0.5595106800369412,0.2592916730916498,-1.0173420547317262,-0.2894429246366246,-0.06835430218374627, ],
[ 0.39344695027819354,0.4354816670196858,1.0825138506405514,1.228453703411913,-0.14885704509761594,-0.21690433798726416,0.06801445359194104,0.6173041684802926,0.38768031437260575,-0.6715282117653624,0.09643282533153436,0.5304418528915636,-0.24621096958748026,0.6186633372284529,0.7538724696413582,-0.7471947371756938,0.265611850861613,0.23711235695583388,0.8286273486399995,-0.4323510107398234,0.3950263735726249,-0.22465363663679158,0.5443364257574593,0.10994893564287954,0.5939223511418247,-0.03222952755372566,0.5617391759387446,0.3117895909452667,1.328385941091557,-0.3921949094685674,-0.7343553342780273,-0.06377094079352211,0.7601942681300056,0.7899182246130164,0.42686051968761096,0.3024943233198255,-0.13114184931743458,-1.309318801091031,0.4731662975234049,-0.6188196413134047,-0.5923928037827791,-1.174794258436775,-0.5997369429747816,0.5427047024517868,-0.6672869368080561,-0.6739688817584727,0.4045365543061531,-0.7681172242164572,-0.9778895062294238,0.04832641700705358,0.051843002453960466,-0.3001283415935456,-1.0184385619046734,-0.16664802537834295,-0.8879141502407948,0.20992152699140942,0.10293333080493544,-0.49851353190535275,0.03551091244111631,-0.28264031264430417,-0.8807518757669355,-0.4144328423324469,-0.6235039044507867,0.44852474555461824,0.6311811542477219,0.8888660798275941,0.041555731437657006,-0.3153780055508283,0.8603072141118095,-0.21530660984340616,1.0213683913596852,-0.5274176003373293,-1.1485787760948956,-0.11363747673666,0.7228654023480071,0.21751645966328018,0.07985882802392705,0.3800235706187779,-0.37556490780327134,-0.6700416288079833,0.13383114963887272,0.23499959135720772,-0.13300528049385463,-0.8462667011874951,0.2782791360999457,-0.48624737037376675,0.04050005485410469,-0.35780138871873174,0.31596113129611597,0.621720201439777,-0.8308591974002268,-0.039142499624949395,-0.24368151499442134,0.0686620822128611,0.1561623507950285,1.9453381502100258,-1.5843815699570685,-1.1378378529901803,0.7656375654749366,0.3577955735056246,0.3697051499879261,-0.8223106133088303,-0.5256799109003008,0.41907902765611066,1.025666145863124,-0.7743147215166674,-1.2906955336078263,-0.20087478796647068,-0.6889146577414248,-0.863157246671569,0.17064492883046772,0.6997901546551529,-0.11293869134527657,-0.33121973076259875,0.08249281353930726,0.16692110706693922,0.22584710312925046,-0.3471538216703759,-0.10948666492611077,0.8544261127269891,0.3890028233142645,-0.08397310850389349,0.05908205219279382,0.5503223065720019,0.3595229703900692,-0.11464651372559163,0.635462235275727,-0.3847611140812671, ],
[ 0.8746491219125218,0.06615285677832662,-1.1677194572344878,0.030777261366843115,-0.6499424718749363,-0.4359889690784654,0.8896624986370888,-0.2730760937090108,-0.982432485551773,-0.1604100767118574,-0.6603563197751207,-0.46708495798770666,-0.6748653086460304,0.07302367923228412,-0.4808942993188848,-0.6699353026212868,-0.7054612493376695,-0.4726234350486956,-0.21697852225713765,-0.30459430870196913,-0.03357940929420428,0.08698102258307241,0.05862810643483968,-0.3295195899146275,-0.31836545682157097,-0.11612404239554869,-0.303757990264293,-0.34667860501047426,0.07378723450463837,0.8438530214025596,0.31322857531082676,0.3597140506426387,0.19393665569815272,0.15304420087271378,0.24110502343853737,0.16118054413034727,0.5060821843049319,-0.2179302007569028,0.008043284951790866,-0.057488846831001535,-0.5523597700515479,-0.1470358312850752,0.133279788445626,0.21515062385589132,0.6511488446511334,0.4660582417668183,0.3494206716936505,-0.10335179072209781,0.7111039099249238,-0.7709339149639838,0.35111675890587835,-0.014007996952137645,0.027323255890427528,0.731853019436056,-0.6270113806277169,1.0438016151508778,1.209667822420165,0.7008927782790587,-0.6287419831095129,0.14516744293875508,-0.02459862509765716,0.5621077330185053,0.6634325501730757,-0.6560478141656413,-0.8406225697700355,-0.7702504917529578,-0.7529925932118451,-0.07055732860896682,-0.24515839339674075,0.2902528677405221,0.8703830655413689,-1.3574109095915676,-0.7114273962138509,0.29063495374411047,0.0664843599298042,-1.0845402575235894,0.3481627699561565,0.4366678471517533,-0.9874615110316194,-1.033180606779349,0.7483118238572688,0.05411079578255222,-0.5145407216734977,0.2747004109997463,0.7079395931407273,-0.1804485910895341,0.2000503792667529,0.634204147481999,0.16824552583872338,-0.7254596139259705,-0.24704683180104076,0.22646426365730327,-0.365816905843903,-0.2738937643983275,-0.12970541145257197,0.6981679370489906,-0.24177863417045556,-0.3118963925006554,0.3709498100260694,-0.5182611315759637,-0.5271170514469949,0.24262703605638736,0.7490292640672374,0.8171869311739884,0.42667871571853705,0.7685177018113186,0.17817864025243102,-0.1236964715453486,-0.5755360102398308,0.2872828484707883,-0.9296565426471133,0.32137575538493857,-0.2019911530174543,-0.5907853152942513,-0.2852261490215777,0.19287238562228357,-0.5063663331764255,-0.8221923140142473,0.3613737546686256,0.006265146446152045,-0.15592744912502993,-0.4104134420223697,0.7728330703958788,0.6333584986445758,-0.05580495475674696,0.39676265353581386,0.8147317701758103,0.40406497091110927, ],
[ 0.8293407500088189,-0.21371849956084632,0.19371549921335743,-0.45914689730944824,0.37903602459242924,-0.35424728719610193,-1.1858352092962838,0.3297604374250947,-0.20030186238583683,1.3331038414933383,0.3971273732449475,-1.0556494678396433,0.3696091754515498,-0.044942622838545956,-0.21851709759978674,-0.008933564350330539,-0.2121271540633371,0.10431173298265088,0.07335964448774353,-0.34010458368433677,-0.42037608108926877,0.11678373582055214,-0.775524473281975,0.6925401971902643,-0.6535390411901826,0.845883628565367,1.0976256783981633,0.10984718762908881,0.27202567409519374,-0.08571171483687046,-0.9410718737113871,-0.8916954629882081,0.38328005616823946,-0.7554735131464032,-0.6789646042437474,0.1305827430269951,0.1142165671607058,0.41232886299744076,-0.7196789875021162,0.5830278003320879,0.269552976137752,-0.009499967906701677,1.0049907065607886,-0.17035173834003955,0.8086549089513909,-0.06810535563390102,0.2900152188702994,0.06757760784146713,-0.18120723756424917,-0.12432508746105554,0.42467309203477566,0.04376472205382954,0.486042766808455,0.32416051758247694,0.23735302899718946,0.1844524262176784,-0.6679413751109029,-0.5828156515192451,0.378147453439138,0.7117811365413579,-0.019764976483287983,0.963261092824136,-0.9061358821807741,-0.2033772035459788,-0.19184530694831803,-0.8368168650922527,-0.0762116200331489,0.8560797318064768,-0.855544873711937,0.030025164958161803,-1.2338449900977715,-0.5786210203970454,0.36028061130700256,-0.6573455484366536,0.28330244395399856,-0.5543338120692684,0.09749119231901841,-0.7147579222935649,0.1675965884374983,-0.041158695118212046,0.12833949388183905,0.39441304091527696,-0.49715382424291915,-0.15281218586757198,-0.45604178682054985,0.05582162451164173,0.10106000882499443,0.23254092381265679,-0.3105844258777107,-0.3058660232604585,-0.42794425737252684,0.686063538174013,0.2769487352905789,0.6229058695368619,0.06263474176180328,-0.6469430567856005,0.33343260639831934,0.373821907467826,-0.4102817023306107,-0.09463467055026546,0.21583813380169786,0.49485763756483553,1.4768574164318655,0.030450444696060654,-0.2635053205142824,0.5371190795949642,0.5438005702878832,-0.22086598091013038,0.23103798049578947,0.3692815805367093,0.30528267472662673,-0.370634757151344,0.20922064197507118,-0.07408138498682827,0.5584003380019822,-0.006033028070318586,-0.3530081085917334,0.29291000320532745,-0.14546582120496523,-0.47650130036458244,-0.4981409089554293,-0.3975571760835161,0.36229447787349894,-0.22662456453594998,0.08792881860502527,0.288808337941556,0.11425718602348582,0.47969264145468926, ],
[ -0.45241953590988093,0.5651499096921067,-0.33977931927142185,0.2866509400356706,-0.3200284703808374,-0.02198183307279966,-0.6208362715625322,0.7594446639310118,2.032438158945234,0.7000031593957736,0.7435690278875108,-0.19761212407890674,-0.0277052725746389,-0.3140740043834996,0.21801077306724925,0.11825768266867645,1.2698173384269849,-1.6688611027541538,0.2943585477959874,0.3651951568207982,-0.0309989138768184,0.32370900039384337,0.012347211213754207,0.5573159784065708,-0.015013651457677052,1.1700940340040344,-0.40747887842917213,-0.013040350613269872,0.7373551775230033,-1.3674444466137845,-1.606815326918657,-0.3461721963934503,0.5300433658189536,-0.271638478110086,0.02489099429954808,-0.773391855337538,0.4661900475874105,0.364963103933188,1.1436439123287188,-0.5306993478650137,0.8656382363359841,0.02426816155687796,0.44114003716388406,-0.6371289953453756,-0.6474397591389622,0.39962171885251574,-0.5576602928737591,1.591493523934271,-0.09540913782218399,0.4696778236411765,-0.5261595915333425,-0.2729457974748388,0.11355157890120066,-0.4947651593335922,-0.6095350400386614,-0.7954352720703691,-0.378107633430611,-0.5046611633513651,1.6902948811253098,0.1401312875368819,-0.39108998433789166,-1.5816883266826252,-0.6563449105931048,0.45050702817631644,-0.10554703650017709,0.05166725590025681,0.02051979493551923,1.4491120013971481,-0.004746018803806768,-0.3051425520692436,-1.3262310017858459,1.2081188311406557,0.3727596485461605,-0.21750278112013352,0.5317152350733165,0.7656634081116401,-0.5103460941519253,1.2199891860387526,0.7863459128751421,0.8356865702905121,-1.0443577513683082,0.3632638321573458,-0.6806614352389629,0.43573534150404547,-1.1999238047296743,0.44514878992933615,-0.38805802942040724,-0.7493844397148572,0.6833695541347324,-0.3300530342446738,-0.021475513454124517,0.8017522594003142,0.4504926971582364,-0.1149330704199441,0.09923232747146228,-1.038238310110716,-0.13945935770423737,0.4480223812663484,0.44606633929011996,0.9854631723888704,0.13385767321848782,-1.8144903444421001,-1.1324991191127745,-0.1411509482909428,-0.5866130139489159,0.29909274740721076,-1.2350431853027757,0.9703830986319331,0.31161574695020416,-0.8330479219370306,0.46628781974051736,-0.18921119538981246,-0.470510085738894,0.40038518232285003,-0.40459877090727697,-0.6108566637499564,0.4204652559602917,0.7097811946156188,0.8111780990239587,1.0862793144308365,0.15559530075161404,-0.016813701026993512,0.13756923776010532,-0.09496059823468066,0.09201307508330127,-0.053538096294295616,-1.323881236618383,0.4405013067224771, ],
[ 0.25032610843033193,-0.15819905870302867,0.2498885818410969,-0.6226842969975341,-0.3711238050881348,-0.02390443982337608,0.3634200742027197,0.032376273679344786,0.6586469673310679,0.22845072985437725,0.1928665140112463,-0.22876104364652866,-0.802563632463959,0.1518675899781374,-0.02512511758666698,-0.5943908707693606,0.2689121496036372,0.719958898670935,0.1471895839305285,-0.5078466806211578,-0.22788033567511085,-0.12276503277640066,-0.38246572205170243,0.4626834490350558,0.4867207453500899,-0.3658231229742679,-0.10097424226087229,-0.3206405027721833,0.001760767452211126,0.33707207157181085,0.12823832149023126,-0.41748252060865076,-0.3646409247925312,0.19383030380049046,0.0865725904408212,0.03516533433344308,0.3464890232827566,-0.1858142378443233,0.19428742588604067,0.7488011428019952,-0.07975758727362924,-0.2229614371500216,-0.002809915830645005,0.1740468071984205,0.11204038561278913,-0.016369443522597595,0.07235700397701032,0.2035004639214305,0.1887338271627846,1.3682689653153546,0.48382136598740044,-0.014497846329352165,0.30931518340973135,2.0787073149397584,-0.16817273520469364,-0.6211420622542276,-0.4172548244216934,-0.2858065674249631,-0.21446314393891863,-0.00877549452395323,0.6778044515876026,0.1892576437432194,-0.08948257959273709,-0.6147862063995484,-0.45287855965449225,0.23308751939338077,1.5560075071969182,0.020231995509456188,0.1957354343136788,-0.3840612323939271,-0.17710291683504928,-0.17070301083620282,0.0749901994758567,0.6489592133658486,-0.20366879218444486,-0.03729797917238761,-0.09514705592007687,0.14118045954970868,0.04324411861424163,0.09078064835843164,0.05704134721899431,0.3552921257701408,-0.24438216809638935,-0.1877447066013016,-0.1658233010049982,0.2080877324046678,0.09792910072550136,0.3794273448797204,1.4587436752180574,-0.3263721680050068,-0.3730509010579253,-0.020760833177615685,0.0970922762176483,0.37609384018128433,0.3264976216420319,-0.9973507078176482,0.5588134673832116,0.0220741305141737,0.6511527155728861,0.8467094605620052,-0.06537897196513205,0.3101512366758772,-0.09825709454535998,0.8894124514010684,0.3864089526594872,0.20162217089006762,-0.36594944686355335,0.36018381045154346,0.13225861197198163,0.3197886660821572,-0.09681135611046826,-0.5076834537539957,-0.262002188529072,0.20453014707763553,-0.2616520212473822,-0.16584783246055498,0.1381003329229033,-0.09001876028138145,0.3003324678068745,0.905127705754579,-0.42111635293231586,-0.28542223411479073,0.4847727836267934,-0.18641650351372077,-0.16392855669556725,0.4578900227310472,0.0270044169293848,0.8274617777770686, ],
[ 0.266358135122722,-0.7347725552365338,0.07744314607598937,0.1021848548147985,-0.6548963368172914,0.0029529016937902552,0.0650982768605723,-0.011939861272957208,0.43302952974883413,-0.13794778351065995,0.7857877906843056,0.8003236256772914,-0.7266101514560326,-1.0399645301495832,-0.8267918751620593,0.7412428079159455,-0.03629268979231792,0.2116683034889268,-0.3407418899136285,-0.4493528127241706,-0.6177354591027533,-0.39152894640254127,0.07096004653649185,0.22075108626594347,0.7648451625193324,-0.5698804246430629,-0.4225000012570912,0.1790552480769726,0.2978312585014364,-0.11692178746854652,0.05418066024142801,-0.3500726922489482,-0.4295842540788386,0.058186605320191306,1.3704383418404316,-0.2824834123859582,0.0989998078084149,-0.6674455650751456,0.33060400143127866,-0.5664141061183998,0.2348578626211807,-0.8784774024006119,-0.23944667095514574,-0.6251917538736668,0.511826789561559,0.13435380933444627,-0.7124630474344387,0.4317404217223649,0.3217153227965454,0.039660516326095845,-0.0283523394195863,-0.007014992403713477,-0.6316351042388861,0.4059422134079595,-0.2916173596799585,-0.5654190263145721,0.19739470063575867,-0.04267440690018612,0.43092559015237497,-0.013843582585599562,0.09923831190592212,-0.26694578055108353,-1.2960386502903105,-0.33177315929120055,-0.2550362417415992,-0.03918982315421123,0.3336393162384293,-0.9743572766735621,0.4500494874089989,0.3995007439177225,0.47766532477685664,-0.09039234886170432,0.7425253308819335,0.2645930722243948,-0.7120232186799306,-0.8822097577663313,-0.8685670650794525,-0.6058989205470076,0.2775277434072153,-0.963317464511407,0.6334834456682056,0.39387978313600924,0.09135630226273564,0.9253173404074273,-0.03357507463222214,-0.30108259342439775,1.9415126266424467,-0.21923386558176267,0.4847715101056326,0.47037356866514324,-1.2113289078714753,-0.41980426412884186,-0.4477143162968653,0.3135481284600516,-0.18723323497598685,0.442065304908756,0.12336196290422033,1.764099798858473,-0.13109630411792714,0.6429164658286894,-0.052185479976091326,0.5910816904613934,-0.9101454389937097,2.497949588607431,-0.49689864595596445,-0.1299304984304229,0.6577559973542333,-0.13223559439442328,-0.20167212470335752,0.15079260956243418,-1.1400621680901517,1.0957595280981578,1.0879122073635756,-0.06139206745601777,0.4852398148790663,-0.3928519001445466,-1.0900691816564037,-0.9052907584714214,0.13828842727569252,0.337567087306028,0.2217029199319,0.05068027240915683,0.9492334123379034,0.28966836288275233,0.21366479151030365,0.3840379352516628,-1.2726296075012813,0.5270221692630856, ],
[ 0.13572045030144755,-0.2180361623121938,-0.23222205305251292,0.2815546045003652,0.42633379405313565,0.12626210703251703,0.10815017366914252,0.07158948918595971,0.4398408725035166,0.20740082494586434,0.5027785818043226,0.26154982999830656,-0.07440884595779954,0.24998283919017777,-0.10651111978593385,0.41373372462955005,-0.08409799213482261,0.12813948437572314,0.25934655231603754,0.06637305129287281,0.29661891994310363,0.13531357687327647,-0.20353121849582417,-0.17276482651300218,-0.31002597127309917,0.12400917744315623,-0.12240276063602021,0.02446075368806127,0.5057923116526346,-0.07624295595814048,-0.15066977115274663,-0.1905121374556447,0.31212609403792585,-0.04497710704088022,-0.024403109222331257,-0.5682266774187573,-0.26242669127484053,0.36482775159271424,-0.2949346117695659,0.3716009010401799,0.5207913123179062,0.16808436534567534,-0.36923155628015414,-0.25997954905742426,0.06359402188301996,0.40455382019588004,0.012220544875938693,-0.38844423530141703,-0.14745975474442208,0.3155425758410188,0.4575069594675599,0.09279790973814957,-0.027632803628842705,-0.006895303928759762,-0.41282839245846037,0.2642296655529798,0.04385332666003056,0.08557048354396374,-0.35881352845624226,0.9804398741603046,0.34622919779638456,-0.5713412473693213,-0.6538409628189632,-0.5567184790163756,0.39418812239137674,0.10736648019947923,0.5077453560912688,-0.09126104319441139,0.2948347379399772,0.20472309289707136,-0.08912912563063288,0.9112448264140792,0.40557500355154946,0.051243891797285585,0.3536746729692858,-0.44848168346586226,0.2641274628473711,0.26423422231059,0.20778842210763238,-0.7148281268032084,0.678067855915039,0.4834813088377621,0.001899905435737384,-0.786852104225064,0.043940049977308736,-0.35568179386248894,0.002226330299139989,0.269507166204189,-0.13813648810250193,0.9130555048881019,0.19583473996663844,-0.21897077647297183,0.12950938756504612,0.09295902717365388,-0.8718144819510727,0.007773996866061645,-0.11313511467054269,-0.041698014984351446,-0.023255836290751772,0.5649900992154337,-0.0793208987992424,-0.5440322220592143,-0.30040182482830424,-0.9395949016124817,0.5762711308204849,0.279357586835609,0.39803534796912826,-0.17415899570198415,-0.14426087976621874,-0.10885127532612175,0.1546958525614373,0.23264177002469666,-0.580958726558729,-0.1453695512066445,0.295115745507472,0.28098980398654794,0.07133516545339506,-0.09328607798928656,0.33853957214767794,0.694868540658595,-0.20023924557031356,-0.2137088861605915,0.10323293177821216,0.38465796065628594,0.11508422358245476,0.4083126552259293,0.10824224417247388,-0.43137315375736734, ],
[ 0.7283552987536296,-0.08510436478267094,0.09565135966572616,-0.9347792215856291,-0.24591929783680003,0.09988372701822533,0.193093000293885,0.19506305086302225,-0.5216026268845223,-0.10329586227691052,-0.12048198482156058,0.3245185692072985,-0.12708246628546138,-0.20948579039542226,-0.6801211198610003,0.2705928592192559,0.2408571240934432,-0.33515104851026467,0.5239775221241059,0.475990382325664,-0.7886258544726709,-0.37653190314889057,0.29323077063378383,0.018217638362092066,-1.5369618279426178,-0.09291872194928394,-0.30706546434792337,0.002328313504375058,0.38696504339463955,-0.6253454100781131,0.811279803122212,-0.5593860048313661,-0.1879125990871245,1.7362497956184997,0.25823454872045826,-0.9900173484640058,0.2341829348866241,0.07417672194094192,-1.2149084029590795,-0.18008088652297052,0.2842974526747882,-0.40827357847477813,0.20129068683453222,0.24901453056421385,-1.6927416151168313,-0.5400280021788632,-0.1544821202661962,-0.38901718039517114,0.204881397344202,-0.47856700985622297,0.21291549935003834,0.4091527862641928,0.12646656211952664,0.11761170259037954,-0.5314870641061088,-0.5987901122791873,0.49868788332636943,-0.6632980322597087,0.3541343031877203,0.580298813302739,-0.43389164915354944,-0.2416812220241677,-0.24136475863323856,-0.19866949833664704,-0.15954965962241188,0.5444274660969994,-0.24744988109547897,1.0183376543638352,0.4392590232569967,0.2638133571713131,0.7582390922982164,-0.11288249472141745,0.13014233748135395,0.2387922253966926,0.691573515768153,-0.4116263506944948,0.425287446006449,0.07457600474374541,-0.11745183007560361,0.2966373558192168,-0.3230211762364776,0.4101603608532396,-0.029229016783092556,-0.7224716968657839,-0.14423568496684339,0.8957654350552233,-0.350894513925862,-0.049366929054590225,-0.5767931489024748,0.301406965120969,0.7135721199304411,-0.04400184803345091,0.26187361783719826,0.10351736051509342,-0.9691152749461265,0.035334548136458595,0.6435081290004517,0.6031270964499975,0.2638857657454793,-0.024398575076921506,-0.1903256299962927,-0.45920162007599663,-0.4648116514731342,0.08387856456980075,-1.2960040141672946,-0.05505334189505475,0.34908409858804546,0.6820104105716349,-0.28191656131326603,-0.35990193590675407,-0.32146948908192624,0.08979015640236847,0.10789741628231216,-0.28863762416025207,0.2033311459319649,-0.3664680360407655,0.6366863243507318,0.31110335633442765,0.08321004550952266,-0.4582179291988982,0.802472342399674,0.3663478236597233,0.6991573468167975,0.028222571845399627,0.2288725656878747,0.11770743710304887,-0.12245072290749419,-0.33912714747428374, ],
[ -0.5446790703218712,-0.9105409445291415,-0.0012870390805361648,-0.6760182910985437,0.5188397122532226,0.4430338563500437,0.23965486335793806,0.16008668041942636,0.4392627049201821,-0.26684550649890526,0.08388107226750183,0.07242462143870175,0.34351856491843785,-0.19428029867316615,-0.30770244437133676,-0.9098453659053523,-0.10588983130015953,-0.289626991132221,0.5433850304474367,-0.21088906243107877,-0.07046982715591286,0.08776527575106613,0.5858175310085502,0.4951626934607673,0.11283421059373405,0.15866767167911666,0.28317545591504817,-0.2761440744871519,0.15206168824393893,-0.02890886427719923,0.02414301917030568,-0.17849061785727904,0.012331318512088626,0.048748672777890904,0.21540106376011667,0.004427960954040883,0.6430699199324684,-0.5086255068418193,0.6994206408031186,-0.34211598890389994,0.223941405309522,0.2317804599756928,0.6832195951595812,-1.0667103955479782,0.020036400086549215,-0.13686342694780285,0.2768779147735281,0.19483420464405976,-0.19986407313402996,-0.13471335864046713,-0.11795146195106522,0.1435654232755632,0.022663065749843437,-1.9515045552039942,-1.297130661520549,0.6489323023003516,-0.3331144416613699,-0.00369499195236922,0.13054014311396422,-0.3076110460220564,0.6592460668543428,0.23330447037250682,0.438740448598254,-0.8253353854845227,-0.16969159447004203,1.1658724902347288,-0.11371274153409783,-0.5081563244539351,0.6197585104959114,-0.1499315492583777,0.16238111352828039,-0.1389313557152408,-0.12485699943696632,0.41461827780119814,0.49803693109486613,-0.28456625620757836,-0.1773056100514771,-0.031198644811873164,0.34325833460626337,0.05795745103149812,0.7344457892880619,-0.4549148703440356,-0.48673262090057356,0.3112796273168985,0.1812751802384729,0.66662210576496,0.09030213853018768,-0.45551458096392294,-0.617652797054564,0.33306932380828963,-0.38308817880460716,-0.1397433727499107,-0.3961774165510492,-0.03097689770990978,-0.43944598228889137,0.29859063392644414,-1.158304995708838,0.7390530022907461,0.23952428796196443,-0.22336067480306065,-0.5376618837363313,0.04230307440256119,0.16500916804623314,-0.10793174833722095,0.7260106633412984,0.8388035065696975,0.1274092334067054,-0.3473590549990691,-0.025467248035890844,-0.5285527534512976,0.13707890537381423,0.655198888630497,0.5487378648735926,-0.9816386681886987,-0.4816885518045616,-0.6603926211856527,0.15627988199851797,-0.0787470002940262,-0.16969508551861584,0.34518217813807994,-0.31731171928974955,0.08603833454719301,0.18576602169241535,0.07073429901492044,-0.3153212276832321,0.6385049185237867,0.6380781648365713,0.22910584583500251, ],
[ 0.6861997746595816,-0.48244415864415136,-0.1492826347998929,0.44015799918580084,-0.1463724418463867,-0.4366242567702407,0.33768059110798565,0.20353509528295033,-0.7848494360415916,-0.3810536062890838,-0.0173733738930783,-0.0963837446292019,0.45391687463711483,0.6426255535418819,-0.19599232232261207,0.10603461497143504,-0.35311550230118255,-0.2546875680207509,0.4081475164324702,-1.0749171962528385,0.08580019463163828,-0.3752313300617802,0.6916884511623596,0.1430102273464154,0.14084345453363906,-0.20592140468733064,-0.325503301063082,0.3706885109219305,-0.45786473396856736,0.3116162263959894,-0.14291499368166813,0.11391101760989915,0.8599980689205492,0.4153254498693011,0.49555767351314617,-0.17677484559936896,0.9561093537061042,0.02277842293197052,0.09901696938292322,-0.26211179565768794,0.358545873580959,-0.7827083914685748,-0.14890278831659848,-0.15477014003656495,0.13380922739062925,0.16193041516129753,0.9762915865553288,1.0238271245904826,-0.46378022606209707,-0.7019002542430509,0.11578621963182506,-0.38182615999835245,0.09789226900431412,0.28427824396850154,0.4834330583761795,-0.3290677768927406,-0.15181356783175595,0.5010843147968481,-0.42680355237823947,-0.08711844502817599,0.8360580188390221,0.42623691661100416,-0.11039806553216723,-0.8331513680565543,-0.19405562106040697,0.2294768512516529,0.0856698891689611,-0.37600996446615476,0.2702050341233109,-0.9977564456540368,0.08202831341194104,-0.2999325664655024,-0.04032380610179795,-2.4821098305150646,0.07123602724454448,0.3067238602874778,0.7142450797500637,-0.2047411110242241,0.026828036214030557,-0.07698550963205211,-0.22158702507780384,0.8175365009574077,-0.8031001064503599,0.4029938969072024,-0.5135664592961504,-0.1787923016393291,0.4658600585557987,-0.5199164898405261,0.9546098106005313,-0.27804739946060264,-0.35851792322346615,-0.49052162865896215,0.20232584361900682,0.15430118523963177,-0.16862549002996263,0.18609090180726795,-0.1903194766082063,0.5078555188777935,0.18942367143923228,0.17943865546218926,0.31743728297871154,1.0141206319830833,0.1150469949179505,0.5537068869833697,0.8854511351413312,0.45459608534319823,-0.4824979210169343,-0.052948964044915975,-0.5725381894842062,0.03160210742522689,-0.10794175590488943,-1.112719657829251,0.4268660937110008,-0.1109291853477585,0.04600651122122054,-0.5056179106654332,0.6184371146169738,-0.07376192533989752,0.5753078107816305,-0.32626235190966996,0.01253944101883138,-0.6909609959949006,0.4189611583732845,-0.3294715619028443,0.00017358287804141587,0.27060245541419436,0.7787078550966182,0.041152281437314406, ],
[ -0.20861931266798808,0.023491836715635234,0.1810955874423589,-0.5970354643477814,0.36988289400433805,0.33515806322577535,0.5229335018745549,-0.3673754256995899,0.06758395825974339,0.06390170873107781,-0.9922676435898461,0.05707283069524669,-0.14662699396148104,-0.013308154711573627,-0.6500956482644868,0.051572671395164214,0.405826210668758,0.10423076756022667,0.4880704506903254,0.4143086327571198,-0.09028415418822795,0.19426999338761944,-0.16731413395699876,0.5272798456888522,0.1787619810262625,-0.6589147841941555,0.404394394326542,0.1270552309505182,-0.9859950697402187,-0.3318457236569444,0.5713176108187825,-0.5314019076437483,-0.16867488891733973,-0.07541905128126447,0.28695868118052,-0.9402836265950502,0.09731041965632745,0.04478381493164495,-0.21981423682917456,0.23592575749663666,-0.40464199774803805,0.4404085352778629,0.06815730604201445,-0.6371325087437358,-0.23964846356444577,-0.02768358657034452,0.43018816224344825,-0.48189447858537743,0.6091412008666517,-0.2867756515980545,-0.231261629583235,0.059605350280263605,-0.02630532595586782,0.05996879380247842,0.3821959900512993,-0.28981380576059407,-0.17604463477401242,0.2244397600112128,-0.24728391436560956,0.179011132358976,-0.06550883883948774,0.3592648506981565,-0.20659016953680406,0.16257717804954808,0.30992573742831925,0.012068930710372048,-0.23328356000633652,0.017388464887052615,0.15811237000072298,0.4860822205295461,0.029971443716726227,-0.3164204734725618,0.5141027353632301,-0.40381040969340154,-0.34947772008470496,0.08796188079083975,0.31308031513294465,-0.6291221425717284,0.37360613139396515,0.11109904085198036,-0.3710471798791459,-0.6616315673795201,-0.15683689312062604,-0.253384371374729,0.25680767866853027,-0.1890197789152522,-0.20608695741691196,-0.16653780315064182,0.059100333792301875,0.4462749473944458,0.36193076438392174,-0.5845069465701694,-0.7622995963735982,-0.56142011902436,-0.43860821926416843,0.05545725944164022,0.2911807054334141,-0.6933771943375496,-0.5226998423744545,-0.2662483963318055,-0.32169334947024586,0.13271555911424254,-1.8129828345674333,0.2466482362602629,0.04922658088123397,-0.29308979139064956,0.43993412560494155,-0.31244047347225556,-1.0878835495889152,-0.7303034610016348,-0.1571226502401717,0.38009450910763093,-0.09873664824723287,0.9828430270138665,0.009930461229081734,0.08205799610849902,0.16073940891384725,-0.489392597975719,-1.2539253006606759,0.15071345279665266,-0.45290734103248015,-0.09857472795092882,-0.1502743943491705,-0.2524714741457362,0.11870443602106798,-0.2684366709532264,-0.3263280369535848,1.2277848811410481, ],
[ 0.016552035507368418,0.10388032547978072,-0.11243814257548952,-0.15815104282744252,-1.7912535520535957,1.0476074109027893,-0.04187268401046295,-0.672779003754786,-0.08604045575767162,-0.3069812541959914,-0.0969148038280407,-0.6389421069943559,0.2497686880021949,0.47580877259280835,-0.33114827840530453,-0.18227541316875567,0.5771766534695404,0.06092543474738167,0.74500650162746,0.2527293444382436,-0.3374910514958692,-1.5381181720133192,0.11114541336874222,0.394318641452081,0.304493606019889,-1.6781545328001064,-0.05499730725189787,-0.2805342528458711,0.536123319929446,-0.3281168713806322,-0.7223621858389407,-1.210755658175235,0.33930695612738165,0.03661811219534141,-0.02478766047295697,-0.8451161308704324,-0.014138597950190377,0.02352704597642333,-0.031222686901288516,0.10975772647907145,-0.3543079188833411,1.2667897872412235,0.9917457883715881,-0.529898522539429,0.6875237545964227,-0.4718400936720608,-0.608157254675882,0.500670512693027,0.39971253436895055,0.7275321976389497,-1.0490527524727746,-0.0666946458669973,-0.8849986290745157,0.04599095467756294,-0.690571629071407,1.6768086211415318,-0.7915393384172698,0.8545302621284318,0.01982197787109397,-0.47288597195122706,0.006482857049126164,0.7579706669770853,0.42642871104056934,-0.07445569753249673,1.5728959653138297,-0.8960837763237924,0.3691069619380078,-0.5309136250372539,0.3916443147063683,0.18536949148379347,-0.06134380857181142,-0.3497606624745231,1.2311908591310043,-0.10685756810524553,-0.028319600248484345,0.13214560248796195,1.8049942016204918,0.10523529137935902,0.8134545951566207,0.3443781394472649,1.0990481853162128,-0.597556527779937,-0.08730513509803758,0.47366432933565134,-0.44367908800546374,1.0053427460306277,-0.6814812574616458,0.18977371827362133,1.0409656525758921,0.4898779124765998,-1.0281481670716304,-0.12650395180273782,-0.5378258741911263,-0.1885409955569619,-0.46477804190994715,0.7840110484422642,0.7759955614797587,-0.003394994749249286,0.08872942643266171,-0.1657043663587643,0.19877017963568727,0.6734119194914021,0.28802563428908384,0.4596303487594179,-0.24284524891909046,0.0806685586269325,0.3620843595583069,0.14870306605904687,0.021809344914003385,-0.3401962247113744,0.7294668472282685,0.9610146140876575,0.4575048494494499,0.3227799199264926,0.30732709302836,0.98402548993695,-0.07746816840104195,-0.27908135314901406,-0.7251830341399467,0.9324997237295745,0.2801516093756431,1.033147494869236,0.7549671988494563,-0.21299334983705123,0.6244998951974017,-0.5310892158604609,-0.6856040292369614,0.14875284306220715, ],
[ -0.15958985625009492,0.09281897266366548,-0.06729514729714749,0.29325601822747926,-0.14762115748705573,0.4012324611478597,-0.32905097812239825,-0.1432803325386787,-0.35031182855821164,0.49165035856490236,-0.10136495344030355,0.5531710599899293,0.21604282868041863,0.6659864128173347,0.9096029105217427,-0.8881412808386283,-0.007612079231519409,-0.7416995781931263,-0.9563457469373688,-0.9172676070553869,-0.30638172121821766,0.1749692229675258,-0.012245889790681086,-0.22253087408548355,-0.20170139449309843,0.22104034246856344,-0.26896997935351963,0.09148157816797199,0.31456860636978845,0.1724184966106529,-0.1902957399358835,-0.0324407871205498,-0.22570094720159356,-0.11653551236580302,0.4398689241880221,-0.3310347656283238,0.0004515406444484315,0.03195469687515275,0.36116986882169133,-0.08580428372048618,-0.05665493002714601,0.17913154884788154,-0.4459557905169139,-0.03485055868837411,-0.08001112067006023,0.5235816949159656,0.37857532428185725,-0.37794275213649237,0.6417833702559055,-0.23437085937331134,0.5318654129007115,-0.08660994896713874,-1.1776242937944696,-0.1316297842686595,-0.6445824208054669,0.566655284523023,-0.2558172783552262,-0.07702748764971953,0.12423114980150271,-0.5465501900041662,0.5063480044408073,-0.004928243900069165,-0.010622592669301245,0.35560088091527453,-0.2092681753061823,0.031003622854496815,0.12337666288625966,-0.9969300977400123,-0.5345763129575235,0.4876091514171968,-0.2756494878765225,-0.11236064231977197,0.1835289858163334,0.12973122989790836,0.9100483618643105,-0.21394669885120743,0.02078060002246601,-0.009928473000039616,-0.3577214673351734,-0.10077019102600276,0.43575783188946526,-0.40746404291942,-0.16133535315686404,-0.5858377716685007,-0.16470793102552844,-0.542856926318578,0.1655357593277581,-0.09157374638144788,0.8819422130858189,0.5679656051064642,-0.35623329155081673,0.8613867231597453,-0.12547504273850676,0.5463453417029974,1.3091484758807472,-0.012840046935559313,-0.05338019782325262,0.6127650351944585,0.350255654652163,-0.13622435257201296,-0.06440118235253535,-0.5184623263205406,-0.1888762079957084,0.0766365168988851,-0.5906385527942858,-0.21434749005046255,-0.5961480502220837,-0.07177117723897772,1.2128638285030664,-0.7803771755341886,0.37431500256740374,0.32294902779350804,0.8265701358737633,-0.05451874947111195,0.3767220734516392,0.07843675210098479,0.03710501611911149,-0.1606148410998204,0.42410788810242156,0.7726620024655851,-0.2517444226001289,0.6473960152079817,0.6912951664043409,-0.37013782825484265,1.0417786402236513,-0.6192039568032632,0.5469467850486229,-0.14046288173498556, ],
[ 0.2947915924254583,-0.42330418378977575,-0.3517527029903319,-0.31436380543567666,-0.46336524016482133,-0.23831747646718987,-0.11288655371110892,0.1277805464357303,-0.4301560826981084,-0.008432657072374327,-0.2037040975958212,0.07672288597000132,0.8709197567396546,-0.06086195573320469,-0.23503325689042245,-0.07000513882495137,0.42189570374892654,-0.4312457891066908,0.9509254993140661,-0.958835309595717,0.11252319717317896,0.09065357104862377,-0.0270520033026957,-0.7251152698172035,-1.32590342849488,0.004560209553032899,0.0018123328356369154,-0.24853665071201325,0.2233254393025821,-0.5374633708403205,-0.610662774705427,-0.34578052494184197,-0.0768207890604012,0.21375131900300484,0.16801421647986806,-0.10709872240312597,-0.5332148979798368,-0.6520382401389502,0.029091919473580245,0.6952072987002721,0.09841057869257512,-0.039747993388895175,0.21490814973005157,-0.23097571681272455,0.25108024452156874,-0.4878638695758151,-0.7998180650933463,0.18939931799683235,-0.1343406039862379,0.7629592951316189,0.24204079849274468,-0.2957976511935034,0.07066362715646667,0.32319760108516365,-0.36251450131936513,0.08243580058494042,0.09276378649340734,0.44277372779815016,0.06734790080649705,0.09594716767815795,0.4275175246450319,0.012459011293971582,0.3250377710134461,0.6464492005503146,-0.13342519067156405,-0.6903789224845154,-0.058867282715340086,0.9291047495277551,-0.463197648656779,0.15575829761233076,-0.16152168357576352,-0.5697422075148247,-0.2705668106581384,-0.062431756957339435,-0.8923625350443174,0.17017343963891693,-0.761843624791171,-0.06707542585566917,1.5371157736051497,0.09630515418779179,-0.21514307188538676,-1.6619117000450616,-0.34914500797160863,-0.35265730367260906,-0.6022009978509322,0.5250530607806755,-0.8029630303875191,-0.3144744300465163,0.2783602393371252,-0.32108685976975987,0.604352527437714,0.12388363818012368,-0.6736767349732437,-0.13053029054429327,0.1726010043671879,-0.3849319545278945,0.19836130986891878,1.339560284133305,0.405439853978207,-0.46236442556993096,-0.018112444985427637,-0.42042252235768596,-0.4631809469078253,0.06863436233133552,0.43254630549111067,0.5192995063197396,-0.6138449940560188,-0.1235127061262998,-0.39599964623451334,-0.3202870517221176,0.05345006474382136,-0.21882087575503895,0.33932521911766594,0.26055061840135424,0.9082844232404841,0.17738127333193607,0.2325372752448655,0.6948170550760886,2.0879588507506517,0.6403021331071483,-0.2629102875777658,-0.2740898141910536,0.951510821573318,0.3106542140960325,0.14054536272348186,0.2631328707861468,0.41330918009470335,-0.1450635997697588, ],
[ -0.31201780492669867,-0.8280484879594714,-0.015264980829270781,-1.0959571619963935,0.32124867705380045,0.1957050102183459,-0.07093732394265709,-0.004135531044246292,-0.5171823532407803,0.13220847487139642,-0.38292258015737723,0.014143448323555019,-0.06020613395569825,0.0701999294190138,-0.43203215254284066,0.24922813719923573,-0.815784143528729,0.7493600463082191,-0.01785379106141035,0.10600813056112314,-0.1510046214014234,-0.14133901373034158,-0.20615162285714472,-0.08405651362732476,0.2968313688242495,-0.09935612045844469,-0.12050308924898125,-0.14316606782585792,-0.004462633964880379,0.21240831531507098,0.6090033548509697,-0.1614011629704238,-0.05776733952298879,0.7853206299505125,-0.2782690649501078,0.27334666680972275,0.009562506694944545,0.5461370575016585,-0.5080404919370818,0.10049178218794934,-0.10469614736959992,0.3039892121160298,0.4612584870910294,-0.24655072033824565,-0.057743242340232585,0.441054477574959,0.20428683951438217,-0.772934037610703,0.13052818271859884,0.019517798433687374,0.013673972128328667,-0.6931683888753242,-0.3274417431440618,0.04518424539390316,0.15260853845135114,0.23614785258534862,-0.16024681047417508,0.2016735021541937,-0.6562129584158258,0.09802338336119636,-0.3391317823879568,-0.20282551181027889,-0.1472822633302346,0.02567813114127286,0.1511803909766849,0.12108175880462878,0.2545119050173059,-0.5274580946200157,-0.24943797675893947,0.6593087264191968,0.3210359333766187,-0.26194221910875803,-0.3617128960610118,0.03319707258898907,0.11541236942463871,0.11531761857198815,-0.36376551107122246,-0.3102912896781919,-0.6097344581496584,-0.08457548070864782,0.08176017832952413,-0.7238007320028703,-0.7352744152965198,-0.20253351291372526,-0.04933203415362843,0.5303166232221409,-0.23716666416325774,-0.021853444446861117,0.36326277991266076,0.5947296481052529,-0.6083472518715378,-0.0069177298405488676,-0.6707698702506675,0.5955010347793976,0.024656944508296443,0.07221872532633232,-0.22293047694770587,0.16810632827829475,0.3318763634858574,-0.31845928282257685,0.3307508299951483,0.20082205626281419,0.29906249326491796,-0.9159220480456729,-0.09280441690861307,-0.3022527248338463,-0.44706967054262914,-0.23319126507671514,-0.3467682077659557,0.18246171911335649,0.32859738008354544,0.07668746006661643,0.36571252259778436,-0.4464129269791064,0.6369829923449595,0.008775264866385009,-0.7019497260674311,-0.3843145116477752,-1.372195363607065,-0.13448828358571682,-1.0316297015200753,-0.4179272653748354,-0.2815911294543815,-0.5226986861344223,-0.11687937388423196,-0.4040314810885658,-0.3368384500143956,0.18496599315440235, ],
[ 1.394365211854202,-0.3693617754970299,-0.24506754023454888,0.14797954476453323,0.7017159989251438,0.8295702871742671,2.059332436272989,-0.3545036523550902,-0.5515812936267684,0.5146680399063875,-0.21816698752045274,-0.4361794503485462,0.5245073555094244,0.006303452658399625,0.24217809054999773,-0.02403590299516134,-1.3767328904043306,-0.45578365611319016,0.33863903837724324,-0.062196057140434705,0.7969545768765667,0.4259117797755008,0.5416651596096067,0.35378170647149754,0.6570173283655435,-0.42511471944756346,0.09706331189710783,0.5426420274496873,-0.044548203719765346,1.391911331511341,0.720736956223362,-0.4376149472508312,0.6546492015214452,0.5041200561242607,-0.8624630182777174,1.0875212964057803,1.5239537819262845,1.4468323809451948,-0.5381351804761616,-1.3040254420104676,0.15396926402152614,0.37970318717296814,0.13223409610231757,0.20855423315866417,-0.5540720939971256,-0.26686518285162153,0.08097991178997156,0.8923981507507229,0.12076722000015494,-0.4041263912246178,-0.49146904839034894,0.4075253142356983,-0.568778525768644,-0.1960828764249486,0.4158119612211707,-0.6617437776546343,0.6712221946708425,0.27986154880548597,-0.5207669351502149,-0.14190562327626127,0.47590570749199695,0.5072865532417483,0.7200173678456279,1.2793886213555687,-0.24227718988138536,0.44432492001604706,-0.0647154279109559,-0.4294881380907248,-0.60883643733396,0.821749115079705,0.8559314968399843,0.36739778911103493,0.015770319798887225,0.29144103818341244,-0.14090081119199957,0.3216091056838177,0.08450408476856418,0.9130834290017121,-0.24511328295384138,0.23829236638855375,0.5827802185767894,-0.3957862004900949,-0.06764094988903208,0.7044104227504026,-0.8544715414436521,-0.17814983670916823,-0.06121852322039978,0.12959701621260084,0.4549865792289622,-0.1175796143447414,-0.2532075197958249,0.4422407540062127,-0.08814317771973894,0.11791587055077996,-1.3747945020836654,0.9555102316706905,1.1068318138652298,-0.9649393276790402,0.3555363619973506,0.1640236310084815,-0.6759329539574545,-0.13401604419165697,0.5343665914246569,-0.6355923571288332,0.2627227639064625,0.8606339542832111,-0.32555374580209023,0.44001621627711357,-0.02502585142394749,0.6444481282929596,0.05760048145844111,-0.3337613004352157,0.6564170080246274,-0.39838811183850437,0.3225833503245706,1.1670866700241471,0.5626368945212475,-0.00023274832344685433,0.775751622538747,0.0395696308094686,-0.5525254865418884,0.6156869024808844,0.23707358492859307,-1.2710236178860865,0.5085992870526506,0.11895343460424752,-0.11169732428480174,-0.9034955061001392, ],
[ 0.13025673505785204,-0.4225003385910141,0.546114283118976,0.0519875841160604,0.38111122672386055,-0.8287554598779445,-0.3135287143840284,0.1818668161711782,-0.04726215208431004,-0.44697635909416783,-0.028861305469403215,0.30909180064319297,0.349379023714538,-0.8316840704931527,-0.19579637639602673,-0.017923038444029305,0.24523736066596,-0.15324868258486066,-0.01230400839951225,-0.3316262217818633,0.025102326663619008,-0.3736873450531167,-0.9002925579384148,-0.32659945303257387,0.7686696723549279,-0.5515876574754613,0.10011236353776405,0.604560245969687,-0.12206160036627134,-0.16613302248981132,-0.5621474986557623,-0.2362466276590702,-0.6947479383987962,0.38014598585427856,-0.430909071886181,0.2675084434534654,-0.875166232823525,0.9283284100668228,-0.0862475919574817,-0.28802886049914744,-0.16121384925083648,1.0994584990383758,0.4683000710783248,-0.5598510785734945,-0.07172953300713203,0.10090010307286464,-0.09283544771059576,0.32259157264909555,0.6417539616192537,-0.09967122799782457,0.5092574368410294,-0.3912801502727236,-0.5556826013307666,1.097818505402736,-0.08724936647473035,-0.32636481072010004,0.497167486732195,-0.17487716792270216,0.7745740567766293,0.13437163243973232,-0.5643321887455656,0.7280926309813143,0.20837038289116133,-0.03569910700780513,0.19756680900384976,-0.23112946370483875,-0.41031837878929767,-0.37394546047941524,-0.4112066806710435,-0.1327267729307741,0.07304590101000698,0.14238541353913603,-0.292559231736349,0.018386657522170845,0.3413416887594669,-0.4800755761838303,-0.01793827575580162,-0.23980919161538797,0.2362712819624919,0.08182254729443553,0.24257580732786213,0.0433569781437926,0.2681268013310572,0.21975137463563976,-0.6134806632409859,0.029644366206566908,-0.8525676211794728,0.3606506196262613,0.13869235836097366,0.3175353677574816,0.17095462022405084,-0.7734603266819448,-0.909836404406342,0.0745840216124285,0.08134584510509246,0.39638746918225404,-0.08560103905119293,0.2468133609655231,-0.8872927384782285,0.32689051917944056,-0.24488037690897924,0.0005254305100855783,0.011319151392721428,-0.1031791266322795,0.33771602970578873,-0.36172893532720446,0.1800760550627793,0.38611310973811636,0.4670985676446458,0.14023108889030786,0.5932802431959457,-0.773255950564629,0.18454422497222814,-0.7916295088050281,0.06272159215582655,0.4030497439067334,-0.08818002367089656,-0.617940183798814,-0.26295016846716923,0.03383158632809183,-0.21305730328227895,-0.038259684493083056,-0.3164985210619103,-0.5494507899996746,-0.6261400838719772,-0.7477597079129796,0.7076248122958697,0.027938210065130815, ],
[ -0.7587391097576681,1.189425913361875,0.411859112012807,-0.16198768742724898,0.8360680714304561,0.6009170656701559,0.256326405686258,-0.5947477154932972,0.09054157719609857,0.5284173443012304,-0.7607837307834443,-0.546555874848749,0.36593054214246185,-1.3648490847210941,0.42968630136887304,0.05026411192086487,-0.43703109713781974,-0.41054321687812967,-0.5502170222279146,0.06350847438600662,-0.11407256501033058,-0.18410242154109446,-0.08003562991629103,-0.31741055142605895,0.7478408865519951,0.15950162419477337,-0.0933083281596484,0.8014358745035464,0.6157996688597213,-0.043570838824164654,0.07069259707031846,-0.19827727308084087,0.39745248484795065,-1.1880929569793457,0.4015593163481826,-0.01862501462773191,0.4929079611595088,1.0856998435754852,0.23323986384017165,-0.8156100842138656,1.2943590709419723,-0.14692755672699628,0.26094035552647754,-1.0394141388937,0.01904237335804464,-0.4335289461954681,-0.2581311481526051,0.03586402590654115,0.7357516248330963,-0.14240296399835314,0.5554190181061138,-0.4166908358725329,0.33873563396175516,0.4161141399780333,0.37948714932713273,-0.3315506341813596,-0.008872423122479281,0.7167867662595233,0.15402633788709202,-1.1945479404291333,-0.8021183850268588,0.5969687393787003,0.6605798775825149,0.27149258939710724,-0.12142938700090046,-0.32065466222527617,-0.8411368950475657,0.02384032113204458,-0.25372830538578145,0.18524892289373296,0.43279045553056206,-0.6678326150700277,-0.31814976737055806,-0.8864279907406096,-0.15105441045293083,-0.09272555474987959,0.1535225750136922,0.8867965964522568,0.28530917725303395,1.031856798800095,0.46372691780173664,-0.760152505687274,0.14203805323484298,0.2807155814818919,0.66458343571484,0.1903021192896511,-0.11773031508520532,-1.0426952440950568,0.1930475508356145,0.3164399587221485,0.2721138580485953,0.2053757627484707,-0.8646682205836348,-0.7893599647925577,-0.9091636498100768,-0.16753905915391754,-0.17015706823473783,0.18211866976999355,0.1199862456881122,-0.2328549131199931,1.3110507686444277,-0.7781579231757452,-0.6236972346333141,-0.25252721152526003,0.5003975482570164,-0.045036995626209025,-0.9190056499309504,0.1846762047398659,-0.09985806455301248,-0.2845020413435546,0.2786034340009982,-0.2998518059205685,0.9842831186583583,-0.9060209867519188,0.1429125376270738,0.17768504643937305,-0.6375914180707294,0.02124400523089597,0.0083914029464182,-0.5433894266170506,-0.3165476679442901,-0.13389672360385632,0.11381957434780117,0.09020446713284895,-0.37727474225741053,-0.25663706790369284,-0.05408115952861217,0.19832875259080934, ],
[ 1.1240099245680302,0.4006561709147783,0.1269025673557003,0.2756487040383724,-0.46697483178978305,-0.14928393954010055,0.9107209342910038,-0.26956007121860265,0.8386912727186299,0.3969196140120077,0.38994264599390827,0.3422780221866764,-0.5636276046088285,-0.3417959482888355,0.29516183905650273,0.18868381000918052,-0.29318281413186964,-0.36144933430361126,0.44817181827034724,0.014964729980393235,-0.36553677920332317,-0.33875483575574494,0.45488122401240955,0.13554731836674253,0.45145091092332473,-0.18141210657598528,-0.4121306423973221,-0.4334745134345209,-0.16920705411278375,-0.19255978164967777,0.5123365554708377,-0.3667070577357542,0.02910680083298106,0.18991296451554746,-0.2229061351326422,0.3778249845303298,0.0232505490004961,0.07194043536775242,0.3993104199052882,-0.08171627368573883,0.35074405925324265,0.3250697337794058,-0.35727459064018807,0.6301602806084491,0.23808969119657614,0.19149684928580019,-0.03588896862041169,0.3670066629437075,1.4143333260863302,0.16165005091611076,0.06814297945322903,0.29197214105522534,0.21594312509619812,-0.0189809141651133,-0.136669344520295,-1.2372849690485501,-0.6557642505096851,0.6612801378720904,-0.17957556476238748,0.19789843885789354,0.039397438468076744,0.48811741824928007,0.32826750843211944,0.40945388598334426,0.07695936194114786,0.44068358533240515,0.5603677010381679,0.14796386958564273,-0.28427101967727286,-0.34563168282051826,-0.2929788411816281,0.21548576147982995,-0.08636514034170856,-0.006006174800463039,0.5009409705503246,0.22218246949158144,0.4695781816183015,-0.3254584602677469,0.013502460166791392,-0.022713733319192776,0.4843619361099268,0.583899557735593,0.09461500567348909,-0.3041414893144207,-0.2967646877555018,-0.0649737328198433,-0.0010572348073412483,0.21121229577750864,-0.20765297589266915,-0.3071080258768076,0.5263244736898346,0.3324132369477517,-0.4939349836340026,-0.31728780129542894,-0.1560020892355634,-0.3294891008031709,0.22453411161684356,-0.3630435183329108,0.019294612493016824,0.05666995711778892,-0.29918130281867483,0.6278786837936704,-0.4873953248367634,0.5810806876075958,-0.34459063744765744,0.20124681475316836,0.6717528618538327,-0.9547982438557545,-0.4755641308688184,-0.4850161479129281,-0.5129473832751802,-0.2711211620082349,-0.2715884409165251,0.18213049579216833,0.07142171615781215,-0.14337274364092045,0.007767767608021732,0.9756189967796188,0.29925822819560727,-0.34660966087012174,-0.008750549806835276,-0.20876805571804002,0.28658539438583913,-0.06942094613764865,0.40042620867533946,0.6594436573786469,-0.4069728596351906,-0.3221672810248225, ],
[ -0.8736460026634565,0.3634253858305341,-0.5241585144780248,0.015907655238155433,-0.6637831293512225,-0.14165722249932908,-0.05098352415821954,0.05101810469310439,-0.4161674560019054,-0.018404286139203335,1.1841030949089402,-0.2644019189737391,-0.35500990609131533,-0.16092021055737116,-0.721132123321707,0.0034393365894969503,0.16401133995621442,0.11661450087765295,-0.3092879561993853,-0.6205207127041293,-0.22595385805314416,-1.2026406997824823,0.30253295349805676,-0.24367591709847283,0.5840433394770739,0.056844725392137294,-0.1462219533999407,-0.04620039638197531,-0.05945137124168068,-0.396678815427921,0.4794159218515075,0.2229719987050718,-0.6069580884740924,-0.41060387448052266,-0.7832570335291826,0.9536029423031218,-0.7156202398035233,-0.3991489468255385,0.7526507187215006,0.6152225752733916,0.14589286126868822,-0.28733952090937365,-0.4739309582639789,0.27064294023175417,0.4386590378806567,0.48501865843791225,0.6602235707920417,-0.11229655801989613,0.26652122865303635,-1.3101936783074506,-0.4315618301122283,0.11121664203598203,-0.5986301751950504,0.07334862092173902,-0.4839161738646848,0.01471156683171147,-0.3886643165071648,-1.0970762935361777,-0.19478704066338454,-0.5675549279985929,-0.04092428171765747,0.4240332640062946,-0.35197488322250714,0.7202122737320941,-0.5099298705226657,-0.14984824065078722,-0.4560364239458727,0.6265904360954271,-0.7190835614424841,-1.2222865401001386,-0.788686039334541,0.5490822298617616,0.6962255022963604,-0.4883876540720068,-1.304300931464908,0.4546706766698233,-0.956456827847842,-0.4046029548676154,-0.14953500939833234,0.7587243979030128,-0.15737613328168273,0.1387937848798388,-0.398673338530307,0.043692264924117194,-0.8349331038680918,0.7344895156771772,1.0303413679639652,-0.2471537537777825,-0.5425042684071405,0.11918092674722142,0.32504145961530395,0.030616232447879407,-0.023383944605974673,0.8461640567157352,-0.3519575365863566,-0.46550463628330563,0.7857098150248462,0.08184251436947683,0.6122591942292919,0.18919244482104935,-0.037624405428479626,0.993959633108937,1.1350667181091567,0.0429798021506185,-0.13933796848394506,0.9567640603641901,-0.08090658871419314,0.6529758747118671,1.2917566732721177,0.5550263659443351,-0.3166547688433386,-0.5030633897247075,0.047149585625498695,0.7058205309612251,0.8141202487245403,-0.498407880698954,-1.5671431443663242,0.0785751750535294,-0.13862908417454817,0.5842719236201659,-1.0307081541895189,0.15944133248513026,0.8834683682804553,0.04223937220413068,-0.6719118059423076,0.5652889146206688,0.14887833982036777,-0.14400558057013618, ],
[ -0.4744412706314749,-0.4238249513434942,-0.6088129540098889,0.1950559499253372,0.1032891078042251,0.37722338981464676,0.20478144549435315,-0.246992722468402,0.2035523358341415,0.37681371985369205,0.11703278495499518,-0.3009860224148227,-0.14555853817044542,0.05690921739105677,-0.12172272527397643,0.14764712267511887,0.48959171913755223,0.2067397636690659,0.2709450272569847,-0.13855502544478715,-0.22781921411573436,0.09998355425557763,0.6213537833713512,-0.3644434420325775,-0.3400842343310299,0.3469098134647245,-0.4962551266674915,-0.43051893024209253,-0.21018744716030652,0.22976374941103295,0.27660790559988596,0.42933291016182673,0.12136446819293013,0.05686287083375309,0.31884948030360527,-0.9193025287898384,-0.5818175265585817,-0.17691911705465113,0.029898940819469068,-0.35182179625359333,-0.3933452647317548,0.05173740781625323,-0.44573026535579746,-0.5469286473469823,0.12911078122669228,-0.0035458265122084993,-0.31290128969357595,-0.08111145457059117,-0.4206637819701032,-0.7182646138779832,-0.5408293976731444,0.6221149941229502,0.1310985718613199,-0.10622335117715533,-0.5496616057345031,0.19307988015534067,0.1261202152583003,0.13518905715768506,-0.36337772458386974,0.08283241654931306,-0.17163092621713824,-0.21335565170538767,0.6761449156748528,0.30541484835589566,-0.2427384327230135,0.14385170708431494,-0.038286063239664284,0.13621191360724702,-0.10807722355637031,-0.17147351201375202,0.06185035070362637,-0.10065775959187173,-0.2528559760732723,0.16200140971445867,0.004763370138605803,-0.4703340257677061,0.42320912390961024,-0.2507705954157811,-0.11308021846869107,-0.645289545837366,0.173300056553163,-0.9198022691797514,-0.4991554583118351,-0.2488268008488204,0.196124860021124,-0.10798681739029502,0.17502210969699034,-0.18302085005505078,0.6407249745707769,-0.13807353360214075,0.08683924791444891,0.15025555830783033,-0.3508015224989314,0.1511725927419761,-0.3850454058242952,0.45582578650548083,0.16036573917291383,-0.37901677424802965,-0.021359523692325133,0.10477206748471318,-0.1528639223387154,-0.6291156768215742,-0.15354843024063441,0.00972736131722991,0.15313650567097017,-0.1047561321307466,-0.15907239416100172,-0.20905332904742618,0.02970116836936925,0.10535565342680923,-0.4507206566207166,-0.9600558862818538,0.234598603744702,0.23922346113544843,0.3506002240266357,-0.47993930828909026,-0.5832447936654881,-0.14492881003249497,-0.24850378170579718,0.44082650667584355,0.11344361283814525,-0.07525412055143336,-0.10889718065553759,0.4013320397751281,-0.15123378118899466,-0.08121675336717994,-0.1533120166347532,-0.26271416340724635, ],
[ -0.14541434699331093,-0.04260023746726707,0.04740195956558195,-0.40040025280833363,-0.3035905205518457,-0.3701027832547305,-0.2032287455361164,-0.05188994317985479,0.17821422722725125,-0.05154360014770576,-0.03910028731116907,0.41421338450977074,0.1713335374558344,-0.43764749434336214,0.25186628162218805,-0.37629936917890866,-0.3655744672642303,0.03058667016963476,0.1345209878754069,-0.10728049497526629,-0.1707359312419545,0.307231849548285,-0.1944360565666932,-0.4599428542810019,0.09169171150998512,0.10292005059431873,-0.15120636761292466,-0.21784951858945084,0.08030454889646933,0.24259828810893116,0.013684774389468116,0.22604642648260792,0.16423783200980893,-0.03546838862839312,-0.18446539925441383,0.511901659373844,0.006333219278118876,0.32947849869837187,0.20946805840248736,0.5084983870901243,0.020955622785596775,-0.19586437208942742,-0.37407912468457954,0.0071459359870921025,-0.0824727816455183,-0.05398969083181697,-0.03603902905393983,-0.47164199220685654,-0.30530513243760415,-0.050865954093131244,0.872296953036364,0.28631289250104064,0.08274161793093872,0.11856754717131612,-0.5737381246647417,0.09880982599308907,0.5569385223129104,0.24267617217996118,-0.3591746195872203,-0.3896977653173565,-0.2506329471432139,0.28493267884753887,-1.009591609540356,0.37956909226570235,-0.10105667331160087,-0.1466079392463573,0.04347502018656652,0.23222692439275142,-0.07463424046212697,0.4105754517356432,-0.6323885195176,-0.1179125012341088,0.7853110301319255,0.5623600994929049,-0.28643688190059746,0.05580913502556836,0.1840069244742842,0.40658662529081535,-0.6863645418201996,-1.0252640700241282,-0.41500533088271496,-0.3454650021204168,-0.37373339834274516,0.07847317472127495,-0.03203604774501031,-0.40684014055421835,0.3807029173538513,0.01571804915633916,-1.1083321598344453,-0.00298592150501281,-0.0744520141459905,-0.21498874497218246,-0.19049847267602918,-0.39565513707543476,0.12553462223692013,-0.10331452783196535,0.3760896046990479,0.38965628657984586,0.32174639268877653,-0.5950533417821533,-0.13337582174932427,0.05851230460654466,0.0890840955222028,-0.530015094322581,-0.17688167176822053,0.02979357435809829,-0.161283084293086,1.3512767389630467,0.166960822251561,-0.10041303499283882,0.29375855153107255,-0.25235503256985525,0.03631570862466224,-0.46556789864080816,-0.3578038020350989,-0.04042152456716688,-0.2744903658683243,-0.5711628729339422,-0.36841465206454405,-0.02275891436008634,-0.06283033402812085,-0.7107744870245707,0.3437636204529418,0.4163600717598789,-0.38284212424015457,-0.5234883712162325,0.0294172587534563,-0.1219389134056478, ],
[ -0.3679697420902801,-0.25586362431350784,-0.06879710091434839,0.04485000976600462,-0.17454589696999626,0.08107555563256885,0.00863925644580681,0.1791321841828001,0.07075594703431058,-0.22355813450278275,-0.18080644558202724,0.41983013243059664,-0.5040654283840356,-0.18800730986148698,-0.43443757544429745,-0.03942504758803094,-0.21863206974485744,-0.274490154813002,-0.1669222665811873,-0.19854129434629403,-0.2043334840364782,0.17733844167188295,0.5104104538491679,-0.340160292334038,0.008693291237175452,0.4793613107829708,-0.029282687247432892,0.04617687067137258,-0.2779101923301306,-1.1309729403709792,0.04245397281899741,-0.04783129144698248,0.0803907203115792,-0.11031781887129179,-0.03296110038487245,0.15417401930559643,-0.3486973891167099,0.046947039477693395,-0.21710645778081322,-0.33299540032922553,-0.47010129830754277,-0.1643119913031118,0.13786364469761425,-0.24274671063810466,-0.2385804964067595,0.0038233019268448937,0.007884261445748844,-0.31763498498070947,-0.2409847665863084,-0.18926914682271598,-0.42540484009292434,-0.5815072397311232,-0.16810510785895327,0.049990775924751596,-0.3460972562124134,-0.192093708011586,-0.2585240083712013,0.08662212565692966,-0.03133772942924817,-0.09728163966346909,-0.07254446007896241,0.021319563264333763,-0.39745675208862596,-0.5620690395638536,-0.17801895648247434,0.08271194292005851,0.0524337657830541,-0.1722165311040396,-0.05796987169010185,0.3063809840650077,-0.11181425810708709,-0.07016933152945666,-0.28567167764110857,-0.27806645064192187,0.06354260816412961,-0.115404871626465,-0.3059315696018088,-0.41042981744055435,0.15985672294034928,-0.01352592472898253,0.2635178642382885,-0.05453445965241793,0.1937537244385129,-0.5282730314941982,-0.5799900134763669,-0.24995375420175267,0.4079814335767999,-0.04364420674706024,0.39025072524410775,0.2709951212525688,0.015644988737232177,0.4087608561265402,0.11457486023631161,-0.13608072370280186,-0.4037321140520855,-0.37180149641211063,-0.1870761644203231,-0.26598080180479494,-0.022996942414014822,-0.2639781566330171,-0.05434196784610561,0.3095825597109929,-0.4358693582301416,-0.028818454266494358,0.2348409964782972,-0.3880005574539165,-0.19521091344549996,0.0353039796006441,0.604431673244574,-0.4846910447758019,-0.07117534493590452,0.2471587388223737,-0.04802286732236018,0.04620464922817247,-0.44696798939314863,0.2787850887739675,0.13843149550367365,0.650882490695903,0.1992925136974473,0.20134788764874703,0.4258587499527464,0.2983560535949895,-0.4774148440231972,0.25854239639942067,-0.4356143059876907,-0.2836262608070589,-0.32384993465142947,-0.22939711460275428, ],
[ 0.019373950079621255,0.13245540351254337,0.30231410325329594,0.17497152071666675,-0.5112447090946427,0.04411409789992256,-0.20021562588124664,0.01481202403796757,0.2104248992844307,0.2607294705945211,-0.7743067790838548,-0.10439443926667827,0.6215001281000117,-0.6612033738732708,0.6428007582938676,0.07251273221787709,0.23781679088451613,-1.2555038224117752,-0.25219994561548165,-0.3325383445150614,0.08285065452973657,0.03383990214797759,-0.06712114124195907,-0.2893738019931586,0.24307035477949582,0.23391686707328407,-0.7177712350711896,0.049854427013322926,0.06486099409620624,0.354162564139295,-0.30487011734517244,-1.133549116855515,0.27874573713990086,-0.05168127618641637,0.42336378916705375,0.1842240105024023,0.3141219369419199,-0.08351099644521906,0.06398355275978508,0.13046904906453327,-0.4535062342387462,0.3298314758049938,-0.3680519152187606,0.01673139075257854,-0.023317789984031813,-0.3522566543162518,-0.0980850604298445,-0.29378919061903785,-0.28202389834166575,0.07126420993657216,0.012638425416940524,-0.0634036070300171,0.13179342753466133,-0.4386804112467346,0.009196864036449108,-0.1762748608642668,0.47041269434430966,0.09344815597385603,-0.08477197028075201,0.10008889102022257,-0.29908912645296476,-0.014519158025237733,0.22743969035060654,0.21336568583379145,-0.44620009937487726,-0.4218949406481279,0.4137435864709549,-0.3317842807469471,-0.2945438720653212,-0.07410666416756456,-0.22673618762528153,-0.41680139954108725,-0.2289862942065377,-0.14327937551081688,0.10880545790944923,-0.5116497171720099,0.1378947332284587,-0.10913619133960573,-0.3693644078240897,-0.20671006581452428,0.5329417750808617,0.24159648432381206,-0.30788380788474196,0.2678130715397691,-0.47647861988474255,-0.09236785917043851,0.85501245210771,-1.3473297625859486,0.2597952635433881,0.2762580821728709,-0.39188246863918286,0.09691730864726271,-0.3648234478019589,-1.012532978596897,-0.3167909315103986,-0.29248596288961537,-0.6460978588139227,0.42029020039626147,0.889620425885558,0.2546739067462851,-0.5877655969607771,-0.09057633152730549,-0.44140684516008233,-0.04331285370921485,0.026993198646641473,0.8191357756215318,-0.03330271234533005,-0.018340004277946634,-0.06041676731227686,-0.313647361868969,-0.010858781167005227,-0.055287369563552125,0.047049743095388084,-0.4621835286233945,0.43708672373737883,0.22208161440176,-0.5193963911709392,-0.42180874392779083,-0.4933320081559681,-0.057524064243313765,0.27478717298171645,-0.4131424747675212,-0.5895367306029762,0.18743755822317923,-0.3508944722767454,-0.5186338433281135,0.43668641243191897,0.12432486111946314, ],
])

weights_dense1_b = np.array([ -0.18064867379832125,0.7643328525959763,-0.22103848250682645,-0.44395038280902405,-0.4893967887508829,0.1548352416388743,0.24916336806638864,-0.30220821066002257,0.013549690229599102,0.02254288799505284,0.10953837827964433,0.07117312089639298,0.05903874553573048,0.28556621162556173,0.16611394730972906,-0.38911616141815886,-0.497936924878373,0.254920032969694,0.40213828142555486,0.48546154136601405,-0.03740238780076183,-0.13456967838351852,0.36010303771776647,-0.14426073353192173,-0.2363770454264862,0.03917194168247522,0.14394043458790762,-0.2818954864094574,-0.6073209433436393,-0.4568797092254556,-0.24671583409438455,-0.1658697565433011,0.3364056161133516,-0.07041224788011739,0.3545070321782592,0.1154812806337228,-0.053367530807689474,0.15270831129241075,-0.5317094216438573,0.3407521108481024,0.18032418478082451,0.10179826854745405,0.015201192531143645,-0.06925022316675958,-0.540633877935442,-0.2153200839109214,-0.26245798403860177,-0.44683424899759194,-0.25666422263786154,-0.209134483813638,-0.5887906213645312,-0.5685743488678985,-0.4502293819493652,-0.36745696140896295,0.24156432089487803,-0.6234780044031087,0.19309053664680093,-0.2001035239515356,-0.03687123269948106,-0.33242219749979685,-0.3137400892199113,-0.22765141062831828,-0.39092218823799585,0.2796011487398827,-0.364184795065481,0.026448595186819305,0.034681553127121775,0.31970614853794527,-0.21018059762801158,-0.21882486804441953,-0.5902974362312431,0.15115514913843564,-0.07991741989029529,0.28620911943809263,0.33573097049730716,0.47275455248835563,0.07782122530078697,-0.561745983054046,0.6938487082697509,-0.18614757130825593,-0.18750845604149347,-0.29565082394434383,-0.37494796744315667,0.34486410835849873,-0.2772643610437715,-0.24398169777033168,-0.1240531830321468,0.30313812872560614,-0.04614868254133818,0.44249255526363895,0.09718761458608609,0.3936730059134213,-0.45731897679440786,0.25735435101783694,-0.16518407268589788,-0.035018147775508726,-0.11517841755684138,-0.40448987988586327,-0.02229346165478345,-0.2412189053750942,0.4236394763602552,-0.09695723194440517,-0.2952073247868198,-0.281242735276452,0.11862412336557326,-0.1349771172233272,0.4491341740336693,0.19725447835148666,0.28258299135856346,-0.9345344629528846,-0.2250556263168699,-0.2345440642148244,0.6269801984534564,-0.2430665721479428,-0.1109252650427273,-0.1295271284324771,-0.28554451386166435,0.02133747905408294,0.0530596233539562,-0.1785578960594212,0.09260934308933025,-0.1265934640233257,0.23252206029963768,0.25324699780134063,-0.043410389896876136,-0.17158920369464042,0.16637704170574222,0.08048618752021824, ])

weights_dense2_w = np.array([
[ -0.11169083537538595,0.5016258229383167,-0.2080057201752688,-0.08528998826166956,-0.8981568220821119,0.05099957177796564,-0.5437030710490546,-0.2080585488645843,0.3052243623929265,0.6015220258156903,0.2200359068193502,0.09908223269563574,0.09699049037283868,0.8267135917072159,-0.32063296320560836,-0.323444064480871,-0.00794626310223051,0.596692078357201,-0.7211856987166312,-0.2655889693986017,-0.6994877802392037,-0.0374591406068711,0.14332373320045144,-0.42907895839555776,-0.8705426908778904,-0.21106659548794007,-0.8600195027058309,-0.07659577667723463,0.1326333026463167,0.046932585837546836,0.28893808815972655,0.13791211786535906,-0.2108407589107978,-0.10783824029319873,-0.21688899484204913,0.4754856467421355,-0.12372563536390901,0.02148591774418237,-0.18988816468733408,-0.020073021747681143,-0.2962754385458479,-0.4817196156594256,-0.35493273528964986,-0.2626524350021443,0.05851860144213439,0.7400279105486876,-0.38834093098953965,-0.12383856439694356,0.2559437870557779,-0.07744168390149818,-0.154132119807776,0.4594664950064381,-0.4284410295315667,-0.7621848052153251,-0.005754275699091954,0.4295880794246523,0.43114691131622224,-0.10310171289939728,-0.46899793427253467,-0.5812651014577108,0.004312244451549716,0.6970973288963596,-0.16723946352323596,-0.15568475109495142, ],
[ -0.14099606316119462,0.2673768919133857,-0.4467214475454816,0.12019095374510197,0.04537704368660103,0.013345743826227968,-0.4617499827072766,-0.13979717799103122,-0.3443887023671568,-0.01411252401942611,0.2413678087831981,-0.39868596905675613,0.9435172632262762,0.9576519841785663,-0.6209812815493563,0.4202500170635844,-0.457974490450069,0.30978934869291486,-0.8454613639609677,0.6356303926959332,0.23676058252654616,-0.9132907496132874,-0.5543377815658406,-0.16810665352963472,-0.5011951846177658,0.036667032947743365,0.1719125756574822,0.1554552035760287,-0.32120178185234505,0.19660986690299465,-0.37867866599860667,0.19262260513190366,0.23602119364753468,-0.2843184089347559,0.028722111787777345,0.04630678409334402,0.4691875782858442,0.14046043729198876,-0.20598632216433194,0.35417642381673275,0.005043649494743528,-0.23032144725729836,0.40951510160347815,-0.20220943464309896,0.28598437800857296,-0.15684618841868356,0.14261655482299074,-0.5641310792981806,-0.938617921297481,-0.7441831973621402,-0.21000349246418226,-0.14927490846655286,-0.3377487274772617,0.2570868349054367,0.5350854071643345,0.10043421740025801,-0.6912959435301932,0.4153846882900942,-0.24873276857751142,1.023139688583294,-0.36396463167747917,0.154120172650687,0.2071289742978893,-0.9885843658545583, ],
[ 0.3461859021192528,0.7185508275704047,0.276555907278949,0.038534744273293516,-0.2247376346142039,-0.4554787611168047,0.6601688830227472,-0.11663218487883248,0.1313075258783896,-0.12383262874148593,-0.33489090433942836,-1.354837330294537,-0.3713650333657788,0.7181548364685166,0.15844679205958123,0.09044311575409304,-1.2356021845139413,-1.2278455747598784,-0.14909657286363773,-0.7424010094197253,-0.21839539451866868,0.11120462947412425,-0.46843330024712754,-0.9541079196904816,-0.22620036783908273,-0.5512019690520453,-0.09535712299657495,0.040639048552555554,0.1777164432352321,0.23908885279474423,-0.8422295855042049,0.213227102327178,-0.15133310513118042,-0.2633207524329082,0.3058313623251594,0.16300569491894265,0.2592542058371678,-0.05025734923881641,-0.16505620412435934,-0.42957668205954164,0.25962390887018044,0.5263668198483832,0.13438065498885893,0.24215029295073268,-1.3657229021059778,-0.30650344343710245,0.019588619845802943,-0.7520698500309996,0.3401896180201895,0.5551059202925752,-0.8576560664843814,-0.5937119509973195,-0.6580944854825266,-0.564033287357463,0.007998454980642765,-0.2511591850571808,0.41321448674648664,-0.9733024036972262,-0.8324645438798783,1.2743191838825652,0.550297314097455,0.2913272375938284,-0.25140319429007674,0.24140695485000424, ],
[ -0.6678500834925574,-0.1331869336498341,-0.9043455273834313,0.5643414208762739,0.28590337369909113,0.32251650457506814,-0.054200415288057815,-0.017549267241167094,-0.20602009712379876,0.8236090686973724,-0.6045538184240413,0.5756643676403893,0.2803671532643932,0.08522237106620399,-0.6836282377954265,-0.4469528581839129,-0.17199693263065852,0.227292669876871,-0.5337594154781838,0.43680593642275,1.1029668392104446,-0.20547096149092842,-0.19778937873491706,0.01786808162764761,-0.33617032040237566,0.16687938362346533,0.5540705631420672,0.36130862475226294,-0.09905799027303486,0.6914383347267492,-0.1625075502766809,-0.5660489039598565,0.050412270602839614,0.20129186894869716,-0.15092713367729857,-0.48838071915715947,0.1559049612847902,-0.16892540543089823,-0.3427201032094598,0.36965670316042853,-0.44994586769331013,0.25671823326050514,-0.039171235005654816,0.217066255085887,-0.567013595489433,-0.017204672190807527,-0.24650510631882858,0.30856759337678924,-0.595111924158806,0.06794344474860382,0.27402443514813035,0.10120485970937866,-0.20048183586735607,-0.31593380406621807,-0.9598448456961307,0.04663268812287407,0.31441521236116643,0.5282536205133841,-0.35654678678429025,-0.7977313434082657,-0.005876018097944247,-0.27576988859407947,0.38131485349224703,0.08697672643685614, ],
[ -0.3726819240453748,0.5302159565030096,0.035117422094187244,0.26118271348142386,-0.24249162188085205,-0.1796744001750024,-0.11080931898803892,0.4772544966581948,-0.03522422108922733,-0.3943874398072046,0.3070436578353366,-0.2779190901591534,-0.39986174380044703,0.17667093475107606,0.08273353362657274,0.1755877823610815,-0.008591882354830644,-2.0704685680622155,0.49539071634512866,-0.9224777571449903,0.2352989773897885,-0.26449091246566453,0.021982906783458038,-0.26451266138565,-0.6625737137620875,-0.01797689068557934,0.3819739243434631,0.19353777708005498,-0.3724639134774311,-0.0972720490195209,-0.3456037962980384,0.11755600307919199,-0.30615173798446604,-0.2544415934581851,0.01260534357157262,0.11000041740305666,0.07146987348141627,0.1111581978261592,0.3293629610941462,1.0539105768773969,0.1094363838581135,-0.07360456380619604,-0.1730827664829773,-0.5747623271837438,-0.5193072897673843,-0.6849257354930643,0.6594522175104562,-0.1938945189273093,-0.43839668667577714,0.09349463453099525,0.36195758164726954,-0.2545825933569119,-0.20870727333855726,-0.12043559443718252,0.32947033776600826,0.44575999408336725,-0.49580350716590427,-0.1241903296208569,0.12244935160610593,0.05489991168228021,-0.33646710133416446,-0.7007697123770064,-0.7658627766026006,0.33366227978549967, ],
[ 0.26110531028887496,-0.16623749402371682,-0.11734751870440538,-0.2979027884805229,-0.12040599993943668,0.09865905593266262,0.039692571702856415,0.17380491974649734,0.11375002750722454,-0.4241527373311521,0.1716233674740913,0.2890685291916928,-0.23168983224926593,0.1135607013695511,-0.07428964618821093,0.21086341873354028,-0.12665552598847266,-0.15548131447600255,-1.1522754813645577,-0.6599192142376145,-0.17423746688202257,-0.6473967446932652,-0.09887622616867411,-0.04138123919048411,-0.6801892724997931,0.5377419994459929,-0.2986966964261596,-0.32418550954826,0.21975638044707554,-0.1316988586962444,-0.05955972096623261,-0.6884690102526341,-0.05712744463755494,-0.06858580374377167,0.44970703164111736,-0.14927872021928565,-0.28174021057689874,-0.1479885200754281,0.6245703642757954,0.6273374271365232,0.007841993530409895,-0.7014516621292709,0.1917564794016258,-0.4763172099530863,0.128194757634792,-0.6235352695800606,-0.9918183469709198,0.1421073194196124,-0.5583494858337438,-0.5878920874918282,0.26627602051781907,0.1968080116738161,-0.01255855881057752,-0.11308291209676949,-0.9191847088776255,0.36335088831570717,-0.09553272330106058,-0.9456208049490685,-0.4392047842655873,0.4611157738670908,-0.2666151243712361,0.21671602474712648,-0.21476107373511227,0.18179700616481229, ],
[ -0.37449787754340735,-0.636272139292553,-0.1442565067154816,-0.8901905535925542,0.27068113242622555,-0.2772060838958799,0.17376759941361583,-0.2990790057057601,-0.8659569852478595,0.175192439420029,0.27571961565639586,-0.6480818147107892,-0.2916440195034097,-0.3586240257752771,-0.48252491335848746,0.685380732302028,0.5181382701377827,0.045040641238944426,-0.20702200374233556,0.28945746629262237,-0.30101448594719094,-0.25608020080839783,-0.4265116064291209,-0.23841396403314133,-0.4525484174498202,0.3036654594050543,-0.3284652957890066,0.21721962809128256,0.14747128914082586,0.29196935119539524,0.48159314854396357,0.06364043379916252,0.8035268019414097,0.20687785317671076,0.8727082002261837,-0.4155511340509757,-0.6258958622593606,0.09224397250413816,-0.11503438596697316,-0.3499231773482177,-0.1861497311789828,-0.9090472023623799,-0.04079670631051414,-0.03252263471763803,0.4303643309292457,-0.9718632405730514,0.32100946334351343,-0.3767550212671542,-0.09735396611858264,-0.27691469225051213,0.3782824613733447,0.03280053260321865,0.42125384988645903,-0.5106715028533124,-0.0656928405121601,0.18861050805332696,0.34171200120528467,0.49100322952892295,0.1365337787257861,0.6546090890183598,-1.1104250915532246,-0.18505837334191494,0.037757655982448055,-0.04819799589833534, ],
[ 0.3187145271384303,-0.016221492508028137,0.11195374649721186,-0.20494538950122573,-0.6384538045363611,-0.32089520477234496,0.4371974599203031,0.19877754570444245,-0.029446279785274976,-0.06798524648708054,0.3199433770618466,-0.23969990713880002,0.3244386422682256,0.09568075363457752,-0.12403268105428372,-0.09252679036981552,0.8922688434823135,-0.3413572195276847,-0.06175098480937012,0.06306794358661363,0.32503923924745604,0.7579015110988089,0.05618965388740187,0.07007551047575432,0.16732402186236772,-0.2517486017351294,-0.14225143729496198,0.0382520019861526,0.09150169093101203,-0.45611144756003597,-0.151563520366584,0.3297799477600514,0.2907802313461536,-0.7509445958554963,0.1008592171401434,0.2298166510129665,0.4384345655856331,-0.010905985131077996,0.041662174655373606,0.2699939541344436,-0.2221532872593429,0.2527775894184792,-0.10836005273121692,-0.14567608905389917,0.4268896021528764,0.38569104619393757,0.31552041817301973,-0.02863857441475987,0.3108194893953993,-0.09065173713669705,-0.6298928428789657,0.07314472531155992,0.4151299524190431,0.07955214528529142,0.3073140376891479,-0.4683910859338572,-0.08373439062090582,0.10841468985079931,-0.5035584127216379,-0.3640319495451805,0.27935040255533317,-0.14198073500483405,-0.5010185994483098,0.07615903716322803, ],
[ 0.11498296198671033,-0.2906514284575832,0.19761935600964245,-0.001725700383473916,-0.35680291115186685,-0.28718210988163206,0.02054934785689691,-0.01455961272111823,-0.08248437335352782,-0.14046029970063953,-0.10171222435239347,0.12226438155942261,-0.34767097676225434,0.23454348108282663,-0.11830528276790092,-0.8074579257779169,-0.7268979086616949,-0.47324291971255783,-0.13338887598389038,0.4520358554732445,-0.07466840261474336,0.19445684919523104,0.16989171693898925,0.11197574857848631,0.13391866687431547,-0.21511728566579563,-0.40317889498430187,0.08561433201073185,0.033858544777309804,-0.047635159427036826,-0.6215124933925679,-0.001297391300939782,0.10063592430945072,-0.22130982813074396,0.08168597991639538,-0.2323692661927832,0.46320518405233085,0.16010265446979763,-0.3930812804503606,-0.34479399582412773,0.7254801431708935,0.5376977052731383,-0.2935900409247214,-0.21290681707844106,-0.38039268213729927,-0.3078364141653078,-0.14302826346904143,0.22335138546888264,-0.21727973844868465,-0.800635670997047,0.13638408067917865,0.004218156528648761,0.17014939250075595,0.5364195553208465,0.40265077820814293,-0.26687106908844155,-0.2431343886702165,0.2692735578226405,-0.0782918962085642,0.4874114524245052,0.08413166894864088,0.013981758837803834,0.21394503695989298,-0.040016464916713214, ],
[ 0.2795913566219915,-0.43593860081751173,-0.27886540156221995,-0.3393798474769079,1.2849647351787625,0.047732086446565895,-0.35047359143190554,0.7532632544749949,-0.4142432691647264,-0.22070157493909365,0.03485873907703291,-0.19059700639956045,-0.04718360567323639,-0.27492020591348004,-0.09201094116956235,0.07008516227092915,-0.469241610802543,0.14960571873067616,0.40299229850007967,0.20162502680354658,-0.08816756900349976,-0.473160910593928,-0.07928647741070452,-0.4757680247243874,0.28808454620336,0.5452465606122698,0.06591834492859366,-0.06713577177822139,-0.2968341789433696,-0.3732042687073285,0.5448360036566883,-0.1177848233759542,0.18251346565951126,0.3257325359849993,-0.14391424970110608,-0.7380264229203723,1.0503198553190731,-0.568962306698081,-0.01794184420713337,-0.09738141309107094,-0.1688845369707891,0.14745918247998047,-1.1587565383277363,0.1836366416177697,0.22104570332145485,-0.008199057191117248,-0.457073684175243,0.18185313184218352,-0.025162839218998714,-0.23313278061136766,1.132098164829679,-0.9885637700026617,-0.02813379129613494,0.2158938843273624,-0.03918654712371131,0.014762455307583695,-0.424919067620135,-0.6167923417492686,0.15731768529221235,-0.3324477707133463,-0.6426714423824892,0.09285153754112477,0.0790686041865362,0.300358561182281, ],
[ -0.8356873673300033,0.42715619802174243,-0.5778037298910735,0.08362107662666256,0.4197834752706624,-0.2006966732164952,0.28446674465179,0.7738918290977055,0.07280270021368943,0.06151079579844513,0.002454630969242633,0.1638633061920663,-0.8237520032183382,-0.034668157031516086,-0.4061555544151575,-0.2230353132801033,-0.05028115430920712,0.22117617792322355,-0.3110878245540441,0.12165985462673624,0.5985189326159646,0.04650733046462707,-1.241151050055548,-0.3256033803250435,0.1167274197350838,-0.4689113263107229,-0.2772750381287093,-0.6966893950774574,-0.18106816117366634,0.10962467956789616,0.23158205040660823,-0.3769844936515556,0.22585672683398772,0.21067478164496778,-0.14789152943680556,-0.4129503953931364,0.8476949671687699,-1.110794245154058,-0.18354188749013012,-0.1513342657566442,-0.14423332543454473,-0.46280132006105723,-0.1098958626979421,-0.8266570546039405,-0.03196077048332148,0.440092263329263,0.5337229586024707,-0.10348020907285019,-0.08154798134401522,-0.6446368558685959,0.35431971228148995,0.1109639552300837,0.11895723339755353,0.18678183776833562,0.01600293931359214,-0.23298777022673062,0.10714929406682383,0.12277399613184434,-0.3972876600934951,0.0037255982309597406,-0.8011908842577471,-0.4824722493132885,0.24622345008595686,0.18845896243287344, ],
[ 0.8325676054811945,-0.42593248410810547,-0.883594975424136,0.4660961461571069,0.3537722940332509,0.07488934333422224,-0.16431442992562417,0.2961987641627176,0.40803849088692357,0.05572946949937144,0.14403998196453988,0.11820580792126023,0.058508774026699434,-0.0662318668069972,0.04572496726554358,0.41932862421461736,-0.46483745427409506,0.5079521495861269,-0.742207934846595,-0.6381850884348818,-0.3921522156525633,0.1415918275165398,-0.3435687007692999,-0.030359437324566238,-0.20867315869751496,0.25001716490364856,-0.08320186535609043,0.09583185817338657,0.040640377545536524,0.3797412311923739,0.44614200143247146,-1.3425622790321086,0.3677448202061805,0.445417143493083,0.2401537753847082,1.0239683405856719,-0.6703384769785327,-0.30772245342186844,-0.6227781053860882,0.15389849367738784,-0.46886929966140045,0.5989851996321677,0.13176518936602918,0.3879709909126923,-1.2055869369062167,0.11796255650797455,-0.4793339385906373,-1.0910516138888078,-0.7910037441168492,0.327390445003338,-0.00878425719241268,-0.16401334326428876,0.23296589153937555,0.690993561545045,-0.8514324605156697,0.7428781890245059,-0.18058844182604852,-0.1131310722008235,0.3881814861102354,0.1358291660054051,0.41783644278138116,-0.20982826931683424,0.17230205913906566,0.07225664413346576, ],
[ -0.4849202095551871,-0.7155767354842205,0.20705161588882395,0.0891656404135854,-0.33737329834851815,-0.005205661609872161,-0.048792012116586625,0.008934518515924809,-0.41180093050656763,-0.17761990891756846,-0.3515871265102498,0.4205591680497288,-0.5457328799582041,0.14361104344834685,0.5230819996293066,0.3283244588260615,-0.2932814771460671,-0.3984739211519429,0.386375499361895,0.24956709361671905,0.3218729985052272,-0.4687293594098852,-0.6256171975710795,-0.2537937258629955,-0.13232304961148655,0.04605149710995397,0.13155858424180453,0.5319776175809874,0.09810218000257517,-0.36322360963819,-0.061915826193985564,0.37167790082079294,0.09141883405147531,0.41287425259957966,0.4886715719728879,0.7304179814706319,0.35700302536056877,-0.7155012513590492,-0.35184036989546796,-0.4261295183838813,0.6454679588544061,-0.5814992367802209,-0.0759211453944006,0.2416472638275975,-0.2810746980504793,-0.4073323771908799,0.19591630367611193,-0.2726559160977191,0.0052636972811865735,0.2861625674655228,1.4057310873763598,-0.12666482830507697,-0.36310964857478134,0.307679877925933,0.19266058554304322,-0.33324635958602067,-0.7088484126086418,-1.5361348853495282,0.22578960837289117,0.4240477383414848,0.03543125551732488,-0.016771287378020798,-0.4599482569939124,0.5290406525642342, ],
[ 0.2424301889151568,0.6445889823180161,0.3165502641548113,-0.2543718608671104,-0.21808781878549457,-0.10194100723666634,-0.1657545910982774,-0.3722882180075745,0.04267931218642896,-0.011136551283092178,-0.5555978376115734,-0.1118997132000161,0.31870491714365123,-0.6595349778602806,-0.19460264067318644,-0.3211984814381662,0.3305734936873087,-0.34046600427130763,-0.11036528021467193,-0.05730055509123969,-0.11164361123253075,0.8255664297929709,0.22192479384645383,-0.31813430431194817,0.39477230999205615,0.22441974795550915,0.6340651124823765,-0.06498721493670717,0.89670962546516,-0.0626308295521575,-0.4489614443170096,-0.12703286624542026,-0.001475873215317873,-0.44845625872809314,0.062566570898728,-0.36038467120095297,-0.6782077746055785,0.23165911176430828,-0.5987441574291447,0.6062106422317304,0.3691245226994737,-0.33928239036767527,0.5865801844435251,0.8463187737220145,0.2916595233686344,0.045954844264670336,-0.9466340480449682,0.8601752339597543,0.47858173157560396,0.41944633179174884,0.6844894925128376,-0.21636934266395566,-0.021861277024334255,-0.2420952011828436,-0.5928066499101662,-1.0339136187702693,-0.7907304521427093,-0.008231698760322384,-0.9294283709925198,0.45409631105126624,-0.8654606081114911,-0.17124257629876388,-0.030888244074353585,0.30770183170557597, ],
[ -0.2869580672055523,0.12447324637014719,0.41737054346929814,-0.6613854515581337,-0.3667538885604406,0.14889946217486258,0.28832737000931363,0.5352535735062668,-0.38611580671451784,0.5553141714364631,0.2994750634806631,0.5117274620983594,-0.423005861650115,0.13324291383764458,0.011499788459116075,-0.11260955072366174,-0.18469085556079431,-0.9137521784100486,-0.5167167249852569,0.4032922556962708,-0.5740691664959205,-0.1921849426516091,0.2633766060257692,-0.7161942032246866,-0.9868611096493617,0.2058168282183099,-0.45210793470892807,0.7441316969602435,-0.3721189287079792,0.43227544287309516,-0.030336894044919432,-0.23799554853203697,-0.6265448101378515,0.44688887699513213,-0.31523557338659913,-0.6781796076810129,0.07406051411819933,0.08991467836136477,-0.28062761296444017,0.17038594971792376,0.2003374327215477,-0.7833482189265016,0.10796992626603012,0.6781771796589593,-0.016716123823466204,0.48268239605570135,-0.10243912595232398,-0.23255808645326942,-0.18602632379951575,-0.8884579240843853,0.2661520815365928,-0.017238544820368504,0.03220756249243754,0.36642282640269686,0.33097849614871033,0.9618573204560723,0.16191767038198365,-0.6495808104391002,0.05345831530720965,-0.5760919382508827,1.0596121530915588,0.525253484560958,0.3890934241297994,-0.2432429108854172, ],
[ 0.1586578021720001,-0.06780670589135378,-0.422237472701905,-0.19543556559331138,-1.036958500728868,0.2707343619631011,0.28080135574708587,-0.4449356248027442,-0.3468798678804155,-0.11659790641958155,0.10364939077017223,0.6224234515219663,0.12794139786878675,-0.3913751954191167,0.6525765075935314,0.1243486116336849,-0.480524975812174,-0.5306764222948973,-0.5710622919620937,-0.37501823654095867,0.22038065144575933,-0.5049891575531157,0.3462641180196867,-0.18284088095087567,0.2631442056464413,-0.10270837489441986,0.18860756404247422,0.47966840793424254,0.08348379433748403,0.00469674875207924,0.06707333298647257,0.4565617413367172,0.2730417741756227,-0.5682858094471176,-0.1969957347213105,0.4624658279957915,0.06131679675823547,-0.02511015220281123,-0.14122847325897345,0.5491097901922878,-0.26887360615387407,0.32043961214070055,0.2780144985057011,-0.3560926924145019,0.3884290036488989,0.19580224225132387,0.38288011145131584,-0.45086686019725775,-0.27921623234719894,0.28846747580268106,-0.692304968005253,-0.4046341167616486,0.3302194150998552,-0.0805289631242518,0.12808149636992114,-0.1024909011730013,0.39413812960966044,-0.2583543824352857,-0.22784454846040156,-0.04843615947050588,-0.3630698764928388,-0.4512312237723667,0.48981746311934715,-0.10840231229177946, ],
[ 0.47402852167173004,0.4058873918787822,-0.08152331639936422,-0.08831202280934723,-0.060258207927179425,0.4183102596242694,0.094589395104785,0.1483052045095637,0.3416050998108214,-0.37653415103977933,-0.44120605032033827,-0.0014448935283357806,-0.03284964403779127,0.37881018768381286,-0.10533163106789109,-0.0772044989550111,0.1276503720542588,0.25122811534453215,0.3871648910001945,-0.9205393932119718,-1.1540997441448324,-0.07425515336387913,-0.1702499231557717,-0.018571940142943336,-0.06042148027886466,0.1681327511751915,-0.043190230122993514,0.03464540195444364,-0.3450927298009566,-0.09621955289137218,0.06968316546774976,0.31556061333547697,0.016139134702512346,-0.4494045688022699,0.24820491504163678,-0.023139066706457358,-0.1881419596639468,-0.32351258058117177,0.41647104414027564,0.5119855280502081,0.09037520012917168,0.6842420297419252,0.009963112675577417,-0.10581390886308761,0.5341024742478285,0.10521907552766156,0.4526898046566797,-0.3171836830521025,-0.9607145639540603,-0.09774251801534586,-0.2762741892897728,0.4064353351526353,0.12413937158630767,0.20831381153697803,0.7094600741330868,0.24994313826503425,-0.13903089965824286,0.7857054322490141,-0.49917508837282015,0.3611946331339732,0.009347468098921435,0.1331898315321402,0.7449198792718922,0.041467213199767705, ],
[ 0.07678430840910042,0.08507103197366282,-0.7355918397825141,-0.34451692476235024,0.18243428118005556,-0.41535885426265684,-0.1552700235892598,-0.1082430379377953,-0.04391790499361724,-0.30451892616123394,-0.600080194860365,-0.08464843935524918,0.4610440539951942,0.04809383553392779,-1.2704753236278195,0.3530152037508649,-0.04970513910842804,0.9158705889516839,0.17956703764559562,-0.46507163750160585,0.20304890565613118,-0.2630131082673622,-0.2534701770373401,0.43832278446919165,0.11957000542278125,-0.17982086982991619,0.21276231246959673,-0.3021904926521707,-0.01439667079081322,-0.1257477071615933,0.5893434629801124,0.38805724455310736,-0.21761337395168062,0.30210424225093374,0.7660022575906298,-0.3478202890411048,-0.7722385290509588,-0.5548485724515915,0.5720920374142283,0.12107981385296424,0.10731577999867434,-0.06244310375456941,-0.4997552368849832,-0.18430157915695863,-0.10764755207738279,0.6924605506189164,-0.35455394542605684,-0.9794106544111706,0.3279570369045315,-0.7581876407574629,-0.6117848526717252,-1.0187936089401664,0.44740753582038706,-0.6105011716949285,0.06565686385868559,0.14823332971131317,-0.18926213542840992,-0.3318901355578492,-0.5845729432341049,0.4383476112770791,-0.36595632085653446,0.32386901262513346,-0.5553811745043813,-0.48364287252355365, ],
[ -0.0820193686837655,0.1470480712753743,-0.08167887187999912,-0.6512894139728667,0.29967466056481384,-0.24377195656452105,0.06717938852716251,0.2228061111929418,-0.09596262742860145,0.03811892601134569,-0.7914600189432198,0.4966432645747859,0.42815137471862913,-0.5650183659101352,-0.06872113103295505,-0.1028923643662555,-0.12912251535190364,-0.08891541575745844,0.07242236014396414,0.15143516086910735,-0.17696431829925868,0.3864907577643696,0.025454185300390786,-0.19665202050087977,-0.23994890579545122,-0.18488701537987576,-0.23648395918892123,0.08855006143502901,0.027910016439448425,0.7063507586078055,0.47646558580220366,-0.1356677895991626,-0.40778343489937413,0.03323445166449618,0.5586590012431245,-0.31950977969418504,0.0893082770375276,-0.16079582677433207,-0.010219534766375035,-0.11440827993581734,-0.3079993797552645,0.15679892753263577,-0.3639475220896319,0.24179606088631686,-1.093470292497224,-0.4199290301112974,-0.10680283684751904,-0.7207577232484519,0.0967923721176127,0.18883065873959154,1.3878221420647168,0.2515377179525109,-0.16544579481552427,0.710564235432677,-0.5622180432237649,0.31333396344379516,0.3077166869328639,-0.14584779212642757,-0.2255407833352004,-0.43672859447483076,-0.04296870121830905,-0.17941233361364806,0.07535614678544182,-0.543876381703721, ],
