import numpy as np

weights_dense1_w = np.array([
[ 0.22980242631657186,0.4039124450909072,0.0283,0.13975680615465103,0.1909,-0.0023655946357015786,-0.18971174926529902,0.05245578348587272,-0.0187,-0.1159616983754601,0.06942668010470494,-0.15954049376677906,0.06859170789467554,-0.05711972830123209,0.2366488840983223,-0.03491442521663663,-0.23995505516030735,-0.08214719099707654,0.0544478133602532,-0.10381832821972029,0.026611044313312418,0.2281608401032924,-0.058945485869488674,0.05690931604697203,0.12285888583105435,0.024483383375323593,0.00042077174270457223,0.3619,0.34945969517023706,0.08586570819417336,0.00990237990129627,0.09398564538623964,0.11706724570454823,0.09043935348435364,-0.03885395691480718,0.24624565526735143,0.026573628739612252,-0.2766751396431391,0.06691362479266794,-0.0731672433883479,0.03871762353828076,0.19337904503076941,-0.0255,0.030283656732593547,0.003032865219372913,0.2719035226313826,-0.050586903983909054,0.2385083698008829,0.19534458224886872,-0.23230101979200238,0.1984720895380394,-0.10940035382111386,0.18529678883352987,0.1725361550103182,-0.07654749473129702,-0.11494380276912375,-0.1666509638588385,0.04252804730443646,-0.24714644172162428,0.09554031570573014,-0.05259195116867403,0.201507450869915,0.10566528627601134,0.03906428893280581,0.28568183485364756,0.4072826788595983,-0.14099897006368226,-0.21666474516821288,0.06637430410654395,0.25496196566829776,0.0007241570101407945,0.3542,0.11133551370175061,0.2740499841789561,0.2020289560128262,-0.1307,0.10917347232791144,-0.029525306019295983,-0.18470912239133405,-0.09094228981597993,-0.1897,0.19454941015634833,0.44875617138561363,0.1754,0.2640651469358594,0.011471056207198299,0.0074,0.0823604860755471,0.3168327575772262,0.016883371240779335,-0.012602095022228628,0.2333838528214169,0.4551701905722983,0.19700936763465327,0.11811113181644055,0.06530208527516497,0.10178038323476371,0.11258829601108428,0.1059828783479643,0.002860794371656953,0.04615970460628783,0.11248915750337285,-0.05659569501165389,0.3373298483469638,-0.12681974525714995,-0.21932237300665458,0.17162605060375075,-0.044649661473692814,0.06314559791499413,-0.09176571064474343,0.1816698352510811,0.12932437285544743,-0.017629312200949102,0.21940573053055612,0.20496726718493,0.05903901420030734,0.11490467521240359,-0.0014735730554055635,0.15036929806654978,0.11279763139250285,0.15747674564158945,-0.09727496856000706,0.10881115779153662,0.07386059337739258,-0.022532181700276877,0.08985645039905432,0.14515606201681794,0.2693335361532904, ],
[ 0.5573606973123179,0.027043649902679573,-0.25816378620732233,-0.133504725838576,-0.1278904949245958,0.05386597885812509,-0.30829077891045303,0.5271796448559702,0.22967257455709142,-0.660114781606238,-0.03335482161425647,-0.3018826164676836,0.48861689475119546,-0.005446731832023005,0.4497144650486176,0.29580442389777595,-0.17198217846950176,0.25536174355392605,-0.09939453351444967,0.5389794508634449,0.03131330640703127,-0.24463519513235701,0.08590241590753535,-0.28547423891842094,0.4537751775282315,-0.1789835424608829,0.2668493308426598,0.40135005383791256,0.1301811333632926,0.09168847736756192,-0.33229760838535566,0.2756628274872094,0.09499194415087216,-0.2485732107742261,0.6064420226851589,-0.32015245062028924,-0.36737619469290733,-0.0001533697017368761,0.4659231132149484,-0.4248425848087556,0.3077429891068626,-0.30057660257884194,-0.29849174156700403,-0.47299691182911624,0.24137544459709814,-0.040573601417998394,0.07867831344679695,0.018868114432759982,-0.20294764724055625,-0.11894406948955288,0.31471534649614036,-0.4352613520094568,-0.24551672747400316,0.3137299157708906,-0.82971645286603,0.036636990349890125,-0.043389771614554165,-0.4367,0.7254,-0.006897742139228637,-0.3634648080802497,0.40964444972530084,0.86496781608749,-0.050077170295322104,0.03419602540593399,-0.28785792690869794,0.033578286836559154,0.12002046524225198,0.12194721054507392,0.202,-0.20835718667159192,0.20176853928593,0.41272146970154894,0.5083293838339333,0.8389642877284811,0.04794621810772785,-0.15851833716745992,-0.0005024564785790463,-0.09570548370164243,-0.14052277206785813,0.060438679757614244,-0.2511311999212888,0.8419995294640353,0.04575936925233024,-0.18194557929895896,-0.40982988621699445,0.3582,0.5611551756776161,0.050724146879016205,0.30184169068338246,-0.3085,0.08472890180781255,-0.8910548629119861,0.45410635769370283,-0.874,-0.0822229462048292,0.36062109461566577,0.005193798521760909,0.6977981020835448,-0.3307763144453479,-0.05177584274829873,0.18025824589960532,-0.26188243083800994,0.01628470682159955,-0.03683653486717196,0.5259473128611905,0.5478991782995628,-0.050067846126504875,-0.8012834982232288,0.4061441829992239,0.21474093268495995,0.5539495172577226,0.2883998560312431,-0.10911571711957474,-0.3012,-0.15855003009785196,-0.08821772737228384,-0.4369006698074585,0.2136,0.7398272507411969,-0.5228495169571871,-0.6402296754348283,-0.30650958098987396,0.49382320744889213,0.0642,0.4563,0.17697348200866653,-0.6369815622762074, ],
[ 0.038429699287800344,-0.010081590499174233,-0.37967364832005845,-0.14164489120510587,-0.3538893155716486,-0.2727242270094449,-0.26106667770608666,-0.05124578591608882,0.29722064648590785,-0.18526429254248766,-0.026602435244353014,0.04257997856135686,-0.33197602511885654,0.13701535127607076,-0.1413012809510698,0.14285306466405712,-0.1262750865172906,-0.2660666638747395,-0.23554024832417417,-0.007630298797294792,-0.1419488380234215,-0.11600851399604672,0.0906544558898811,-0.28061836555002634,-0.1661402120048979,-0.05081716562880471,-0.07224283111424194,-0.2968194246312295,-0.02813809704479531,-0.021586861524601104,-0.271260457312239,-0.16275993177518464,-0.0521423309832876,-0.22689804053351165,-0.2282998177731315,0.08308064192708331,-0.1281744493404956,-0.2220721653031258,-0.12848549465923673,-0.21426342648973626,-0.10918029732347469,-0.27760106429693276,-0.3965868237785932,-0.19449286897082357,-0.14001847026593264,-0.23538050009030306,-0.04361217908310171,-0.07808210236797948,0.06184249457642306,-0.05176242438508107,-0.09663150257703025,-0.3019,-0.10567843784631871,0.07989151230277709,0.047663607316283836,-0.06799518327050803,-0.17178291831232573,-0.1342660906781956,-0.011706595182153098,0.2743974147585336,0.024904946210184662,-0.050787583575434087,-0.19924475090569832,0.07862417377261997,0.11222191445582276,0.10139767260393885,-0.0055,0.08601578169746743,-0.221567191905043,-0.054517148190412805,-0.32179920511430515,-0.019514932689828852,-0.05909010656360104,0.09989058700573986,-0.0984696226280713,0.1771393543514549,-0.0022,-0.13700650801327124,0.1121,0.14299014516670516,-0.0965327709843634,-0.1417664183513664,-0.032950619229941205,-0.1718851403853113,-0.0195824514475309,0.02364062911417427,0.039745545927315294,-0.021200775332506222,-0.04220202114227577,-0.25245439736752656,-0.00037076083967548705,-0.08003941885399912,-0.1282,-0.21439133299478783,-0.21510238150397462,0.0747894176184041,-0.07471128808170094,-0.11169892171850306,-0.05554822083447688,-0.1744358346223056,-0.0064176413542160506,0.06677475188025275,-0.22392329930505303,-0.378,-0.037297816019467425,0.17992848485529608,0.12476150849659083,0.1275943366217158,0.09489490600453222,-0.2051088027424511,-0.020448787219241083,-0.05612768487937328,-0.2085675940212781,0.09440967087977344,-0.2296641231424828,-0.1257803516903545,-0.007259270592199168,-0.177155537954343,-0.04528388478997677,-0.08452711084308026,-0.15442401658384927,-0.0901148311841827,-0.1027348490092582,-0.2579130828754667,-0.09389943464390595,-0.2293213460817524,-0.10286252697327385,-0.004533544797756029, ],
[ 0.0036405754517217603,-0.5442357210543985,-0.3770055812661194,-0.7464172205951785,-0.23008966018976612,0.706821036656433,0.13366020700961428,0.6940236245349584,0.1663,0.2991747097788128,-0.020603032307253508,0.044,0.16446866148703002,-0.31161776394074137,-0.23242581756426747,-0.1312,-0.2073342773750647,0.40283833295983235,0.32445753977163044,-0.221964885348122,0.23317714862024028,-0.5742471657651663,0.227469194421865,0.3857875498915024,0.2500712145053515,0.023227681266775255,-0.7646311139886226,0.12628386486181817,0.47296602500076435,0.4491791964594995,-0.33546468167592436,0.03948330609964203,-0.5784814471966913,0.2280558650045076,0.06422481005932298,-0.3147963781594771,-0.19099703316579417,-0.24307427146745644,0.4138,-0.2585085256713437,-0.17244480099364926,-0.24175881431091542,0.03494307530707696,0.41235218899345655,-0.47853001039456916,0.34207518075212423,0.7396009188244221,0.17755924223068612,0.1051587349755125,-0.9183640471174727,-0.6358448017399694,0.2070160694769722,0.10736856643664856,-0.05442410012758232,-0.42840147766772446,-0.23781440297670256,-0.6412757313507863,0.10552307113956001,-0.20558153846083496,0.41249431239536705,0.42234681240345073,-0.5408394886504428,-0.30930530314511756,0.09045937154942608,-0.4686607333756448,0.049222704390287315,0.12627032189714715,-0.5497544213411226,-0.17574789682062467,0.12974668750525228,-0.6055608776418184,0.6783474519515422,-0.07216199263939309,0.21035213716830795,-0.42591642794106765,0.3155129073318598,0.15771834858056194,-0.08492535913997297,-0.325908639266941,0.20220044134333104,0.18014103585935873,-0.3095,-0.18560563865744723,-0.24206981946780132,-0.16906388403457998,-0.240282051189604,-0.5394202208576763,0.2902181162104094,-0.513375322111095,0.2294510934230076,-0.9626071409752226,-0.2491011585694595,0.06401975786123633,0.24563070743381601,-0.09851067616891705,-0.3811171902185413,-0.307,0.046595029975627617,-0.40926602048141364,0.0805,0.40846282156615005,0.47422675663253144,0.0036257602140338904,-0.2737694293325214,-0.279807803869721,-0.6648361049319547,0.385,0.3421827988123686,-0.8124859940262393,0.4107139759611684,0.1108,-0.2509548086589885,-0.6009741052253638,-0.15064704655458996,-0.14655325220294022,0.09746546554176078,0.32214456114157736,0.6912413444891207,-0.3809898539007651,0.3685555543165116,-0.25490299382891035,0.22132534550152216,-0.13158000443743653,-0.24673801887113753,0.0039284771829870445,-0.5421273143570868,-0.7263776335414022,0.3279342732396394, ],
[ 0.32250098719460324,0.6034688659964427,0.10376105329986908,0.9291585005118163,-0.30415760956507276,0.03305694470758453,0.02820353256117688,0.8584485991862496,0.3392641912498678,-0.4527271592715771,-0.03641966763716994,0.682316383756005,0.12198644150723899,0.5929724251352158,1.338547406810083,-0.45304737321134375,0.11867667779349932,0.3473143733179476,0.5780101411818389,-0.4038313743961267,0.6519542170557739,-0.7351359340497865,0.5104,0.0713,0.450607919906047,0.727270411881542,0.36720663789374985,0.5270623937075845,0.6071774300014154,-0.5121153007872946,-0.430607132855107,-0.48390472470046064,0.8143,0.6168790626919534,0.25821676410714606,0.09783344035336623,0.1655172389017509,-0.7822551955390921,0.3138312788061264,-0.403,-0.5644168049106841,-0.855664346193135,-0.20255892420822175,0.5575247980342837,-0.6807661943235447,-0.47315939098485393,0.1703316743063838,-1.16753156366908,-0.776831322321293,0.0068,-0.14853317242737157,-0.2422318024837282,-0.9271204269582992,-0.12072886304933636,-0.30610092016036483,0.3515847369183962,0.4368808416031672,-0.9194810260073837,0.0024998802090656818,-0.6233412982753622,-0.3886137387237555,-0.5012212515700109,-0.43846453941745483,0.21269404031323003,0.5692022560501412,0.6924395625197423,-0.03784318340010996,-0.26841436326334167,1.1168281383722163,0.2119925344466993,0.7083745424281052,-0.4041925599636959,-0.8227036097461831,-0.3191956481871805,0.8068211185409733,0.000937187485141631,0.14446969908193122,0.012642444306245885,-0.5380316314127015,-0.2796883993085452,-0.3111377832352661,0.11093476727827681,0.4512293478112701,-0.9243748700989229,0.24624071278656073,-0.1052637569388822,-0.01388899269124178,0.14857853701437534,0.4336062899628133,0.39819773830395944,-0.7029357243145415,-0.2848117063809711,-0.3901582247573411,0.2830246284694848,-0.3308116781265497,0.9328593890729687,-1.2742027156199736,-0.42631059547448363,0.24110323905084463,-0.015834847786166763,0.4226378893989641,-0.9461982258105588,-0.5209667634646465,0.028049672574542862,0.4776679972756646,-0.28229019611737804,-0.8040833219640996,-0.24009061691158265,-0.5309265244864572,-0.8865227157503808,0.45763954722432393,0.6985141837683302,-0.05349100320088273,-0.08635863367381137,0.23581317699557683,0.28140483366404934,0.2373289470800384,-0.2968291344885681,0.09444719378339513,0.6584491471041086,0.4673343377679567,0.3220920171828873,-0.10863753312868836,0.9858181256093637,0.4742250838315089,-0.1636,0.5559489293037161,-0.3823, ],
[ 0.3209963640352927,0.21395132379243684,-0.7813362449551243,0.03232292289950325,-0.579650843888262,0.028741210367219813,0.8258257483933609,0.16615217409810948,-1.1042543988309679,-0.3561633116030655,-0.4462878574198049,-0.6342380589884475,-0.8997493958774411,0.17369563469691998,-0.48302862265269403,-0.39857214936456864,-0.45872911511997794,-0.22370598216543927,-0.13887506503166003,-0.2915228242540162,-0.39077367094050885,0.13632991765615918,0.015056462979741187,-0.4951045782297668,-0.15459415837383464,-0.5171575543148504,-0.26958269356390674,-0.20522702088875402,0.14553694012912816,0.6914917136528145,0.26443278515188834,0.14906917416943605,0.12402169174698989,0.8447,0.3451058348641809,0.0880109463791991,0.1164539488075775,-0.43195906502977405,-0.1409,0.17763809007528705,-0.16800786023421777,0.045443723070600614,-0.01173750218676525,0.1496528651695572,0.3276503972135911,0.5609725537570065,0.5669527385418915,-0.2794869590437308,0.5318681204800508,-0.9588,0.4641540667298851,0.20843478841786903,0.14180142518755937,0.1506194092976333,-0.5809,0.5878927027204329,0.8089700739228365,1.134314574858257,-0.9328275334573577,0.44254054057909104,-0.45475771121745884,1.0250474404121244,0.4459922628263049,-0.9388721275678418,-1.4540107116041652,-0.5336813192686115,-0.08372035340449688,-0.0886,-0.047840092306377056,0.17784626437052214,1.0817682063827054,-1.0594685536086164,-0.8741497118051479,0.46376741390455867,0.0026,-0.6878856345366531,-0.0807292146430756,0.1703669151622424,-0.9314066251320587,-0.7599264983316482,0.7122,-0.18899171955294566,-0.12293083728817697,0.3394437815279696,0.5278490108583217,-0.5360311947243133,0.3797009977743503,0.3207767383364376,0.34761128893636956,-0.5172,0.10401864004601162,-0.058939035995608104,-0.4761696890733127,-0.13596904018301223,-0.4628,0.6341591326129955,-0.15759380264341702,0.008922762844615576,0.7029178453497693,-0.1500034176227071,0.1563255354871024,0.30269885538247615,1.292481622243091,0.4754088008320775,0.6173,0.7411446536426052,0.48778547761405505,0.305410049791049,-0.06276824431291557,0.3519715503412934,-0.9568551790749862,0.170322862471253,-0.23359086089503972,-0.468,-1.1453348336603457,0.17860372849550632,-0.4128231567890426,-0.9204887639379605,0.15679780100233248,0.2594,-0.7102700757358499,-0.8035576600176944,0.6351242624305826,0.8456839777232436,0.1671358928789066,0.33267221935661917,0.4922138746281395,0.7373, ],
[ -0.010786097708944427,-0.6772699093005339,0.7317680552944913,-0.3990689746351587,0.34038740159573994,-0.06826276103821698,-0.9859734336900435,-0.0953,-0.4566547012066402,0.6337040422151147,0.03482117075545797,-0.7851464766344858,0.3562539795295837,-0.0904,-0.21046869333599766,-0.10461821624834339,-0.3805549020976887,0.09387019239840709,0.0869,-0.24896404596613048,-0.1592,0.49312846740624444,-0.41985710272552834,0.1206630165511452,-0.7967929810042048,0.8819202659523472,1.074635526169852,0.04234293370111455,0.16073628018859762,-0.2321155093433234,-0.4948884274836043,-0.3732,0.41796141275201276,-0.30243089907103937,-0.6267,0.47403883509152833,-0.1806214736445624,0.31514394315663335,-1.1051198525654617,0.4333531250374206,0.6946977455759686,-0.21513338428750584,0.7426515683059292,-0.18817642207057358,0.7552409825064238,0.4641548424249269,0.12067632093255623,0.339022128996852,-0.3660452516669221,-0.2559222761442763,0.40522771657702633,0.029361690425580657,0.3923582076773948,-0.09328043025223491,0.29108597390597757,0.3253286467546344,-0.6562006571906581,-0.27927650582882707,0.3413857488136808,0.8636115437158458,0.025497240824948,0.6932959660761788,-0.27871375358845585,-0.6231765633889534,-0.14949742367807195,-0.7284110428022205,0.25842024611577574,0.6093209953579143,-0.8578714460663749,-0.0735,-1.5063768765706915,-0.7845427670976428,0.19531444538915582,-0.21527667146757426,0.19033046078472712,-0.8793474741793914,0.2228237964070939,-0.1618,-0.18249760805373558,0.5246,0.25231821692985595,0.3735005924716218,-0.8106004209318324,-0.09253583986926645,-1.0079419176197046,0.1409726125647447,-0.2717,-0.06175931506630728,-0.018106697951816193,-0.21876181561807603,-0.19938687059658505,0.35274608653382095,0.34263571309378155,0.36740011390247934,-0.10422020537368365,-0.6777583506961362,0.0702010199812563,0.11738920540849701,-0.0448509219447279,-0.016881247993005655,-0.03570684501064321,0.6233658317231473,0.9508240862455908,-0.11450049515567597,-0.1195,0.24250090643661174,0.42352432836233883,-0.2364624644118939,0.23900374824749948,0.286391454799057,0.33077991941428,-0.030257628102312976,0.2051073170855177,-0.4319641478241351,0.629179177089755,-0.06820680773022665,-0.040171763242253265,0.1816051859551209,0.20416758034464463,-0.3883497573256308,-0.32685102509981706,0.05598223046646989,-0.09319100796340832,-0.4914,0.12464719486502211,0.08227509748938217,0.5378752845133012,0.4319209758428214, ],
[ -0.7083523371201454,0.9460010528419894,-0.34184999303522806,-0.17013165325225377,-0.7219612043824999,0.3688748759658872,-0.8360444830358065,0.3879685507844826,1.6166,0.7891066708377533,0.17440993730705778,-0.05428808317991873,-0.03343835652402963,-0.21841299117243343,0.010339139702014551,0.047632783210010826,0.39014865781343167,-1.3369527358123872,0.09437930159788113,0.19561040423133577,-0.02275766108342874,0.06112064558917027,0.19815321099574132,0.10412400653018908,0.023792881978319486,0.9657,-0.3372968567176896,-0.20474220944532115,0.35742406972551194,-0.8128116824876503,-0.971,-0.0474116611676908,0.2427,-0.20167661712362267,0.10000827446109298,-0.8479347729396035,0.40707760117245967,0.3671,0.9930957371559567,-0.8770828327664213,0.4341,-0.2969777645228965,0.14288808064692343,-0.5735614298905722,-0.529,-0.055007292328020506,-0.5767010748870748,1.7276003274373488,0.1783016041592815,0.1761015517395242,-0.414413680481315,-0.6440361335627295,0.17720135153478447,-0.06915100912953434,-0.19650482748170797,-0.6991349959914598,-0.4411200432184118,-0.8323190657427231,1.0673800296197236,0.477304760769106,-0.25137319692158966,-1.267327373977615,-0.4351207630852444,0.6760786259998494,0.08042613926891205,-0.10139269271951498,0.09142007529760621,1.3320247870218906,-0.3563,-0.440948736289962,-1.3632258830143213,0.906,0.2462156626137522,-0.25104513540579654,0.3659588330658069,0.8102198511795775,-0.6418700455622869,1.3107246735499212,0.9623295080926986,0.6600884673408238,-1.0511859288078809,-0.23111080099156642,-0.934183318721658,0.08951700784174611,-0.747039863594186,-0.07109170132535797,-0.12298992235681556,-0.09109593699896236,0.2109667270550466,-0.025900201538445047,0.409782093922159,1.0682568220338562,0.32730269257292327,-0.15923321840799146,-0.03641694605449088,-1.3035405866774998,-0.18601248169038023,0.5126190486535993,0.11079279152453302,0.41057516535940386,0.1805698718073838,-1.2380089215914551,-1.5117692005985517,-0.09718587370848675,-0.5528209796996142,0.0744,-1.1584,0.7027817790249424,0.1247668036559963,-0.7380129877122172,0.2482541919954788,-0.366987566111982,-0.132504751258644,0.36566466126406494,-0.09191003852661155,-0.6863893646603714,0.39624397714840004,0.5675442589668228,0.4410271250499815,0.5213686304723658,0.2721055281743257,0.17558729487387728,0.25680714736765065,-0.1511,-0.15866534674632893,-0.014079762864423745,-1.035072216668425,0.32818115003418025, ],
[ 0.1835,-0.0072670973893534975,-0.2220168086962571,-0.26951131967106423,-0.45853155442914717,0.19841279655951616,0.12308340642807038,0.3226950829772291,0.26920324327265654,0.34167512229374764,0.5964787408076955,-0.24615992861871733,-0.4811837326680764,-0.029031294378323115,-0.19739784922137715,-0.360378958533191,0.41544893903271507,0.29147987074277626,0.004633726896478171,-0.06686703713256349,-0.49354578699348955,-0.009060834060944292,-0.18964960006009537,0.4694503481578349,-0.0986538568496912,-0.18053809877778543,0.01602023516264997,0.02724661648776234,-0.19044074771985917,0.1262057496027837,-0.1277314876066134,-0.39464520410080767,-0.2346940152674092,-0.24053005293192514,-0.06225448031737574,0.3501467382484363,-0.21804098060352545,-0.24809981228060868,0.4606793165349265,0.6550236082826345,0.2564,-0.037423945949442615,0.12131728646095656,0.5191862890729787,0.20329496002030828,-0.21399663269187746,-0.1256,0.0343698806663166,-0.20090731186534966,0.1071296999536079,0.2951935471385846,0.4301,0.2655584763376516,1.6123161003264403,-0.10463234851888782,0.19983623071940315,-0.5403806961678886,-0.2778304416557358,-0.3395,0.16753191404182452,0.39588471169565675,-0.06137586728460174,0.02458837942327933,-0.09407136429774215,-0.28049716904104954,0.14159486225313558,1.0510326311874838,0.013485253874861108,0.10613931328619201,-0.1927646823055294,-0.5288945785148741,0.12335995088892601,0.18000808166207033,0.23497254341448698,-0.4106342541003884,-0.05324555159400892,-0.25644850729645946,-0.2860694663283614,0.14580169286393796,-0.24097463353847481,-0.16296237053201698,0.04516750564633159,0.019626641052417737,-0.04232029825725336,-0.3657900146937018,0.19461886895232017,0.1168,0.1919881891327832,0.9759439890771041,-0.21087102751199707,-0.26620911074502895,-0.13196004209911522,-0.369339880139475,0.3294803122038605,0.16221051021018493,-0.5129277388269384,0.08954653058573372,-0.1689717373131921,0.39590383599309314,0.5283203783849257,-0.22365371652220156,0.61474782350433,-0.22770917605373042,-0.0906745682061416,0.046339306349996334,0.49096418818686743,0.08978216695115926,0.1637,0.030826185524591328,0.02685629107320847,0.126098193080043,-0.1530980176642368,-0.015230485762647404,0.00616551686112839,-0.26955295409091823,-0.11032201060745458,0.3291583276765385,0.21700866264737648,0.40212402633715205,0.5484314913140332,-0.3627239319608779,0.12271726702369774,0.019490377696258467,0.29461526899679774,0.09687825083260292,0.33858236067044495,-0.14719518207019278,0.7011931005047719, ],
[ -0.18335153448207742,-0.7355768315404196,0.09290829871643892,0.2625738039164982,-0.5215737029111803,0.04335764466470973,0.19432403692994948,-0.11015932725758444,0.4355507984850549,-0.4009,1.0563672030266562,0.7256163651546678,-0.3744381084165972,-0.917,-0.6577495303307679,0.6702172064766083,-0.09371577077376413,0.7961087694671359,-0.4776938434534506,-0.388378024804713,-0.8676653181015549,-0.08595117564912588,0.2863550438565615,0.1310508571096823,0.06284833608047463,-0.4436097900396525,-0.6265109727150012,-0.09300286144287996,-0.008660982333160866,-0.2374981352353249,0.41394838191394845,-0.052908120361072106,-0.5877104755124929,-0.04213811496259809,0.8350103041714627,-0.3534782029392732,0.2207,-0.29660522054951394,0.10755977475544147,-0.1497215823194378,0.062353328707631765,-0.534228790145332,-0.7421840530532758,-0.553,0.493,0.2627,-0.7768283766968045,0.1917513477176356,0.6151993830930245,-0.24935665029685464,0.008015325618225884,-0.3507,-0.9367170945764374,0.3133805679285303,-0.2124990853450674,-0.4789921382252393,-0.014141971792935245,-0.15017014710747306,-0.08300812142162933,-0.21946691172685517,0.5922601794742219,-0.2436,-0.4990270254959147,-0.04826880144429966,0.0549,-0.24634040762376025,0.33563161997701807,-1.3395471337540457,0.3816091898137331,0.4033146164060095,0.30580301889647626,-0.1101876545142641,0.29651912137666264,0.3094711436366622,-0.6748216125931643,-0.7025114103402423,-0.5970373291623827,-0.482580438003118,0.2624,-0.42789801164896824,0.010642041650484269,-0.14059017807566032,0.3966689475534677,0.3283165459644031,0.48265546505189516,0.02317642631021265,1.009309545474334,-0.1358250549243357,0.3943277289655112,-0.11900043659531401,-0.4288116892960169,-0.06824330610745258,-0.47175702819108245,0.2950572713392043,-0.22467034861348686,-0.0023,0.6132789365383947,0.7534529393441148,-0.23624059361346147,-0.06251006452713455,-0.050502912036203315,0.4997061248668289,-0.18704165954576318,1.4394432888396635,-0.13219474626012576,0.066,0.5449209747099547,0.32733201652751714,0.1350073348502375,0.3765309796916453,-0.5609,0.20784664316124005,0.7292457469977349,-0.31016201825525,0.10344198119052611,-0.6180540837538374,-0.4979666656215198,-0.3236911459920955,-0.11754406278581957,0.22801803060090042,-0.25933821180397393,0.2003293915459942,0.7365809713739633,0.15770243158216898,0.3795241070039496,0.08242105189966283,-0.8719912136065726,0.35339133620817553, ],
[ 0.25181689738119123,-0.4225503784761964,0.3208127971760966,0.03788228262560734,0.016814560962886055,-0.040383729018731086,0.09576911283638584,0.3504,0.17995519064770632,0.30613658625134854,-0.02041734130875308,-0.21103893839509108,-0.002085889775662101,0.2481,0.17898794552764924,0.40140033561132754,-0.24464087118169583,0.2900966035970158,0.4675798209337135,0.3807059805046137,0.04257909165704128,-0.02695968559693585,-0.29095544793364364,0.05997779966521793,-0.2845513467879559,0.09487953159857426,0.2042059283833125,0.3114514033792118,0.6367,-0.17935618288256308,-0.21899924352160235,0.07271894008312596,-0.0579,-0.05482559495516101,0.01697147701312872,-0.38982901890403376,-0.17015177789275654,-0.32123410585534484,-0.2939427541845326,0.1622658659865377,0.3192572952273319,0.2067080616570194,-0.05390920220245527,0.20196174112494222,-0.22432123141535826,0.22350434539964253,-0.1216917496903667,-0.2576113137884924,-0.2683100889744325,-0.051314107577641675,0.4567424097722762,-0.06495919291769206,0.0020634245176206546,0.09894914302723352,0.010610608424631306,0.05611143234406573,0.43476085563881695,-0.03584936402314062,-0.14121488066118768,0.6702747674122134,0.2298681132663619,-0.6432246810864862,-0.14146118894986573,-0.17609617871651853,0.4265,0.11702778821666203,0.2506588034495793,-0.022634801783202974,-0.02256118113132743,0.4048151870817282,0.19594376236112954,0.5728124740937575,0.02428186126459883,-0.2597265114109167,0.0975,-0.008691570490135232,0.3050097210359584,-0.09827992340794335,-0.1783107653354518,-0.09125490776490383,0.047,0.5247,-0.1832090645436503,-0.5159469864287503,-0.13862704603580975,0.10032559653610457,-0.05017201924065262,0.22723841285623553,0.19537061918427348,0.41549022362361404,0.1676,0.3611296391202066,0.23700826433058905,0.506386271406807,-0.2255324837744027,0.2737386804071306,0.17880732155799386,-0.25389003556069917,0.1169204045195188,0.4513697127884637,-0.16981311845049285,-0.127378243720417,-0.5770384109399926,-0.10398133830069421,-0.12193054212607399,0.04988083701088389,0.18571561520203123,0.13123907283219957,-0.192584568172158,-0.10049144487939343,0.36292229423813166,0.1577022987569799,-0.08365857284830273,-0.05438589548571317,0.35573429040579957,0.2716619593222562,0.05983897854190449,-0.3336,0.31986536693498363,0.1386960871677349,-0.38910704754983055,0.2928143218408169,0.4136,0.4398245158743539,0.05873582765474753,-0.1194149533331365,-0.05200794282399903,-0.0130482779590626, ],
[ 0.7982413026652198,-0.3855576222779414,-0.16111041409248147,-0.6697250456017778,-0.18324368107610248,0.2596,0.37731552987895123,-0.0568,-0.1341796340672816,-0.3842267908618171,-0.020864859530298433,0.2264614940525933,0.08911043206133812,-0.5217646547436445,-0.2925466280615961,0.4819,0.07609007126456718,-0.3737852243322834,0.7412620944847036,0.15934609011848644,-0.6985188125939766,-0.13025734471081424,0.17666808146469673,-0.014213406929888348,-0.8970958755875768,-0.013,-0.6212227763394204,0.22739003342493735,0.6041,-0.24441383899744998,0.8567361534737133,-0.6622613546575926,-0.0282853828570514,0.876629167070534,0.22454634147804903,-0.9229639061549952,0.25528428225086935,-0.147802134100243,-1.0024930766011226,-0.04698774445017343,0.5928113496223512,-0.4274617903224323,0.14156036260154942,0.1421,-1.7217,-0.1221,0.009928875402436284,-0.6311702051493592,0.008950907849489305,-0.5992322450997216,0.10852698893422873,0.6581696726141759,-0.9533414642601902,-0.042544320370994475,-0.7809644358599952,-0.956,0.37873312389991853,-0.13008043366377342,0.4943194976094435,0.6120405642039914,-0.634091569104589,-0.7118474629439149,-0.4622196676384919,-0.25361226017628546,0.3537036861097584,0.5911355930798724,0.17680805624746443,0.6807223034352771,0.4570313933771599,0.20160723788358306,0.5379,-0.7054289082716344,0.6745112413011586,0.2746726438813974,0.4789096994086161,-0.16517269738497456,0.3006146781640496,-0.08318421846480999,-0.004114514264851157,0.15691218614824562,-0.1515611831516576,0.1696832457340796,0.1652945238466518,-0.554620441573815,0.2259,0.8975975661458394,-0.17950501094456228,-0.2935267649909852,-0.6853512346867475,0.4214,0.3011681128671979,0.4293313273289364,0.010517791200497506,0.5451013240899582,-0.7743875764036798,0.2024154493347784,0.6709954051348044,0.2873508367728704,0.6068455109352779,0.4845,-0.36646794613152806,-0.2987636985707176,-0.5447628508987947,-0.0273,-1.0593653984024292,0.27374883724589777,0.6190222220756257,0.3263979498844558,-0.306557734840791,-0.2277620446616869,-0.5426356527552912,0.8346312075627167,0.32916162412458255,-0.06917525103732201,0.18054635850520792,-0.569555792670515,0.28120420244336053,0.4659260500903341,0.25646706571809647,-0.561,0.5538727713822416,0.6891874223668043,0.3925,-0.0820249752218288,0.47385296452575254,-0.026747515249487527,-0.15738933309828612,-0.4362588727535025, ],
[ -0.2807597719861506,-0.432106944998184,0.04555559680582155,-0.4185164095774553,0.24689888315914887,0.06018072421470686,0.19543455208603552,-0.2034868534228794,-0.039140084596361965,-0.2551490254727498,-0.007295007797035943,-0.27397570476460237,0.22879111805916819,0.1157,-0.25128479502296625,-0.6512044399459679,-0.0904068241710404,-0.04899575093349285,0.15014163204318418,0.00499150886065374,0.16328422873814075,-0.1600545481543694,0.2756714683013801,0.12236027021781354,0.11840841854021934,-0.2071349729547003,0.1902,-0.32137780228813,-0.06288742683475282,0.1661,0.15833258231821834,0.29529600416662216,-0.5833846007665393,-0.16170606790466796,-0.5771633042008961,-0.13431546991119292,0.25820264784460256,-0.4656280922204673,0.2129271913901902,-0.1258150601820395,0.42072637505336874,-0.2877412979433876,0.2706418632363134,-0.5651230251945265,0.12137558035456575,0.08235156512409923,-0.06511835180601945,-0.03965326157356283,-0.31185720324332816,-0.0002303738801878571,-0.25761017992577406,0.26243381326389315,-0.11063164500717779,-1.300170093483082,-0.658148770622002,0.378836526649028,-0.48023559393451726,-0.10278320130970002,0.2880811313920389,-0.40893151434332015,0.35819400010034663,0.6316,0.018839766233615166,-0.4509178546494767,0.1064,0.6480560515266512,-0.11044097719832648,-0.11031274911516405,0.2779420997810454,-0.20882540382663844,-0.03256001306982842,-0.21643453998365905,0.0995869551001076,-0.11387991288908132,0.5781,-0.1266175432548613,0.0355866211913498,0.14215984267314757,-0.22046566113974567,0.05678312633252381,0.4785852617901903,-0.49502657121142424,-0.20886074649253172,-0.015961849989164032,-0.2874559838213572,0.4121,-0.18668530384686063,-0.0138,-0.8101618532767139,0.5311,-0.13519566699883304,0.05438780369384183,-0.04310446580157178,0.09098033191811276,-0.2018,0.08383906931062679,-0.48769653633739785,0.6865417152550447,0.20878649511534106,-0.4403,-0.41647486801607536,0.05029271377990218,-0.16326811122048746,-0.5669736443427716,0.3277073999726183,0.11251875661810665,0.24082800658495018,-0.29931996890874996,-0.05981632576077583,-0.5786619343480733,0.13058520590717446,0.46910470415273403,0.3765653429063404,-0.7081438174666974,-0.4201315759331456,-0.60009514936171,-0.1349109292351446,-0.10954466666926553,-0.14955867573329107,0.12543552034114253,-0.2268745736499226,0.10758728601343874,0.05774920695427762,-0.1361755487813662,-0.34438467701169667,0.4562339218678871,0.3567361078036957,0.3958, ],
[ 0.5373010792271612,-1.1933058795853722,-0.20806462308787757,0.4587675243956215,-0.1614878534431003,-0.6056270163186569,0.14807924590324562,-0.027227249436309983,-0.7169568001702104,0.04921871563386658,-0.04826972074644064,0.37559330211690234,0.29835049077610026,0.773169230543404,-0.13620016750753486,-0.0756844057180923,-0.1949436554861892,-0.09842760874822214,-0.05831895906310705,-0.8790220058891832,0.12661773787743302,-0.1867743808533883,0.37019277662429545,-0.17791356034814418,0.17368766431130986,-0.638369675214146,-0.528198692758037,0.5740179444453776,-0.4874993741968797,0.31652292728692216,-0.15657990066098912,-0.0151,1.1384041147287196,-0.2768978707398375,0.16457173956944685,0.0588,0.8143816718957472,-0.3470046798837143,-0.35437801940245556,-0.20242526039135397,0.4411746396027607,-0.6706781320475089,0.21468001931800104,-0.18583352999983146,0.340261092951899,0.2101631925673994,0.6304,0.6893,-0.2645055725519396,-0.563888893203143,0.13908849420054792,0.10573663280246631,0.32514379026730716,0.5868530590884212,0.038334393065653526,0.1136720452953355,-0.28038393142109025,0.6461400187549184,-0.11010932737848039,-0.0004718337297235989,0.6021981002848431,0.3322484639084496,-0.14126296334708935,-0.799,-0.02555701695471881,-0.024590443590733178,-0.10539397716305804,0.061799915713774634,0.48070743434729346,-0.5804941843257269,-0.00946948680073888,-0.33841548760304063,-0.4093938446969195,-1.0012332436012108,-0.12559184062419335,0.3888021318989159,0.4649705189781032,-0.2963,-0.33380791701269147,0.28414020806851403,0.7091126880110344,0.34026019888468856,-1.0346146235564315,0.2239568612133881,-0.5914,-0.6303027465767033,0.5133264571823417,-0.438,0.5473844027569963,-0.40466397650688846,-0.1633074965227067,-0.5197246855964288,0.3260318222778575,0.22280617214299608,-0.4920987937723601,0.47039231772358925,-0.7069681504608953,0.4933,0.39305916659728035,-0.093333131770566,0.5539822076751608,0.2936200402077521,-0.2898,0.4876852476771093,0.8381865137311938,0.3675077452498043,-0.28846215786472224,-0.3018680162228161,-0.6614789386003914,-0.1137,0.5423131203247813,-0.09665114695175595,0.13220159696719405,-0.2030179991945173,0.19579119545631846,-0.02067042432642184,0.16573682896651443,0.06785011356471328,0.388463218798821,-0.6582,0.018738641973523464,-0.4478713761998006,0.18972254747149783,0.08733666361429349,0.1226395096077691,0.37500305921335186,0.10983699227869775,-0.030522057777449693, ],
[ 0.052066895540115884,-0.14603801866285013,-0.27684148599253633,-0.02572100783423522,-0.3753596591231487,-0.13390897727328652,0.3338048235836831,-0.5119241166698473,-0.3664213059199185,-0.04416224102601232,-0.5449890690477289,0.2433303894721697,-0.177798681206526,0.07859529105650188,-0.34756527959832567,-0.009522881789397052,0.29319355711979295,0.0015354954081753143,0.318382315555167,-0.0606,0.044157538944579425,-0.10585814198314047,0.07899024945782192,0.32840215098869935,0.07390402842151385,-0.8162900544247542,-0.0386,-0.5269002144187812,-0.2552896077735099,-0.25100341672938464,0.3033209754444104,-0.3543421166750641,-0.17351130050762575,-0.023024442156677594,0.10234039243840115,-0.48677250324480514,-0.023295375685753173,-0.09999081207990898,0.0791883752532487,0.11734948646796269,-0.015705410303647985,0.3287,0.33526750442985304,-0.1939462906831126,0.1961985833768989,-0.7365919876348368,0.2563187643374613,-0.13168531186098437,0.14675870578652248,-0.10052062672179651,-0.310758738186576,0.32109600380039155,-0.323,0.33044466697966945,-0.006781161257196275,0.2305,-0.09512381189221547,0.1827666318799175,-0.10646043984183438,0.2570340977538618,0.23338379098763268,0.11867248238435911,0.20919862282608553,-0.11027529133375825,0.5844222706761854,-0.6567253958297622,-0.32132315485986807,-0.12579428158980832,0.1893,0.2849031620361141,0.18973981338308363,-0.2491266129360421,-0.12968405743233097,0.1220931305423066,-0.09685190958435887,0.2772994681536997,0.28832865235261684,-0.7058882992215243,0.1295,0.20128566358697944,0.4158766907521991,-0.4296020570890152,-0.3078539872255083,-0.3761101142055283,-0.24721044272664974,-0.11023071900474007,-0.177122984194931,-0.05626711855011748,0.2541656105127089,0.10474739293200987,0.21900105814110882,-0.41907056296068046,-0.5566324946595088,-0.4443430167793837,-0.08115186197497251,-0.04579418309131662,0.3983168099196582,-0.20843115852052313,-0.3501455266903229,-0.016431063384303623,-0.4488138210248152,-0.09469568691559298,-0.3903880444302605,-0.17034231736758917,0.015948750144743354,-0.3066707119521174,0.37656601553583063,-0.22296230853362414,-0.8352,-0.45442202064308224,-0.0811482398678101,0.0434,-0.25485971688605163,0.27228754146254486,0.18093434582875537,0.27158211062013854,-0.1934564655727267,-0.16213673169042878,-0.6563332951012572,0.3165,0.06599840304687354,0.16082873807669412,-0.28927405541242235,-0.3192723245112793,-0.017453859918149104,-0.36809023675556274,-0.3398514401304298,0.05091827289104146, ],
[ 0.0729723811617624,-0.0806417777357832,-0.4798149754454939,-0.2934944944462615,-0.7327364744262823,0.0516,0.30756886690149476,-0.36003517742064695,-0.42768525581171246,-0.24638735695369146,0.08045619213507202,-0.9581251182960184,0.18649954463404952,0.50909958471308,-0.15270721697779097,0.5454,0.46338222248880345,-0.38478951480161555,0.4050241642684991,0.3019760200675722,-0.03080716591397039,-0.5950700226881752,0.084,0.3742938361330704,0.44914851011837814,-0.9608181013366003,0.32488727160306186,-0.5516175137555029,0.4738618836839742,-0.6377220942319852,-1.0609,-0.9240937784204614,0.25728939925824446,-0.5532837400004729,0.09194630281299938,-0.46170069326797153,-0.17086593485781482,-0.4690257588967765,-0.11999564954279947,-0.16159623281588267,-0.3874,1.0160985833950877,0.49480949516515726,-0.9527745413259614,0.7683949972284703,0.045084351461436814,-0.7321825114885961,0.15322284393617347,0.3791142101805245,0.4539646444851527,-0.3686404029931648,-0.24989782588967185,-0.3732737539794605,0.005379310304943964,-0.6930695512546741,1.2396632599929132,-0.47955344316305154,0.35324228233228616,0.0772077481918562,-0.5592628423359457,0.1204,0.6231859709122645,-0.03591866054629991,-0.24451363140209742,1.4104814913179053,-0.8536213664110532,0.09563554644332393,-0.8538067470529467,-0.31017537995111705,0.30024650016405785,-0.16665147975138883,-0.2413,1.1335093585098515,0.1730846807343211,0.29828581748482,-0.1413784490580318,1.5911330601476792,0.3367513243218495,0.9167,0.05115561992245707,0.8664,-0.4148559052886866,-0.24768586175658164,0.12943103973014128,-0.12523069730338252,0.7355321361569427,-0.44405763592735237,0.06401521500195999,0.4737081904138157,0.7833814692929884,-0.7486945568079129,0.15244609095971812,-0.827230488428266,-0.7159247380404261,-0.14902146329691018,0.5127322291674721,0.6405106473276874,-0.29769642316064737,0.027715406716512625,-0.07884062574556021,-0.09727205171792265,0.6594600744585273,0.36007620543873264,0.39640095767297134,-0.9103177519268127,-0.3156320480564453,0.5395,0.40022342232805524,-0.4214858474633409,-0.23679690866314762,0.16979435457389833,0.8959126186902898,0.12656983249676107,0.36740323047292134,0.3919066551892162,0.9061105743198449,-0.27225224459708913,-0.33156809853918534,-0.42117712875142765,0.5864288592889986,-0.20556670030817847,0.9414,0.4786562990083533,-0.07233687794412584,0.5381664710836794,-0.2739,-0.5583268697787287,0.2398, ],
[ -0.41553941390402305,-0.107,-0.21363822951672018,-0.03201414367458788,-0.27925971888224305,0.3423731664776131,-0.21799744752425007,-0.31802484488782146,0.07190433146656112,-0.038300073087145683,-0.1304210576067483,0.32394179037041604,0.10805695572309953,0.9452983341110593,0.48134117091249784,-0.3879698577825117,-0.26180714448812886,-0.6615982384106394,-0.18237078426552827,-0.22800428391084082,0.08633315919359592,0.1910587410197932,0.08967237595614592,-0.04561406142947076,0.027753252499358637,0.12173289411732037,-0.3211966799072815,0.05886579434302184,0.11398880524667838,0.02546484645339994,-0.3785249744166794,0.4086169342466122,-0.09299752394328402,-0.012049511815168695,0.3285593571037411,0.1033,-0.09614660531597935,-0.13968428756649243,0.38287600128423827,0.16022005853623467,0.11446756432230895,0.2674925491575019,-0.48751953311165097,0.1829152221725035,0.34313867972139916,0.0462092474378276,0.30357055492999907,-0.11215909018285988,0.42784469550548965,-0.3230106915778549,0.3972757842498195,-0.11305829651477187,-0.34022765496030544,-0.08726739638621618,-0.43831708837240924,0.3532422960710295,-0.22650998381175708,-0.5315702217198786,0.3028926775949944,-0.24540876688442156,0.3446614916818549,-0.19675267646385994,-0.09811706384282903,0.3482671999235577,0.05096499444990291,0.26337792732192145,-0.0746867373282149,-0.4333567974737196,-0.19242074535580697,0.5079258926788164,-0.4308914761289687,-0.29915474451899843,-0.08063013599750724,0.3025050669204477,1.0321848420880402,0.14784377241602023,-0.10669026320878339,-0.11879265682616766,0.1649902165302798,0.0354,-0.04282787400590338,-0.07651208028125217,-0.39860502739714204,-0.3977079374776244,-0.3708087352419217,0.02577251655796619,-0.18273879212967178,0.29994614900169375,0.825949434276912,0.2758212565792339,-0.3853260150445259,0.5537199197780908,-0.27289855703643534,0.22790441611084636,0.9919,-0.3698799409172595,-0.4145630462041506,0.6061062065414184,0.5113581709193056,0.011603328256505539,0.012,-0.07560541517660989,0.05955652560695551,-0.32890077755812047,-0.3617,0.22783857892593778,-0.16709255274513496,0.3771,0.2816,-0.4048589069167213,0.32583488906641156,0.06465589658971861,0.5898484746768882,0.3363452564448377,-0.0946131576508404,-0.10351389979087239,0.11260309981845858,-0.0507,0.2417343278151959,0.30382041178389413,-0.11911008913340353,0.6141376125306528,0.41439202771592343,-0.2726333093876076,0.874204589509016,-0.2565,0.6639,-0.03984376610346278, ],
[ 0.5473181490122702,-0.045050977488532956,-0.19905479032641893,-0.050721857567722003,-0.5047916391877965,-0.43604668618451325,-0.33713480429430664,-0.7270308753850957,-0.41799289572799136,0.027201058838742426,-0.27801768240529645,0.19870388890334653,0.5833235092330945,0.062009781910055496,0.020472313170033958,-0.2926260850870254,0.2834543010760882,-0.6798756405796577,0.8050302591138508,-0.5769670385629521,0.138,-0.03455450451773263,0.34441335516245986,-0.7203409962767896,-0.8615854974899138,0.8304213892219854,-0.18516019971750253,0.134324573498231,-0.1342432962538706,-0.34199068608031563,-0.42984923234274347,-0.2443209396568136,0.07761283134459483,0.0797381926055406,0.35439094070888644,-0.006449448944968329,-0.010597717536961104,0.01665864995630677,0.012839836528175745,0.752755231141699,0.3637599802825368,-0.4216685696873814,-0.2170939973326949,-0.27918658710282507,0.20689631177963785,-0.34140280205012474,-0.40109170269293104,0.046159061702550984,-0.07762261180225359,0.4454689669528426,0.17707376200138808,-0.16590546787453608,0.3037377531607681,0.7258199082861153,-0.20859610248088628,0.02044338585043682,-0.25641278364206277,0.030252127386437642,-0.2149431125933413,-0.1030015744210576,0.11025694234320654,-0.036069205588866025,-0.0006549530737165889,0.9562000649610967,0.09575052611772755,-0.3319342568887521,-0.6233982244938875,0.7055983294684152,-0.1870694782876669,0.5012579065325793,0.10600801072708632,-0.3940763919477009,-0.23277325505901236,-0.031204705736601918,-0.5382306194725267,0.3648830168643378,-0.4981954173551335,-0.366,0.8301,-0.14646515815205607,0.0681313661198907,-0.7113065174966632,-0.12618316855917402,-0.49353733195550487,-0.4041,0.1156312698714474,-0.371616494392493,-0.2869434785599011,0.40261879041469606,-0.04215088872983585,0.2358775204057878,0.5427679309577831,-0.3495741942819189,0.09426437981051924,0.3205977648595198,-0.35783354564842923,0.24843227897589173,0.5255,0.6447365734529733,-0.46163951547970306,-0.21432061135254674,-0.39813746111874265,-0.3460818910522203,0.0561,0.16599668827142722,0.7101943732051037,-0.32645914105727525,-0.191840775555149,-0.10060942188465152,-0.3315743252894778,0.16024582066618717,-0.10948576616186094,0.42515458202450784,0.3188633824177572,0.5735,-0.1211048899712017,-0.16795341667603908,0.8359389830555759,1.0154809008935688,0.9040338190108966,-0.1030955384193053,-0.33158312795756634,0.870964731174313,-0.054266079431220436,0.25379826425707075,0.4479601831878191,0.4669,-0.5184463039140949, ],
[ -0.5467844486070951,-0.32387242006603656,0.29229855363645374,-0.9566459765470602,0.27806373797656303,-0.08286430608492953,0.36199292821469486,0.09663168259923637,-0.31519420738951653,0.059278581344474106,-0.13012980804054622,-0.5277697706607718,0.14058365689816416,-0.0088,-0.4981918113114881,-0.03631635733152399,-0.3133817131067414,0.25136290066993466,0.10865688802128114,0.3531000189314855,-0.02141860416417919,-0.30004141691326264,-0.06833098560012979,-0.23097412051195268,0.15695567103604924,-0.2292301832734992,0.1688,0.2168,0.2666357247938458,0.3446675152966552,0.3181972512381695,-0.3719202656971232,0.0051029575367231425,0.22895804230867378,-0.22611359153994018,0.19110466616742486,-0.003304179369142495,0.3609160296180365,-0.13427404370990226,0.2893831540272041,-0.22154214567169228,0.0081,-0.16106886936359346,0.006747050429473583,-0.3790124703735052,0.1563657914651093,0.042861738852739105,-0.5441895263025806,-0.02225013271919226,-0.06147410466732058,0.047384032556386235,-0.09955611232678924,-0.07977277545350688,-0.18329415175677646,0.3537028712962603,0.06325767397744962,-0.23726615125110798,0.053657430589583464,-0.9307348155697479,-0.01916061229523115,-0.12471241460411313,-0.1496186971874487,-0.07377970347714477,0.41379105017109363,-0.10988588258063504,0.29162243231256596,0.13486480905555218,-0.3663656964854228,-0.34254226724119236,0.36634974633535416,0.233309025302578,-0.21711731202274792,-0.5091521914536029,-0.06981695667535023,0.3114172995290616,-0.1267435750686016,-0.04037093930983091,-0.187208223170456,-0.6347096495570734,0.036206083683822304,-0.006470088318120288,-0.18367378891346678,-0.40194462610338283,-0.16185024701661377,-0.4672,0.1475,-0.29593222293984106,0.255501335787505,0.02797997916432083,0.2850594742535902,-0.45322160514773596,-0.21954701978788682,-0.5571,0.2973017495895564,-0.10255518514158883,-0.2648,-0.049,0.06608991260608438,0.18116764443877817,-0.4074196154673371,0.10835322695649738,0.33914128238986924,0.20199013934930213,-0.4781122760305032,0.07877250425269394,-0.2727466552827154,-0.20956131176007425,-0.07114177952243177,-0.05141714709376476,0.4092641716588367,-0.27626394928285614,-0.00563826479065436,0.18670033940307434,-0.3256678443468045,0.2338076792207071,-0.12500352873967058,-0.5274292690777375,-0.29150175914078175,-0.44931515265766514,-0.013171436729182591,-0.5807,-0.19708363571834342,-0.25739324150569914,-0.5958788851198888,0.06538185394381758,-0.17537607473758382,-0.186,-0.331361652329958, ],
[ 0.6607382121063873,-0.6026,-0.318041800727913,0.33738343818928673,0.3577969413439816,0.7989918756208487,1.5140051517849586,0.19918872042016772,-0.7264552309959793,0.5765342945621532,0.05806001535525052,-0.11346829809886852,0.23257404766401316,-0.04459413564682405,0.13216804936411647,-0.017490254605224718,-0.9810564018614887,-0.5079013396648336,0.410252143554161,-0.07019328689253117,0.5182164802002426,-0.10380305380939644,0.6281,0.717118070743594,0.24404853463345577,-0.4850122775890913,-0.5119,0.3384189138416657,-0.1509,1.699569900246001,0.8932439966344266,0.1157,0.622124025159214,0.7094578356742792,-0.7927804517708839,0.5445589942592599,0.5525568119242276,1.0245835374552608,-0.1253,-1.045918028268858,-0.05482027667610945,0.2991883342281618,0.5830386298428621,-0.15389986663796712,-0.5312762523600736,-0.06381378588394103,-0.524495226251105,0.3392613770229542,-0.0955,-0.4790582952593404,-0.3806357224668623,-0.3708,-0.0282,-0.10381856213325993,0.2552338859395317,-0.553939223865472,0.7613082827725582,0.4724,-0.3025425616073475,-0.2629907653636946,0.21313274411365377,0.2903748533040571,0.26690716908736745,1.2320324347789584,-0.3767357842458721,0.048199901865529256,-0.1326,-0.3912287842517477,0.20869847810419365,0.9814900189581812,0.668308947744285,-0.10960277887405355,-0.0826,0.5737,0.14526023006280098,0.05299912886933966,-0.3023935680603954,0.7869,-0.9417,0.6628913809100472,0.20973096316122847,-0.07100677470819786,-0.17882100720895655,0.6496814051019489,-0.386547730737468,-0.13949104184061936,-0.03861467658163508,0.3451247363748879,0.15871758697292654,-0.4045945968994808,-0.38411131957538364,0.47775405758040607,0.3681728097393288,-0.09607680685249417,-1.0781164050232428,0.5781409758143966,1.128511151269525,-0.8836247239023405,0.17922098653360685,0.2738553206001795,-0.6425700349006215,0.12075758117366305,0.5865555764020729,-0.7616991893498707,0.5747026979265957,0.4257638359096469,-0.407301835912464,0.1467576431404759,-0.0138,0.5933541665060308,-0.11465146944062024,-0.16240829865750858,0.619829200637492,-0.24605219576652188,0.10609605570281969,1.3452272196973065,0.21295010012424198,0.11273465746390159,0.7887,0.4892639641327327,-0.5239265829340923,0.7355024691153041,-0.21520566538404687,-0.8195676500904323,0.7584,-0.14785234270639872,0.0981,-0.8640207547776491, ],
[ 0.1087824242829054,-0.16398483890253976,0.7668081413940541,-0.3294288346530207,0.5305599253437983,-0.7860597339079269,-0.0055588290875021595,0.16244057496598832,0.3278689477018954,-0.5519333394740287,-0.1767,0.4710622258660307,0.25655421389161237,-0.7768609599222775,-0.7158130682219679,0.15222973617749028,0.0075,-0.006191103176037504,-0.15004675738626808,-0.1662,-0.3307330811591341,-0.3853936617961206,-0.7326399024407625,-0.3537,0.7828164262056116,-0.3394,0.1755,0.3464949178093541,0.3325,0.14482537739995965,-0.7677796138475128,-0.26635885488546357,-0.6079252176428086,0.18136678665719666,-0.49024810154784015,-0.2424150078916328,-0.5551579476331968,0.7532296460116222,-0.04706244226232366,-0.18702251668533254,-0.004360454894435086,0.7136,0.17529210963682829,-0.4253409156284627,-0.0048,0.01385251871293779,0.1847414209776118,0.7146059531305893,0.562301213720946,0.03356865948225116,0.33164684501256,-0.41813005813501747,0.3838356759838413,0.9862127430289123,-0.1768,0.2051176798119942,-0.00281910043539978,0.11972311398148391,0.24291574421333195,0.01668571015949477,-0.8442809437388837,0.32074430126257186,0.06123720256383527,0.003370338538886226,0.49194508693956035,-0.012097339244457956,0.19654918409224845,-0.02231235659354064,-0.5591607283058213,-0.20034974695126367,0.009741103586799263,0.06547489712746281,-0.09376944695662337,0.11591492333748017,-0.057715191322678674,-0.37269176759473693,-0.266438102604629,-0.29706344058817297,0.08871551082967646,0.22177477848279728,-0.017222201047102245,0.13926604452255725,0.3622167304323771,-0.05675644559140361,-0.3607678862130513,-0.189385564210613,-0.26860886792736627,0.2338538893197055,0.8038,0.03715550882915869,-0.04420508374538411,-0.38938997424246335,-0.6950214424022496,-0.14352552376937477,0.28944353558342606,-0.11261791053292283,0.0006485522719937662,-0.07037723388894367,-0.42300579618192713,0.05177141489300358,-0.2148,-0.2116104041925813,0.3620263357655487,-0.29721177571107965,0.301203143100209,-0.12502338807939664,0.17639064358694345,0.1462905907622218,0.09018254263990487,0.39688556256869706,0.892465991172084,-0.6121402518575201,0.17566620177988634,-0.36253822234815525,0.1325123549610804,0.5586156544178762,-0.3672505432264897,-0.6296313022715441,-0.3053722078076202,0.1327351692564714,-0.5493118838664998,-0.07932949209819115,-0.2722,-0.0063,0.00603682894597214,-0.4919393861841092,0.1327,-0.0025316055833655734, ],
[ -0.6095,0.9240987493448978,0.18963615125856778,-0.02980710180588577,0.4833874966002098,0.2559,-0.016277070733520537,-0.4125085738080396,0.5530093990930579,0.572612885132109,-0.48742002226649117,-0.21072203261644482,0.20188826374723867,-1.1134796416308066,0.23252696811061602,-0.2596588769903775,0.023340699987042985,-0.5896677944581249,-0.14172108775376333,0.5734956012878654,-0.0694629144595781,-0.2367794977200364,-0.329121212120688,-0.0953,0.6837455633829008,0.19184128762724542,-0.23555992439968604,0.5630019589401172,0.33661351158105257,0.014888970789050845,0.3299161386869764,0.14941293502616945,0.025557805341849947,-0.9133520010440338,0.5593005053868562,-0.28878200135924414,0.17629991185971752,0.8716,0.04645848310423398,-0.545088480136722,1.0168,-0.3850840323227981,-0.29714129590230504,-0.9426397588550247,-0.5073135990373112,-0.5320024487731704,-0.4191380687450464,0.5751787202392505,0.6904746398726554,-0.3284489076712078,0.7992683588358683,-0.4383719243768347,-0.1908823583970669,0.6468947448713707,-0.08951414591510351,-0.30705220086667373,-0.16853868007750136,0.3364,-0.45951821965361406,-0.28477202383386724,-0.3931238945405101,0.17718546609900354,0.6467459509600396,-0.21819742261072067,0.4288942744863358,-0.04564150094451107,-0.4580779650684036,0.12052519820888342,-0.23362254345886047,-0.01833751179560196,0.49336767399489156,-0.3548919649192504,-0.38948500809067443,-0.4456646338410893,0.18129994502287272,0.34451710067115393,0.346573428243338,0.5863309579544267,0.6266335667914653,0.43440164305608586,0.40589984633302706,-0.6735545649033803,0.5291852597849342,0.1538339666180037,0.432497699538114,0.2856313573361592,-0.0034184468653140373,-0.5200376474511754,0.34509585611192395,0.13172333386611584,0.31702344958225337,0.051949711219408404,-0.43879398943417375,-0.8670932806859892,-0.6641626945088271,0.29562683751901936,-0.1346,0.16136333235333722,0.715632561918695,-0.33793344541206805,0.9628606976510818,-0.5594070455850224,-0.7573544071824176,-0.163099075280971,0.4269,-0.1287517720708824,-1.0201632202257205,0.08159714637659321,-0.08644290771922687,0.1790468013649495,0.238,-0.1408891111993509,0.9787410247930063,0.06733192047139985,0.28514537302399245,0.6877963160847951,-0.3524482275463207,-0.20412700279016574,0.08304611277818948,0.23261492598213923,-0.4745367474635189,-0.48859816973149933,0.011048336168124713,0.35166406577400317,-0.37279466850058424,0.35913805956643874,-0.42066468580126964,-0.13518797584797007, ],
[ 0.5418413645442105,-0.014443824457923684,-0.2115322128865832,0.5867776696173641,-0.32643211390263344,0.01540604832177845,0.5554013765839662,-0.1848,0.23024138092310992,0.2930437304528447,-0.15801423088582975,0.2857138869630399,-0.16124471574394994,-0.38586036072623003,0.32215561219987376,-0.14781277796780953,0.0640410086656725,-0.159414128818467,0.036775951930766125,-0.1900636646079192,-0.04426540627637305,-0.4820297565857624,0.17503733592204104,-0.15147769532973002,0.1956,-0.0165,-0.41867164071966856,-0.20643062393146216,-0.07179182342685565,0.020379149205958763,0.47792179386275296,-0.19961675450100175,-0.03383771832078431,0.0312912768259741,-0.3265,0.6797507757799416,-0.07169504042438568,0.21853445411736327,0.2016347527786325,0.029328883228326618,0.03167065217541224,0.33927191704615633,-0.1734064838059162,-0.052741327317850646,0.2329,0.0643166186746013,0.09227686401694946,-0.18015726879977925,0.8843664310668148,0.03495654162989209,-0.16845718491582296,0.2184132414148201,-0.21907603532680747,-0.15557961935950518,0.10738112571428278,-0.2006222204922161,-0.2563,0.17311308420059027,-0.23866118457365046,0.026645896140404177,-0.027088651924026617,0.442638098012821,0.3509403725962291,0.4441763298145347,-0.1668944980193942,0.6782793248628833,0.08792210683888876,0.5801,-0.4305490415111021,-0.1322109113366198,-0.1824787011639778,0.31126023913047857,-0.2919,0.2093498410033765,0.0762890564466624,0.15064048551520015,0.1416105529630891,-0.41044701003133177,-0.029126602984050884,0.176759928536991,0.006689042298815123,-0.08308991866619622,0.36613753546302724,0.0813,-0.049931451685899984,-0.2699244334839884,0.2672015820169183,0.4085,-0.2969314909925345,0.0339,0.5403020962703807,0.23999018972244548,-0.06059589029228725,-0.008732445927664922,-0.14623006617486656,-0.4647426117384329,0.2211009541916186,-0.06340390386241836,0.25268277252590726,0.4967728810612062,0.0082,0.4657697746987797,0.04337477521783914,0.4869356905339491,-0.03250898564030273,0.26560094758240127,0.2656157762973183,-0.44058164990085874,-0.5404512345965679,-0.3133137651534889,0.012326688700316715,-0.3973349696744261,-0.23717274637744723,-0.2752731554590779,-0.0475718191270067,-0.11637812226362754,-0.17376731585889293,0.33797581868881876,-0.15090618631982808,0.1623087951877602,-0.04782880993871299,-0.09080976832067801,0.053803096507879324,-0.0553551066381402,-0.0075,0.4690086396635345,-0.29163953576676455,-0.18773661571425046, ],
[ -0.36263095925824007,0.3556369757103428,-0.2541842323569975,-0.18303674625759478,-0.01913488263125779,0.04389563303473332,0.010927559887626587,0.035875843849599846,-0.2539,-0.058557449191875145,0.8228453650134093,0.41473286768682865,-0.07541063197643431,0.19006248926111574,-0.7935440171813049,-0.2454887588204862,0.42094791540559257,-0.22011079743407816,-0.3931834736341809,-0.5113,-0.499261956514322,-1.1020653952790693,0.26693021781854903,-0.2089897901423065,0.2993492727958176,-0.2594618031646061,0.11927527641063113,-0.0624,0.1684536560294134,-0.08236579308116461,0.1167,-0.5609945301124438,-0.956567018036853,-0.4162663163368876,-0.9697330158123589,0.2180019459307401,-1.059448400228733,-0.1778,0.47145204252995376,0.3236192314359699,-0.011199636157477558,-0.3518845976585767,-0.6585408205871995,0.10281703987774571,0.5711,0.25345669332181925,0.5424244374004318,0.031198658314779873,0.25004548566759593,-1.2632681438694555,-0.35419397488082605,0.6432508556459228,-1.0490956350898766,0.27277376735999437,-0.14987877794649468,0.0794452816920832,-0.6869362349830926,-0.541,-0.6398552101093291,-0.36093468156313446,-0.077968143165892,0.2249754718010385,-0.047,0.47233446913369564,-0.2685748379297915,0.015688922655986946,-0.5304316186610604,0.606861072728985,-0.514552966860146,-0.9577236655493567,-0.4131190313520073,0.5775115325318729,0.590202886058319,-0.4506,-0.7083398454103432,0.7826626557644486,-0.6455806400632715,-0.1772800093328068,0.3506850841012949,0.6270857403252919,-0.2888037617550926,0.02079068422439466,-0.14491668919376396,0.1607676941648263,-0.933364740207647,0.7336291189265417,0.3781736634692863,-0.1090237544407589,-0.700532249239862,0.533429195196167,0.43527091597368456,0.0125,0.38464338643719187,0.26569907839388973,-0.38417339880073403,-0.1399159482039292,0.5058497655880851,0.32748268408375897,0.5126,0.10452162007725752,0.3636696683627703,0.725036132153726,0.5806178907153559,-0.11,-0.40668064608339777,0.4904125331040875,-0.10196114091021331,0.6809363643238688,0.8124384018557829,0.6312185324292934,-0.36037139259900147,-0.678881555471309,0.31662105898500564,0.609519141620537,1.0832061545100466,-0.6646498946185474,-0.9873,-0.20605532942911878,-0.16990253783100753,0.4290591873382844,-1.3738,-0.12118565217773858,0.6346759239217938,-0.5713431772954836,-0.2737362542003535,0.8249053700846141,-0.041471874249336654,-0.1426570713472388, ],
[ -0.48129992142036493,-0.5283003603525397,-0.09655231180021381,0.3018131839521067,0.13071006015964542,0.08359151911854693,-0.1193,0.10837309683774189,0.09938872311077154,0.050483498144943004,-0.004967737762771261,-0.40582278461306287,-0.1778340571762817,0.1348,0.04190741658016484,-0.1212999677069278,0.08776738749615885,0.013171381354379768,-0.1430639653800979,-0.1415,-0.22034775129628373,0.37612528261603206,0.03606069248662161,-0.4949990192726049,-0.24588060687111085,0.04409924225177857,-0.5660779845082631,-0.46878327646739276,-0.07579685843028902,-0.11758638657434134,-0.0838467034888749,-0.08017857920765126,-0.1289692549569774,-0.024953856214702023,0.17991675478023922,-0.3674715908873875,-0.2627791182453149,0.050881192313852845,0.40849553288903145,-0.2921070959953939,-0.32277549390994503,0.03288248667584878,0.02080679379766878,-0.1194191177315574,0.046436487167205456,-0.29228157035218394,-0.12507545863790298,0.07644191201030398,-0.45354943873256753,-0.5585718007529512,-0.4343,0.39892406271992487,-0.21665046829032977,-0.44083786481897874,-0.23276669996587213,-0.11704025093899541,0.13470628002782523,-0.24442908644892553,-0.19698481701536902,0.15383211980910233,-0.1409650053240156,-0.13598591334746965,0.28149997862487547,-0.1859575286120222,-0.089104438366043,-0.05502934703406612,0.11980874571372982,0.03853334499937595,0.20531535879679128,-0.3230604400861028,0.2544665837614332,-0.13601195687862971,-0.1778,0.4342705422445398,0.1837662587594919,-0.2727955442511206,0.2086896365465849,-0.31858439920545006,0.3370716066596601,-0.12020697960702573,-0.09681665731703656,-0.489023796550478,-0.2824780362445651,-0.24917095092918784,-0.2905848264153379,-0.02452579867409236,0.0925,-0.15883680766709027,-0.0180397480898242,-0.08135982366128817,0.058620934745144467,0.3177660950950361,-0.1929,0.01086066109958233,-0.4739390928566362,0.1365259658631849,0.1543555908027521,-0.484,-0.03617945687744241,0.0952778166304819,-0.3675210890105003,-0.23193579384562957,0.12659298514604625,0.23860463372534718,0.08421274383498632,-0.2977008700679714,0.026796169219436707,0.1925,0.08133915765443091,0.07202684684698113,-0.3155,-0.32798273167881964,0.12248286240540812,0.12222420651415696,0.06755438535667686,-0.0895508646790393,0.06137743182081722,-0.2273,-0.2835506509123273,0.31991115595924713,-0.11481602530699365,0.26810407316128027,0.04577693570518734,-0.01662475279430399,-0.20565136043017557,0.21855405177612158,-0.02333035437213111,-0.5906, ],
[ 0.0933598132267429,0.04397653724748697,-0.026321864324298543,-0.19390172898673486,-0.09841361002197456,-0.10590650022331718,-0.04779192754813428,0.13369445395998514,0.11837213930765025,0.1116832862403855,-0.1307739379847481,0.1133,0.0701,-0.36738195476714985,0.2556351168259034,-0.5830203960082522,0.0009898719263312296,-0.0899167188904366,0.1653750644295675,0.0377,-0.009386951938506763,0.004632103535741707,0.10420202294619511,-0.4342045882429738,-0.11627908532644742,-0.12187890638192453,-0.047686498871664755,0.12965897974596569,-0.3811,0.1493221866176782,-0.0808,0.04330655394311848,-0.059115139093001895,-0.11964791130838415,0.08395786549526096,0.3545256990474928,-0.01801142250833291,0.09188294949332976,-0.15324936216237692,0.2050396547975712,0.10410872269576422,0.2238401929668316,-0.16059367578214462,0.005718161690984973,0.0668708046396813,-0.13442105528262224,-0.02613623930549219,-0.09389928812343043,-0.0843999738212959,-0.033677328372794094,0.4858026414283755,0.00690811494227626,-0.08812128003816255,0.5248,-0.39208260429508807,-0.35598649361098705,0.28212254506326795,-0.28709477190466487,-0.2951082143125367,0.0315,0.12221535507630799,-0.047398486321865545,-0.6913762760728994,0.2339117071616164,0.09046636522237138,-0.0452201556006278,0.11787364283918612,0.17418287268526372,0.03434733331363858,0.05968444993758456,-0.01152300324772323,-0.1687354194246141,0.13053345044586212,0.10534531901440512,-0.2801494275463397,0.18322156021368102,0.06878823119989634,0.0762570846122485,-0.3855629698237968,-0.40291955562163817,-0.27174259002965256,-0.07169711475044205,-0.6413444367130645,0.06511398364284501,0.0124,-0.3940385101125499,-0.15264794586481312,-0.12206857996419386,-0.38140104981017625,0.25419083501983303,0.0875674182713209,-0.1787486014595314,0.0519,0.0968216978618057,-0.08208969944109282,-0.05369836914827685,-0.004869538290704016,-0.14680514309821185,0.07824650276941088,-0.428726235184278,-0.0579766538625115,-0.040712554488457,-0.027227841345002522,-0.07750351009653265,0.1284904895850869,0.11045870842784145,-0.27949327216954795,0.09646230848422818,0.04820442316329512,-0.1826,-0.010493851635859568,-0.01788627747376882,0.04926083710837823,-0.4465886393620879,-0.24400517832339577,-0.1781785622382636,0.07670881067397506,0.029046871217700884,-0.07417920014932694,-0.10663470784226152,0.27951825940779823,-0.3108726379727259,0.10379529084634204,-0.15540451124298407,-0.20848906666960962,-0.34655985852608223,0.09605583093605118,0.27069776698258674, ],
[ -0.46940522104734345,-0.1526392890825235,-0.2002765484374312,0.01830147421163123,0.07081609754523766,-0.019096131578800433,-0.09067129930235344,-0.04089557042510117,-0.061256156324945875,-0.06030034613261776,-0.09036786143371683,-0.04717498844157089,-0.4063366195855907,0.063373310446217,-0.26348007953103525,-0.12787098586820073,0.04754872476472197,-0.0152,0.05481947340286864,-0.06806708789114492,0.012731196629812784,-0.006186249204557147,0.25981229194960276,-0.043019919611711005,-0.09237728858874979,0.17397924854833405,0.0715192382192395,-0.08323111076609946,-0.5852503001373791,-0.5347693241757413,-0.009925582642489977,-0.3692,-0.2836461968777937,-0.11944835286706079,-0.011733895229898596,0.00316317750876846,-0.45074064785182705,0.02592296618746053,-0.269,0.0299,-0.22082397537668697,-0.08445220350332844,0.19761787548119875,-0.09592139550591196,-0.1163156896896158,-0.36198095986527384,0.21351833989233052,0.0728,-0.2632339312308771,-0.07049732097321208,-0.1296,-0.23076625642991608,-0.10063801394617089,-0.07441667258880774,0.09162985836425153,-0.06986733666598166,0.05606689423524633,-0.11575695051188553,0.05985520465704519,-0.2517731991492123,0.2168,-0.04015248158737235,0.1328673053212109,-0.17015426562179045,0.16513823693297192,-0.12867268024981054,-0.0710708003730803,-0.1197,-0.026805368411914644,0.3819,-0.2576,0.051490520586850004,-0.0175,0.03142877473845926,-0.17710469867567438,0.013697473603564141,-0.163468818533215,-0.6123613788112658,0.14259136035516212,0.12414769914837745,-0.04180182813435536,-0.3885,-0.11143329934987849,-0.2652236897143502,-0.22343069834924636,-0.06685319388623699,-0.07899437843465872,-0.022452218934325325,-0.18383665728692686,0.0788,0.05798232786039147,0.18431838734490116,0.009687666769418781,-0.17527404877334474,-0.24068819239873007,-0.07682876687268009,0.1756442589036071,-0.3505160331504379,-0.0168,-0.1428225503535657,0.10018740853102463,0.08102514881574514,0.025815125469310588,0.023109323526073863,-0.17509392350628045,-0.15637138966118067,-0.13636869503949275,-0.0670925732230539,0.31428850310074274,-0.24041647449193998,0.06639539085035899,0.20438746352040232,-0.009397227260918998,-0.35808568867429946,-0.15370800766015857,0.27545503750318867,0.16921733846699827,0.02002637259308416,0.26592179972102853,0.1298585588103867,-0.04342275484053701,-0.039665393530343686,-0.13784228812723096,0.11527673501501758,-0.07411058328342582,-0.13909730850061555,-0.19179817654076886,-0.12708374043902454, ],
[ 0.1515941131107504,0.006,0.2615656410908117,-0.2043,-0.2881257590182848,0.07746037943724164,-0.4731530773798604,0.1949970864261165,0.1451661105829417,0.1425852051800831,-0.4757,-0.1543024597941388,0.4275640516237542,-0.9394,0.11250762310261836,-0.01672981395013046,0.02151683231535753,-0.46685550153695554,0.13925668273366326,0.25029138701840314,-0.15098187919613082,-0.026046688009637282,-0.15751708109102838,-0.018391884358797232,-0.056007850008897235,0.14140519588516054,-0.38301034077199997,0.05113377670518705,0.13692452315499123,0.10643332249693087,0.01661417668442169,-1.026168746225281,0.36965878877597447,-0.07636908998965655,0.2065768838560954,0.054,0.34257857345264253,-0.034004509653789046,0.09379375660824958,0.23136291361475123,-0.40455411915534784,-0.16514694097470028,-0.2030189580989263,0.06418178997008245,-0.026047513580744273,-0.025216085764337023,-0.0656620106346766,-0.1393474129185728,-0.38991557388976467,0.06834740976448077,-0.12855017458282125,-0.0179,-0.07647291247420826,-0.2940137337927294,-0.11406525632507587,-0.18818647395100718,0.013970095847673518,0.22791650110635459,-0.03782845664902462,-0.05181833287830502,-0.12645836279071845,-0.04008356027780398,-0.18638557632920835,0.257368605509754,-0.122,-0.0459,0.1942711911662081,-0.06214562305270894,-0.2743661490008071,0.02311044836137335,-0.15253051645791488,-0.4084344906871997,-0.6432131269523758,-0.5534985469021096,-0.27346129465802776,-0.09807776662746996,-0.11078617812706477,0.049717192054754895,-0.24860152775678201,0.18320781030782335,0.24816314664425743,-0.218158360063474,-0.267258039594553,0.24231953168982148,-0.13252985179088872,-0.17303694617440413,0.41396005918814627,-0.9177521079116461,0.36077968624425444,0.1989677326472029,-0.08199065942059687,-0.1099,-0.38469336445763846,-0.9524629825888434,-0.2562019047448889,-0.15464133601742297,-0.10755899849824366,0.22748772354089541,0.29564879556735624,0.34282262285196174,-0.07720782060420799,0.048916535064599406,0.19169049632244872,-0.1417,-0.02083405543725503,0.5344373807719425,-0.05446630627956188,0.019006858173616237,-0.1253,-0.017977191612675088,-0.13378123070823747,0.18699703601906076,-0.060077460046263235,-0.6442301556133996,0.23827171952200463,-0.12550076829513054,-0.1206357648629793,-0.041307574585238455,0.0792727108757366,0.0701695664998462,0.03236232888551258,-0.2085928366814687,-0.05653970651357241,0.14076375406185898,-0.2512347449565754,-0.2153975964879287,0.1890489641059831,-0.05403052427944096, ],
])

weights_dense1_b = np.array([ -0.055767085398848226,-0.10895200534285333,-0.30753868870678747,-0.030042564795703552,-0.16789476934065262,-0.20393999508801705,-0.11566851336108351,-0.078,-0.025190818675856035,0.013450865307282803,-0.1331591029901484,-0.03215326144584266,-0.12316492573329588,0.11827961789713229,0.018515042805597483,-0.0432,-0.1930035613673749,-0.22254258948881148,-0.1404650608419379,-0.021096422273247067,-0.10975259283733924,-0.15590632669573537,-0.03631654071215265,-0.20694843866116672,-0.11526685995002893,-0.01899533996175934,0.07467176935148408,-0.1815179900373819,-0.007468096819746835,-0.11069912119006439,-0.2003663352835168,-0.09827935494774276,-0.029413793185414358,-0.3451743208000195,-0.015822819713823995,0.11476567366884878,-0.030639695231619263,-0.12652646834558368,-0.21443436357718554,0.008535519845219034,-0.02388186328103034,-0.08107624258650778,-0.17470913419185138,-0.1090286626561134,-0.015806465906258733,-0.14325312768667886,0.012737426207156594,-0.21737349228161734,-0.0306051248870714,-0.1245127867573876,-0.20105409505510458,-0.1288177567970231,-0.0750392268369239,-0.1021,-0.11024815618795511,-0.1435,-0.04498619534745549,-0.12663246726392388,0.03479456629837309,-0.062280506022143016,-0.09257917416705451,-0.19654430883982968,0.020274171006695277,-0.0035528837495895933,-0.0301,-0.10360648534351799,-0.028604482040666217,0.017505654166780255,-0.05788944723934854,-0.13931891181651368,-0.29055308453330236,-0.1383022917859773,-0.060283723852565536,0.06114764694880234,0.023909478211034285,0.007214134926542446,-0.2783148660094886,-0.13252829894155105,0.14864698054241798,-0.09432191354263968,-0.20105659540928678,-0.1598764267483801,-0.1730016358217974,-0.08027282582718606,-0.18618048254741734,-0.07177680525771274,0.0110875329600928,-0.0057,0.0174453378322433,-0.05097939911523948,-0.0484,-0.013418213739949914,-0.2194136102999488,-0.022514744420303996,-0.18573018196102406,-0.18953427086267965,-0.03922846821452805,-0.014310241314245064,-0.06614359647699017,-0.017218453409143908,0.12959762813826142,-0.18969601733220376,-0.12180990078347063,-0.027713322072086915,-0.0925417458718834,0.1126995872783959,-0.09981462404388565,-0.06376001636974424,0.04313607848797665,-0.13945442156983148,-0.10896507035359274,-0.04786992850249793,-0.11730688684107814,0.00028259670975581616,-0.19550259027713549,-0.046817924602474206,-0.02268003543942631,-0.1301859645427715,-0.0016082597461208482,-0.0647915723826055,-0.04455674225531944,-0.05121808733626309,-0.062195780200589496,-0.06269299115928725,-0.1986427612489492,-0.1652848051386287,-0.02810484819291316,0.02638611079438298, ])

weights_dense2_w = np.array([
[ -0.08663790272293945,0.8312501128847953,0.16505213820246953,0.45401355585805797,-0.8749750248398296,-0.1498607909989285,-0.40819974658340846,-0.6244,-0.036834531220199154,0.2508098097522613,-0.33678281342686855,0.08140026823595917,0.22830075022858404,0.4827839269939587,-0.22540193300557027,-0.1572,-0.1820129637628451,0.2542,-0.7748964044628271,-0.3615726765466937,-0.3170588509672815,-0.029080650966996774,0.02266097415215829,-0.27116818785455105,-0.5204650897324682,-0.09435122892215306,-0.9491860476964594,-0.2204438809884518,0.16096327314811443,-0.38782508670256405,0.07931972475299034,0.2139242602806091,-0.1917,0.15514016833410288,-0.377845517099353,1.001,-0.0497,0.003093791440675937,-0.41612734436626536,-0.024715318671410216,-0.13212241162400545,-0.5123256284054416,-0.37686683854572123,-0.20648235336755533,0.024337150311048134,0.5105840689402811,-0.189994968599921,-0.1701899191053415,0.10883450802529812,-0.26849876608089984,-0.4345942931536514,0.32231199729487403,-0.0507,-0.348033099298346,-0.0679000719074104,0.32291499248540967,0.46751646371699634,-0.2869116182810768,-0.1,-0.2447498496382803,-0.08718465201718216,0.30066451993608356,-0.3764783111693292,-0.05156347242140635, ],
[ 0.17581822345907433,0.07919200003158565,-0.015692968688294607,0.10654297217218231,-0.07729988701779016,0.07155022610123071,-0.5638141046919218,0.0986,-0.3619977196747799,0.07362103623808078,0.07783125446194926,-0.17895126263548009,0.4159350394262455,0.6323915648906687,0.02673491547407416,0.2417,-0.3264818325791469,0.025908417884749978,-0.5479076980355277,0.0968,0.37641805762922087,-0.5394020881471667,-0.5344,-0.056551974432784015,-0.40821212331977735,0.32239861156348265,0.052192365584775954,0.1192467148206406,-0.2969781883506784,0.1467149524110029,0.10282325411739504,0.20337615230673636,-0.1758,-0.35363843447179033,0.1006306202833103,-0.15961153376528583,0.45798598125235607,0.2535562224496135,-0.021396201209933574,0.07567388735640418,0.21537305510625213,0.010050881014627915,0.2419,-0.028293321701489814,0.4655634279783613,-0.07389535038361572,0.34568694968133495,-0.6890060247028543,-0.5643411465375333,-0.23590825218413078,-0.2151751776621961,0.31489060783996287,-0.3781511365350206,0.23289219116864096,0.29302087248620473,0.2562484581562906,-0.07232159855331034,0.2657068475783206,-0.6174055218367805,0.4868310654186884,-0.5207601633088089,0.5323656199436304,0.3631880049912958,-0.8963, ],
[ 0.13563728883937184,0.10796623214895146,0.09318509759646977,0.14487074091688207,0.04729099706269941,-0.3447135337307673,-0.032450842249338384,0.027474530906182595,0.33294350274785234,-0.16147782374638137,-0.2529133403144971,-0.6001921797757551,-0.0934,0.4975312799808279,0.11693960477477143,0.0419460229422186,-1.0012218482228135,-0.3021046034506757,-0.11139745336476373,-0.8902925292103879,0.2825465704939806,0.26270433281980604,-0.3043299910770127,-0.4903,-0.27810386539965365,-0.016426412653976725,-0.24414537321081198,-0.04236896513040654,-0.007224271499079434,0.1306982924687185,-0.4067158386286797,-0.149,-0.04506561771971264,-0.16149274041150455,0.2134,-0.2975338459636734,0.4474982674670506,-0.08840946592396876,-0.33003142250762735,-0.37301515996778106,0.05728775694824257,-0.05985663694348305,0.04061955820433555,0.07204800894323099,-0.7808593769553159,0.03136056257112574,0.04126031542162964,-0.3094573936567513,-0.18583658390687338,0.7634987402852893,-0.42598417501976427,-0.43176071713431935,-0.5546548299451562,-0.4296,0.3739872653697567,0.17380146890544254,0.3442888283007605,-0.7794345045997177,-0.4398,0.5153627414856231,0.5336275788070267,0.5514696413407878,-0.1764,0.1890256776699712, ],
[ -0.22017750525399646,0.30115866568073135,-0.7623478278138313,0.09025552126390689,0.10706726872809247,0.21538002426228975,0.014065531139274489,-0.32435304709281726,-0.5594823441524162,0.36409421888895077,-0.0419,0.6416400956654783,0.2317231152763176,-0.045334398409529325,-0.8609253851094425,-0.1793,-0.13949302611288625,0.06434687754990624,-0.4984099275761953,0.2530932696060881,0.6741656089764151,-0.5848719474884115,-0.23780531256023546,-0.1077424283899799,0.016144221697745258,0.2544463802828838,0.8048747951426563,0.4267749407569114,-0.4756,0.15832687696379913,-0.20082068184490973,-0.12938658087926436,0.16314021468474807,0.13114394522606618,-0.23821461488142393,-0.02091592977979513,0.42582623008437376,0.1958436618067563,-0.8136089832593862,0.4624337511957499,-0.23151258313224915,0.26667107990151984,-0.1594,-0.08730100190565587,-0.33314496148907385,-0.10805521892719128,-0.4352862895127577,0.1558,-0.29530748018588854,0.10144178285215824,0.2966100651437187,-0.27679900993609674,-0.37289868692999745,-0.12219498481913724,-0.4077658293633892,0.3795912088579922,0.03835286367170514,0.17940078100945006,-0.18391864728353513,0.06502608739019491,-0.5165026987058348,-0.5846044115676413,0.36033851711837395,-0.12601674399639495, ],
[ -0.4032845581507547,0.17783786613221653,0.40085975656218914,0.7214999114592145,-0.2199067568734424,-0.2671658986458273,0.13850601988795902,0.5229783381767679,0.19849005620218002,-0.4350694208937789,0.2767416874542652,-0.1936478188538547,-0.07903156988942006,0.28268815218879967,-0.05400698956072897,0.05495018114872652,-0.17679882329155575,-0.8570601215043834,0.3215196785942493,-0.6885991601690291,0.2985617601224395,-0.5650746273822961,-0.39077732372772983,-0.13680774492148196,-0.4864,-0.06266495853287081,0.16457485274054726,-0.20270093490212004,-0.5076343139656528,0.0112,-0.2220138854424954,-0.0673,-0.1897450611574122,-0.4819650991754335,0.21018078435507917,0.0276,0.04619676898669251,0.10191720668267643,-0.06332150463336064,0.2879635323115783,-0.11994369663940613,0.20858051196091004,0.01604403285381501,-0.1489961424697781,-0.7120846973713084,-0.3675981246997599,0.4563,0.16405469818745944,-0.4578274432974024,0.3765,0.13720727574692998,-0.3786231808421463,-0.27237629886439774,0.09547553673592932,0.21044571603370912,0.7743665753632213,-0.3148236831586089,-0.3307575464041055,-0.1733982238075523,-0.2949844236168909,-0.39458378107104664,0.026179233311863788,-0.6608877213401595,0.09559869015397754, ],
[ 0.16577668818829927,-0.2703,-0.11502786374538543,-0.30209941129596146,0.023967894734962435,-0.0165,0.22384387236852882,-0.4268305850611023,0.27958410814396667,-0.055568985851983006,-0.0574,-0.04211666819151194,-0.4981634416051072,0.07759804527923496,-0.1372124331047635,0.15688278733992594,0.1619312716786531,-0.1244684132230707,-0.4320575733094259,-0.4964605821517712,0.04577701974568445,-0.776807874809951,0.11445317678643195,-0.15469149629152762,-0.26404998858238043,0.4636849872254287,-0.26890823107455114,-0.15934039804362596,0.010468647458072218,-0.31315988253705573,0.07172948685975308,0.0892,-0.044911030584486415,-0.33464269896560783,0.3345726028681489,0.006169610526114712,-0.2681461365375927,0.0138,0.162563709844615,0.2383567004481876,0.3739856365823987,-0.5464538490231399,0.5272295621658726,0.2082,0.45197972270198755,-0.40216974130167243,-0.9091673015556075,-0.03077327536795641,-0.4279397738136222,-0.42833183888042087,0.11880081624449082,-0.3034089300130305,-0.3426795739899419,-0.3054566234940611,-0.5071481737259993,0.3911661144241806,0.07127126422771163,-0.2451,-0.28942615679965067,0.4359228943956108,0.07461292538564615,0.28589396573179326,-0.2107,0.11166381396329254, ],
[ -0.08665351016719818,-0.08491659163697601,-0.2659718173836622,-0.47235832956028256,0.049775022048650724,-0.03321578288595376,0.3508,-0.5317970138076475,-0.6400400449570017,-0.3755,0.48744331243810085,-0.11831289815470207,-0.42925221677915604,-0.1366482752027192,-0.32053234229680105,0.6155114582856256,0.7000413698810543,0.07728151682272599,-0.2548262104869546,0.16825635815078813,-0.4182825137937213,-0.4197667846695964,-0.3567530887235315,-0.22485557659250216,-0.12479293046620561,0.39741454706147117,-0.024275002793886183,-0.1434,0.24523213257859877,-0.06982435943300747,0.23557461506948543,0.2196,0.06907575145397349,0.12732010727236137,0.34631277953077244,-0.25299462181567667,-0.09165613705491348,0.052538974983037195,-0.26172389966126725,-0.38944277857860904,0.019441667932869618,-0.2165791562909248,-0.3152,0.040097628304132556,0.2533365598967275,-0.5704194329325627,-0.26298998727556944,-0.44160997906103905,0.05269851863140871,-0.410772452556339,-0.0153,-0.058439030623335844,0.42645532875773795,-0.6956306105994969,0.10869880680923075,0.2596915134228982,0.2967418888057153,0.39625967592539063,0.0777313559125705,0.4293240951250983,-1.1687,-0.0914,-0.16409111655680925,-0.18174816281301368, ],
[ 0.34936457201357457,-0.08667566607344243,-0.03701714109728181,-0.2958455383347957,-0.7764119981061489,-0.416457532760259,0.2959524214487898,-0.3509467049565492,0.072546348303656,0.37424548768894944,-0.12664383948182759,-0.3744442965764318,0.1606,0.24977412938774568,-0.07942945986146777,0.02473010553404017,0.3365,-0.06639866321824843,0.0022605949519384537,0.21684721516988922,0.19203737461154763,0.3167502840473667,-0.14217905379197648,-0.3209411855411278,0.1722542686288868,-0.238,-0.21964261219257558,0.0670896763007383,0.0009915165594465243,-0.6375414580272744,-0.005752627147037305,0.1491160336222943,-0.2364843160476705,-0.7166362834069876,0.43166619625406427,-0.1619,0.026904393417465106,0.01904798206601639,0.08443368924201787,0.3057835462246309,-0.2635,0.3256024441670447,0.18659195862533165,-0.332,0.044930636033266906,-0.0005,-0.0632,-0.21214491346394318,0.2687395863374672,-0.0637393028669533,-0.4122007113027907,-0.16246977607505392,0.19577698118470266,0.028115525163194804,0.12388538436147246,-0.20679953638460571,0.05005947436600289,0.024696024575481958,-0.3453926331192055,-0.44345875735940904,0.2741833202569862,-0.19127902400320268,-0.42815435475803537,0.18002009488872772, ],
[ 0.34590864986597836,-0.20148752843755285,0.06702194311359172,-0.2982550190181175,-0.2020109901866294,0.013811587223262731,-0.09599183948625885,0.1526077075043074,-0.22649709126544407,0.04520270182885057,0.21310168100385815,0.07912486923351841,-0.06588677244588262,0.07464917953621797,-0.2885,-0.3095234474150265,-0.5450310615475132,-0.11704016538913481,-0.1047,0.37397745064052496,-0.013203844832771282,0.5380403431186642,0.2683492524806253,0.2824317537849881,0.04816624391003921,-0.29245228494683856,-0.11107367383101098,0.2868,0.1722528401820081,0.0695313960398347,-0.5384732631261104,-0.2182,-0.134,-0.22414443229937192,0.23425949783906874,0.22082970980276947,0.3163977802280564,-0.0970485433020626,-0.23006055410465412,-0.339748301997869,0.2610537942182356,0.41913194721461067,0.14053787426367062,-0.018347979406362833,0.14194196419183316,-0.24494338771219554,0.0593,0.3053737819476254,-0.06812481176027897,-0.5022739238003787,-0.06056277263172012,-0.17680505959942805,0.0380584569404001,0.3218503970221574,0.2054,0.03821667019568185,-0.37924954776881575,0.5998582113713729,0.3291224933542923,0.005551092172306194,0.1453530689847268,0.10996115625303665,0.450201595484848,-0.04273120786783269, ],
[ 0.24398388032031254,-0.5801854526691871,0.010523095746155155,-0.5418171731122902,0.46277060401493936,0.10300145936410374,0.0498,0.4619006711513921,-0.021022888469911034,-0.13545641654866805,0.13385461399409648,-0.10147798535424099,-0.34062537901645773,-0.0778,-0.18639776735192834,-0.0625941310825263,-0.1718426439899948,0.30486201821025427,0.07891783170458608,0.17550106854073005,-0.028397513607355332,0.08256737366576956,-0.1390955903130666,-0.15899810595525385,-0.02923271330888682,0.15964662220334927,0.19705506956440147,0.005341104435467628,-0.161012434330994,-0.15767986011175886,-0.0788390540388849,-0.03753919415363737,0.16197270727938573,-0.39142218645744037,-0.019451791937269338,-0.1524932550796775,0.2817801498435748,0.09060643635005297,0.040176506808362565,-0.23552998126187122,-0.05165068884776411,0.31728203979201586,-0.40467255134650093,0.0614046516212713,-0.3219,0.08524974421517187,-0.18359934372071518,0.299240592920982,0.06659715663883771,-0.08754056269451901,0.657181087702453,-0.6976283589670029,0.20826323481955036,0.31608565746317835,0.1473756599364111,-0.1370750212370375,-0.6043300455215999,0.11784874842309445,0.1634573804994755,-0.4208,-0.21977500771675826,0.0950173523184925,0.0715926243586801,-0.08013796247157617, ],
[ -0.5236196043186102,0.1911398439298672,-0.4807819654184604,-0.09453080869867383,-0.09588115981296835,-0.15417966340858796,0.014757429817067663,0.6395507627265481,0.041916149410886956,-0.0014955326598505272,0.3114732638541737,0.04486804612001214,-0.12890172646051465,-0.15257896695263565,-0.000761013542294197,-0.04644112556375213,-0.004579961578876619,0.30068547252668454,-0.32952610541277044,0.3939,0.3837,0.1778983870258901,-0.974144249859871,0.1730205658040931,-0.046287237079080654,-0.38965824979883396,-0.21648639167613587,-0.6042,0.46007443052312613,-0.008433813383478449,0.025463175841465825,0.06092617900630812,-0.09897679633236993,-0.10552587748973646,-0.35154725324447006,-0.3111,0.23304103020946004,-0.5343880408773435,-0.44432808104604915,-0.06887933155749329,0.039673121600793976,-0.17437234146825953,-0.10660045965666816,-0.3433159287449255,-0.24396760539419665,0.21430732347774994,-0.012759968430228657,-0.18433370645437452,0.16622076623096882,-0.3147357515766912,-0.023271658948719277,-0.008337634241106229,-0.10582585714789522,-0.14644665769892135,-0.05876110987588421,-0.08872257152987612,0.253246981623375,0.3281,-0.664535072474457,-0.0801678887036857,-0.4293635991474511,-0.2743,0.2779182275381637,0.144, ],
[ 0.4549849073656161,-0.482,-1.1706972967355391,0.4295,0.33868711479772917,0.3785612000591625,0.22187166415668977,-0.0528374963266459,-0.043,0.09471208590167918,-0.1369273412608467,0.15510481505063956,-0.1533601114587702,-0.12959272000892844,0.12859639775622947,0.09739411045954885,-0.19064227054942673,-0.15168345651730925,-0.2618699811283118,-0.5462,-0.351154591834406,-0.06336606978576702,-0.13472808272366285,0.0737,-0.41345531668333063,-0.10063486838444483,-0.2926837802956805,0.12478512399811355,0.19327930718270508,0.09540174640443436,0.04881245683858213,-0.7173619783118168,0.010592986173038084,0.3381585345669667,-0.13054923427065254,0.7095855090480241,-0.18099652967217517,-0.2895160944868543,-0.9067659392318683,0.017890945205323805,-0.4728718640673595,0.1175,0.04058344674625255,0.3404226320324827,-0.7725691887546497,0.024960643196861764,-0.26542025323613067,-0.6948337679368353,-0.5455026466525157,0.03728732881107164,-0.13506448693836504,-0.03474447037711748,-0.2524,0.45881809961493303,-0.7932123568658687,0.431908078143025,-0.4756232800962999,0.1655,0.17044860174811907,0.4096085294840746,0.543905707792384,0.04023802008447084,0.17883891213025965,0.24143792716276677, ],
[ -0.3758087368713545,-0.24814020862684041,-0.0075944443175945675,0.2664,-0.012134897154325384,-0.2388,-0.04829316889511974,0.24069831661755692,-0.8472075271390185,-0.32096845350306563,0.02386911739722721,-0.17673748942320175,-0.4018089936110547,0.0377,0.1745943972092809,0.19773562743781575,-0.4557853315822513,0.15877451557411718,-0.0023,0.3712278073498813,0.3746834398234497,-0.31395641891037884,-0.5986208558646097,-0.0173,-0.06382071105071609,0.17,0.1167,0.2967921033615993,0.013071506590541942,-0.31998919423861444,-0.03588143451538542,0.1705665142097143,-0.1285789889986944,0.40534156365058494,0.20071591984199613,0.3258685817764568,0.0381110164843132,-0.15582457425955532,-0.6441654044995471,-0.4429409715289997,0.05125547893749966,-0.34403306934609723,-0.06836099739967973,0.20982004133721233,-0.2147008056772236,-0.5228,0.11354915180882988,-0.050856669882417264,0.03654634098780634,0.20557905165675364,0.7336392077947922,-0.0711,-0.22517677971583688,0.19980156353901263,0.08420484049109041,-0.199389112273417,-0.5955993266133094,-0.7407223752738006,0.2156220984176475,0.011405963547542777,0.20611880944076658,0.07428407654318606,-0.010760263410208139,0.5531460780523563, ],
[ -0.17484259989423231,0.5070762982018734,0.5091873392497313,-0.2795811724372927,-0.7903169431301987,-0.04157315360018353,-0.07880136769754756,-0.602181334280579,0.10978388420203096,0.18947827717021024,-0.5685664380597155,-0.2222560925272434,-0.3055318856680742,-0.1057,-0.40093030532991886,-0.011043980811837628,0.6061,-0.5712610283259524,-0.25911157146111147,-0.49998514346311984,0.15869485370266512,0.3299018738076435,0.07337483599646576,0.2565090373958865,0.5367944055224004,-0.12248988385330292,0.2159862760066099,-0.15206857063380236,0.325172839858595,0.3907244174125181,-0.011082573360317564,0.4484398401807672,-0.0639054808452196,0.1841247709499315,-0.1583555831881832,-0.043988875291125454,-0.46321548204247404,-0.10140178117000792,-0.4571275579000915,0.46712987237959214,0.49352561912297593,-0.5571128030341167,0.14,0.49142930409686564,0.20484710342160142,-0.03097714519971135,-0.4052408507969453,0.4501010436733174,0.25739849401596704,0.6645466077004858,0.23239336383969356,-0.5579839728118591,-0.06278005364216431,-0.24432913115590635,-0.4427230400797897,-0.8957554917866978,-0.5374616634311304,0.055214371253775714,-0.8948980006324034,0.4593768191011946,-1.0177556356047455,-0.24449391427282324,0.11675202592340604,0.3988, ],
[ -0.6683833764782215,0.0927004209578848,0.20466780459404074,-0.06860812921454341,-0.02174223087318686,0.1458796174335404,0.021413297224744277,0.4322,-0.4306588091968805,0.6591788391866905,0.3562,0.14736684873146255,-0.11637434364374218,0.12109956528104178,0.1545292113528282,0.16285106201629018,-0.2891,-0.2061931112384789,-0.6352,-0.11786367978332395,-0.49708116877122194,-0.12110390513721304,0.16912338552993467,-0.5101302990170754,-0.39209463701543784,0.4106865621239735,-0.1297688938554628,0.5024145143942597,-0.5204888296171687,-0.272,-0.08692327665743256,-0.46463467629752736,-0.08594870469690756,0.1195392292255061,0.01744247216478803,-0.25452819065563653,0.33062637313897636,-0.014362765445169599,-0.33018595085552893,0.0026136540451475667,-0.1128577506252766,-0.3468635544500272,0.22898420593553026,0.3572019477212799,-0.02847660647823214,0.26705906255271195,0.22909780811082278,-0.20956174915561493,-0.17274572475544972,-0.5259619330791064,0.6540647585766438,0.023158758583985667,0.3074207344158097,0.5378664277299218,0.5679957134445832,0.3798819919705523,0.19108506346536663,-0.44286202915459494,0.17861520420301352,-0.16353881640528675,0.6608643074614865,0.2642957107300711,0.4398169276902338,0.015985915646669714, ],
[ -0.13826387273506904,0.14693461841734065,-0.3466603759492282,-0.1314567365468334,-0.5770762409873931,0.1837152295307885,0.0366928568031927,-0.07648734268060521,-0.2686909460611095,0.11927031332935142,0.10716311503605368,0.42599500177395133,0.2882344176647343,-0.517,0.5894108079021642,0.10144893389335266,0.19207177730974612,-0.33083482281481186,-0.37625243811392284,-0.8384783275355016,0.03747537662103919,0.09405028692559741,0.2815949102047278,-0.3985515366051353,0.1435880763205257,-0.13348842755607368,-0.06335220991288382,0.006668887322694852,0.4129,0.2819,-0.2741974537709504,0.471290597659447,0.16150167830521053,-0.7414352563972461,0.0665,0.17512850492095747,0.20580605185323755,-0.1297,-0.35527262166340484,0.2952410575722043,-0.14476799325525222,0.2721308406054441,0.26179174506381314,0.0579,0.12573723030506842,0.4320286243279625,-0.0946797439192214,-0.2118,-0.4503312972935818,0.2824953413732871,-0.6311623693771433,-0.8071075597400243,0.37906683883765385,-0.18848633125888337,0.06081547920143498,-0.16177818706671593,0.17010331003110807,-0.2496758106514647,0.014307844874319839,-0.28620082172666156,-0.2113809488398535,0.016754236922528573,0.10511956172356703,-0.6369400015893977, ],
[ 0.16118831245297102,0.029684556817918532,-0.26724383576143096,-0.15575538063871655,-0.09232607883783898,0.008872300879064062,0.23742428819132114,-0.09844881260919651,0.1819,0.002676836387037266,-0.1940283802344394,0.08992244521461928,0.18698545723424304,0.11373246794893734,-0.3986098394772763,-0.0324,-0.001771611532878984,-0.33386102358993525,-0.07142621024813438,-0.3531743216042213,-0.7288,-0.1156486442399604,0.09354747382215628,-0.15898344696778,0.12110396994017186,0.2962005005556042,0.06570607599634946,0.2648558388154425,-0.2405369663565998,0.3897769313930267,0.3595346140426557,-0.1442728655564176,-0.09817883177494871,0.12435651184210204,0.08427618535620358,-0.42632266207218983,-0.0738039055665921,-0.4996,0.5973966938264718,0.36624468744931443,0.15881089053850628,0.2765077226493143,-0.48062048610126895,-0.40958977880468644,0.2636959162977731,0.1075,0.31122935323591794,-0.12139682606646678,-0.37640773767497054,-0.3555626355311244,-0.07468671407322926,0.27015455281097395,0.08289196937743333,-0.2042349287223343,0.3437412845847645,0.04023653724950241,-0.16120153832571008,0.2272,-0.256507115717924,0.19325258632370568,-0.031543864839695825,-0.3182501959250336,0.1300300728817072,0.14825425232800957, ],
[ 0.08189839018529338,-0.1703915056229272,-0.3259271662800941,-0.048001456992892086,0.15368354737170917,-0.5650827213317725,-0.2667138604714356,-0.06341726054675713,0.14533547184844114,-0.12986613437106295,0.07412304591368014,-0.1485966801728508,0.07244246657642435,0.12214525828181418,-1.0762926168034173,0.1373715389608791,0.1589016544533527,0.3533943439824177,0.15522403288783984,-0.29318855420135226,0.24080725327418734,-0.08190146165798695,-0.540210602037717,-0.03600718471426686,-0.31135009537239333,0.258,-0.2509550899486821,-0.11850343713364783,-0.1426774473865005,-0.034439639498821985,0.5221738973615381,0.2574540591003833,0.047077742928214275,0.26587826373927537,0.532064353783742,-0.44851217784292674,-0.0277761313091713,-0.5319374410402374,0.22013312300746732,0.33107124424650675,-0.0073,0.1737446281858262,-0.2696704650908117,-0.4332067936660265,-0.07932872684392166,0.3393894107404941,-0.1716069104227876,-0.5973,0.15939332418383728,0.002835887159903837,-0.37797245133674034,-0.2532451723376804,0.18008094052032844,-0.5653714190089295,0.21767387927152465,0.1643639915639082,0.1945,-0.16212053492784576,-0.2573941537634567,0.3899640092539109,0.0963,-0.06643581585652299,-0.034737262653257564,-0.2737183216147116, ],
[ -0.0777317470776792,0.1958722025860048,-0.1863072367852686,-0.36747876069987356,-0.15975653912430607,-0.19175097075951414,0.0064329619362241295,-0.18847022826372767,0.10226251651952685,-0.313669262275673,-0.7086252475385693,0.19201211795858505,0.3407328905470489,-0.14334488444431037,-0.16752392208453487,0.2755910217442492,0.021234779752651756,-0.05793133232832523,-0.20652572972514383,0.0111,-0.21572735896416556,0.15151356943040017,-0.1321,-0.24104872359164636,-0.5186640366464403,0.13624189864831807,-0.1814060534428945,0.36815884977856556,0.012828055731688633,0.22912319653830227,0.5604425035804327,0.41923474169911307,-0.21237080616176898,-0.06965234862392267,0.16808025565583884,0.0272,-0.093,-0.3264865482704514,0.25384118542418643,0.19330984681233562,0.022929824987501176,0.002482604795274613,-0.11548600175573961,0.24764706218451604,-0.8571,-0.17174060286266524,-0.09186601860595367,-0.3012,0.027148485076597586,0.23528343750071987,0.4010297213810895,-0.12085755884173548,-0.18042053529852223,0.06042427717798312,-0.12064887042316823,-0.05183735732215874,0.06501777293525861,-0.1922,-0.24792469753864968,-0.310876416303059,-0.2471898611470625,0.2395354943798617,-0.3517077746706049,-0.0035149816743497175, ],
[ 0.33597932468672376,0.154200901785486,0.2320680136627774,-0.7629729482499213,-0.30205926074877987,-0.28590653187915854,-0.02721050884478678,-0.320264217519874,-0.3006748675411114,-0.055426787861926265,0.021694047641287975,0.0936397888239015,-0.8780759448186138,-0.21998798967002875,-0.16492174399056356,0.3052509444512656,-0.37193318040973766,-0.3298,0.011278835096723932,-0.0934,0.356624587760451,0.15275121871054104,0.19303841132026295,-0.3163498212992367,-0.1588613942590162,0.0909,-0.3312906636291895,0.5118460873368811,-0.03343737994972219,0.005557919278958312,0.2795,0.1569140917964214,-0.21328850283312034,-0.1356,0.07364875362842442,0.2555367211860473,0.30883168998167904,0.031789513512014284,-0.19798471307555635,-0.287950040477459,0.15397664814207293,-0.05292389772599912,0.1034895127355703,-0.09689643739349753,-0.2273,0.12167272626961885,0.45402600853243097,-0.09001561965224099,0.02171547938567244,-0.009461184956379912,0.11534471205842284,0.028431751679609422,-0.6120393500349657,0.37168428809654047,0.28829885669737015,0.1762,0.3180129560734288,-0.4732,0.10957466452973356,0.11884957492148136,-0.07115594553325677,0.1097784018013354,0.20869220453347617,0.1572092522627335, ],
[ -0.552646920851641,0.20296158469761508,0.12397788096365671,-0.15456454527228192,0.014828994175445392,-0.5975858646262693,0.048008205846790795,-0.5301332962425664,-0.7635908300144716,0.00012674814118023188,-0.12755175453771386,0.1155,0.1005,-0.7161943123400837,-0.2928087675612984,0.008363097961495309,-0.09361313739698177,-0.1764,-0.2,0.0315,-0.37214117552318754,-0.19092685165493165,-0.23177675964990965,0.2677004985235005,0.35778269555051034,0.39658992684879046,0.4521454771839274,0.05397510535279533,-0.08406449592641638,0.030128260448425807,0.20922512980297947,0.37953224251621703,0.03210841580938128,-0.054466623168931506,0.0627940972370525,0.006245313401825752,-0.3994503765863694,-0.2241,-0.42633254715967284,-0.059300190416940075,-0.409100091239394,-0.13463115082306934,0.05655492899721248,0.14367400224755972,0.24091598170071157,0.19442973946092465,0.11038535451591208,-0.05725675096105549,0.10462637189415469,0.03566013704894448,0.35955284446307273,0.46617482696136536,-0.07405383827518884,0.23297462969431232,0.1951169597217426,-0.01012354570599398,-0.2731082978255132,-0.3218,0.3025,-0.1858180672099945,-0.22269045202908982,-0.0253737361817362,-0.17613377477772946,0.4741085706143449, ],
[ 0.21743276447828405,-0.3529117447363729,0.09955605440353772,0.16830730030852062,0.2244902129416176,-0.19471489362046768,-0.08877185377253763,-0.14722335136253378,0.054742647516120985,0.3303228397028326,0.3382512904307589,0.09280509893469259,0.1010071394692604,0.11158703120659008,-0.6688823701575434,0.05769357980458891,-0.24297730169153842,0.23579508241276076,0.09984101097779305,-0.3190956338279636,-0.8467658382770218,-0.613459396399919,0.0593638153686149,0.21485508971824904,0.1904091718147924,0.16166202939396615,0.2048666125107533,-0.14892900359788258,0.4816827761542822,0.039615755954082184,-0.1402321851780091,0.6010211193142433,-0.1197871574142995,0.010616404606661039,-0.6434349379529481,0.05328125611872498,-0.27443326657937445,-0.4761876997498047,-0.35694914976490916,-0.062169103389321266,-0.3171093688201138,-0.3321550953666395,-0.06716714896755097,-0.3787616751489322,-0.16583308802269042,0.0720626624160528,0.08898651617263181,-0.21376036013158867,0.7304682118680905,0.2085119969040615,0.17646882109010684,0.025029590209983275,-0.2882256343773179,-0.3363509290997743,0.04232680997578634,0.10995214835716415,0.10156105509426912,0.0128,0.1631679807807598,0.09037309783093173,-0.0051,0.44251720726292304,0.1831635724050346,-0.003227406349988686, ],
[ -0.4116105199309282,-0.06549925739376405,-0.4090975419069142,0.08917679846435386,0.20692742441305406,0.004915051286772035,0.19238808134257435,-0.06302203361720268,-0.10162710210934559,-0.05786982794483958,-0.2044785999000343,0.16060763310284687,-0.3082906154124806,-0.005975427496473537,0.0374,-0.07347853111492592,0.15391421313406334,-0.13936114306741856,-0.14940129812133854,-0.03267334737492198,-0.3522681293853541,0.046655450725244275,0.38444011839607334,0.25582788435723103,-0.07166492649423782,0.22844010276073934,0.1417693279587314,-0.24384141680003518,0.5003809234296546,0.23347707052502603,-0.17600650867697407,0.09290799679637386,-0.15453231308274307,-0.2074362843718848,-0.2951,0.057513738139124894,-0.5089,0.10251688387349804,0.255205511544834,7.200355447562097e-05,-0.08852466642156111,-0.14748164646071613,-0.3952044130340498,0.2480685605955362,-0.18775970897062502,-0.2518055845953024,-0.062234161872382385,-0.02685204930180741,-0.3003801143033637,0.1667440381031311,-0.1435795156200454,0.06387798605012185,-0.44104355327422007,-0.21568237248055794,-0.22434936972332403,-0.11697231299048425,-0.14875272683437227,0.1299,0.19158172215050823,-0.22706827520388326,-0.1659,-0.68710948778435,-0.3346623520897831,0.5960934331352299, ],
