import numpy as np

weights_dense1_w = np.array([
[ -97873883.11994866,-177149935.88514486,-12682375.880469114,-62336342.22520542,-85550019.63185945,1792561.9619038105,91241403.86090404,-19942251.82617985,8380227.171900392,57182726.584731735,-33700164.883791655,72285061.11377132,-32131673.16712586,30025412.861888252,-101862333.48518492,5512128.032854155,108001858.204705,44858863.096643254,-26933243.477605,45844772.17568996,-5198429.689521316,-102579358.26994576,30518367.4014123,-22496652.621893056,-52656507.63092457,-13713099.008564048,-1030723.1280947216,-162182043.50324798,-153577746.08610964,-42035578.00664448,-3361053.6785697266,-42125206.10473986,-52611693.58187755,-35716797.09093339,12906446.12570744,-111497354.03041741,-13354586.616183707,126375618.31421947,-30115040.959983848,27112499.673795357,-15102334.529039882,-83533387.4247177,11427582.50713697,-12547933.733326841,-9500578.398089796,-119294998.5646988,22810350.965226084,-100293841.76851816,-88597374.96709609,100607540.11185166,-91599916.2532852,58123821.61473124,-89628098.09519066,-73360598.29091379,40287830.09378833,55569420.81901818,65518139.70758442,-17163780.785229065,111766238.32470301,-43200743.28188201,23841074.093320657,-89762540.24233341,-43917768.066643424,-16312313.853324622,-118802044.02517585,-182482807.72180897,59109730.693778485,99800887.22899492,-27874338.507604662,-115082477.95422506,4750289.199044891,-158731361.72658294,-46830681.25473735,-122028655.55660212,-89672912.14423889,58571962.10520677,-53507974.56282953,12234235.389993273,79455308.96138668,40780784.633311786,85012251.04328835,-82905990.73805176,-186247187.8418066,-78603842.02948208,-107150391.27280098,-6139524.719520849,-3316239.629521952,-36657892.12093308,-142553490.020401,-3898822.2671408895,9410950.29999501,-98277209.56137675,-198974377.77132392,-85101879.14138372,-57048284.43758884,-28053594.703795277,-43828139.96854804,-50370991.12949717,-51670598.55187781,-3674752.021902859,-21062603.052370094,-41721879.663311176,25319937.71189201,-150306320.50563478,53552788.61187661,95005783.98090221,-87163325.39757293,24065144.338558763,-29039503.782841604,41766693.71235942,-80127519.69710077,-63098181.05901475,4436590.855712008,-102310473.97566074,-88866259.26138163,-31907602.921888128,-51177644.01235424,-9903904.839518651,-65742209.95282266,-51580970.453782015,-74032809.02662793,41049668.927597165,-43693697.82140557,-35582354.94379091,9500578.398090027,-46113656.46997564,-66504048.786631726,-119743139.05517489, ],
[ -250869046.56843835,-15640103.11761007,118577973.77993727,58527148.0561601,64890743.02091767,-19404483.237608384,132828841.37707284,-234601546.76416165,-101907147.53423172,299985244.3246038,18239317.96237147,135472870.27088046,-223846174.99273923,2419958.6485694116,-195882208.38703862,-130543324.87564577,78379771.78424445,-113424358.1394636,45396631.68521431,-240292930.9932061,-13175330.419993043,111586982.12851225,-36030495.43426636,128168180.27612339,-202335431.44989306,80754916.3837672,-122028655.55660173,-179076939.99419102,-62022643.881872304,-43200743.28188212,143225700.7561155,-118174647.33850972,-51088015.91425824,105357829.31089629,-270363157.9041426,150933717.1923021,164557188.1027704,134442.14714255952,-209460865.24846068,188039749.80371037,-133680308.30897692,130722581.07183518,132918469.4751678,208699026.41465172,-109839234.21565615,16939710.53999039,-37016404.51331453,-14206053.548088504,91465474.10614182,52118739.04235396,-141970907.38278192,195971836.48513448,108539626.79327549,-125972291.87279007,365682640.22837853,-10979442.016660891,23930702.191415727,195702952.19084877,-325081111.7912575,3092169.3842836097,166439378.1627697,-182930948.21228376,-384907867.2697965,18463388.207609452,-16670826.245705275,128392250.52136096,-16043429.559038775,-57765309.22235078,-53059834.072352394,-90524379.07614209,86222230.36757368,-90031424.53661953,-184992394.46847406,-228058695.6032129,-370970698.01599467,-30742437.646650713,71030267.74043866,8156156.926662095,44634792.85140474,62874110.81377613,-21914069.984274007,118667601.87803206,-378902784.6974181,-20300764.21856063,85505205.58281238,181945039.13323736,-160523923.68848604,-242936959.88701472,-20435206.36570311,-141119440.45087793,138251341.31183165,-37419730.954742216,406642681.05788,-208474956.16941413,391674788.6759828,37285288.80759954,-169217849.20372003,448140.4904755763,-316163116.0307848,145600845.35563743,23661817.897130456,-77393862.7051968,112393635.0113689,-10889813.9185653,14609379.989516523,-235004873.20558977,-249255740.80272573,23661817.897129625,355733921.3398117,-180107663.1222863,-92048056.7437611,-247687249.0860589,-128974833.15897922,49385082.05044962,134979915.73135725,63815205.84377606,43604069.72331035,187950121.7056151,-95722808.76566336,-335567599.26839346,234511918.6660666,281163343.72461313,131977374.44516817,-224159873.3360713,-28770619.488556385,-204486505.80417717,-84250412.20947944,285958446.9727064, ],
[ -17567107.226657268,2285516.5014270134,178987311.8960964,72105804.91758078,163660907.12181872,123910845.6166013,108853325.13660938,16805268.39284833,-126465246.41231446,76766466.01853083,16088243.608086942,-28770619.488556087,141657209.03944957,-60633408.36139692,66504048.78663136,-69641032.21996318,51491342.35568738,111452539.98137015,106791878.88041998,6408409.013806105,65069999.21710843,50863945.66902077,-40063759.84855042,117323180.40660508,71433594.1818673,19090784.894275326,32221301.26522116,129602229.84564626,21107417.101417385,7170247.847615355,118174647.33850934,74077623.07567506,18015247.717133462,98142767.41423412,110377002.80422771,-39167478.86759858,55793491.06425655,94064688.95090298,49519524.19759308,88911073.31042951,49340268.00140275,126420432.36326668,179883592.87704834,90524379.0761428,63008552.96091923,102400102.0737556,30563181.450460155,35447912.79664818,-34462003.71760094,24692541.025225304,42573346.59521564,135293614.07469082,47458077.941403665,-40960040.82950183,-19135598.9433233,28188036.85093748,78066073.44091097,65831838.050917745,8335413.122853003,-122252725.80184044,-3674752.0219028867,22855165.014273733,84698552.69995539,-38988222.6714081,-54314627.44568569,-47368449.84330845,2464772.697618029,-38226383.837598965,97067230.23709191,24692541.025224924,140671299.96040195,6856549.504282001,29442830.22427032,-43200743.28188212,41452995.36902581,-81875267.609957,985909.0790469171,61529689.34234839,-50236548.98235455,-58392705.90901681,33027954.148077905,64666672.775680326,11472396.556184487,85953346.07328822,6363594.964758292,-16222685.755229576,-14699008.087611187,7932086.681424338,15864173.362849062,112079936.66803624,-2.1350570023059845e-07,22586280.71998773,57451610.87901701,99263118.64042407,93526920.36233175,-36747520.219028585,33476094.638553843,45620701.930452555,26216218.69284332,80037891.59900552,1165165.275237335,-23258491.455701858,101145308.70042278,169397105.3999109,8380227.171900379,-81606383.31567125,-52790949.77806726,-56824214.19235116,-44231466.40997705,89807354.29138148,14430123.79332585,26261032.741890997,91689544.35138044,-33610536.785696715,114544709.36565413,59916383.576634824,627396.6866662605,76945722.21472149,19583739.43379908,34327561.570458,68431052.89567834,34551631.81569599,49161011.80521199,114096568.87517792,44948491.1947383,116113201.08231992,46516982.91140394,1613305.7657134347, ],
[ -6318780.915711042,236438922.77511385,167066774.8494358,326559975.4098285,103206754.9566121,-316073487.93269044,-57182726.58473144,-311950595.4203119,-74525763.56615081,-134979915.73135683,9231694.103805173,-19718181.580941517,-78290143.68614946,138251341.31183153,98456465.75756732,58796032.35044494,92227312.93995157,-186560886.1851396,-145421589.15944704,94781713.73566411,-101010866.55328026,258308178.71033964,-95005783.98090203,-171817064.04848066,-112528077.15851238,-14206053.548087288,345068177.66648495,-47592520.08854627,-212866732.97607824,-204755390.09846377,153846630.3803957,-17477479.128562566,262699955.5170044,-99711259.13090006,-30832065.7447461,132694399.22993061,84340040.30757461,109391093.72518034,-185440534.95894992,116202829.18041527,62470784.372348376,105537085.50708677,-12996074.223803084,-179659522.63180974,226176505.54321405,-148334502.34754106,-329831400.99030274,-92003242.69471395,-50326177.08044947,410675945.4721644,289902083.28889513,-86715184.90709688,-53642416.70997237,23706631.94617825,193596691.88561264,108091486.30279975,289902083.28889453,-48668057.26568907,91241403.8609037,-190683778.69751868,-175043675.5799073,240472187.18939668,137579130.57611758,-39212292.91664539,206816836.35465282,-22407024.5237971,-56779400.143303216,246970224.3012988,84967436.99424095,-54493883.6418762,268256897.59890613,-301105595.55079335,26888429.428557158,-96753531.89375891,190638964.64847052,-144301237.933257,-66279978.541394025,34372375.61950564,147034894.92516068,-87342581.5937634,-79231238.71614908,138699481.80230805,80396403.99138616,96260577.35423493,74615391.66424634,102265659.92661323,241547724.3665396,-133142539.72040606,241099583.87606302,-95005783.98090218,432769271.6526293,113245101.9432738,-26619545.13427131,-109749606.11756098,43738511.87045289,171503365.70514745,137579130.5761182,-20076693.97332271,187322725.01894918,-36075309.483313955,-179659522.63180986,-213225245.36845878,492954.53952319175,125882663.77469566,125568965.43136245,293307951.01651245,-172534088.83324283,-152726279.1542053,366085966.6698075,-183020576.31037995,-49653966.344735906,111318097.83422685,269601319.0703343,67579585.96377383,68968821.48424992,-46875495.30378521,-144570122.22754312,-317283467.25697535,173699254.10848013,-163571279.02372324,113558800.28660667,-98322023.61042415,53956115.05330525,126061919.97088587,-3136983.433331671,256201918.40510362,330234727.43173045,-147527849.46468407, ],
[ -138789109.90040317,-266285079.44081175,-51894668.797115386,-417129168.5350181,133725122.35802457,-14385309.744278258,-13264958.518088471,-384818239.17170185,-152367766.7618248,195837394.33799192,16222685.755229287,-313250202.8426918,-56107189.40758942,-274261980.171283,-596295736.6273047,196912931.5151338,-53687230.75901925,-157028427.86277428,-262789583.61509925,182348365.57466525,-292322041.9374644,333058012.52172935,-228730906.33892715,-31952416.970935475,-204620947.95132056,-325394810.1345898,-161913159.2089621,-234601546.76416185,-269466876.9231908,230971608.79130647,190863034.89370808,208250885.9241763,-364920801.39456934,-272962372.7489033,-114455081.26755823,-32669441.75569749,-78155701.53900625,354075801.52505094,-133501052.11278659,180600617.66180974,251720513.50034347,378140945.8636101,81113428.77614798,-256739686.99367377,311771339.2241218,212642662.73084056,-76945722.21472074,518588175.5787746,339287165.3393449,-3047355.3352366034,63008552.960919425,111407725.93232219,411572226.4531166,49653966.344735734,139819833.02849764,-153398489.8899182,-180018035.02419087,415739933.01454306,2151074.354284641,282104438.7546131,170831154.96943387,230837166.6441638,196240720.7794201,-96753531.89375903,-258980389.446054,-309306566.52650404,9366136.250947196,120146465.49660306,-493716378.35735816,-98680536.00280502,-311681711.12602615,183110204.4084748,369895160.8388521,147707105.660874,-361873446.0593331,941095.0299995248,-65294069.462346405,-8156156.926662268,252258282.08891457,126285990.21612346,140178345.42087877,-53507974.5628287,-199960286.85037142,405970470.3221664,-109032581.33279964,44052210.21378598,6229152.817615338,-70716569.39710547,-192879667.10084987,-174147394.59895563,320554892.83744985,126151548.06898102,175447002.02133608,-130543324.87564524,147124523.02325666,-419056172.6440646,572992431.1225537,195254811.70037374,-104237478.08470696,17118966.736181304,-192386712.56132668,417891007.3688266,231957517.87035382,-8380227.17190018,-220395493.21607387,129422973.6494553,358377950.23362,107867416.05756225,239979232.64987332,397814313.3955041,-197137001.7603717,-317731607.74745154,28456921.145222854,34820516.10998186,-106522994.58613448,-129512601.74755052,-106030040.04661061,137399874.37992737,-42259648.25188236,-288602475.8665141,-201170266.17465594,-139864647.07754526,48399172.97140358,-442942060.7864327,-209640121.44465104,73315784.24186584,-247956133.38034496,171324109.508958, ],
[ -137623944.62516618,-82278594.05138475,353762103.1817183,-12951260.17475528,262610327.4189091,-6990991.65142486,-373749169.0569458,-67624400.01282132,486635758.6078383,157655824.54944,203007642.1856072,285151794.0898503,394901400.2074109,-75242788.35091242,217392951.9298852,175850328.46276453,190818220.84466097,99845701.27804226,60723036.45949156,131842932.29802556,176701795.39466885,-60319710.018063515,-4705475.1499973675,211343055.30846003,72105804.91758153,235004873.20559034,126958200.9518381,91286217.90995196,-71388780.13281916,-307065864.0741237,-113200287.89422607,-81113428.77614786,-54762767.93616166,-378544272.30503803,-156535473.32325077,-36702706.16998094,-51984296.895210735,198974377.77132368,63142995.10806216,-78559027.98043524,76273511.47900692,-21286673.29760812,7797644.53428141,-68879193.38615423,-142912002.4127819,-262520699.32081395,-249434996.9989158,124269358.00898196,-234198220.32273367,429677102.26834434,-209684935.49369907,-89090329.50662023,-59557871.18425482,-67489957.86567913,260324810.91748178,-259114831.5931966,-365368941.8850451,-510790531.0444926,418428775.95739883,-192431526.61037508,215241877.57560036,-462570614.2692798,-201663220.7141794,417801379.2707325,655853607.8115585,241234026.02320597,42573346.59521507,39705247.456169285,14878264.283801718,-72329875.16281846,-487980180.07926625,473370800.0897499,390733693.64598405,-212149708.19131675,-1165165.275236813,307872516.95698035,37554173.10188423,-75197974.30186507,415919189.21073234,342513776.8707721,-319165657.31697464,73181342.0947233,60319710.01806353,-153039977.49753845,-234377476.51892418,240517001.2384445,-177239563.9832397,-140984998.30373505,-158776175.77563024,231778261.67416352,-50012478.737116635,30383925.254269645,214390410.64369628,60454152.16520619,207399418.99227157,-286720285.8065154,74749833.81138897,-3988450.365235643,-309037682.2322179,69551404.12186778,-69685846.26901084,-147393407.31754187,-583658174.7958825,-216765555.24321917,-276637124.7708065,-330369169.5788736,-209729749.5427468,-135607312.4180235,17208594.834276967,-160882436.08086747,430349313.00405866,-71478408.23091449,106209296.24280147,209729749.54274675,527730241.5844837,-80172333.74614824,185754233.30228266,416232887.5540656,-70313242.95567738,-116247643.22946234,313070946.64650136,362500842.74599934,-281521856.11699456,-371732536.8498043,-74480949.5171033,-152457394.85991985,-217527394.0770279,-330413983.6279212, ],
[ 492954.5395235898,294831628.6841299,-329024748.1074454,185843861.40037823,-156893985.7156314,29756528.567602742,436309581.52738833,42707788.74235838,202738757.8913213,-281252971.8227087,-9455764.349043097,355375408.9474312,-160299853.44324863,40511900.339027084,96529461.64852072,41094482.97664498,169621175.64514846,-44097024.262834124,-38943408.62236033,110018490.41184638,71343966.0837721,-224563199.7775003,190370080.35418507,-54852396.0342572,351431772.63124275,-397948755.5426469,-469382349.7245142,-27963966.605699673,-74032809.02662759,89090329.50661936,227341670.81845072,167246031.04562613,-178135844.9641911,129871114.13993151,280849645.38127965,-218109976.7146465,80978986.62900506,-141164254.49992594,495733010.5644997,-185306092.81180686,-308410285.5455518,96395019.50137788,-328935120.00934994,84026341.96424142,-341976008.28220046,-201932105.0084644,-54807581.985208854,-147438221.366589,163660907.12181807,109928862.3137518,-181452084.59371376,-4615847.051902119,-183782415.14418817,41766693.71235802,-128078552.17802738,-144973448.66897058,291918715.49603635,128705948.8646942,-156311403.07801262,-389030759.78217524,-11875722.99761278,-304959603.7688864,121759771.26231626,287616566.7874667,62201900.07806268,332116917.4917298,-120953118.37945995,-277264521.45747197,383025677.20979744,32938326.04998198,674272181.9701196,348966999.9336253,-80396403.99138625,93661362.50947383,-88104420.42757215,382980863.16075003,-102086403.73042133,72509131.35900928,84877808.89614546,-235094501.30368528,-113513986.23755904,-165543097.1818168,357840181.6450487,35985681.38521894,454324829.24452204,-74525763.5661512,121759771.26231644,30876879.79379305,-44814.04904810281,96932788.08994882,88552560.91804878,-158328035.28515458,-154294770.87087017,-166797890.55515012,47368449.843308695,298730450.951271,-34417189.66855408,-55793491.064256296,22899979.06332096,7528760.239996007,14206053.548087794,-276144170.2312828,-426540118.8350128,57765309.22235025,53552788.61187647,-111318097.83422707,-191804129.92370805,108046672.25375217,-107105577.22375296,-132470328.98469251,-149947808.11325395,13623470.91046898,-92720267.47947557,189877125.81466165,-273007186.7979511,27022871.57569978,12234235.389993751,-79679379.20662455,-89852168.34042893,172713345.02943155,137220618.18373775,-26933243.47760483,39122664.8185508,220216237.01988378,-57048284.43758919,-40153387.94664566,-240248116.94415838,-198212538.93751442, ],
[ 304645905.4255529,-430663011.3473915,147931175.90611184,73674296.63424659,318762330.8755461,-170831154.96943322,386162660.6431291,-177418820.17943028,-724463916.9034268,-354972082.5060034,-81516755.2175758,28501735.19427097,16088243.608086895,101862333.48518418,-89628.09809540072,-21107417.101417195,-180331733.36752397,591366191.2320688,-34551631.815696545,-86446300.61281131,24737355.074272413,-24289214.58379682,-88462932.81995344,-47099565.54902277,-14206053.548087645,-432769271.65262884,152681465.10515752,89538469.9970957,-158686547.67753497,359005346.9202869,435144416.2521517,21645185.689988896,-108763697.03851457,94064688.95090269,-48623243.216640994,385580078.00551075,-187860493.60752028,-164512374.05372262,-444107226.0616704,407090821.5483565,-194537786.91561162,131081093.4642164,-64173718.236157335,259966298.52510086,237066319.46177974,24692541.025225446,267091732.32366872,-768605755.2153088,-76497581.72424488,-76497581.7242457,185171650.66466436,288557661.8174667,-77214606.50900732,30697623.59760269,87969978.28042954,302987785.6107922,205427600.83417705,371060326.11408955,-469427163.77356166,-215331505.6736961,111497354.03041732,579266397.989218,191669687.77656537,-296713818.7441293,-35761611.139981434,49698780.39378333,-45799958.12664274,-597236831.6573049,159672456.75658217,196868117.46608675,613101005.0201527,-406015284.3712143,-113245101.94327322,112393635.01136924,-157028427.86277422,-369984788.9369476,288557661.8174664,-591545447.428259,-427526027.9140599,-303884066.5917444,474580779.41403514,96932788.08994895,419280242.8893028,-45979214.32283276,330413983.6279212,41452995.369026035,58482334.007112026,25723264.153319754,-91017333.61566661,15371218.823325383,-174057766.5008609,-483991729.7140303,-146990080.87611288,67221073.5713931,22810350.96522637,586302203.6896905,84564110.55281256,-231330121.18368694,-54583511.739971206,-181048758.1522857,-82592292.39471796,557890096.5935153,681397615.7686881,39436363.16188368,244819149.94701323,-33341652.491410904,519125944.1673452,-319837868.05268776,-48757685.363783225,328173281.1755415,-113513986.23755944,160927250.12991506,55479792.720923476,-163660907.1218183,47144379.59807024,303973694.6898394,-184409811.83085537,-253289005.21700957,-193372621.64037424,-229896071.61416468,-122880122.48850706,-75466858.59615053,-120639420.03612664,67714028.11091642,74749833.8113894,6139524.719520241,452935593.7240465,-150351134.55468255, ],
[ -82233780.00233781,3316239.6295221876,97604998.82566223,122073469.60564958,204396877.70608243,-83578201.47376515,-62112271.979967155,-146810824.67992225,-122566424.14517355,-153129605.59563377,-263730678.6450988,110018490.41184668,217079253.5865521,17208594.83427709,90121052.63471435,156176960.9308702,-185395720.9099024,-132156630.64135888,2778471.0409507114,32848697.951887574,239262207.86511192,672210.7357135348,84743366.74900316,-212821918.9270306,43872954.017596185,81561569.26662344,-3271425.5804744493,-8021714.779519527,89896982.38947657,-48936941.55997406,50012478.7371163,175088489.62895548,98142767.41423367,106298924.34089604,28053594.70379486,-157252498.10801235,102176031.82851733,110377002.8042272,-202156175.25370234,-288154335.37603855,-114903221.75803465,16805268.39284797,-48981755.60902245,-233346753.3908294,-86715184.90709683,97291300.48232974,56286445.603779815,-14250867.59713543,90838077.4194762,-42304462.30093032,-131663676.10183537,-192745224.95370835,-119429440.71184207,-710213049.306292,46920309.35283233,-87611465.88804877,242175121.05320534,123193820.83183962,152143696.51658612,-74480949.51710367,-179928406.92609516,29980598.81284122,-6049896.621425194,42842230.88950161,120773862.18326946,-62470784.37234818,-461808775.4354708,-11696466.80142299,-46561796.96045178,83533387.42471823,227431298.91654664,-63008552.96091879,-81113428.77614766,-97829069.07090062,188711960.53942448,26753987.281414814,110959585.44184586,124851940.64660096,-62515598.42139557,106612622.68422942,70133986.75948685,-22541466.67094077,-13399400.665230919,20211136.12046549,170024502.08657685,-92496197.23423688,-52342809.28759132,-85953346.07328759,-431783362.5735817,97829069.07090095,122252725.8018399,57720495.173302986,169307477.301815,-139371692.5380215,-71702478.47615264,228058695.603213,-32669441.75569693,71119895.8385342,-179121754.04323846,-240785885.5327306,100428283.91566163,-279012269.3703288,102265659.92661256,43424813.52711977,-27336569.91903334,-226042063.39607108,-36657892.12093301,-73360598.29091334,-12189421.340945898,-5467313.983806349,-61843387.68568186,59333800.939016394,9814276.741423585,3316239.6295224354,117054296.11231926,50012478.73711634,-146048985.8461138,-92989151.77376069,-181407270.5446661,-246790968.10510734,163616093.07277003,-55121280.328542545,-2688842.942855519,-132963283.52421561,-38360825.984741375,-154608469.21420407,67848470.2580592,-311592083.0279308, ],
[ 77528304.85234015,330055471.2355399,-44321094.50807295,-117950577.09327151,227207228.67130825,-15684917.166658109,-79410494.91233861,49653966.34473567,-198839935.62418073,179659522.6318097,-464363176.2311835,-315625347.4422148,159762084.85467756,410944829.76645046,293532021.2617498,-301553736.04126966,42438904.44807259,-350221793.3069591,210312332.18036523,173609626.01038453,395170284.5016964,31773160.774744697,-133008097.57326293,-57272354.68282703,-35044586.35521899,202425059.5479877,270363157.90414274,33341652.491410982,3809194.1690456355,101503821.09280446,-180779873.85800028,19987065.875227608,260324810.9174818,24558098.87808225,-375676173.1659929,157476568.35325044,-98904606.24804316,127047829.0499331,-50460619.22759174,71612850.37805694,-29173945.929984972,241413282.21939716,338614954.6036308,247821691.23320246,-220933261.8046454,-117726506.84803313,347308880.1188646,-85818903.92614466,-284569211.4522304,104282292.13375401,-3898822.267141037,157162870.00991684,419235428.8402552,-145645659.40468457,98635721.95375712,215510761.86988655,4974359.44428289,67714028.11091675,34954958.25712404,103520453.29994516,-267226174.47081143,109167023.47994247,225773179.10178593,28546549.243319225,-24602912.927129667,109346279.67613307,-154966981.60658506,598222740.7363511,-175939956.56085992,-181317642.44657093,-139326878.48897418,55300536.52473318,-124179729.91088662,-132963283.52421498,305228488.06317276,315401277.19697726,266509149.6860501,225056154.3170246,-117592064.70089036,184140927.53656977,-10531301.526184969,67445143.81663063,-176925865.639907,-142419047.87325802,-215869274.2622675,-10307231.280947082,-461360634.9449952,63008552.960919656,-184185741.58561665,60006011.674730316,190863034.89370853,32669441.75569715,215286691.62464818,-131484419.90564515,98904606.24804302,1030723.1280948116,-276995637.1631869,-341931194.2331533,104775246.67327829,30966507.89188824,19762995.629989382,-216451856.89988562,83667829.57186069,-636583566.7210935,66235164.49234604,-29577272.371413015,-242264749.15130103,-142598304.06944814,-72778015.65329503,-169621175.64514852,251362001.107963,-98859792.19899583,-320554892.83744997,139192436.3418319,-49474710.14854548,274217166.12223697,227296856.7694039,150530390.75087285,46337726.715213664,-100876424.40613663,124134915.86183877,-90703635.27233277,-329383260.49982625,-72329875.16281971,-166529006.26086423,-37061218.5623618,397859127.44455194,-156983613.81372702, ],
[ -111049213.53994134,185126836.6156169,-148782642.83801654,-21197045.199512478,-13892355.20475424,20121508.022370584,-45351817.63616654,-157028427.8627744,-80037891.59900549,-133097725.67135836,6453223.062853843,89404027.84995295,3361053.6785695795,-111183655.68708462,-80306775.89329089,-179883592.877048,121087560.52660288,-130946651.31707376,-202156175.253703,-165139770.74038932,-21465929.49379836,12682375.88046952,131349977.75850213,-37374916.90569441,128750762.91374156,-54717953.88711364,-91106961.71376142,-143539399.09944808,-285331050.28604007,81875267.60995682,97829069.07090107,-42259648.251882605,25947334.398557886,25499193.908081986,-4167706.5614264645,178763241.6508584,71119895.83853395,144973448.66897148,132649585.18088208,-76542395.77329311,-144077167.68801904,-84922622.94519357,29666900.469508376,-91823986.49852294,107060763.17470515,-97067230.23709174,57227540.633779265,120101651.44755559,114455081.2675589,31907602.921887968,-202828385.98941675,32534999.60855435,-2195888.4033322707,-44679606.90045241,-10934627.96761329,-25409565.809986703,-191714501.82561332,18508202.25665688,63142995.10806212,-297475657.5779385,-105402643.35994467,283448860.2260412,79141610.6180536,78738284.17662495,-191131919.18799448,-58303077.81092145,-114589523.41470131,8156156.926662486,7394318.092853284,-178718427.60181066,-86670370.85804956,-259249273.74034017,-10576115.575232383,117681692.79898572,-43693697.82140551,9231694.10380427,-136727663.64421353,44321094.508071885,83354131.22852764,49071383.70711711,-21062603.05236976,-235139315.3527331,82861176.68900438,225145782.41511926,57496424.9280652,-43155929.232834086,22541466.670940384,-101369378.94566084,-85684461.77900244,-186560886.18513995,-75108346.20376995,-163078324.4841997,-112662519.30565493,-219230327.94083688,99442374.83661424,-119608696.90803203,-82188965.95329015,114589523.41470136,-55479792.72092311,-198346981.08465722,79634565.15757722,63053367.00996683,246835782.15415573,46561796.96045169,49429896.09949768,-22093326.180464543,-82816362.63995633,-56152003.45663715,85818903.92614534,44007396.16473872,-155863262.58753684,-67803656.20901175,46830681.254737444,19270041.09046592,-157521382.4022979,-118353903.53469928,-33655350.834744,149499667.6227787,-140671299.96040192,-59423429.03711176,175088489.6289555,-135562498.36897588,-185350906.86085477,-206054997.5208437,-31862788.87284014,57810123.27139818,21062603.052369934,12996074.223802775, ],
[ -363531565.8740935,171951506.19562376,78155701.53900626,304825161.6217444,90210680.73280984,-116337271.32755736,-161554646.81658083,25454379.85903391,60588594.31234901,163347208.7784854,18553016.305704437,-95946879.01090193,-41318553.22188253,230523468.30083075,131260349.660407,-215958902.3603618,-30249483.10712701,174729977.23657405,-346457413.1869598,-66817747.129964456,306752165.73079073,61440061.24425311,-77797189.1466255,6766921.406187102,403505697.6245489,5825826.376187506,281880368.5093752,-101951961.58327955,-270721670.2965237,108539626.79327638,-380336834.26694185,300343756.71698445,8469855.269995503,-389030759.7821756,-103386011.152803,418652846.2026364,-113872498.62994008,73091713.99662869,438371027.7835781,24244400.534749053,-262924025.76224232,194941113.3570402,-69372147.92567772,-63680763.69663302,771563482.4524499,54717953.88711382,-7080619.7495202245,282418137.09794617,-7573574.289043627,268749852.13842946,-49878036.589973785,-297296401.38174796,427750098.1592977,16536384.098562295,352193611.4650524,428422308.89501184,-166663448.408007,59333800.9390162,-214345596.59464866,-279550037.9589003,288781732.0627046,317283467.2569753,207713117.33560503,103610081.39804138,-156849171.66658387,-271483509.130333,-78379771.7842446,-314908322.6574527,-208385328.0713189,-87611465.88804883,-241054769.82701558,324050388.6631625,-290350223.77936995,-124941568.74469592,-218289232.91083705,80530846.13852927,-128212994.32517062,37643801.19998064,3629937.9728552983,-66907375.22805955,70716569.39710552,-74929090.00757931,-77842003.1956731,250913860.61748683,-101234936.79851824,-402609416.64359665,77259420.55805434,132291072.7885016,301284851.7469834,-188846402.6865668,-135472870.27088055,-184857952.3213305,-6856549.504281974,-242219935.1022532,343634128.09696114,-82905990.73805137,-295727909.66508114,-120953118.37946022,-269332434.77604836,-217124067.6355993,170472642.57705253,132380700.88659681,261086649.75129122,12234235.389992926,476462969.4740338,-121983841.50755426,-279998178.44937605,-159717270.80562976,141298696.6470685,104999316.9185164,243071402.03415713,-374152495.4983741,-144570122.22754243,35940867.33617186,-77304234.60710156,257456711.778436,-115844316.78803444,-206323881.815129,-127720039.78564665,251406815.1570104,-249166112.7046308,-308499913.64364624,-175895142.5118118,32893512.000934403,-212777104.8779827,14071611.400945028,75825370.9885317,197674770.34894264, ],
[ 125793035.67660022,191311175.38418493,-19449297.28665662,182348365.57466593,-109480721.8232758,-30025412.86188828,-86087788.22043106,89672912.14423858,25185495.56474833,107867416.05756295,3854008.218093372,121983841.50755368,-94826527.7847116,-51849854.74806716,108584440.84232426,300119686.4717461,41004854.87854986,32310929.363316543,-64128904.187108845,2823285.089998613,-70806197.49520035,72329875.16281916,-125927477.8237428,-62784482.71568064,-53328718.3666386,92854709.62661798,-85236321.2885261,148961899.0342072,27112499.673795134,-74436135.4680561,-61708945.53853921,-137534316.5270703,264985472.0184325,72553945.40805651,260952207.60414854,60678222.41044451,-115530618.44470064,212104894.14226863,-99173490.5423287,56600143.947113164,-187233096.9208537,124807126.59755309,-125613779.48040941,251406815.15701059,-59244172.84092048,-39660433.40712155,40153387.94664555,22048512.131416924,125210453.03898086,2061446.256189331,121983841.50755452,-117726506.84803292,49788408.49187878,585092224.3654053,295369397.27270144,-167201216.99657786,215017807.33036244,46920309.35283244,-136055452.9084998,177642890.424668,-157386940.25515446,-283045533.78461236,-8380227.1719003,204127993.41179672,-47682148.186641835,-286406587.46318275,48309544.873307966,47144379.5980702,-125568965.43136223,89045515.45757204,10307231.28094637,97739440.97280559,-44589978.802357264,50191734.93330654,-259070017.54414886,64935557.06996581,-17791177.471894696,-69775474.36710568,95274668.27518769,-15505660.970468106,-216093344.50750482,234601546.76416206,95185040.177092,6498037.111901615,126599688.55945678,-184678696.1251407,78245329.63710152,6184338.768568052,363441937.77599865,-238007414.4917791,61888201.7347286,-27202127.77189037,20569648.512846656,-46248098.61711839,90434750.97804736,-33027954.14807781,220395493.21607396,-304197764.9350777,-94557643.4904261,197316257.95656246,180779873.8580005,-23303305.50474904,80754916.38376728,253557889.5112951,-152054068.4184913,-51536156.40473492,-115037663.90517773,133994006.65231015,39660433.40712175,255619335.76748428,-54449069.59282858,-214704108.98702917,-170293386.3808629,322481896.9464966,188846402.68656725,272603860.35652304,63187809.15710983,49474710.148545675,75825370.98853156,-56913842.29044606,102086403.73042253,-42797416.840453684,-32579813.65760178,52611693.58187721,151561113.87896764,-207399418.99227127,-158507291.4813449,-177374006.13038236, ],
[ -241009955.77796805,526744332.5054362,92316941.03804676,-202962828.1365593,61843387.68568154,284524397.40318364,-68206982.65044025,11293140.359993905,327232186.1455418,-17611921.275704794,26261032.741891306,-165632725.27991283,-131081093.4642166,-342020822.33124775,62022643.8818726,33924235.12902936,88911073.31042919,51132829.96330689,18463388.207609314,397366172.9050282,-60812664.55758658,91555102.20423737,-163078324.48419943,74929090.00757973,-75914999.08662677,287033984.14984906,240292930.99320716,-254185286.1979615,216496670.9489333,-140805742.1075446,65607767.80567954,6766921.406186938,-525534353.1811515,124314172.05802958,-79186424.66710162,-26350660.839985307,-365861896.4245691,151337043.63372952,146048985.8461135,96484647.59947307,-191176733.23704243,295459025.37079626,-92989151.77376069,80844544.48186238,-150844089.09420577,-97515370.7275679,-282507765.19604206,-308903240.08507615,122880122.4885061,257277455.58224577,-58123821.61473153,-47278821.74521333,-134935101.68231004,-261803674.5360527,-13757913.057611369,-57675681.12425484,130408882.72850248,-294249046.0465121,40287830.09378791,1254793.3733323629,-266957290.1765256,-152098882.46753877,65742209.95282213,358064251.89028794,8514669.319043221,9231694.103804737,46875495.30378484,-31907602.921888284,-217885906.4694087,259742228.27986342,5198429.689520776,152815907.2523001,183827229.1932361,451232659.8602383,52790949.77806745,-173116671.47086123,-206010183.47179615,132784027.32802512,152681465.10515732,-126823758.80469513,-316880140.81554717,-144121981.73706695,456834415.9911879,-102041589.6813751,265030286.06747913,279998178.44937646,-228282765.84845114,196285534.82846817,-241592538.41558695,176522539.19847822,65787024.00186941,237693716.14844596,-142463861.9223058,-106119668.14470576,214614480.8889346,-198974377.7713234,313339830.94078684,-221067703.95178872,-172802973.12752822,46248098.6171181,-248000947.42939317,-133949192.6032625,129871114.13993172,-209774563.59179458,-372404747.58551764,-164064233.56324673,132918469.47516763,130901837.26802593,297161959.2346055,50953573.767115794,-238052228.54082683,43648883.77235797,-62425970.32330037,94333573.2451884,-71836920.62329525,9993532.937613934,-80037891.5990054,-30652809.548555303,-178808055.6999058,294966070.83127326,-1658119.8147611863,197629956.2998961,-87163325.39757326,-41856321.81045447,-48757685.36378363,-174147394.5989558,-50460619.227592066,18508202.256656725, ],
[ -23303305.504749488,57272354.68282667,118085019.24041395,5422499.934759071,166797890.55515006,59468243.08615909,-153577746.08610922,228417207.99559397,159269130.31515414,10800185.820470968,240561815.2874921,-115306548.19946322,78066073.44091105,-31638718.627602287,156669915.47039354,6094710.670472957,-140267973.51897347,-7483946.190947946,-141836465.2356393,27157313.722842943,-26216218.69284333,48847313.46187891,-40735970.58426431,-148379316.39658812,-33386466.540458843,362276772.50076133,17298222.93237217,232091960.0174968,114499895.31660604,112124750.71708348,-134576589.28992873,166887518.65324515,83354131.22852758,7887272.6323764,-46741053.156642094,213404501.56464964,9276508.15285212,44903677.14569053,-40153387.94664577,-48892127.51092612,9545392.447138151,-147303779.21944636,-150485576.7018252,82323408.10043292,-81516755.21757601,327635512.5869698,-114768779.61089185,60364524.06711067,-62694854.6175862,43424813.52712024,136145081.00659508,-143718655.29563823,144749378.4237332,-141791651.18659133,6587665.2099969,-103296383.0547073,42214834.202834725,-83264503.13043231,49519524.19759257,-112214378.81517872,-106254110.29184842,-49609152.29568804,-94154317.04899779,48040660.57902206,-252616794.48129532,297475657.5779381,142553490.02040136,61171176.94996787,-84832994.84709808,-127630411.68755174,-85012251.0432886,112124750.71708381,58616776.15425475,-56196817.50568494,49295453.95235467,-127585597.63850407,-135293614.0746904,326739231.6060177,-58034193.51663611,-90927705.51757109,-188308634.09799576,198212538.9375146,131574048.00374013,168680080.61514893,117143924.21041425,46024028.37188062,79320866.81424391,27515826.115223624,-114096568.87517792,-48578429.16759339,-102400102.07375547,182662063.91799876,253647517.60939014,200453241.38989443,39077850.76950289,21510743.54284569,-172578902.8822899,88373304.72185779,160927250.12991524,14564565.940468632,202514687.64608377,41184111.074740574,180062849.07323804,67310701.66948827,-7215061.896662692,135517684.31992862,-163840163.31800884,103161940.9075642,374286937.64551675,204889832.24560618,40511900.33902633,-19449297.286656328,107374461.51803854,-117995391.1423188,-83667829.57186055,-117457622.5537475,82905990.73805158,78648656.07853009,287616566.78746754,-141836465.2356394,-20659276.610941716,-70985453.69139136,127630411.68755157,142508675.9713536,6946177.60237713,174550721.04038447,143718655.29563835,-23124049.308559157, ],
[ -34820516.10998139,39705247.456169814,220126608.92178896,132963283.52421536,329293632.4017308,-23124049.308559433,-133366609.96564439,160479109.63943863,197854026.54513323,107060763.17470527,-31683532.676650587,421879457.7340639,-82368222.1494799,-228820534.43702167,69372147.92567728,-244415823.50558543,-212911547.02512562,172578902.8822893,-179345824.28847674,-131663676.10183513,12189421.340945741,278205616.4874726,-37643801.19998048,-166394564.11372194,-198795121.5751334,436488837.72357947,-141702023.08849627,242892145.8379676,-215286691.62464806,279639666.05699486,475432246.34593976,412916647.9245438,-108181114.40089492,237424831.85416046,-35447912.79664782,209191980.95417506,80575660.1875766,201663220.71417937,53507974.56282833,75197974.30186534,173609626.01038527,-452263382.9883326,-219633654.3822647,416098445.40692335,-347801834.65838814,-23258491.455702156,327142558.04744685,-75959813.13567437,-169845245.8903865,-202021733.10656047,171727435.9503865,114858407.70898739,170920783.06752855,-5960268.523329797,306707351.6817427,-558741563.5254194,211432683.40655527,-159582828.65848732,-34686073.96283858,248583530.06701174,-53956115.05330548,-281521856.1169939,19987065.87522777,102758614.46613559,-643081603.8329933,384101214.38693994,-44769234.99854817,381233115.24789476,133052911.6223108,-136638035.54611877,73719110.68329467,108136300.35184674,-511731626.0744916,-75735742.8904366,-131439605.85659648,62470784.37234798,-721058049.1758099,-146497126.33658957,-410810387.6193071,-23079235.259511348,-388268920.94836634,184723510.17418846,110063304.46089396,-63635949.64758583,57854937.320445575,-329159190.2545879,194806671.20989704,-27246941.820938386,-217213695.73369455,-336956834.7888695,335746855.4645853,-68879193.38615413,373390656.6645648,315356463.14792895,73136528.04567575,-224697641.92464313,-291649831.2017513,136324337.2027856,-5063987.5423777485,33520908.687601168,42438904.44807287,-304556277.3274591,-152950349.3994433,-173699254.1084798,398755408.4255039,141702023.08849669,-241771794.61177745,-185933489.49847347,185619791.15514034,103341197.10375462,-74122437.12472256,-401489065.4174069,-52522065.48378129,-167111588.89848304,-179390638.33752418,-412020366.94359237,117547250.65184255,142732746.21659097,189025658.8827573,-259607786.13272062,89404027.84995313,-421879457.7340632,-219140699.8427415,33565722.7366491,-240965141.72892037,122745680.34136398,246298013.56558514,-107464089.6161339, ],
[ 186247187.84180623,47951032.480927035,96843159.99185398,26440288.938081734,120101651.44755585,-149678923.81896904,101190122.74947037,143539399.09944817,-24199586.485701557,18553016.305704437,55255722.47568556,-142329419.77516294,-52746135.72901985,-422103527.97930086,-217885906.469409,179032125.9451434,118040205.19136643,293083880.7712743,80575660.1875763,102041589.68137427,-32355743.412363894,-82457850.2475757,-40511900.339026116,20211136.12046557,-9052437.90761395,-57048284.43758887,142822374.3146868,-23572189.799034886,-51222458.061401494,-16401941.951420099,169038593.00752985,-183558344.89895064,38943408.62236071,5467313.9838065095,-141074626.40183035,-46292912.66616607,40915226.78045487,61753759.58758648,-173833696.2556224,-72509131.35900964,-57093098.48663622,-117367994.4556529,216227786.65464783,-85774089.87709793,-166304936.01562628,-23751445.99522528,-136951733.8894517,46830681.254737645,-187905307.6565676,143584213.1484955,-175357373.92324066,52432437.38568652,149275597.3775403,36881962.36617116,205606857.03036794,-166394564.11372167,98187581.46328132,241368468.1703488,-131663676.10183549,106433366.48803882,-150171878.3584921,87521837.78995395,40153387.94664562,-159941341.05086827,-21734813.788083855,-118129833.2894613,31280206.235221513,189608241.5203763,91062147.6647143,-227565741.06368992,198929563.72227618,134890287.63326228,35447912.79664776,-133545866.16183473,-460733238.2583285,-66011094.24710811,48533615.118545584,56689772.045208395,-81427127.1194808,-15864173.362848738,18553016.305704437,33341652.491411142,181945039.1332373,169710803.7432439,173654440.05943206,-6229152.817615797,83488573.37567061,-141746837.13754427,-369671090.5936143,-123641961.32231583,169128221.105625,-251720513.50034338,125389709.23517211,-101593449.19089833,-444510552.5030992,163750535.21991384,192117828.26704115,-273455327.28842676,-231599005.4779729,-5915454.474282801,-5377685.88571107,29442830.224270057,-21152231.15046532,153846630.38039547,162092415.40515316,-106388552.43899143,65473325.65853637,-168993778.95848244,-126196362.1180287,178852869.7489534,-149230783.3284925,-24782169.12332035,-263372166.25271794,-145556031.30658972,39212292.91664624,50998387.81616333,-48847313.46187919,22720722.867130656,-124314172.05802944,-135876196.7123092,56376073.701874755,-278295244.58556765,-187367539.06799614,123283448.92993538,-394453259.71693474,114948035.8070829,-297520471.626986,16760454.34380081, ],
[ -239575906.20844448,21869255.93522633,88373304.72185794,25051053.417606264,226579831.9846425,196509605.07370588,146452312.28754133,325753322.52697104,184140927.53656948,-18821900.59999003,132739213.27897766,-92003242.6947134,-264313261.28271753,-28905061.63569886,-6184338.768568012,141791651.18659183,-124762312.54850559,301419293.89412653,-361963074.15742797,257098199.3860543,-61843387.68568146,16491570.049514728,-154474027.0670611,326828859.7041133,385938590.397892,-377423921.07884824,83623015.5228134,-54269813.396638,55031652.230447255,153801816.3313473,194672229.06275418,112528077.15851197,-33027954.148077764,-31504276.4804599,-156714729.5194417,9231694.103804955,2375144.5995223345,-7439132.14190104,-6990991.651424856,-339376793.43744045,-159179502.21705878,184992394.4684736,101055680.6023277,129691857.94374062,-85684461.77900186,150171878.35849243,180062849.0732385,-24602912.927129447,35223842.55141004,-197002559.61322987,-82995618.83614686,75735742.89043608,-139640576.83230728,-331175822.4617301,92720267.47947483,-8559483.368090415,112662519.30565453,-14878264.283801679,92720267.47947495,49653966.34473575,-57048284.43758884,16715640.294753881,-1075537.177141927,-421834643.6850157,-42618160.64426307,147841547.8080172,282821463.5393743,-319837868.05268806,79365680.8632913,-221695100.63845474,-43962582.115691505,188532704.34323397,108987767.28375185,16177871.706181701,241323654.1213014,-167783799.6341971,219185513.89178914,164019419.51419902,-372001421.14408916,77304234.60710256,-22720722.867130548,318896773.0226889,53059834.0723531,217392951.92988536,181093572.20133248,-50863945.669020966,163123138.5332475,129198903.40421756,-184678696.12514088,19718181.58094195,-105671527.65422983,-243922868.96606144,155459936.1461089,-35851239.23807628,-142060535.480878,159986155.0999158,-111945494.52089335,-235497827.74511376,-288557661.8174667,202828385.98941693,98546093.85566239,187681237.41132978,150306320.50563514,-25140681.51570087,-66638490.933773994,-314863508.60840464,151157787.43753937,85325949.38662137,45934400.27378516,145063076.7670662,-72285061.11377089,49071383.70711684,-197405886.05465773,-144211609.83516213,-257008571.28795934,54538697.69092375,78917540.37281543,-375765801.2640876,-445854973.97452646,-407673404.185975,46024028.371879846,143987539.58992395,-392302185.3626496,26261032.741891064,-111542168.07946505,-199870658.75227505,-209236795.00322273,228775720.38797453, ],
[ 248404273.87082124,139595762.78326,-128616320.76659898,438819168.274054,-127495969.5404092,38898594.57331298,-154877353.5084899,-31997231.019983195,141298696.64706808,-30518367.40141273,63635949.64758532,230478654.2517834,-58706404.2523503,3943636.316188307,235184129.40178046,14385309.744278058,144435680.08039984,-106298924.34089683,-49026569.65806964,-161016878.22801048,16133057.657134047,137399874.37992778,33252024.393315826,105805969.80137275,-74122437.12472302,105402643.35994416,-75646114.7923415,-97156858.33518697,-118085019.24041401,-151740370.0751579,-143136072.65801963,165274212.88753188,-5063987.542378337,-104461548.32994467,96887974.04090144,-93526920.36233191,2151074.3542846018,-166349750.06467438,63770391.79472811,-134038820.70135812,102982684.7113742,-3629937.9728552755,72240247.06472373,-3002541.286188728,162585369.944676,-67265887.6204408,-22541466.670940083,238948509.52177897,7259875.945710558,28053594.703793958,-20300764.218560793,44769234.998548105,25544007.95712908,85236321.28852642,-162585369.9446764,-15953801.460944192,101862333.48518482,-24334028.63284418,412737391.72835404,1792561.961904022,53507974.5628287,68117354.55234513,44141838.31188134,-187233096.920854,50639875.423782416,-127899295.9818375,-59737127.380444884,156445845.22515565,157386940.25515524,-167963055.83038783,-101414192.99470843,98456465.75756674,230657910.44797367,31504276.48045969,-141746837.13754448,52746135.72901973,12234235.389993383,82233780.00233765,280311876.7927091,-18104875.8152284,7618388.338091255,83219689.08138476,174819605.33466965,69416961.97472554,209371237.15036598,-66100722.34520328,132559957.08278753,-100159399.62137611,-19270041.090465993,-131977374.44516872,198391795.13370502,106612622.68422946,249659067.24415427,-126375618.31421949,51984296.89521057,118667601.87803292,21958884.033321936,-38898594.5733128,-80217147.79519586,182348365.57466602,-53956115.05330494,-158820989.82467827,-86625556.80900155,211611939.60274553,-27202127.771890584,121625329.11517417,93078779.87185591,30742437.646650884,20121508.022370677,-180062849.0732383,123238634.88088706,3898822.267140772,-83219689.08138473,149499667.62277853,-109391093.72518057,55210908.42663745,240517001.23844475,130050370.33612174,196106278.63227758,3898822.2671405068,260235182.8193867,93526920.36233178,109615163.97041853,267988013.3046206,-29577272.37141286,80351589.94233832,83354131.22852772,151785184.1242058, ],
[ -293666463.408893,270049459.56080997,142553490.02040163,-155415122.09706143,-150754460.99611077,-360484210.5388575,-694438504.0415382,-87432209.69185877,317238653.2079282,-265568054.6560504,-26081776.545700204,46965123.40187976,-92406569.13614124,20166322.07141623,-59244172.8409215,3405867.7276175283,434382577.41834205,227789811.30892769,-183379088.7027597,32624627.706649646,-234243034.37178183,44141838.31188131,-281477042.06794673,-316924954.8645954,-105985225.997563,213807828.00607762,229403117.07464036,-147393407.31754074,67624400.01282182,-744540610.87675,-399069106.76883596,-51849854.74806799,-276278612.37842596,-328935120.00934994,349459954.47314924,-243161030.13225302,-248673158.16510642,-460822866.35642266,56152003.456637055,465752411.75165886,34103491.32522038,-134128448.79945342,-258890761.34795925,56869028.24139815,239889604.55177763,14474937.842373492,233346753.39082906,-154249956.82182345,42797416.84045416,218513303.15607467,171010411.1656244,166170493.86848363,12637561.831421193,46830681.25473704,-110332188.75518012,249972765.58748576,-342558590.91981906,-211701567.70084062,134307704.99564308,113021031.69803548,-100921238.4551855,-134397333.0937392,-116516527.52374819,-550450964.451614,170114130.18467194,-25230309.613795765,59423429.03711138,175850328.46276426,-95050598.02994965,-434561833.6145326,-303570368.24841046,44141838.31188117,37016404.51331362,-257098199.38605493,-47009937.45092772,-18508202.256657194,135248800.02564248,-352641751.955528,422013899.8812058,-297341215.43079543,-91286217.90995228,39839689.603312,85953346.07328826,-284927723.8446111,180331733.3675245,63187809.157109626,21107417.101417962,-154518841.11610943,-74884275.9585322,169083407.05657774,177553262.3265732,-217168881.6846473,-168231940.12467346,40287830.09378846,485112080.94021976,-260683323.3098626,-511866068.22163427,403416069.5264545,-80261961.84424315,-120056837.3985084,288064707.2779437,-56465701.79997048,-263103281.95843276,338614954.60363173,-259025203.4951017,-183827229.19323653,179749150.7299049,-68565495.04282099,6184338.768568178,-269959831.462714,51401714.257591285,70268428.9066296,-273141628.9450932,120280907.64374578,-50281363.03140149,-608933298.4587274,-96260577.35423554,-54135371.249495156,-353448404.83838516,-216855183.34131423,223487662.6003584,-336419066.2002992,96170949.25614008,361066793.1764762,-339869747.97696364,61215990.99901556,-43962582.11569174,388941131.6840801, ],
[ -49250639.903307185,70985453.6913916,-347084809.87362623,147931175.9061127,-238724439.27654132,349056628.0317207,313698.3433331081,-69909916.51424918,-142732746.21659145,239441464.0613024,79186424.66710088,-219185513.89178944,-112079936.66803622,339242351.2902969,313743157.3822158,-60767850.50853897,-3361053.6785697187,3854008.218093197,60230081.919968486,74480949.51710375,142194977.62802047,167514915.33991173,332340987.7369673,158507291.48134482,-346457413.18696034,152098882.46753913,-78648656.07852964,-156221774.9799177,-149006713.08325416,-65652581.85472744,339690491.78077304,128840391.01183672,277981546.2422344,-75690928.84138854,217527394.07702848,107777787.9594671,255664149.81653187,-326425533.26268494,22989607.16141623,88911073.31042945,8962809.80951909,-319793054.00364083,-83264503.1304326,198929563.72227588,2151074.354284644,-8559483.368090829,-87073697.29947859,-321988942.4069732,-251944583.74558103,-20883346.856179178,-145152704.86516127,187098654.7737104,-172623716.93133757,-440746172.38310033,79231238.71614909,-89404027.84995267,-5736198.278091944,-51536156.404734455,-110377002.80422826,-6901363.553329536,378006503.7164669,-153174419.64468113,-27471012.066175926,-7663202.387138527,-218020348.61655143,5422499.934758535,-84250412.20947975,44814.04904742283,252213468.03986666,93437292.26423697,-12010165.144755065,-29532458.322365534,34820516.10998148,-60274895.96901557,37554173.101884656,168366382.27181572,121894213.40945987,128661134.81564659,-41811507.76140616,-96260577.3542352,3047355.335236557,-65204441.3642515,-167470101.29086348,24289214.583796628,158148779.08896485,79320866.8142442,120908304.33041231,-113648428.38470195,-360215326.2445715,-15953801.460944233,16312313.853324864,169710803.74324402,305855884.7498386,67848470.25805905,-134128448.79945306,52656507.6309251,3136983.4333319967,31056135.98998326,181228014.34847584,-16491570.049515318,96260577.35423504,94960969.93185434,-159045060.0699161,136996547.93849957,-132515143.03373961,55569420.81901811,-77573118.90138765,-72285061.1137714,-44186652.36092897,-181407270.54466602,-407225263.6954998,268256897.5989061,-83354131.22852752,162585369.9446768,-59602685.23330146,-251406815.15700975,159806898.90372485,287078798.1988961,133321795.9165964,-59064916.64473026,242264749.15130058,35268656.60045749,121983841.50755501,2823285.0899988553,-5243243.738568602,214390410.64369625,-59468243.086159326,-2733656.991903366, ],
[ 273141628.94509417,-408838569.4612127,-82592292.3947184,26216218.692843482,-213494129.66274473,-114679151.51279701,10172789.13380428,188711960.53942442,-241682166.5136813,-253244191.16796207,215914088.31131446,96663903.79566318,-97560184.77661513,504919890.61925733,-104506362.37899277,119474254.76089007,-13757913.057612134,261131463.80033734,66055908.29615565,-257008571.28795913,34596445.86474334,99397560.7875665,154877353.50848946,42707788.74235798,-311412826.83174,-87163325.39757338,111273283.78517929,-251854955.64748606,-159179502.2170586,-6722107.357139249,-154070700.62563333,-61126362.900920175,-14071611.400944963,401354623.27026427,-243026587.9851098,119429440.71184142,-71119895.83853398,-390599251.4988407,-20704090.65998875,245984315.22225058,-455669250.7159499,168859336.81134012,137803200.82135567,423268693.254538,231554191.42892557,232629728.60606778,188936030.78466165,-259876670.42700478,-311368012.78269213,148513758.54373124,-356047619.68314546,198884749.67322752,87297767.54471564,-285555120.5312774,36478635.92474239,139864647.0775452,76632023.87138872,-150754460.99611095,204531319.85322577,127227085.24612333,181183200.2994275,-83040432.88519417,-291470575.0055601,89807354.29138173,-189473799.37323326,20435206.365703233,204352063.65703484,-51580970.453782216,104954502.86946799,12592747.782374647,-218602931.25417003,157342126.2061075,177777332.57181102,198436609.1827528,-81651197.36471829,-154249956.82182336,-153936258.47849056,-259921484.4760529,-282328508.9998508,-194448158.8175163,-185440534.95894992,305138859.9650768,-229313488.97654548,-62425970.323299974,-197854026.5451338,-123821217.51850632,-313698.3433328321,232988240.99844882,-154787725.41039354,-56734586.094255865,-144525308.17849478,-21734813.7880833,197764398.44703788,391988487.01931643,292725368.3788929,-131708490.15088297,60319710.018064074,-67803656.20901185,-314012041.6765005,151337043.6337296,-440701358.33405364,248762786.26320162,333506153.01220495,72912457.80043778,-191311175.38418493,54359441.494733684,453204478.01833224,-33744978.932838835,34641259.913791455,-75690928.84138851,-106657436.73327714,60723036.45949163,-440298031.8926243,-32490185.559506692,-128930019.10993215,-304466649.22936285,160972064.17896226,86670370.85804853,-37330102.85664676,-96843159.99185298,219678468.43131208,227700183.21083218,-4078078.4633309687,-156759543.56848872,170696712.82229117,-165767167.4270555,181452084.59371382,62246714.12710968, ],
[ -246298013.56558385,7439132.141901065,94916155.88280687,-261982930.73224282,148827456.8870644,-8111342.877614354,-249524625.09701133,82816362.63995644,-102400102.07375558,-133276981.86754882,73181342.09472342,-126241176.16707629,63322251.304252535,173744068.15752706,-143897911.49182874,69909916.51424886,-32310929.36331638,73584668.53615212,-19718181.58094183,91286217.90995173,20524834.46379876,212911547.02512598,-80889358.5309096,63232623.20615736,-87656279.9370968,7394318.092853638,186740142.38133022,95274668.27518795,35358284.698552884,-9410950.299995068,-211432683.40655488,81382313.07043341,18328946.060466185,-14474937.842373509,146317870.14039913,-308544727.6926946,37688615.24902735,-103161940.9075649,-92003242.69471316,-6811735.455234467,-15416032.872372655,-152771093.20325312,76676837.9204356,21734813.788084004,-104371920.23184977,-34641259.91379133,-39257106.965693474,81651197.36471881,-398172825.7878853,-17253408.88332451,67714028.11091651,-96574275.69756807,97784255.02185313,73898366.87948495,-47458077.94140357,87925164.23138192,114858407.70898682,-83667829.57186079,102265659.92661263,-18597830.35475194,16581198.14761044,-195971836.4851347,-162809440.1899138,-199825844.70322794,73181342.0947231,-307245120.2703146,-34372375.61950587,-259966298.52510107,196061464.58323005,57944565.418541044,81651197.3647188,-149499667.62277782,130812209.16993114,-96843159.9918535,-29711714.518556196,-71030267.74043857,-67310701.6694886,183155018.45752233,9635020.545233067,-80934172.57995725,-7349504.043805685,42438904.44807269,-160389481.54134327,-36433821.87569516,26619545.134271763,120773862.1832696,-115978758.93517675,-183065390.3594272,133680308.30897678,-15191962.62713485,-239172579.76701686,-115799502.73898645,26395474.88903392,9903904.83951867,66011094.24710763,211298241.25941247,-97201672.38423401,32221301.265220903,-114723965.56184421,-221695100.63845438,-3674752.0219027735,-211477497.4556026,-15595289.068563273,-213045989.1722686,23796260.0442731,-112438449.06041686,-118264275.43660396,196509605.07370576,241502910.3174917,136548407.44802365,-5512128.032854312,177194749.9341923,108808511.08756162,124045287.76374435,19359669.188561548,54359441.49473329,81696011.41376646,-154205142.77277544,62201900.07806263,-78245329.6371011,21152231.150464773,36881962.3661708,-23885888.142368414,20659276.610941656,3361053.678569354,-207489047.09036654,131977374.4451684,89672912.14423834, ],
[ 164288303.80848444,-154698097.3122995,111766238.32470267,82502664.29662296,8693925.515232883,-22451838.572844937,-12144607.291897928,-12144607.291898757,113782870.53184433,27605454.213318802,-366489293.1112342,-183065390.3594266,32669441.75569673,-81203056.87424265,360080884.0974284,105716341.70327762,-192207456.36513653,99487188.8856616,177105121.8360972,229134232.78035468,218065162.66559854,496405221.3002139,-117367994.45565203,92675453.43042749,-125434523.28421953,113872498.62993993,-43917768.066643685,27963966.60569946,-74705019.76234107,41632251.565215915,-52297995.23854366,251182744.91177222,437026606.31214976,182617249.8689516,433396668.3392953,-99532002.93470982,480765118.1826036,79679379.20662467,-208474956.169414,-148334502.34754062,11024256.065709004,155235865.90086994,295234955.1255587,-42304462.300930224,-255933034.11081755,-112483263.10946411,-239934418.6008256,-20524834.46379836,-113424358.13946308,563088526.2830353,146497126.33658922,-290170967.5831801,467500159.6645149,-125658593.52945733,62022643.881871715,-35627168.9928384,305004417.8179339,242444005.34749135,279639666.0569955,163123138.5332474,34775702.06093409,-101951961.58327976,21062603.05236959,-218468489.10702768,117457622.55374713,-19538925.38475173,241458096.2684439,-272514232.25842756,226400575.78845188,431828176.6226292,180779873.85799965,-258577063.00462586,-263192910.05652776,201932105.00846493,316028673.883643,-350401049.5031483,292501298.1336547,75825370.98853146,-150485576.701825,-277309335.5065203,130453696.7775504,-9321322.201899786,60947106.70472948,-69506590.07282059,414933280.13168544,-331534334.85411036,-165946423.62324575,51132829.96330656,314056855.72554845,-237648902.0993985,-210133075.98417497,-5601756.130949153,-171996320.24467126,-119339812.61374612,175178117.72705054,64173718.23615614,-235184129.40178052,-146945266.82706454,-229716815.4179736,-50415805.178544536,-164646816.20086524,-324095202.71220964,-258935575.39700615,49295453.95235526,182213923.42752266,-214255968.4965533,44231466.40997681,-303211855.85603,-366130780.7188544,-276861195.0160442,159538014.60943928,305676628.5536481,-146721196.58182707,-274306794.22033113,-488562762.716885,300747083.1584124,442449106.2469089,91599916.25328517,77976445.3428162,-193820762.13084984,615655405.8158653,50281363.031402364,-278474500.7817571,253109749.02081883,113603614.33565499,-368640367.4655195,21869255.935226165,62560412.47044356, ],
[ 218154790.76369476,241458096.26844406,45396631.685214005,-128033738.12898019,-60050825.72377773,-33252024.393315684,53463160.51378142,-43738511.870453395,-43693697.82140567,-33072768.197125696,896280.9809517006,183558344.898951,74615391.66424668,-60409338.11615891,-8290599.073805103,60902292.65568219,-37374916.90569466,-9545392.447137931,67669214.06186914,63411879.40234755,98725350.05185272,-169083407.05657786,-21779627.837131325,221022889.90274066,115933944.88612956,-9635020.545233158,257501525.82748327,208430142.12036628,33565722.736649,57317168.73187453,37778243.34712317,34865330.1590292,56869028.241398364,18866714.649037644,-79724193.25567217,156132146.8818224,107060763.17470542,-19942251.826179985,-178225473.06228706,125882663.77469563,144121981.7370671,-12054979.193803009,-12323863.488088796,47502891.990450926,-24423656.73093939,129154089.3551701,54045743.15140029,-28815433.537603922,206279067.76608205,249793509.39129668,194627415.01370695,-181631340.789904,106209296.24280086,200005100.8994181,110645887.09851275,49429896.099497736,-60633408.36139676,115440990.34660597,88328490.67281082,-71075081.78948641,64487416.57948978,58975288.54663587,-127944110.03088467,81920081.65900439,39750061.50521723,20524834.463798776,-40960040.8295024,-13489028.763326313,-103161940.90756479,147662291.6118269,-112841775.50184536,58392705.90901673,79679379.20662482,-189832311.76561406,-78021259.39186351,121222002.6737457,-92809895.57757002,137982457.01754606,-146183427.99325624,56958656.33949386,43783325.919500984,226086877.44511873,126599688.55945727,109839234.21565643,130901837.26802623,14654194.038563805,-41452995.36902573,71119895.83853395,8514669.319042712,39705247.456169896,-21914069.984274067,-144704564.37468562,86446300.61281139,-4839917.297140321,213673385.85893497,-63053367.009966865,-76811280.06757832,216899997.39036214,13892355.204754736,-42707788.74235852,166663448.4080072,100249027.7194712,-57093098.48663644,-115396176.2975581,-41139297.0256929,129064461.25707479,-8066528.828566771,-86267044.41662136,-37464545.00379006,-31997231.01998315,141388324.7451636,145466403.20849505,-50415805.1785447,-57586053.02616035,-32131673.16712604,46785867.20568953,-27515826.115223706,101862333.4851845,127720039.78564681,-156266589.0289653,51939482.846163094,-120325721.6927937,-26529917.03617641,7483946.19094832,84071156.0132891,-102444916.12280303,6498037.11190141,264671773.67509848, ],
[ -37643801.199980415,-21555557.591893565,11696466.801422447,97649812.87471034,46696239.1075947,50236548.98235448,20793718.758084465,-56510515.84901789,-49878036.58997365,-53687230.75901945,58751218.301397964,-50774317.57092569,-31414648.382364254,168007869.879435,-112617705.2566074,257277455.58224532,5198429.689521156,40825598.68235943,-73853552.83043723,-16894896.490943443,7618388.338091015,-2106260.305237176,-46382540.76426115,203052456.23465493,48623243.21664125,54135371.24949508,17567107.226657234,-58840846.39949268,170786340.9203861,-66638490.93377433,36209751.63045723,-20883346.856179528,16088243.608086701,52342809.2875915,-35447912.79664787,-155325493.9989658,10620929.62428016,-47144379.5980701,68475866.94472593,-97336114.53137742,-43111115.18378682,-105357829.31089689,73629482.58519919,-7887272.632377095,-27695082.31141412,58437519.958064474,8693925.515233297,48712871.314736396,45531073.83235706,20211136.12046555,-217124067.63559994,-2868099.139046101,41856321.81045403,-235184129.40178084,177060307.7870495,156759543.56848863,-127764853.83469465,127003015.00088547,120056837.39850812,-14116425.449993018,-57451610.87901744,18015247.717133425,314549810.2650723,-105581899.55613469,-38316011.93569405,17029338.638086423,-53283904.31759092,-74794647.86043687,-15012706.430944413,-25588822.006177068,985909.0790472995,77169792.45995927,-59513057.13520674,-49698780.393783264,125882663.77469562,-92451383.1851894,-26081776.54570064,-38719338.37712239,170696712.8222911,174281836.7460986,119384626.66279419,28501735.194270495,277443777.6536634,-25947334.39855754,-5556942.081901874,173340741.71609926,66459234.73758411,49385082.05045015,167918241.7813401,-113021031.69803551,-36164937.58140967,82099337.85519476,-23258491.455702238,-43290371.37997708,36747520.219028145,26395474.889033657,4033264.414283704,73808738.78138983,-22496652.621892747,192924481.14989817,22227768.327607464,20211136.120465644,14654194.038563754,31773160.774745375,-59109730.69377833,-49653966.34473577,123776403.46945836,-45217375.48902374,-16312313.85332463,81830453.56090951,12189421.340945855,7125433.798567644,-20480020.414750747,203097270.28370228,110108118.50994204,75332416.44900775,-37957499.54331347,-11786094.899517598,35179028.5023624,42662974.693310834,-118398717.5837473,137444688.4289751,-43783325.91950069,68879193.38615409,80799730.43281452,154653283.263252,-44410722.60616723,-119832767.1532705, ],
[ 218827001.49940807,74167251.17376992,89941796.43852425,-9007623.858566878,-29442830.22427025,14833450.234754074,32266115.314268894,18508202.25665675,42394090.39902523,35268656.60045764,46472168.862356424,23348119.5537971,180510989.5637146,-28008780.654747143,107105577.2237529,61933015.78377659,-21869255.935226332,6811735.455234738,-27022871.575699944,30473553.352364946,-1165165.2752374988,11248326.310946405,-112348820.96232183,16267499.804277232,41990763.95759699,-78021259.39186381,-34193119.42331539,39750061.50521693,260279996.8684342,244819149.94701388,7259875.945710588,165453469.08372238,129109275.30612229,55659048.91711348,10844999.869518068,4078078.4633310474,195747766.2398969,-9769462.692375839,120549791.93803188,-13399400.665230742,99666445.08185247,42035578.006644525,-83891899.8170984,40153387.946645565,42662974.693311036,159896527.00182056,-101279750.84756549,-32624627.706649635,118577973.77993731,30876879.793793432,58079007.565683536,98187581.46328212,50012478.73711665,31369834.33331662,-39615619.358074464,32624627.706649736,-33162396.295220874,53597602.66092431,-25633636.0552245,110377002.80422759,-97156858.33518678,22227768.327607524,-59288986.88996856,74794647.86043654,-74705019.7623417,54986838.18139964,37106032.61140925,53642416.70997179,14385309.74427824,-171144853.3127673,115440990.34660584,-17074152.68713398,7842458.583329173,-3674752.0219028667,88597374.96709621,-7663202.387138867,72912457.80043791,272110905.8169994,-60498966.21425386,-55390164.622828014,23706631.946178257,174102580.5499082,48085474.62806985,117099110.16136678,102489730.17185056,28546549.243318364,42349276.34997764,11741280.850470025,81920081.65900429,-35313470.64950507,-22765536.916178484,-76228697.42996004,-13802727.1066597,85505205.58281216,103161940.90756473,37285288.80759919,-78424585.83329214,155863262.58753696,7528760.23999604,55255722.47568523,-41408181.31997847,-50326177.080449514,-8021714.779519583,-2464772.69761784,78424585.83329211,81830453.56090932,49161011.805212475,35851239.23807604,-128481878.61945646,103789337.59423102,-29308388.077127375,-90614007.17423792,-1837376.0109514985,160658365.8356294,62874110.8137763,-120997932.42850795,-81113428.7761478,-6722107.357139142,-116740597.76898636,-60140453.821873076,19135598.94332323,21779627.83713136,68072540.50329734,-54673139.83806649,32983140.099030137,63456693.45139541,82681920.49281365,56331259.65282749, ],
[ -66235164.49234657,-2688842.9428555556,-115127292.00327235,91555102.20423724,133276981.86754939,-37285288.80759964,212553034.63274503,-85415577.48471688,-72419503.26091428,-64666672.77568031,213180431.31941146,70671755.34805776,-188084563.85275766,420983176.7531112,-46203284.56807127,537768.5885713664,-7887272.632377077,208609398.31655696,-61798573.6366341,-115037663.90517738,73181342.09472328,22989607.161416557,74973904.05662695,11606838.703327011,24871797.221415557,-65607767.805679604,180779873.85799998,-21465929.493798,-58930474.497587696,-45889586.224737845,-7394318.092853363,460688424.2092808,-164153861.66134182,34282747.52141065,-94019874.90185505,-24199586.485701744,-154160328.7237282,17791177.471895717,-38450454.08283718,-98635721.9537577,183334274.65371287,62291528.17615755,93437292.26423651,-24602912.9271302,14564565.940468295,11741280.850470109,17611921.275704917,60767850.5085397,167380473.19276893,-25051053.41760608,55793491.06425643,8021714.779519295,36568264.02283786,136189895.05564263,51222458.06140179,79186424.66710104,-12413491.586183868,-99935329.37613776,14295681.646182625,27605454.213318713,52611693.581876725,14071611.400944903,85460391.53376433,-108494812.7442287,54673139.838066496,20569648.512845993,-88955887.35947707,32848697.951887313,111273283.78517933,-8066528.828567114,66593676.88472695,183827229.1932362,284210699.05985004,247956133.3803454,129960742.2380268,48399172.97140281,49161011.80521222,-22451838.57284504,112483263.10946447,-74167251.17377038,-106612622.68422951,100024957.47423293,117323180.40660462,-112886589.55089276,58840846.39949287,79993077.54995789,-186247187.84180674,411303342.15883076,-158507291.4813448,-90479565.02709523,44321094.508071765,49250639.90330736,173206299.5689564,422954994.9112054,120729048.1342219,69058449.58234464,45934400.2737853,-102086403.73042223,-136010638.85945216,-147707105.6608747,32534999.608554654,-17925619.619038414,-86267044.416621,63501507.500442915,12323863.488088733,-232405658.36083013,32221301.265220694,-5422499.934758868,56152003.45663735,10800185.820470808,58571962.10520706,-88552560.91804859,24065144.338559072,289140244.45508564,-102444916.12280275,61036734.80282507,51267272.110448964,24647726.97617722,-30832065.744745735,-36344193.77760013,-6498037.111901391,96484647.59947273,29263574.028079897,-63098181.05901447,116740597.76898612,98456465.75756697,-84429668.40566988,24154772.43665386, ],
])

weights_dense1_b = np.array([ 6999736781.312267,11122869405.920864,28785218928.08141,3653287279.0136633,16761013553.06006,20701961247.74409,12292688429.647024,7479170807.429546,2013622909.6925702,28766041.567036714,12896775302.554794,3327272141.2539134,10700967462.937658,-10221533436.82038,-1745139855.066894,4142309985.6532874,18352734519.769424,21689595341.545685,14565205713.442924,1927324784.9914598,10384541005.700254,15409009599.409334,3902592972.594648,20193761180.059776,11659835515.172215,2694419226.7791057,-6769608448.775973,19196538405.735832,1956090826.5584967,10518782533.013092,19100651600.51238,10442073088.834328,4324494915.577853,33090536482.61457,2119098395.4383717,-10844797670.772842,2962902281.404782,11420118502.113575,20500598956.77483,-815037844.3993737,2790306032.0025616,7709299139.965839,16808956955.67179,10566725935.62482,124652846.79049243,14785745365.456873,-1888970062.9020774,21008799024.45915,3384804224.3879867,10729733504.504694,18832168545.886703,12331043151.736404,6558657477.284371,9790042813.314829,10288654200.476799,13759756549.565895,4698453455.94933,11679012876.216908,-3288917419.1645308,5666910188.706233,8955827607.870764,19608851668.196693,-326015137.7597494,-584909511.8630799,2886192837.226017,9579091841.823227,3940947694.68403,-2541000338.4215765,5484725258.781667,14392609464.040705,28401671707.187584,12868009260.987759,5283362967.81241,-6184698936.912894,-1754728535.5892396,-1773905896.6339307,27509924418.609444,11985850652.931965,-14296722658.81725,10403718366.744946,19925278125.4341,15658315292.990318,16425409734.777966,6980559420.267576,18093840145.666096,5983336645.943637,-2071154992.8266437,546554789.7736976,-345192498.80444056,4123132624.6085954,4640921372.815257,1562954925.142328,21267693398.562477,3106732489.239965,19551319585.062622,18045896743.054367,2828660754.0919437,1735551174.5445487,7153155669.669797,1256117148.42727,-11496827946.292341,17652760841.6382,11554360029.426414,1888970062.9020774,8380506776.53003,-10883152392.862225,9310608787.197552,5887449840.720181,-3394392904.9103327,14172069812.026754,11324231696.89012,4871049705.35155,11142046766.965555,-38354722.08938229,18688338338.051517,4554623248.114146,2195807839.617136,12033794055.543694,-786271802.8323369,5638144147.139196,3519045751.700825,8169555805.038427,5734030952.362652,6050457409.600057,17950009937.83091,15265179391.574152,1169819023.7261598,-1112286940.5920863, ])

weights_dense2_w = np.array([
[ -643882306.4110329,6825635964.081879,1454577675.9347816,3640876420.982509,-7004536930.318735,-1443295633.0189667,-3173477500.183519,-5031791140.4636755,-390036340.8046832,1939705521.315837,-2612598795.2247267,700292520.9902177,1903441811.9435015,3886663784.506126,-1901830091.5269575,-1266812247.4069211,-1467471439.2671933,2048496649.4328396,-6284903764.329937,-3004246856.445949,-2552965139.8124323,-74944999.36948869,200659191.86026487,-2148423315.258829,-4255747759.8956695,-692233918.9074613,-7693547408.393109,-1887324607.7780144,1183808645.95469,-3247616639.344749,563296285.583617,1682636114.876386,-1544834019.2615013,1389302999.0646036,-2976847609.3646317,8066660684.824031,-400512523.51224005,-174871665.19548574,-3505491905.992473,-265933868.7304582,-1033918647.2156942,-4197725824.899936,-3021169920.819711,-1598020793.0075932,174871665.19548202,4158238674.694527,-1448130794.2686186,-1502929288.4312446,718021445.5722461,-2146005734.6340103,-3646517442.44044,2678679332.3031955,-408571125.5949836,-2879338524.1634603,-643076446.2027509,2615016375.8495464,3665858087.4390135,-2308789496.70539,-805860208.2741362,-2017068101.310143,-701098381.1984972,2487690462.9422464,-2907543631.4530444,-419047308.30255157, ],
[ 1407031923.6466267,644688166.6193014,-26593386.87305737,835677035.9802681,-706739402.6564075,606006876.6221466,-4520069908.209587,794578165.3582917,-2934942878.534383,626153381.8290025,482710264.7562087,-1533551976.345668,3362854649.127935,4939923076.72042,80586020.82741041,1947764123.3985817,-2688349654.8024898,233699460.39949006,-4424978403.633248,780072681.6093571,2926078416.243358,-4363733027.804417,-4306516953.016947,-498021608.7134123,-3236334596.428903,2653697665.8467155,337655427.26686096,924321658.890427,-2210474551.295935,1165273861.1643848,733332789.5294533,1643148964.670946,-1416702246.1459134,-2793917342.086397,975896712.2199662,-1293405634.2799737,3691645614.1037884,2058166971.9321156,-161172041.65483782,651940908.4937721,1652819287.1702433,15311343.957217293,1949375843.815121,-311867900.6020858,3588495507.4446945,-560072844.7505149,2784247019.587126,-5604757748.54657,-4600655929.03701,-1913917994.6510615,-1732599447.7893822,2440144710.6540704,-2927690136.6599045,1899412510.9021173,2306371916.080554,2143588154.0091794,-593918973.4980388,2132306111.093352,-4877065980.4750395,3943879859.2935953,-4174355878.8599935,4363733027.804407,2906737771.244796,-7222925046.761022, ],
[ 1103222625.1272824,871940745.3525996,865493863.6864277,1154797678.4568312,431941071.6349261,-2770547396.046456,-258681126.85599762,219999836.858837,2642415622.9308796,-1303881816.9875257,-1773698318.4113593,-4949593399.219711,-752673434.528037,4007542815.747248,884028648.476717,298168277.0614275,-8008638749.828302,-2344247345.8694444,-830841874.7306392,-7127833542.1846895,2372452453.159036,2099265842.5541136,-2442562291.2788773,-3951132601.16806,-2128276810.0519817,-132161074.15695831,-1941317241.7323766,-307032739.35245055,114432149.57492994,1170914882.6223114,-3161389597.0594144,-1200731710.3284562,-405347684.7618935,-1314357999.6951115,1719705684.4569986,-2429668527.9464917,3592524808.4860716,-642270585.9944897,-2621463257.5157404,-2985712071.655646,565713866.2084411,-365054674.34818506,327985104.76757085,543149780.3767552,-6474280913.274364,149084138.53071594,324761663.934473,-2440950570.862343,-1350621709.067449,5972230003.519575,-3316114757.048046,-3411206261.6243925,-4495088241.753096,-3461975454.7456694,3035675404.568653,1425566708.4369357,2807616965.6270595,-6147907528.923332,-3544173195.9896264,4180802760.5261774,4377432651.345055,4517652327.584776,-1421537407.3955686,1506958589.4726217, ],
[ -1782562780.7023807,2336994603.994979,-6050398443.722171,678534295.3668325,968643970.3454787,1905053532.3600447,131355213.94868001,-2727030944.799666,-4596626627.995647,2908349491.661335,-337655427.2668585,5178457698.369563,1962269607.147504,-331208545.6006703,-7037577198.857962,-1444907353.43551,-1122563270.1258554,522197414.96163964,-4030912761.7872033,2045273208.5997543,5633768716.044431,-4626443455.701788,-1920364876.3172417,-888863809.7263483,169230643.73756006,2077507616.9307091,6539555590.14456,3499045024.326269,-3832671150.5517535,1393332300.1059713,-1687471276.12602,-996849077.6350996,1309522838.4454572,1164468000.9561298,-1967910628.6054363,-95091504.57634798,3441828949.538804,1452160095.3099926,-6471057472.441269,3665858087.4390135,-1982416112.3543773,2245932400.460008,-1284541171.9889638,-627765102.2455591,-2752012611.2561584,-848570799.3126653,-3472451637.4532256,1255530204.491086,-2411133743.156196,704321822.0315887,2402269280.8651857,-2187910465.4642525,-2936554598.950926,-896116551.6008326,-3231499435.179266,2895455728.3289466,199853331.65197662,1513405471.1388142,-1523881653.8463805,602783435.7890478,-4188055502.400649,-4761022110.483555,2784247019.5871277,-1090328861.7948909, ],
[ -3223440833.096519,1523075793.6380992,3011499598.3204136,5780435273.950329,-1699559179.2501352,-1982416112.3543618,1240218860.5338914,4200949265.733042,1622196599.2558193,-3487762981.4104433,2230621056.502794,-1486812084.2657728,-641464725.7862076,2194357347.130452,-484321985.1727628,363442953.9316337,-1492453105.7236826,-6915086447.200314,2523148312.106298,-5570911619.79906,2207251110.4628406,-4542633994.041266,-3075968414.9823546,-1054871012.6308442,-3919704053.045362,-458534458.50797683,1403002622.6052537,-1765639716.328615,-4093769858.0325785,90256343.32669966,-1821244070.699544,-542343920.1684947,-1483588643.4326618,-3889081365.130948,1669742351.5440016,222417417.48365822,301391717.89451873,871134885.1443297,-597142414.331132,2340218044.828071,-992819776.5937322,1693112297.5839448,197435751.0271603,-1268423967.8234806,-5809446241.448198,-2772159116.4629984,3677140130.3548474,1307911118.0289156,-3692451474.3120584,3034063684.152106,1037947948.2570851,-2815675567.7098045,-2186298745.047712,714798004.7391521,1695529878.208768,6158383711.630901,-2540071376.480049,-2846298255.6242285,-1352233429.483992,-2366811431.7011137,-3179118521.641437,218388116.44229013,-5402486836.269768,702710101.6150421, ],
[ 1345786547.817801,-2178240142.964972,-925933379.3069713,-2351500087.743905,210329514.3595479,-132966934.36522824,1835749554.4484718,-3468422336.41185,2279778529.207521,-424688329.7604596,-462563759.5493565,-493186447.4637629,-4102634320.323602,475457522.8817416,-1146739076.3740842,1286152892.4055152,1278094290.3227792,-1104834345.5438411,-3482927820.160788,-3991425611.581772,435970372.6763076,-6249445915.165871,865493863.6864152,-1197508269.495354,-2076701756.722423,3759337871.598813,-2218533153.3786793,-1342563106.984709,13699623.540661303,-2497360785.4415407,463369619.757619,718827305.7805225,-290109674.97868156,-2670620730.220465,2444174011.6954317,70109838.11984423,-2144394014.217456,111208708.74182755,1348204128.4426105,1968716488.8137043,3079997716.0237107,-4393549855.510559,4165491416.5689697,1677800953.6267402,3798019161.59598,-3355601907.2534733,-7539628108.612755,-232893600.19121855,-3341902283.712821,-3475675078.2863193,984761174.5109843,-2435309549.4044104,-2826151750.4173665,-2519924871.2732053,-3989813891.1652136,3204906048.3062143,552820102.8760403,-1975163370.4798877,-2256408583.1675715,3487762981.4104385,743003112.0287482,2303148475.247464,-1697947458.8335881,1038753808.4653411, ],
[ -716409725.1557091,-626153381.8289957,-2158093637.758135,-3706956958.0609965,394065641.8460479,-318314782.2682831,2826957610.6256447,-4246883297.6046715,-5053549366.087073,-3026005082.0693607,4025271740.329277,-975896712.2199713,-3295968251.841193,-1042783109.5067211,-2652085945.4301596,4864978077.350917,5466955652.931695,495604028.08858764,-1982416112.3543718,1340145526.3598778,-3428935186.206415,-3224246693.3048005,-2820510728.959456,-1810767887.9919622,-922709938.4738795,3253257660.802649,-257875266.6477169,-1155603538.6650956,1918753155.9006956,-538314619.127122,1963075467.3557796,1769669017.3699877,474651662.6734535,1021024883.883323,2772964976.671286,-2054943531.099036,-738167950.7790945,361831233.51508,-2108936165.0533907,-3175089220.6000752,162783762.07136017,-1797874124.6595812,-2540071376.4800553,443223114.55077654,1984833692.979185,-4555527757.373641,-2152452616.300194,-3484539540.577343,448058275.80042046,-3294356531.4246387,-123296611.86594687,-396483222.47086346,3482121959.9525194,-5627321834.378246,739779671.1956617,2017068101.3101346,2409522022.7396493,3092085619.1478276,779266821.4010888,3563513840.988198,-9418088254.099745,-736556230.3625482,-1387691278.6480472,-1509376170.097439, ],
[ 2843074814.791128,-686592897.4495673,-299779997.47798485,-2536042075.4386897,-6377577688.281459,-3357213627.6700177,2358752829.6183743,-2923660835.618551,524614995.58645046,3068715673.107888,-1019413163.4667778,-3119484866.2291484,1294211494.4882567,2004174337.977754,-570549027.4580816,161977901.8630917,2711719600.84245,-534285318.0857586,-96703224.99289766,1767251436.7451649,1502123428.2229753,2472379118.985025,-1076629238.2542422,-2630327719.806762,1469083159.6837382,-1917947295.692425,-1716482243.6239023,576190048.9160088,8058602.082740188,-4962487162.552094,-45934031.87162095,1133039452.8334327,-1901024231.3186665,-5848933391.653633,3430546906.6229744,-1304687677.1958222,212747094.98437402,99926665.82599647,468204781.0072568,2332965302.953608,-2123441648.802329,2523148312.1063037,1568203965.3014486,-2675455891.4701104,290109674.978691,-4029301.0413699746,-509303651.62925506,-1731793587.5811095,2092013100.6796422,-513332952.67062336,-3363660509.3362164,-1311940419.0702865,1483588643.4326687,123296611.86593854,981537733.6778874,-1653625147.3785148,394065641.8460498,174871665.1954837,-2667397289.387378,-3567543142.02957,2204833529.83803,-1514211331.347091,-3302415133.5073757,1347398268.2343402, ],
[ 2904320190.619966,-1506152729.264347,632600263.4951932,-2410327882.94792,-1623808319.6723692,45934031.87162783,-813918810.3568736,1223295796.160128,-1758386974.4541528,385201179.5550224,1647984125.920589,631794403.2869177,-521391554.75336564,837288756.3968227,-2324906700.8708587,-2569082343.9779353,-4287982168.2266393,-831647734.9388984,-843735638.0630132,2882561964.996572,-170036503.94584286,4320216576.557603,2121024068.177507,2267690626.0833893,395677362.2626062,-2373258313.3673162,-911427895.5580387,2311207077.330203,1386885418.4397764,416629727.67772764,-4415308081.133952,-1758386974.4541461,-1079852679.087325,-1772892458.2030866,1811573748.2002406,1768863157.161714,2602928472.7254415,-780878541.8176349,-1917947295.69243,-2885785405.829661,2263661325.0420394,3399118358.5002723,1125786710.9589577,-148278278.32244402,1183808645.9546895,-1914723854.8593326,477875103.50656164,2476408420.0263906,-506886071.00442994,-4070399911.99263,-441611394.134219,-1477947621.9747474,271574890.18837816,2528789333.5642276,1655236867.795061,185347847.90304905,-3019558200.403173,4760216250.275281,2652891805.638431,193406449.98578146,1166885581.580943,983149454.0944353,3677945990.563137,-322344083.30965304, ],
[ 2216921432.9621296,-4575674262.580509,242563922.69052228,-4216260609.6902475,3910033730.5460787,724468327.2384396,401318383.7205225,3690839753.8955207,-105567687.28390977,-925127519.0987076,1089523001.5866282,-957361927.4296689,-2748789170.423058,-626959242.0372746,-1498899987.3898711,-509303651.6292556,-1312746279.2785614,2328936001.912233,664834671.8261575,1375603375.5239408,-216776396.02574375,640658865.5779347,-1110475367.0017486,-1191061387.8291636,-166813063.11274642,1288570473.0303311,1652013426.961957,184541987.6947775,-1219266495.1187563,-1263588806.5738401,-715603864.9474294,-247399083.94016138,1341757246.776425,-2951060082.6998644,-188571288.73614532,-1196702409.2870805,2325712561.0791335,697874940.3653938,195018170.40234032,-2009815359.4356833,-496409888.29686856,2440950570.8623343,-3183953682.8910847,605201016.4138722,-2594064010.4344163,730915208.9046234,-1523075793.6380985,2203221809.4214683,614871338.9131546,-706739402.6564116,5330765277.733359,-5532230329.801894,1822855791.1160834,2546518258.146256,1071794077.00459,-1191867248.0374417,-4897212485.681886,971867411.1786081,1458606976.9761727,-3391059756.41754,-1697947458.8335836,734944509.9460007,527032576.2112731,-655970209.5351398, ],
[ -4237212975.105373,1427178428.8534803,-3885052064.0895667,-791354724.5251992,-801830907.2327602,-1235383699.2842462,220805697.0671187,4936699635.887319,402930104.1370612,-29010967.497861605,2456261914.819551,294138976.0200634,-1170109022.4140358,-1225713376.7849457,-48351612.49645262,-262710427.89735624,13699623.54065933,2447397452.5285273,-2548129978.562801,3174283360.3917937,3092085619.1478314,1406226063.4383433,-7772521708.803971,1366738913.2329168,-377948437.6805643,-3008276157.4873176,-1630255201.3385699,-4869007378.3922825,3827030129.093844,-35457849.16405973,313479621.0186402,659193650.3682342,-851794240.1457525,-925933379.3069743,-2935748738.7426596,-2507031107.940812,1775310038.8279128,-4417725661.758786,-3633623679.1080513,-568131446.8332667,435164512.4680487,-1398167461.3556163,-984761174.5109819,-2852745137.290417,-1866372242.3628895,1688277136.3342957,-174871665.195485,-1419925686.9790137,1461830417.809265,-2519119011.064927,-322344083.309649,-82197741.243951,-850182519.7292037,-1201537570.5367224,-495604028.08859116,-642270585.994469,2058972832.1404037,2644027343.3474126,-5500801781.67921,-684981177.0330098,-3476480938.4945917,-2210474551.2959433,2195163207.3387394,1160438699.9147484, ],
[ 3669081528.2721086,-3884246203.881305,-9440652339.931404,3461169594.53739,2786664600.211939,3079191855.81545,1770474877.5782683,-390842201.01295865,-346519889.557873,854211820.770574,-1184614506.1629777,1234577839.0759683,-1233771978.8676896,-1124980850.7506762,1035530367.6322582,865493863.6864101,-1394944020.522513,-1149962517.207187,-2094430681.3044696,-4401608457.593308,-2785052879.795392,-515750533.2954421,-1016995582.8419551,593918973.4980216,-3300803413.0908265,-859852842.2284784,-2407910302.3231006,912233755.7663168,1410255364.4797294,835677035.9802682,473845802.465186,-5604757748.546575,2417580.6248239577,2619045676.890918,-950109185.5552084,5755453607.493835,-1395749880.7307844,-2526371752.939394,-7173767574.056301,145054837.4893433,-3723880022.4347467,946885744.7221067,313479621.01864296,2771353256.2547264,-6217211506.834918,171648224.36238012,-2020291542.1432464,-5506442803.13712,-4376626791.136798,272380750.39665455,-1123369130.3341253,-247399083.9401505,-2033991165.6839173,3685198732.4376035,-6473475053.066082,3495015723.2848988,-3760949592.0153675,1333698644.693684,1293405634.2799644,3236334596.4289083,4381461952.386456,315091341.4351891,1588350470.5083303,1926811757.9834447, ],
[ -3136407930.602911,-1970328209.2302513,54798494.16263721,2146811594.8422737,-116849730.19976121,-1924394177.3586254,-483516124.96446997,1863148801.5297813,-6836112146.789446,-2536042075.438684,301391717.8945273,-1422343267.6038349,-3234722876.0123534,303809298.5193504,1289376333.2386088,1606885255.2986224,-3706956958.060998,1269229828.031754,-18534784.790317174,2919631534.577174,3004246856.4459596,-2503001806.8994427,-4834355389.436488,-139413816.0314139,-510915372.04580045,1369962354.066021,940438863.0559156,2483661161.9008713,149889998.73897767,-2532012774.397316,-351355050.80753195,1282929451.5724092,-977508432.6365262,3241169757.678544,1610108696.131704,2727836805.0079317,307032739.3524391,-1260365365.740741,-5213109687.325354,-3540949755.1565247,394871502.0543188,-2795529062.5029607,-340073007.89167744,1688277136.334305,-1630255201.3385615,-4213037168.857153,877581766.8105289,-477875103.506552,318314782.26828414,1642343104.4626658,5881167799.984599,-572966608.0829102,-1845419876.9477525,1560951223.4269907,657581929.9516869,-1626225900.2971883,-4830326088.395127,-6016552314.974649,1740658049.8721225,349743330.3909687,1640731384.0461192,539120479.3353885,-132966934.365228,4283147006.9769845, ],
[ -1359486171.3584616,4018018998.4548163,4064758890.5347033,-2248349981.0848336,-6230105270.167311,-453699297.2583276,-673699134.1171747,-4894794905.057078,732526929.3211788,1539998858.0118818,-4682853670.280961,-1791427242.9933815,-2498972505.858087,-851794240.1457492,-3239558037.261991,-174065804.98721483,4884318722.3495,-4714282218.403647,-2049302509.641109,-3935015397.002576,1345786547.8177874,2479631860.8595104,589083812.2483953,2027544284.0177095,4379850231.969884,-954138486.596568,1680218534.2515569,-1166079721.372658,2545712397.9379735,3109008683.521594,-149889998.7389732,3623953356.608762,-585054511.2070165,1473918320.9333732,-1266812247.4069428,-372307416.2226465,-3649740883.2735124,-790548864.316926,-3848788354.717246,3799630882.0125217,4003513514.705887,-4706223616.320922,1128204291.5837853,4005125235.1224217,1643954824.879221,-186959568.31961167,-3407982820.791298,3645711582.2321577,1881683586.3201022,5369446567.730524,1814797189.0333397,-4444319048.631834,-632600263.4951962,-1971134069.4385128,-3694869054.93689,-7156844509.6825285,-4309740393.850049,434358652.2597596,-7052082682.606905,3581242765.570231,-8158528748.567279,-1961463746.939231,953332626.3882997,3213770510.5972223, ],
[ -5387175492.312547,743808972.2370163,1733405307.9976552,-667252252.4509777,-61245375.82882833,1133845313.0417,157948600.82173413,3482927820.160791,-3457140293.4960213,5268714041.696257,2870474061.872458,1195896549.0788114,-963808809.0958651,881611067.8519062,1266006387.1986556,1345786547.817806,-2329741862.1205115,-1681024394.4598417,-5118824042.957275,-982343593.8861731,-3947103300.126684,-1049229991.1729207,1390914719.4811394,-4085711255.9498405,-3132378629.561546,3283880348.717076,-1016189722.6336825,4091352277.4077506,-4223513351.5647087,-2191939766.5056434,-705127682.2398643,-3852817655.7586126,-631794403.2869077,1089523001.586622,201465052.0685261,-2074284176.0976062,2659338687.3046303,-236922901.23260328,-2726225084.5913982,-71721558.53639805,-884834508.6850022,-2781829438.9622993,1867178102.5711446,2807616965.627066,-315091341.43518305,2156481917.3415728,1829302672.7822714,-1642343104.4626741,-1291793913.8634307,-4375015070.720239,5176040117.744731,160366181.44655728,2307983636.4971137,4356480285.929947,4542633994.041271,3017140619.7783403,1486006224.057495,-3627982657.6501336,1421537407.3955553,-1239413000.3256087,5239703074.198388,2090401380.2630935,3508715346.8255677,128131773.11558408, ],
[ -1315163859.9033823,1152380097.8320003,-2763294654.1720066,-1070988216.7963184,-4532963671.541991,1481976923.016127,338461287.4751344,-585054511.2070352,-2136335412.1347315,925127519.0987012,821977412.4396083,3400730078.91683,2430474388.1547685,-4166297276.7772484,4704611895.904375,726080047.6549965,1731793587.5811162,-2636774601.4729486,-3052598468.9424033,-6867540694.912132,350549190.59924895,881611067.8519021,2160511218.3829427,-3261316262.885403,1155603538.6650994,-1017801443.050225,-471428221.8403729,-13699623.540650647,3327396799.9638844,2271719927.1247725,-2195969067.5470047,3677945990.563123,1235383699.2842338,-6022999196.640846,535897038.5022841,1579486008.2173,1611720416.5482657,-1045200690.1315401,-2783441159.378842,2247544120.8765445,-1266006387.1986568,2228203475.877965,2176628422.5484233,466593060.5907205,1022636604.2998745,3567543142.029567,-810695369.5237676,-1706811921.1246152,-3571572443.0709314,2267690626.0833974,-5115600602.124169,-6462193010.150246,3078385995.607178,-1331281064.068856,534285318.0857525,-1293405634.2799716,1238607140.117346,-2013038800.2687807,68498117.7033015,-2362782130.6597495,-1757581114.2458699,-49157472.70471555,792160584.733473,-5021314957.756104, ],
[ 1304687677.1958153,149084138.5307207,-2116188906.9278595,-1308716978.2371888,-734944509.946003,116043869.9914867,1949375843.8151155,-770402359.1100681,1465859718.8506427,38681289.99715657,-1562562943.8435345,821977412.4396101,1584321169.4669404,1021024883.8833234,-3225858413.721345,-261098707.48082167,-14505483.748935997,-2623074977.9322987,-576190048.9159958,-2761682933.75544,-5873109197.901855,-925933379.3069835,816336390.9816855,-1346592408.0260732,995237357.2185515,2458679495.4443617,568131446.8332686,2056555251.5155735,-1891353908.819382,3087250457.898188,2788276320.628495,-1145127355.9575408,-919486497.6407762,1041171389.0901815,760732036.6107845,-3436187928.0808873,-458534458.50797987,-4026077600.5375504,4818238185.271027,3042122286.234841,1294211494.4882467,2216115572.7538643,-3710180398.8940983,-3120290726.4374304,2076701756.722435,866299723.894689,2366811431.701112,-955750207.0131181,-3072744974.1492553,-2967983147.073616,-663222951.4096124,2168569820.4656863,635823704.3282852,-1524687514.0546532,2747983310.2147846,298974137.26969934,-1166079721.3726623,1830914393.1988163,-2067837294.431409,1538387137.5953195,-219193976.6505565,-2579558526.68549,991208056.1771785,1325640042.6109383, ],
[ 629376822.6620879,-1212819613.4525666,-2555382720.437254,-454505157.4665991,1081464399.503882,-4490253080.503447,-2141170573.3843586,-381977738.72193253,1183002785.7464294,-1051647571.7977408,675310854.5337136,-1162050420.331292,603589295.9973224,1016189722.633681,-8678308582.90409,1117728108.8762183,1338533805.9433384,2920437394.785441,1434431170.7279541,-2344247345.8694515,1867983962.7794342,-654358489.1186002,-4281535286.560458,-270769029.9801098,-2447397452.528541,2079119337.3472629,-1946958263.1902974,-971867411.1786035,-997654937.8433719,-95897364.78462765,4130033567.4049106,2037214606.516995,273992470.81320494,2096042401.7210073,4338751361.347912,-3725491742.8513036,-223223277.69194144,-4354868565.513392,1842196436.114663,2616628096.2660975,-58827795.20401434,1398167461.3556194,-2171793261.2987857,-3355601907.253474,-601171715.3725001,2732671966.257572,-1501317568.0147002,-4813403024.0213785,1409449504.2714503,-41904730.83024791,-3104173522.271946,-1763222135.703783,1637507943.2130332,-4403220178.009846,1843002296.322935,1324834182.4026692,1567398105.093179,-1301464236.3627195,-2042855627.974923,3106591102.896762,776043380.5679897,-580219349.9573805,-292527255.60351455,-2217727293.170403, ],
[ -754285154.9445853,1523075793.6381037,-1527910954.8877494,-3027616802.4859123,-1278094290.3227727,-1521464073.2215521,100732526.03426693,-1454577675.9348009,826006713.4809846,-2550547559.187617,-5696625812.289821,1593991491.9662266,2723807503.9665585,-1149156656.998913,-1219266495.1187534,2239485518.7938056,226446718.52503008,-516556393.5037161,-1647984125.920595,89450483.11843449,-1733405307.997651,1196702409.287091,-1064541335.1301199,-1850255038.1974022,-4287176308.0183816,1090328861.7948985,-1497288266.9733386,2951865942.9081388,173259944.77893516,1846225737.1560276,4546663295.082643,3322561638.714237,-1716482243.6238904,-492380587.2554898,1212819613.452566,219193976.6505654,-749449993.6949422,-2632745300.431593,2133111971.3016148,1679412674.0432868,232893600.19121483,39487150.20543246,-898534132.2256596,1942123101.9406598,-6907027845.117571,-1462636278.0175476,-745420692.6535747,-2427250947.3216743,179706826.44513083,1905053532.3600512,3432964487.2477965,-817948111.3982381,-1387691278.6480556,427105910.38528377,-961391228.4710402,-394871502.05432475,465787200.3824385,-1548863320.3028686,-2021097402.351526,-2576335085.8523917,-2017068101.3101394,1844614016.7394745,-2906737771.244783,4029301.0413659327, ],
[ 2703660998.7597084,1170914882.622307,1884907027.1531816,-5951277638.104446,-2389375517.5327973,-2174210841.9235964,-218388116.44229215,-2613404655.4330115,-2370034872.5342135,-460952039.13279617,214358815.4009139,744614832.4452947,-7195525799.679706,-1687471276.1260257,-1256336064.6993594,2479631860.8594985,-3069521533.3161664,-2657726966.88808,-14505483.748945273,-752673434.528041,2769741535.8381724,1178973484.7050493,1569009825.509737,-2627910139.1819425,-1270841548.4483082,732526929.3211864,-2622269117.724019,4072817492.617443,-336849567.05858374,178095106.02858323,2252379282.1261926,1213625473.6608448,-1668936491.3357248,-1092746442.4197145,493186447.463772,2089595520.0548124,2490108043.567066,323149943.5179177,-1606079395.0903442,-2396628259.407263,1244248161.575245,-482710264.75620866,853405960.5623021,-808277788.8989553,-1831720253.4071014,931574400.764892,3690839753.895514,-664028811.6178938,242563922.69051185,-178900966.23686695,854211820.7705737,332820266.0172105,-5000362592.340972,2961536265.4074287,2264467185.250309,1419925686.9789999,2551353419.3958893,-3813330505.5531764,810695369.523775,858241121.8119427,-575384188.707736,1028277625.757796,1569009825.5097353,1290182193.446871, ],
[ -4437872166.965631,1731793587.5811038,1000878378.6764567,-1343368967.1929717,123296611.8659471,-4872230819.225389,464981340.17417496,-4346004103.222384,-6072962529.553848,32234408.330961823,-946079884.5138294,930768540.556625,809889509.3155057,-5955306939.145812,-2452232613.778171,120073171.03285284,-725274187.4467113,-1421537407.3955665,-1611720416.5482645,253845965.60636163,-3021169920.8197055,-1485200363.8492243,-1949375843.8151193,2177434282.756708,2874503362.9138165,3179924381.849714,3799630882.012525,423882469.55219686,-693845639.3240321,307838599.56072253,1521464073.2215526,2968789007.281888,261098707.48081213,-474651662.6734531,428717630.8018339,33040268.539237116,-3126737608.1036234,-1805932726.7423255,-3527250131.615869,-489963006.63067806,-3327396799.963887,-1033918647.2157094,506080210.79614675,1108863646.5852118,1905053532.360043,1507764449.6809,786519563.2755566,-456922738.0914321,1014578002.2171353,576190048.916002,3126737608.1036277,3760949592.015368,-542343920.1684858,1789009662.368571,1642343104.4626796,-82197741.24396424,-2084760358.8051682,-2593258150.226146,2437727130.0292478,-1519852352.8050132,-1909082833.4014103,-206300213.31818,-1452965955.51825,3834282870.9683166, ],
[ 1675383373.001908,-2839045513.74976,779266821.4010905,1248277462.6166286,1776115899.036179,-1577874287.8007445,-722050746.6136208,-1113698807.8348453,359413652.8902642,2665785568.9708133,2711719600.8424454,772014079.5266181,865493863.6864203,850182519.7292057,-5416992320.0187025,514138812.8788926,-2049302509.641113,1898606650.6938493,852600100.3540375,-2525565892.7311263,-6884463759.285878,-4970545764.634821,477875103.50656,1772086597.99481,1653625147.378516,1320804881.3612964,1593185631.7579582,-1091134722.0031753,3891498945.7557683,273186610.6049244,-1143515635.540989,4756186949.233903,-991208056.177175,-57216074.787459314,-5167981515.661997,395677362.2625945,-2248349981.0848236,-3897945827.4219594,-2917213953.952337,-456116877.88315845,-2462708796.4857373,-2660950407.7211704,-613259618.4966108,-3088056318.1064606,-1347398268.2343442,536702898.71057194,524614995.58646405,-1751134232.579674,5875526778.526662,1527910954.8877692,1408643644.063177,169230643.73756766,-2354723528.5770187,-2739924708.132041,242563922.69051945,824394993.0644318,671281553.4923551,103150106.65908028,1246665742.20008,846153218.6878392,-41098870.62197677,3621535775.983932,1465859718.8506365,-25787526.66476929, ],
[ -3489374701.8269753,-503662630.17133117,-3319338197.8811355,568937307.0415328,1581903588.842117,-27399247.081314612,1490841385.307134,-519779834.3368118,-778460961.1928114,-539120479.335398,-1609302835.9234385,1229742677.826316,-2507031107.940815,20952365.415120825,301391717.8945206,-611647898.0800663,1109669506.7934837,-1070182356.5880424,-1227325097.2014968,-340878868.0999483,-2772964976.6712823,423882469.5521953,3096114920.1892037,1986445413.3957188,-468204781.0072697,1955016865.2730274,1224907516.576681,-2004980198.186031,3918898192.837094,1788203802.160299,-1429596009.4783072,682563596.4081914,-1238607140.1173327,-1656848588.2116153,-2378093474.6169534,459340318.7162554,-4101022599.907045,781684402.0259064,2074284176.0976179,-133772794.57350397,-659193650.3682445,-1208790312.4111958,-3192012284.973829,1982416112.3543558,-1442489772.8106964,-2067031434.2231429,-628570962.4538317,-186153708.11131877,-2362782130.65974,1330475203.860593,-1268423967.8234723,597142414.3311292,-3428935186.206429,-1735822888.6224675,-1670548211.7522664,-1047618270.7563723,-1159632839.7064717,1046812410.5480938,1449742514.6851647,-1943734822.3571923,-1336922085.5267751,-5526589308.343972,-2664173848.554264,4717505659.236753, ],
[ 1344980687.6095216,-2486884602.733961,-1116116388.4596732,-1554504341.760803,172454084.57066864,-608424457.2469718,672087413.7006295,-1771280737.7865388,1139486334.499618,-2698019977.301787,-3276627606.8426113,-3781096097.222214,1135457033.4582493,-510109511.83752817,879193487.2270781,-101538386.2425393,-1806738586.9505906,722856606.8218986,-2141170573.3843687,-327179244.5592916,-1338533805.94333,-290915535.1869615,-3806883623.8869863,2728642665.2161927,-2905126050.828236,-3092891479.3561206,-976702572.4282502,627765102.24555,3796407441.1794133,951720905.9717519,2295089873.1647186,671281553.4923491,974284991.8034313,-471428221.84036905,6591936503.682382,1797874124.6595814,-1157215259.0816538,1086299560.7535274,2141170573.3843641,-4823879206.728953,2842268954.582856,-1676189233.2101958,-3470034056.8284087,2191939766.5056343,6593548224.09893,-1791427242.993393,-1269229828.0317485,-1232160258.4511402,-141025536.44796938,410182846.01152194,1830108532.990545,-178095106.0285799,3343514004.1293674,-1036336227.8405328,-2228203475.877972,225640858.31675726,495604028.08859956,-2417580.6248308485,-352160911.01580375,2339412184.6197915,1945346542.7737546,-5316259793.98443,-5848127531.445352,532673597.66919714, ],
