import numpy as np

weights_dense1_w = np.array([
[ 0.17832844708762569,0.32277122313982753,0.023107578079577133,0.11357823713319018,0.15587408676294678,-0.0032660887744986045,-0.16624391862197987,0.03633523761629705,-0.01526896502078115,-0.10418823190650629,0.06140246896057404,-0.1317050298316571,0.05854464128288782,-0.0547069869728508,0.1855954946108857,-0.010043222981583153,-0.19678184866354254,-0.08173387158182863,0.049072983836842235,-0.08353022040780221,0.009471657446046486,0.18690193012068387,-0.05560516138583885,0.04098941411995807,0.09594135775089721,0.02498557912491431,0.0018780010453367949,0.2954993818727639,0.27982215575517055,0.07658978176199283,0.0061239164521850326,0.07675308620071808,0.09585970553153575,0.06507681883188494,-0.023515839176390108,0.20315072177381482,0.0243323613700153,-0.23025925860215415,0.0548702914115765,-0.04939959271429205,0.027516797925151368,0.1521997368916359,-0.020821315937429016,0.022862621421490634,0.017310270504841963,0.21735820794288357,-0.0415609796554951,0.18273766693319768,0.1614264376795948,-0.18330923246873554,0.16689713637688028,-0.10590292851311808,0.16330443872493122,0.13366468309635654,-0.07340534520685683,-0.1012487520094573,-0.11937554470792477,0.03127280001582443,-0.20364063508998964,0.07871273946541703,-0.043438980700831575,0.16354939538301855,0.0800191749752163,0.029721407847937337,0.21646003352989748,0.33248783724396136,-0.10769927733909258,-0.18183949252021114,0.05078768044345427,0.2096828993228121,-0.008655135252420964,0.28921216098185365,0.0853265692337769,0.22233899332399387,0.16338609094429485,-0.10671945070674196,0.09749274991878523,-0.022291055885952704,-0.1447693849296518,-0.07430351961984374,-0.15489426013059726,0.15105660582056213,0.3393466236704078,0.14321799276176445,0.19523045649565618,0.011186354052658302,0.006042264232822279,0.06679151543849701,0.2597357097920035,0.007103743084534691,-0.017146966066117722,0.1790633170618874,0.3625358539693484,0.15505756456932254,0.10394327524841872,0.051114289320904574,0.07985587053649099,0.09177709456341138,0.09414500892492354,0.0066954819877222405,0.0383765431003594,0.07601821622645533,-0.04613350393979424,0.2738615437417097,-0.09757440213814672,-0.17310270504842729,0.1588135666599956,-0.04384724179764418,0.052910638146877374,-0.07609986844581898,0.14599416822008904,0.11496632486235253,-0.008083569716884231,0.18641201680451003,0.16191635099576945,0.058136380186075934,0.09324683451193638,0.01804514047910502,0.11978380580473767,0.09398170448619754,0.134889466386794,-0.07479343293601821,0.07961091387840429,0.06483186217379804,-0.017310270504842434,0.0840201337239772,0.1211718935338994,0.2181747301365084, ],
[ 0.457089123991082,0.02849662455749921,-0.21605177243308415,-0.10663779848738118,-0.11823241363684955,0.03535541098394687,-0.24201717819034868,0.4274493683625075,0.18567714683024653,-0.546579956412346,-0.033232453280523835,-0.24683465913273317,0.4078528357155166,-0.0044092198455717565,0.35690185083333603,0.2378529150028634,-0.1428097316649528,0.20666176720640003,-0.08271369821417805,0.4378192002215405,0.024005752492564952,-0.20331402621253908,0.06564838436742182,-0.2335253473766529,0.36865977042153236,-0.14713729929116373,0.2223389933239932,0.32628226857241266,0.11300667159765306,0.0787127394654173,-0.2609604930824417,0.21531690245882332,0.09308353007321002,-0.191964367721156,0.492607839413755,-0.2750046748127861,-0.2998269494989745,-0.0002449566580869666,0.3816424733001645,-0.3426127124449062,0.24356857035823495,-0.2381795238803113,-0.24218048262907313,-0.3802543855710027,0.20012958965740324,-0.03086453891901085,0.067444733193398,0.025883753537902936,-0.1666521797187919,-0.09496153111854848,0.25867423094029085,-0.35706515527206234,-0.19776167529589092,0.22952438862789012,-0.6662821099977203,0.020004793743804074,-0.04360228513955637,-0.3565752419558872,0.5923051992553273,-0.0056340031360092475,-0.3032563427121983,0.33330435943758396,0.7013109121042175,-0.033640714377336164,0.03037462560283677,-0.2339336084734646,0.029231494531762034,0.10524971075821896,0.09667622772515838,0.16493748311217973,-0.15709887005338424,0.1640393086991944,0.337060361528259,0.4155281443355879,0.6759170718824914,0.05601342248265195,-0.12941876768950814,-0.014860703923968273,-0.08132561048501537,-0.11455806376553898,0.03992793526824552,-0.21621507687180821,0.6903695147096458,0.03698845537119677,-0.15579243454358516,-0.33150801061161084,0.292478249756351,0.4426366811639268,0.03723341202928359,0.25712283877240466,-0.2518970967332064,0.06817960316765902,-0.7409122384950128,0.379846124474191,-0.7136403972279485,-0.06793464650957176,0.3083187803126703,-0.0008165221936239195,0.5760564076021943,-0.26528806070865113,-0.04311237182338209,0.14101338283897744,-0.2047837661610633,0.019841489305078487,-0.026618623512164572,0.42818423833676933,0.4541496440940346,-0.04311237182338052,-0.648155317299252,0.32816026961775036,0.16771365857050474,0.4512918164163466,0.23499508732517568,-0.08998074573743624,-0.24593648471974683,-0.11627276037215155,-0.07944760943967921,-0.3424494080061813,0.174409140558226,0.6114118185861417,-0.42728606392378315,-0.5122860242801093,-0.24046578602246102,0.4084244012510519,0.0524207248307033,0.37257907695092984,0.15350617240143571,-0.5210228117518939, ],
[ 0.032007669990086335,-0.004164263187485081,-0.3261189641336888,-0.13137842095420696,-0.2981939051117254,-0.22576838653721779,-0.19833324083142956,-0.030619582260924746,0.23042256304087871,-0.13987025176790363,-0.029313146751125542,0.052420724830702696,-0.25810266540475507,0.11047545279741677,-0.1211718935338987,0.12688754888927165,-0.0938184000474736,-0.20306906955445303,-0.1945772387407561,-0.011676267368832526,-0.11855902251430006,-0.09267526897639855,0.07299708411004459,-0.21376551029093585,-0.13015363766377083,-0.0347838454484098,-0.05870794572161297,-0.23613821839625154,-0.03845819531972123,-0.013064355097994668,-0.21531690245882262,-0.13497111860615557,-0.03282419218371144,-0.1788183604038004,-0.2011094162897535,0.07136403972279544,-0.10165701310627037,-0.17138800844181604,-0.09022570239552487,-0.1619980032151325,-0.08989909351807515,-0.23034091082151595,-0.32775200852093817,-0.1649374831121809,-0.11480302042362697,-0.18657532124323445,-0.05568681360520184,-0.0645869055157108,0.0627905566897363,-0.04499037286871902,-0.07756960839434249,-0.2465080502552846,-0.08646970030485145,0.07463012849729302,0.034865497667773,-0.051359245978990886,-0.14223816612941492,-0.11994711024346236,-0.01518731280141912,0.22274725442080687,0.006695481987722289,-0.04164263187485765,-0.15432269459506043,0.07103743084534536,0.09896248986730857,0.08630639586612646,-0.0044908720649361345,0.06964934311618341,-0.17685870713910126,-0.044990372868718376,-0.25630631657877995,-0.012492789562457071,-0.053645508121140245,0.07871273946541725,-0.07552830291028091,0.14917860477522518,-0.0017963488259738767,-0.11210849718466523,0.09153213790532432,0.10639284182929286,-0.060177685670137405,-0.11782415254003835,-0.02090296815679135,-0.15660895673720973,-0.011594615149469733,0.0295581034092127,0.026781927950888556,-0.01445244282715633,-0.028904885654313407,-0.20421220062552708,3.5822039778921066e-16,-0.04115271855868212,-0.10467814522268054,-0.18085966588786212,-0.1704081818094662,0.06695481987722256,-0.06099420786376204,-0.0831219593109909,-0.04776654832704247,-0.14583086378136406,-0.0021229577034238434,0.042377501849119446,-0.1842890591010851,-0.308645389190121,-0.01526896502078116,0.14868869145905017,0.09618631440898442,0.10353501415160694,0.08059074051075436,-0.16363104760238184,-0.026292014634714186,-0.04784820054640507,-0.16706044081560534,0.06123916452184966,-0.20870307269046284,-0.10916901728761626,-0.001143131071074412,-0.140196860645354,-0.03568201986139738,-0.06254560003164861,-0.12468293896648547,-0.06295386112846095,-0.08957248464062462,-0.20788655049683788,-0.08189717602055335,-0.21156090036814915,-0.08475500369823932,-0.0029394798970487947, ],
[ 0.011512962930107836,-0.43079710935636994,-0.3043994737832724,-0.5949997224942895,-0.18804506119175832,0.5758931031634709,0.10418823190650574,0.5683810989821246,0.13578764079977992,0.24593648471974594,-0.016820357188668946,0.03592697651948411,0.14264642722622817,-0.2518970967332063,-0.17938992593933772,-0.10712771180355463,-0.16804026744795486,0.33991818920594485,0.2649614518312012,-0.17269444395161482,0.18404410244299824,-0.4706433924052521,0.173102705048427,0.3130546090356935,0.20502872281915202,0.02588375353790097,-0.6287220890909867,0.08671465696293856,0.3878480419717125,0.37306899026710655,-0.28031206907134604,0.031844365551362185,-0.4786453099027744,0.18167618808148672,0.05617672692137729,-0.24177222153226222,-0.15366947684016075,-0.1993130674637788,0.33787688372188346,-0.21172420480687432,-0.11382319379127799,-0.19229097659860606,0.02367914361511579,0.3273437474241248,-0.41209875112236455,0.2702688460897621,0.6009603345077489,0.16763200635114311,0.09169544234404865,-0.7482609382376364,-0.5282082070557915,0.1579970444663708,0.0977377065768727,-0.04319402404274487,-0.35273758764585283,-0.19694515310226673,-0.5282082070557906,0.08867431022763861,-0.16624391862197935,0.3474301933872921,0.31893356882979057,-0.4381458090989907,-0.2506723134427691,0.07144569194215637,-0.37682499235777916,0.040826109681231765,0.1034533619322438,-0.44998538090654977,-0.15481260791123513,0.09928909874475864,-0.48877018510372006,0.548621261896407,-0.04899133161747937,0.17628714160356426,-0.3473485411679286,0.26292014634713934,0.1207636324370876,-0.06262725225101129,-0.26790093172825036,0.15914017553744556,0.14436112383284017,-0.252713618926832,-0.14648408153626358,-0.17538896719057648,-0.1359509452385055,-0.1863303645851476,-0.4401054623636911,0.24258874372588593,-0.43928894017006526,0.17310270504842737,-0.7885154823833327,-0.20633515832895125,0.04850141830130399,0.19996628521867835,-0.07969256609776616,-0.3124830435001562,-0.2506723134427703,0.036580194274384525,-0.3413062769351075,0.06573003658678421,0.327343747424125,0.3885012597266117,-0.0008981744129864739,-0.2293610841891667,-0.22878951865362923,-0.5344137757273392,0.3143610445454941,0.2782707635872837,-0.6670169799719835,0.3334676638763107,0.0904706590536124,-0.20282411289636462,-0.4912197516845945,-0.12313154679859835,-0.12566276559883585,0.08540822145313995,0.263410059663315,0.5780977130862571,-0.31648400224891776,0.29803060067299997,-0.20690672386448805,0.17914496928124943,-0.09830927211240954,-0.22968769306661602,0.005715655355372541,-0.46680573809521786,-0.60169520448201,0.26879910614123703, ],
[ 0.2528769233655568,0.48517748745177136,0.09455327002173515,0.7600188578258312,-0.24365022257759747,0.026210362415351757,0.02416905693129028,0.7011476076654933,0.2776175458323841,-0.35682019861397535,-0.029558103409212062,0.5707490133436356,0.10222857864180711,0.4997115824982886,1.0864644308369695,-0.3587798518786737,0.09781935879623381,0.28610937664608,0.47880861434149874,-0.3322428805858723,0.5326174269013632,-0.6068392943018458,0.41675292762602534,0.058218032405438026,0.37282403360901856,0.5928767647908629,0.2950094685565885,0.42744936836250785,0.4909747950265058,-0.4208355385941481,-0.3477568022647401,-0.37943786337737917,0.664894022268558,0.49734366813677827,0.20853976825173667,0.05952446791523834,0.1424014705681401,-0.645134185182841,0.24324196148078528,-0.32905844403073753,-0.4586405161589702,-0.6889814269804865,-0.14779051704606352,0.4677855647275658,-0.5680544901046753,-0.38743978087490066,0.14019686064535253,-0.944879482462454,-0.6181889527932285,0.005552350916647823,-0.11480302042362736,-0.20298741733508985,-0.7498939826248862,-0.09047065905361198,-0.254754924410893,0.2794955468777187,0.3279969651790248,-0.7574876390255953,-0.003919306529398378,-0.5140007208867222,-0.31125826020971975,-0.42059058193606075,-0.3575550685882371,0.1762871416035645,0.4718681756956899,0.5635636180397393,-0.017065313846754873,-0.2189096001107703,0.8995625007162847,0.17979818703614955,0.567891185665949,-0.333630968315035,-0.6739574186177916,-0.26912571501868643,0.6593416713519107,-0.001714696606611813,0.11896728361111247,0.014860703923968687,-0.45962034279131964,-0.23009595416342782,-0.25540814216579344,0.0974927499187837,0.36433220279532347,-0.7396874552045761,0.19865984970887934,-0.08026413163330337,-0.011349658491382033,0.12884720215397077,0.3514311521360513,0.3173005244425418,-0.5840583250997172,-0.229850997505341,-0.3196684388040535,0.23785291500286235,-0.2680642361669768,0.7635299032584171,-1.0440052767684855,-0.35575871976226425,0.1899230622370954,-0.031191147796461694,0.3505329777230647,-0.761406945554992,-0.4226318874201224,0.01526896502078077,0.40156561482460607,-0.2358116095188006,-0.6529727982416376,-0.19653689200545535,-0.43724763468600375,-0.7248267512806077,0.3591881129754859,0.5789142352798821,-0.0518491592951653,-0.0634437744446363,0.19408732542458135,0.23597491395752548,0.19318915101159373,-0.2503457045653198,0.07699804285880499,0.525840292694279,0.3665368127181089,0.25483657663025555,-0.08818439691146399,0.8070505361786107,0.3819690821776142,-0.1335830308769935,0.4517817297325221,-0.31215643462270776, ],
[ 0.25075396566213365,0.14991347474948633,-0.644562619647305,0.02359749139575298,-0.47848200546404934,0.012737746220544613,0.6809795094829645,0.12321319901796053,-0.8866614500570154,-0.2872525077171533,-0.36988455371196977,-0.5195530718033707,-0.7195193570220483,0.13709407630957954,-0.3960949161273211,-0.32040330877831597,-0.3476751500453785,-0.1819211447395732,-0.1106387572361407,-0.24022082936437394,-0.32195470094620265,0.10990388726187912,0.008573483033058667,-0.3850718665133883,-0.13137842095420826,-0.4281842383367702,-0.23132073745386614,-0.16632557084134292,0.13007198544440737,0.5594810070716152,0.20625350610958837,0.14779051704606322,0.0997790120609331,0.6897162969547478,0.285211202233093,0.06687316765786014,0.09471657446046033,-0.3625358539693481,-0.11504797708171469,0.14313634054240337,-0.1389720773549158,0.03878480419717174,-0.01420748616906876,0.1254994611601099,0.26038892754690357,0.4783187010253245,0.4544762529714839,-0.22642160429211744,0.4267144983882461,-0.7828814792473211,0.3820507343969777,0.1623246120925828,0.10851579953271788,0.1229682423598742,-0.4743177422765636,0.4721131323537768,0.6657105444621831,0.9306719962933852,-0.7623867721873437,0.35061462994242854,-0.39217560959792225,0.8428142082593716,0.36743498713109596,-0.7612436411162691,-1.194980230369686,-0.43953389682815286,-0.07756960839434149,-0.07234386635514403,-0.027108536828338792,0.13178668205101884,0.8891110166378893,-0.8624923931257247,-0.7119257006213382,0.38654160646191293,0.002122957703422884,-0.5609507470201397,-0.06842455982574498,0.1370124240902174,-0.7578142479030439,-0.6240679125873262,0.5815271062994818,-0.13333807421890653,-0.10990388726187901,0.27884232912282064,0.42704110726569644,-0.4382274613183536,0.32293452757855184,0.2568778821143172,0.2892938132012155,-0.42230527854267313,0.0911238768085121,-0.05536020472775171,-0.3906242174300357,-0.11014884391996621,-0.3778864712094914,0.522410899481056,-0.13619590189659253,0.007267047523258816,0.5630737047235637,-0.12672424445054625,0.1269692011086342,0.26855414948315104,1.063438504976754,0.39495178505624723,0.5040391501245013,0.6019401611400977,0.3821323866163403,0.2470796157908209,-0.03135445223518748,0.2931314675112518,-0.7841062625377586,0.1302352898831326,-0.19351575988904446,-0.38213238661634,-0.961536535212397,0.14607582043945133,-0.33844844925742,-0.7583858134385807,0.1281123321797091,0.21180585702623578,-0.5704224044661853,-0.6604848024229856,0.51293924203501,0.6773051596116537,0.13570598858041746,0.2777808502711092,0.3963398727854082,0.6020218133594606, ],
[ -0.0008981744129871418,-0.5371899511856618,0.5994905945592233,-0.33861175369614566,0.28586441998799245,-0.05421707365667615,-0.7949660077129652,-0.07781456505242973,-0.3693946403957944,0.5124493287188348,0.01722861828548108,-0.6475020995443528,0.29206998865953976,-0.07381360630367051,-0.17587888050675174,-0.07487508515538113,-0.3090536502869325,0.08034578385266676,0.07095577862598265,-0.2004561985348528,-0.12999033322504586,0.40915927122531526,-0.34685862785175414,0.09994231649965883,-0.6403167042404556,0.7250717079386952,0.8552253456024658,0.05095098488217882,0.13488946638679336,-0.16232461209258142,-0.41422170882578746,-0.3047260826607221,0.3245675719658001,-0.2366281317124257,-0.5117144587445717,0.3974013516371199,-0.14754556038797587,0.25720449099176784,-0.9032368505875945,0.3376319270637955,0.5619305736524896,-0.17563392384866403,0.5993272901204978,-0.15309791130462339,0.6230880859549754,0.3679249004472698,0.09986066428029503,0.26863580170251283,-0.29819390511172417,-0.20029289409612894,0.33060983619862383,0.008410178594333581,0.334855751605471,-0.07609986844581638,0.2333620429379265,0.26414492963757585,-0.5318825569271016,-0.23450517400900187,0.28480294113628013,0.7088229162855643,0.021637838131053425,0.5556433527615788,-0.2218490800078186,-0.5240439438683041,-0.11333328047510297,-0.6051245976952342,0.220379340059295,0.5051822811955742,-0.6978815188909939,-0.060014381231411326,-1.2285392925276581,-0.6358258321755205,0.14648408153626388,-0.1706531384675523,0.1605282632666068,-0.6977998666716317,0.1860037557076952,-0.13211329092846935,-0.15464930347250966,0.428347542775495,0.20682507164512545,0.3016232983249472,-0.6519929716092877,-0.0655667321480597,-0.8277901998966775,0.13578764079978065,-0.22184908000781886,-0.05625837914073854,8.16522193633777e-05,-0.17661375048101335,-0.16134478546023287,0.2884772910075914,0.28112859126496814,0.30390956046709733,-0.08630639586612686,-0.5442936942701969,0.06270890447037503,0.10165701310626994,-0.04172428409421951,-0.0137175728528942,-0.02588375353790172,0.5031409757115138,0.7771658238919483,-0.10524971075821786,-0.09757440213814665,0.20282411289636515,0.3494714988713529,-0.19686350088290416,0.1951488042762931,0.2413639604354497,0.2732083259868098,-0.024822274686189447,0.1689384418609427,-0.3459604534387671,0.497425320356141,-0.04923628827556637,-0.02229105588595355,0.1451776460264639,0.16371269982174413,-0.3146876534229409,-0.25001909568787134,0.04907298383684192,-0.0712823875034326,-0.4012390059471565,0.10394327524841937,0.07316038854876963,0.43773754800217746,0.36114776624018585, ],
[ -0.555071787226041,0.7846778280732952,-0.26953397611549823,-0.13423624863189318,-0.5807922363252188,0.31125826020971864,-0.7035971742463667,0.32326113645600196,1.31998977821362,0.6467672295700914,0.1485253870203248,-0.051930811514528726,-0.029313146751125486,-0.18559549461088445,0.000163304438725277,0.03845819531972093,0.3285685307145622,-1.0774826867070975,0.06295386112846198,0.1575071311501961,-0.045072025088080635,0.04425550289445662,0.16118148102150748,0.0858164825499515,0.02588375353790144,0.7885154823833317,-0.2781891113679206,-0.1631411342862067,0.28913050876249063,-0.654115929312713,-0.7928430500095428,-0.03943802195207158,0.19816993639270528,-0.17138800844181531,0.08859265800827532,-0.7025356953946551,0.3422861035674569,0.2997452972796116,0.8091734938820353,-0.7417287606886384,0.3544522842524636,-0.2388327416352119,0.11692597812705226,-0.47366452452166374,-0.4319402404274438,-0.044990372868719326,-0.48664722740029626,1.4004172142856495,0.13938033845172815,0.1393803384517297,-0.3373869704057088,-0.5257586404749167,0.14068677396152918,-0.055931770263288744,-0.1602833066085198,-0.5520506551096303,-0.3742937735575426,-0.6760803763212155,0.8553069978218286,0.3923389140366481,-0.20315072177381474,-1.0554365874792315,-0.3492265422132655,0.5406193443988857,0.06515847105124806,-0.09055231127297447,0.08344856818844044,1.088179127443582,-0.29092685758846487,-0.35869819965931216,-1.1170840130978936,0.739769107423939,0.20633515832895039,-0.2047837661610641,0.28610937664607977,0.6741207230565167,-0.5257586404749157,1.0778092955845473,0.7789621727179223,0.5536836994968805,-0.8646970030485117,-0.17661375048101355,-0.7639381643552298,0.0837751770658896,-0.6020218133594604,-0.07552830291028136,-0.1065561462680179,-0.046868373914055426,0.16583565752516852,-0.028006711241326067,0.31713722000381755,0.8818439691146301,0.26781927950888745,-0.12247832904369868,-0.04156097965549559,-1.0682559859191394,-0.15407773793697296,0.42148875634904714,0.09945240318348317,0.32987496622436185,0.15048504028502369,-1.016488478843336,-1.2415219954062922,-0.07185395303896934,-0.4460660743771496,0.06074925120567442,-0.9458593090948032,0.5827518895899172,0.08883761466636174,-0.5979392023913375,0.2068250716451263,-0.29321311973061454,-0.10108544757073323,0.29819390511172467,-0.0858981347693136,-0.5538470039356047,0.33599888267654715,0.46149834383665644,0.35232932654903976,0.41887588532944975,0.22389038549188175,0.1375023374063921,0.21980777452375752,-0.12337650345668523,-0.13619590189659336,-0.011186354052657199,-0.8252589810964411,0.2739431959610725, ],
[ 0.14983182253012509,-0.0060422642328227015,-0.17783853377144934,-0.2224206455433562,-0.37241577251220565,0.15228138911099812,0.11316997603637745,0.26749267063143717,0.22331881995634406,0.2790056335615459,0.4805233109481106,-0.2004561985348533,-0.3955233505917839,-0.03135445223518771,-0.16420261313791865,-0.2845579844781934,0.3377952315025213,0.24079239489991144,-0.005062437600472585,-0.059851076792687585,-0.4359411991762047,-0.0012247832904363027,-0.15440434681442325,0.38776638975234984,-0.0799375227558545,-0.14860703923968724,0.005960612013459954,0.014615747265881189,-0.16379435204110668,0.08916422354381229,-0.09112387680851146,-0.3190152210491541,-0.1788183604037996,-0.19367906432776824,-0.051114289320903915,0.2865176377428925,-0.18616706014642154,-0.20110941628975262,0.3683331615440821,0.5250237705006551,0.20935629044536228,-0.030619582260924105,0.0892458757631763,0.42516310622035935,0.1579970444663707,-0.17726696823591334,-0.10255518751925691,0.025965405757264307,-0.16550904864771868,0.07707969507816816,0.23989422048692446,0.35118619547796603,0.2176031646009718,1.2940243724563574,-0.08548987367250153,0.1596300888536201,-0.4412485934347645,-0.22446195102741806,-0.2772092847355709,0.13570598858041844,0.3278336607402993,-0.05462533475348943,0.011023049613932492,-0.07805952171051797,-0.22005273118184496,0.11382319379127763,0.8414261205302097,0.021311229253604628,0.08483665591760212,-0.15219973689163693,-0.41438501326451344,0.11480302042362622,0.14779051704606305,0.17824679486826245,-0.3438374957353436,-0.0487463749593927,-0.2021708951414645,-0.22748308314382984,0.11390484601063962,-0.19425062986330602,-0.12778572330225899,0.041071066339320776,0.024414013589377056,-0.036825150932472045,-0.3097885202611949,0.16853018076412918,0.09536979221535974,0.15660895673720865,0.7867191335573572,-0.17824679486826306,-0.22274725442080584,-0.1051680585388561,-0.30848208475139477,0.253938402217268,0.1306435509799453,-0.41552814433558827,0.05952446791523737,-0.12958207212823372,0.32636392079177495,0.43871737463452914,-0.18298262359128625,0.508366717750711,-0.1863303645851465,-0.07912100056222904,0.04980785381110438,0.4118537944642769,0.06679151543849697,0.13366468309635585,0.02220940366659065,0.009961570762220331,0.11268006272020303,-0.10810753843590473,-0.017881836040380242,-0.006042264232823133,-0.21327559697476062,-0.09112387680851158,0.2661045829022765,0.16942835517711674,0.33052818397926104,0.4496587720290979,-0.29811225289236093,0.10043222981583323,0.004899133161747577,0.24226213484843587,0.06989429977427011,0.2817001568005067,-0.12362146011477258,0.5677278812272244, ],
[ -0.14125833949706598,-0.6013685956045598,0.08075404494948064,0.21490864136201063,-0.41397675216770025,0.02857827677686248,0.14468773271028845,-0.090470659053612,0.3622908973112603,-0.32734374742412464,0.8460802970338701,0.575076580969847,-0.29109016202719035,-0.7487508515538118,-0.5348220368241505,0.5494377840900323,-0.07732465173625463,0.6381120943176715,-0.38319386546805184,-0.3163206978101922,-0.7200092703382233,-0.05789142352798743,0.2423437870677979,0.10435153634523142,0.06385203554144703,-0.36882307486025634,-0.492607839413755,-0.060749251205674516,-0.006940438645809658,-0.18494227685598644,0.32938505290818765,-0.036416889835659834,-0.47431774227656365,-0.04474541621063117,0.6844905549155517,-0.2869258988397051,0.1802064481329621,-0.2314840418925908,0.09194039900213508,-0.13048024654121934,0.053155594804965865,-0.4398605057056044,-0.616964169502791,-0.451536773074435,0.40254544145695625,0.2145003802651976,-0.6328047000591099,0.15636400007912096,0.5184915929516565,-0.19000471445645695,0.007103743084534972,-0.2863543333041669,-0.7638565121358671,0.2653697129280125,-0.17971653481678637,-0.39266552291409823,-0.009063396349233331,-0.12337650345668585,-0.06368873110272248,-0.18861662672729543,0.4868921840583831,-0.19890480636696667,-0.41136388114810285,-0.05201246373389242,0.04482706842999314,-0.199231415244417,0.2823533745554069,-1.0899754762695548,0.320566613217041,0.3303648795405361,0.253856749997906,-0.1007588386932836,0.22625829985339194,0.24226213484843476,-0.5561332660777548,-0.5746683198730352,-0.48558574854858405,-0.4100574456383038,0.2142554236071101,-0.33550896936037217,0.01918827155017954,-0.12288659014051016,0.32236296204301557,0.25949075313391584,0.39331874066899836,0.018780010453367392,0.8406095983365862,-0.11480302042362776,0.33559062157973324,-0.10933232172634175,-0.3477568022647411,-0.05952446791523766,-0.3922572618172849,0.2395676116094749,-0.18020644813296183,-0.0018780010453369462,0.5046923678794003,0.6230064337356142,-0.1909028888694453,-0.05642168357946357,-0.03600862873884704,0.3943802195207091,-0.15244469354972365,1.159869776043827,-0.12068198021772424,0.05389046477922742,0.4414118978734904,0.25981736201136507,0.13260320424464458,0.3090536502869328,-0.4579872984040711,0.18012479591360012,0.5840583250997173,-0.25361179333981954,0.09014405017616253,-0.4996299302789294,-0.41414005660642644,-0.27426980483852226,-0.08442839482078965,0.1837991457849092,-0.22617664763402925,0.16526409198963005,0.6001438123141233,0.131786682051021,0.303419647150922,0.0675263854127599,-0.7249084034999708,0.2860277244267179, ],
[ 0.20233419958018986,-0.3373053181863464,0.27108536828338575,0.03862149975844597,0.02531218800236376,-0.03666184649374754,0.0826320459948153,0.28610937664608016,0.14583086378136395,0.24250709150652333,-0.011757919588195245,-0.16289617762811928,-0.006123916452184795,0.20257915623827827,0.14632077709753846,0.32775200852093744,-0.22062429671738265,0.23858778497712502,0.36833316154408324,0.30088842835068674,0.039111413074621355,-0.02310757807957782,-0.23932265495138702,0.06809795094829615,-0.23458682622836408,0.09969735984157008,0.1659989619638928,0.2615320586179777,0.5198796806808192,-0.14917860477522493,-0.1782467948682632,0.07699804285880545,-0.04727663501086797,-0.04646011281724328,0.00759365640070952,-0.3257107030368764,-0.1295820721282332,-0.26414492963757735,-0.24169056931289792,0.1394619906710917,0.262511885250327,0.1547309556918731,-0.054053769217952685,0.16730539747369225,-0.19506715205693043,0.176858707139101,-0.10426988412586868,-0.21882794789140808,-0.208539768251738,-0.05813638018607572,0.3695579448345199,-0.05927951125715035,0.004000958748761019,0.08140726270437806,0.01992314152444162,0.04629680837851827,0.3493081944326287,-0.03372236659669843,-0.11504797708171462,0.5420074321280478,0.19204601994051992,-0.5164502874675964,-0.1441978193941147,-0.143462949419852,0.34824671558091663,0.10622953739056759,0.20878472490982458,-0.014860703923969001,-0.01347261619480698,0.3256290508175137,0.15791539224700885,0.4723580890118656,0.019269923769541716,-0.21441872804583534,0.07961091387840406,-0.016820357188667284,0.24912092127488278,-0.08075404494947867,-0.1518731280141866,-0.08940918020190022,0.03837654310035874,0.42842919499485765,-0.15097495360120008,-0.4102207500770279,-0.10475979744204411,0.078631087246054,-0.041071066339320075,0.18469732019789759,0.1561190434210346,0.3399181892059454,0.13684911965149274,0.29713242626001296,0.20527367947723907,0.39944265712118276,-0.18118627476531146,0.217929773478421,0.1497501703107625,-0.20878472490982486,0.10108544757073258,0.3613927228982732,-0.14509599380710198,-0.11488467264298947,-0.44974042424846167,-0.08483665591760203,-0.09006239795679966,0.040254544145695625,0.1508933013818367,0.10231023086116985,-0.1563640000791222,-0.08018247941394137,0.28398641894265586,0.12353980789541051,-0.08532656923377711,-0.03511045432586003,0.28700755105906717,0.21564351133627183,0.0613208167412115,-0.2723918037931864,0.2563063165787798,0.10827084287463007,-0.3190152210491542,0.24699796357145845,0.33771357928315865,0.3754369046286176,0.058054727966712766,-0.105331362977581,-0.038376543100359074,-0.02367914361511523, ],
[ 0.6623628034683213,-0.31329956569378153,-0.14240147056813995,-0.5553983961034926,-0.164365917576644,0.21196916146496045,0.294356250801688,-0.046378460597880096,-0.11039380057805369,-0.2976223395761879,-0.033804018816060655,0.17481740165503942,0.0752833462521927,-0.4200190164005237,-0.23915935051266216,0.3934820451077217,0.055115248069664564,-0.3183620032942531,0.6312533078912225,0.1217434590694359,-0.5589094415360782,-0.11194519274594007,0.14174825281324027,-0.012329485123732758,-0.7351965831396411,-0.010614788517120671,-0.5135924597899097,0.1857587990496096,0.4932610571686553,-0.19776167529589264,0.6929823857292459,-0.5472331741672453,-0.015432269459505984,0.7088229162855647,0.18837167006920932,-0.7627950332841552,0.2074782894000258,-0.1331747697801827,-0.7987220098036396,-0.04417385067509396,0.4790535709995868,-0.35518715422672636,0.12639763557309697,0.11602780371406375,-1.405806260763572,-0.09969735984157038,0.012901050659269879,-0.514572286422259,0.013799225072256664,-0.4896683595167068,0.09087892015042452,0.5416808232505979,-0.7793704338147346,-0.030129668944749135,-0.6417047919696184,-0.7805952171051719,0.3036646038090096,-0.10810753843590448,0.3905425652106733,0.5093465443830613,-0.5261669015717291,-0.5780977130862569,-0.3784580367450293,-0.18877993116602226,0.28578276776863015,0.4946491448978177,0.14280973166495295,0.573770145460046,0.3796828200354662,0.1596300888536202,0.43920728795070296,-0.5904271982099898,0.5290247292494141,0.2276463875825541,0.3977279605145704,-0.14672903819435146,0.23360699959601489,-0.0685878642644721,-0.00661382976835986,0.12190676350816067,-0.1288472021539709,0.13652251077404232,0.14182990503260268,-0.45717077621044594,0.1844523635398106,0.7335635387523914,-0.1407684261808908,-0.2410373515579988,-0.5489478707738565,0.3440824523934302,0.24683465913273323,0.3368154048701703,0.012492789562457024,0.44133024565412754,-0.6261092180713865,0.15105660582056135,0.53882299557291,0.22037934005929552,0.49072983836841894,0.3956050028111455,-0.31060504245481885,-0.24120065599672383,-0.47570583000572575,-0.022291055885952038,-0.8681263962617352,0.222257341104631,0.510163066576686,0.2910085098078274,-0.25744944764985506,-0.19131114996625792,-0.44288163782201373,0.6817143794572265,0.26341005966331393,-0.06548507992869819,0.1408500784002524,-0.4690920002373664,0.21107098705197455,0.37592681794479177,0.23270882518302696,-0.45806895062343295,0.45398633965531,0.5620938780912133,0.32048496099767776,-0.05993272901204874,0.3876847375329871,-0.025638796879814345,-0.1381555551612924,-0.3601679396078349, ],
[ -0.22919777975044114,-0.3485733244583664,0.03543706320331056,-0.33224288058587353,0.19947637190250425,0.05470698697285093,0.15685391339529722,-0.16338609094429418,-0.045888547281705265,-0.19653689200545643,-0.007022090865172361,-0.22225734110462983,0.17277609617097694,0.09447161780237151,-0.19784332751525555,-0.5468249130704326,-0.07471178071665623,-0.05887125016033829,0.11684432590768817,-0.005144089819835553,0.12901050659269508,-0.13178668205102,0.2294427364085283,0.11439475932681352,0.0971661410413343,-0.16918339851902958,0.15530252122740906,-0.27141197716083626,-0.049399592714291576,0.1356243363610558,0.11243510606211593,0.25059066122340745,-0.48280957309026157,-0.13219494314783123,-0.4754608733476389,-0.11055710501677922,0.21049942151643608,-0.3864599542425497,0.18069636144913667,-0.10312675305479456,0.3411429724963822,-0.22740143092446682,0.22887117087299064,-0.4580689506234334,0.10794423399717856,0.07226221413578156,-0.07316038854876947,-0.04017289192633307,-0.2281363008987279,-0.0037560020906733053,-0.2222573411046314,0.21450038026519722,-0.09071561571169987,-1.0660513759963524,-0.5381697778180119,0.3046444304413587,-0.39176734850111,-0.08548987367250177,0.2478961379844462,-0.32366939755281393,0.2867625944009786,0.5157154174933332,0.015268965020781018,-0.37192585919603083,0.08687796140166407,0.5218393339455194,-0.08802109247273827,-0.08589813476931354,0.2287895186536288,-0.1622429598732194,-0.01878001045336612,-0.17808349042953767,0.08124395826565312,-0.09145048568596095,0.47203148013441404,-0.11831406585621301,0.032415931086897734,0.12713250554735847,-0.17359261836460185,0.028251667899413316,0.3937270017658093,-0.4274493683625082,-0.1734293139258761,-0.011839571807558017,-0.23066751969896526,0.3364887959927214,-0.14256477500686499,-0.011268006272020042,-0.662199499029597,0.43365493703405517,-0.112761714939564,0.04956289715301665,-0.037478368687372476,0.08426509038206456,-0.16477417867345553,0.0601776856701372,-0.401565614824606,0.5542552650324177,0.17228618285480235,-0.35951472185293637,-0.32938505290818787,0.04245915406848114,-0.14713729929116387,-0.4619882571528317,0.2770459802968464,0.093900052266836,0.20960124710345016,-0.24414013589377237,-0.07226221413578182,-0.4657442592435049,0.09920744652539618,0.39119578296557256,0.31027843357737034,-0.5875693705323037,-0.344082452393431,-0.4966904503818792,-0.11512962930107723,-0.09014405017616281,-0.1381555551612922,0.10369831859033136,-0.18600375570769734,0.07797786949115494,0.05936116347651256,-0.09585970553153517,-0.27614780588385907,0.3778864712094911,0.2888038998850413,0.323179484236639, ],
[ 0.4391256357313406,-0.9597401863864219,-0.16820357188667978,0.36980290149260675,-0.11268006272020248,-0.5184099407322956,0.12427467786967297,-0.020576359279341167,-0.5962245057847253,0.0320893222094487,-0.04784820054640566,0.301786602763674,0.23883274163521243,0.6231697381743382,-0.1130066715976536,-0.06181073005738584,-0.16199800321513172,-0.09316518229257433,-0.03364071437733591,-0.7240102290869834,0.11080206167486524,-0.1668154841575174,0.29713242626001224,-0.1365225107740431,0.13831885960001714,-0.5229824650165944,-0.43781920022154247,0.46313138822390626,-0.3944618717400718,0.25655127323686716,-0.11953884914664947,-0.012329485123732421,0.9575355764636361,-0.2265032565114798,0.14427947161347796,0.04801150498512837,0.6666087188751705,-0.2757395447870465,-0.26610458290227595,-0.17579722828738892,0.34832836780027987,-0.538333082256736,0.1694283551771167,-0.14730060372988873,0.27484137037405887,0.17767522933272595,0.5147355908609849,0.5628287480654784,-0.2238903854918801,-0.46876539135991663,0.1059029285131187,0.0861430914274017,0.24585483250038487,0.47701226551552556,0.025067231344276256,0.10508640631949247,-0.23760795834477513,0.5361284723339512,-0.073405345206856,-0.002286262142148569,0.4864022707422078,0.27712763251620876,-0.1197838058047366,-0.6524012327061025,-0.015513921678868586,-0.016820357188668065,-0.08540822145313927,0.058136380186076336,0.39699309054030824,-0.47325626342485216,-0.009471657446045442,-0.2784340680260076,-0.3349374038248341,-0.822156196760668,-0.09618631440898474,0.31542252339720556,0.37535525240925516,-0.2419355259709859,-0.27818911136792035,0.23107578079577829,0.5773628431119956,0.26259353746969005,-0.8323627241809761,0.18592210348833502,-0.48289122530962214,-0.5101630665766865,0.4159364054324008,-0.3576367208076005,0.4401871145830531,-0.3216280920687525,-0.11986545802409858,-0.4330833714985181,0.2595724053532786,0.19335245545031848,-0.3910324785268487,0.36253585396934745,-0.57091231778236,0.4027903981150445,0.31485095786166856,-0.08426509038206394,0.45186338195188575,0.24405848367440994,-0.2366281317124262,0.382214038835703,0.6785299429020895,0.29892877508598714,-0.24218048262907277,-0.238506132757762,-0.5414358665925111,-0.0928385734151232,0.43373658925341807,-0.07952926165904163,0.11374154157191484,-0.17187792175799047,0.1308885076380323,-0.018208444917830136,0.14583086378136378,0.05585011804392659,0.3257923552562386,-0.5374349078437501,0.0030211321164114553,-0.3600862873884747,0.15881356665999627,0.07626317288454369,0.08883761466636234,0.3173005244425422,0.09194039900213581,-0.03372236659669804, ],
[ 0.04245915406848194,-0.10435153634523073,-0.21515359802009731,-0.009879918542858445,-0.30390956046709744,-0.10835249509399193,0.2798221557551696,-0.4161813620904882,-0.29019198761420334,-0.019678184866355048,-0.438309113537716,0.2100911604196247,-0.14223816612941514,0.05764646686990074,-0.2854561588911803,-0.011104701833295273,0.25557144660451747,0.013635920633530852,0.2584292742822037,-0.04948124493365452,0.0477665483270425,-0.08900091910508755,0.07422186740048146,0.27035049830912355,0.06083090342503742,-0.6600765413261732,-0.03151775667391252,-0.42287684407821036,-0.20862142047109955,-0.20429385284488877,0.24520161474548416,-0.30407286490582197,-0.15187312801418645,-0.014370790607793303,0.08516326479505187,-0.38882786860406243,-0.016902009408030196,-0.08181552380119059,0.07316038854876983,0.08908257132444926,-0.017391922724205658,0.2683908450444253,0.2741881526191596,-0.14999512696884984,0.14852538702032508,-0.5969593757589866,0.20911133378727467,-0.10998553948124076,0.11423145488809001,-0.07912100056222976,-0.2480594424231714,0.2618586674954273,-0.2637366685407645,0.2583476220628406,-0.012002876246283156,0.18820836563048338,-0.07691639063944247,0.15170982357546128,-0.09022570239552408,0.20445715728361386,0.19359741210840575,0.0903890068342495,0.17155131288054026,-0.08753117915656287,0.4602735605462192,-0.5420074321280474,-0.25973570979200417,-0.11145527942976587,0.15456765125314761,0.2325455207443026,0.1548942601305977,-0.20429385284488943,-0.10680110292610513,0.10239188308053254,-0.08981744129871179,0.2324638685249399,0.24650805025528358,-0.595326331371737,0.10573962407439327,0.16567235308644299,0.34310262576108097,-0.3611477662401863,-0.23973091604819946,-0.3073389536803207,-0.21343890141348518,-0.08385682928525257,-0.14452442827156461,-0.05013446268855408,0.20788655049683785,0.08851100578891284,0.18657532124323406,-0.33281444612141003,-0.46215156159155607,-0.36523037720830953,-0.07120073528406959,-0.0391930652939833,0.3144426967648554,-0.16101817658278192,-0.2932131197306147,-0.026536971292801605,-0.368986379298983,-0.07503838959410672,-0.3280786173983867,-0.12264163348242352,0.013146007317356732,-0.24691631135209657,0.2985205139891746,-0.1879634089723954,-0.6819593361153138,-0.3733139469251932,-0.0738136063036692,0.03543706320330997,-0.19563871759246776,0.21499029358137248,0.15244469354972343,0.2140104669490226,-0.15105660582056174,-0.14329964498112768,-0.5240439438683056,0.25842927428220397,0.037641673126097085,0.12933711547014604,-0.23254552074430207,-0.25965405757264143,-0.012656094001181912,-0.31803539441680473,-0.2618586674954274,0.04213254519103213, ],
[ 0.06344377444463543,-0.07234386635514516,-0.40107570150843236,-0.24226213484843545,-0.5999805078753978,0.04213254519103267,0.24299700482269881,-0.292396597536989,-0.3604945484852856,-0.19506715205693037,0.05772811908926451,-0.7686739930782541,0.15007677918821122,0.4169162320647493,-0.12639763557309613,0.44533120440288837,0.38792969419107437,-0.31444269676485453,0.32677218188858753,0.2398942204869241,-0.022209403666590317,-0.5068969778021877,0.06858786426447182,0.30317469049283574,0.36220924509189845,-0.7952926165904163,0.25818431762411603,-0.442555028944565,0.39225726181728476,-0.5095098488217852,-0.8662483952163993,-0.7523435492057593,0.1971084575409916,-0.4325934581823434,0.06458690551570995,-0.38115255998398945,-0.14681069041371356,-0.3674349871310958,-0.09749274991878301,-0.13701242409021802,-0.3163206978101935,0.8240341978060034,0.4001775270954441,-0.758140856780494,0.6337028744720968,0.04237750184912006,-0.5960612013460008,0.13840051181937985,0.30946191138374507,0.3680882048859964,-0.31289130459697,-0.2092746382260003,-0.3114215646484436,0.010859745175207162,-0.5588277893167147,1.0180398710112226,-0.38523517095211357,0.2907635531497408,0.06319881778654796,-0.45292486080359745,0.0983092721124099,0.5129392420350092,-0.036416889835660105,-0.18722853899813263,1.1717093478513827,-0.6998411721556932,0.08157056714310391,-0.6946154301164971,-0.2424254392871609,0.24895761683615864,-0.13431790085125658,-0.19702680532162808,0.9323866928999962,0.13799225072256766,0.2394859593901105,-0.1138231937912772,1.313784209542073,0.26692110509590083,0.7485058948957235,0.042050892971669356,0.7074348285564025,-0.33657044821208437,-0.20053785075421535,0.11594615149470205,-0.10541301519694302,0.5997355512173106,-0.3549421975686385,0.0496445493723799,0.39576830724987083,0.6139430373863792,-0.6117384274635943,0.12549946116010982,-0.6803262917280641,-0.5745866676536716,-0.13325642199954416,0.40940422788340275,0.5313926436109274,-0.24838605130062136,0.009226700787957664,-0.061075860083123955,-0.07732465173625509,0.5549084827873179,0.27867902468409605,0.31648400224891743,-0.7265414478872203,-0.2581843176241168,0.4405137234605026,0.3387750581348705,-0.33820349259933324,-0.18829001784984528,0.13505277082551792,0.73152223326833,0.09569640109280897,0.3044811260026343,0.3268538341079499,0.7507105048185106,-0.21417377138774737,-0.2600623186694528,-0.34440906127088056,0.47301130676676467,-0.16289617762811956,0.7686739930782528,0.39927935268245746,-0.06115751230248718,0.43904398351197793,-0.22364542883379393,-0.4487605976161131,0.19580202203119312, ],
[ -0.3393466236704072,-0.08736787471783819,-0.1764504460422891,-0.04817480942385558,-0.21882794789140844,0.2727184126706363,-0.18437071132044744,-0.26153205861797796,0.04409219845573161,-0.03380401881606076,-0.10067718647392104,0.2593274486951911,0.09610466218962226,0.7690822541750644,0.39699309054030874,-0.32620061635305025,-0.21507194580073494,-0.5340055146305266,-0.146810690413713,-0.1859221034883337,0.05895290237970032,0.15024008362693722,0.07381360630366884,-0.036825150932472094,0.01649374831121753,0.10394327524841868,-0.2602256231081787,0.042949067384656425,0.09332848673129829,0.029884712286662733,-0.30799217143522084,0.33444749050865913,-0.07095577862598318,-0.009961570762220647,0.2570411865530422,0.08434674260142709,-0.07454847627793171,-0.11251675828147774,0.31672895890700425,0.13211329092847002,0.10402492746778086,0.2138471625102987,-0.3939719584238972,0.15628234785976003,0.3030113860541099,0.04327567626210636,0.24952918237169566,-0.0853265692337775,0.342367755786819,-0.26161371083734,0.3195051343653282,-0.0955330966540847,-0.2719835426963735,-0.06719977653530958,-0.37462038243499324,0.30317469049283513,-0.17890001262316213,-0.43977885348624024,0.23989422048692463,-0.1939240209858558,0.27361658708362246,-0.15946678441489587,-0.07316038854876951,0.2914167709046407,0.03960132639079611,0.21523525023945944,-0.05699324911500099,-0.34547054012259265,-0.16591730974453112,0.4146299699226019,-0.36245420174998577,-0.24577318028102207,-0.06458690551570999,0.2433236137001488,0.8394664672655102,0.12027371912091225,-0.08842935356954988,-0.10329005749351947,0.1483620825816001,0.028904885654312804,-0.033804018816060676,-0.06074925120567475,-0.33150801061161095,-0.309216954725658,-0.31640235002955447,0.011349658491382782,-0.15211808467227442,0.258265969843479,0.6735491575209795,0.2252784732210432,-0.3081554758739457,0.4586405161589699,-0.22846290977617933,0.18510558129470897,0.8099083638562982,-0.2983572095504502,-0.35004306440689,0.4982418425497655,0.4219786696652226,0.010778092955845801,0.009798266323495224,-0.05364550812113973,0.038539847539084335,-0.2803120690713457,-0.2953360774340398,0.19384236876649358,-0.1192938924885615,0.30791051921585855,0.22993264972470356,-0.32587400747560097,0.27190189047701063,0.04515367730744379,0.4798700931932105,0.2652064084892885,-0.07144569194215793,-0.09292022563448563,0.08900091910508799,-0.041397675216769785,0.2265032565114795,0.24756952910699578,-0.10271849195798143,0.5070602822409126,0.3413879291544689,-0.224625255466144,0.7187028348284232,-0.20943794266472587,0.5420890843474104,-0.030537930041562446, ],
[ 0.43651276471174094,-0.03984628304888291,-0.16101817658278209,-0.045643590623619036,-0.41283362109662713,-0.3580449819044122,-0.26683945287653715,-0.5935299825457635,-0.33550896936037167,0.034293932132235555,-0.2418538737516236,0.16763200635114212,0.48158478979982267,0.05266568148879002,0.011268006272019996,-0.2583476220628415,0.2273197787051045,-0.5491928274319442,0.6595049757906355,-0.4684387824824649,0.11268006272020241,-0.03004801672538669,0.2814552001424189,-0.5954896358104625,-0.7031889131495552,0.6876749914706859,-0.15236304133036174,0.09888083764794597,-0.10026892537710803,-0.28023041685198224,-0.35469724091055077,-0.20502872281915138,0.06017768567013718,0.05740151021181393,0.28553781111054366,-0.016820357188668453,-0.004327567626210279,0.013554268414169634,0.01273774622054466,0.6183522572319538,0.290028683175478,-0.3370603615282583,-0.1841257546623603,-0.23630152283497502,0.15611904342103342,-0.273616587083623,-0.32807861739838773,0.04482706842999293,-0.06417864441889817,0.3589431563174,0.15121991025928694,-0.13799225072256677,0.25442831553344336,0.6034099010886218,-0.16893844186094162,0.01559557389823038,-0.2052736794772383,0.027108536828338567,-0.16893844186094178,-0.09047065905361214,0.10394327524841862,-0.030456277822201203,0.0019596532646985105,0.7685923408588903,0.07765126061370466,-0.2693706716767744,-0.5153071563965206,0.5827518895899173,-0.14460608049092658,0.40393352918611836,0.08010082719457963,-0.3435108868578937,-0.19857819748951633,-0.02947645118984966,-0.43969720126687833,0.30570590929307145,-0.39936100490181997,-0.29884712286662435,0.6777950729278276,-0.1408500784002542,0.041397675216769604,-0.5810371929833061,-0.09667622772515963,-0.39609491612732134,-0.329956618443723,0.09267526897639886,-0.29721407847937564,-0.23540334842198876,0.3364887959927215,-0.035926976519484906,0.19253593325669394,0.4444330299899004,-0.2832515489683944,0.06532177548997259,0.2588375353790173,-0.2914984231240031,0.2039672439674395,0.4290824127497572,0.5257586404749168,-0.36955794483452026,-0.17955323037806228,-0.34195949469000686,-0.27386154374171023,0.04580689506234303,0.12141685019198595,0.5736884932406833,-0.27541293590959703,-0.1554658256661342,-0.08369352484652715,-0.26430823407630144,0.1317050298316564,-0.08940918020189971,0.3596780262916615,0.262756841908415,0.4682754780437404,-0.09937075096412108,-0.143789558297302,0.6846538593542753,0.8123579304371711,0.74279023954035,-0.08385682928525119,-0.26234858081160223,0.7147835282990247,-0.047848200546405185,0.2032323739931774,0.36416889835659655,0.38123421220335213,-0.41683457984538763, ],
[ -0.4525982519261473,-0.25434666331408123,0.2343418695702769,-0.7995385319972643,0.23230056408621547,-0.07087412640662052,0.28219007011668196,0.058299684624800646,-0.25744944764985417,0.05560516138583962,-0.11594615149470106,-0.41993736418116184,0.1069644073648307,-0.007185395303896825,-0.4285108472142197,-0.026210362415351383,-0.26316510300522683,0.19367906432776966,0.08932752798253797,0.2933764241693398,-0.029394798970487104,-0.2503457045653203,-0.0605859467669496,-0.19278088991478168,0.13505277082551867,-0.192046019940519,0.13782894628384298,0.17702201157782596,0.21515359802009737,0.2764744147613087,0.2607971886437154,-0.3011333850087737,0.009226700787958713,0.19033132333390723,-0.17653209826165128,0.17040818180946654,-0.00391930652939842,0.3030930382734732,-0.11619110815278848,0.24422178811313552,-0.18763680009494615,0.006613829768359824,-0.13162337761229465,0.005470698697284899,-0.2962342518470254,0.12255998126306124,0.041071066339319534,-0.4353696336406677,-0.013227659536719637,-0.05111428932090219,0.03698845537119707,-0.08157056714310383,-0.046541765036604926,-0.15530252122740965,0.29623425184702623,0.029068190093038203,-0.1855954946108854,0.04433715511381867,-0.75201694032831,-0.003266088774499021,-0.09749274991878376,-0.12411137343094818,-0.08042743607202851,0.3411429724963827,-0.09226700787958562,0.23303543406047755,0.10884240841016724,-0.2850478977943681,-0.28676259440097995,0.30603251817052196,0.18477897241726005,-0.17938992593933648,-0.4202639730586114,-0.05740151021181366,0.25826596984347955,-0.096104662189622,-0.02229105588595286,-0.14983182253012478,-0.510734632112223,0.03298749662243585,-0.013880877291619236,-0.1516281713560991,-0.31852530773297866,-0.1264792877924598,-0.38147916886144045,0.12043702355963704,-0.24152726487417425,0.18249271027511169,0.035110454325860185,0.24046578602246219,-0.3614743751176362,-0.19425062986330602,-0.45488451406829705,0.23025925860215427,-0.09471657446046014,-0.2162150768718098,-0.04000958748760848,0.07087412640662026,0.14615747265881385,-0.3322428805858737,0.09830927211240886,0.28937546542057885,0.15783374002764533,-0.3855617798295632,0.049562897153016996,-0.22160412334973245,-0.16959165961584188,-0.05601342248265223,-0.03666184649374775,0.3280786173983873,-0.22454360324678027,-0.007103743084534476,0.15162817135609896,-0.27239180379318617,0.1993130674637792,-0.10059553425455758,-0.43822746131835405,-0.2369547405898753,-0.3573101119301501,-0.007103743084534025,-0.4741544378378386,-0.17040818180946635,-0.19972132856059144,-0.48828027178754524,0.05389046477922721,-0.1464024293169007,-0.15187312801418676,-0.27655606698067176, ],
[ 0.5350669934822383,-0.4920362738782188,-0.2597357097920047,0.28316989674903204,0.2746780659353345,0.6568104525516747,1.2652827912407687,0.15930347997617086,-0.5780160608668957,0.4838710519419719,0.04752159166895447,-0.08557152589186366,0.1683668763254035,-0.0367434987131064,0.10794423399718042,-0.0062055686715479,-0.79145496228038,-0.41503823101941406,0.3341208816312086,-0.05944281569587541,0.4267961506076095,-0.08042743607202846,0.512857589815647,0.5774444953313591,0.19310749879223119,-0.38956273857832396,-0.4179777109164611,0.2685541494831488,-0.12321319901796136,1.3565699724880054,0.7271130134227557,0.09447161780237295,0.5033859323696019,0.5993272901204979,-0.6367240065885086,0.4430449422607398,0.45308816524232154,0.8396297717042338,-0.10231023086116957,-0.8486115158341058,-0.062137338934836944,0.24438509255186072,0.47170487125696575,-0.1036166663709682,-0.437084330247278,-0.02637366685407678,-0.4251631062203586,0.2810469390456071,-0.07797786949115583,-0.39813622161138207,-0.31158486908716976,-0.30276642939602283,-0.023025925860214076,-0.08532656923377645,0.20102776407039102,-0.4554560796038315,0.6241495648066879,0.38572508426828794,-0.24471170142930906,-0.20592689723213842,0.183880798004274,0.24487500586803584,0.21229577034241126,1.0029342104291665,-0.3099518246999194,0.04597019950106742,-0.10827084287462936,-0.3204033087783156,0.17318435726778966,0.7917815711578301,0.5531121339613412,-0.08042743607202812,-0.06744473319339628,0.4684387824824662,0.0856531781112268,0.03372236659669884,-0.24642639803592079,0.6425213141632421,-0.7689189497363397,0.5417624754699599,0.16632557084134353,-0.07258882301323155,-0.15660895673720981,0.5191448107065565,-0.32856853071456316,-0.11512962930107677,-0.03845819531972227,0.2815368523617826,0.13644085855468077,-0.3080738236545835,-0.32350609311408957,0.39568665503050865,0.30652243148669694,-0.07340534520685704,-0.8838852745986906,0.4749709600314636,0.9326316495580828,-0.735033278700918,0.14623912487817575,0.2187462956720462,-0.5248604660619306,0.10288179639670729,0.4793801798770367,-0.6169641695027925,0.4719498279150525,0.33493740382483483,-0.32750705186284945,0.12492789562457249,-0.011268006272020282,0.49187296943949255,-0.09365509560874709,-0.12803067996034614,0.49767027701422695,-0.21915455676885745,0.09161379012468568,1.1094903566971859,0.17538896719057756,0.09863588098985836,0.6439910541117678,0.3951150894949719,-0.40719961796061677,0.6129632107540313,-0.17522566275185197,-0.6578719314033863,0.6192504316449404,-0.11153693164912855,0.08010082719458009,-0.7086596118468395, ],
[ 0.08973578907934948,-0.1293371154701467,0.6323964389622968,-0.2695339761155,0.43496137254385603,-0.6359891366142459,-0.0005715655355371489,0.12737746220544718,0.2600623186694536,-0.4362678080536547,-0.14427947161347654,0.3993610049018206,0.20421220062552695,-0.6181073005738651,-0.5716471877566232,0.11072040945550288,0.006123916452185012,-0.00702209086517208,-0.10974058282315441,-0.13570598858041838,-0.2590824920371042,-0.305215995976897,-0.6055328587920453,-0.2888038998850411,0.6312533078912234,-0.2771276325162092,0.14329964498112688,0.2846396366975557,0.27149362938019755,0.11962050136601272,-0.6189238227674904,-0.23475013066708877,-0.5064887167053754,0.13791059850320445,-0.39633987278540955,-0.19637358756673023,-0.46582591146286695,0.5947547658362002,-0.041887588532944484,-0.16199800321513225,-0.016330443872493123,0.5826702373705556,0.15170982357546198,-0.3624542017499851,-0.003919306529398341,0.015595573898231237,0.15865026222127226,0.5866711961193168,0.45904877725578175,0.03804993422290849,0.2644715385150263,-0.3408980158382938,0.3145243489842181,0.80304957742985,-0.14436112383284025,0.1628961776281188,0.010451484078395034,0.09390005226683518,0.20110941628975448,0.012574441781819502,-0.688736470322398,0.27908728578090786,0.05005281046919144,0.01396252951098112,0.39723804719839534,-0.009879918542857307,0.15350617240143627,-8.16522193621402e-05,-0.4595386905719569,-0.17024487737074215,0.02188279478913986,0.053808812559865214,-0.0634437744446356,0.10982223504251601,-0.06842455982574572,-0.3067673881447833,-0.22209403666590738,-0.23442352178963954,0.07618152066517987,0.175388967190577,-0.0055523509166477926,0.11880397917238794,0.30513434375753345,-0.04425550289445622,-0.2881506821301428,-0.14452442827156495,-0.2202976878399323,0.20707002830321303,0.6563205392354985,0.029068190093038307,-0.02972140784793776,-0.3092169547256581,-0.5572763971488286,-0.12362146011477243,0.24438509255186,-0.09594135775089817,-0.005715655355373234,-0.056584988018188155,-0.33020157510181136,0.030048016725387837,-0.17538896719057662,-0.17302105282906433,0.2897837265173909,-0.2496108345910585,0.2414456126548112,-0.10124875200945714,0.14133999171642825,0.13170502983165727,0.080509088291391,0.3305281839792609,0.7419737173467267,-0.4887701851037199,0.15187312801418637,-0.29623425184702695,0.10859745175207863,0.45806895062343195,-0.29117181424655225,-0.5230641172359553,-0.2429153526033357,0.10761762511972907,-0.44141189787348944,-0.06426029663826044,-0.22225734110463227,-0.005144089819835983,0.009553309665408323,-0.3906242174300358,0.10835249509399243,0.004980785381110539, ],
[ -0.497670277014229,0.7449131972437746,0.15048504028502438,-0.04776654832704273,0.388991173042787,0.20894802934855045,-0.018535053795279914,-0.3438374957353436,0.44035041902177646,0.46141669161729465,-0.3934003928883596,-0.1761238371648383,0.17775688155208783,-0.9199755555569014,0.19041297555327066,-0.21768481682033497,0.025067231344277633,-0.47578748222508604,-0.12035537134027452,0.4682754780437402,-0.06303551334782295,-0.1811046225459489,-0.28219007011668107,-0.07781456505242901,0.5674012723497734,0.15881356665999652,-0.20274246067700238,0.4588854728170573,0.2900286831754778,0.012247832904369711,0.2807203301681577,0.11137362721040339,0.025638796879814362,-0.7312772766102431,0.44279998560265144,-0.21760316460097073,0.1295820721282333,0.71168074396325,0.03772332534545864,-0.44818903208057326,0.8302397664775514,-0.30766556255777217,-0.25108057453958166,-0.7712052118784875,-0.42189701744586067,-0.42385667071055977,-0.3442457568321547,0.47350122008293727,0.5673196201304104,-0.2705954549672117,0.6487268828347901,-0.3623725495306211,-0.15905852331808285,0.520287941777631,-0.06646490656104667,-0.2548365766302556,-0.13962529510981744,0.2746780659353346,-0.37266072917029414,-0.2318106507700403,-0.3301199228824475,0.1513015624786487,0.5310660347334764,-0.16363104760238223,0.34522558346450494,-0.037233412029283985,-0.3723341202928435,0.09398170448619785,-0.19122949774689382,-0.022944273640853524,0.39829952605010716,-0.2866809421816174,-0.32391435421090176,-0.361556027336999,0.14877034367841163,0.2810469390456071,0.28047537351007035,0.47358287230230034,0.5144089819835338,0.3542889798137384,0.3378768837218834,-0.5559699616390289,0.4178144064777369,0.11374154157191396,0.3604945484852863,0.22560508209849325,0.0005715655355366916,-0.42450988846546006,0.28202676567795487,0.10337170971288182,0.26332840744395125,0.03960132639079504,-0.3603312440465602,-0.7142119627634868,-0.5333522968756259,0.23997587270628695,-0.10990388726188022,0.12353980789541068,0.572137101072797,-0.2757395447870469,0.8029679252104889,-0.4532514696810468,-0.6076558164954701,-0.13284816090273185,0.3485733244583663,-0.09904414208667177,-0.825748894412616,0.06148412117993578,-0.06311716556718644,0.13791059850320442,0.19433228208266864,-0.11063875723614079,0.8022330552362248,0.05919785903778769,0.23491343510581425,0.5547451783485915,-0.2932947719499764,-0.157915392247007,0.06801629872893361,0.17645044604228732,-0.4002591793148061,-0.41487492658068825,0.0074303519619840185,0.2856194633299052,-0.3110133035516324,0.3020315594217611,-0.3306098361986238,-0.11341493269446419, ],
[ 0.44876059761611076,-0.013554268414169755,-0.17293940060970203,0.47733887439297473,-0.2711670205027489,0.014779051704605589,0.45463955741020945,-0.15089330138183693,0.1865753212432344,0.24283370038397317,-0.1333380742189068,0.23001430194406614,-0.11537458595916442,-0.3165656544682792,0.26218527637287714,-0.12737746220544657,0.058871250160337965,-0.13407294419316956,0.03592697651948467,-0.16632557084134247,-0.037396716468009426,-0.38792969419107515,0.14738225594925045,-0.1152112815204396,0.1597117410729834,-0.013472616194807585,-0.3402447980833949,-0.17359261836460238,-0.06442360107698573,0.017146966066117774,0.3852351709521128,-0.14828043036223812,-0.033395757719247965,0.026373666854076848,-0.2665944962184509,0.5621755303105769,-0.06866951648383302,0.1879634089723966,0.16763200635114184,0.012411137343094722,0.028088363460687892,0.27835241580664644,-0.13970694732917863,-0.03960132639079631,0.19016801889518284,0.06311716556718618,0.07152734416151976,-0.14877034367841252,0.7254799690355087,0.031436104454549904,-0.12337650345668558,0.1759605327261137,-0.17816514264890013,-0.13464450972870626,0.08646970030485118,-0.1602016543891573,-0.2092746382259994,0.1524446935497238,-0.18633036458514668,0.033885671035422935,-0.030211321164112577,0.3570651552720626,0.29664251294383753,0.3640872461372348,-0.13333807421890614,0.5598076159490659,0.06262725225101155,0.473664524521664,-0.35722845971078776,-0.10557631963566855,-0.1487703436784125,0.27239180379318495,-0.23834282831903783,0.17645044604228816,0.05413542143731553,0.1294187676895079,0.12264163348242403,-0.3337126205343972,-0.017555227162930225,0.147463908168613,0.013390963975444483,-0.07732465173625483,0.2922332930982637,0.06638325434168475,-0.04850141830130483,-0.22005273118184507,0.21131594371006104,0.33354931609567245,-0.24356857035823476,0.0276801023638759,0.43577789473747985,0.2109893348326113,-0.04809315720449272,-0.01804514047910514,-0.12027371912091124,-0.3849902142940261,0.17710366379718748,-0.058707945721612476,0.20902968156791227,0.4039335291861178,0.006695481987722046,0.3853168231714755,0.028414972338138292,0.38817465084916225,-0.043357328481469164,0.2048654183804265,0.21548020689754654,-0.35804498190441203,-0.4400238101443279,-0.24879431239743385,0.010043222981583423,-0.3228528753591898,-0.19825158861206682,-0.22601334319530575,-0.0352737587645858,-0.0990441420866711,-0.14885199589777506,0.2809652868262441,-0.11333328047510285,0.14256477500686432,-0.038539847539083315,-0.06719977653530895,0.04352063292019433,-0.03764167312609701,-0.006123916452184408,0.378049775648216,-0.24046578602246138,-0.16338609094429377, ],
[ -0.2993370361827989,0.281863461239232,-0.20364063508998895,-0.1503217358462989,-0.015840530556317248,0.04090776190059466,0.022127751447227437,0.022127751447228988,-0.20731498496129988,-0.05029776712727896,0.667751849946243,0.33354931609567123,-0.059524467915236946,0.1479538214847874,-0.6560755825774109,-0.19261758547605684,0.3502063688456153,-0.18126792698467353,-0.3226895709204649,-0.4174877976002862,-0.39731969941775713,-0.9044616338780321,0.2138471625102972,-0.16885678964157952,0.22854456199554166,-0.20747828940002552,0.08001917497521661,-0.05095098488217855,0.13611424967722952,-0.07585491178773025,0.09528813999599715,-0.45766068952662037,-0.7962724432227649,-0.33273279390204846,-0.7896586134544064,0.1813495792040373,-0.875965009320533,-0.14517764602646416,0.3798461244741911,0.27026884608976115,-0.020086445963167592,-0.2828432878715803,-0.5379248211599242,0.07707969507816789,0.46631582477904227,0.2049470705997884,0.4371659824666412,0.037396716468008795,0.20666176720639912,-1.0259601362893813,-0.2669211050959004,0.5286981203719658,-0.8517959523892419,0.2289528230923536,-0.11300667159765199,0.06491351439316026,-0.5557250049809417,-0.4417385067509398,-0.5095098488217865,-0.2972140784793754,-0.06336212222527346,0.18575879904960999,-0.03837654310035851,0.39805456939202083,-0.214010466949022,0.03560036764203525,-0.4399421579249651,0.4965271459431539,-0.4125070122191768,-0.78680078577672,-0.3293850529081868,0.47113330572142814,0.4795434843157612,-0.3679249004472705,-0.5758114509441083,0.6384387031951195,-0.5329440357788127,-0.13815555516129224,0.2741881526191595,0.5052639334149375,-0.23768961056413812,0.016983661627392746,-0.11104701833295293,0.12664259223118451,-0.7560178990770698,0.6040631188435207,0.3023581682992107,-0.09316518229257373,-0.5722187532921598,0.43300171927915576,0.38286725659060206,0.01020652742030772,0.31338121791314366,0.21743986016224534,-0.3191785254878789,-0.11692597812705015,0.42851084721421995,0.2677376272895237,0.4185492764519987,0.09185874678277342,0.2999902539376985,0.590508850429352,0.4717865234763267,-0.0898174412987129,-0.3319979239277854,0.3903792607719483,-0.08059074051075393,0.5524589162064423,0.667098632191345,0.504447411221313,-0.29068190093037743,-0.5569497882713785,0.2673293661927122,0.4997932347176521,0.8901724954896012,-0.5479680441415069,-0.8061523617656235,-0.16689713637688025,-0.14207486169069067,0.35314584874266386,-1.121738189601554,-0.0916137901246872,0.5073868911183606,-0.4611717349592063,-0.20698837608385193,0.6716711564756428,-0.039846283048882665,-0.11398649823000286, ],
[ -0.3974830038564839,-0.43994215792496527,-0.08271369821417764,0.23328039071856482,0.10941397394570397,0.060585946766949395,-0.09741109769942179,0.07969256609776706,0.07961091387840437,0.06025933788950031,-0.0016330443872489171,-0.33444749050866,-0.13595094523850607,0.11006719170060436,0.01510566058205608,-0.11096536611359102,0.06809795094829661,0.017391922724205432,-0.12329485123732341,-0.1155378903978891,-0.17987983925551207,0.3080738236545839,0.03968297861015831,-0.4027087458956813,-0.2112342914906994,0.01755522716293045,-0.4691736524567283,-0.3797644722548281,-0.06115751230248691,-0.10443318856459376,-0.06883282092255909,-0.06352542666399817,-0.10361666637096867,-0.03437558435159807,0.1452592982458265,-0.2844763322588306,-0.19506715205693065,0.036335237616297256,0.32473087640452647,-0.22936108418916648,-0.26259353746969033,0.02196444700850304,0.022454360324678187,-0.08655135252421335,0.04450045955254362,-0.2353216962026265,-0.0984725765511341,0.05250237705006563,-0.37584516572543053,-0.4551294707263839,-0.35461558869118887,0.3309364450760734,-0.19351575988904343,-0.3644138550146842,-0.20159932960592739,-0.09006239795679967,0.11047545279741643,-0.21033611707771216,-0.16093652436342049,0.12950041990887082,-0.1174975436625882,-0.10745432068100556,0.2331170862798394,-0.14926025699458736,-0.07242551857450737,-0.03739671646800949,0.07463012849729402,0.02457731802810239,0.1879634089723965,-0.26904406279932463,0.20560028835468894,-0.10639284182929269,-0.14517764602646444,0.34587880121940473,0.14215651391005263,-0.2208692533754701,0.16910174629966646,-0.2514071834170316,0.2663495395603633,-0.10377997080969414,-0.0797742183171295,-0.4119354466836394,-0.23066751969896618,-0.2001295896574037,-0.2385061327577626,-0.02670027573152648,0.0755283029102808,-0.12958207212823322,-0.015513921678867795,-0.07234386635514534,0.03992793526824559,0.263655016321402,-0.15750713115019616,0.008818439691146379,-0.3893177819202368,0.11488467264298952,0.1399519039872659,-0.39519674171433494,-0.025312188002364688,0.07781456505243002,-0.30366460380901,-0.1826560147138364,0.10402492746778114,0.2102544648583492,0.07495673737474413,-0.23515839176390135,0.014697399485243083,0.15718052227274695,0.06826125538702191,0.05829968462480058,-0.25761275208857953,-0.26504310405056447,0.0918587467827737,0.10492310188076899,0.05854464128288818,-0.08524491701441408,0.05013446268855422,-0.18559549461088487,-0.23270882518302718,0.2847212889169183,-0.09463492224109787,0.21923620898822055,0.04833811386257958,-0.013635920633531548,-0.1531795635239859,0.18665697346259655,-0.011839571807557698,-0.48223800755472285, ],
[ 0.06858786426447172,0.039274717513346304,-0.021311229253603608,-0.1779201859908127,-0.0850816125756898,-0.09153213790532415,-0.037886629784184465,0.10296344861606947,0.09087892015042431,0.09781935879623424,-0.10704605958419326,0.09251196453767385,0.057238205773088253,-0.3061141703898837,0.20519202725787664,-0.468765391359916,-0.009471657446046153,-0.07438517183920634,0.13456285750934358,0.030782886699649566,-0.013880877291618831,0.0038376543100362443,0.08451004704015187,-0.36996620593133245,-0.08859265800827579,-0.09863588098985832,-0.03200766999008628,0.10720936402291736,-0.31117660799035696,0.12141685019198648,-0.06597499324487258,0.0380499342229092,-0.02931314675112512,-0.0953697922153601,0.06458690551571022,0.28300659231030645,-0.01935157598890446,0.08589813476931343,-0.12476459118584786,0.17734862045527597,0.0785494350266921,0.19196436772115716,-0.13415459641253108,0.014370790607794523,0.050461071566004066,-0.1064744940486554,-0.01584053055631797,-0.08875596244700058,-0.08295865487226542,-0.0368251509324721,0.3956050028111468,0.005225742039197851,-0.07626317288454292,0.4285108472142205,-0.3226079187011022,-0.28561946332990495,0.2327904774023901,-0.23140238967322807,-0.2187462956720458,0.02572044909917755,0.1046781452226813,-0.0328241921837114,-0.5731169277051472,0.19237262881796907,0.06981264755490822,-0.03102784335773732,0.09708448882197175,0.13627755411595557,0.027353493486425927,0.046623417255968094,-0.001796348825974608,-0.14060512174216597,0.10843414731335446,0.09055231127297442,-0.22936108418916643,0.168448528544767,0.04752159166895531,0.07054751752917032,-0.3110133035516323,-0.3175454811006294,-0.2175215123816088,-0.05193081151452785,-0.5055088900730258,0.0472766350108673,0.010124875200945838,-0.3158307844940179,-0.12109024131453693,-0.08998074573743733,-0.3059508659511592,0.20592689723213844,0.06589334102551016,-0.14958686587203726,0.04237750184912014,0.07887604390414177,-0.06695481987722174,-0.04809315720449226,-0.007348699742622109,-0.13448120528998148,0.04098941411995756,-0.3515128043554149,-0.04049950080378327,-0.03682515093247223,-0.026700275731526387,-0.057891423527988636,0.10769927733909235,0.09047065905361215,-0.22552342987913013,0.08238708933672786,0.02972140784793735,-0.14909695255586303,-0.022209403666590518,-0.012982702878631994,0.037315064248646196,-0.3700478581506946,-0.20061950297357856,-0.1372573807483047,0.06915942980000879,0.021474533692328414,-0.06409699219953559,-0.07773291283306741,0.21572516355563492,-0.2504273567846824,0.07977421831712901,-0.12549946116010974,-0.1472189515105258,-0.2817818090198696,0.08091734938820389,0.21833803457523407, ],
[ -0.3987077871469197,-0.13513442304487996,-0.16387600426046922,0.016412096091855975,0.05364550812114015,-0.027026884608976134,-0.058789597940975706,-0.033722366596698035,-0.07724299951689256,-0.06426029663826059,-0.08467335147887696,-0.04254080628784448,-0.32889513959201255,0.051032637101541115,-0.19514880427629291,-0.11284336715892719,0.03984628304888286,-0.012411137343095216,0.0492362882755667,-0.05552350916647683,0.0021229577034241522,-0.020494707059978794,0.20470211394170182,-0.029639755628575255,-0.07650812954263059,0.14215651391005324,0.062300643373561504,-0.07242551857450678,-0.474236090057201,-0.4460660743771507,-0.013227659536719715,-0.30145999388622374,-0.23524004398326365,-0.10141205644818245,-0.019759837085716648,-0.007430351961984192,-0.3566568941752507,0.017800183821017636,-0.21964447008503324,0.024414013589376775,-0.18159453586212432,-0.07658978176199298,0.15285295464653556,-0.07316038854876944,-0.07773291283306774,-0.2913351186852779,0.18453401575917233,0.05944281569587541,-0.2160517724330842,-0.05625837914073927,-0.10582127629375535,-0.1789000126231635,-0.09112387680851206,-0.05715655355372571,0.07218056191641993,-0.05944281569587556,0.060422642328225154,-0.0976560543575094,0.04670506947533025,-0.20110941628975323,0.17702201157782563,-0.040499500803783395,0.10802588621654191,-0.13627755411595502,0.1361142496772307,-0.10018727315774574,-0.06760803763212211,-0.09773770657687167,-0.02621036241535169,0.3118298257452574,-0.21033611707771183,0.03110949557709968,-0.014289138388431405,0.0066954819877222665,-0.16142643767959494,0.013962529510981744,-0.1328481609027321,-0.49579227596889197,0.11023049613932875,0.10092214313200781,-0.043194024042744895,-0.3172188722231795,-0.08761283137592567,-0.21335724919412297,-0.18673862568195895,-0.05201246373389083,-0.07716134729753013,-0.021392881472966065,-0.14926025699458711,0.06434194885762282,0.04147932743613261,0.13889042513555466,0.025148883563640024,-0.1557924345435849,-0.18796340897239636,-0.06793464650957116,0.14289138388431535,-0.28398641894265614,-0.013717572852894301,-0.10067718647392046,0.0754466506909189,0.09169544234404878,0.014615747265881383,0.004490872064935767,-0.14289138388431535,-0.14909695255586264,-0.08957248464062548,-0.06532177548997208,0.23409691291219006,-0.18910654004347077,0.05340055146305255,0.1651007875509058,0.0033477409938612677,-0.29272320641443944,-0.11455806376553927,0.22046099227865815,0.1477905170460632,0.012247832904369578,0.21270403143922384,0.10957727838442907,-0.03486549766777285,-0.039682978610158334,-0.12402972121158529,0.09961570762220837,-0.06009603345077463,-0.11561954261725203,-0.15064834472374947,-0.10263683973861959, ],
[ 0.12068198021772543,0.004899133161747598,0.209764551542174,-0.16681548415751712,-0.24283370038397423,0.06793464650957193,-0.3872764764361751,0.15562913010485974,0.13194998648974485,0.11782415254003832,-0.38841960750724974,-0.12876554993460806,0.34269436466426834,-0.7670409486910029,0.08418343816270296,-0.0009798266323500348,0.014370790607794458,-0.38009108113227863,0.11259841050084027,0.20960124710344963,-0.13333807421890648,-0.04188758853294511,-0.13660416299340483,-0.02114792481487829,-0.045316981746168654,0.11953884914664954,-0.32938505290818715,0.03911141307462068,0.10737266846164191,0.0836118726271652,0.013472616194807066,-0.839384815046148,0.2990920795247118,-0.062463947812286584,0.17130635622245294,0.04409219845573197,0.2808836346068822,-0.032415931086899503,0.07005760421299616,0.17971653481678748,-0.33403922941184755,-0.11349658491382722,-0.17024487737074126,0.044827068429994225,-0.02653697129280102,-0.02139288147296625,-0.03208932220944895,-0.1107204094555041,-0.3049710393188096,0.04564359062361889,-0.10165701310627005,-0.014615747265880837,-0.0666282109997721,-0.24814109464253378,-0.09332848673129882,-0.14427947161347693,0.022617664763402916,0.18208444917829855,-0.026047057976626008,-0.050297767127278875,-0.09585970553153429,-0.025638796879814133,-0.15571078232422192,0.19768002307652996,-0.09961570762220837,-0.037478368687371214,0.16207965543449493,-0.05985107679268714,-0.2027424606770023,0.01469739948524372,-0.1213351979726245,-0.33493740382483417,-0.5178383751967575,-0.45178172973252306,-0.23679143615115086,-0.08818439691146254,-0.08957248464062499,0.04090776190059492,-0.2049470705997891,0.1351344230448807,0.19425062986330605,-0.18224775361702347,-0.21376551029093507,0.20568194057405115,-0.10720936402291768,-0.1457492115620015,0.3393466236704081,-0.7494040693087108,0.28880389988504107,0.16485583089281855,-0.0807540449494784,-0.08973578907934991,-0.31558582783593053,-0.7706336463429516,-0.21997107896248244,-0.12582607003755997,-0.08369352484652738,0.18600375570769673,0.24781448576508375,0.26912571501868765,-0.05927951125715076,0.03266088774498673,0.15718052227274626,-0.11570119483661438,-0.022454360324678076,0.423448409613748,-0.0587079457216122,0.009879918542858017,-0.10231023086117022,-0.01967818486635483,-0.10671945070674256,0.16134478546023245,-0.043847241797644716,-0.5268201193266292,0.186656973462596,-0.11121032277167862,-0.0934101389506604,-0.04490872064935571,0.056176726921376624,0.06621994990296012,0.011839571807557653,-0.17579722828738836,-0.05331889924369031,0.11496632486235202,-0.21270403143922342,-0.179389925939337,0.15383278127888572,-0.044010546236368873, ],
])

weights_dense1_b = np.array([ -0.073,-0.116,-0.3002,-0.0381,-0.1748,-0.2159,-0.1282,-0.078,-0.021,-0.0003,-0.1345,-0.0347,-0.1116,0.1066,0.0182,-0.0432,-0.1914,-0.2262,-0.1519,-0.0201,-0.1083,-0.1607,-0.0407,-0.2106,-0.1216,-0.0281,0.0706,-0.2002,-0.0204,-0.1097,-0.1992,-0.1089,-0.0451,-0.3451,-0.0221,0.1131,-0.0309,-0.1191,-0.2138,0.0085,-0.0291,-0.0804,-0.1753,-0.1102,-0.0013,-0.1542,0.0197,-0.2191,-0.0353,-0.1119,-0.1964,-0.1286,-0.0684,-0.1021,-0.1073,-0.1435,-0.049,-0.1218,0.0343,-0.0591,-0.0934,-0.2045,0.0034,0.0061,-0.0301,-0.0999,-0.0411,0.0265,-0.0572,-0.1501,-0.2962,-0.1342,-0.0551,0.0645,0.0183,0.0185,-0.2869,-0.125,0.1491,-0.1085,-0.2078,-0.1633,-0.1713,-0.0728,-0.1887,-0.0624,0.0216,-0.0057,0.0036,-0.043,-0.0484,-0.0163,-0.2218,-0.0324,-0.2039,-0.1882,-0.0295,-0.0181,-0.0746,-0.0131,0.1199,-0.1841,-0.1205,-0.0197,-0.0874,0.1135,-0.0971,-0.0614,0.0354,-0.1478,-0.1181,-0.0508,-0.1162,0.0004,-0.1949,-0.0475,-0.0229,-0.1255,0.0082,-0.0588,-0.0367,-0.0852,-0.0598,-0.0631,-0.1872,-0.1592,-0.0122,0.0116, ])

weights_dense2_w = np.array([
[ -0.20223627698501842,2.143856403082724,0.456866683301565,1.1435588228013838,-2.2000472084527796,-0.45332311899895567,-0.99675401597872,-1.5804296789667696,-0.1225060801761571,0.6092399483140654,-0.8205882477915207,0.21995409849809758,0.597849920198514,1.2207579022512358,-0.5973436967267124,-0.3978916488366008,-0.46091647107599126,0.6434100326607188,-1.9740184282930548,-0.9436005514394777,-0.8018579793348336,-0.023539391438804826,0.06302482223938799,-0.67479588791246,-1.3366830772939595,-0.21742298113908082,-2.4164577426482574,-0.5927876854804894,0.3718211400387841,-1.0200402956816277,0.17692510339490236,0.5284973045615978,-0.4852151977224988,0.4363646326935806,-0.9349947524188399,2.5336484763704896,-0.12579653274286967,-0.05492524669054867,-1.1010360511699964,-0.08352687284737742,-0.32474235716116895,-1.3184590323090786,-0.9489158978934036,-0.5019205722919747,0.05492524669054764,1.3060565572499283,-0.4548417894143655,-0.4720533874556384,0.22552255668792193,-0.6740365527047582,-1.1453306049526952,0.8413434101354124,-0.12832765010188166,-0.9043682323748,-0.20198316524911458,0.821347582999224,1.1514052866143223,-0.7251651233567914,-0.25311173590115005,-0.6335386749605719,-0.22020721023399983,0.7813559287268462,-0.9132271431313372,-0.13161810266859814, ],
[ 0.44193309088340343,0.20248938872091787,-0.008352687284741232,0.26247687012948906,-0.22197899238530566,0.19034002539766393,-1.4197037266695367,0.24956817159853217,-0.9218329421519816,0.19666781879519327,0.1516139298047891,-0.48167163341988395,1.056235273915488,1.5515749410740394,0.025311173590114054,0.6117710656730777,-0.8443807509662272,0.0734024034113304,-1.389836541833204,0.24501216035231113,0.9190487130570664,-1.3706000499047175,-1.3526291166557338,-0.1564230527869099,-1.0164967313790099,0.8334969463224821,0.10605381734258137,0.290319161078617,-0.6942854915768479,0.36599957011305795,0.23033167967004325,0.5160948295024389,-0.4449704317142159,-0.877538388369277,0.3065183121762888,-0.40624433612134087,1.1595048621631576,0.6464473734915285,-0.05062234718023327,0.20476739434402902,0.5191321703332556,0.004809122982124691,0.6122772891448778,-0.09795424179374354,1.1271065599678105,-0.17591265645129597,0.8745010475384688,-1.7603921231924835,-1.4450149002596548,-0.6011403727652275,-0.5441902321874691,0.7664223363086775,-0.919554936528868,0.5965843615190037,0.724405788149084,0.6732772174970518,-0.18654334935914746,0.6697336531944392,-1.531832225673748,1.2387288355002202,-1.3111187919679468,1.3706000499047155,0.9129740313954438,-2.268640488881988, ],
[ 0.34650996644867166,0.2738668982450395,0.2718420043578369,0.362709117546346,0.13566789044301292,-0.8701981480281461,-0.08124886722426908,0.06909950390101333,0.8299533820198672,-0.4095347886880527,-0.5570989307184264,-1.5546122819048527,-0.23640636133167217,1.258724662636409,0.27766357428355837,0.0936513422834245,-2.5154244313856093,-0.7363020397364397,-0.2609581997140871,-2.238773304045657,0.745160950492979,0.6593560720224924,-0.7671816715163768,-1.2410068411233282,-0.668468094514934,-0.04151032468778851,-0.6097461717858647,-0.09643557137833937,0.03594186649796423,0.3677713522643682,-0.9929573399402045,-0.37713648649271136,-0.12731520315827927,-0.4128252412547741,0.5401404444130516,-0.7631318837419583,1.1283721186473181,-0.2017300535132175,-0.8233724768864326,-0.9377789815137512,0.17768443860260646,-0.11465961636322139,0.10301647651176732,0.17059730999737127,-2.0334996862298254,0.046825671141713474,0.10200402956816236,-0.766675448044579,-0.4242152693703263,1.875811074763408,-1.0415547932332243,-1.07142197806956,-1.411857262856604,-1.0873680174313343,0.9534719091396266,0.44775466080913084,0.8818412878795971,-1.9309894331898558,-1.1131854144932507,1.3131436858551535,1.3749029494150302,1.4189443914618367,-0.446489102129626,0.4733189461351462, ],
[ -0.559883159813341,0.7340240341133302,-1.9003629131458213,0.2131200816287715,0.30424030655317214,0.5983561436703143,0.041257212951886134,-0.856530114289488,-1.4437493415801514,0.9134802548672437,-0.10605381734258068,1.6264960149007783,0.6163270769192948,-0.10402892345537278,-2.2104247896247227,-0.45382934247075685,-0.35258464811029677,0.16401640486394523,-1.2660649029775435,0.6423975857171177,1.769504145684923,-1.4531144758084933,-0.6031652666524326,-0.2791822446989611,0.05315346453923868,0.6525220551531604,2.0540017368378156,1.0990111572827843,-1.2037994159458576,0.4376301913730858,-0.530015974977001,-0.31309921730972046,0.4113065708393644,0.36574645837716263,-0.6180988590706067,-0.029867184836335346,1.0810402240338017,0.45610734809387204,-2.0324872392862208,1.151405286614321,-0.6226548703168293,0.7054224079565021,-0.40346010702643015,-0.19717404226699806,-0.8643765781024215,-0.2665266579039109,-1.0906584699980466,0.394348084533986,-0.7573103138162353,0.22121965717760325,0.754526084721324,-0.6871983629716142,-0.9223391656237823,-0.28146025032207667,-1.0149780609636052,0.909430467092824,0.06277171050348332,0.4753438400223551,-0.4786342925890708,0.18932757845405854,-1.3154216914782637,-1.4953841357039797,0.8745010475384695,-0.34246017867425144, ],
[ -1.012446943604592,0.47838118085316783,0.9458785570625873,1.8155704816189324,-0.5338126510155197,-0.6226548703168249,0.38953896155186835,1.3194714792526852,0.5095139243690092,-1.0954675929801723,0.7006132849743784,-0.4669911527376188,-0.20147694177731382,0.6892232568588249,-0.15212015327659373,0.11415339289141792,-0.4687629348889243,-2.1719518057677543,0.7924928451064939,-1.7497614302846352,0.6932730446332441,-1.4267908552747708,-0.9661274959346827,-0.3313232622946051,-1.2311354834231822,-0.14402057772775184,0.4406675322038971,-0.5545678133594143,-1.285807618377832,0.028348514420928065,-0.5720325231365975,-0.17034419826147446,-0.46597870579400935,-1.2215172374589407,0.5244475167871802,0.06985883910871646,0.09466378922702717,0.2736137865091395,-0.18755579630275088,0.7350364810569332,-0.3118336586302157,0.5317877571283114,0.06201237529578062,-0.39839787230840723,-1.8246825041113752,-0.8707043714999468,1.1549488509169363,0.4108003473675641,-1.1597579738990584,0.9529656856678239,0.3260079158406804,-0.8843724052386098,-0.6866921394998137,0.2245101097443179,0.532547092336015,1.934279885756574,-0.7978081915604163,-0.8939906512028549,-0.42472149284212696,-0.74338916834167,-0.9985257981300275,0.06859328042921144,-1.696861077481296,0.22071343370580113, ],
[ 0.4226965989549184,-0.6841610221408031,-0.29082538455041795,-0.7385800453595478,0.06606216307019974,-0.0417634364236883,0.5765885343828167,-1.0893929113185397,0.71605310086435,-0.1333898848199027,-0.14528613640726085,-0.15490438237150106,-1.2885918474727467,0.14933592418167874,-0.36017800018733287,0.40396633049823366,0.40143521313922464,-0.34701618992047695,-1.0939489225647612,-1.2536624279183888,0.13693344912252212,-1.962881511913402,0.2718420043578328,-0.37612403954910517,-0.6522689434172558,1.180766247978855,-0.6968166089358601,-0.42168415201131487,0.004302899510319664,-0.7843932695576613,0.14553924814315825,0.2257756684238243,-0.09112022492441164,-0.8388122927764043,0.7676878949881809,0.02202072102339777,-0.6735303292329543,0.034929419554357834,0.4234559341626182,0.6183519708065056,0.9673930546141848,-1.3799651841330591,1.3083345628730323,0.5269786341461906,1.1929156113021124,-1.0539572682923792,-2.368113401091138,-0.07314929167543023,-1.0496543687820625,-1.0916709169416503,0.30930254127120194,-0.7649036658932657,-0.8876628578053241,-0.79148039816289,-1.2531562044465818,1.0066253736788655,0.1736346508281837,-0.620376864693712,-0.7087128605232171,1.0954675929801696,0.2333690205008585,0.7233933412054816,-0.5333064275437178,0.3262610275765761, ],
[ -0.2250163332161231,-0.19666781879519094,-0.6778332287432787,-1.1643139851452797,0.12377163885566077,-0.09997913568095405,0.887915969541227,-1.3338988481990526,-1.5872636958361006,-0.9504345683088112,1.2642931208262325,-0.3065183121762896,-1.0352269998356975,-0.32752658625608444,-0.8329907228506764,1.5280355496352294,1.717110016353388,0.1556637175792053,-0.6226548703168276,0.42092481680360944,-1.076990436259383,-1.0127000553404957,-0.8858910756540181,-0.568742070569877,-0.2898129376068151,1.0218120778329298,-0.08099575548836593,-0.36296222928224425,0.6026590431806315,-0.169078639581968,0.6165801886551964,0.5558333720389205,0.14908281244577357,0.32069256938675433,0.8709574832358516,-0.6454349265479284,-0.23185035008544902,0.1136471694196141,-0.6623934128533022,-0.9972602394505243,0.05112857065202761,-0.5646922827954607,-0.7978081915604176,0.13921145474563326,0.6234142055245286,-1.4308406430491845,-0.6760614465919641,-1.0944551460365661,0.14073012516103953,-1.0347207763638924,-0.038726095592877124,-0.12453097406336254,1.093695810828862,-1.7674792517977165,0.23235657355725747,0.6335386749605693,0.7568040903444334,0.9711897306527031,0.2447590486164117,1.1192600961548749,-2.9581168574767136,-0.23134412661364703,-0.4358584092217752,-0.4740782813428482, ],
[ 0.8929782042592495,-0.2156511989877807,-0.09415756575522953,-0.796542632880914,-2.0031262779216843,-1.0544634917641813,0.7408580509826589,-0.9182893778493674,0.16477574007164475,0.9638494903115723,-0.3201863459149536,-0.9797955296733408,0.4064974478572453,0.6294888871861533,-0.1792031090180124,0.05087545891612847,0.8517209913073642,-0.1678130809024645,-0.030373408308138547,0.5550740368312169,0.47180027571973887,0.7765468057447211,-0.3381572791639355,-0.8261567059813482,0.4614226945477924,-0.6024059314447312,-0.5391279974694472,0.18097489116932303,0.0025311173590110148,-1.5586620696792717,-0.014427368946364184,0.355875100677016,-0.5970905849908065,-1.8370849791705322,1.0774966597311886,-0.40978790042396096,0.06682149827790423,0.03138585525174349,0.14705791855856293,0.7327584754338243,-0.6669494240995242,0.7924928451064954,0.49255543806363167,-0.8403309631918113,0.09112022492441466,-0.0012655586795057502,-0.15996661708952747,-0.5439371204515681,0.6570780663993807,-0.16123217576903218,-1.0564883856513916,-0.4120659060470706,0.46597870579401224,0.03872609559287445,0.30829009432759735,-0.5193852820691561,0.1237716388556614,0.05492524669054846,-0.8377998458328019,-1.1205256548343823,0.692513709425544,-0.47559695175825717,-1.0372518937229018,0.4232028224267184, ],
[ 0.9122146961877379,-0.4730658343992452,0.1986927126824017,-0.7570572020803329,-0.5100201478408123,0.014427368946366287,-0.25564285326015995,0.3842236150979426,-0.5522898077363051,0.12098740976074496,0.5176134999178457,0.19843960094649998,-0.16376329312804408,0.26298309360129346,-0.73022735807481,-0.8069202140528623,-1.346807546730007,-0.26121131144998355,-0.2650079874885016,0.9053806793184088,-0.05340657627514278,1.3569320161660514,0.6661900888918209,0.7122564248258264,0.1242778623274662,-0.745414062228882,-0.2862693733041978,0.7259244585644924,0.4356052974858753,0.1308587674608946,-1.3867992010023884,-0.5522898077363032,-0.3391697261075353,-0.556845818982526,0.5689951823057797,0.5555802603030199,0.8175509069607091,-0.24526527208821336,-0.602405931444733,-0.906393126262012,0.7109908661463276,1.0676253020310402,0.353597095053903,-0.046572559405812744,0.371821140038784,-0.6013934845011277,0.15009525938938187,0.7778123644242254,-0.15920728188182273,-1.2784673780366984,-0.138705231273828,-0.46420692364270333,0.08529865499868602,0.7942646272578053,0.5198915055409576,0.05821569925726391,-0.9484096744216041,1.4951310239680802,0.8332438345865782,0.060746816616272466,0.36650579358486324,0.3087963177993996,1.1552019626528423,-0.10124469436045934, ],
[ 0.696310385464058,-1.4371684364467183,0.07618663250624835,-1.3242806022348064,1.2280981425923712,0.22754745057513118,0.1260496444787735,1.1592517504272588,-0.03315763740304996,-0.2905722728145204,0.34220706693835345,-0.3006967422505646,-0.8633641311588163,-0.19692093053109358,-0.4707878287761319,-0.1599666170895272,-0.4123190177829716,0.7314929167543168,0.20881718211844735,0.4320617331832604,-0.06808705695740959,0.20122383004141306,-0.3487879720717814,-0.3740991456618967,-0.052394129331538045,0.40472566570593477,0.518879058597351,0.057962587521363435,-0.38295805641843644,-0.39687920189300124,-0.22476322148022015,-0.07770530292165392,0.4214310402754111,-0.9268951768700047,-0.05922814620086843,-0.3758709278132041,0.7304804698107122,0.2191947632903934,0.06125304008807813,-0.631260669337464,-0.15591682931510847,0.7666754480445759,-1.0000444685454353,0.19008691366176236,-0.8147666778657933,0.22957234446233735,-0.47838118085316744,0.6920074859537385,0.193124254492574,-0.22197899238530683,1.674334132986091,-1.7376120669613788,0.5725387466083975,0.7998330854476297,0.33663860874852614,-0.37435225739779937,-1.5381600190712743,0.30525275349678693,0.45813224198107727,-1.065094184672032,-0.5333064275437165,0.23083790314184524,0.1655350752793483,-0.2060329530235339, ],
[ -1.3308615073682355,0.44826088428093175,-1.2202516787794309,-0.2485557246549286,-0.2518461772216427,-0.3880202911364615,0.0693526156369166,1.5505624941304323,0.12655586795057278,-0.009112022492439156,0.7714845710267003,0.09238578360392082,-0.36751824052846715,-0.38498295030564433,-0.015186704154070113,-0.0825144259037713,0.004302899510319211,0.768700341931785,-0.8003393089194308,0.9970071277146205,0.971189730652704,0.4416799791474995,-2.4412626927665695,0.42927750408834475,-0.11870940413763778,-0.9448661101189826,-0.5120450417280243,-1.529301108314734,1.2020276337945535,-0.011136916379650004,0.09846046526554776,0.20704539996713814,-0.2675391048475126,-0.2908253845504187,-0.9220860538878837,-0.7874306103884697,0.5576051541902305,-1.3875585362100964,-1.1412808171782762,-0.1784437738103105,0.13668033738662583,-0.43914886178849216,-0.3093025412712013,-0.8960155450900629,-0.5862067803470602,0.5302690867129034,-0.054925246690548685,-0.44598287865782177,0.45914468892468097,-0.7912272864269875,-0.10124469436045781,-0.0258173970619142,-0.2670328813757102,-0.37738959822861035,-0.15566371757920652,-0.2017300535132113,0.6467004852274338,0.8304596054916643,-1.7277407092612354,-0.2151449755159757,-1.0919240286775513,-0.6942854915768503,0.68947636859473,0.3644808996976538, ],
[ 1.1524177335579253,-1.2199985670435345,-2.9652039860819444,1.087114905695432,0.8752603827461704,0.9671399428782861,0.5560864837748237,-0.12275919191205874,-0.10883804643749279,0.2682984400552161,-0.37207425177468956,0.38776717940055977,-0.38751406766465674,-0.3533439833179998,0.3252485806329754,0.2718420043578316,-0.4381364148448853,-0.36119044713093956,-0.6578374016070856,-1.3824963014920737,-0.8747541592743675,-0.16199151097673453,-0.31942701070725016,0.18654334935914235,-1.0367456702511004,-0.27007022220651955,-0.7562978668726302,0.2865224850401,0.4429455378270098,0.26247687012948867,0.14882970070987445,-1.7603921231924848,0.0007593352077039373,0.8226131416787299,-0.2984187366274571,1.8077240178059986,-0.4383895265807858,-0.7935052920500985,-2.2532006729920178,0.045560112462206794,-1.1696293315992028,0.29740628968385013,0.09846046526554848,0.8704512597640462,-1.9527570424773593,0.05391279974694148,-0.6345511219041797,-1.7295124914125408,-1.3746498376791347,0.0855517667345875,-0.35283775984619664,-0.07770530292164962,-0.6388540214145014,1.1574799682759522,-2.033246574493921,1.0977455986032791,-1.1812724714506586,0.41889992291639977,0.4062443361213381,1.0164967313790108,1.3761685080945458,0.09896668873734987,0.49888323146116836,0.605190160539645, ],
[ -0.9851108761272671,-0.6188581942783081,0.017211598041277032,0.6742896644406555,-0.03670120170567043,-0.6044308253319428,-0.1518670415406866,0.5851943334034522,-2.14714685564944,-0.7965426328809118,0.09466378922703042,-0.4467422138655247,-1.0159905079072078,0.09542312443473397,0.40497877744183713,0.5047048013868914,-1.1643139851452813,0.3986509840443086,-0.005821569925730478,0.91702381916986,0.9436005514394807,-0.7861650517089642,-1.5184173036709825,-0.04378833031089507,-0.16047284056132835,0.4302899510319518,0.2953813957966414,0.7800903700473393,0.04707878287761043,-0.7952770742014064,-0.11035671685290392,0.40295388355462597,-0.3070245356480945,1.018015401794415,0.5057172483304911,0.8567832260253865,0.09643557137833589,-0.39586675494939605,-1.6373798195445288,-1.112172967549644,0.12402475059156118,-0.8780446118410842,-0.10681315255028268,0.5302690867129058,-0.5120450417280216,-1.3232681552912013,0.2756386803963507,-0.15009525938937848,0.09997913568095478,0.5158417177665364,1.8472094486065767,-0.17996244422571747,-0.5796258752136269,0.4902774324405246,0.20653917649533576,-0.5107794830485148,-1.517151744991479,-1.8897322202379685,0.54672134954648,0.10985049338109731,0.5153354942947349,0.1693317513178668,-0.04176343642368837,1.3452888763145971, ],
[ -0.42699949846523844,1.262015115203126,1.2766955958853887,-0.7061817431642063,-1.9568068302517798,-0.14250190731234438,-0.21160141121336037,-1.5374006838635779,0.2300785679341419,0.4836965273071,-1.4708322973215682,-0.5626673889082497,-0.7848994930294637,-0.26753910484751137,-1.017509178322613,-0.05467213495464925,1.5341102312968575,-1.4807036550217123,-0.6436631443966188,-1.2359446064053061,0.4226965989549147,0.7788248113678369,0.18502467894374103,0.6368291275272884,1.3756622846227362,-0.2996842953069583,0.5277379693538925,-0.3662526818489588,0.7995799737117257,0.9765050771066294,-0.047078782877608985,1.1382434763474618,-0.1837591202642329,0.4629413649631963,-0.397891648836608,-0.11693762198632984,-1.146343051896293,-0.24830261291902747,-1.2088616506638845,1.1934218347739127,1.2574591039569067,-1.4781725376627062,0.3543564302616082,1.2579653274287044,0.5163479412383412,-0.05872192272907032,-1.070409531125957,1.145077493216792,0.5910159033291835,1.686483496309349,0.5700076292493849,-1.3959112234948339,-0.19869271268240266,-0.6191113060142046,-1.1605173091067664,-2.2478853265380896,-1.3536415635993397,0.1364272256507197,-2.214980800870946,1.1248285543447014,-2.56250321426322,-0.6160739651833941,0.2994311835710592,1.0094096027737758, ],
[ -1.6920519544991712,0.23362213223675796,0.5444433439233698,-0.20957651732615026,-0.01923649192848554,0.3561282124129149,0.04960990023662659,1.093948922564763,-1.0858493470159265,1.6548445293217038,0.9015840032798916,0.3756178160773046,-0.3027216361377751,0.27690423907585876,0.39763853710070235,0.4226965989549201,-0.7317460284902194,-0.5279910810897971,-1.6077657464440929,-0.3085432060635023,-1.2397412824438212,-0.32955148014329616,0.4368708561653792,-1.283276501018821,-0.9838453174477635,1.0314303237971778,-0.3191738989713491,1.285048283170127,-1.3265586078579155,-0.6884639216511255,-0.22147276891350506,-1.2101272093433884,-0.19843960094649687,0.34220706693835173,0.06327793397528485,-0.651509608209554,0.8352687284737884,-0.07441485035494047,-0.8562770025535894,-0.022526944495202175,-0.27791668601946257,-0.873741712330764,0.5864598920829556,0.881841287879599,-0.09896668873734822,0.677327005271472,0.5745636404956049,-0.5158417177665389,-0.40573811264954035,-1.3741436142073291,1.6257366796930721,0.050369235444330265,0.7249120116208898,1.3683220442816053,1.4267908552747708,0.9476503392138979,0.4667380410017167,-1.139509035026969,0.44648910212962173,-0.38928584981596454,1.645732506829264,0.656571842927578,1.102048498113601,0.04024476600828178, ],
[ -0.4130783529906747,0.36194978233864034,-0.8679201424050418,-0.33638549701262604,-1.4237535144439615,0.46547248232221183,0.10630692907848217,-0.18375912026423896,-0.6709992118739476,0.29057227281451803,0.2581739706191701,1.0681315255028452,0.7633849954778604,-1.3085876746089342,1.477666314190904,0.22805367404693605,0.5439371204515703,-0.8281815998685553,-0.958787255593548,-2.157018213349583,0.11010360511699992,0.27690423907585693,0.6785925639509781,-1.0243431951919457,0.3629622292822452,-0.3196801224431494,-0.14807036550217387,-0.00430289951031658,1.0450983575358403,0.7135219835053366,-0.689729480330628,1.1552019626528383,0.38802029113645764,-1.8917571141251799,0.1683193043742596,0.4960990023662519,0.5062234718022979,-0.32828592146378677,-0.874247935802565,0.7059286314283008,-0.39763853710070324,0.699853949766673,0.6836547986690005,0.1465516950867643,0.3211987928585583,1.12052565483438,-0.25463040631655315,-0.5360906566386339,-1.1217912135138843,0.7122564248258296,-1.6067532995004863,-2.0297030101913065,0.9668868311423857,-0.41814058770869433,0.16781308090246247,-0.4062443361213406,0.38903273808006694,-0.6322731162810691,0.021514497551598153,-0.742123609662166,-0.5520366960004018,-0.015439815889968126,0.24880883639082985,-1.5771392264000546, ],
[ 0.4097879004239586,0.04682567114171427,-0.664671418476413,-0.4110534591034647,-0.23083790314184593,0.036448089969769136,0.6122772891448758,-0.24197481952149738,0.4604102476041883,0.012149363323254662,-0.4907836559123247,0.2581739706191702,0.49761767278165747,0.3206925693867547,-1.0132062788122964,-0.08200820243197318,-0.004556011246221034,-0.8238787003582387,-0.18097489116931875,-0.867413918933234,-1.8446783312475656,-0.2908253845504217,0.25640218846786084,-0.42294971069081927,0.3125929938379179,0.7722439062344001,0.1784437738103114,0.6459411500197283,-0.5940532441599944,0.9696710602372965,0.8757666062179743,-0.35967177671553224,-0.288800490663208,0.32702036278428503,0.23893747869068543,-1.0792684418824954,-0.1440205777277532,-1.2645462325621346,1.513355068952966,0.9554968030268344,0.406497447857242,0.6960572737281595,-1.1653264320888859,-0.9800486414092452,0.6522689434172596,0.2720951160937338,0.7433891683416696,-0.3001905187787618,-0.9651150489910764,-0.9322105233239266,-0.20831095864664598,0.681123681309991,0.19970515962600482,-0.47888740432497223,0.863111019422915,0.09390445401932491,-0.36625268184896,0.5750698639674061,-0.6494847143223433,0.4831903038352929,-0.06884639216510993,-0.810210666619575,0.31132743515841177,0.41636880555738703, ],
[ 0.19768026573879416,-0.3809331625312283,-0.8026173145425374,-0.14275501904824417,0.33967594957934066,-1.4103385924411953,-0.672517882289349,-0.11997496281714284,0.3715680283028879,-0.33031081535099843,0.21210763468516,-0.36498712316945436,0.18958069018995943,0.31917389897134885,-2.7257602839194592,0.35106597769489223,0.4204185933318095,0.9172769309057583,0.4505388899040446,-0.7363020397364413,0.5867130038188615,-0.2055267295517336,-1.3447826528428006,-0.0850455432627866,-0.7687003419317892,0.6530282786249645,-0.6115179539371736,-0.3052527534967853,-0.31335232904562094,-0.030120296572238636,1.2971976464933828,0.6398664683581007,0.08605799020639059,0.6583436250788842,1.3627535860917803,-1.1701355550710075,-0.07011195084462025,-1.3678158208098024,0.5786134282700247,0.8218538064710272,-0.01847715672078466,0.4391488617884934,-0.6821361282535955,-1.0539572682923801,-0.18882135498225602,0.8583018964407919,-0.4715471639838375,-1.511836398537557,0.44269242609110704,-0.01316181026685759,-0.9749864066912223,-0.5538084781517081,0.5143230473511323,-1.383002524963873,0.5788665400059255,0.4161156938214872,0.4923023263277326,-0.408775453480354,-0.6416382505094118,0.9757457418989237,0.24374660167280632,-0.1822404498488283,-0.09187956013211843,-0.6965634971999582, ],
[ -0.23691258480347435,0.4783811808531693,-0.47989985126857676,-0.9509407917806154,-0.40143521313922165,-0.47787495738136604,0.03163896698764368,-0.4568666833015714,0.2594395292986772,-0.8010986441271323,-1.7892468610852137,0.5006550136124699,0.8555176673458803,-0.3609373353950382,-0.3829580564184355,0.7033975140692903,0.07112439778822253,-0.16224462271263565,-0.5176134999178474,0.028095402685029594,-0.5444433439233686,0.3758709278132073,-0.33436060312541477,-0.5811445456290358,-1.3465544349941105,0.3424601786742536,-0.4702816053043347,0.9271482886059051,0.054419023218745914,0.5798789869495291,1.4280564139542775,1.0435796871204333,-0.5391279974694433,-0.15465127063560052,0.38093316253122783,0.068846392165113,-0.2353939143880682,-0.8269160411890544,0.6699867649303365,0.5274848576179927,0.07314929167542913,0.01240247505915628,-0.2822195855297818,0.6099992835217688,-2.16942068840874,-0.4593978006605843,-0.23412835570856325,-0.7623725485342564,0.05644391710595592,0.5983561436703163,1.0782559949388923,-0.2569084119396639,-0.43585840922177793,0.13414922002760676,-0.30196230093007065,-0.12402475059156315,0.14629858335086085,-0.4864807564020037,-0.634804233640082,-0.8091982196759698,-0.6335386749605718,0.5793727634777254,-0.9129740313954402,0.0012655586795042983, ],
[ 0.8491898739483529,0.367771352264367,0.592028350272783,-1.869230169629978,-0.7504762969469045,-0.6828954634612957,-0.0685932804292122,-0.8208413595274258,-0.7444016152852758,-0.14477991293545472,0.06732772174970392,0.23387524397266024,-2.2600346898613504,-0.5300159749770034,-0.394601196269887,0.7788248113678321,-0.9641026020474734,-0.8347625050019861,-0.004556011246223922,-0.2364063613316732,0.8699450362922422,0.3703024696233785,0.4928085497995372,-0.8253973707736451,-0.3991572075161118,0.2300785679341443,-0.8236255886223356,1.2792267132443986,-0.10580070560667924,0.05593769363415423,0.7074473018437089,0.38118627426713025,-0.5241944050512781,-0.34321951388195465,0.1549043823715041,0.6563187311916752,0.7821152639345488,0.10149780609635788,-0.504451689650989,-0.7527543025700144,0.39080452023136875,-0.15161392980478922,0.2680453283193154,-0.2538710711088524,-0.5753229757033106,0.2925971667017264,1.1592517504272573,-0.20856407038254962,0.0761866325062453,-0.056190805370058244,0.2682984400552157,0.10453514692717245,-1.5705583212666225,0.9301856294367192,0.711243977882227,0.4459828786578173,0.8013517558630329,-1.1977247342842305,0.25463040631655504,0.26956399873472087,-0.1807217794334221,0.32297057500986753,0.4928085497995369,0.4052318891777346, ],
