import numpy as np

weights_dense1_w = np.array([
[ 0.01090151827361152,0.3724021888207424,0.04602415100153325,0.030862343599801594,0.11864840847290951,-0.003744709719405443,-0.19180643977713857,0.0415557791460168,-0.1339512782644126,-0.005887184684415597,0.03757199643758073,-0.2171666632912403,0.010906259461201662,-0.15391046767221486,0.21413361375905665,-0.060597578593037826,-0.38105930430282525,-0.15312455958456425,-0.06465830808858097,-0.18078857549551347,-0.00719632602857237,0.2011229690885712,-0.21560021576180477,0.047292157548194755,0.2544410589471228,0.003430571837881078,-0.07436800448020492,0.30572913516319344,0.36524118398180355,0.10734903578161731,0.029196999154973875,0.08811496831359286,0.17486551751302828,0.07508336566914502,-0.027131755724860485,0.1564249445618771,-0.09173618387859017,-0.3331478758513226,-0.012261431016373251,-0.005976646794908182,-0.011028694424949456,0.15121309119849058,0.03342377118881072,-0.1109600565642455,0.1517534325136049,0.1284923024880642,-0.036387103908905406,0.1669758713170423,0.25081581778064266,-0.21149580417469394,0.4441741105546162,-0.1513563377536937,0.18918535731352698,0.1082595228678059,-0.06228622968350875,-0.038680010232169035,-0.1656012634351806,0.036583091678593936,-0.2346785590698237,0.054645759874193615,-0.06560266626096742,0.08558362986959979,-0.13373658393419766,0.03472668369992178,0.14728695846992454,0.41112774235872696,-0.10062991680404726,-0.21727811493762478,0.049949498770085074,0.2800396056249602,-0.00990513089850805,0.2846844345783717,0.11534347860758132,0.1111012366965612,0.14886911583336176,-0.08609377440108504,0.2477002173391198,-0.03580107840642046,0.021573140979381913,-0.012204670605272375,-0.17242397230050693,0.17428384753816717,0.3910708071689733,0.33477369098405496,0.22525009700743648,0.021743759173697197,-0.043347027466012863,0.0846283060370463,0.5526714154145963,-0.12515881126088776,0.12933126689272872,0.2127806052527806,0.41638709078031344,0.21714478809153356,0.04359715580935533,0.15019603386939404,0.19243925981563284,0.09278404104080366,0.009653429188814826,0.10990736962915874,0.08939478468024609,0.05888665026726264,-0.193249120606597,0.3255267290377573,-0.07263996814919327,-0.06757775770687685,0.37087415074524555,-0.0776001378395246,-0.07876261062084569,-0.10231901529687555,0.21960462104342016,0.14838012639702,-0.009326541030420916,0.14261881718850095,0.22599578218172195,-0.041902254359134375,0.18499054855124747,0.15066691158461884,0.15639906377384055,0.1015492454525823,0.2031525617790464,-0.0862940564026809,0.09193573811838486,0.07409318867651972,0.05906128689927126,0.13180874801824385,0.016563225730169467,0.355361180131485, ],
[ 0.5816817748826042,0.13117550223737248,-0.30574754896300543,-0.22117484221842204,-0.08591214833268017,0.11023725115325048,-0.2789743510778265,0.3685215947563108,0.23122986573629944,-0.5958074685081122,0.06704295482364331,-0.2671582695050586,0.4963492772772069,0.13204658456952584,0.49811797224412296,0.25126228609100504,-0.15251570637316622,0.2532748848140214,-0.09393659971085594,0.5051405354052149,0.08282142627471643,-0.5428107555557281,-0.01616534693482955,-0.36183279779923017,0.3734083687998994,-0.16976188825069044,0.25652698207914887,0.24944798679541003,0.1605847889692889,0.20488897308874915,-0.3010871225578286,0.38243474043822295,0.1833549235501482,-0.12345306273870077,0.5683537579447336,-0.30568849853649843,-0.24690268992001244,0.05131946279119405,0.5041755484368325,-0.48668999375250654,0.4464140160787754,-0.27480323419936725,-0.09096015222031394,-0.42534237971876,0.2617246790066004,0.0648703193821441,0.18298023553407325,-0.04343536693009504,-0.19227747720291696,-0.10852008756923893,0.21319037939659732,-0.28041794776440127,-0.24156571635494498,0.18648886688730926,-0.7228481789738821,0.16525413969478212,0.04122249122272878,-0.37618113165203293,0.5815667470723483,-0.07773543860645941,-0.29710726558895106,0.30221584133354545,0.8190160734924541,-0.0005273119095083686,-0.24459511117861538,-0.2892603527687463,0.1508742153531103,0.3228960954526853,0.11154166242442536,0.19029912001464552,-0.22024647291231286,0.18970978808100253,0.6059509310990514,0.5869306710332063,0.7896768281510854,0.07878424891981806,-0.14659609173117977,-0.03432357715870156,-0.2577807296723074,-0.050819352027172,-0.02898196962649878,-0.2665614073428396,0.7386529411506405,0.10937866060081944,-0.27005938415621505,-0.3982566677256532,0.3555923520666807,0.37541333189187065,0.04279450594513212,0.3533608914063724,-0.3837651919647962,0.015662568381601828,-0.8691366380999019,0.4367654075354185,-0.7702685052299114,0.04730675568145656,0.5575009456707504,0.1867414699787162,0.58415063058729,-0.24096105553210456,-0.06527942313028395,-0.05115214497211015,-0.24439862238480647,-0.3571905982739,0.11903408244982244,0.4910200594237808,0.4342361708477852,-0.04919033676002222,-0.9041148707022156,0.4078776958369028,0.19350217450994306,0.6272037034045421,0.2711291422782928,-0.21125824129814966,-0.2539191662829651,-0.17068253044886977,-0.17520956464288545,-0.27259304850697497,0.2373200788575953,0.6857067453888354,-0.7092300793441527,-0.5854418046910396,-0.25676717911983604,0.43641580213230385,0.08430410193793281,0.3603837912871445,0.15675237004765596,-0.8023952518537477, ],
[ -0.021733557690172225,0.10956915252907419,-0.3575022600865221,-0.007707189972322711,-0.30973928911293036,-0.19503222188095246,-0.32888146766765947,-0.18685747614624312,0.18483667422920724,-0.07410257725454719,-0.1508709647602025,0.022618925955442577,-0.4039604918626299,0.24105864001951186,-0.02839163499132495,0.31971412706984864,0.12374616928032027,-0.18065118758589954,-0.16071071722770414,-0.003437827604304493,-0.14547786469905383,-0.09954904434498614,0.09239975370073344,-0.24663519613779528,0.14805536535728092,-0.008794356402761674,-0.06732255679399607,-0.18724930458316752,-0.12142120747346263,-0.014967053053068757,-0.2225177234042228,-0.15572497296248042,0.0283476131377116,-0.11487638325931873,-0.2964084827403518,-0.11142172563371486,-0.11694433069921477,-0.16226475682782882,-0.10487356893932154,-0.18874575211498454,-0.10282235503647434,-0.3732566830830091,-0.21944775705893052,-0.32255996377946144,-0.06587598584821075,-0.21445400259201758,-0.24729240809618377,-0.12157267795655335,0.1496310120169006,-0.02589381498328637,-0.3152759991328591,-0.306335913602943,-0.09939765867221985,0.21050143059026274,0.16800354227259465,-0.05823997700063147,-0.2378568152554811,-0.15156766326390078,0.05376386445245599,0.478942943232812,-0.09790085125537344,-0.26534251797653,-0.1623695131637997,-0.0068576745173366815,0.36158003530875993,0.09957731180964455,-0.005181411683567706,-0.11428118391388557,-0.22556892492023417,-0.14602602398085263,-0.25395796193741454,0.030164622904006524,-0.06169946192905929,0.09000426727695263,-0.11787613660768835,0.035620824519669775,-0.06292887996581553,-0.46105014111330966,-0.008606061851593821,0.09671433137378298,-0.38742104260356147,-0.15772423275998795,-0.024367161343077554,0.0024088828761564835,0.0298638306354218,0.01547220697074167,0.14813891412487679,-0.1696167421040154,-0.03301680726055642,-0.2356129203745703,-0.06233216762028204,-0.08876110410055563,-0.030631190211035206,-0.21037264877040293,-0.2913285961035051,0.06146732911861405,0.009152753526300045,0.1246500200696004,-0.05123190515585695,-0.2171249405559494,0.0727829957336992,0.1217501270432641,-0.24936234876091087,-0.2653846628102024,0.06923886971916464,0.17343273393495998,0.1402903211498104,0.02442391527570466,0.07222286485125719,-0.057270423208252874,0.08772197323237617,0.013920005572391342,-0.21281790135764264,0.07065561386682467,-0.37010843750741634,-0.12949200983777054,-0.0013349366995966578,-0.14639185030509644,0.16340450281069427,-0.07216293362931633,-0.22242254865265532,-0.053047406126908656,-0.1503992535141484,-0.3019963997346092,-0.15125647949297025,-0.1333318623483364,-0.2491624928162045,-0.0033914694656076196, ],
[ 0.01322728188895354,-0.49059317218427445,-0.3626584316721205,-0.6864899443300665,-0.1525001030034892,0.6090082320106996,0.13300980119528943,0.7112427992088255,0.20908066703572153,0.23200883376587522,0.19989245202608877,-0.12408111046928154,0.25088180431101126,-0.26261188700873417,-0.22308170560991405,-0.026929860666120173,-0.12762102112576623,0.12114903124635636,0.3069905329500283,-0.30725910971321324,0.1645501857849694,-0.6392299904934906,0.23259928566090468,0.2621172257708389,0.1904066454604474,0.1170253687814313,-0.7253976356993964,0.15006708370796312,0.4474855544898875,0.344799679116212,-0.520468281512662,-0.056631543131193327,-0.5522442779830988,0.24320326885970914,0.14142390935553806,-0.43162219946509833,-0.28088959874328095,-0.3295625396511433,0.4032410174062414,-0.22455086368214988,-0.13132523430713822,-0.22001392301773973,0.027320170695172983,0.45579769019830074,-0.5813804735799161,0.4336913123030358,0.6936750357536919,0.28340279225681553,0.18137195494991626,-0.9513323435132641,-0.574762394023947,0.2677071002676299,0.023410195126466464,-0.11113766238560306,-0.48270237973954044,-0.2272284541957061,-0.7059085088971537,0.24512418015813142,-0.19794600946744548,0.2725695515594204,0.35281922460957144,-0.456194135571351,-0.2317559374632423,0.056930755213187585,-0.3370944362253944,-0.10886075189283273,0.12176155732369737,-0.5071331559135577,-0.341957361661061,0.10820427080694153,-0.5249376865505743,0.5935204055664542,0.04103726808680704,0.3356054215081826,-0.5222406933986035,0.45125431220013534,0.13933287054537827,0.007445283212320575,-0.21771101177206187,0.24998938565865728,0.10231397116843734,-0.31421605963426696,-0.1762966828004465,-0.3365826033153773,-0.15685546278435,-0.2711345708941634,-0.5107525664184943,0.17960956789973018,-0.49729564715229857,0.20055180273760922,-0.7883937394243979,-0.24588238600564372,-0.07407387879822153,0.28074707974200325,-0.10974817823781322,-0.3633486016102283,-0.28664404732682125,-0.00046913001457438744,-0.394487328524695,0.07583702555039068,0.3802915559955236,0.4560505530906948,0.18217485387548427,-0.35333299222407927,-0.2671906586157722,-0.6432512435752004,0.431875429741578,0.09780757234672316,-0.7763474617697074,0.3845240730216787,0.04893908152494787,-0.18185270527861083,-0.5208644635119808,-0.050294700956755374,-0.09230521736638375,0.09907390061219618,0.2780562703218432,0.8986775303047334,-0.3016586039246256,0.3967635180696557,-0.13849243444519496,0.09878980429113177,-0.035952664684346936,-0.2650056557431688,0.09683685565938141,-0.47841321864461217,-0.732265839648214,0.32620557686952756, ],
[ 0.2888959339683201,0.536231163466386,0.06587064352419113,0.874916320189859,-0.15980494284653998,-0.20615124339859642,0.08523546031073577,0.8422174463432771,0.12708603202090157,-0.39527533386654423,-0.09426757192602167,0.7828915617915633,0.009996433532994696,0.5802093613802661,1.2268792910629722,-0.34328640115858716,0.05265887830353626,0.29408484200172474,0.42582192568731037,-0.2950438254569303,0.6593494236471827,-0.6280965400989498,0.46758981169505326,0.06724506848017481,0.484133367357836,0.6578801655623288,0.27053943684002224,0.5061023643602874,0.4996560106299024,-0.39356872552293237,-0.4012296792784046,-0.4935350090255284,0.7146927015679313,0.7252741162150778,0.19133387848183964,-0.0909713126418106,0.15369658171284362,-0.8580188125355108,0.43670210049357594,-0.4806588321896493,-0.5239304886310742,-0.8887078916917182,-0.045390133421289,0.3768921500502292,-0.6602627081562579,-0.4470145170641093,0.16175425201244853,-1.0178571633552762,-0.7132448701143025,-0.02653445486373506,-0.1686020577786017,-0.2122935452999633,-0.8652015436705532,-0.16626012291989395,-0.29252778232843496,0.46928724525395754,0.37914682613605644,-0.8948896371015915,-0.004521959287476856,-0.6406190306125679,-0.38763662985144587,-0.4852627560373487,-0.5343340815468374,0.23382660415584625,0.5476558347639766,0.6351116766897812,0.05021308880544413,-0.21526674867422932,1.0418543276334635,0.22487388016648194,0.7595452300880781,-0.40661730378719363,-0.7321049937310545,-0.46650573645422644,0.8455019613376141,-0.001991309476354197,0.005310528406782561,-0.05794657062114572,-0.541182435867015,-0.3348242144921715,-0.18986355269852262,-0.0954977982491462,0.4203537987650281,-0.7663794850107863,0.36064850824233363,-0.047075544079127556,0.01057268387097193,0.12279656262330589,0.46275549574653857,0.2687945774922081,-0.6673951801961668,-0.28327479432834946,-0.3299643302449134,0.2552751150442564,-0.14409716800647643,0.8527603041304103,-1.1010322499243737,-0.29074275689574,0.32445073160051363,-0.1012926541048718,0.22005708475844515,-0.8975129625675108,-0.4775801331924559,-0.09202568809508802,0.3594457063729824,-0.27466856159945147,-0.9672842713241354,-0.20344459697288392,-0.45367178992030216,-0.8362798457277317,0.41313193250941976,0.5786511304559954,-0.017997935844486362,0.08535624676659884,0.270764527187502,0.23306576169354187,0.23499010984889757,-0.19041980734953606,0.16057425945905182,0.6066962044031305,0.4228974008642323,0.2940215611711448,-0.2817551064033727,0.8317224086937262,0.44070261555867163,-0.1491083633508909,0.34944172061912204,-0.46130627692123827, ],
[ 0.255836988180693,0.26921297290548973,-0.6589942919072694,0.07930041233117521,-0.6595583512769714,0.07933076082583057,0.7767045857236403,0.15857353709434688,-1.0137497593704277,-0.36392110846816667,-0.3080100664645874,-0.6739615785927769,-0.8301563591926078,0.14104075834236837,-0.49688320156941085,-0.4714626580154562,-0.5598316515183623,-0.2098942769270456,-0.2003821822929272,-0.20350546812253364,-0.3700758092867825,0.2308634888374272,0.08766858895461321,-0.4102507619361412,-0.18728742086811143,-0.45873682212059697,-0.264841343028305,-0.15151465547284215,0.30279359947402845,0.7256278730228599,0.15683330783918045,0.13105696842729664,0.07549335943839436,0.7362950426176328,0.25898900567615646,0.10147808225939665,0.05483160275328917,-0.5185753049090344,0.08196257644854542,0.1427417270473063,-0.16115911459765014,0.04473818550888407,-0.1440395035015861,0.14517822074428052,0.3606599854503232,0.78168437398517,0.41256611411931376,-0.22690649764252194,0.48133800353364087,-0.9781095062147915,0.23063986530942315,0.2589769958931444,0.1264316235753277,-0.09839920809719341,-0.5472512812698433,0.5035946685026301,0.7755381860377949,1.0737769158054182,-0.9976685272549486,0.40452694125885863,-0.45552124949248446,1.2190358377739963,0.42393368320094577,-0.8657453035748955,-1.430201900071882,-0.5093806852520555,-0.16333153016220703,-0.005618504149689299,0.21262213519236928,0.0010447794231720382,0.9657006719660428,-0.999204531834832,-0.8440382413209343,0.5407866952604928,-0.020588797274581832,-0.7291440516591355,-0.013460659739725454,0.30613881555155736,-0.6529929129751071,-0.6167856031014248,0.6053726251591303,-0.15388214013841192,0.03345780358132003,0.3443959529045638,0.17747262137066905,-0.5940965681752979,0.38176408915607996,0.29457588375925453,0.3323169968594855,-0.620146148316681,0.06980511277089617,-0.006392791233397074,-0.32916628565964845,-0.11205600337379829,-0.4831812712970724,0.5682131903789355,-0.15713808523981695,-0.0784744131726018,0.5918516537434084,-0.23079003496496153,0.2498886689990458,0.2096113291740756,1.2269582866686923,0.5506047259759268,0.581542805866542,0.5384526866573625,0.5784313267520789,0.28507185008134645,0.021920869233089002,0.33820487170919883,-0.992527973598038,0.19265286364736242,-0.22327173981916548,-0.3666333010875333,-1.17437943027992,0.16853719094366512,-0.32582679710611145,-0.7760977366900735,0.1979488951264623,0.2410590851100822,-0.5240373229022707,-0.8302592826121388,0.589563655690629,0.7854265010702579,0.2643085359804083,0.3204938644999157,0.45728313294608636,0.7593639836738127, ],
[ 0.015280685273125011,-0.6384561642095231,0.6577677664983314,-0.31193469205004426,0.3298204055303357,0.049171289604102164,-0.8519090201934286,-0.050172233185554624,-0.41580043139803924,0.47699785519063725,-0.01091195308646023,-0.7470653572852216,0.4210010012213288,-0.08402473769382089,-0.026280143674460122,-0.09956172823215484,-0.6778864313567217,0.2025604120648177,0.14632769991092226,-0.23071070063331153,-0.04602827073041971,0.33375465588890385,-0.30051471741046365,0.08098051289951198,-0.751664878871539,0.8954055605895422,1.0171370354742781,-0.11917351735404541,0.15559744279874355,-0.2508554331172138,-0.34913549059627796,-0.40626674448080713,0.46343503252417517,-0.38904056677503934,-0.4958670689747543,0.4585078302531107,-0.17664329729611522,0.19940465804604862,-1.1003657751012264,0.3976757672351554,0.7540776796983085,-0.16363107354289952,0.7028097948468657,-0.09056198751579164,0.5866969078840312,0.5167303315735274,0.16935243419852614,0.36891267098696634,-0.34404573578885556,-0.06949825162139554,0.4079570891296266,0.11599524520500587,0.35328369622974054,-0.09010693990589723,0.35987708983252986,0.1883048530925668,-0.6196628016709319,-0.3649583534154126,0.38539827558200795,0.8178151786372011,-0.08765819747730365,0.6838638594187456,-0.1891740003840063,-0.5860319235900148,-0.19158777060826945,-0.651025002847446,0.33471680564930345,0.651388413463574,-0.8893779119252414,0.010494610144697741,-1.4980893022864021,-0.9538771374317747,0.1553820586710921,-0.2823206285987119,0.1866465191016642,-0.7882055008075343,0.25386863660711356,-0.003547281754828939,-0.2782860892517013,0.5243469151490079,0.2386275598995543,0.3313438126545114,-0.8417827834782449,-0.22176451356661706,-1.2043049539036859,0.23271962256712939,-0.2836934023985048,0.08024771759863429,0.056180141602939826,-0.20144671590319765,-0.09436741651898917,0.438643582870647,0.2807304798407644,0.3506402597497599,0.1127778552024935,-0.4981121683682017,-0.025437102535805903,0.02118627210655459,-0.006938862556072858,0.07015945781249625,-0.02996641705181656,0.4435602345762428,0.9483215735541336,-0.17639874838728714,-0.11257794476114004,0.23401139312692226,0.43547747063676984,-0.25422803429315866,0.14930939745371852,0.2784773261204446,0.2571421500128708,0.11650057063285017,0.13410709371007692,-0.036679763782695426,0.407291487893773,-0.07163922822626555,0.02871359786680401,0.20424565320963795,0.18888600773731062,-0.4916674110005118,-0.28304588919666157,0.07638539056329774,0.038242768369383666,-0.5292887676735757,0.20643931194300452,0.025015567014208033,0.5011348626067809,0.4999397722628526, ],
[ -0.7267845982240513,1.0010737939301326,-0.23376655504550833,-0.24543645832589528,-0.6084603741243857,0.41834710343062004,-0.8086637676843845,0.37562393583186243,1.4551293111162604,0.5893639092230005,0.17136341549833725,-0.019881485527709394,-0.041116480732419,0.049242406176765514,-0.17148176330890505,0.15839509726743745,0.4626351293241825,-1.287339937969051,0.20156353709828695,0.28625066225166873,-0.008137625937638643,-0.013550961130012468,0.19797005243826526,0.13121843290638088,0.029863772794377505,0.9834483139594685,-0.3213269858665823,-0.2326569143384293,0.3515741276011282,-0.8914677154367752,-0.8097521148007165,-0.01638748750240589,0.3172796215979819,-0.1964265655883286,0.21516729638665882,-0.7201826946609248,0.3949177777729705,0.3660118909052674,1.0564774798354022,-0.9066301049991438,0.3215904240709555,-0.3109281283125308,0.21433091603959087,-0.5464976213885968,-0.5417818563704644,-0.0509106021111797,-0.5114094185202652,1.7030849029858197,0.13170358365125,0.18047354874176347,-0.2924456274116856,-0.6066019969179749,0.16231949692338518,-0.13713698646915295,-0.2029282532717679,-0.45745976347551276,-0.5455625213049878,-0.7800379770897392,0.9868234070066453,0.6785895327665892,-0.34672090584262666,-1.2997590519019018,-0.5612605099946274,0.5720736065723065,-0.09167661936356875,-0.044355097925347274,0.17516758037256724,1.1732637366432275,-0.38782202944095884,-0.35979155486418873,-1.3332431942490903,0.9393332040712102,0.18793221297525903,-0.23313205889131883,0.17009992001480906,0.7946983387755554,-0.5315185494159189,1.1670951117985031,0.9163880737397714,0.6388209568412471,-0.9902197418334399,-0.20482067189114744,-0.8447172675677509,0.029291482756676552,-0.6459590327689602,-0.10718970360028954,-0.1566715202821642,-0.12435240635774526,0.1694571905382908,-0.07306898302494674,0.3718267494262917,1.095209027177682,0.2695066484729942,-0.14745600418121668,0.07005000245997842,-1.3149204344599466,-0.1094837437577399,0.5441576747950602,0.36551485785770477,0.23683284937514043,0.3751383107354681,-1.146057498243298,-1.3939811450986537,0.05207971886641769,-0.6968446860975087,0.030548236318352046,-1.051529504706288,0.6774232206662126,0.15513887304902615,-0.7153762958819267,0.2919712018426747,-0.44435765326689974,-0.21145364285281432,0.24443335212729553,-0.16351146713826098,-0.7239095034330071,0.4432418838458505,0.5372753502317892,0.34492704049125383,0.48328439884907864,0.22054481365771939,0.10661214034634472,0.251476078939082,-0.07537006848268107,-0.2894206693200373,0.07380014395874668,-1.0517127955451973,0.3416408630095024, ],
[ 0.3766255278673116,-0.0808811160258435,-0.21815378026624166,-0.25906711174623837,-0.3719061091834144,0.10541486653562587,0.18423067174636337,0.252265836052749,0.22503458165512089,0.22722106118484822,0.40210033171158,-0.2082911786370366,-0.45092840330680195,-0.03377403736273254,-0.09952441286043737,-0.47161198369068513,0.4407911486027619,0.25225178798896175,-0.005840864079657093,-0.07514809821091897,-0.6678002037115243,-0.0013944553002133266,0.05192594514173149,0.5048246824393902,-0.09222912796749522,0.03979091296980686,0.21739583130657203,0.11084498477742666,-0.13107350037097082,-0.1467806495269247,-0.05232005011877562,-0.42606355287709496,-0.1225248665206579,-0.2234601547894757,-0.16316120533209638,0.43027116537530846,-0.27676942247436404,-0.23412825942671317,0.4270055845024825,0.46360600347734326,0.3187569699662163,-0.00830804675341205,0.10261856581459786,0.43023777583696504,0.18259797739756484,-0.20929398413430178,-0.006509469850660199,-0.04940522307262928,-0.19095857241073783,0.08893186598704345,0.2798781865331108,0.4023260374970033,0.30506367227650344,1.4263879359585963,0.05101119398820757,0.053442726521536636,-0.4863714785131215,-0.15947319938219376,-0.319834412103824,0.15385300421401493,0.2510698090796683,-0.0021730030954743105,-0.1768213764527016,0.10742510257070892,-0.4019956503713861,0.22212748181538158,0.9213114492866862,-0.16609472955656407,0.26472785748046807,-0.16051325691286,-0.46481802630715957,0.1670489525439225,0.2310690743171173,0.20820642673284692,-0.3967077199909298,-0.016954778940078137,-0.16536232961709593,-0.16270585781081476,0.13141944179229306,-0.11833214318386027,0.03252008494039987,-0.05352591229361518,0.028117229013034636,0.019510021776690836,-0.3574231986809749,0.11170226514154158,0.053420134315000214,0.17991664900752502,0.9147071930725091,-0.19096813072342314,-0.2532316718725417,-0.038891705918015024,-0.2833228815881406,0.31895203781383413,-0.0392388297243648,-0.49207179214030894,0.06882869008150982,-0.18284423254441187,0.6631764705207106,0.5921760332514753,-0.16415639840993415,0.4931823339306918,-0.08209135369450497,-0.09790858473413389,0.20820986325181068,0.4751825551256819,0.07834687402197867,0.20875955157245313,-0.0448881872319674,-0.13814845659264172,0.13723068125915466,-0.06708049729716185,-0.09723006778514126,0.05517471134214159,-0.10860193915215549,-0.064720544184697,0.30740057539396093,0.11099648329312023,0.28436017492354637,0.5188006207528006,-0.12271769603942217,0.12602323482563835,0.07733786418346439,0.2958480450865395,0.28308711408744025,0.2682277939067571,-0.25439395846119284,0.5293230481829364, ],
[ -0.01701963972289585,-0.7562049539718573,0.09202155269801464,0.32692984682723525,-0.5145928791792072,0.07441272108672628,0.24071246432562926,-0.26644733332768944,0.4391007186974509,-0.24900926702099835,1.0236128390957222,0.7358161170044614,-0.27135120766156473,-0.8638826388783729,-0.6288886701633635,0.7581963535112464,-0.2440705670921138,0.6142434090429995,-0.6085637670413896,-0.3602796967169594,-0.6658932411202119,-0.17679734034991573,0.2784120432559857,0.045632272851593984,-0.10989524631088016,-0.42553521044859194,-0.5100163287769106,-0.0053925692684166845,-0.008007636238240138,-0.21337995387781103,0.33439459571746144,0.1272865726111138,-0.6671526472484772,-0.05125994392461742,0.7897413480607852,-0.29164780665296586,0.09314665544030758,-0.2623921467192534,0.18311292232912182,-0.18574532268923058,0.01640213369642418,-0.4986497605835535,-0.6950623174349211,-0.4321769243304429,0.4829657475833938,0.24748306350419658,-0.6490773935601248,0.1485774984553907,0.6263794097237374,-0.33032872766035193,-0.0857088234928396,-0.3654534326938228,-0.9006497508748931,0.3038283619379661,-0.20860643452090988,-0.37199899901544786,0.027283610755344787,-0.14473030319472382,-0.07417284419739593,-0.24101614337377428,0.5567384789510386,-0.17421276044746445,-0.4941425317255207,-0.06017355217947014,0.03956620638027277,-0.18037922823942382,0.26969258620855363,-1.2479927298986784,0.40707934312335076,0.3788925447207173,0.20490947374921037,-0.12572769552421703,0.2798989560209155,0.19416646999647075,-0.574648637878123,-0.8559450204614372,-0.6115275038607267,-0.3663207112644101,0.09006600062825723,-0.3870985565050418,-0.03761792769284382,-0.06574031493429303,0.18816257877371406,0.25519611122132513,0.5243058041539402,0.1771958688686079,0.8361571501750281,-0.1324557241290077,0.25654558647314635,-0.16628234860034977,-0.4584935604830305,-0.18674331443155262,-0.2625737604515853,0.32322881291907635,-0.20431965697536567,0.3085776536742669,0.6009933872194493,0.7310159080613137,-0.2361573359370397,-0.03407225749512427,-0.10818018807875404,0.3667154299322168,-0.16336039528775836,1.2004239418511138,-0.13923866306022167,0.09601427552847916,0.615637437815576,0.3025671048406591,0.11487233542341457,0.29642923127397375,-0.5028541203147927,0.19952460549230053,0.68099607188541,-0.2926084488938094,0.005191158831811795,-0.44696705417856397,-0.6218781903061137,-0.2566670105655831,-0.09703710923379129,0.21206104908562728,-0.574938354595102,0.1648577463750709,0.8114048563013365,0.15205088104140743,0.3813177522339925,0.049176726822877444,-0.8363740532128879,0.35439673626688495, ],
[ 0.30215913400609157,-0.38917112117846864,0.3496335609210149,0.1107610503322346,-0.09267087490762593,0.046431930495899554,0.13705055631424953,0.28836757381842537,0.10250176838887803,0.1646835720551405,0.07601553541707759,-0.18967933366084314,0.09415899274296605,0.16579004927968305,0.24302599330799032,0.4299623537639071,-0.22960337211389784,0.40960252341602577,0.4878485903012657,0.3469505612272866,0.000712372774870948,-0.09183641903019861,-0.36032521715297594,-0.09184841906536548,-0.3340531051795578,0.055241054675736596,0.1808754783949824,0.31938809315213057,0.6850281675184752,-0.23053851639787448,-0.22013548315608425,-0.11755785678222144,-0.03655167162834765,-0.03492733171949286,-0.07196498766270693,-0.36303046154047663,-0.27725565227536886,-0.30744480474887403,-0.249454913704186,0.159555008042965,0.30356802810210437,0.28994620643827196,-0.06236535517311729,0.1930311370841639,-0.4196051328345543,0.2040534128473887,-0.45727080530570635,-0.2373875919444474,-0.21657492955736268,-0.15233838799250582,0.22441644840022582,-0.0683946342230861,-0.05811510709996315,0.09440620538297377,0.022986626378006837,-0.019767856857460974,0.31357820711011375,-0.012681442952276634,-0.2516643346953315,0.6591049647159523,0.14747635816378152,-0.6518323345717618,-0.19878071269422157,-0.03308195192964469,0.4031131156267634,0.11219587020642191,0.2348102675622089,0.23081830995250652,0.03342345143338364,0.375699450801194,0.2575084840422993,0.5151364715572622,0.022232966496760476,-0.3073712789289526,0.11407712924173045,-0.019212698789132718,0.28708947304939375,0.013879371865930357,-0.2238369438207928,-0.1031571962455638,0.11424136554906054,0.5250722010760258,-0.07937935443088816,-0.433161212936531,-0.12141133486292739,0.09072180820500184,-0.0031142763257482817,0.2122043738418501,0.17957652606847951,0.4556927580941251,0.20787731516545133,0.38854702217464837,0.32580899596212676,0.6359290502862425,-0.19348068666214283,0.2448221131850744,0.2570962467633246,-0.267687100784899,-0.03757332822191147,0.21931869064293946,-0.13645545859377894,-0.19090037277177485,-0.7611704934851888,-0.025173639972811915,-0.20681076418754346,0.061271550383856496,0.12758945121322188,0.22494869441566406,-0.06391175259267731,-0.011838954005969973,0.3232866691328362,0.20729247822929367,-0.09907370997345027,0.007676495996033258,0.3282655736411126,0.3889290938612755,0.17668449754353366,-0.13078467550069087,0.2687954227874005,0.1315712387368001,-0.4631027375781181,0.24478732215930318,0.3114694286516567,0.5371220667811125,-0.05453677159081971,-0.121527655850938,-0.04427751802321004,-0.06223155059467595, ],
[ 0.8986880117623781,-0.3717062461297297,-0.1643178633689394,-0.926371148516641,-0.2569302715145046,0.1352717415128401,0.4332419757782344,-0.07370008953226331,-0.18127231517767647,-0.22844772764048918,0.13427246883460425,0.20580637614265623,-0.011100017916191364,-0.36579806101233603,-0.14357560938982075,0.5591389079374457,-0.00031955513019973604,-0.3579249621192371,0.8172533697824302,0.1315101493221857,-0.6445397544282621,-0.07562710796116573,0.23575630662005465,-0.014225330258521076,-0.7650944293900253,-0.06373253463659585,-0.6726789054417135,0.22616972572529817,0.38510471665456697,-0.1384824647816368,1.0265238788040618,-0.7860653546997067,-0.0467934430947899,0.9318040977919105,0.110181120050182,-0.9046190136200292,0.2902157553325319,-0.1942481651283029,-1.0951222616339644,-0.10150176453493598,0.44069987385278653,-0.39687138992952825,0.043001707550253704,0.13997993862710592,-1.527779077295532,-0.15395063688893718,-0.004667582753901667,-0.6242761989747587,-0.0022193280719838633,-0.36963806973662783,0.32082252751641505,0.3887501439915516,-0.8992104458117826,-0.03432050471566699,-0.6953400818508093,-0.9006235580891196,0.2106603366665187,-0.20805799461303034,0.5202379540703983,0.4514881978198879,-0.6070730343437537,-0.6671891006927826,-0.38798828060739915,-0.2877771287376114,0.27219760436018087,0.7068679043733367,0.27591798192265204,0.7791473152423859,0.21520601638767267,0.36814598190634784,0.5931493114830575,-0.6516371665095367,0.6665324717432602,0.3737267463477924,0.47297583183787867,-0.1737650359864012,0.27879339381025264,0.06614438790156872,-0.007609213781509446,-0.12604242727349765,-0.18156187501401921,0.14752172675448216,0.20000796118121597,-0.5724199244863033,0.06700859786082476,0.8369107948806608,-0.127807426101746,-0.190617390668321,-0.6216275103039742,0.48084022847973407,0.2893132880122456,0.3720379960133469,0.014443372810452689,0.487666514395229,-0.6178183845948231,0.11441055233583641,0.4252784139049878,0.2553968815743788,0.4816728475944364,0.4862711369014475,-0.3583652735325319,-0.32970646837658346,-0.3916758689863278,0.09283066362589246,-1.022815419447657,0.27752077400917524,0.5156030759094058,0.3357554770951484,-0.2861350709797446,-0.0956295720807641,-0.549237274280395,0.7305196934094006,0.3265108365762448,-0.0029989999511878807,0.4510072439357691,-0.44736112134476025,0.3853575898255086,0.6135527701960296,0.4340426406459243,-0.528503991723846,0.5108740415002088,0.5544481850335929,0.35575006549308136,0.01859150985062381,0.2782464349987273,-0.029581150338910664,-0.0857759175472278,-0.45783021997415424, ],
[ -0.20277142582818647,-0.47229136562709734,-0.0941624062005266,-0.36217935316523564,0.2990251831043841,0.06311901505436175,0.1865792324592012,-0.39482613517351417,-0.03421871556266192,-0.22341900032315296,-0.011076296756490845,-0.48322746367387726,0.12578354292195368,0.017590460726351485,-0.4751016961106506,-0.5465229950713576,-0.07096782862598212,-0.13158013390853995,0.175783757925003,0.06872867936137916,0.14884782654610892,-0.1159294832079428,0.11260761888265428,0.049694683746512425,0.04979493100016077,-0.25321750550046,0.1791826367662656,-0.4374956101786634,-0.07562053969368399,0.31666016390240986,0.06228251456253636,0.06185930914052527,-0.4438217220515279,-0.08744724155999073,-0.6078726359461306,-0.22718075356242012,0.24373488962539244,-0.47162765891077285,0.20283067474936284,0.0661945797617716,0.40528789281304645,-0.39935323170225157,0.2590319206281305,-0.464340964289042,0.17554800004459803,0.02498292647290023,-0.08302470881029078,0.03532046748269716,-0.12627461734528642,-0.00896502706030433,-0.26631426658968327,0.33421556054257984,-0.06466037700821076,-1.2154769963745968,-0.4976550680252262,0.21236837604155478,-0.36460838130665074,-0.16219328383341652,0.40614961917216924,-0.3828938055933392,0.29848488990301825,0.5827551041358354,-0.04076262710154836,-0.42817377976748233,0.06090264694690056,0.48707192045998665,0.03143221926469275,-0.06031376755592327,0.17489960886333963,-0.1882137147077929,-0.029909196961905818,-0.20546652512472485,0.06163704298442345,-0.19249446818287216,0.5219443487550781,-0.04798248151008999,0.14773110016095628,0.07831838530203603,-0.23348385583817027,0.25860825250468855,0.39471902585213464,-0.48659516768431366,-0.23048214675794051,-0.014106955989803223,-0.1422680758136338,0.5175402711771481,-0.12163925566582526,0.12711529945797923,-0.7791821110355548,0.40369805397805225,-0.09537967770868705,0.0571839434895497,-0.04340589351966166,0.014024622150259444,-0.2992202803640107,0.06941031412530303,-0.6292742603028662,0.5310893369748549,0.1751471462613035,-0.3553083413020154,-0.3572122607154538,0.06981051259414409,-0.19641919025526589,-0.5968086054122349,0.28005016063470234,0.06430990910916946,0.12450544944025632,-0.2816803806157393,-0.2985049361368112,-0.5215681734880638,0.0336293098221887,0.45134806138127254,0.45468544965516783,-0.668086037958245,-0.2545968989138043,-0.573064132202523,-0.13390014922241766,0.12847276980613098,-0.1897369830249452,0.09584264754663654,-0.21460465118483468,-0.16339349261086708,0.14695339425233772,-0.18675412429852706,-0.3975385904576726,0.40930811509437903,0.34701653841877284,0.37287322624652014, ],
[ 0.5170828898646819,-1.1211975007322703,-0.378944871137525,0.30303447372243936,-0.20361414680485002,-0.49501073656159417,0.03043483469715188,-0.07412735277795489,-0.7168379538896016,0.036744754927289555,0.07338768123492032,0.35312712434771576,0.17697763670455752,0.7583428120517435,-0.1307525802561599,-0.09716160424950604,-0.13046298830439812,-0.10873230091168427,-0.13196264159315688,-0.840673470133486,0.19732479606235823,-0.16630619874867503,0.3327016803211551,-0.19865544122343987,0.15958747985386745,-0.5991626670074398,-0.505140535405217,0.5898393457683568,-0.46626705168679144,0.49002711552520795,-0.13791975826804073,-0.010997421466535207,1.1047711784216652,-0.24290341909060176,0.2764513147480134,0.04684522332437358,0.8745750741844834,-0.20049229636896854,-0.30751820921159223,-0.30944854252097703,0.4018891316744973,-0.6523508221202755,-0.013811936072344688,-0.2292922380906633,0.32223989077838383,0.06961210318589642,0.5932738719669165,0.4890205802433557,-0.2583169242971084,-0.5160888943345985,0.1228770465823717,0.09938889683933305,0.1847933075519283,0.6094261156737685,0.12257197026810138,0.10586918647906919,-0.2453169895333031,0.7447787877702475,-0.08480046297120418,0.07402262099632885,0.6063134919151775,0.2617466047929174,-0.22384218082557014,-0.752722372127924,-0.10553499695075494,-0.14771562832276866,-0.09854102947293107,0.11160280684214602,0.22557596066976782,-0.6061567243083577,-0.03270450465223985,-0.21112215515344493,-0.3417827972403403,-0.9471296364917455,-0.040328233242784055,0.35949233659760027,0.3668642037567707,-0.3722815169522326,-0.3356113068628054,0.46049604193960425,0.7506774823037196,0.2695637423785025,-0.9566343199085958,0.15735366015829527,-0.31025759367029193,-0.7240427165302509,0.4828416431352955,-0.3981785161825045,0.6376698771827845,-0.1761665460362146,-0.13819252603451182,-0.5569230742350755,0.17030339588805804,0.22342165858135749,-0.4569396895276121,0.39619118576933376,-0.6660724537535471,0.4647255242733935,0.25806802404405277,0.06736157300448259,0.48103234554985036,0.20884745649660996,-0.41278232445228225,0.6690842829038004,0.8651622355923871,0.26973075283223147,-0.3681681188743963,-0.27175674851488774,-0.6068042444212229,-0.19036448429228997,0.5004301611474278,-0.26535260245735237,0.3024094871458094,-0.2335039026920172,0.1903839422206136,-0.021008269189736115,0.10662015678258265,-0.02106398710490913,0.45996086239771783,-0.6389117103406585,0.014570027760915205,-0.3584310893043464,0.18211281733980325,0.010297277842901895,0.10172400889971984,0.37370121418023927,0.1877474161186743,-0.02976823524534126, ],
[ 0.17705472305877468,-0.2794933812551796,-0.3082191951486556,0.12464316829789084,-0.4500358392034527,-0.12473097541379365,0.23620495415902704,-0.46639337991993557,-0.2652929938505438,0.0659644124559115,-0.5082018953108762,0.08703581065765995,-0.17352920813428502,0.16508003116326314,-0.32934936810455695,-0.012842239445980274,0.39383399311195305,0.19792371753386367,0.4101414608056321,-0.13671419802013274,0.06095230258239938,-0.20950798205142676,0.16949447848433846,0.47612463710681263,0.03282181578781912,-0.7679024194818609,-0.0965793278991554,-0.6310874573289343,-0.44239979834250553,-0.23737423408289765,0.30992029375073243,-0.3741525292745166,-0.17519632999010573,-0.016580517387414007,0.07882703804866964,-0.42498477359766185,-0.028633261048738444,-0.0808598421543225,0.2218364081706409,0.24078486652503964,-0.007958333066179088,0.33915682063178443,0.13150771588486368,-0.10930066801417851,0.17234001372786745,-0.5799250531710053,0.05276445644174223,-0.12615648568317303,0.13134179866415827,-0.20418341708144025,-0.28518478735317754,0.3164705614892649,-0.16946538346898693,0.24022816073827732,0.05687363680541815,0.21661741357651274,0.024578689974484886,0.26893864531865913,-0.049361971839614355,0.33243591608572,0.30511102595410955,0.20530680723735187,0.2448998045836221,0.016006099969575333,0.5920331388104877,-0.5417591216654697,-0.16843810176987334,-0.13007543483668133,0.20324927415969216,0.24084544280474815,0.193566300298867,-0.06242179480673133,-0.0885500388474174,0.16015104285008175,-0.057355364195279306,0.24694727506712474,0.19824082114076116,-0.6666904416868269,0.279926031498295,0.10880962248396642,0.2346878560866101,-0.41276758665659385,-0.340594246604868,-0.15394342475719383,-0.2523864031460117,-0.09612989792159735,-0.22805445726158824,-0.003748817666743826,0.3051487293590398,0.14290797815627398,0.2640929654247519,-0.395424319720993,-0.5338340629777376,-0.42139008110174037,-0.2382267822307387,-0.10333368356890414,0.1872246869728213,-0.2596765114042644,-0.43282654059228115,-0.01597526168973283,-0.4257236254189055,-0.0003443051825311991,-0.44780870475961876,-0.14228109271008385,0.015230648352832075,-0.39916281076067295,0.40828665929434327,-0.18835628281176886,-0.9359463764302597,-0.43050815661049346,-0.02288316217353195,0.0277381544067081,-0.005147131415806481,0.3801291249729856,0.2988633651001806,0.35176787885621735,-0.08208692064763248,-0.1645946233175103,-0.5505064210811914,0.28700997074399126,-0.02616543687360433,0.17474924809820855,-0.23276704024257094,-0.29957980279533547,0.12371377151653196,-0.4990970881341338,-0.3391829473625338,0.04861106234037485, ],
[ 0.07319921596602945,-0.08893577166229039,-0.26369045300830907,-0.33968642499673574,-0.6253303335538684,0.015860829105152498,0.28458490830857786,-0.3370587681960366,-0.34941787898389365,-0.22307457688918575,0.1531252055633203,-0.9178337344653289,0.12162294094820195,0.4803026699725509,-0.015312014084175972,0.6269047382928282,0.44757976197504257,-0.36465608387715265,0.3752397477753249,0.23729756496924145,-0.025413157899990938,-0.6568589872823786,-0.016448105744045524,0.2995638543024094,0.3467309170652597,-0.9996043381017036,0.44723872969008666,-0.5395113602970513,0.4525727586882978,-0.6472331347356591,-0.9994472100175186,-0.8690526809770179,0.2274168691660175,-0.5290121590917289,0.17353875287939774,-0.40290327830668266,-0.16938505831006692,-0.649656653802282,-0.22150009295754308,-0.08488207124391477,-0.49114179407511666,0.9329507574102617,0.6177874520924803,-0.916727662574422,0.7415999608336951,0.045194179353062636,-0.6843717830843071,0.20587323019086334,0.357046368740352,0.5662429583998981,-0.32503309055055873,-0.2369169643875354,-0.36567981600973776,0.10989555330528522,-0.7554434364903598,1.1731500253240446,-0.44447091496490293,0.33864787691380843,0.2845234145408374,-0.5129889798861389,0.3852093361626123,0.5899136297700055,-0.08143927405229806,-0.3402187546501781,1.2020663085716508,-0.9483824943101009,0.09418782738755543,-0.8014230762201001,-0.2388313277213068,0.28723862223993024,-0.15301742920459904,-0.21157986301659176,1.1597392231790673,0.15921064991324474,0.27631055396185905,-0.08742868053526764,1.5945549542684496,0.2856577601388684,0.8648236306276125,0.033373291691097796,0.8017846814718679,-0.3600924950258874,-0.28532550724941846,0.45720953363405403,-0.11425843256924045,0.5502459368793214,-0.29876780032111294,-0.07313100612512172,0.4566236805499957,0.7494989286012864,-0.6897236124196819,0.03685470415831281,-0.862566229286979,-0.6342794027059966,-0.18812238001522497,0.47235633057100873,0.6514867151444232,-0.2368778637880587,-0.0345165454291923,-0.07046719889651236,-0.19306424984970105,0.573408169045535,0.26013468119799354,0.2123630385590154,-0.8147002452119859,-0.29005077426345544,0.4477259983060786,0.41337740753378877,-0.32660958620489844,-0.12806211925234579,0.2451755249181839,0.8078377029840654,0.0122482023423503,0.41733357113108727,0.37711256307852936,0.8272566434000727,-0.34179619202385597,-0.2988676721961914,-0.34262628910749693,0.5987412865826723,-0.21954742524681573,0.9092543656159915,0.49670505513348084,-0.09106626067092555,0.5962849761039372,-0.30685320967912366,-0.7174391964269324,0.33823732017880426, ],
[ -0.45409419003464174,-0.16340442946832212,-0.1951981041870995,-0.0015145235540307694,-0.24136953202576544,0.3518240124750503,-0.08490426203237136,-0.34450442104559775,0.060489626331726665,-0.13584770509514107,-0.11171091020855041,0.37550842833890374,0.03530765948747298,0.9342364798048813,0.44527875190033356,-0.3606195267887688,-0.16134720553882248,-0.6737851545096386,-0.27839114631818074,-0.2918767529328226,0.1932245049358763,0.12676983033921607,-0.018290464215508784,-0.07704042565630298,0.04555852860802926,0.10932938600686412,-0.3002392551914258,0.00933524758899705,0.1817514739976518,0.03447993956701061,-0.2942593865753142,0.10926928088494225,-0.08872068049479745,0.0074388624878812416,0.43868818875270926,0.07774668521342301,-0.3788255061094947,-0.13998831377645093,0.3621847824565545,0.32396925734322696,0.2928495692186388,0.21412250641829958,-0.4048578133790411,0.13080031296630873,0.3824273113754857,-0.02426741589353703,0.3501794019358398,-0.004035081207990607,0.3950119852581258,-0.30427256589964585,0.35733100196053874,-0.1609357668698478,-0.16386191237159722,0.037338911072158,-0.4654205884023177,0.41625431908938104,-0.20640859997628236,-0.49506590341771567,0.2767815913876399,0.09082277874465096,0.28522414977460064,-0.18398721850921076,-0.0839481650097659,0.40483313693835554,0.16245931893578558,0.24008698267708273,0.028662151358906512,-0.5391739294414921,-0.19248288534663024,0.4783856096209792,-0.41957404754543953,-0.3704741383996378,-0.07569470124473293,0.28128863081329314,0.8481741721959531,0.18950731752653985,0.050806736701247884,-0.038939731400179915,0.07130322211805058,-0.1332314141386295,-0.038154953997800875,-0.09560499340173215,-0.3047200722849246,-0.23373169662056942,-0.18485743874075863,0.0777044656214291,-0.12089184291294736,0.19676619598345874,0.714862869821227,0.29156188186311927,-0.44384092889007204,0.6302519629995186,-0.14480996521875922,0.43730927666505215,0.816691704828762,-0.5350387476159305,-0.43826034880525416,0.5710434774702541,0.4827187565580965,-0.11008747796767653,0.20167433683163508,-0.11426083947467322,0.20969625404970282,-0.3678921226320403,-0.544485659299585,0.22568168553322404,-0.3345181248946366,0.3549998854371194,0.31191138178103717,-0.4393080222048152,0.3137109255686995,0.17591185733140988,0.5536573902604345,0.3045387575039088,-0.08271021447901722,-0.03299105749870948,0.030866276480492165,0.05666418527979839,0.2086863314100616,0.37452100094224716,0.11021843760924581,0.6300966100869063,0.326950675245457,-0.24229051328925194,0.8315786924472088,-0.5198000807623893,0.6829755491055881,0.060925530708526424, ],
[ 0.39929780323752284,-0.02924044002775847,-0.18402955344675717,-0.08163316931084044,-0.530101815117769,-0.41126594782334885,-0.13672682086452553,-0.3929762450201219,-0.47156208451401516,0.02282081457577365,-0.2817110390363407,0.18381773974637028,0.7376666840327167,0.06146033058716478,0.020916992049774152,-0.24563682520725336,0.153205507714059,-0.6959400636719375,0.8499742322273052,-0.5331926053483058,0.1989222711126694,-0.050441730166001994,0.3696093844577434,-0.7473974220121073,-0.8040822593757945,0.7565048778604431,-0.47316797487575757,0.3003789504745006,-0.11659441068181689,-0.36598388695024336,-0.5101258523806574,-0.1947860009110415,0.06943091655979919,0.12342601541036924,0.034810359050288675,-0.01950992532538886,0.08270317321410578,0.01563844253585757,0.10551551597527933,0.6230525072162018,0.33462498727327944,-0.36278527984848935,-0.34088000239902483,-0.10635361162756894,0.3553074077070998,-0.31568928275697117,-0.2914405224330855,-0.13128397392583804,-0.09766433350560287,0.35796538842966596,0.25814085011815546,-0.12515805183281764,0.3611833830838529,0.45359348882284634,-0.12411069283747705,0.017993629664750616,-0.16742492771099263,0.031277433812223636,-0.2657703970884854,-0.10438189355258855,0.03549993226672479,-0.03513939196310223,0.025554396282182,0.8226065249406855,0.15604276070331963,-0.29374443768518116,-0.5746402814040134,0.6723588215566991,-0.29994169152228345,0.46745309095683796,0.06433338162523744,-0.37228700175804097,-0.2271940354353771,-0.24172556871119283,-0.5102552575044798,0.4168016168924489,-0.4435434894797501,-0.37965200329916904,0.8857811474756515,-0.16356023660225705,0.07294928123253122,-0.6546952668074898,-0.11073691284288067,-0.37354039980341497,-0.3513252372754775,0.022805310991165534,-0.45310799731047996,-0.2691513873014807,0.5146716102771851,-0.11928577793844816,0.2515022944398934,0.4378852621812847,-0.411016376610382,0.07536598812461244,0.3817612990565455,-0.2660891277440717,0.23533029791910273,0.451832388832346,0.4967606538800049,-0.3116380753968545,-0.1821288140655745,-0.362064881486035,-0.21922642744964047,-0.1717781201774155,0.1400865304266229,0.6111329996166293,-0.3566514961034807,-0.13611846401696434,-0.1898889499634407,-0.3434219328377952,0.15543010270673352,-0.15554110228048784,0.49127531796326557,0.22615516107471842,0.6459446867331455,0.03118895112159126,-0.16589938135930327,0.7813217450223409,0.9372702698147124,0.6952113339254458,-0.14886194780369016,-0.301782013881083,0.7344863607878663,0.07522389339624455,0.06972019359500459,0.4439827013065265,0.39312519671650614,-0.4813876486081165, ],
[ -0.43687781058779057,-0.2852064665782786,0.2709588542656403,-0.7915657906217217,0.2831153998339741,-0.11879859131813358,0.2528951611822143,0.22250935552349985,-0.2975426850781477,-0.024162576714428056,-0.13277385892404425,-0.6734365875381542,-0.05548839406251168,-0.1667693085754936,-0.592065281702451,0.004372485972705564,-0.35467765778039334,0.08637814990603158,0.16802295040038254,0.2837854709514544,-0.11041757750380722,-0.3600932560381198,0.019649619211237944,-0.09221383017819923,0.1389860138348159,-0.2202616384868731,0.1014942569630058,0.2159148532955111,0.361633013850974,0.31898654473742244,0.17403344253231157,-0.3735534509641323,-0.0345004308443125,0.30150640966815273,-0.20252665907964254,-0.02455762450703136,-0.15337326504320795,0.4848290511551613,-0.09030630390370463,0.31341255215702996,-0.21610567191446065,0.02711152726225326,-0.16255884508448873,-0.21381892006720377,-0.43171172009800174,0.1553461008895059,-0.007734713527902426,-0.5023143108505432,0.041720984917108114,-0.11300380529516717,0.3513932135170402,-0.11819652777567831,0.026430050252060855,-0.33814848597190234,0.42834483536551726,0.2331798328844375,-0.2941504299111901,0.027520097642893003,-0.892828339144816,0.05086913322557406,-0.24399316594987713,-0.23936238776262844,-0.2439550043676177,0.17437397544821337,-0.10566934595023968,0.32211368833768433,0.1159712142326438,-0.24792363398828546,-0.2698803123656496,0.42809585467488237,0.2835840031601079,-0.20697384488721648,-0.48526733371587816,-0.09675493844588295,0.3498188652148245,-0.1351182943147147,-0.06779295709595821,-0.2631378706585666,-0.5673825180551716,-0.04944214396321674,0.04348937299478667,-0.1698210082713552,-0.2783398328814055,-0.14485421093108922,-0.2790238511729068,0.15792519356960036,-0.27866574109075576,0.20119186434822414,0.05034365296612789,0.31432191103580054,-0.3308968291832895,-0.34683849642247533,-0.3560519022952235,0.39231286347497324,-0.1317245434670613,-0.2803606273294786,-0.15676163231349052,0.003807909513376867,0.2148473877996512,-0.3051738756254018,0.05114138091753439,0.3862336145316593,-0.011984313320912793,-0.2772037258939992,0.05718394348955013,-0.2907428532862841,0.009279274928971211,-0.2253674481466272,-0.04189141302601854,0.41806407131475415,-0.2590705841783551,-0.008196051208551582,0.1813914862258692,-0.31385601888679276,0.2908187103991132,-0.10865033594489983,-0.48630447418004535,-0.3720093562360759,-0.48559606212480355,-0.011555310170672009,-0.5148884118606419,-0.41505817816898455,-0.28286356355573045,-0.6924047244340479,0.03543470740277862,-0.33044098150427637,-0.19733528669177053,-0.46008756039532167, ],
[ 0.6700334338724572,-0.6612866109620732,-0.2946695645718835,0.33375596603237345,0.30973437407938154,0.836377916078102,1.4594645563556286,0.18379880353889913,-0.7242508891098566,0.5596446609329557,-0.045754343581004046,-0.11225437494381138,0.23092940987495345,0.01952419584864451,0.12252030078793694,0.03940628184720225,-0.9183769127277174,-0.5353557363699044,0.3846741929271524,-0.149629657801801,0.485863874738694,-0.17450448716986522,0.7223516414230639,0.6579158421030168,0.08889881336302831,-0.5312365807468781,-0.48509138684272285,0.31252826888727336,-0.2886545642717572,1.5651631583778913,0.9029640894568423,0.10899806032522105,0.6636014994889887,0.6914829410433199,-0.7368373810964601,0.5240270830927294,0.43420648790988425,0.8846991432290888,-0.26760646941562255,-1.126760962756347,-0.07147575141399619,0.19697560136869557,0.48433988420822477,-0.11954929866266584,-0.5059333908625424,-0.1012902324027264,-0.40270783409044414,0.3242621639061456,-0.26236700771745725,-0.413599739947321,-0.47484597707170945,-0.40090186673437783,-0.2609360209076969,0.09786200351778773,0.23343395638458356,-0.7150739081574685,0.823380957264761,0.42239960459865944,-0.2980351272842406,-0.189339272797311,0.1852528086318755,0.319833859109955,0.24507519043869966,1.1270718342093842,-0.3024346205752332,0.09769969304961557,-0.14295968675810372,-0.3657212574775997,0.15190716558725448,0.9380004277123497,0.8329376404982624,-0.06389000801998805,-0.09718055784437478,0.5478756116476711,0.09882365192839858,0.11567256156301013,-0.282403134247965,0.5638961338609251,-1.0699584495005217,0.5933513392791613,0.035803824086869024,-0.11398823364689527,-0.24943762668243957,0.5989711906203578,-0.38424802630366334,-0.13315623966529463,-0.05681124761030218,0.3622691249156852,0.14600599688072907,-0.4245301291598359,-0.34833541811948143,0.4909181781479842,0.4694822651680065,-0.08549270715110784,-1.023188385854283,0.5110365941732977,1.1085160127101528,-0.9170682367510461,0.2278122674958302,0.18001597506660005,-0.677843170043299,0.06379590287048809,0.5972685745350201,-0.7146304884075834,0.6024063353254596,0.36420359432246835,-0.48994772666113173,0.1721645989017405,-0.10849685374414088,0.4591334121059229,-0.0841446794601481,-0.1263096565026941,0.5468381402443827,-0.19987326409925651,0.11963035510927773,1.3650530011434543,0.1879005680499439,0.12469356521746737,0.5883495719217315,0.45587002066875043,-0.3925439153681515,0.7072155910643342,-0.20623831381658742,-0.7675680702278818,0.7292767902798101,-0.1286874247227764,0.06233426690395616,-0.8760477147515844, ],
[ 0.10353402618618628,-0.14922465648673394,0.613811188819105,-0.3718378086606198,0.5941973388557391,-0.7940090881790988,-0.013597549243563985,0.17457851132067695,0.27444668700869757,-0.5637652984849568,-0.2305460308534786,0.5272638837768617,0.09405940213343575,-0.7672570739143785,-0.7223774119313978,0.10831897854823243,0.002752188972474437,0.1899772082342449,-0.08122806671794208,-0.30318455182766035,-0.16805011958927657,-0.35587029538947534,-0.6145967675182752,-0.23714588197773603,0.7353605079023702,-0.39266030919490685,0.010194945427519324,0.36506719475802063,0.38538780879394585,0.1348264612561747,-0.5596032848840807,-0.3649241103647659,-0.5950601469308,0.15911644242808806,-0.4289191883130207,-0.20126581445814162,-0.6650353626288832,0.7788491538888664,0.18467231542426524,-0.19715123555193823,0.05071948788020218,0.6187822213351756,0.37299748865919685,-0.19949321975021178,-0.10506769612767677,0.21580745680970612,0.18444764286379742,0.6768807808441772,0.5286278958255924,0.04431000997713085,0.17982543748234797,-0.48174716963214387,0.46721850283160554,0.9474772729646896,-0.05488487036574569,0.24115486055339247,-0.24683653629299712,0.11500172001959572,0.314553629772071,0.01458784069064416,-0.8231064910247692,0.25326460960540426,0.06452187471167939,0.01620112177613495,0.5427064226413741,-0.10566190529870524,0.2807067687450364,0.1775113158251675,-0.5591956386004843,-0.09067149985873432,0.03993777323071361,0.13993803566520016,0.0024013488054290097,0.1952928931703846,-0.19322047780294133,-0.35393752173021137,-0.27730278453366053,-0.23722361764433836,0.030400466838046293,0.1901254011194427,0.01372385178621587,0.07589829625813695,0.3546375519524628,-0.0020405318801733907,-0.39193129461833204,-0.23846242664882955,-0.3473534632974137,0.20836173132335167,0.7345319134619981,0.1295998316553501,-0.15753182462338466,-0.4113487277316437,-0.7292379583025619,-0.14263013252582848,0.28196300307120675,-0.0007690982357637793,0.0643714740402908,-0.06695770153596337,-0.3982321607254394,0.07008654412991361,-0.046443898731128946,-0.1995583303811319,0.38610570918623593,-0.2552908341457078,0.32128202407315937,-0.07547286720466478,0.20091644714758836,0.12774205505440112,0.18576623397005013,0.45794071414228593,0.8764858551631207,-0.5599942118056512,0.19610222874925234,-0.48211408319479165,0.11453780426941992,0.5718166924073188,-0.3410357748772844,-0.5733546444495817,-0.1599549058749396,0.14871720326569565,-0.5744893333369564,0.006981524683830148,-0.4716249904635443,-0.00593915983254996,0.04074332459407584,-0.45068860898518276,0.20570381979703029,0.10250206695903999, ],
[ -0.6502547442262294,0.8594548870760501,0.2731380504968156,-0.12164665542595612,0.4463355635476006,0.3649787461405087,-0.006624581546633938,-0.4504810247939938,0.4246293382539324,0.5676967042821669,-0.49927368757417834,-0.187116628626259,0.14714089424003168,-1.0480096326028554,0.2722059854191118,-0.2811608617046445,0.032441698982502945,-0.5489470160026445,-0.22041505166025657,0.5415180433986788,-0.03633363479289613,-0.1835925056670536,-0.2577619147027931,-0.0887841451498495,0.5160643404696643,0.2455756138873828,-0.27197907870496896,0.646782903820038,0.5288371835405641,-0.12888514295444936,0.31924017855466497,0.009466851373254384,0.10906788837458176,-0.9231631521289662,0.41413812116661636,-0.28980831699474796,0.1495072789422004,0.9123223295834331,0.10867649777503076,-0.4374238907313149,0.9455553765457363,-0.3549738040669266,-0.30253923586679704,-1.0432086795822153,-0.3742191187290762,-0.4439877468257476,-0.29885393961633716,0.4873462977674091,0.6306513821332798,-0.31220360580620776,0.7227099095832602,-0.26199720789063685,-0.1849166706458187,0.6130385712870385,-0.07668489291679276,-0.2623563801986961,-0.1808129802291725,0.3746816309273465,-0.48524183672410437,-0.40315363311814517,-0.47552279615883986,0.06263274254056421,0.6086917866287131,-0.18879180025215558,0.4010254304269479,-0.042807972573818485,-0.4264021179013492,-0.042998826439502966,-0.33389859859649373,-0.06695138805064407,0.43131546731667364,-0.32871728860576804,-0.44538713950549047,-0.43237994259624535,0.07189751055054995,0.32766916843516364,0.39035986792330263,0.5456074499834541,0.5966393259218046,0.41165017703410367,0.5374194442647553,-0.535436765132323,0.48205970154205297,0.0985916536812253,0.4129088597319188,0.26029528148538117,0.020092968155625487,-0.48978471532482654,0.41358031155379954,-0.009770022698516399,0.22965119889869623,-0.0003360853317682698,-0.5292531247491297,-0.8405971902307122,-0.6153632930374611,0.35064426590543146,-0.12680327501966213,0.010825304375707747,0.6601118484864499,-0.2777778572404652,1.0810878905087216,-0.5088566084807299,-0.7445348613884317,-0.19492329727804342,0.303382938413588,-0.1458405592633219,-1.0300064899099537,0.030948680388802774,-0.04791987745918183,0.1586636437644382,0.34325013689565503,-0.29177988804081756,0.935562686415125,0.1883369655437154,0.10228318855388173,0.6038705540700449,-0.34034813890314625,-0.17010490307323717,0.18489666957585674,0.09262308672235449,-0.5376515141999308,-0.455914233600926,0.05867090979706491,0.3243798120598365,-0.42552203390235993,0.3041304209589277,-0.33711608285773137,-0.20844462383593296, ],
[ 0.5484586668810714,-0.1232009177134789,-0.18297806672204187,0.6181971844195656,-0.29190542178730305,-0.08466773831239839,0.6711401923850463,-0.25498927246009934,0.21526410358092482,0.20418648224640365,-0.2338297488362976,0.34849602647966327,-0.2193954949445043,-0.3334419647367001,0.3025002348351634,-0.14895270249661333,0.06792359679730726,-0.15468869062576832,0.1593736798236699,-0.11321943398174629,-0.04307975064570184,-0.4466639891915745,0.04453164151155693,-0.13104649091933482,0.1808986637576045,-0.015393195804934675,-0.3890919282840913,-0.3192055786581463,-0.1059458855278244,0.17699219894110513,0.5235891235992947,-0.26016376773863575,-0.08242722563000036,0.01780827059797998,-0.3894672641202693,0.5780137986191619,-0.02916687815200839,0.2953929599340136,0.09165199929555412,0.014223258845087143,0.08626646344923679,0.318601640147389,-0.09012715225437551,-0.06305177028110646,0.2194092329277785,0.006408145870916648,0.08375022961306482,-0.17540842260025558,1.0785405217792716,0.13903311570517968,-0.0528358674731784,0.20301713051067516,-0.05909473673544707,-0.1943064399981166,0.1222286383610837,-0.18789347428829833,-0.0888368756372934,0.1800385256146343,-0.37371937135854166,-0.14425174240787986,-0.03515892364201171,0.45268627809778006,0.5539543363338026,0.38087960922653097,-0.12795035676027675,0.6477007994925859,0.031036517771769346,0.6457718106149454,-0.32230435704176486,-0.1609110967930778,-0.07169835263976915,0.28536030623750713,-0.40102766168319487,-0.09885578905946077,-0.09527645032226059,-0.021924992361758655,-0.038843562348931084,-0.2680298829303714,-0.1510024981790482,0.20415976690228782,0.13347816388688766,-0.043984571531938035,0.280783064497462,-0.07170932401128542,-0.1757321232372753,-0.40688125890708643,0.23556071503923703,0.4210213163330747,-0.1690283527800956,-0.03358431420058553,0.5530928149044019,0.28590816777891637,-0.09839133978906209,-0.13522509309059036,-0.10025648554265776,-0.4441882925094355,0.2044026286487662,-0.13758056144800776,0.15250339785493558,0.4660444290655729,-0.14270803092409276,0.41337870490615564,0.05264887155275575,0.4080330832093748,-0.1249759726333203,0.38242839758189207,0.2698020167505306,-0.52862247335636,-0.6093965239971939,-0.28587030134912356,0.16122862186728326,-0.5171354962268648,-0.22506893042290835,-0.32347633112807483,-0.06101964536475493,-0.1568947824617984,0.0802725133036449,0.4850688648128733,-0.19585149086404868,0.16895036412887415,-0.03993945320964777,-0.07768138761588042,0.021491190017777988,-0.08704534840596743,0.04032756140925414,0.4021892611606306,-0.17904698596001645,-0.05866489578586953, ],
[ -0.33769395323875584,0.17066946105256026,-0.2073870613858386,-0.2011870730701304,-0.018276252120217218,0.047247419390885864,0.0929341785726512,-0.0724048040669541,-0.23919280481048838,-0.15301770632653194,0.9318720565365837,0.3833357883978426,-0.0686772566785525,0.30695150018356687,-0.8541660828951271,-0.2435198718246386,0.5325427266676128,0.0785247148603273,-0.36840562099303936,-0.4968834785641919,-0.6176707785913066,-0.9482100347295924,0.264426800691163,-0.15759131940784385,0.14470347321110716,-0.23938121978080076,0.09241793260127944,0.18978736643740393,0.08197960503088618,-0.08751875370970587,0.02971796425660024,-0.5308001505840816,-1.0124374018644304,-0.3933661530121699,-0.9639888434589184,0.33335880749141433,-1.1071482190483595,-0.0653024699954727,0.4384482076433423,0.20713706365759843,-0.009052322517260361,-0.48663566987657125,-0.6216305496870089,0.0015963530465443743,0.45779736071073146,0.23822077096360386,0.5196272082723339,0.04314702820134009,0.35727171597923424,-1.1550014025750095,-0.26709439986922456,0.6099934663835825,-1.002636885183987,0.1427463725120011,-0.13038315945557907,0.07259301928763615,-0.592120918049707,-0.625073781944782,-0.6306428542583293,-0.25069602047582634,0.08657167245623915,0.26009841501966696,-0.04428315346472318,0.4965609538610778,-0.24584935831958007,0.06566313941876682,-0.5173438026253556,0.4813122003617602,-0.37885752624266766,-0.907783326960958,-0.3078246169834598,0.49520843428603795,0.555591113090655,-0.3473004544808067,-0.6982452818407665,0.7333243376707496,-0.6104321919155873,-0.32363997040143444,0.3134562567319207,0.6044179425823852,-0.2981318291419672,0.01959515691239912,-0.14531951980787106,0.31262746763583693,-0.9697562286840555,0.5630894888446851,0.34897153212650533,-0.10749074056272907,-0.5424846239800414,0.5106988377068901,0.7592533180106555,0.004774378028631069,0.24117043864347534,0.2801635231954297,-0.431847778614839,-0.1355404752627945,0.4681856771619801,0.32239908247386545,0.3239728224591919,0.10598342080023576,0.33894995930615873,0.6665547717029394,0.3388408360248796,-0.26707441859664693,-0.20382546375182503,0.597141873218816,0.03755729978704221,0.7460370641731152,0.5975952798824821,0.6315385957568703,-0.34038557762708754,-0.6425892562474779,0.1626278560139095,0.5528440866308274,0.9309129625192208,-0.6359556355012942,-1.0173317182313806,-0.07109455631370495,-0.19741477784763922,0.4241648687106562,-1.2731628504526324,-0.07359995748225502,0.5921983803729679,-0.5574976739051207,-0.17890672328479648,0.5595249812902737,-0.04597325275601273,-0.35778912109162103, ],
[ -0.26327732700868467,-0.5502996159878236,-0.001490961256290696,0.3606579218757417,0.1664116385447356,0.13238134794625958,-0.19119935327799073,0.11574781958901989,-0.07285510917539416,0.028816796668155245,-0.12264605214523326,-0.2538598281621771,-0.011243361544768848,0.2043330231044208,0.017270257219624812,-0.10747252652679819,-0.05849571342541302,0.01879176733909622,-0.23646592888714266,-0.3135233490626464,-0.1359765538516068,0.5463881090150919,0.06060892603982168,-0.5011512705114297,-0.3524993807489899,0.1081978330640627,-0.5759071041910278,-0.5183799600316426,-0.13829702516612374,-0.029158209291144557,-0.19474595059650393,-0.21880014220856558,-0.36371394299649307,-0.1493961500643387,0.3152330171340972,-0.4086910484513894,-0.18211124377200288,0.041922330894315754,0.34822599006040544,-0.2646288258025461,-0.24138837682110784,0.25798820272700995,0.0012191238568094636,0.003938719104718177,0.02944099309151104,-0.2670266300591255,-0.1568918634266663,0.09222240536165983,-0.5557184367145508,-0.4726588852459112,-0.4631886414774699,0.3850970750909235,-0.22138051464914393,-0.31864193485939724,-0.3094108429617237,-0.1879627407471277,0.17224915121833853,-0.16705372566527896,-0.26401769977762124,0.1494130714570446,-0.14566535117298582,-0.12419734422291019,0.3139089961832701,-0.13555288964927276,-0.06155154383144784,-0.06410629369924326,0.25475689224553993,0.21816516236968747,0.21686563082857307,-0.3779594416577181,0.1552859135754986,-0.07287181512405283,-0.1675009086069518,0.45587939634332625,0.03704824656133599,-0.31109211112475105,0.15401626561379175,-0.34942744257334885,0.4987975610293781,-0.21644567123132952,-0.09204071299718362,-0.5363501629245709,-0.2459879333165277,-0.33576956020647475,-0.2719505940689521,-0.008360822609761568,0.2044933048008235,-0.24139341614536414,0.08022775047562553,0.016152180048454562,0.013588087312222821,0.38498821821082224,-0.1814941401857601,0.13725687694756228,-0.4503772244545851,0.08183026681711447,0.1540419469908686,-0.4559642281539068,-0.11777274555585984,-0.03615256426153979,-0.46000089828773144,-0.20919647964828542,0.09360291461001927,0.13346797384894296,0.13140462062919736,-0.3018026377137573,0.12750554666069638,0.2711271581516887,0.0835792969289399,0.14626996375920945,-0.36551798149797726,-0.3095066728754239,0.253873218067508,0.1204101936210646,0.10789591639659055,-0.0797526160636341,0.08088746088386564,-0.2703439690792793,-0.26680478640759464,0.24596798034924822,-0.10869595598797915,0.11008480037174088,0.12722068875648201,0.018502844324642123,-0.1324676937758084,0.39252271164397484,-0.06811616290504087,-0.6266452416618413, ],
[ 0.16471239259353423,0.012197232685107404,-0.059047027794390305,-0.20335160869260013,-0.008504581030863795,-0.04813187705454388,0.2178534536006414,0.17395168443242673,-0.20432418164112162,0.17811317764819898,-0.12334480860851132,-0.0434511671640008,0.13970462371191347,-0.3678320360253259,0.3817728705033431,-0.5830995961033915,-0.0017575455483510463,-0.14993756788231924,0.10854421197845578,0.03551622190372362,-0.005464180115290679,-0.0375766046451888,0.09808915736096128,-0.4422440617437275,-0.06561811375052329,0.19757673241501342,-0.03688378609748406,0.04518025527859726,-0.4199459151849786,0.351747921975945,-0.0919336985698514,0.12863053097117522,-0.019568143603852572,-0.08436728977240504,0.221202810376697,0.2805603037508053,-0.1185681261892644,0.14630432708369853,0.11474434250350886,0.10305894471185356,0.12340260149556292,0.41697521527939496,-0.14329748209622176,-0.01695276235700883,0.0577405040725112,-0.1650233121618443,-0.018276252120218085,-0.1894123022508083,-0.22033636251915098,0.008514445653270288,0.4564352655796853,0.00602927904996904,-0.030793811972145837,0.4325367446416784,-0.3862544637911961,-0.20090493418521416,0.26858554017908837,-0.2608749146131458,-0.23232264008601677,-0.040135118454497506,0.19425296643127427,-0.021390220267976805,-0.7892029390230002,0.15119845543821053,0.03527758769889336,-0.03579884435919139,0.1124506004815151,0.15845394436743573,0.1093049874088315,0.054090047182121445,0.057216316937722146,-0.06884971054026819,0.12510754028685675,0.20445777060674342,-0.35108326234438586,0.19811241444743907,0.11020467233371826,0.05434565265853451,-0.409302028955977,-0.3689078430595822,-0.3071278316393919,-0.05991596055906661,-0.6239168153365833,-0.023578431703981658,-0.03348317798114185,-0.41725690133274207,-0.21618682258040123,-0.3512669073593445,-0.2694866064394448,0.4276661947215723,0.18452386069278254,-0.25100984871660803,0.2427213239274302,0.017647846797527914,-0.07678534363813998,-0.05548820875674602,-0.060685193863538496,-0.23727640690010315,0.13216425585696065,-0.571183404484016,-0.03041461852220616,-0.08288290858276649,-0.10842967856082239,-0.027848539920551904,-0.07516493118198897,0.14385036194360112,-0.16038970174115624,0.0947985216707395,0.07503683395238989,-0.26521225590227493,0.23686101478348215,0.0464670896392773,-0.0858782919082755,-0.5535051988143882,-0.12799668715883722,-0.06952211845928112,-0.05443772922874029,0.024956482851939646,0.17794046583755502,-0.028815721506240732,0.15672951670205162,-0.18505486251294265,0.08559944841515545,-0.05228597569396354,-0.17143869566216358,-0.29557578309333543,0.18299742149119916,0.23543065257405363, ],
[ -0.6206504697211875,-0.30622692155500547,-0.09709264111964286,-0.020576448564497005,0.004753355778124677,0.06031230624842954,-0.03185941097151436,-0.038907691369330887,-0.12004751905662889,-0.0735423651165279,-0.09769316210652901,-0.04956952850026694,-0.4097756995695943,-0.021862046340914966,-0.23644524125757557,-0.1802443083856662,0.19858258686402375,-0.15601845375809376,-0.007672876800340359,-0.06342296843058909,-0.12163393444500238,-0.11259162037621868,0.2915402340027493,-0.17052495394370082,-0.010405794517579028,0.12710943396489915,0.12365418241492541,-0.17193391824098564,-0.6913614281722184,-0.3350825544526214,-0.008594675029107605,-0.3856891491954305,-0.4712947326627971,-0.11775089258801986,-0.022753677879230567,-0.09069314128286195,-0.47372341563457043,0.0706751642819516,-0.4445019278374718,-0.01451637013888691,-0.3015658556902633,-0.22198658766990878,0.2698403861523723,-0.012234318859801058,-0.17223318497659146,-0.21028591622747092,0.23077454248808577,0.06911289003535437,-0.16502311134628647,-0.19695257606328417,0.009251864161738857,-0.20255109259763582,-0.30502990729074136,-0.03881981859847491,0.08383461925016071,-0.18619469677282077,0.029621011305578246,0.02542407025864238,0.18142472685868902,-0.15246986391179437,0.20320460833784212,0.07643482523293704,0.08536014146778204,-0.0911149809767497,0.08147154146100688,-0.11647982693626242,-0.17825183214775459,-0.07412016627791418,-0.005970747423214295,0.1979348498482306,-0.2878888531713286,0.03589305184434698,-0.016486309902258908,0.02971508317867426,-0.18457737405562533,0.09954467889421474,-0.24724767791808405,-0.5321164950265785,0.12801131256030598,-0.0357550436124471,-0.051823580984361,-0.3463264955046276,-0.08814561454697972,-0.1842883102042318,-0.21742096090163307,-0.08191923479301216,-0.04461411573106114,-0.02232284645519761,-0.06906132897545848,0.13063476229525373,0.04756973969797923,0.16024693224995804,0.13766344083597462,-0.1793720115132725,-0.22130318447193345,-0.13177591817242035,0.09221405662027499,-0.2699964950757193,-0.015674780937026855,-0.013747856416414003,0.06925423774556551,0.16542836729373864,0.01688436759137954,0.005181411683567325,-0.1324297944052722,-0.12315621292433379,-0.12683801470096343,-0.12790243269037468,0.187137644482281,-0.31519225757518804,0.07609948273808098,0.12410312178747908,0.0943182837541769,-0.1412161964251862,-0.1759531290817236,0.2405356978098981,0.20036659315052827,0.05975512421671299,0.15862565442432608,0.16279923237122113,-0.04025584613848198,-0.05909085360570959,-0.34598954913068325,0.11459152831287234,0.024826968767233476,-0.1412115584441035,-0.1735251900053821,-0.11894516871768718, ],
[ 0.27920706522100625,0.005653985357709275,0.2420190293651616,-0.14190458417000648,-0.34908729343258804,0.10693755456988825,-0.3624556004787898,0.16740931211177645,0.2933452821602464,0.07943579809832134,-0.5177768948969181,-0.10971226216966365,0.2903434217210503,-0.9728791269623843,0.1202229505675804,0.15536482167351245,0.08423101551928214,-0.30999968923143156,-0.015742274587149364,0.34864466423126056,-0.17521015520764996,-0.04024556735380615,-0.016901505786662246,-0.025071063137181097,-0.15474363176591133,0.014458364650483141,-0.38456320413109635,0.045387518670050156,0.12388284297983138,0.06977737951107746,0.19649649425082705,-0.8933796446927446,0.4638353683313503,-0.07206872614416111,0.1410132376964896,-0.05052446731629874,0.49535736136427244,-0.04828201085700168,0.12143446865163124,0.20913420356055967,-0.3008082287522866,-0.06318020624379847,-0.13917900307351075,-0.2916837175190699,-0.23118226731471192,-0.14549225702811092,-0.08314778232757067,-0.05667128530017463,-0.5165078654565264,-0.004534998209721209,-0.014558189565832495,-0.05587105137845433,-0.07677364761855991,-0.27217444296603865,0.04522280870227092,-0.18005610395250382,0.030333372140228965,0.11997644625692402,0.0006459534274950232,0.07492480433365067,-0.07967980180419675,-0.10028471791683924,-0.18305152419369577,0.3037372697794855,-0.06857944261186494,-0.043260701112120346,0.018569364120684287,-0.22889105660755865,-0.2360522188789146,-0.06608958155042591,-0.05080920822981133,-0.4206738661384112,-0.5399231616606791,-0.5232857794682959,-0.20160751232652543,-0.09582626650890344,-0.10737167483630837,-0.12718350178607446,-0.3071541237996221,-0.14429318865881802,0.5651321055508265,-0.210271106867669,-0.22987466098762832,0.24726356368710653,-0.1284889075477752,-0.03293441591614199,0.34474285077637423,-0.8625083372855494,0.2858333114686087,0.12723010467604018,-0.048032336650379794,-0.14119557750525907,-0.4494696028684909,-1.0075390688909769,-0.18929064257275008,-0.13254783983300106,-0.0953996243540909,0.39745753926809224,0.2859164474406575,0.2599148758026376,-0.08217509298448425,0.07006449347344508,0.19926410782712395,-0.20749678998091511,-0.025907058417835548,0.5156494021584885,-0.06773518182699474,-0.10800406341352448,0.018448889242218026,-0.18962417208399499,-0.17368729791260906,0.2686927957489189,-0.010055655226819256,-0.8102237299593372,0.1998124699407219,-0.07653734178436357,-0.1673324572949914,-0.09997870658821234,0.06528401392729123,0.19855590464447104,0.08070373313794245,-0.30989222949021966,-0.20899266137898137,0.08382680932420113,-0.2951755812713689,-0.13887934122689027,0.18106947620854513,-0.05042215775047677, ],
])

weights_dense1_b = np.array([ 0.004453683046424576,-0.12023966070212062,-0.31045728958336044,-0.02653907294462873,-0.3021877472229267,-0.050416039591144046,-0.12343577153169079,0.008824967101298431,-0.02477674544272622,-0.02494078444419839,-0.12983784879137403,0.06298822713091072,-0.10773162769603971,0.10290494186736408,0.07555626530176462,0.07452217744340191,-0.12642891391524225,-0.22808918410931034,-0.12650624027964327,-0.04913964015082528,-0.10550591468963158,-0.1562067212135302,-0.10444568852591073,-0.20822393883940052,-0.06968254245074768,0.05466312563186708,0.0764727394956425,-0.14459036650348717,-0.11251253106570816,-0.023537235212839736,-0.19088939966639498,-0.044320662998366886,-0.055242639880146195,-0.4250521666678944,0.030755426111511098,0.28482316259147605,-0.03367144370649995,-0.11011164544972374,-0.2525854239783485,0.008205365908748544,-0.008884737892879913,-0.0407281673992019,-0.1804264838435591,-0.19130185053728538,-0.0012608314775256137,-0.23760735397846602,-0.16639108060907665,-0.14901298615949088,-0.002798922464030469,-0.1296631391324843,-0.3045123861838192,-0.2146132457316686,-0.07684874831148086,-0.002765286063651265,-0.15394434754127218,-0.05363489345641532,0.03229298648029679,-0.1547976543707659,0.07172543342769765,-0.0034220758260557205,-0.07249389081187521,-0.1974114503928326,-0.26773869225569824,0.11034838328053342,-0.07840136695313361,-0.19138096941918165,0.15388630528536645,0.048331484560399575,-0.05371055614295345,-0.1569170057639594,-0.19311021288318792,-0.06957294259394409,-0.04216871704404876,0.181245949085243,0.1169182699111247,0.10190757595155027,-0.3259051413787766,-0.13423357177608353,0.12470604506159741,-0.12288024524021002,-0.04353832245409231,-0.2879155871128989,-0.10196175225702109,-0.05079304279092524,-0.18215912317421767,-0.0685998743475637,0.09264798667941478,-0.19952217394270783,0.003475213796646442,0.00862207169433148,-0.014854127356936142,-0.0156755297879173,-0.2467734449565981,-0.03127692416981798,-0.25226829671538165,-0.16741966890548385,-0.02847744638918612,-0.005708974344059937,-0.07585524832138418,-0.012645916871130109,0.2785171532577552,-0.15755532324432625,-0.015190864235842417,-0.1364766902337521,0.11528627501316993,0.10982892945828904,-0.07128327103548218,-0.041999917992250245,0.10493338138729483,-0.18303575866041538,-0.1122530437100015,-0.12823443006930857,-0.11232182122482698,-0.2162098638334145,-0.06369266163289292,-0.08094871069910685,0.04201089119188872,0.04686026646163466,0.007915764759028008,0.04666161676085569,0.0531605057250074,-0.08224672652063246,-0.04197319212227036,-0.06091277515788625,-0.1835168248353036,-0.20851228058738763,0.12226593472745458,0.09541572847728053, ])

weights_dense2_w = np.array([
[ -0.17256495037690822,0.823590199552903,0.18068582119315546,0.4630250632147371,-0.8451766250901812,-0.09350982865566973,-0.4923180300871059,-0.6077052344200674,-0.13778928483308195,0.21308725447286941,-0.3261143424916849,0.13471795969084469,0.25521356032838954,0.3382972221192734,-0.23066392629859742,-0.151016901543003,-0.17821030477448807,0.24330822427619372,-0.8441921577007183,-0.40734870624155545,-0.28690853231430113,0.06936814379814543,0.02395598812576933,-0.18809514460594967,-0.530405622049942,-0.08531609440442746,-0.7683779784930548,-0.3297155842362161,0.14283990592009527,-0.4709810816008934,0.0679680695971049,0.38353207602696776,-0.09402407847917771,0.3331658926484375,-0.14497970958452833,0.9120587517803113,0.03082380651170058,0.03472560918749929,-0.5482417586388898,-0.122089769944125,0.14664552477085996,-0.5026157506966089,-0.42946580587456823,-0.19281928756946887,0.021075453908764894,0.5292545418938068,-0.1732411021645471,-0.24453710783219548,0.08663741060231792,-0.19977576233528058,-0.39906765942318273,0.19199601655064688,-0.1687383104414742,-0.296217441716978,-0.16517625264352348,0.18246886957475586,0.43096969309072525,-0.37474628024764206,-0.08686337366303157,-0.28400535807872035,-0.04407288495704223,0.3152762530931592,-0.34753145032024063,-0.05056279855578667, ],
[ 0.23403525853082252,0.07762054081690978,-0.26359820848438353,0.08924349360012124,-0.1942724069340538,0.07312158560375263,-0.52109197298872,0.09450382023994461,-0.48911219630057085,0.15236006343449124,-0.002761288249369439,-0.36769606824968565,0.5055249531307425,0.4159568716441604,0.009801579499173315,0.21008908821434452,-0.41123706765682655,-0.05119453155719039,-0.5285365009908052,0.0941245942346175,0.3543538294059532,-0.5265337580376593,-0.5196299913117719,-0.06005563737664988,-0.2898556654082204,0.45455402420926383,-0.0959276014410379,0.17786497747591934,-0.26213866483153236,0.13021933467746544,0.07004376260601021,0.24568272260624843,-0.17094115357898412,-0.2937564967385477,0.07442150909742931,-0.15930238889725828,0.4454388080462627,0.3642246838251357,0.0161474087633626,0.07937447365773811,0.24968820685480345,0.1170664254306837,0.32929995904186454,0.05487926220349763,0.4605711369994138,-0.0731780584274907,0.3379619382439359,-0.7223724806660284,-0.5199832443180031,-0.23156755525818934,-0.20985719238576792,0.3201158487985499,-0.40532431827747434,0.10973119260646551,0.11216901216181299,0.26422647254865717,-0.018678901410871467,0.1536790945278923,-0.5953872776835464,0.41145676415819915,-0.4892962887414838,0.4949642161907061,0.39556417396227034,-0.8516360779555388, ],
[ 0.1782726253139638,0.07491241344940533,0.10443162624791394,0.07574153663099671,0.1751331899615366,-0.27194022384073935,-0.0312128044930913,0.07187455181675591,0.13089726456751202,-0.1585186295428473,-0.217631966610416,-0.5972244398646911,-0.024012975282078557,0.48278099768852817,0.08878158677519467,0.03597737589546316,-0.8749094556966248,-0.31553828328276406,0.038229734198170606,-0.8718228582800147,0.2388478911831882,0.16370570154862818,-0.25273141409462885,-0.5180376957646371,-0.25453546354113255,-0.04380339585355607,-0.22232612089232623,-0.03770849373936518,0.02960021096925808,0.18027143429345205,-0.47784991628148604,-0.14594241872627808,-0.04890978398761704,-0.15798002881075068,0.21809261813189929,-0.21100636071029572,0.42846363778551283,-0.07604482699797957,-0.35500188705371183,-0.31885526067071523,0.2575483838768029,0.07855468560555058,0.02070660508705651,-0.038715299521461216,-0.7470654966916738,-0.03126119609726424,0.2078700163699032,-0.3604774771792899,-0.14470837173649556,0.6424113724264127,-0.34049068165727203,-0.5292941596677431,-0.5458064635344699,-0.4177265049916504,0.36628858107624473,0.08671691517866256,0.3391645366128633,-0.6851524842588531,-0.23728940609818844,0.5044611517450359,0.6589268112255484,0.5405480681085337,-0.17152457048539838,0.20275598308850676, ],
[ -0.25050103252726386,0.17396114321278058,-0.7300490222246993,-0.035824950721992155,0.17016657599198634,0.21837904599208602,0.01584949262421727,-0.45009048454226047,-0.6007713259903946,0.6513894525215601,0.038098813403545886,0.5892255161293011,0.2363542403955551,-0.039677278879279014,-0.9737621185486978,-0.347744878035547,-0.10174781044962666,0.10534797592884741,-0.5494699926715652,0.013340654900164992,0.679777932122117,-0.5582327432860948,-0.2317137479969963,-0.1480754543302739,0.09488145576543053,0.2506747974554175,0.7317374225642987,0.47267550969571337,-0.48401453031198755,0.16708446941516067,-0.24572148646053787,-0.059514306175305426,0.1580087454868317,0.007932965357235075,-0.17400514788551857,-0.07023974761998998,0.31502228985662556,0.19971959950972729,-0.8219692858619525,0.608960908856517,-0.28628109322230744,0.23663579470746304,-0.20413304203730812,-0.12401176500321548,-0.3561895790334029,-0.09779902686872402,-0.4189405494479721,0.08591272756149054,-0.37248379053054514,0.1517235652068079,0.2378144275044078,-0.1876417118533311,-0.4360946697864104,-0.02836772958441183,-0.3899169657859676,0.31680258520349014,-0.15046098814631897,0.22985496064592958,-0.12716338179404915,0.10428963887207546,-0.48185151001912163,-0.8539163242782881,0.25083118398499205,-0.07145729673102764, ],
[ -0.22660885682434814,0.35602451324793005,0.29288369351545235,0.7000434099241054,-0.2472028681411333,-0.17159789377000909,0.17138056663175474,0.411567408359474,0.2793941015078137,-0.42046069272745745,0.24013788497870636,-0.3171612811055781,-0.07746682892977956,0.2647740393603956,-0.1387736444295231,0.19373560129355202,-0.2825298097647365,-0.898344113544896,0.21292892073070277,-0.590915579307522,0.20223769735530253,-0.5429424439942608,-0.29193360054043427,-0.2525314352499028,-0.31260629057826145,-0.13763679141677881,0.14255468529711585,-0.3409324975782684,-0.4433719814647682,-0.07612692161674885,-0.32125570637355966,0.19860708649944114,-0.16838601979285708,-0.5470512720727022,0.22506584930219833,0.026686840788302732,0.04166245296699436,0.06716962878996532,-0.10001730899738896,0.2991206099712759,-0.1295365256207346,0.26149080359260013,0.0238228570118606,-0.1482303548778649,-0.5946854666925028,-0.49765522397535616,0.5629836025949586,0.15752987598451057,-0.4304758351665196,0.39670825756828265,0.2648027083742453,-0.33974311183445555,-0.26380167784970787,0.18823557077357095,0.09292258339364892,0.99720795474679,-0.34562225316656137,-0.35984390619976225,-0.1105429882218692,-0.23768070840355704,-0.3524064295272629,0.204087670672554,-0.612097794007914,-0.07366768053884895, ],
[ -0.10635309996698995,-0.2843273142071701,-0.17390393109455038,-0.28778912927139066,0.04108765527403676,0.05428594171032504,0.2665011469018722,-0.4399367459876984,0.3068958311722948,-0.32130691941929035,-0.08486388439741518,-0.16500417262609005,-0.6673538380094781,0.12271900567202867,-0.13952552324546053,0.2829075818318347,0.14191326437425347,0.015580378748508386,-0.27804095023676323,-0.6031038942496094,0.09571627564017778,-0.7540663515386966,-0.02624901981922019,-0.14449292048826576,-0.17120250439479281,0.468661775197458,-0.15209056730010306,-0.09627847062065645,0.06894478150372177,-0.22735830895860062,0.2506011553756112,0.08673464675338735,0.02539465918257912,-0.3259304787798331,0.29867823847656116,-0.011449566354947613,-0.258745397994129,0.09322813263750938,0.1646741354584389,0.18795002487473272,0.33002302009956047,-0.6346387788215762,0.37279654809138996,0.25396730268057516,0.45827397998734815,-0.5677673409500797,-1.0588490769998222,0.035660127768416816,-0.4972261427963829,-0.34105266229760584,0.16002599506386014,-0.22264821730563053,-0.3377284012830975,-0.30405744439219945,-0.4355785074079282,0.30270963129477857,0.005464304535305033,-0.18221654729067646,-0.34699260376936547,0.29752169016050845,0.12568301285180647,0.2874690686048456,-0.20169708897280642,0.03319360801659271, ],
[ -0.09282343012249694,-0.16986499172384284,-0.2619954025452734,-0.478716581808326,0.08440118223523854,-0.03840827967218395,0.35845138024436735,-0.6672422822785209,-0.61305224163948,-0.31654748074044786,0.48739027725425077,-0.22541721388865368,-0.397695857871473,-0.15491934162992727,-0.311254285832113,0.5656344987137728,0.46777473030037203,0.052438236944801375,-0.1729723508396586,0.1604841888203351,-0.48220772576408905,-0.3890418404263489,-0.34032652874086894,-0.218489631451637,-0.26187737134828143,0.44628403009403605,-0.20717487045738892,-0.09911328498698534,0.23077214572121404,-0.0651371336268359,0.2368672640036447,0.3661130069852512,0.051091591898189126,0.2596178202345535,0.29697985396148857,-0.3438689592853701,-0.18947315833680162,0.04539143258476343,-0.4542557761310352,-0.3949514071898266,-0.058208504872315284,-0.25022606259371505,-0.26436468251036155,0.0939092387280941,0.23992117124100554,-0.4920248723135293,-0.3208619548850122,-0.40409196345884846,0.1397922794003625,-0.39947694640560066,-0.2811240399895607,-0.02668300266221441,0.49991637789293575,-0.8167899700428376,0.08926278668117783,0.31844231867078543,0.2263421016734187,0.4006140950182433,-0.05150811976861081,0.4299782600263201,-1.3478084961474162,-0.09954882030811255,-0.24626701035174484,-0.20370050146040683, ],
[ 0.3430491409707956,-0.08205270264667755,-0.10531092349539105,-0.33261898602989326,-0.6934968011059116,-0.3188175213977205,0.3440359901029501,-0.43868761273948653,-0.08749306049750473,0.37867697646438603,-0.144290259130519,-0.5330185324478165,0.15474932222403606,0.41507953106828294,-0.10257332874729717,-0.03497872021908485,0.542339403043678,0.0867564634420124,-0.01177939670857312,0.1845545353138566,0.11694375478516673,0.2876513978609407,-0.29089560290716576,-0.37054069517503857,0.3878455494609346,-0.22906859668733387,-0.2697853146529471,0.11209591851272106,-0.08201212206984938,-0.48468276228381485,-0.08774305761185078,0.10787925309594401,-0.16915613671574484,-0.7057399844574932,0.4179528545283227,-0.07880370358987623,0.02572355750805627,-0.1386581587164244,0.056328999297993426,0.2814986573442334,-0.13811330821238002,0.18076329867174343,0.23812572104711321,-0.3184590851663696,0.03466155743234222,0.01854981935260461,-0.06145324747549469,-0.3751551429465706,0.32242441564841323,-0.00938226056805137,-0.41969400323491807,-0.1583004539400389,0.21260702631722142,0.18025147467315605,0.04863158839807445,-0.05486210178754272,0.10918028937449993,0.08726584324671854,-0.2640665812266127,-0.6231432097529424,0.2616982977572583,0.11823761146790937,-0.27957521657011136,0.1625788445870661, ],
[ 0.34541199592572025,-0.18129725639316985,0.10547753102170539,-0.20503937816428763,-0.21704498534789532,0.0055478669247566986,0.09495797116152227,0.14752188341478828,-0.21216928163216472,0.02846860781115483,0.1988479289357357,0.2354590449703356,-0.06250654412133272,-0.004868003467690301,-0.3085460814862053,-0.2815901680084919,-0.5173935598371894,-0.18050073030721814,-0.20509514637433807,0.22621157719190238,-0.07909878751013294,0.5212830058799418,0.17313530916284442,0.3702232384978795,-0.022476154188565953,-0.37408561253085315,-0.1100048487107613,0.32616374902113543,0.204599704964055,0.021114562653031733,-0.5327568717060627,-0.3897196573213302,-0.14626424761451914,-0.13950616822245174,0.2258516544379881,0.2863523641714953,0.41547413748965606,-0.16208610603803672,-0.23142203954379098,-0.34820265697744385,0.42658830530914427,0.2952127249844342,0.13533709779121858,-0.017891451796663314,0.34037136053031425,-0.09627311112512371,0.09464451841441227,0.18152200639249463,0.019402095196835153,-0.5125421222000904,-0.15183551103295223,-0.12970313390541965,0.05643911132890831,0.38164721256119893,0.2673526269790113,0.10697390437180104,-0.35779048061735785,0.5795753875382841,0.3863184930596095,-0.1355155894244754,0.09302950617770121,-0.039355184480475425,0.3003698082137419,-0.03855143188386882, ],
[ 0.2690029659065997,-0.5521068657687588,-0.18469566369250662,-0.5797863786186257,0.24641881999859394,0.0874152998108686,0.25935855245746253,0.44446798516594904,-0.01273793579001526,-0.11162710142700594,0.02265200352789916,-0.10446005137513265,-0.3359757197154394,0.07707543648847698,-0.19878155297907746,-0.061453247475494646,-0.12031042532890993,0.2240120190383873,0.21169300204859826,0.11607510019118536,-0.1426100823291407,0.009285972083814532,-0.16765096952847489,-0.052441327124659966,-0.02012788327124588,-0.005012766752754888,0.1287475822648246,-0.1591527054765845,-0.1956450085295894,-0.13156446525697038,-0.09073267752366355,0.06694649888810732,0.37500136084108615,-0.3481516615418971,-0.045117391793482585,-0.1289425595709518,0.23627471862061303,0.02304694649950603,-0.016771345697942038,-0.24250696076563674,-0.10350788244539744,0.33007487486916515,-0.449438984335897,0.09558596574882493,-0.31695579159799153,0.057296708299891454,-0.1522992157753601,0.16960204243531926,-0.03130012684316907,-0.29329237356901156,0.7133864208417832,-0.6191371901149002,0.3708129907133999,0.30577267322956003,0.29868508896305745,-0.1438122674307848,-0.6286861442357752,0.34062735793789506,0.24806582748661737,-0.4755674637573421,-0.2048765703020021,0.10780266321045075,0.09075573573958617,0.00023264675348547983, ],
[ -0.5211483883158297,0.326684211116704,-0.44477737607629364,-0.12934217841138523,-0.09490308785976673,0.0021985320750302767,0.02680193973069859,0.6804810400794717,0.12847094404707532,0.11494411076209597,0.3491649450103668,0.055959491758025455,-0.2756409272585399,-0.3465299883473007,0.0460209067861988,0.044176372511639236,0.0016530145681698805,0.19720774013223813,-0.4101238080190078,0.42797315481693776,0.3078060942410209,0.24450172837027587,-0.9378426770587652,0.24806815264350243,-0.09785527737625394,-0.30597878365633574,-0.36321386767429625,-0.33995035687623953,0.461774481425825,0.09432209550237614,0.1180542810409883,0.15372210526606955,0.0802513056912754,-0.102009600281953,-0.35547684482783515,-0.5107359882163044,0.23487317319411458,-0.5165709373403423,-0.4384378051693081,0.04787738080204998,0.005637364826526242,-0.21703352306168394,-0.11883914837770714,-0.33509826461547254,-0.21599696547730773,0.26962914911547353,-0.10993890732334415,-0.17133009818326006,0.24651353027300135,-0.44208385336913847,0.09144016918700024,0.10608215686486014,-0.09958713422457531,-0.1084833192935751,-0.13300048880574705,0.044959996717714265,0.341022795616474,0.3552884753380203,-0.5738616152102778,-0.08265072840849674,-0.5528666492472987,-0.4003421427516664,0.3826542885164203,0.29292579943727703, ],
[ 0.396899013566083,-0.46867824815171116,-1.130625072400216,0.49563496572086685,0.22633045146465236,0.3715393332339602,0.21193980893839384,-0.21121529815583195,-0.06646513791123135,0.1473830827097344,-0.1429371420711657,0.14776333140782122,-0.1545117082730467,-0.13760324371710642,0.12610914233213988,0.12464499055237108,-0.19990110271170983,-0.19904013108437307,-0.052904256247109115,-0.5956039073598788,-0.2668494314804154,-0.06241369121640911,-0.07929901213549116,0.06697863672681786,-0.4070033341014452,-0.10375097319042854,-0.2231998906896145,0.21571675018064557,-0.0015804430216763681,-0.01099719770550027,0.14167552569104835,-0.449996885898167,-0.006880250608734009,0.2969824570411195,-0.11464142211013992,0.8090188755704046,-0.16841301365119474,-0.06790588717630008,-0.8497961710166057,-0.04019811750878967,-0.39477519870583117,0.1142524775058636,0.10476136872230239,0.1709983548079473,-0.7150440487796764,-0.1378326679825842,-0.2447349082978872,-0.7522604719256882,-0.5257511676722348,0.1134865351160535,-0.01636274524939485,-0.029851498378126694,-0.32127879124175995,0.41942014190081023,-0.9603242171351136,0.3617063100338235,-0.45380111703818193,0.17716468427661797,0.08594684340941897,0.4362541656461261,0.6074089683907202,0.03801933506790896,0.26254003921673635,0.2181103164881984, ],
[ -0.3425393997204584,-0.39743671307902584,0.31085156146862797,0.2241269408709012,0.07078670869564228,-0.1827251671771258,0.22278248792634675,0.23595176125682446,-0.8248398286594963,-0.5519214422277331,0.03636632049973904,-0.1700923362770431,-0.2994708786275122,0.03620763095171604,0.15689670070378134,0.23722317187660955,-0.49452662431792765,0.15314693793339101,-0.08315602381827769,0.4024005662847868,0.27703685020878704,-0.22279309208492415,-0.5637645508895162,-0.01682185413490455,-0.061655588261023624,0.22076891954422806,0.14273034241533603,0.2150193310305154,-0.0957721815083073,-0.30875649821834217,-0.13783746224165588,0.0958377061698485,0.0913942070867729,0.389887918231166,0.06030820310443488,0.24773799908352398,-0.00486516446049416,-0.038778803862837885,-0.6128126200727494,-0.4275800331314218,-0.10117975120349959,-0.353784136994468,-0.0649336250492283,0.2033747091995479,-0.24516386301328283,-0.5083505977877897,0.10845929494999411,-0.11238649023381632,0.14277081192738683,0.1981672758782535,0.7839113700922012,-0.21752647622180554,-0.3005281623532999,0.10889152806305707,0.0965461679232191,-0.13850161572535938,-0.4294945857742576,-0.6639885549855462,0.21003008630865078,0.03379394849193483,0.31829257115113324,0.1633288211542845,-0.14857753045544955,0.514713298526373, ],
[ -0.10214685748591032,0.45352760985698104,0.47266005004331113,-0.20894405246998018,-0.706395672329343,-0.07225471884797385,-0.12511588921911254,-0.6750585093469292,0.02467978411045947,0.16535126644517698,-0.5685602597619914,-0.22499742156817087,-0.41127749402218433,-0.23155294485470845,-0.14464627568273822,0.08808258917246087,0.4283910909223622,-0.5042613839708131,-0.24010276441544998,-0.5193239313027134,0.22895251859013432,0.4749925619965747,-0.02315339701546313,0.24325392782647845,0.3795037144995556,-0.20065474681042214,0.3193842045696378,-0.21534777937642405,0.3714962845856239,0.3761178769517119,0.03801783812226824,0.38625743417113784,-0.20804324002510494,0.17762562040255053,-0.18160934214581093,-0.021262267776284337,-0.44295714244987244,-0.09538866419851276,-0.3917351116761421,0.45846845228948474,0.47943093302488826,-0.575551886584663,0.13613061149634803,0.4832636708120331,0.0939427376255523,-0.08603894152106084,-0.49919730293915837,0.43009298772174703,0.10083353245998126,0.6298104211658211,0.1921353317805787,-0.6429984595325947,-0.07573911469590397,-0.17861263243765357,-0.29647922779906033,-0.8513805523923891,-0.37208817286751883,-0.1105254345772365,-0.7409997828709711,0.36565398287241,-1.117250988656577,-0.16415342648759113,0.10637734187983164,0.35699594473201124, ],
[ -0.656180479942023,0.09111537957748814,0.21029622763063915,-0.02709181178141859,0.07176565858650326,0.13745928718889341,-0.0037170424422542057,0.4524066843733944,-0.41468817459723173,0.6457209245280249,0.34635517010713684,0.19965674615400938,-0.08844208509257771,0.02417524812876598,0.10274214614517471,0.17108127005923157,-0.556783243993902,-0.31439850337601616,-0.6272988577290255,-0.11252790562073961,-0.38395907874482915,-0.34208708265202054,0.18537294476711572,-0.5148091897291166,-0.5072981378113658,0.3916431218052821,-0.01255442764500161,0.49366793897639677,-0.6421632899024674,-0.08061615941671874,-0.1780034284026254,-0.5270125781703474,-0.2647289176667123,0.02007836310532227,0.15610905918389223,-0.25028585285114147,0.4187277697964378,-0.019506579700759953,-0.2659220594628753,0.06856280510991525,0.0020943677138596135,-0.3381821329312594,0.1978211270198769,0.4794557616620836,0.023213776278309124,0.1640172804299318,0.2554245956521579,-0.13525034422704815,0.004537727255788859,-0.46797506765913555,0.6513628135784735,0.14427953935198712,0.33596613308036294,0.5215881254476156,0.6299374483869566,0.3830552494821258,0.2406102369484236,-0.33437488393785064,0.06894873269709814,-0.041146477461708963,0.6827253348647301,0.18270967445229325,0.32779029409372595,0.10493252712181862, ],
[ -0.1426544935072251,0.13904769602841152,-0.36793981349499627,-0.14375561377970605,-0.5622158341715794,-0.011907087255242525,0.0410030942353085,0.0549312656573865,-0.2815756354384533,0.11301588484332517,-0.09980920478791824,0.2263859702329765,0.24280632071655278,-0.47939513968603026,0.5445610509393528,0.0889017660683394,0.2089604886468949,-0.26966814573130254,-0.36833054024868905,-0.8286464794084816,0.053635683259367045,0.1801672170499986,0.2600385905376638,-0.3935147033755132,0.1403487157989547,-0.0072388677492284245,-0.09772155922502328,-0.15844834073548125,0.3144398623603808,0.362572970525495,-0.308379750843614,0.4944942599935866,0.18363577878200577,-0.7910428052869998,-0.00545424620810038,0.18234165547463038,0.19279619793263608,-0.3284958663503484,-0.26914052057334364,0.2711916253309378,-0.2253109282349616,0.10380423205461412,0.2858639328819187,0.005180607418777395,0.11457271663459948,0.43182281046619386,-0.13999669007433185,-0.2059461679637611,-0.4678792120501774,0.05520469236111801,-0.617255086984867,-0.7532467810786594,0.376401999029237,-0.21387999715081876,0.15572276655222528,-0.15722084175184767,0.16019910838966855,-0.31536754426960645,-0.07544188199724329,-0.2731173565626582,-0.2123010290099819,-0.13765481590465423,0.09615475820802712,-0.5243548275463645, ],
[ 0.15742532858041902,0.014171920289797402,-0.15821385854330672,-0.15826174406492818,-0.08501185307582969,-0.00568201514636218,0.19521994202576948,-0.09147864707026543,0.1785612102232843,0.033276188687216914,-0.30632871925616584,-0.04487281372681188,0.2978306253900504,0.17400377054269223,-0.3906540477869333,-0.03150451294629808,0.05640390769013922,-0.4045081550345086,-0.1441955443986852,-0.3634206913607193,-0.7086570689895579,-0.12140644406612454,0.09903027013155365,-0.16248160843599802,0.12145262706382401,0.29456739056349807,0.10968867419556004,0.3621869926360727,-0.34943202031334136,0.26779372721159045,0.2174973751737835,-0.1378021216327337,-0.19371902977568536,0.0412832127626028,0.009387015275434656,-0.5405998425210176,0.16220475127423004,-0.5445071762851372,0.48259755214147054,0.3131657267550491,0.21568185446622085,-0.07231772566313517,-0.42423769935514616,-0.38469798893373097,0.31459221461091524,0.10109358213705476,0.3466320334207651,-0.2853776711820177,-0.46303923720257034,-0.33387406274342085,-0.08029640194196143,0.26166248252619434,0.0767193231932984,-0.18342163430824768,0.24648361904760657,0.036074612046531764,0.07225182473810343,0.22092053522835747,-0.15920244994939012,0.14113031285509597,0.07458125267258674,-0.4245057255721502,0.06371306188079116,0.06749126030700174, ],
[ 0.07588123275762874,-0.0481611018593229,-0.30551553375655105,-0.055200253520676465,0.10985057664637295,-0.5366887185134824,-0.23842274681503123,0.044448176388992594,0.18697491505325037,-0.1860366061027481,0.09017865732155995,-0.14192320709301276,-0.01046407881686788,0.12261478649778201,-0.9649766783828304,0.1826855767440103,0.09626211007537751,0.4859548278806416,0.0797414165638363,-0.39593631025124076,0.12850064480320622,-0.054337006496103506,-0.5308233398830735,-0.017155101950007048,-0.2957377929755531,0.2536416177262694,-0.21338749313634708,-0.27514923013366277,-0.29433680361054493,-0.12802507124566315,0.4983352742277007,0.07914962482341831,0.11340704058512756,0.2946908051768558,0.4963025981344694,-0.44781527102208707,0.2031890405079475,-0.49169128358998127,0.22228184134332218,0.11641880632033147,0.17692983057735906,0.15500610444066754,-0.4087638914900274,-0.48034081327881434,-0.009105681426848129,0.20544951904605677,-0.18244170723315553,-0.6664469900588647,0.04827789784167656,-0.008245974921402777,-0.32224552504625176,-0.21639557060649905,0.1398756117169006,-0.46744779887994237,0.2542185505992647,0.22412339841220216,0.1850190864996881,-0.1800551558642567,-0.2857599723262053,0.358790258944919,0.23167862227670155,-0.026100650259956466,0.23603504151696042,-0.32328389701376287, ],
[ -0.15964235737123034,0.0556163487958404,-0.26651760503545696,-0.4289873494756302,-0.15473681773735298,-0.18358185321793113,0.06407362769530117,-0.16027344666479712,-0.13012768596701568,-0.29011373468007995,-0.6505460631368221,0.19104381403870002,0.2539240242738646,-0.1383131752808343,-0.18835064916533392,0.27598269405173453,-0.02058185324866189,-0.2212205903307153,-0.19884792893573638,0.15452398226297684,-0.36584358444729237,0.18102129677676637,-0.20915175057962238,-0.30605042547438244,-0.5254928513242535,0.2312939678592964,-0.1466645014299151,0.47288942154530067,0.07805127342880758,0.17206119420308733,0.5486063643302811,0.46643453568317195,-0.24819726060049827,-0.00020311918729585206,0.13047004370793105,0.23674989515133524,-0.19931872437335227,-0.2976415661101887,0.2175491349304647,0.20264013882742035,0.1671939592806894,0.10175248604465809,-0.09153958429401025,0.2634944383952847,-0.7573425751561944,-0.16796112310941244,-0.2936664561663265,-0.29473097122696107,-0.03889874546581375,0.38419796228298897,0.35335660933999175,0.0006246228680520521,-0.18356241351002617,-0.03974977371961519,-0.11600272822510235,-0.08293202239322615,0.056432944385175945,-0.2421129076620932,-0.2992778532556645,-0.3637996849522931,-0.39730542799883173,0.22257354979652738,-0.3529451794916081,0.0004861807553435413, ],
