import numpy as np

weights_dense1_w = np.array([
[ 0.2797401690104996,0.45159465552573724,0.12419779333981522,0.13104261185167057,0.17955920235485712,-0.058025086205686686,0.0028240997943728284,0.055300218947115815,0.05496769317480334,-0.11443988104631772,-0.15554006210960955,0.022601061634232922,0.15629726302120545,0.25090818278494653,0.2155028548675091,0.009249106793930584,-0.17072190513155378,-0.022356021585696335,-0.0357429431424484,-0.24141771424191022,0.10048182830108633,0.2584755660392596,-0.06415529739107609,0.07422070054196388,-0.0477839387084247,0.02903750000743383,0.11715742841881155,0.42958992113315997,0.3228490516288096,0.19128071389593881,-0.0321901882303146,-0.06587309162570676,-0.03194411089135751,0.16700185826852282,-0.14653414216767027,0.2418771381606219,-0.005015458021183847,-0.17771658116086603,-0.019447344378881754,-0.264372423703417,-0.06609588776457923,0.17566704852492582,-0.0009079624722467299,0.022466711111407398,0.05589317559312863,0.34245664414146587,0.041533668328423486,0.22270053981548604,0.20413665506953968,-0.21149580417469394,0.2770485910868122,-0.1371384700398334,0.17176198529438944,0.048573363072657985,-0.08469252915503352,-0.08378573593995454,-0.19251082882681175,0.006060568393729331,-0.23321160688776355,0.19548201156333878,-0.05011838210286713,0.20876938848514454,0.09847967598906006,-0.00738319958516487,0.21574762733183078,0.3540008296409598,-0.24800390245449633,-0.2594030863364841,-0.10273916312491418,0.24417787340539557,0.16186939953711857,0.36828924431312815,-0.08008504466714236,0.30570783925939554,0.21475423229084764,0.05259678533278899,0.040960248272926186,-0.17115200911830958,-0.1158609100815837,-0.16003180096285097,-0.18041147257127185,0.07492487377121063,0.45091085388162133,0.24045011374871536,0.3721437852859749,-0.015066009767510194,0.2318433290705397,0.07176952584296857,0.24289790938824768,0.10768605885970227,-0.07579764311686889,0.11473922588183726,0.5024394171495898,-0.0035180818065968173,0.2888973578003799,0.050729101250976294,0.17066785494994618,-0.11259714347461248,0.06448742317553008,0.10130971755431688,0.04427751802321038,0.1725356609201721,0.09466013274028463,0.43355227584775524,-0.14551496186703713,-0.19971986853022322,0.18198644563512528,0.08680413677555016,-0.0002817034918844649,-0.08780137616517465,-0.0020799146579607297,0.17993502349153706,-0.0014062097965880163,0.19923727476937214,0.27402158297864637,0.0670757294309056,0.027080470066668978,0.02098413949905155,0.13820238072350877,0.10756942426141884,0.09743322767917119,-0.08460032945695718,0.13823676568791446,0.23359313587377806,-0.01966785867412217,0.19694093898229473,0.25094472874468043,0.2526478036626444, ],
[ 0.5592440336519396,0.1168379115105888,-0.4041516830977341,0.05602505970632988,-0.16200571023655824,0.1801356885290794,-0.2737892592800098,0.5269199996671879,0.2889793325114503,-0.5099542264975,-0.13190742824888085,-0.20109185303475882,0.4719985222822853,-0.003927028845100647,0.41056240041163644,0.10229091303240594,-0.25971751317027936,0.29161669080494573,-0.21267731842796989,0.6126932649518168,0.03768233876111882,-0.23416788811284325,0.019412170629373348,-0.10883781957873814,0.4253467954782818,-0.03341319772135387,0.2565160557630151,0.39536131414611436,-0.06651821583459656,0.1553075541474466,-0.3399426862367227,0.2994282513423665,0.007781868608064721,-0.22051135733038138,0.5698410914424019,-0.4806487624025267,-0.05491813323530215,0.06309059343293057,0.5083309348026949,-0.3044957217235338,0.30054138734661906,-0.27122115703877614,-0.2794194009720008,-0.5218952367016665,0.1707951536637986,-0.015913430151223394,0.1379247593637202,0.02986377279437931,-0.24923139900192576,-0.17539221789800502,0.11099342573525083,-0.41244803961609744,-0.22826648081745307,0.07944983658234521,-0.7738223946173379,0.013390944506488872,0.03603152114190104,-0.411404087675228,0.6524242467067198,0.05449665557264824,-0.486674791007561,0.4187309910356737,0.8470562596601784,-0.008462768155238588,-0.09792655899061511,-0.3876242856579694,-0.05840435075676654,0.12114474731507516,0.14329199974453413,0.30568156336690844,-0.19768892209731068,0.17795343370081226,0.38888849872300146,0.3487664398267459,0.7798495621194286,0.06411651736836144,-0.2836236320239076,-0.1026934512072371,-0.12161903349042272,-0.01492189358295097,0.027943940791036397,-0.26919359636095247,0.8665190023359975,0.1667388121821067,-0.22699375560096507,-0.5516591370929179,0.4718004966285966,0.6526286064543965,0.02227869094694241,0.22558562969230372,-0.33038152498948814,0.10606036184177721,-0.8807922084864627,0.33327464270017937,-0.8285577152436521,-0.07838062764959737,0.3557274639481709,-0.22274569551204426,0.6646338077739253,-0.2131293998973211,-0.041768145272166,0.024469569082143594,-0.4109068725447388,0.13337339549139382,0.07863102382426822,0.49118819654359813,0.5558687405719344,-0.07278157582210178,-0.6288880340116734,0.5936614305455502,0.1530813315851741,0.521701153850449,0.27145617978195224,-0.015523186056740482,-0.2772019791883668,-0.16861146536374724,0.0021380702146063246,-0.5775475071934897,0.20238127891489766,0.7054256488463716,-0.6619014583341547,-0.473623538940564,-0.21613734815452873,0.3243487273812004,-0.05417778021654991,0.469823024676805,0.04436454422581087,-0.6022757857106394, ],
[ -0.0580418180775246,0.09141938899960668,-0.3924407694435189,-0.22625464349973037,-0.3571970213223977,-0.04212732798974722,-0.16157033435348192,-0.22541869485923458,0.2658535231095713,-0.0861074793008389,-0.11204378414263562,-0.03371137824738858,-0.4472571815718922,0.08943280464030891,0.0644510143680056,0.14639843193205976,-0.16866553184678876,-0.21543026470954618,-0.17178822097961013,0.09419897893739473,-0.13943474881662768,-0.10692549565179396,-0.11433999386264133,-0.1554203185829173,-0.15016673133829106,-0.059467461908762016,-0.10594222979660282,-0.37029422611113544,-0.09485609270970452,0.05316126811174287,-0.3582491744986355,-0.09186586614396063,-0.0106655790522317,-0.3045905188220934,-0.11442656191344902,0.1522073262303516,-0.05717443438840115,-0.2470783073980521,-0.3031408142256776,-0.026467253601330936,-0.09068290019400031,-0.2675305941418155,-0.4374878138117025,-0.31439741482792216,-0.15711270213695783,-0.2895972762749102,-0.10214102026687852,0.04403363599662705,-0.022612144704304882,0.07354621495317626,-0.22621517368093555,-0.28023277797478396,0.007508600143808111,0.08266256407145392,0.30956108644915614,-0.04777357855654945,-0.1794004345401653,-0.14379682218814763,0.05475997430922755,0.2426664559913895,0.11001424437142036,-0.11711374570991269,-0.17805214694439733,0.08954229814284545,0.11472953913851704,0.09957731180964455,0.02269926692896728,0.1777683729226581,-0.5287470956911867,-0.05204127317993333,-0.16422575425715363,0.03936979158199351,-0.027447769745082902,-0.006087396501891398,-0.03764093253443468,0.17211707537958434,0.014636420238502701,-0.10011408455814799,0.16018763535200228,0.1453752420110922,-0.049435683887184695,-0.07873608431680822,0.07689352198305235,-0.1825713422636426,0.011524236009651037,0.237037618605588,0.030900055131090925,-0.08802935127415276,-0.09938936968663772,-0.23511082775325606,-0.10783241496126446,0.024714269556208774,-0.16212557279206546,-0.0054968199213178345,-0.19635880652146354,-0.012769575366337015,-0.12189571317851847,-0.11530443328306472,-0.14965594149126377,-0.033625027953675,-0.07298219778563149,0.08077400087053939,-0.29584982413360866,-0.24205045697365216,0.08178733260035888,0.2097527318978785,0.02960613434941496,0.28921276043524635,0.17355303506662237,-0.19258883768124324,-0.023913165293116656,-0.09916870378219855,-0.09793975599702372,0.09467120154166411,-0.20588766602861377,-0.2778000833088493,-0.047745494831569354,-0.17818282853287631,0.13271576740981975,-0.0713771902709249,-0.29915222552444803,-0.10406089394568256,-0.048173836564289044,-0.38122331849217517,-0.21262585436510612,-0.1807996278583159,-0.2143371372414449,-0.023048910105742615, ],
[ 0.24745169153618782,-0.49703869168182074,-0.37378039563472193,-0.7084977571261348,-0.21980610824602745,0.7518325198238339,0.12020875105875643,0.655778304169286,0.1389167531463751,0.5008395329452543,0.05523369951956196,-0.06136395336421094,0.2976025548659464,-0.29027655357686794,-0.21020553196467734,-0.12360022052436416,-0.29465338463372426,0.3925603686371556,0.23356786985522643,-0.20062534091362536,0.1381600975752067,-0.5937047621553718,0.14162989208304427,0.4219019549601989,0.22652580157260693,0.2050254054011927,-0.7878336532374351,0.03707466872916395,0.4926801522631753,0.43043399967669427,-0.3219716340988627,-0.020083646809248783,-0.5924665070293752,0.2079613813378576,0.004052312084128068,-0.4164119706148637,-0.16841258965212844,-0.22950962104911302,0.31567693286762055,-0.24428000900890126,-0.17862134788357564,-0.22243229170397322,0.0689916421108715,0.37026209652682635,-0.562998678689835,0.26579035426340303,0.7240697609277862,0.14134982383145187,0.10630246329425438,-0.937608565957806,-0.5458951129694933,0.18061650486401015,0.06773074693852624,-0.04933984794449481,-0.2976481805921079,-0.2475008675359199,-0.5305832279110532,0.09183590816956584,-0.24329552569311558,0.34255892889642897,0.3053847327551231,-0.4411510442022808,-0.2865121796796691,-0.0693791059513906,-0.4280245603941167,-0.17248644802672208,0.12759426792249406,-0.4668802528053482,-0.09866532874361086,-0.00099970528823553,-0.5361790118090469,0.769549505737511,-0.056585565048427065,0.10447770212524327,-0.3783351527856267,0.25625732503379656,0.16853838470488802,-0.041706223831396966,-0.3186000625936453,0.46237230392397327,0.1569904299313735,-0.36512857365745743,-0.17388288004296573,-0.07371910080246942,-0.17966516674514071,-0.13290964859847967,-0.49128108556281497,0.28713167254444844,-0.35999013565039084,0.22235262639054273,-1.1977475101487403,-0.17000760657619635,0.1741913343203687,0.38594270289577726,-0.09176276348054989,-0.28736949409190204,-0.12276475712115728,-0.12496149423218847,-0.2818528092549504,0.026189180675024657,0.4549607068116285,0.4870035985695544,0.019814136528145315,-0.3578591259818358,-0.3014204649482345,-0.7605621329367879,0.36559784912533727,0.1837516540769444,-0.9199790115224561,0.39025638131022294,0.04060393176130128,-0.11642581035097088,-0.6428213381104745,-0.1407854527899601,-0.29689667525554075,0.09854102947293192,0.30845518607762723,0.6521805190716431,-0.4398930113409979,0.4393217814223409,-0.23872176738471018,0.211413579930359,-0.03714219807712374,-0.26343237606936376,0.14968901269566146,-0.645041170531769,-0.6372029655325414,0.19905613848049666, ],
[ 0.2934946427013237,0.7095695630333709,-0.059368971311899575,0.9622709862710406,-0.25814419345280326,-0.10896138530096941,0.018950432959721448,0.8089596750325603,0.38205688169576674,-0.4322250076570051,-0.14457285158083974,0.774733890877458,0.06362242789818183,0.5808746745538566,1.3729770419011018,-0.49821564193982903,-0.002306802459804247,0.330103027985803,0.5237702577013829,-0.48256511340420716,0.6715586671710749,-0.6921722435988382,0.4626282857009216,0.003321687666228598,0.5731659416458086,0.573780627730756,0.33935673137767586,0.49310195327963136,0.5576254768413176,-0.485545378492816,-0.4038907413476613,-0.40099241500385,0.7595212550406938,0.5708400039849428,0.18600129500474186,0.1902255608533891,0.2166581425191065,-0.7591968241994635,0.2959590816035424,-0.5883665403734945,-0.5276580623751226,-0.7077938215540782,-0.06391827936709758,0.49586456298128956,-0.547340239611063,-0.4679934667556964,0.16175425201244853,-1.0208378964064517,-0.8059676845525325,0.05720351758737253,-0.13339915478140968,-0.19863236425231043,-0.8730096073487214,-0.17961713022437384,-0.3813365853623114,0.341993168089966,0.5076632053022196,-0.8584901863661972,-0.03868036772722937,-0.6539858821406307,-0.5113298728172228,-0.4852627560373487,-0.5372270099528746,0.21698841735160412,0.4696809562759157,0.8078627189130316,0.053664719422890236,-0.3753363223396029,1.0378838639610704,0.12764659825591684,0.6496941829454151,-0.32808880811299485,-0.8677928190511099,-0.2948437617859153,0.7401981675715481,-0.016390314311627723,0.13726030587195046,0.008539673367841411,-0.5302939339418052,-0.31348829565637665,-0.2939618630149346,0.23782222914218654,0.3898416555381088,-0.8359681890883992,0.3597188299156978,-0.006403838091646971,-0.013094840436650584,0.20201179990106174,0.4059084481331727,0.4395795130816157,-0.6787688947912373,-0.11388688378812183,-0.319810995549231,0.24403166102572743,-0.43091830714129187,0.8860261181915797,-1.2771529298714157,-0.20994901297132648,0.2191266104723113,-0.06988557358873526,0.3106484087379575,-0.9916421849396213,-0.6006365914549938,0.11451567605140746,0.3893801366280868,-0.32222360087944507,-0.6642195597268089,-0.22675741676992836,-0.37518992584968436,-0.9476333173330557,0.4490119006497078,0.8827838985141054,-0.06025002106913315,0.10106328695559393,0.2500760866417438,0.19187765016040242,0.2890081470078904,-0.43200337669025074,0.2673609248102975,0.6851581122313853,0.3238199643125733,0.13272820349229725,-0.10213356745231132,0.823255764419481,0.44070261555867163,-0.07239323198550385,0.5392481356729446,-0.5433585904567879, ],
[ 0.28675945307666834,0.12124994683286683,-0.7071306381513719,0.14270467921268487,-0.5834705406873145,0.014696367684299378,0.9280205290738495,0.14022486671728127,-1.1791607719801656,-0.09034918008530518,-0.3973758254164283,-0.5390204410481432,-0.9045462013590633,0.15817436757653006,-0.4552554736074943,-0.30639687014042005,-0.26727898176906556,-0.2410040813639991,-0.21729441301001895,-0.11850509172705107,-0.2609552057785476,0.20727150063418032,-0.035279771428858214,-0.621597903457026,-0.05961260775610259,-0.6237461129308824,-0.401022161189405,-0.3083134413266483,0.11703358052990746,0.7834519713740478,0.27849603792361505,0.2367100057228974,0.0023079312209609015,0.7771059830154863,0.242625183839972,0.05233924400630233,0.12551236116151718,-0.41828123409159995,-0.09528697036969605,0.10169013328472896,-0.10575097545612039,0.07861075529905165,-0.14161530042194834,0.1667155419592721,0.3422954501719906,0.5518674480424759,0.5243588623769913,-0.1926969192314938,0.5406042907658973,-0.7809187601340303,0.44079682304382817,0.4140174335953217,0.04550051605192998,0.07593586104283136,-0.6551864604729534,0.4756416613127963,0.7680736264749574,1.0750237089533545,-0.8207940340825848,0.3133705872773251,-0.4127120349961343,0.9490332486147981,0.5217867338244819,-0.8750135022205117,-1.4471631897971027,-0.4693972473826304,-0.08792376774626118,0.09120337780549752,-0.2695046519438853,0.15887397940245673,1.119868158570838,-1.1508563206588782,-1.0127183748712576,0.3739247742757443,-0.10322438947879144,-0.6589175901272594,-0.09299710785933739,0.1592013316264145,-0.814016095938259,-0.6795544237109181,0.6870812889542475,-0.2953821919781556,-0.1353364928737672,0.31175182380159083,0.5746140108033305,-0.5539744211209728,0.36984168097361425,-0.04311123416284321,0.42424628604688996,-0.5747163768415406,0.20849970422522304,-0.09504064736229773,-0.4115216766523401,-0.18784991947207585,-0.43599224130088376,0.6308081195869101,-0.15713808523981695,-0.06270680520388718,0.5786098771849106,-0.22643795001799513,0.14649263941721566,0.33909136650985444,1.6435576248507362,0.4556816056984393,0.49861554644195716,0.8294589259763135,0.5514439372913975,0.14115136090836425,-0.07417994832192848,0.34389825077932673,-0.9031863916715952,0.11841563553664336,-0.291999279984847,-0.506073123252597,-1.0627415204997532,0.2726265453880837,-0.46582618491619177,-0.8749991221267507,0.14781154420939674,0.20798118231878354,-0.5977689222096253,-0.5595914394512481,0.5538984414836386,0.7873252523238706,0.3686532073662583,0.3127490304876762,0.45728313294608636,0.7628486161634037, ],
[ -0.001036282336713487,-0.7965538885061981,0.5866996967220857,-0.29732556977438257,0.2881172616429961,-0.052641307760764075,-0.8302850855356319,-0.2942379984146882,-0.4436083090783317,0.5513298128260675,0.1682027360469439,-0.7489882335937266,0.3949973937217654,-0.0864159125741228,-0.008558063484472134,0.05707543769704132,-0.3630437427994454,0.0708228543387297,0.221200250235361,-0.23910298435311678,-0.15848767172861628,0.43304181087971816,-0.4520189276808513,0.015851239140088243,-0.6689961547935444,0.8365624681831987,1.0168830610187967,-0.054217190814283785,0.1578026516158172,-0.1161930458598841,-0.467592541511104,-0.2516716450538691,0.3744747534941673,-0.34795653064005483,-0.5868919605687616,0.4833368851597447,-0.1690185057887811,0.24525669851511173,-0.9500223660463254,0.5560804544549982,0.6483359128419799,-0.22067378152000863,0.6479745118228458,-0.17066225738921847,0.9217176007501919,0.4219162441707202,0.08517957167283015,0.3759078291675,-0.40946051418894314,-0.23109096108709387,0.40457675643161783,0.009703370971043495,0.38179843335985914,-0.0487938849640356,0.342250818056488,0.3043135692728388,-0.6609040355456463,-0.3278187324470668,0.32626276681768496,0.6981114020525218,-0.01010165486413852,0.5242770384646674,-0.32942252292818536,-0.6514091737899879,-0.053526226063079725,-0.7046604171190123,0.34130729700972584,0.7123756992689847,-0.6302096854000285,-0.06924250158948649,-1.3577082531000373,-0.7257628377625646,0.25308332522170274,-0.17905330876068476,0.18022763024888783,-0.8648413169593859,0.22946728494620275,0.13707959243786424,-0.2152553965562053,0.40998951463268235,0.4156790919873552,0.4122596239901143,-0.7522467689687881,-0.15203434424070722,-1.1954274639466744,0.16241336218454988,-0.1794695545549143,0.05531975427957653,0.1166975951746933,-0.22679007071782287,-0.11443189288728872,0.34460854340765656,0.38457606393598026,0.3518072026405342,-0.16455751695411766,-0.5135455876990508,0.26314644302964846,0.11728831901892843,0.035711406937259146,0.13946816044831917,1.7789881157926273e-05,0.49108900417113865,0.918436421633357,0.0014243424470614524,0.1193627558183538,0.23625458805407593,0.3625297500653037,-0.22985536723546812,0.22585963356583647,0.3206450912640867,0.24047666031532178,-0.028889126792333342,0.24143573839795343,-0.39282446777426255,0.7255426073095805,-0.056807113548926244,-0.04037821567538795,0.08206568452828814,0.1871375972693524,-0.4837583148854537,-0.3140322976989549,0.05661869857861529,-0.19731258788497805,-0.3414358590001564,0.06632529290735845,0.11640277806157787,0.4337475240173668,0.4204605449806025, ],
[ -0.5979475959004772,0.8216928028514628,-0.27434412576170797,-0.17973527332599076,-0.6700978419129616,0.3615885671435318,-0.9278266046848421,0.14389577894824002,1.5206012260800446,0.662660398655202,0.13535322136166353,-0.04823169411374614,0.034922464796613345,-0.14539481749009442,-0.06242992005038957,0.0009804471509960305,0.37909092026680136,-1.3431264339162232,0.0726339710550964,0.15310508422424796,-0.125800926671541,0.031780693401064423,0.0797459251303648,0.1735788419654471,0.056687437008598456,0.9296193706657975,-0.3468683877006161,-0.2226195343484945,0.3689153412765543,-0.6481231870049287,-0.9485299390409709,-0.07286348009002962,0.3078762567171338,-0.4847843562423335,-0.03895690546713462,-0.8105612022802074,0.31678082228623805,0.3766371239504128,0.8630003729246029,-0.8578420572708966,0.32142252150074035,-0.2804738695871232,0.06328331694843276,-0.6283820456616644,-0.44471479658755675,-0.051723692530144284,-0.6636562176688167,1.5399178805774336,0.14875605176506038,0.15579057196255477,-0.3575066079992565,-0.7044231296288245,0.16845251345522846,-0.06453212733169918,-0.14997682236291995,-0.6810637309837427,-0.45636391737113796,-0.7763506605963059,0.9768924218247529,0.6689222007993322,-0.27762937451494263,-1.1579596135970098,-0.8037481244251796,0.6006846842397167,0.13980527517127606,-0.09475771708795129,0.12489952339125839,1.283716626579578,-0.3344798804880885,-0.3548521272240615,-1.1313864453224869,0.8000991375096375,0.23806231498861918,-0.23627237277066027,0.6073566195919029,0.6626498422579685,-0.6679064321348158,1.2451229812088416,0.9818908038351442,0.659472348224154,-0.974817027184768,-0.20377079039192125,-1.073200331475269,0.09658124800072199,-0.6945917880534611,-0.034616932678716496,-0.24428086441111782,-0.054075096479409564,0.2524926812188234,0.05685882311267546,0.5116469547828567,0.981372932901141,0.26225284541474786,0.04723246306073045,-0.004602140965997327,-1.2325165282928825,-0.19967544542210441,0.4183621514241138,0.17284163009370118,0.4843846570048721,0.17293897393308558,-1.0398900376713922,-1.518765960542488,-0.06877629937938437,-0.4467740881737509,0.040435413028830296,-1.1871254454634714,0.6469664478461324,0.10249774384947188,-0.6111500939509865,0.24068700765627532,-0.38816252804795665,-0.11729150808483978,0.3485896988286745,-0.15063242666142945,-0.508390497936089,0.4122822898734853,0.5434873716246996,0.279168197153299,0.42016699595226986,0.3488789687821224,0.19573894302540878,0.139339665169677,-0.043731643142602576,-0.11315871699009752,0.07551038305266616,-1.0627430046316948,0.3764248619143601, ],
[ 0.1623835531118086,-0.006850355538091865,-0.1490356139298811,-0.1384510295777749,-0.4308367813820696,0.2771958655739786,0.12675390783258905,0.4173814301719959,0.25765747190101945,0.3731696089145279,0.48957775365237716,-0.30696537500977317,-0.39852262318198617,-0.03674834866281823,-0.1262878560267748,-0.3312539026018864,0.1643214653942313,0.23190256593869446,0.08937824007692369,-0.0691712743863256,-0.5077266493560797,-0.06856934973301387,-0.17854399690727846,0.5750828291517733,-0.11538226353271959,-0.29371524922627323,0.06613365776036814,0.16027624912288402,-0.18898021522246652,0.1865263250103013,-0.12204879974822185,-0.25613257077284446,-0.24215375324789562,-0.0720266451563086,0.05937024775959327,0.30263903273706283,-0.286985412863784,-0.19994933734046758,0.34520733975617635,0.6057541295515739,0.27293866483738105,0.2208258259974573,0.18772720334363782,0.5664800580947664,0.236940322671994,-0.20452445027316768,-0.035472320757814285,0.01721363644598725,-0.17042138304844828,-0.153206177544587,0.20538135625797335,0.5251061979513465,0.28391075231935126,1.4434129164714102,0.08955660706695225,0.10587341948372449,-0.61017929542411,-0.25638034369359225,-0.18159394493360184,0.16048849237626894,0.12542686516516235,-0.1579218510532916,0.12555027971636606,-0.18932248365454962,-0.21053749008165434,0.07478580404454527,0.9725066808201582,-0.031477800425305784,0.0978815770768409,-0.1792049902904888,-0.2644222432624031,-0.061162930713864576,0.12785841608333653,0.1278107318437741,-0.23584897121104398,-0.03740889593759532,-0.2139272526569193,-0.20105839468134618,0.18279727434387466,-0.4110611154210498,-0.14743471426877336,0.04738636503335074,0.0279178430409599,-0.03399752816478628,-0.18425995001543208,0.21264174880716122,0.11003434266193404,0.17408358982814304,0.7665858215076613,-0.3422909066700039,-0.2371327107173099,0.030557553330141263,-0.4269601039082052,0.2928649785724298,0.26207946726758524,-0.4421243314062959,0.0746425440017238,-0.1425067841311793,0.5999887677920954,0.43742935259891236,-0.25891139087908666,0.39051121257025234,-0.24408235140081805,-0.0036488847813313657,0.05765173671737529,0.4486315391114423,0.07565219364206907,0.2908947747290116,-0.03171609342912207,0.1278647916182305,0.12283903497070747,0.0025808388739264766,0.0073797668769558745,0.06428911194011493,-0.2255335938281217,-0.10760506874448061,0.21034544034375266,0.1707772595825476,0.22859510181038267,0.6040629688734008,-0.26228717249496947,0.1158752067415922,0.03908925204978659,0.10819682691915249,0.08117049253645549,0.3493070907318535,-0.14394748905269097,0.7765593029920188, ],
[ -0.06372752508005539,-0.7095444854135418,0.09259576645911959,0.24795410092997633,-0.4716057856124567,0.10028123676914272,0.1663720654169849,-0.10438189355258837,0.4624666412255685,-0.2656706711685597,1.112687406599475,0.6666015632722258,-0.37242876905811684,-0.7276205105891809,-0.5308833995950328,0.6251652693486213,-0.007977773025565613,0.7296999525643637,-0.37469116429196603,-0.5185928063059578,-0.7241746668027597,-0.25912920558100044,0.2655386907896858,0.14912536877852314,0.178950437924559,-0.42553521044859194,-0.264075259848081,-0.07073229111333208,-0.004686081962690463,-0.2684731048267189,0.4044276848360468,0.044486308746542205,-0.5031416744450973,-0.012797189834384989,0.7602552754206457,-0.3310451028373612,0.31084172637325647,-0.27803301884529696,0.09777019608376444,-0.15033803678182225,0.2650192228927634,-0.4485430191655131,-0.5289444241767738,-0.3522303816070853,0.5455678854901722,0.2258656453336074,-0.6268531656820026,0.19116438098930055,0.4852053598177388,-0.28092776117851065,-0.005263583472935025,-0.14952132171957594,-0.9596311609174056,0.23017002129227826,-0.16968459217420476,-0.5245426426691477,-0.010457030852289615,0.07546569658843995,-0.03803703390527244,-0.5056369068373585,0.46107553839840193,-0.13567170390876168,-0.4588466819629994,-0.10947798545175778,0.049221733433589016,-0.22961653277261143,0.371272723322813,-1.2118501264518649,0.40843735261449016,0.5165851645786096,0.3615524962226267,-0.05186801056355664,0.0843549026032113,0.24415346152802136,-0.7774600594774128,-0.8043173547700517,-0.42246757857345824,-0.4555058743864465,0.11209106923610279,-0.3870985565050418,0.08778033758051648,-0.14867462069592552,0.38469070518746584,0.30257764776340756,0.4711176434712283,0.14462399566279016,0.9747349502623661,-0.16396709387248704,0.40006683645125085,-0.1261438226235704,-0.4316404263921342,-0.1979947977212798,-0.44963298775796245,0.1991808758330265,-0.2041803806271111,-0.011421812630092999,0.5862022236414728,0.7188031117384934,-0.18627699005618542,-0.06555200561561962,-0.04167118828778533,0.42099531911360527,-0.25514622084641114,1.3382173266376536,-0.13804507206307165,-0.018478825444198276,0.5566764360901301,0.3000553323806918,0.3387196589284218,0.40641187509199606,-0.505620674666901,0.2008436916208077,0.7170475267445648,-0.2758349776952784,0.15493318262925562,-0.4798727999406666,-0.5869921952359053,-0.31329629571447065,-0.21294879322141697,0.21817412383256385,-0.35012175733017803,0.3754124972601041,0.6873537298087131,0.05706841352219544,0.3500750148388246,0.14253557327447203,-0.7819333570838108,0.28876474755417075, ],
[ 0.2334461482159872,-0.48692276893059194,0.36390488423868583,-0.03204732043586284,0.029204320398286698,-0.03061007947575689,0.0953379749776349,0.11545773057388228,0.1753970900602196,0.3586545895021503,-0.10560494971001484,-0.18794393288575287,-0.006166896387608302,0.120112377327547,0.21703648006305043,0.41935767706375904,-0.2583001684087239,0.2369628068630459,0.2838158057673913,0.267332011849363,-0.12367724835487737,-0.015499457960711505,-0.3653900812964222,-0.04262106168092464,-0.27065810485251485,0.1150273393751892,0.16074984296199044,0.41235971983441505,0.5995621744295838,-0.1844903163343469,-0.1846449949878544,0.24246332810263538,0.03612884308622056,-0.053920303645762835,-0.18993767180936996,-0.37532677334673886,-0.27382742196938004,-0.322330471806046,-0.12138916653165341,0.11181650353919842,0.42469440819097315,0.24169031070649905,-0.2094670760798382,0.24343039429582927,-0.11491279945621027,0.1737952777522561,-0.12030295854391275,-0.1337488992054202,-0.24060591708782617,-0.06707572943090533,0.37673839875150733,-0.013739058928084528,0.0960205809342019,0.07057330186321341,-0.04620169058221595,0.084193199891208,0.3178074727315189,-0.039039237721228116,-0.11879892853301799,0.7238901270601114,0.22157600508636155,-0.5992045478516278,-0.16518087617761118,-0.1669590167404616,0.25901959363579735,0.12256393818765085,0.37358006576567804,0.133285344725792,-0.07334796162950759,0.4306017653036157,0.2107094278902846,0.5814836642489289,0.0638950423111767,-0.3517726505158907,0.2586874655407766,0.12518549854157313,0.34272397626802603,-0.09317120281905239,-0.13194575214452509,-0.11065665319776169,0.06512545128174886,0.38694001600628636,-0.07576811228567149,-0.48129258861732965,0.1444523758840045,0.04002429271707254,-0.11226553293441184,0.2752143638866613,0.13707991320988971,0.4493406836038786,0.35115708885131275,0.3105413798349798,0.35412728092191315,0.45269613298047034,-0.2885558962005004,0.2824497304363354,0.1731456626623273,-0.2832892042428482,0.29903422270276153,0.5401434968649992,-0.1358782657106549,-0.15992193639783453,-0.7711523888837557,-0.15035378408567385,-0.10391085612680946,-0.052905310909974836,0.3827915549199982,0.22555117054250332,-0.2554243248206727,-0.09668497226907859,0.3704271900849097,0.21885949682535738,-0.1617280718026905,-0.040475937261803985,0.18724374214600065,0.2488019682963769,0.08376394993087795,-0.25953333962217473,0.3940535166042892,-0.009960104675172485,-0.2947725418491134,0.363271634799232,0.3718049509459367,0.38720814385327,0.06698152194574901,-0.1079431521477907,-0.04386871343340408,-0.10878525582790403, ],
[ 0.7790723360042449,-0.30142633662186075,-0.11338828255057515,-0.6407993140295192,-0.19547197185307907,0.2055603321070401,0.490524232042923,-0.05350985156847443,-0.15616238426760976,-0.08213962281317747,0.08179474565419699,0.3045057428265531,0.03988419244984597,-0.5570282496884096,-0.2759337240212378,0.42246582488018736,-0.08237881776788517,-0.3206685982395641,0.7681310750362308,0.16154340366560843,-0.639197205439298,-0.19726745429789136,0.12041465625582651,0.14335109195874632,-0.9310850621609157,-0.018368478374049896,-0.5251694191601175,0.2102917684006789,0.48217608193592687,-0.1665984959828593,1.138629039914837,-0.7594973750418725,-0.10331253172793183,0.8178151786372017,0.3372392693092291,-0.7908559963058325,0.3108475927146695,-0.175977397937992,-0.9626701038989133,-0.1903680301017983,0.5527153154088777,-0.2672668323498531,0.14708274398058346,0.17511002360207945,-1.6219702719268174,-0.14845678136961382,0.015013090470573762,-0.6017945509013709,0.04217277980855902,-0.46662740514624124,0.10485293097836747,0.6781974856332632,-0.8384548289421581,-0.13642907961561382,-0.568973156185365,-0.7532469905938697,0.3893272119566781,-0.19245301739598247,0.40050111441725855,0.7988058283054368,-0.5926344419911643,-0.6365950099340215,-0.36666904777642473,-0.16194563574440982,0.309921605855624,0.4794358534073921,0.16476889153743474,0.6262097410658976,0.4355066417437358,0.21452360370609044,0.4586239812499432,-0.7043678991856503,0.6117284777269764,0.3603518273316718,0.569777049507571,-0.3255580122117435,0.27216005665615195,-0.07302699030257681,0.008463143229246989,0.1410325061791332,-0.15095574627435618,-0.039537152579622106,0.24609492974095007,-0.5274677093871327,0.07640715500715699,0.7948529836094234,-0.13800520517430892,-0.16576228178573418,-0.6668089583113238,0.3969903424463963,0.21807410437958402,0.3886058762675325,-0.05992964320452835,0.5489222837406693,-0.535257084260031,-0.042427690034089506,0.5899976020509831,0.25426600243541214,0.8769532685252566,0.5428413990009465,-0.362033817301088,-0.1560901770587328,-0.7159998199287935,-0.02571864344752279,-0.9489247883926761,0.34412776736993145,0.5590265804907558,0.19587305524810772,-0.20763944030831383,-0.299900036751759,-0.5423935753537357,0.7863738734677006,0.30596223595538236,-0.020530395591320416,0.17680568383138823,-0.5525642039305835,0.24397986920897713,0.30494566262073947,-0.08879447616611831,-0.5692682448284009,0.5613270757694713,0.634124076753401,0.39287706715140075,-0.014640344336610267,0.4511840834973286,0.023027692099477796,-0.16850018763292435,-0.3607460910954758, ],
[ -0.18576762406994143,-0.34535896392164434,-0.04179007390859254,-0.3936870561716016,0.10252054464471187,-0.011223330803625309,0.12464428099685237,-0.18901980796933748,-0.04605422808996786,-0.22675741676992972,-0.022266452880515805,-0.21577545063198347,0.14988845446854301,-0.03663508760250298,-0.2170960141054813,-0.7759816025064157,-0.08602860976870552,-0.012508062551899325,0.1455050329725735,-0.005925872146671454,0.14884782654610892,-0.23349160154479265,0.3566643227817549,0.1989622921006518,0.06771586491869823,-0.4244538351234271,0.1791826367662656,-0.385798405581436,-0.10691286140449212,-0.05631755004874084,0.134243572386165,0.28912277194304514,-0.4256366137490104,-0.15393272200516037,-0.5248343325113558,-0.2529697242418995,0.10745046620929281,-0.24307972577265072,0.24570247953221838,0.023573960825086525,0.17874087060807803,-0.3395411322587153,0.18808237502400132,-0.48342253576974514,0.12454229537592086,-0.006230409481001453,-0.13084878357738178,-0.2143217586694667,-0.39148892829980864,-0.017857487308135373,-0.41974734634998156,0.22331667994142568,-0.13778210437018873,-1.2943228908072049,-0.7197455955635046,0.255222849517728,-0.45086296672105897,-0.09776501158780325,0.25277698534244364,-0.4255713893230036,0.05047806687837898,0.6349408859749027,0.033919373663527666,-0.40136020858598465,0.009647547007277053,0.6173896788490894,-0.07567758826417707,-0.21903993232506036,0.18477811263098767,-0.18719027300450636,0.0028083431580930886,-0.33973153741994677,0.11835695845662997,-0.13710995864710623,0.5308964800691827,-0.21787532355839567,-0.017868658442659044,0.14672000481099443,-0.42903934815197087,0.11642325507159564,0.49120872075890565,-0.40414939572972697,-0.22078922504065635,0.032968394464579345,-0.2638566042862535,0.28891202411128053,-0.2613277489647726,-0.025703846171201764,-0.751799771140424,0.4953343699874602,-0.12993445828424782,-0.006954285569291729,-0.043241235686497265,0.34273999310711745,-0.4136725511193855,0.17679549227610952,-0.2985522365152135,0.72999500336443,0.27859778321952244,-0.5401254908488812,-0.5459514179837991,0.18503138304506975,-0.245857086518137,-0.5730912145171311,0.3196459971335132,0.25817952423079105,0.1661717798376198,-0.30839970760518093,-0.08306474841312367,-0.5617100708016429,0.205804284485172,0.5190812970637616,0.410185436391342,-0.7344790376653971,-0.4342646209285793,-0.6482795040270617,-0.18525039046909444,-0.16103381641958256,-0.1399049965533714,0.20457912085183985,-0.1735197313128315,-0.0038370177024033315,0.06862014390905909,-0.1504901798674986,-0.2243620298476421,0.6364458859528187,0.20260530130297594,0.3362889127162137, ],
[ 0.6245924306859979,-1.152685173902961,-0.28106470132221306,0.3621475486825124,-0.03707157730917182,-0.5678385480538559,0.13945572632776834,-0.05735918871778228,-0.670277097116456,0.10492929625463568,-0.04819527864429915,0.34193648069407434,0.373542318270416,0.760014852619995,-0.1097379602632954,-0.14780967084583066,-0.18690765054903885,-0.008463756437000397,-0.1574372911352494,-0.8135559304254536,0.12783955735637323,-0.18493338628104766,0.32914977224899733,-0.2679540368133255,0.20568353058878858,-0.6356358409150759,-0.4080806448564893,0.5436288122302941,-0.46785368245070114,0.1427775075093375,-0.025368244526072115,0.045360175374328,1.234759355811524,-0.3539145454718668,0.07004354011904003,0.10198429714186331,0.7136573171641052,-0.36736304270011394,-0.3698589431514697,-0.20282871554036386,0.3982506822325192,-0.5309589543705643,0.1723060027059312,-0.11327561645359469,0.3414862312118902,0.1937425891738316,0.44181202444449963,0.6493721951786949,-0.2583169242971084,-0.5408451722792521,0.15713622274272693,0.09355489112664137,0.23328852627141566,0.547847650222671,0.029096026240633475,0.1110839520492509,-0.35445808418239144,0.5477997122737884,-0.12950310666896353,-0.0026646691466608095,0.36498956863174703,0.2765837140726759,-0.18122240345977014,-0.8472574426347771,-0.02808861161292242,-0.11391617057890031,-0.07954873260424936,0.22527033743227848,0.41994497466001246,-0.5372872459550063,0.0654559162701702,-0.32481387969912456,-0.535392189631326,-0.8975966037298507,-0.04477715466195282,0.3973888432942466,0.36675171274757695,-0.26797433399065784,-0.38122637497449696,0.26660718299081715,0.762928298716473,0.33946907733074333,-0.9153130733459468,0.15818131752037212,-0.4969262647339517,-0.3765928392814397,0.4750249145508454,-0.4163393596734685,0.643616648428218,-0.33834587592161686,-0.13925366193965397,-0.5400841602362547,0.31588205417372867,0.2244681454008995,-0.6013422010547295,0.4600936634557291,-0.5873745633946589,0.46702212034570006,0.0905401473556342,-0.24640206047613927,0.4541248920695173,0.1951484262095594,-0.24126472381554018,0.4261514794569156,0.617230990606227,0.44403921190208273,-0.26009247464251717,-0.41511844131219877,-0.7208602458280483,-0.052222711508462485,0.5004301611474278,-0.12265911139923315,0.20070155180203372,-0.18273844868765035,0.08299475328735746,0.11927347038659815,0.16820828427294063,0.052197773797514925,0.39457214298464727,-0.6841685131417687,-0.03445668925442844,-0.4760844886450424,0.22283863001363816,0.00037731503328774845,0.008059263882089253,0.3743650123153732,0.10806784462867342,-0.19611042932440398, ],
[ 0.0943602269770226,-0.12039716602906808,-0.24823672338544278,0.03287372110796781,-0.4106836082495301,-0.10213769085725055,0.3045772603369154,-0.42041039142863823,-0.25665048643225047,-0.10840845001026868,-0.5057057803161503,0.204784335085003,-0.16377952123590775,0.06753758790708089,-0.5122294072857085,0.04202333078177601,0.38533010254884836,0.005846639605255437,0.25542224461474106,-0.1484709264968817,0.05511137881612301,-0.10268615881978449,0.16706656200950482,0.28135851026579833,0.08313835368529575,-0.7615733099992104,0.13899078385321215,-0.493940890628558,-0.12610972890737224,-0.3273396383077504,0.16437464797551085,-0.431690262690376,0.08476404085765116,-0.11353123472210136,0.059648147266438696,-0.42134428916641276,0.008174318906091941,-0.11064447697486847,0.09666462568546416,0.1550828370631589,0.16748097504438153,0.3096600037070025,0.3193153143461568,-0.26353275479336047,0.02577794326425311,-0.521508737647338,0.22932048052000986,-0.16924002226718193,0.14696070588253096,0.07227899846973786,-0.3108902869933441,0.30272994167163125,-0.32181632221520173,0.47449168741601633,0.03379173124617154,0.18800425247506253,-0.08928006430111048,0.17664561719546124,-0.12333642919547176,0.1370796477166643,0.3601650408138173,0.02686411291421357,0.13177729635870422,-0.191555142632521,0.5149535731891851,-0.7330650583958941,-0.6414167189971693,-0.057458668727023154,0.3340405602686183,0.1577020259754326,0.2733421408211731,-0.19780384758575986,-0.13289991405504334,0.03255416766089282,-0.1532128245284397,0.26819303226897795,0.16577550230196772,-0.686866774270687,0.1555678238270295,0.09150866922484098,0.38705161474615957,-0.5096334147256101,-0.30673416987198704,-0.32759481429688764,-0.2832134771280669,-0.19307694820938504,-0.13290415265971037,-0.023189679309248847,0.27686907113131176,0.06052873638215648,0.21526410358092443,-0.31408284421095845,-0.41896990382186167,-0.3787903933211878,-0.03242455370167581,-0.1369844240184695,0.44166982648385494,-0.17582612808185422,-0.24526032176111787,-0.17191900217704179,-0.5372989938518171,-0.0758940645364908,-0.15374161737422637,-0.05916568490581957,0.16222941778631716,-0.3500507243735329,0.33549604220632634,-0.11852470383178712,-0.7894636389817183,-0.4676063707956306,-0.01091275637363942,-0.032073634031865854,-0.22789435531172741,0.24804830841513137,0.2083774541752893,0.10126226728670223,-0.09039242035841397,-0.1569919826179828,-0.514126375550541,0.3699124304061067,-0.0726580596706263,0.16764498223702265,-0.2690955793289794,-0.3266149616462012,-0.05201319726413452,-0.3910057221145928,-0.3001325510756187,0.04722300462639982, ],
[ 0.010289299717599357,-0.0712012933372335,-0.5237555031497787,-0.23766664944871735,-0.8033413469859267,0.16370540895893446,0.2042438805712993,-0.2948397087552052,-0.4830198432073882,-0.091580900213845,-0.02308442953694749,-0.7724814158892127,0.19122027595404073,0.4892823991827578,-0.14637495990334287,0.5138076240395463,0.4908303099907835,-0.26828464215884473,0.4223446709613649,0.431946554422319,-0.08488391810230324,-0.4598292312031555,0.0937093178516176,0.3589348512511152,0.48631755120025666,-0.9175042712632717,0.26792093592673244,-0.45868311552015617,0.4525727586882978,-0.5878547073719768,-0.8156697106879478,-0.8245002693090973,0.2274168691660175,-0.502620649068944,-0.020840107110162515,-0.4345966171968854,-0.13751659342024025,-0.6523415059083857,-0.1652867706284974,-0.10617577284940231,-0.36495979749343777,0.8791874689017083,0.454371361597861,-0.7833209314622693,0.731144292293898,-0.040613012264515115,-0.6169431456906072,0.15917195284496735,0.1812293033451026,0.42671871796694316,-0.3661521468988647,-0.2114657871057303,-0.3928934955946378,-0.08606354295035876,-0.6444367655924186,1.111591652357974,-0.5410592722880465,0.2637499345951218,0.21457134049585871,-0.4825948353608144,0.1801418580226754,0.6059925185932006,0.051641888879889596,-0.2592418587540482,1.3357901299207795,-0.8229252734842664,0.015078068820103152,-0.8092693799903944,-0.24132065237720948,0.1789485671003071,-0.2476913634753007,-0.2273082962537412,1.2401692127113073,0.12291694067664308,0.327957627083313,-0.13155238988980122,1.431611791123697,0.33194346544334985,0.9652751748478018,0.048861855071235104,0.8912559552903749,-0.4091860871830574,-0.26802099680239655,0.2303258388673584,-0.09658469440456767,0.5384186050232483,-0.36201823623844903,-0.09250285812915411,0.3505536638640624,0.9711756265135635,-0.7672985079375124,-0.01626322839527974,-0.7849367663178396,-0.6574151008870739,-0.15003005093055566,0.5262107294030763,0.6676029520718727,-0.25965890077571796,0.09707210803513708,-0.10111807399141527,-0.16492931023914084,0.7297878122763541,0.39152015803142437,0.43071221315270886,-0.8186420742117589,-0.2978840680625311,0.5075817912388554,0.47712395011198977,-0.38951154309854646,-0.1858566271683364,0.05946242417959821,0.8503053792768427,0.20164014850928574,0.24588501701195628,0.37711256307852936,0.7648461113507696,-0.3225798897589795,-0.30005084022111284,-0.4293962429725941,0.5168391723773649,-0.2110806216947774,0.7638798356891008,0.5617715931845143,-0.07731543730011654,0.5102455985588624,-0.2580343018416424,-0.33456801619766297,0.26088471510277045, ],
[ -0.293806339500459,-0.1334274660527572,-0.11354632161262067,-0.055657673175946214,-0.26927633280450636,0.31223893568638494,-0.21435311220891942,-0.23245139835289602,0.05139723719296117,-0.03868439825354328,0.09815558787339468,0.22391906878671652,0.2825920312145546,0.8038989562623785,0.4709647369755274,-0.40773458721699174,-0.244954074925277,-0.6216755748566983,-0.10030650583960332,-0.1087637716603976,0.13038311088731247,0.4492485542037159,0.04390207573722629,0.044102578340145915,0.06457945519695824,0.11916925284698632,-0.4145353505772476,0.04896443197665208,0.167775893506518,-0.21800216770361225,-0.35535063400754835,0.38608274116935787,-0.06515316876051658,-0.03107885621037454,0.3304750142787811,0.005525945036912991,-0.2803984998279224,-0.023753212855435205,0.3465781603072473,0.15242771098202945,-0.008223300145270666,0.29510772227674037,-0.5107204431811248,0.24796052591664805,0.1335717578406524,-0.11702852898493153,0.2854179585319071,-0.22950487499593372,0.37225064637848926,-0.301522836474409,0.22578768233852783,-0.11022275763224562,-0.2962011117638515,-0.10936579642747618,-0.40428652387508424,0.3243126355666006,-0.290845790792188,-0.5477118582608138,0.2890305411938807,-0.1339608789680039,0.41354580568128696,-0.18398721850921076,-0.07739071794944052,0.24043868043502045,0.10025434804590262,0.3482520792464414,0.0255233761471077,0.00612124526096534,-0.0689455455401875,0.6046463362773503,-0.4768843848272107,-0.35317917717576075,0.0652199770216524,0.10231810946511768,0.9685471548864274,0.17729533971361838,0.04500086093122507,-0.13506918726320064,0.15883234417050604,0.11053334955428307,-0.03174702659207108,-0.07009036895588991,-0.42998551994450007,-0.18981959678017482,-0.3900020101292775,0.013171979380597684,-0.027379223270359264,0.300243751176198,0.8034600265105329,0.528921450684593,-0.2651376163904999,0.623691858730238,-0.20360943978141924,0.19970352155086568,0.9344440452600408,-0.3020300906419248,-0.25380060028847895,0.6225218480132008,0.45566210389929995,0.012435388040561381,0.13708156664773596,0.06560179291015364,0.04446593299352204,-0.001980527858452083,-0.3423819116163718,0.2471311300668759,-0.46046198749747447,0.3216691335624284,0.43437764511538723,-0.24435112907283252,0.2751459415061305,-0.04282726342138091,0.6232122221454257,0.30598591178592666,-0.1593950355927588,0.10519115915555698,0.35719952206612626,-0.07650632414917767,0.21294777572413343,0.4210476250622559,-0.13911451582175152,0.6496509747684411,0.39388149543625584,-0.5857736740552024,0.7610812887484683,-0.16442164541987217,0.617040839911497,-0.18337559405020742, ],
[ 0.3679460993817699,-0.06753975122509986,-0.15060674226389723,-0.278661314135872,-0.474345058422295,-0.41547574131852427,-0.3094158546928086,-0.5880224654748054,-0.4662570108410458,-0.009628192779890354,-0.35710283329509623,0.1086339976521593,0.4530307152472444,0.11062609861535913,0.04523580118867967,-0.24803629492645107,0.2109864638660249,-0.7991296498717102,0.7510404554802085,-0.5915139517821004,0.12250359460802304,0.021410490456380937,0.14558845324349162,-0.7794883371070638,-0.8617080186790707,0.8036104471907574,-0.2508336211806121,0.21399629501050021,-0.24389497322775655,-0.3233200890545877,-0.39422759965874626,-0.029132925931115668,0.0687900223749025,0.060204816784741357,0.4115344642076344,-0.10118172916196047,0.08572042509868107,0.028192400545727025,0.09962335923028559,0.8314977522521599,0.33462498727327944,-0.3001352756906367,-0.1378570947058279,-0.27263646204078507,0.22093595168202879,-0.315039778026493,-0.4572316926272325,0.02266240335329829,-0.11748888586212955,0.15367806982028395,0.28564095105930304,-0.2591599270737597,0.16199201713051353,0.696193315301109,-0.19491528678727915,-0.059034896889420194,-0.3161244246354116,0.06478543453662278,-0.27908371279633026,-0.07522299335729905,0.08743931703580352,0.18044878866369599,-0.2696315097584949,1.0695925707381242,0.14043845806570715,-0.3407069655547881,-0.6347743031753694,0.7413019177137257,-0.17899012941454134,0.4660444290655733,0.06878162755048983,-0.48169368437488536,-0.4262115696307416,-0.034879539214986925,-0.692609130129722,0.35590615932849945,-0.46076880989685004,0.1081651134568361,0.812794544395052,-0.16730915878646152,0.09581533688121159,-0.6695714043490663,-0.05336635804150926,-0.3860714223840598,-0.4182988986971981,0.10796585645654938,-0.34050263019330956,-0.31592705564940965,0.44163177844778706,-0.06633635141878572,0.1646104253501533,0.5127713417028319,-0.3268057660053521,0.006463046180624444,0.2986377279437784,-0.29372823196923126,0.37398282391343024,0.4956571738584814,0.5785147828038574,-0.33745016876790396,-0.3250579950095013,-0.421259968613819,-0.3130850613941817,-0.06582717318345364,0.15840374596202755,0.653639007332355,-0.2913835658099986,-0.2901721746106261,0.025743529236380153,-0.3072342209691233,0.0885836057973458,-0.058561105048179775,0.549073780566255,0.43884630594470503,0.6144790174077563,-0.16691241132060164,-0.16588786988282928,0.8614244870604788,0.9438084164142778,0.7955314315745011,-0.02782665262536299,-0.30268864980547494,0.8011071268393475,0.08004348133275666,0.2732028386263258,0.49278968098105824,0.5310642179141063,-0.3044954169142427, ],
[ -0.4892907138986621,-0.2443416949013529,0.2632070660213033,-0.9166088409563267,0.30687775636330306,0.015979890954845515,0.3242993396092408,0.10254777446061311,-0.3656020664834189,-0.04539177573311929,-0.24527894836617495,-0.4234380795495638,0.1598179556383514,-0.10555768216481318,-0.7751725295075336,0.11149271364597572,-0.36261740362840617,0.1454574890368666,0.1947879299211402,0.2343061594941087,-0.04463201259467144,-0.21949661482227928,-0.08820182088345907,-0.17370891718870138,0.1579093913212951,-0.19624463698371222,0.1590222349429335,0.25756947441126754,0.3832166357608942,0.31726358027532087,0.3550299408632804,-0.43988116066611294,-0.061633086691155234,0.12843152485500559,-0.2767452745065941,0.1974401676605099,-0.1409259489323979,0.34557131986002065,-0.04843986875795404,0.3712079734069387,-0.12538503551271846,-0.061708892750361996,-0.14196133692482868,0.0063119015054359535,-0.09917778055532014,0.2654007661495877,-0.04650388091450344,-0.41943773505685605,-0.015261612595234243,-0.06356394790456064,0.09430860058832202,-0.08474721333456006,-0.05369826653878579,-0.344281065318092,0.21028196010335817,-0.04745315044875815,-0.307721917561129,0.03941922661041749,-0.8650532909291773,-0.07915318624042975,-0.13093974937640115,-0.4715750225139289,0.09272470202151592,0.48718306139308065,-0.17955320983011996,0.2389037875166158,0.1504439026179924,-0.3287633225371396,-0.4915081720992549,0.35308965436381046,0.14318416808768675,-0.2140660084246812,-0.5389776297540104,-0.20374044008563302,0.29797827554768747,-0.1876513659810312,0.08990234207927594,-0.09178331984690202,-0.5899643841760058,-0.038896659560659345,-0.08516920481567396,-0.0786256009934938,-0.2844843645121334,-0.19328530529037002,-0.5458630417084808,0.13895604060475458,-0.1053483880099708,0.19219137500053482,0.05389702310085709,0.2774410437837306,-0.47958561848107084,-0.22411960718556664,-0.42472231192661497,0.2698475565711988,0.0047509713894415845,-0.24946142069246827,-0.02819197827083358,-0.0464672740610802,0.16863139842882077,-0.29096456295428924,0.27765199089341674,0.3692150609424276,0.17316223849719348,-0.4139588466688672,0.05718394348955013,-0.2361149991925248,-0.19667952553063192,-0.02590460952472194,0.04524420881570221,0.5246439878627258,-0.41978458358528714,0.034403384909371136,0.21490561868326405,-0.35214185756128824,0.1463497108849903,-0.11606362171190328,-0.4873474951806524,-0.32133450707765604,-0.4463806897788092,-0.09693067657143777,-0.5547145161518942,0.02320978062491179,-0.23043150869100323,-0.40550984283823666,0.062176940202805155,-0.05387367301849997,-0.17759152275290985,-0.33501766721197734, ],
[ 0.6728436385619857,-0.662567132851039,-0.299674010280492,0.3595329077299916,0.34262742386196954,0.7776304091496213,1.4500371102647938,0.07367726406065742,-0.7000881000499006,0.7698455737315241,0.05434863413600138,-0.17283323783927546,0.46611090011436807,0.07572351182695429,0.06703253954843064,0.15830642321332294,-0.8922701068753662,-0.48015558252344787,0.3842040274163927,-0.06807552712104416,0.5216366615752668,-0.09362409255532303,0.6733010521431685,0.42320666122162226,0.4860329297003054,-0.2817724663702904,-0.4451633911473892,0.3356262181537273,-0.10800582864692723,1.4499667321890808,0.9032158961146893,0.10899806032522105,0.5398844719920848,0.8060549192631752,-0.8693013054069982,0.4827018273544923,0.6025337741829343,0.8958958205131203,-0.2521613586886893,-0.9790983932238724,-0.0032665013398569085,0.46224617465648454,0.6098210138553268,0.15301829556427757,-0.5125476338940471,0.03957141551208027,-0.4905383752060716,0.3007455866901628,-0.0899681483237574,-0.5402371999727358,-0.3705821449404314,-0.3493213549575792,0.09392618688142551,-0.16237431616918752,0.23193882845349564,-0.6075119798262719,0.758885799620011,0.4450361598758371,-0.27842945621661586,-0.2957216767494536,0.27337000080269147,0.1290452151792939,0.08266563806466026,1.006522927676019,-0.44773459953501377,0.01785207740450051,-0.013469258640401646,-0.3527396278299283,0.19803631086236323,0.9731408657847007,0.6179363191342347,-0.09279437287842848,-0.038142517449037766,0.535332756015157,0.1591532195152551,0.07144778623234233,-0.3050517162119555,0.7742564491421707,-0.8214661872527709,0.5014007583380558,0.3490909949410458,-0.008354950213295144,-0.4606855135343847,0.479645991985545,-0.41758609039460654,-0.13371578131993,-0.11852620436255781,0.440552382702565,0.22774215993248734,-0.35850835504893175,-0.3799150090626067,0.4392655834677507,0.278049075125511,0.007719393302046171,-1.0283342853136126,0.6213555339137637,1.1136162784270007,-1.0348932746499815,0.1024974372905027,0.4391002160092937,-0.4843036969493492,0.11870143129626536,0.5536542002567125,-0.7118317578369673,0.6130564078094517,0.38162178262947827,-0.39884328874084896,0.15760450984392557,0.13950120165353205,0.6391158528739911,-0.021635430678493273,-0.21703606214908666,0.5741946220243903,-0.20551963923942398,0.10570079834476803,1.2789975271473093,0.20235767811458613,0.25358517124619145,0.8147544132063174,0.795966965468621,-0.5536549466498543,0.7179399057199614,-0.40504891612952193,-0.8086732507044662,0.47071248181002606,-0.13146788199135132,0.02239113073979915,-0.88807998339637, ],
[ 0.24819050140593982,-0.14922465648673394,0.8534518688890744,-0.3292138904149804,0.47849702551609846,-0.6582214927084247,-0.07480838360492445,0.14696367684299527,0.206720195953027,-0.4174992400471808,-0.27510189334453194,0.4117776896220571,0.19715017010704175,-0.6723502372422431,-0.8016247159651233,0.1942646317323039,-0.03439088245805768,-0.008101843723395796,-0.05214544177822464,-0.0854657150198954,-0.20994229005020437,-0.3281478151883318,-0.7756291921544652,-0.30884847339017174,0.8035832377045825,-0.34044074889887194,0.2577320738398045,0.14805261843370626,0.35181332003500804,0.08979900053078703,-0.7353796193744937,-0.3192333113183311,-0.5832717299708456,0.17448077990868144,-0.5801166175846889,-0.22109040340530534,-0.5662626081273613,0.6862073218745972,-0.02610807809282497,-0.08599604861756295,-0.05227942917017954,0.7534549922982514,0.19656248520899294,-0.4946904862830857,0.009241094712985898,0.05190840685978403,0.20153993650046859,0.7927356462752487,0.5629070004479594,-0.014475681677591959,0.30588880202108215,-0.39331625052532104,0.444586699869568,1.04200133675138,-0.3358272428955369,0.09180347182916195,-0.04437166527011801,0.11681486307792203,0.23203303593865254,0.13662394573646103,-0.8045645692920301,0.3220011842624073,0.057416121403992444,0.14956674121436342,0.6084261637787417,-0.011385221269330783,0.11611965808454075,-9.420748515541824e-05,-0.5379373748047971,-0.19837322896461332,0.015065509254514081,0.07574977164728172,-0.058930239369236026,-0.010456245314322418,-0.006371094311917829,-0.3141114793286207,-0.39232887396833616,-0.32129406869111177,-0.03437880341203395,0.20346570692541996,0.04907270875567871,0.009472898173986416,0.4198866187457002,-0.06755554704681033,-0.3377454718033526,-0.2814299310230954,-0.25565868923130397,0.23169002222174295,0.7943587845279999,-0.08708107740349146,-0.07441414449426503,-0.35676374628488533,-0.6434724974807114,-0.051474681564838365,0.3080741772032056,-0.06789361746414298,0.06747839798940346,-0.08059170142322247,-0.4375611227181073,0.034350262714632145,-0.20235767811458502,-0.24035651031928892,0.10127036257283784,-0.4124539632339644,0.20539083896278015,-0.22917248616721403,0.1835314324545238,0.13503777114298798,0.20096252296461548,0.3502061558101565,0.89760721543933,-0.40367190850809664,0.2382067944176334,-0.35232195296098506,0.1252959552571675,0.5323240434614674,-0.18796950319615902,-0.5840063584971829,-0.2788668839396529,0.0019485400057348001,-0.4378995550139982,-0.14928676579234468,-0.3228144267719466,-0.07456348974663178,0.022960298518344222,-0.4065690750499242,0.16704540373103488,-0.06070135872357834, ],
[ -0.6371915583202671,0.9289313835333629,0.2362205761766972,-0.05511137881612328,0.46569854231605745,0.241076954513605,-0.02138509913035917,-0.4801858960448518,0.4892317346808206,0.47315078374999436,-0.4024601841001382,-0.22318894732632058,0.2050896951841019,-0.9152678787862485,0.32579015245831383,-0.2524390422156221,0.05460727389325746,-0.6513272296739394,-0.22590277198285963,0.706992265675328,-0.07231013186212809,-0.26926461436782434,-0.32558106869832576,-0.17892479786603843,0.6626369066247556,0.1849955877300375,-0.2339171856417662,0.5294460665754035,0.15841488229871514,-0.04287067868882416,0.32388533396552316,0.16846798678722766,-0.05552489515066532,-0.7394106614876015,0.2517663664136121,-0.4078006541450996,0.1495072789422004,0.8245489430555752,0.099753376478485,-0.44303223206755254,0.968773837326785,-0.2351172519040824,-0.2411462083116074,-0.857783963056013,-0.6083888767620692,-0.45644956544338466,-0.350992031041843,0.572955628908858,0.5582482370068763,-0.372346896766083,1.0443207214144792,-0.25880600488969235,-0.29364139893531455,0.5589705675089346,-0.07364818804077664,-0.3160164575223928,-0.07209648849848407,0.3169139800639959,-0.43023365083750165,-0.2741682402197346,-0.3960342495212911,0.3022409155783405,0.4449765553267383,-0.23606619289318825,0.38437429683182944,0.011395684253765252,-0.3760549639509648,0.14933062394093324,0.008393142138494958,0.28725445108607683,0.46005572387561544,-0.316461710316186,-0.4075127485812668,-0.47734794212091336,0.26246743225459124,0.3389316046695807,0.4008050091862786,0.6182589702001979,0.6464140950209585,0.5060959095404031,0.31677706176868914,-0.6738442998379217,0.4703740207037013,0.09292969583748081,0.5704732237892424,0.26029528148538117,-0.16968290876091963,-0.5760565874392876,0.2279667559354708,0.2635836525335368,0.27344168616618125,-0.011394286221132616,-0.548863558887044,-0.8049748842948433,-0.6100755352238442,0.27858023069704746,-0.030482619941849115,0.1972437833541812,0.628986814903174,-0.3646484342764006,0.8785535543456714,-0.6214280077004916,-0.7010921045292086,-0.08138584255508693,0.4908208091999495,-0.1805841017708271,-0.9377671416288247,0.054909351812612056,-0.01831534823612483,0.20372224505061623,0.16928205434846483,-0.2692429316028626,1.0752635667177561,0.25317934793108726,0.34772598427578194,0.6400456541482714,-0.33566429075458853,-0.07261776132259981,0.022020052491229763,0.11825180887238447,-0.4575639020682186,-0.4333141431589564,0.008461761538382533,0.33774148791680975,-0.35593745547737726,0.5383787037839568,-0.3814461073956953,-0.1554004520444359, ],
[ 0.4994058451103557,-0.22434649046513863,-0.1501204137912537,0.47023392491154187,-0.39439074577564565,0.017027735831819855,0.4841305073278008,-0.045647885374934985,0.21526410358092482,-0.01561926514903933,-0.15359836924837994,0.2653824856837921,-0.13311517652509733,-0.3003895342464454,0.35197146733686696,-0.17929325937010998,-0.08988415849960593,-0.2666090985570652,-0.02309517079200428,-0.19519733511497056,0.04716829425964061,-0.288873131508504,0.16111447914464877,-0.05818793097787405,0.4170236369116034,-0.0495313434188238,-0.6989785029223384,-0.21641886026768115,-0.052529726331124724,-0.08015879787180233,0.444470914964902,-0.2401538110228346,-0.03850858238267545,0.09150997292631666,-0.27405936086700633,0.6553316954426962,-0.07922849501599821,0.2981023732643074,0.19339605028178047,0.20725109598475686,-0.027154596192352096,0.3659908310230511,-0.1599609819160109,-0.06108800538634003,0.10903758706544465,-0.004814497053101941,0.2704035081659958,-0.1638548537493325,0.8441017508809779,0.028740148377962987,-0.15668342491556347,0.17688419427947916,-0.16486084850609264,-0.11903669255887599,0.19181612332917042,-0.17387243917490366,-0.25730987717984477,0.21516788867777664,-0.31776697400754444,-0.021763160116057282,-0.03485676950763361,0.23296274169334785,0.34759274216401526,0.42105392426659183,-0.09458438646923244,0.6752850667188671,0.20107527723391486,0.5262087211481674,-0.47108281992990597,-0.07604451669566906,-0.11925405092169279,0.19786376939662775,-0.20417591460665446,0.45909290910595074,0.024624378941441597,0.2083179340996086,0.14283222245982058,-0.4531653091916452,0.057300046472828714,0.1491203205353371,0.015337794398166033,-0.0874390627631005,0.4503779092944553,0.07659068543163769,0.0999080010455572,-0.2219028399752982,0.2455581090451048,0.3848375768613029,-0.3037582781426946,0.03133644857077557,0.502785348276322,0.18878126213247645,-0.05548820875674647,0.07734545596610944,-0.2991131741682632,-0.24558523641964186,0.42527169149946753,-0.10109935911283396,0.12103343256746389,0.4660444290655729,0.007722622659301206,0.42966514942923284,0.03287263513930042,0.42410021858217317,-0.14103351515403903,0.00846220378119808,0.18428801541101422,-0.3464128653722556,-0.5323033318890575,-0.5204390925128158,0.16256166755031398,-0.3982929224314913,-0.10049654761257264,-0.3006540257691289,-0.02278693064415868,-0.22456071366422367,-0.15306739325255184,0.4420517443354365,-0.23598751771068172,0.30956492545206515,-0.1546497383630377,-0.09378038052156115,0.050212589588023264,0.004331534466308767,-0.051253841253375274,0.3815669287955288,-0.26124862900791057,-0.0555496872131548, ],
[ -0.2820056719193418,0.2702943379256001,-0.23100874371547833,-0.31544430392684236,-0.018217426950945755,0.036866568276276095,-0.0465212805674748,0.02570024583828093,-0.23919280481048838,-0.2030101998125247,0.7106852212870688,0.4099289800951482,-0.08761308445805138,0.22015145374230183,-0.7539678958300328,-0.03373524450936009,0.3717918858370054,-0.1865836727206927,-0.33741810885390694,-0.44697822320327824,-0.4765581038614195,-1.0139592930458512,0.1609273545422264,0.0695055645525158,0.34406509638975025,-0.29453760015200375,0.09232333545265062,-0.016608648710653203,0.04735647215636404,-0.08751875370970587,0.08074613623357087,-0.4301479639465823,-1.0602705550050116,-0.4949555931418254,-0.848938461096805,0.3278583350342146,-1.010657900751055,-0.15032205347117505,0.4062795968278013,0.24744305682580958,0.022830159956858876,-0.19157486313764618,-0.7174225241086306,0.14198212596899945,0.5336117843137007,0.17529038470696323,0.5043868755239691,0.08821249204704243,-0.10975835017530086,-1.153180417417875,-0.34700377144895633,0.555270303939595,-1.0684027665862816,0.324753378825246,-0.03607606523077668,0.07417893154227968,-0.6375558046764617,-0.4593347599160289,-0.34345990429018447,-0.33125772102431955,-0.1948890485910688,0.21422881466660032,-0.07528088982194564,0.22682575375749148,-0.24809105912072724,0.14695063421623708,-0.5075899300192653,0.6096448476928185,-0.47593621500692795,-0.9126195344587823,-0.3542896092367567,0.514025126490875,0.553280560319812,-0.2986578996627701,-0.710716114364413,0.7366083264329318,-0.6148922556116813,-0.2049974526017131,0.47960794470644236,0.563303570774722,-0.17979862420207823,0.11917341219745012,0.04675960942779885,0.14750662353159097,-0.8722671050572339,0.666812316144724,0.25638101045137995,-0.16255693293705223,-0.564686146678838,0.5011864164906334,0.43660640443291315,0.011969910383569059,0.325868543277722,0.21167363725206292,-0.3365876199632905,-0.13477166761499926,0.5717852594276772,0.3095151117777167,0.4328264914055332,0.05803249517357474,0.28531538874369744,0.8326792582417927,0.6332572036113526,-0.2865258743964575,-0.5094084153788552,0.4500928004297609,0.12664618625525217,0.740182453635439,0.9496854514954656,0.5686714151913186,-0.32959949177438247,-0.6090509831927495,0.23352506840220125,0.5817520439730194,1.0241915432773496,-0.637732953213323,-1.0199534672824027,-0.36089350064533005,-0.24854407971307857,0.3502950910397467,-1.1524282639877765,-0.13616201339911257,0.5347690257086253,-0.5320838761597647,-0.2397587780172837,0.6663620155707146,0.046464312196475475,-0.12916603597176674, ],
[ -0.5334842961764996,-0.4253494925989892,-0.11848240219499714,0.27062111851109005,0.05585723093386143,0.09804497587492099,-0.11123940554473842,0.18079396106998744,0.024890023053460306,0.12578916703762907,-0.13532917650571702,-0.39784099364766823,-0.09690458498082685,0.1845928692269341,-0.14617436102120948,0.0356936993861659,0.07857687375892647,0.161196484374179,-0.03820894192914248,-0.12562090891477629,-0.18858209334349255,0.36177223238168144,-0.27982330032414104,-0.46563243886794475,-0.24519856783312025,0.0426592681297981,-0.628936205680855,-0.43815901345946656,-0.02355937794715559,0.1599247829940403,-0.09623096603436075,-0.11452102340390881,0.04644164467503151,-0.10597509358300455,0.10180310298530064,-0.4025188467866425,-0.2226741212800419,0.041922330894315754,0.6211252213725799,-0.12208106103949162,-0.404888728896291,0.0012211497321026193,-0.12390910183337417,-0.10001051093082124,0.13704089627553168,-0.24340724857441345,-0.21408695871761607,0.08577956583335106,-0.34591251881984825,-0.7984028150803352,-0.46577015704301394,0.36698303381799136,-0.20923876320773982,-0.20434571284428774,-0.23271434059786822,-0.10428549060020523,0.12689425716704691,-0.1139256535659259,-0.18592659121301167,0.1494130714570446,-0.13556457113914688,-0.07106639671992517,0.26896237011971075,-0.15868272261654778,-0.08390080401810195,-0.044047284108628446,0.13086563015701871,0.1251678383898809,0.18467288503481272,-0.18677755620452674,0.34098816004107124,-0.2004899509926298,-0.42781096592305956,0.4545670566032737,0.23403451226582986,-0.1964961058171277,0.22624367689819286,-0.09830512793158307,0.32449745599189006,-0.05842433437233406,-0.2792043873907645,-0.4739072819652842,-0.17005696646807394,-0.1441360184570142,-0.27518006413999185,-0.0005592030858884191,0.11748252868491764,-0.06852475388132218,0.14276665109154985,-0.07066325763951982,-0.07586154921198415,0.30484212859747817,-0.1817262388654717,-0.3392455718462284,-0.5071023687287279,0.23129980071536516,0.16147162955698205,-0.4182756384357835,-0.001185729637799,0.10541329696691501,-0.25078162597722387,-0.21074214429344854,0.03133932681303213,0.2258280399947251,0.025203661302503587,-0.17817264330385493,0.04788354044488958,0.1801117380698604,0.2831108998982262,0.012113932076615467,-0.2807223035151138,-0.23753483195588218,0.11839579168689737,0.005847537043998423,-0.21675455926968476,-0.17904845378031803,0.12703404586453707,-0.21515343422404246,-0.27965943517983066,0.40122772298049547,-0.10905699446182152,0.29380349482810114,0.1353907627068032,0.06225509501988946,-0.2518667112870912,0.2715286853717984,-0.017601767812544807,-0.516834633458773, ],
[ 0.08806526695140865,0.04529579509744143,-0.005004282229938535,-0.022224986509426097,0.035908237598115955,-0.21249968350581627,-0.04371227311227572,0.2747143566284842,0.38735615366212217,0.19726170556393405,-0.12350601303920965,0.00948592603588213,-0.10571779614972504,-0.4035889508866622,0.21098643816354568,-0.37324675305371635,-0.010864490809563232,-0.19159050445842,0.21998880880580027,0.03551622190372362,-0.056953695468043686,-0.029119199932668958,0.23914083791270252,-0.2495480506000397,-0.1341205100812809,-0.17912566944271907,-0.03650597777625944,0.2083378625571785,-0.3200941120049918,0.12928265949819628,-0.059753484829893094,-0.12997818517574855,-0.07070765888666047,-0.21220733358787533,-0.12482535652457738,0.3990950989115596,0.015960342659023914,0.10302981669134699,-0.18156945825523627,0.20461865775832352,0.09025375259714045,0.221621038148755,-0.2707730733195526,0.01658051738741542,0.11414235264820033,-0.12284656064311858,-0.18704317496130066,-0.07406272279414275,-0.19650254291992927,-0.0328193424169817,0.45030344962140906,0.00602927904996904,0.038371364064337304,0.4757104524166479,-0.2570100163648752,-0.32953778307486825,0.1262814521721175,-0.3197170725894689,-0.25141751923144195,0.11918176840916982,0.1207739959696919,-0.037871409032618014,-0.7825516482978625,0.2154957449088319,0.06887115773518168,-0.03601002545727545,0.09903537076581603,0.15844440696963488,0.031391236396950656,0.12039060955007788,-0.06607202378053498,-0.16128996106201976,0.1251721588719083,0.10447610103774409,-0.3070244710858948,0.1943500418763449,0.05482875636065591,0.18362875395383044,-0.0807359624169609,-0.36251662162725506,-0.2780613796633699,0.024959007786418613,-0.6709860485988491,0.05454613390518788,0.1469267136354563,-0.5096146971461465,-0.14215534028657037,-0.20539600294763885,-0.17538936318719106,0.3129608805380826,-0.051530834955776594,-0.3579218529061848,0.18381012269124275,0.03250669012971745,-0.03839056931771319,-0.17961119377774107,-0.00395759173319507,-0.06619935720945856,0.04703328943181001,-0.46062297743131153,-0.0431076004731345,0.03397518746913216,-0.0308058476459355,-0.0667931069754384,0.08586345147644242,0.2161381262167902,-0.3503822525404278,0.09425557830279202,0.03429152459669849,-0.17202286789442886,-0.025624435962368068,-0.11827013275957853,0.05863250761145334,-0.42371674982275565,-0.29763765111383034,-0.1583627825468419,0.15693567626862198,0.14444080646026933,0.040125718194078286,-0.008277229123863555,0.25011011786525555,-0.4016027954412047,0.09810775326773866,-0.18455025435411243,-0.1863885379966138,-0.4854764665210175,0.11599427143376115,0.29659960585859185, ],
[ -0.369069473325968,-0.24192870739130848,-0.06725685727925829,0.2363709537951977,0.15852092255369374,-0.06511916043134029,-0.06784039115659249,-0.005015783049477316,-0.12550900309314045,-0.07414129081758769,-0.09604746807438651,0.0802937379950192,-0.22301791735973714,0.3908417713744132,-0.25885798629864065,-0.1301947444852677,-0.09113774922512809,-0.1735880825102484,0.05680711354892656,-0.06406108990592085,-0.055308041684115766,-0.023610815722468287,-0.04520372790453675,0.08430057512513485,-0.06818238918888665,0.2745719305289832,0.17548660999222032,-0.33283667353577384,-0.46214812658762694,-0.5146554914059486,-0.11661122368621031,-0.34781403519508725,-0.27317514265683174,-0.11068085855454413,-0.07441955675223796,-0.027831763195886632,-0.4559707750095519,0.020537231763957026,-0.2719198075778182,0.02879767605863743,-0.2655216803543203,-0.09064481603923559,0.14203815362738337,-0.08468626796176673,-0.08911248713638992,-0.2461347420526504,0.2719334062636717,-0.04195086883142832,-0.2483404693822396,-0.04174669340040657,-0.12431565399400413,-0.2571308758175249,-0.1481043909158025,-0.08371962772487937,-0.07368735900894566,-0.06858304919339803,0.1389617071899794,0.008100100185232675,0.05378102423471403,0.11077298247161971,0.22885864866288383,-0.0462921249893817,-0.0206337920190536,-0.08813866524075148,-0.036391132505351684,-0.177209853073362,-0.07017851241317657,-0.22035037890066667,-0.030240602735000968,0.35184084880307587,-0.38464737610696004,-0.02099048058672451,-0.06741515259181374,0.031339907498436244,-0.14740370643584105,0.07403217167805494,-0.068298446784584,-0.4844493202472689,0.10576558111641046,0.13102934215648976,-0.046709138106279184,-0.3605676132524505,-0.102081094598126,-0.206914016458677,-0.21656693217963985,-0.05975949821748405,-0.08898074023729284,-0.024682361110810666,-0.246545932295596,0.00684371907281804,-0.01726955645762448,0.14441652041555345,-0.012731035776163573,-0.17462863312221927,-0.2168656308285729,-0.07838062764959666,0.22141924113701406,-0.33750507119359957,-0.15274775800043558,-0.21038994392605662,0.2278256487926107,0.06535890692584659,-0.06755382100863835,0.024939481281704055,-0.14691717643616617,-0.17059400151866327,-0.13494253203142972,-0.14294076855779717,0.26170722627380477,-0.14226492304046784,0.06192977692981681,0.13388299232591394,0.006390534580523105,-0.2665373365289413,-0.1260545641976685,0.3120585207726715,0.20705371453057556,0.024752841691507148,0.30046597244233353,0.12419948648937362,-0.10453250605780595,-0.04578483778570214,-0.054637180024788054,-0.08495184795123159,-0.06843687367866871,0.039811649167636014,-0.1735145575943635,-0.19821550445035907, ],
[ -0.05224694852940946,0.0056272543086032835,0.38573432133871544,-0.2461731364149729,-0.3228268902229177,0.12209358740362797,-0.5784386492173512,0.22878776162528305,0.10102493812599696,0.2854171556850812,-0.5363125007858436,-0.07569161342782367,0.31638854487015255,-0.8909467395766134,0.17360342178660118,0.1972290646853973,0.08486798843596344,-0.5282267096988184,0.15299697191667022,0.20609034973900545,-0.2460781284794591,-0.013256352684794581,-0.079732678469172,-0.024447636275566526,-0.07436014619000467,0.07880325686141448,-0.3800329951183592,-0.01959238634960852,0.05296645262297155,0.15656905381609343,0.019523914239338205,-1.0773774406407413,0.42737361753965947,-0.07243700121298692,0.1976473038567962,0.06621877356579799,0.36689562465322223,-0.1289543852543549,0.2826298701707143,0.05002688725939096,-0.4048010733386437,-0.1130774461767377,-0.2323717688247411,0.1392662001946286,-0.005905762145596689,-0.02468236111081086,-0.08418024422139503,-0.12774534987121897,-0.3249819754403836,0.2177035633230761,-0.11728831901892858,-0.1108816781299948,-0.2749722306512511,-0.30923088201014387,-0.10767915553304072,-0.09824355224616153,-0.05861569558504707,0.2941764355313243,-0.22484899822735285,-0.053078825325360374,-0.21100157705707745,-0.05177931794763299,-0.48622584022021464,0.23031876765168457,-0.09374707198122453,-0.05275384671657253,0.2438769773073463,-0.009222149401842938,-0.23636351692667776,0.09574837374484929,-0.13901503322040332,-0.38764982518674235,-0.47913656944302563,-0.43895162992919956,-0.1364370525184509,-0.13341130674813773,-0.10395565753026188,0.11516659735201987,-0.08769138996351122,0.22755660085669882,0.2181006449696609,-0.2113469178650972,-0.14999398252819102,0.15070029133674112,-0.140546395935303,-0.09484434356025247,0.35818819011637315,-0.6849608562685462,0.4332051358428488,0.2446098913136606,-0.09212681834969469,-0.00515783773254609,-0.42383560012850574,-1.2731527571522914,-0.25379496500963244,-0.14493033108669076,-0.08754940599631865,0.21304533847761134,0.36726446572058885,0.4567573262543784,-0.028721178057310875,0.03768299406230681,0.13635170132943053,-0.18845928992148944,0.031004114615684916,0.5282597329113842,-0.03830715929412076,-0.03596567872724947,-0.11640853173899363,-0.02286738531554124,-0.17908181135358914,0.38206685884761327,0.006140472594934901,-0.5967752177209054,0.1195420518913754,-0.1361548757137332,-0.04156322905016391,-0.022334992885235452,0.1198764596805514,0.08683568744546567,-0.03931577895606733,-0.2028287155403632,-0.13601574138648315,0.13680350421156556,-0.19487543471734398,-0.12349246027105079,0.12488981783505079,-0.09030193209230031, ],
])

weights_dense1_b = np.array([ -0.10620120423144892,-0.1121316873194193,-0.20750714097039274,-0.008987491275218348,-0.26234317094696497,-0.14926161218586187,0.06453495989831814,-0.15556803665713478,-0.02027208048043758,-0.03926972629467409,-0.12983784879137403,0.10244204887175763,-0.10773162769603971,0.09892878656082157,0.09594415709940006,0.1634141883663304,-0.263628559271702,-0.1251158355934237,-0.1444152029637648,0.13321098285343386,-0.05141068670908843,-0.2680906929653203,-0.04307034150636481,-0.3467601525834951,-0.11653710941616172,0.001754744486383226,0.13682942342566712,-0.19326050058017155,-0.07792770487240439,-0.00653134346128988,-0.19080376464931714,-0.10472589334003667,0.010828843727844116,-0.4634039121216041,0.1401164330753775,0.172234787787192,0.0005740920979418807,0.1954624308905766,-0.24250581104046623,0.12989965345420312,0.044763477174840624,-0.10196850051456931,-0.24057217692512065,-0.14239865081833206,0.09099983849794427,-0.06402292563359513,0.018878889545917796,-0.31273676341682854,0.07495213623479549,0.10434002124175303,-0.08251735455758283,-0.25247059971545327,-0.09442599271417297,-0.09872063410499854,-0.04525295735928041,-0.14088320339108157,-0.00549665452881077,-0.049796168448623224,0.11921039831957346,-0.2727647679887799,-0.03374270128877014,-0.20449674461005224,0.0033065632832671296,0.005888556710984249,-0.03995396325691901,-0.01667609097211091,0.00966591098667857,0.02372147829737966,-0.055217285880049025,-0.2367229298883779,-0.28868810965153313,-0.18297795166868128,0.0714022336029174,0.0618116905594963,-0.06776491596054987,0.01785873756609977,-0.34108763436301204,0.14851351634512244,0.14241804629051577,-0.09800018624010562,-0.21196533148108265,-0.17882145610804318,-0.26170542655063306,-0.11887801727422063,-0.2814555551585551,0.03907124995184538,0.11681078772925348,0.15887535219552462,-0.026027572651306292,-0.11439824984477097,0.17808868039786657,-0.015652715681258964,-0.1302498980779722,0.008232706837449946,-0.2125989909937728,-0.1548598065243713,-0.01820540134596792,-0.05600152465518948,4.733070874771094e-05,-0.08488415438149671,0.11574392617164123,-0.10168927194611664,-0.20002050648303452,-0.07779787717431563,-0.0836930955218218,0.10966024969921558,-0.02967322150702864,-0.1280236024486617,0.060682924769651855,-0.1307586896370719,0.04950984009821958,-0.19821963369667,-0.2630243334409758,0.14609707690202534,-0.05446609449242905,-0.22422048119835492,-0.08043198906759644,-0.21634592852117457,-0.004536316428829033,-0.20745851099863172,-0.035427873982479006,-0.06726088444341936,-0.058255676850886944,-0.06091277515788625,-0.180711117425615,-0.20453303265469944,0.05447066909424356,0.011268403112080863, ])

weights_dense2_w = np.array([
[ -0.09067191759458186,0.9008671931535365,0.21372991588214424,0.48217749275824107,-0.8164684742582629,-0.29028650156102065,-0.4298936847786879,-0.6086724964309178,0.12290903311349913,0.3406139223283975,-0.3031484917906509,0.228868034052597,0.3020536408278058,0.46896995660491714,-0.2585670208839289,-0.15272778337455445,-0.24611013239739551,0.27303621916217385,-0.7583447421857248,-0.29668650964277354,-0.30804412658601965,0.010663991165420019,-0.002555917313269075,-0.19461773788201417,-0.6376273989583746,-0.06035991155118332,-0.9633246876202454,-0.08509890997995873,0.1438200156953426,-0.2998158092515131,0.0679680695971049,0.2030290834316959,-0.33799651636947003,0.1206321721980204,-0.5571873655075231,1.1226801894537286,-0.021950792246784555,-0.01782535655771926,-0.44295494739914515,-0.021500489175430487,-0.16829571364823953,-0.6015210425563446,-0.3645383303570051,-0.34516975591608273,-0.03812356591220277,0.5140497262790523,-0.15174528998810602,-0.14562572334821738,0.0859980997124186,-0.25893987029626725,-0.44573761397478606,0.3165941694024428,-0.03903442295874577,-0.26992486142559907,-0.014705119372443488,0.3648765345038082,0.5313430676920219,-0.3004910458614655,-0.2338172989285992,-0.17794604998306726,0.028466174280376646,0.39982194351557,-0.43708723316607556,0.01376840406240811, ],
[ 0.12680929206570812,0.1710252297145537,0.09073452330601951,0.09052094476738964,-0.017959733473138038,-0.010554798436002207,-0.5519235500200413,0.07434661495083,-0.21862740718106968,0.07487179206078001,0.031885604965568144,-0.293461075044707,0.43366112397964757,0.5954801229546693,-0.07939491822945306,0.1125653420692788,-0.34481767526659196,0.13452189977626097,-0.5315766588710737,0.09489383015215826,0.39998916627338743,-0.3980062187550778,-0.5634033155320536,0.09100185197076206,-0.39289349773781257,0.34259651281056036,-0.20466908870321374,0.1833990572088559,0.05902355482442436,0.15755872093673778,0.01167648244769269,0.1406709661897665,-0.16965908345310787,-0.4181815826838179,-0.03209293904293391,-0.12384503240869489,0.4454388080462627,0.23490722130661415,-0.09375216041559678,-0.07007603691173014,0.10270485494871395,0.0018724256999706704,0.18891153726894155,-0.128201030713526,0.3254639490568012,-0.09611761337222843,0.29395756211464874,-0.6020401640650508,-0.5606962269625955,-0.42093056259917516,-0.20905772479796295,0.3084418872909529,-0.3567402640693787,0.28242766853784956,0.06395835096203559,0.1189472154675129,-0.018919711570199935,0.33102563753871167,-0.6226943322429516,0.5185760967286797,-0.6048306162140383,0.6109928350118607,0.5781716205785364,-0.944283685633393, ],
[ 0.05784647934621656,0.14291050336826802,0.2955610044366658,0.04691826787782096,0.24576272788728445,-0.4064507701450838,0.0948093090180623,0.06182135046742383,0.29979961201391647,-0.06849263415170154,-0.25591711329411243,-0.6022827937182786,-0.08992776005358386,0.273903806023889,0.24478189742668144,0.02683109907142875,-0.7395004909843645,-0.25336213326271495,-0.06262667228413847,-0.9508950181293278,0.13861635160966582,0.18751368419073144,-0.2859320774905265,-0.45099332430725736,-0.32905623006723284,-0.0160821164964035,-0.478678030736704,-0.04874510876784242,0.003424988957259109,-0.03551514205389166,-0.270992355496811,-0.17466229385223114,0.11110635907844754,-0.11538439135514815,0.20750194638086186,-0.20515592200431484,0.5649810921587322,-0.16315681876526572,-0.2741883816749894,-0.3624954674451482,-0.1452174979500703,-0.028042900866828,0.03957511348500967,0.05449266899487206,-0.8960959447833942,0.04410489102706319,0.03917458373011495,-0.30457699167099245,-0.30894690382039963,0.7453111619268309,-0.45958094955241313,-0.47029282349303614,-0.5437611115622607,-0.3845468040138747,0.4021939008115391,0.0012421844337055126,0.2684880155355509,-0.7418145965040254,-0.38575279876760726,0.6080867178966762,0.3293541278755739,0.5379589386136071,-0.1847585957181085,0.134375196739473, ],
[ -0.2813445903319147,0.23354274804395314,-0.6438897773132399,0.16138235082157587,0.18470898836551994,0.2313680970162899,0.10778008066701449,-0.3696080077676678,-0.5783408122576126,0.6172294561754827,-0.08474968650126041,0.726541983457058,0.23201532264411115,-0.07863334242645885,-0.8427496871874163,-0.15365380907140389,-0.0001006922779015708,0.12272383732025573,-0.4829128081434481,0.2934462585518162,0.679777932122117,-0.6393356855771118,-0.08613152599293575,-0.10708797870991679,-0.10043830489199826,0.2489179017437102,0.8543580679956924,0.46253759463073935,-0.5658824690842624,0.23300930881391338,-0.25610731226175204,-0.027909813520434812,0.23386839100093007,0.22367500181612884,-0.17837823713710013,0.047170649863997736,0.3724337631714907,0.2941073721437005,-0.8372906816344212,0.6736981117152989,-0.2965690873199526,0.4571766738954156,-0.16922866423338273,-0.06977813537219699,-0.4678946229460939,-0.007188123468204705,-0.3230733500164037,0.19718081020133515,-0.12273746533453525,-0.03313449169089844,0.3277811742922153,-0.29217536627728313,0.07713456918312443,-0.2986310120290971,-0.4799254085754997,0.44915172731525277,0.13661342495023238,0.23770613993966522,-0.24682546563314992,0.23359694580804904,-0.4945985291336507,-0.574471180514586,0.3794309421107087,-0.14057936320319633, ],
[ -0.34296125222341733,0.25113435275787344,0.407480405832947,0.6995489214635949,-0.2117366251601198,-0.31965309183122637,0.15657799718183935,0.532450946289314,0.32983414009924267,-0.40948310191036336,0.20759787719162498,-0.1794006987219727,-0.17609805123180217,0.3792291679733357,-0.05843892679236188,0.07985015461586367,-0.3652189381282003,-0.8343834123215426,0.30158465269762813,-0.7599965476291827,0.31160064493162043,-0.5405689579141322,-0.28246549450630165,-0.14427668142557742,-0.374634049676977,0.08569600913817343,0.07651520472621082,-0.06689505130269881,-0.5084257032897285,0.01707776294919358,-0.14735061773494942,-0.022567884365554035,-0.16842529264038705,-0.3917540982635359,0.2975199678309444,0.08273557597613768,0.03640809414002884,0.030539235642214495,-0.15090738730057354,0.409064510552106,-0.12022454512178775,0.20429315339559007,-0.012502218331205198,0.02912322925087593,-0.8365137481202344,-0.3205235024030372,0.23984899658019526,0.10618105310424475,-0.4433020781572442,0.48238670149920826,0.2026859830427845,-0.34522287065185386,-0.06666388980935922,0.08624846599804294,0.20818425142093633,0.6967831351049283,-0.30629692773128625,-0.3971265478353908,-0.04853538259941044,-0.2832992836604176,-0.3977078404866804,0.2167270009981334,-0.6258079346394514,0.08513316636529651, ],
[ 0.05559814353535905,-0.13957637907064716,-0.09004713726334082,-0.2734688149410627,0.08094484925288437,-0.06921346483030642,0.2390460831172968,-0.2621685793812365,0.2745588422756641,-0.05147349112094929,0.06841517183632403,-0.05950852445411692,-0.43084030828972625,0.24539066692849332,-0.1375608880267865,0.14645087642668358,0.05558331685532865,-0.24662025524263964,-0.4129121213759049,-0.34278110998985717,0.017724903269981628,-0.6844301495086293,0.17854838217561636,-0.13883272714705217,-0.15837181297940417,0.5583613379420747,-0.2677396634076326,-0.16208543811196055,0.0016426210778068752,-0.3599978401769754,0.055910786864570544,0.08673464675338735,-0.03474574710538621,-0.36197098074588424,0.2678154831327616,0.09851630624094983,-0.33192085442800423,-0.0770908098379877,0.15797589918479768,0.10549011997699745,0.48994095920641906,-0.5642432094962793,0.502613664874728,0.27405779055198687,0.23104155650105257,-0.42141697697449193,-0.8921521760014467,0.048441050560311213,-0.36711776583412803,-0.6667990651485449,0.04539931548974907,-0.335746042478727,-0.21790825750624238,-0.37000369879511075,-0.5358082548695529,0.40102209202885825,0.06670399963320892,-0.3258678509404754,-0.5214054211509777,0.5021316893751782,0.09029765010844745,0.44201311101759877,-0.2332260630732112,0.12660793948933424, ],
[ -0.0434317456030521,-0.12468989717141339,-0.2289506069090181,-0.4459191818676728,0.047548477872652685,-0.10227654304702657,0.25495588446576106,-0.4188508118902795,-0.7560296320656855,-0.29815554849149417,0.3402753702432635,-0.07146405718525962,-0.30973795537030674,-0.18746373531369454,-0.24259790446494672,0.5454856789314451,0.6500186326775725,0.13570817020733503,-0.3882781003196966,0.16170371922744728,-0.2685056022963588,-0.3890418404263489,-0.28532034184890653,-0.266785221047075,0.019944340951778487,0.5505476195864376,-0.031115568342021768,-0.13958479282768108,0.1730897480867703,-0.06495374891397213,0.3943574715993533,0.05162206843159169,-0.07932855356751738,0.2742764546656132,0.4065502507444187,-0.3413395703523846,-0.08893760767338361,-0.016670402601596634,-0.25446700734710037,-0.3767720503174136,0.01964170251589992,-0.21524060794806463,-0.30753719864589946,0.05547238722507096,0.2606053838729707,-0.8194323449969161,-0.2618668132034849,-0.4204491172215771,-0.190668470586447,-0.4563215393480474,0.04101001103634667,0.005787328733605143,0.42145437495135335,-0.790257218965803,0.08926278668117783,0.20050437775278238,0.30760978507299763,0.3221906480034452,0.16132070343177485,0.40658403063160387,-1.2763962774291602,0.017541202798070386,-0.16744065214050682,-0.30829811904537713, ],
[ 0.42893886773211976,-0.08338858013151157,-0.10870717935300768,-0.3058124863132926,-0.7695268995586391,-0.3916708531115125,0.36653310704319586,-0.35277275607767894,0.0510727538032968,0.7698565654729167,-0.055440783850202714,-0.3747526210472098,0.22993631122794075,0.2826473285632388,0.08238452533340296,0.019399398926147022,0.3566146188501511,-0.06499268126176218,0.08793278805364599,0.05999946019590256,0.23227197558394178,0.29832051147913835,-0.16585324328232987,-0.30724959505028554,0.2667032285475347,-0.2303287644214515,-0.21251771855679313,0.06952384801420694,-0.13121278239458672,-0.5941162132586668,-0.08049896086759786,0.1409198940510227,-0.24220921603971923,-0.7053713662952723,0.4008132218004758,-0.06975257246077031,0.025670343882168902,0.014724870512845184,0.02685607351160553,0.15504699659396243,-0.2523122060881532,0.38879970669799246,0.05731881430243656,-0.3088230565408651,0.20679422556845029,-0.19095658432798196,-0.2845374287134208,-0.32906726950089327,0.2282393136177734,-0.12059679064022952,-0.4683961607333307,-0.1583004539400389,0.1517811654143727,-0.07484900318102965,-0.16513197447980438,0.001694565506837789,0.057970347258684954,0.014852067300106936,-0.3171638071088307,-0.4077739257906845,0.21168968530043236,-0.23989389182204546,-0.3984737470800221,0.13783507983362933, ],
[ 0.4584187105394469,0.016197309501515322,0.07633037858902371,-0.29285966579614003,-0.19593084440367137,-0.23118791876278766,-0.09820851257950812,0.15403479152008168,-0.2484541134517666,0.08071263450013905,0.31035822053867124,-0.042089706503797786,-0.06351581262197568,-0.012679593058957783,-0.17283197542775064,-0.32901333757484674,-0.4379167467884217,-0.06907484328525519,-0.16100183522559186,0.34781371237316916,0.0283967588615412,0.4846664927991852,0.3177801931857641,0.2757851603208319,-0.050703245993690055,-0.28833453772109346,0.05988882689960916,0.2788732812653749,0.254479633080459,0.06743325679138233,-0.45223136539967723,-0.23438356357171922,0.01125244455029327,-0.1823674932025856,0.18362365145862625,0.21379028125667873,0.3417719740859041,-0.014523253057953699,-0.09210476500364453,-0.34820265697744385,0.2368512811426699,0.5596012301662475,0.10538815012568067,-0.09392718949688811,0.3213273428888482,-0.23241690964944017,0.057661037583810464,0.29764236877520084,-0.062345413123826944,-0.41982321447818405,-0.08048516945380625,-0.09788843922625026,0.09948914175872856,0.3051270420539573,0.15443162694751478,-0.07216360686931088,-0.4214280998668295,0.5121612554455218,0.3228036131018437,0.060938779134907875,0.11448586757149926,0.16551594012043186,0.46418188467776417,-0.1474886147064428, ],
[ 0.29189590417410677,-0.5773669153626717,0.1198804035250289,-0.44905534742692793,0.4313302857144846,0.006170763224015687,0.12924803049571487,0.5942999651447685,0.0966428164027639,-0.11051808380994324,0.07464882941928352,-0.02837662700576888,-0.3911553588314633,-0.0756497255315419,-0.11505342355148798,-0.01214084199624551,-0.10030089656206298,0.3491561473812784,0.08021982463177627,0.08712208912908372,-0.19731299757245946,0.17235447321807146,-0.16658836663467821,-0.17275050748609502,-0.019517781654693086,0.21631469235701106,0.1993341096910795,0.022267078594759883,-0.21300570255404086,-0.3566874244229554,0.1194157869655223,-0.19314474181054386,0.13296212916223796,-0.5645801721563853,0.001954437865871282,-0.19717182458171134,0.3499890618802406,0.10156936938908159,0.02831208148592345,-0.24250696076563674,-0.25141142969688657,0.3030035672993632,-0.4654803259128992,0.11935582067261369,-0.23767981713489506,0.08352087155573616,-0.05519099199083044,0.27013294782925645,0.07373793916602527,-0.1047511666373968,0.56910043332122,-0.7185472048728215,0.1686402743035642,0.2693580286871461,0.04679526727486415,-0.047724868226121375,-0.5601985703442921,0.09577756725305248,0.1759974334345634,-0.3781628746949539,-0.08480472093192624,0.027036315762110904,0.038174647574689524,-0.16143253163235236, ],
[ -0.6902674547785891,0.12291512417662491,-0.4845351068309368,-0.029081987417939836,-0.1736517504501214,-0.1490630195885012,0.20772178349528386,0.6568613859202631,0.048783389152253234,-0.10305968064231649,0.22243552644575132,0.03498846440618449,-0.07700538617828759,-0.14781059333414417,0.03776837503099364,-0.10263532906517138,0.04688838420344543,0.05439675720889886,-0.3092641597986282,0.3830131990600803,0.48174730476920574,0.23814816076329978,-1.0110006994934104,0.20030369381669583,-0.03148226229697309,-0.3629825519399029,-0.19508927166717327,-0.41046065959860145,0.4425030470414909,0.08981321519876787,0.0826449164542297,0.08354601641247045,-0.11455680823522961,-0.07566070399128941,-0.35771463922400415,-0.32659712419183085,0.20006825049491309,-0.5288817217904243,-0.4384378051693081,0.09529838928372049,-0.12295015042396548,-0.16870472210440235,-0.13371673266067727,-0.34407664525174986,-0.20769540973487077,0.362413112859277,-0.00976916890220271,-0.22224785230028882,0.17969510574054653,-0.32040164452369424,-0.03920298715952235,-0.007235133584848855,-0.05161273513673617,-0.010328903884836432,-0.2423630536697476,0.013556702220855227,0.251301545082537,0.046540411714041066,-0.6140404320920079,-0.11810007678073649,-0.41947675571088766,-0.16965319065206344,0.24491571418828323,0.12195933603807134, ],
[ 0.47118033730327447,-0.4187373874400592,-1.174539453615893,0.3661435056879504,0.2122171458472534,0.3438795523102601,0.06543250565776206,0.02351248693514583,-0.08878516003645628,0.20528874258175792,-0.04022585993460234,0.31527632382561127,-0.06020925368103125,-0.1139655537057632,0.008977924946698898,0.23221661412298508,-0.16825858819126957,-0.3918474070296585,-0.21579964229208803,-0.38842555835815357,-0.3371452460806082,0.005690810308973768,-0.12271202264885098,0.07229848105716197,-0.46585785777333644,0.12220908152253693,-0.21022797967401305,0.07195284518610023,0.28749850040967706,0.28225745992808204,0.008229786354113075,-0.8258228907967615,0.005230817276220594,0.35957103055785,-0.17858184163529936,0.6892935494984891,-0.16841301365119474,-0.2685090613806808,-0.9825783412947209,0.026689601058498442,-0.6157792785803342,0.11344930751143989,0.03140110913805155,0.39583673790719115,-0.799903901786943,0.10043486972374495,-0.1734205372313308,-0.6644146202532439,-0.5289947346621232,0.07493948300195451,-0.27201727688571603,-0.02393351199512329,-0.3671641187304239,0.44466091883771336,-0.8841666638058242,0.42549433504347384,-0.40285752842005307,0.10893800271286228,0.14984919341601996,0.44720720703320227,0.529454910571764,0.03801933506790896,0.1769131838738817,0.27629629526354993, ],
[ -0.5330452184495021,-0.21430412173486998,0.06390371053977151,0.3609040755112947,-0.039966698324672756,-0.21385874722163467,-0.042519723878596455,0.43558874160387273,-0.8078958002694913,-0.30600216741357533,0.11349157639954861,-0.23453930718587687,-0.3903059103902421,0.036658028952945454,0.39088684914324323,0.06998103074579586,-0.5335608053481343,0.25432999904080844,-0.04247427625283483,0.3801809222491832,0.29903917862054724,-0.21210704882147483,-0.4160626901481856,0.02310631452319087,-0.0616477197776318,0.2570818505247318,0.11347458829731329,0.3283216137343533,0.04796785297420761,-0.36777785147074177,-0.0423949618660067,0.1543257261551053,-0.24223110091492264,0.6332054578051429,0.1718221021101264,0.506395127823779,0.13276306365803436,-0.1159744046197769,-0.588160252414675,-0.4976576169268088,0.04732209101242444,-0.33937136951619234,-0.35628872470062656,0.18386545454950332,-0.17200762044523354,-0.5452636394240309,0.09722414279822693,-0.1440312731295118,-0.04114460245077476,0.3996207789775158,0.29636602398526113,0.205594212988398,-0.2002673897793724,0.18310543000987664,0.10122978998086235,-0.07529683228224676,-0.5828334895065042,-0.7259651038798072,0.13559190320917827,0.04220048956386745,0.197972803576116,0.06505098506503992,0.07178413851043787,0.47891078203683113, ],
[ -0.32565588629989073,0.5477648602846622,0.5259147632124925,-0.36279434557050527,-0.9579652744227739,-0.10837155718402965,-0.10643729919735992,-0.8506679504267375,0.13209218345180973,0.1305377473748478,-0.6863383991121145,-0.2975081329600421,-0.346785823504938,-0.10277861167974166,-0.32015113641727994,0.04873428556563549,0.5893483116281156,-0.5664507708194576,-0.3748180652114016,-0.42401091759934306,0.16035657823559146,0.23424682654946344,-0.22434823310504615,0.28649809032878937,0.4456455029376614,-0.04835124687422824,0.255511424350242,-0.13331250590359203,0.3734167081439092,0.3879011790127267,0.03789974884919313,0.5375460006764378,-0.05734780821313429,0.21119647802488656,-0.033257562338487284,-0.06973748977415312,-0.4335188957550818,-0.014710788043026002,-0.561318774641499,0.3987517048739894,0.3672063907110541,-0.6688212107686482,0.22951355312440772,0.522824989552035,0.19996470616463444,-0.05074875702124119,-0.40049089079367206,0.45888111918323576,0.2819042125112045,0.7237199360143091,0.14013182829210852,-0.6449998024818843,-0.07633037858902406,-0.3087953690978619,-0.5064628156442259,-0.8787378206987753,-0.429841083640258,0.05287932103868818,-0.7481716821169732,0.4321174553498348,-0.9844187934207294,-0.20409550735159365,0.11503036671441406,0.43497508973850996, ],
[ -0.6506796760631535,0.030035643517546992,0.0762216318331442,-0.00221299337789469,-0.007299548701727821,0.1794115402903407,0.01903452002400555,0.6115224226726467,-0.4992815134603826,0.6840024851159535,0.40054899525232013,0.15489818827709118,-0.10110023724289163,0.14204760623403867,-0.01789575289295156,0.022407445609093628,-0.28381931521703674,-0.2706356737713757,-0.6176440315891433,-0.15592813993057145,-0.47626266793507815,-0.1632141115856936,0.060083986067054014,-0.37788770990190834,-0.3766938951685645,0.5863506635838949,-0.14374425160150373,0.5918505792013935,-0.40662933375932886,-0.35230216023444044,-0.11997279403513877,-0.3714570491982269,0.09059801679092924,0.19760573655943026,0.09481840404911113,-0.175694314867697,0.31916535623769815,-0.028587428414234117,-0.3283110481159564,-0.08409544670897194,-0.13292204699949767,-0.4723403504019275,0.20130718137616888,0.4853468868962412,-0.032460859401575295,0.47181515232985466,0.28219541667195686,-0.19950528536328413,-0.023578485399504745,-0.5278950641526207,0.6374662690421388,-0.060523772691643433,0.44728874101406546,0.5932779248699684,0.5904212944349368,0.497015772387935,0.10913969996792704,-0.44713156455646896,0.0818969431275842,-0.17265614444770513,0.5528243853694763,0.2541111698077861,0.5449442401971589,0.015460548019942021, ],
[ -0.07671078590119512,0.12001515007079329,-0.524630244001912,-0.07113016333213706,-0.5480347400136187,0.29540109196214936,-0.06069418641632968,-0.08344886725789875,-0.1621710020686932,0.11162710142700494,0.09918087409019566,0.41355501148177415,0.3332877622023302,-0.45110007875575653,0.5978304702153577,0.13823508732679055,0.2089604886468949,-0.318156686297178,-0.36833054024868905,-0.8987840841675615,0.17290470293746757,0.0830625295780465,0.20599437735490486,-0.24771518017807287,0.14135329136310926,-0.1227672448210908,-0.056979790822702124,-0.11322709874880002,0.27603868394675857,0.22034315546656905,-0.2649685116625337,0.5050008481555793,0.14776683392021286,-0.546345681739377,0.20275981160343662,0.4135307442963491,0.10260027385220868,-0.1571121476166968,-0.2919218348884016,0.37109282550630956,-0.15275799332911563,0.21047413484709757,0.22753723186442415,0.05665792024718007,0.4250978346827118,0.39779041425426054,-0.05366531937661369,-0.36799346459916227,-0.4986870240095991,0.39543825856241166,-0.6512196929422207,-0.791503049968628,0.3705801368943212,-0.23953099997418448,0.06446756815862797,-0.061017903837242315,0.26603401491622414,-0.4538878194745123,-0.0009125363692276435,-0.2850963949337795,-0.3011994038877844,-0.026641898839127473,0.01158762153475424,-0.605878457309816, ],
[ 0.1526077205314764,-0.0024373535831912945,-0.27508518410563226,-0.18618244469227568,-0.04016701641845527,-0.01644649285614811,0.246431063664825,-0.1359943301991459,0.21219068010115982,0.004657051009220611,-0.18709839443541232,0.038685170791365596,0.23553074059386225,0.1940122771745078,-0.44818284130868835,0.034706826638820173,0.07458889893975426,-0.2459436159533897,-0.017436661765620295,-0.2581815669032552,-0.7501638014791097,-0.11172433757807476,0.09850022103271355,-0.0815070169615979,0.09732931167965593,0.29609313160558826,0.06827743452028477,0.0900910617303036,-0.11204424568285395,0.40737843717873007,0.33454842553922237,-0.0990774468158911,-0.12162464600145421,0.1979541496163207,0.09148705396951665,-0.43011232114724085,-0.016870379533862605,-0.4845713488714615,0.6083449567788156,0.34507793936113645,0.04106994474276251,0.2312978685627348,-0.5354195968233539,-0.256573401443087,0.25305400308627846,0.17676382072799343,0.2860264327022423,-0.11532207516762022,-0.3707614440254091,-0.47589762071598296,-0.04707257004961792,0.3221296440420192,0.12308290779083178,-0.12361567362777437,0.2929239980644676,0.07200689576913921,-0.13970129056316397,0.22092053522835747,-0.08562882498194528,0.3075202389110307,0.05584869803528889,-0.44106959874435203,0.08643669187227938,0.24418616324434644, ],
[ 0.10199603193064623,-0.1463404073585739,-0.21669463592805582,0.024563468755538338,0.3521791688683831,-0.4723218625081257,-0.2583564533898535,-0.016593258034327263,-0.054921247875479695,-0.4479944209392644,0.20168519439703456,-0.22652767007689442,0.14215589370693843,0.18955117561022555,-1.0873380848555936,0.029695831783150956,0.31747854770735884,0.3232530882318321,0.3556485440069403,-0.48613720233383073,0.2690586661621855,0.08941631730426586,-0.47197660981191736,0.03675111294565296,-0.23930722640365204,0.07210501278961513,-0.223156181275381,0.017700040927221442,-0.3386107306080089,-0.15895036575711335,0.5722509034455346,0.33243480876262577,0.10931647202141909,0.46342698457043197,0.5194654467511424,-0.5000148334705492,-0.04576142608301521,-0.5235456188852329,0.22228184134332218,0.44130072006067556,0.005518941768389341,0.21286192623083106,-0.3129322879358882,-0.32786876569866247,-0.3454591856779013,0.37718119691392493,-0.18115094944121068,-0.5807915303340604,0.17178287115062774,-0.14141131761714748,-0.32210261444231714,-0.1623502208462251,0.313300197737137,-0.4406487546616845,0.22094556140667537,0.17920793590964074,0.21298963497636295,-0.1595062875342076,-0.34655152219288243,0.3729116929058885,-0.06832853813512865,-0.09637289139753685,-0.03529672283798214,-0.2791380582500893, ],
[ -0.055339185733832175,0.2535243745692098,-0.3713165733760209,-0.3284234843064689,-0.0030669245200493148,-0.10048243002260376,0.06678528573088352,-0.10415931352627317,-0.04145764029539795,-0.30555999346866464,-0.5177186371002458,0.14617124229198242,0.6272237165504319,-0.23147137959425274,-0.14495710072145826,0.2940578330889557,0.18538045639266673,0.013218862637586903,-0.19884792893573638,0.06741127770646911,-0.15141562209259266,0.22128554292779648,-0.3480930385123307,-0.5199652618008074,-0.5172963236861221,0.13156051239611316,0.05157995301045081,0.5395677644962185,0.020905772479795838,0.2694471085927317,0.6155715260217771,0.3041092961685515,-0.11210511185723945,0.015491291874072914,0.1622057605545406,0.1329665942709103,-0.08978693034121954,-0.2635820545761172,0.29478480709968174,0.2695914546032998,0.02788369774643279,-0.016476901374150088,-0.10470311654384296,0.37234077339764565,-0.6292560533199643,-0.17875464291421425,-0.14074898585429285,-0.35301805145740334,0.014169890264918916,0.1645611201815005,0.5324536351193256,-0.23797769305621694,-0.034166696799713035,0.04683040870810115,-0.11600272822510235,-0.1596172649537378,0.22334447546133468,-0.18688788235427045,-0.24386826688060087,-0.5489040617164119,-0.1829752404444275,0.26099197409005453,-0.434711820844974,0.3644950662343043, ],
