import numpy as np

weights_dense1_w = np.array([
[ 0.2613886523649817,0.4731086734426607,0.033870416034472266,0.16647967739912534,0.2284757039215877,-0.0047873379554025375,-0.24367550192999088,0.053259134753853375,-0.02238080494150714,-0.15271608077734233,0.09000195356156826,-0.1930494030516089,0.08581303285059116,-0.08018791075299142,0.2720404793157533,-0.014721064212862789,-0.2884371118130057,-0.11980313233395022,0.07192975277992426,-0.12243616820942066,0.01388328007066817,0.27395541449791233,-0.08150442869072848,0.060081091340302824,0.14062805243995075,0.036623135358829356,0.0027527193243565983,0.43313440151504906,0.4101551793291167,0.1122630750541905,0.008976258666379994,0.11250244195196102,0.14050836899106722,0.09538770876139607,-0.03446883327889855,0.2977724208260406,0.03566566776774997,-0.3375073258558831,0.08042727765076266,-0.07240848657546443,0.04033332227426739,0.22308994872175988,-0.03051927946569185,0.033511365687818435,0.02537289116363256,0.31859734093204134,-0.0609188754824979,0.26785155860477344,0.23661417844577265,-0.2686893427469698,0.24463296952107255,-0.15522943320392868,0.23936689777012865,0.19592180582485091,-0.10759542054767318,-0.14840747661747966,-0.17497720226996416,0.04583876092297984,-0.29849052151935096,0.11537484472520229,-0.06367159480685405,0.23972594811678377,0.11728977990736306,0.04356477539416319,0.31728082299430727,0.487351003859984,-0.15786246907940046,-0.2665350406670386,0.07444310520651094,0.30734709673684585,-0.012686445581816273,0.4239187759508986,0.12506920408489283,0.3258980313140302,0.23948658121901542,-0.15642626769277823,0.14290203796876874,-0.03267358154562197,-0.2121987548732195,-0.10891193848540864,-0.22703950253496707,0.22141438043737022,0.4974044135663284,0.20992476934440252,0.2861631262841902,0.016396632497254576,0.008856575217494507,0.09790106118798286,0.38071305090339036,0.010412460053000866,-0.02513352426586347,0.2624658034049466,0.5313945130496873,0.22727886943273776,0.15235703043068682,0.07492183900205193,0.11705041300959237,0.1345241965468123,0.13799501656448024,0.009814042808575396,0.05625122097598104,0.11142529091199468,-0.06762114862006312,0.4014182875605058,-0.14302172141765235,-0.25372891163633665,0.23278430808145012,-0.06427001205127976,0.07755487487752119,-0.1115449743608815,0.21399400660649587,0.16851429603017196,-0.011848661439621586,0.2732373138046035,0.2373322791390828,0.08521461560616649,0.13667849862674442,0.026450042203599394,0.17557561951439027,0.13775564966670845,0.19771705755812746,-0.10963003917871854,0.11669136266293814,0.09502865841474167,-0.025372891163633143,0.12315426890273137,0.17761023814543614,0.3197941754208924, ],
[ 0.6699879468585895,0.04176952366088553,-0.31668240574988027,-0.15630658424389565,-0.1733016339855721,0.05182293336723178,-0.35474174249533164,0.6265428549133121,0.2721601627646359,-0.8011610068366226,-0.0487111636962217,-0.3618030659795491,0.5978188271808978,-0.006462906239791431,0.5231363550766146,0.348637886602194,-0.20932635209997824,0.3029188091280972,-0.12123933372057079,0.6417426529217148,0.03518693397220897,-0.2980117877238099,0.09622549290359098,-0.342294663811286,0.5403707717160657,-0.21566957489088712,0.32589803131402934,0.4782550617447172,0.16564189325692977,0.11537484472520271,-0.38250830263666796,0.3156052547099171,0.13643913172897223,-0.2813757883287853,0.7220502471235931,-0.4030938558448995,-0.4394776243059572,-0.0003590503466545233,0.5594004400887911,-0.5021917515217307,0.3570157280241473,-0.3491166203977313,-0.35498110939310107,-0.5573658214577455,0.2933441332172928,-0.04524034367855268,0.09885852877906526,0.03793965329656739,-0.2442739191744156,-0.13919185105333132,0.37915716606788363,-0.5233757219743865,-0.2898733131996246,0.3364301748159149,-0.9766169429021269,0.029322444976840844,-0.06391096170462392,-0.522657621281076,0.8681837382122594,-0.008258157973068116,-0.44450432915913046,0.4885478383488318,1.0279611424738184,-0.04930958094064705,0.04452224298524348,-0.34289308105571026,0.04284667470085202,0.15427196561284903,0.14170520347991494,0.24176056674782878,-0.23027095565486436,0.2404440488100957,0.49405327699754714,0.6090690713760929,0.9907395898705641,0.08210284593515499,-0.18969826648282728,-0.021782387697081074,-0.11920471508952357,-0.16791587878574488,0.058525206504796264,-0.3169217726476494,1.011923560323218,0.05421660234493401,-0.22835602047270406,-0.48591480247336194,0.4287061139062993,0.6488039764059349,0.05457565269158831,0.3768831805390681,-0.36922343981042366,0.09993567981902894,-1.0860076151830738,0.5567674042133208,-1.046033343255461,-0.09957662947237401,0.4519247029900031,-0.0011968344888495148,0.8443667318841285,-0.3888515254275745,-0.06319286101131438,0.2066933162245052,-0.30016608980374065,0.029083078079069624,-0.0390168043365322,0.6276200059532769,0.6656793426987293,-0.06319286101131205,-0.9500472172496409,0.4810077810690753,0.24582980400992305,0.6614904219877494,0.34444896589121465,-0.1318911606713397,-0.36048654804181424,-0.1704292312123325,-0.11645199576516783,-0.5019523846239604,0.2556438468184966,0.8961896652513605,-0.6263034880155426,-0.7508939583048936,-0.35246775696651417,0.5986566113230902,0.07683677418421188,0.5461155772625478,0.22500488390392145,-0.7637000873355971, ],
[ 0.046915911962945006,-0.006103855893137312,-0.4780156948469488,-0.19257066925606822,-0.43708395532825645,-0.3309247361672035,-0.29071109734182216,-0.04488129333189934,0.3377466927536528,-0.20501774794011524,-0.04296635814973864,0.07683677418421099,-0.37831938192569037,0.1619317063414932,-0.17761023814543508,0.1859880795673901,-0.1375162827689398,-0.2976527373771566,-0.28520565869310915,-0.01711473319056413,-0.17378036778111344,-0.13584071448454818,0.10699700330324803,-0.3133312691810997,-0.19077541752279353,-0.050985149225036566,-0.08605239974836155,-0.34612453417560757,-0.056370904424865205,-0.01914935182161054,-0.3156052547099158,-0.1978367410070113,-0.04811274645179619,-0.2621067530582919,-0.2947803346039145,0.1046033343255469,-0.14900589386190605,-0.2512155592097511,-0.13225021101799667,-0.2374519625879687,-0.13177147722245655,-0.33762700930476724,-0.48040936382465016,-0.24176056674783056,-0.16827492913240102,-0.2734766807023728,-0.0816241121396143,-0.09466960806808662,0.09203657219261487,-0.06594558033567116,-0.11369927644081135,-0.36132433218401067,-0.12674477236928372,0.10939067228094798,0.05110483267392273,-0.0752808893487055,-0.20848856795778178,-0.17581498641216003,-0.02226112149262268,0.32649644855845655,0.009814042808575424,-0.061038558931383075,-0.22620171839277226,0.10412460053000638,0.14505634004869838,0.12650540547151343,-0.006582589688679322,0.10208998189896032,-0.25923435028505043,-0.06594558033567016,-0.3756863460502176,-0.018311567679414612,-0.07863202591748779,0.11537484472520264,-0.11070719021868486,0.21866166111301336,-0.0026330358754709402,-0.16432537531919333,0.13416514620015774,0.15594753389723912,-0.0882067018282928,-0.1727032167411485,-0.030638962914576608,-0.22955285496155445,-0.016995049741678456,0.043325408496393464,0.0392561712343009,-0.021183970452656267,-0.04236794090531365,-0.2993283056615468,5.533767888366015e-16,-0.06032045823807163,-0.15343418147065196,-0.26509883928041866,-0.24977935782313004,0.09814042808575393,-0.08940353631714344,-0.12183775096499685,-0.07001481759776279,-0.21375463970872563,-0.0031117696710112955,0.06211570997134805,-0.2701255441335906,-0.45240343678554473,-0.022380804941507147,0.2179435604197026,0.1409871027866057,0.1517586131862624,0.11812756404955974,-0.2398456315656701,-0.03853807054099111,-0.07013450104664799,-0.24487233641884268,0.08976258666379891,-0.30591089535022564,-0.16001677115933055,-0.0016755682843907329,-0.20549648173565624,-0.052301667162772944,-0.09167752184595916,-0.18275662644749396,-0.09227593909038459,-0.13129274342691533,-0.3047140608613744,-0.12004249923172,-0.31009981606120285,-0.12423141994269675,-0.004308604159862381, ],
[ 0.0168753662927944,-0.631449876317602,-0.4461798974435208,-0.8721332920254674,-0.27563098278230325,0.8441273649863602,0.15271608077734156,0.833116487688935,0.19903357549586143,0.3604865480418131,-0.024654790470324737,0.052660717509427184,0.20908698520220853,-0.36922343981042327,-0.26294453720048744,-0.15702468493720412,-0.2463085378054634,0.4982421977085235,0.3883727916320343,-0.2531304943919112,0.2697664937869362,-0.6898553993735113,0.2537289116363363,0.4588663430253374,0.3005251401503979,0.03793965329656446,-0.9215625564149975,0.12710382271593845,0.5684963822040567,0.5468336779558605,-0.4108732800224282,0.046676545065176024,-0.7015843773642486,0.26629567376926916,0.08234221283292555,-0.3543826921486777,-0.2252442508016917,-0.2921472987284424,0.4952501114863975,-0.31033918295897334,-0.16683872774578112,-0.2818545221243258,0.03470820017666978,0.47981094658022305,-0.6040423665229209,0.39615221580956417,0.8808701837940767,0.24571012056103886,0.13440451309792698,-1.0967791255827322,-0.7742322308374833,0.2315874735925993,0.14326108831542406,-0.06331254446019988,-0.5170324991834799,-0.2886764787107747,-0.774232230837482,0.12997622548918122,-0.24367550192999,0.5092530750059501,0.4674835513450613,-0.6422213867172557,-0.36742818807714733,0.1047230177744298,-0.5523391166045728,0.05984172444253069,0.15163892973737636,-0.6595754868055921,-0.2269198190860826,0.14553507384423903,-0.7164251250259963,0.8041530930587484,-0.07181006933103849,0.25839656614285555,-0.5091333915570635,0.3853807054099074,0.1770118209010116,-0.09179720529484452,-0.39268139579189704,0.23326304187699068,0.21160033762879515,-0.3704202742992754,-0.21471210729980578,-0.25708004820511865,-0.19927294239363255,-0.27311763035571834,-0.6450937894904991,0.3555795266375271,-0.6438969550016468,0.25372891163633665,-1.15578306588307,-0.30244007533255873,0.07109196863772735,0.29310476631952265,-0.11681104611182246,-0.45802855888314176,-0.36742818807714894,0.053618185100508725,-0.5002768163395709,0.09634517635247598,0.4798109465802235,0.5694538497951368,-0.0013165179377348027,-0.33619080791814693,-0.33535302377595116,-0.7833281729527488,0.4607812782075,0.40788119380030047,-0.9776940939420937,0.4887872052466045,0.13260926136465198,-0.2972936870304999,-0.7200156284925495,-0.18048264091867733,-0.18419282783411586,0.12518888753377866,0.38609880610321906,0.8473588181062564,-0.46389304787851104,0.43684458843048535,-0.3032778594747532,0.26258548685383126,-0.14409887245761877,-0.33666954171368657,0.008377841421954423,-0.684230277275916,-0.8819473348340399,0.3939979137296322, ],
[ 0.37065964119704514,0.7111590532750534,0.13859343380890443,1.1140135422221813,-0.3571354114730322,0.03841838709210606,0.03542630086997972,1.0277217755760493,0.4069237262092203,-0.5230166716277318,-0.04332540849639253,0.8365873077066007,0.14984367800410087,0.7324627071765925,1.5925079708646688,-0.5258890744009724,0.1433807717643071,0.4193708048932661,0.701823744262018,-0.48699195351332636,0.7806951370772744,-0.8894873921138003,0.61086432310937,0.08533429905505088,0.5464746276092046,0.8690215223544522,0.4324163008217379,0.6265428549133126,0.7196565781458922,-0.616848495553622,-0.5097318088014878,-0.556168986968896,0.9745823242710803,0.7289918871589269,0.3056715284524535,0.0872492342372133,0.20872793485555197,-0.9456189296408941,0.356536994228607,-0.4823242990068111,-0.6722619323874078,-1.0098889416921752,-0.21662704248196757,0.6856664786625342,-0.832637753893395,-0.5678979649596323,0.20549648173565424,-1.3849768704979677,-0.9061233915088237,0.008138474524184498,-0.1682749291324015,-0.2975330539282705,-1.0991727945604337,-0.13260926136465143,-0.3734123605214012,0.4096764455335737,0.4807684141713045,-1.1103033553067445,-0.005744805546483225,-0.7534073107314817,-0.45623330714986626,-0.616489445206967,-0.524093822667697,0.25839656614285583,0.6916506511067881,0.8260551642047167,-0.025013840816977877,-0.32087132646085736,1.3185525563667548,0.26354295444491205,0.8323983869956242,-0.4890265721443736,-0.9878671870973216,-0.39447664752517164,0.9664438497468957,-0.002513352426586305,0.17437878502553877,0.021782387697081528,-0.6736981337740283,-0.3372679589581109,-0.3743698281124827,0.14290203796876655,0.5340275489251597,-1.0842123634497982,0.29118983113736213,-0.11764883025401766,-0.016635999395022843,0.18886048234063152,0.515117564001316,0.4650898823673609,-0.8560957098748659,-0.33690890861145656,-0.46856070238502756,0.34863788660219247,-0.39292076268966947,1.1191599305242381,-1.5302725774444321,-0.5214607867922277,0.27838370210666036,-0.045719077474094316,0.5138010460635809,-1.116048160853225,-0.6194815314290943,0.02238080494150659,0.5886032016167466,-0.3456458003800658,-0.95710854073386,-0.28807806146635073,-0.6409048687795201,-1.0624299757527174,0.5264874916453979,0.8485556525951078,-0.07599899004201537,-0.09299403978369573,0.28448755799979886,0.3458851672778359,0.2831710400620622,-0.3669494542816076,0.11286149229861553,0.770761410819815,0.5372590020450552,0.3735320439702864,-0.12925812479587107,1.1829512087799765,0.5598791738843312,-0.195802122375965,0.662208522681061,-0.45754982508760367, ],
[ 0.36754787152603513,0.21973881215297728,-0.9447811454986998,0.034588516727784215,-0.7013450104664783,0.01867061802606987,0.9981599637014384,0.18060232436756204,-1.2996425714429165,-0.42104637317765536,-0.5421660234493424,-0.7615457852556671,-1.054650551575189,0.20094851067802283,-0.5805844105414478,-0.46963785342499365,-0.5096121253526037,-0.26665472411592306,-0.16217107323926197,-0.3521087066198594,-0.4719118389538098,0.1610939221992971,0.012566762132931394,-0.5644271449419646,-0.19257066925607022,-0.6276200059532782,-0.3390632106913888,-0.24379518537887673,0.19065573407390707,0.8200709917604622,0.30232039188367327,0.21662704248196704,0.1462531745375489,1.0109660927321393,0.41805428695553065,0.09802074463686873,0.13883280070667503,-0.5313945130496869,-0.16863397947905667,0.20980508589551947,-0.20370123000237864,0.05684963822040642,-0.02082492010600078,0.18395346093634424,0.3816705184944713,0.7011056435687083,0.6661580764942687,-0.3318822037582838,0.6254657038733477,-1.147524907909998,0.5599988573332175,0.23793069638350983,0.15905930356825215,0.18024327402090867,-0.69524115457334,0.6920097014534432,0.9757791587599309,1.3641519503919668,-1.1174843622398485,0.513920729512468,-0.574839604994964,1.2353725593916365,0.5385755199827905,-1.1158087939554582,-1.75156727443292,-0.6442560053483021,-0.11369927644080985,-0.10603953571216639,-0.03973490502984166,0.19316908650049291,1.3032330749094674,-1.264216270572936,-1.0435199908288773,0.566581447021896,0.0031117696710099506,-0.8222252938403936,-0.10029473016568209,0.20082882722913784,-1.110782089102283,-0.9147405998285493,0.8523855229594309,-0.19544307202931033,-0.16109392219929713,0.40871897794249573,0.6259444376688881,-0.6423410701661415,0.4733480403404297,0.3765241301924128,0.42403845939978313,-0.619002797633554,0.13356672895573252,-0.08114537834407372,-0.5725656194661483,-0.16145297254595198,-0.5538950014400787,0.7657347059666434,-0.19963199274028717,0.010651826950769895,0.8253370635114046,-0.1857487126696194,0.18610776301627535,0.3936388633829789,1.5587572382790806,0.578908842257058,0.7388059299675036,0.8823063851806966,0.560118540782103,0.36216211632620476,-0.04595844437186563,0.42966358149738143,-1.1493201596432747,0.19089510097167747,-0.28364977385760387,-0.5601185407821025,-1.409392294070521,0.21411369005538064,-0.49608789562859174,-1.111619873244478,0.18778333130066682,0.31045886640785697,-0.8361085739110605,-0.9681194180312873,0.751851425895976,0.9927742085016112,0.19891389204697654,0.4071630931069905,0.5809434608881026,0.8824260686295821, ],
[ -0.0013165179377356991,-0.7873974102148387,0.8787158817141432,-0.4963272625263629,0.4190117545466108,-0.07946981005968126,-1.1652380583449868,-0.11405832678746639,-0.5414479227560313,0.7511333252026646,0.025253207714749704,-0.9490897496585607,0.4281076966618756,-0.10819383779210048,-0.25779814889843,-0.10974972262760421,-0.45300185402996895,0.11776851370290421,0.10400491708112101,-0.2938228670128325,-0.19053605062502332,0.5997337623630578,-0.5084152908637535,0.14649254143532006,-0.9385576061566752,1.0627890260993722,1.2535644436221651,0.07468247210428065,0.1977170575581266,-0.2379306963835077,-0.6071541361939303,-0.44665863123906063,0.4757417093181299,-0.346842634868917,-0.7500561741626978,0.5824993457236077,-0.2162679921353119,0.3770028639879544,-1.3239383115665821,0.4948910611397416,0.8236614952270149,-0.25743909855177405,0.8784765148163726,-0.22440646665949615,0.9133043984419262,0.5392936206760995,0.14637285798643312,0.3937585468318629,-0.4370839553282549,-0.29358350011506407,0.4845982845356263,0.012327395235161276,0.4908218238776482,-0.1115449743608777,0.34205529691351366,0.38717595714318265,-0.7796179860373105,-0.3437308651979058,0.41745586971110477,1.038972019771244,0.031716113954542074,0.8144458696628633,-0.3251799306207192,-0.7681283749443427,-0.16612062705247044,-0.8869740396872139,0.323025628540789,0.7404814982518924,-1.0229344376206455,-0.08796733493052071,-1.8007571719246789,-0.9319750164679973,0.21471210729980628,-0.25013840816978344,0.2352976605080359,-1.0228147541717607,0.27263889656017465,-0.19364782029603417,-0.22668045218831154,0.627859372851048,0.3031581760258682,0.44211066018142686,-0.9556723393472388,-0.0961058094547064,-1.213350804796784,0.19903357549586256,-0.32517993062071954,-0.08246189628180892,0.00011968344888642259,-0.2588752999383946,-0.23649449499688832,0.42284162491093324,0.412070114511275,0.44546179675021014,-0.1265054054715139,-0.7978098702678403,0.09191688874373169,0.14900589386190566,-0.06115824238026725,-0.020106819412690765,-0.037939653296565574,0.7374894120297674,1.1391470664880434,-0.15427196561284753,-0.14302172141765213,0.2972936870305009,0.5122451612280755,-0.2885567952618896,0.2860434428353041,0.3537842749042522,0.40046081996942484,-0.036383768461059306,0.2476250557432003,-0.5070987729260181,0.729111570607813,-0.0721691196776933,-0.03267358154562323,0.21279717211764465,0.23996531501455495,-0.46126001200303585,-0.36647072048606927,0.07192975277992383,-0.1044836508766614,-0.588124467821207,0.1523570304306879,0.10723637020101828,0.6416229694728298,0.5293598944186402, ],
[ -0.8136080855206672,1.1501579437854696,-0.3950750647695966,-0.1967595899670453,-0.851308371919464,0.4562333071498646,-1.0313122790426004,0.47382677413597085,1.934802634675952,0.9480125986185964,0.21770419352193177,-0.07611867349090183,-0.0429663581497387,-0.27204047931575137,0.00023936689777061173,0.05637090442486481,0.48160619831350004,-1.5793427914873113,0.09227593909038602,0.23086937289928905,-0.06606526378455496,0.0648684292957052,0.23625512809911767,0.12578730477820282,0.03793965329656513,1.1557830658830681,-0.40776151035141445,-0.23912753087235916,0.42379909250201286,-0.9587841090182524,-1.1621262886739772,-0.05780710581148704,0.290471730444053,-0.25121555920975025,0.129856542040295,-1.0297563942070949,0.5017130177261914,0.4393579408570719,1.1860629784509897,-1.0872044496719262,0.5195458516100646,-0.3500740879888133,0.17138669880341428,-0.6942836869822593,-0.6331254446019914,-0.06594558033567166,-0.713313355354985,2.0526908318277406,0.2042996472468039,0.20429964724680605,-0.49453201079308723,-0.7706417273709305,0.20621458242896723,-0.08198316248626866,-0.23493861016138104,-0.8091797979119206,-0.5486289296891352,-0.9909789567683338,1.2536841270710504,0.5750789718927355,-0.2977724208260404,-1.547028260288344,-0.5118861108814207,0.7924241150680119,0.09550739221028232,-0.1327289448135366,0.12231648476053648,1.5950213232912567,-0.4264321283774842,-0.5257693909520889,-1.6373892641965677,1.0843320468986843,0.3024400753325574,-0.30016608980374193,0.4193708048932659,0.9881065539950923,-0.7706417273709288,1.579821525282851,1.1417801023635152,0.8115734668896226,-1.267447723692833,-0.25887529993839475,-1.1197583477686641,0.1227952185560759,-0.8824260686295813,-0.11070719021868541,-0.15618690079500921,-0.06869829966002726,0.24307708468556702,-0.04105142296757758,0.46485051546959155,1.292581247958697,0.39256171234301157,-0.17952517332759685,-0.06091887548249868,-1.5658185617632991,-0.22584266804611705,0.6178059631447015,0.14577444074200852,0.48352113349566145,0.22057659629517315,-1.4899392551701685,-1.819786840297407,-0.10532143501885613,-0.6538306812591063,0.08904448597048789,-1.386413071884588,0.854180774692704,0.13021559238694874,-0.8764418961853289,0.30315817602586953,-0.4297832649462667,-0.14816810971971078,0.4370839553282556,-0.12590698822708749,-0.8118128337873918,0.49249739216204136,0.6764508530983854,0.5164340819390533,0.6139760927803818,0.3281720168428479,0.20154692792244835,0.3221878443985933,-0.18084169126533187,-0.1996319927402884,-0.016396632497252973,-1.2096406178813472,0.40153797100939137, ],
[ 0.21961912870409406,-0.008856575217495027,-0.2606705516716691,-0.326017714762915,-0.5458762103647786,0.2232096321706446,0.16588126015469928,0.39208297854747076,0.3273342327006518,0.40895834484026605,0.7043370966886043,-0.2938228670128334,-0.5797466263992525,-0.04595844437186597,-0.2406834157078649,-0.4170968193644504,0.49513042803751245,0.3529464907620553,-0.007420373830873502,-0.08772796803275258,-0.6389899335973597,-0.001795251733274935,-0.2263214018416577,0.5683766987551714,-0.11717009645847895,-0.21782387697081687,0.008736891768609673,0.021423337350426376,-0.24008499846344006,0.13069432618248997,-0.1335667289557315,-0.4676032347939478,-0.2621067530582908,-0.28388914075537236,-0.07492183900205082,0.4199692221376919,-0.27287826345794663,-0.2947803346039132,0.5398920379205249,0.7695645763309654,0.30686836294130576,-0.044881293331898386,0.13081400963137732,0.6231917183445312,0.2315874735925991,-0.2598327675294754,-0.15032241179964104,0.038059336745450756,-0.24259835089002663,0.11298117574750172,0.35162997282431974,0.514758513654664,0.3189563912786978,1.8967432979305028,-0.12530857098266238,0.2339811425703005,-0.6467693577748883,-0.32900980098504207,-0.4063253089647934,0.19891389204697763,0.480529047273533,-0.08006822730410797,0.016157265599483217,-0.11441737713412282,-0.32254689474524856,0.1668387277457805,1.2333379407605911,0.031237380159003427,0.12435110339158244,-0.22308994872176122,-0.6073935030917021,0.16827492913239997,0.21662704248196685,0.26126896891609547,-0.5039870032550071,-0.07145101898438454,-0.29633621943941874,-0.33343808859379015,0.16695841119466495,-0.2847269248975684,-0.18730459750512604,0.060200774789188276,0.03578535121663411,-0.05397723544716409,-0.4540790050699344,0.24702663849877307,0.13979026829775504,0.22955285496155273,1.1531500300075967,-0.2612689689160964,-0.32649644855845505,-0.1541522821639635,-0.4521640698877727,0.37221552603255037,0.1914935182161033,-0.6090690713760935,0.08724923423721175,-0.1899376333805982,0.47837474519360196,0.6430591708594529,-0.2682106089514304,0.7451491527584111,-0.27311763035571673,-0.11597326196962725,0.0730069038198897,0.603683316176265,0.0979010611879826,0.1959218058248498,0.03255389809673748,0.014601380763977073,0.16516315946138954,-0.15846088632382554,-0.026210675305829503,-0.008856575217495753,-0.31261316848778875,-0.1335667289557318,0.39004835991642617,0.24834315643650942,0.48447860108674096,0.6590967530100488,-0.43696427187936837,0.14721064212862994,0.00718100693310323,0.35510079284198676,0.10244903224561447,0.4129078986534724,-0.18120074161198688,0.8321590200978539, ],
[ -0.20705236657116194,-0.8814686010384997,0.11836693094733178,0.315006837465491,-0.6067950858472757,0.04188920710977173,0.21207907142433313,-0.1326092613646514,0.5310354627030311,-0.47981094658022283,1.2401598973470391,0.8429305304975103,-0.42667149527525505,-1.0974972262760434,-0.7839265901971727,0.8053499275475994,-0.11334022609415549,0.9353261530367818,-0.561674425617608,-0.4636536809807398,-1.0553686522684995,-0.08485556525950952,0.35522047629087095,0.15295544767511282,0.09359245702811887,-0.5406101386138346,-0.7220502471235928,-0.08904448597048803,-0.01017309315523049,-0.2710830117246733,0.4828030328023518,-0.05337881820273891,-0.69524115457334,-0.06558652998901525,1.0033063520034977,-0.4205676393821175,0.26414137168933793,-0.33930257758915855,0.13476356344458076,-0.19125415131833187,0.07791392522417802,-0.6447347391438446,-0.9043281397755474,-0.6618494723344066,0.5900394030033682,0.31440842022106463,-0.927546728859251,0.2291938046148972,0.7599899004201588,-0.2785033855555438,0.010412460053001268,-0.41972985523992057,-1.119638664319779,0.38897120887645853,-0.26342327099602614,-0.5755577056882758,-0.013284862826241601,-0.18084169126533275,-0.09335309013034931,-0.27646876692449845,0.7136724057016396,-0.2915488814840173,-0.6029652154829557,-0.07623835693978856,0.06570621343789985,-0.29202761527955823,0.41386536624455345,-1.5976543591667256,0.46987722032276424,0.4842392341889707,0.37209584258366574,-0.14768937592417078,0.3316428368605133,0.3551007928419849,-0.8151639703561757,-0.842332113253086,-0.7117574705194792,-0.6010502803007953,0.31404936987440923,-0.49177929146873106,0.028125610487990196,-0.18012359057202082,0.4725102561982358,0.38035400055673474,0.5765151732793574,0.027527193243564955,1.2321411062717413,-0.16827492913240208,0.4918989749176139,-0.16025613805710165,-0.5097318088014889,-0.08724923423721237,-0.5749592884438492,0.3511512390287799,-0.2641413716893374,-0.0027527193243568416,0.7397633975585834,0.9131847149930435,-0.2798199034932815,-0.08270126317957922,-0.05278040095831299,0.5780710581148615,-0.22344899906841567,1.7001033914123442,-0.1768921374521254,0.07899107626414256,0.6470087246726591,0.380832734352274,0.19436592098934505,0.453001854029969,-0.6713044647963281,0.2640216882404533,0.8560957098748667,-0.3717367922370119,0.1321305275691117,-0.7323430237277121,-0.6070344527450476,-0.40201670480493157,-0.1237526861471568,0.26940744344027856,-0.3315231534116273,0.24223930054336967,0.8796733493052246,0.19316908650049622,0.44474369605689884,0.09897821222794942,-1.0625496592016028,0.41925112144438204, ],
[ 0.2965755863371898,-0.4944123273442023,0.39734905029841366,0.056610271322635096,0.037101869154369124,-0.05373786854939462,0.12111965027168528,0.41937080489326656,0.21375463970872546,0.3554598431886418,-0.017234416639449482,-0.23876848052570399,-0.008976258666379642,0.2969346366838463,0.21447274040203546,0.4804093638246491,-0.32338467888744465,0.3497150376421586,0.5398920379205264,0.4410335091414635,0.057328372015946316,-0.03387041603447333,-0.35079218868212403,0.09981599637014338,-0.3438505486467904,0.14613349108866291,0.24331645158333612,0.3833460867788616,0.7620245190512059,-0.2186616611130129,-0.2612689689160966,0.11286149229861624,-0.06929671690445265,-0.06809988241560211,0.011130560746311266,-0.4774172776025231,-0.18993763338059758,-0.3871759571431847,-0.3542630086997901,0.20441933069569057,0.384782288165482,0.226800135637198,-0.07923044316191336,0.24523138676549722,-0.28592375938641845,0.2592343502850501,-0.15283576422622724,-0.32075164301197273,-0.3056715284524556,-0.08521461560616608,0.5416872896538019,-0.08689018389055707,0.00586448899536844,0.11932439853840883,0.029202761527955704,0.06786051551783188,0.5120057943303066,-0.0494292643895317,-0.1686339794790564,0.7944587336990586,0.28149547177767253,-0.7569978141980337,-0.21136097073102425,-0.21028381969105803,0.5104499094948004,0.15570816699946852,0.30603057879910966,-0.021782387697082056,-0.019747769066035818,0.4772975941536378,0.23146779014371485,0.6923687518001002,0.02824529393687491,-0.31428873677217994,0.11669136266293784,-0.02465479047032238,0.3651542025483317,-0.11836693094732895,-0.22261121492622044,-0.13105337652914603,0.05625122097598013,0.6279790562999338,-0.22129469698848558,-0.6012896471985643,-0.1535538649195386,0.11525516127631642,-0.06020077478918717,0.27072396137801624,0.2288347542682435,0.49824219770852435,0.20058946033136835,0.43552807049275,0.30088419049705245,0.5854914319457358,-0.26557757307595836,0.3194351250742371,0.21949944525520884,-0.3060305787991098,0.14816810971970987,0.5297189447652956,-0.21267748866876018,-0.16839461258128602,-0.6592164364589361,-0.12435110339158224,-0.13201084412022612,0.05900394030033686,0.22117501353959929,0.14996336145298617,-0.22919380461489902,-0.1175291468051333,0.4162590352222546,0.1810810581631025,-0.1250692040848931,-0.05146388302057749,0.420687322831002,0.316083988505455,0.08988227011268303,-0.39926398548057646,0.37568634605021745,0.15870025322159623,-0.46760323479394783,0.36204243287731963,0.49501074458862737,0.5503044979735268,0.08509493215728037,-0.15439164906173353,-0.05625122097598052,-0.03470820017666895, ],
[ 0.9708721373556425,-0.4592253933719931,-0.2087279348555522,-0.8140868193162102,-0.24092278260563565,0.31069823330562657,0.4314588332306561,-0.06798019896671605,-0.16181202289260724,-0.4362461711860606,-0.04954894783841648,0.2562422640629236,0.11034813987202846,-0.615651661064772,-0.350552821784354,0.5767545401771247,0.08078632799741887,-0.46664576720286555,0.9252727433304336,0.1784480222876304,-0.8192332076182671,-0.16408600842142299,0.20777046726447165,-0.018072200781645332,-1.077629773761121,-0.015558848355058637,-0.7528088934870564,0.2722798462135219,0.7230077147146744,-0.2898733131996272,1.0157534306875415,-0.8021184744277026,-0.02262017183927707,1.0389720197712446,0.27610971657784517,-1.1180827794842725,0.3041156436169494,-0.19520370513154192,-1.1707434969937007,-0.06474874584681968,0.702182794608674,-0.5206230026500313,0.18526997887407995,0.17007018086567657,-2.0605899394541547,-0.14613349108866336,0.01890998492384055,-0.7542450948736763,0.020226502861575752,-0.7177416429637316,0.13320767860907703,0.7939799999035181,-1.1423785196079395,-0.044163192638587624,-0.9405922247877224,-1.1441737713412166,0.44510274640355413,-0.1584608863238252,0.5724459360172632,0.7465853541450326,-0.7712401446153554,-0.8473588181062562,-0.5547327855822752,-0.27670813382227133,0.41889207109772597,0.7250423333457208,0.20932635209997857,0.8410155953153476,0.5565280373155508,0.23398114257030084,0.6437772715527612,-0.8654310188879021,0.7754290653263317,0.3336774554915595,0.582978079519149,-0.21507115764646187,0.3424143472601702,-0.10053409706345552,-0.009694359359690482,0.1786873891854004,-0.18886048234063166,0.20011072653582743,0.20789015071335662,-0.6701076303074767,0.27036491103136145,1.075236104783418,-0.20633426587785106,-0.3533055411087105,-0.8046318268542875,0.5043460536016614,0.361803065979549,0.49369422665088974,0.018311567679414595,0.6468890412237741,-0.9177326860506733,0.22141438043736897,0.789791079192539,0.3230256285407899,0.7192975277992377,0.579866309848136,-0.45527583955878437,-0.3535449080064807,-0.6972757732043867,-0.03267358154562098,-1.272474428546005,0.32577834786514465,0.7477821886338836,0.4265518118263693,-0.377361914334609,-0.2804183207377071,-0.6491630267525894,0.9992371147414039,0.38609880610321734,-0.09598612600582276,0.20645394932673497,-0.687581413844697,0.3093817153678928,0.5510225986668363,0.3410978293224332,-0.6714241482452123,0.6654399758009596,0.8239008621247833,0.46975753687387817,-0.08784765148163584,0.5682570153062856,-0.03758060294991038,-0.20250439551352978,-0.5279236930320176, ],
[ -0.3359514410203759,-0.5109286432903407,0.05194261681611862,-0.48699195351332814,0.29238666562621335,0.08018791075299159,0.22991190530820976,-0.23948658121901456,-0.06726209827340554,-0.2880780614663524,-0.01029277660411595,-0.3257783478651429,0.2532501778407959,0.13847375036001755,-0.289992996648513,-0.8015200571832766,-0.10951035572983411,-0.08629176664613217,0.17126701535452693,-0.007540057279759362,0.1890998492384009,-0.19316908650049455,0.3363104913670308,0.16767651188797397,0.14242330417322693,-0.24798410608985452,0.22763791977939163,-0.3978277840939547,-0.07240848657546382,0.19879420859809258,0.16480410911473475,0.36730850462826314,-0.7076882332573892,-0.19376750374491827,-0.696916722857732,-0.16205138979037834,0.3085439312256955,-0.5664617635730093,0.2648594723826479,-0.1511601959418371,0.5000374494418001,-0.33331840514490424,0.3354727072248346,-0.671424148245213,0.1582215194260536,0.10591985226328103,-0.10723637020101806,-0.05888425685145175,-0.3343955561848684,-0.005505438648712807,-0.3257783478651453,0.3144084202210641,-0.13296831171130724,-1.5625871086434018,-0.7888336116014604,0.44653894779017406,-0.5742411877505386,-0.12530857098266263,0.3633589508150564,-0.47442519138039546,0.4203282724843451,0.7559206631580669,0.022380804941506842,-0.545158109671468,0.12734318961370938,0.7648969218244486,-0.12901875789809997,-0.1259069882270873,0.3353530237759505,-0.23781101293462292,-0.02752719324356343,-0.2610296020183256,0.11908503164063863,-0.1340454627512713,0.6918900180045576,-0.17342131743445868,0.04751432920736878,0.1863471299140443,-0.2544470123296469,0.04141047331423259,0.5771135905237806,-0.6265428549133133,-0.2542076454318754,-0.017354100088335083,-0.3381057431003066,0.4932154928553511,-0.20896730175332248,-0.01651631594613856,-0.9706327704578731,0.6356387970285774,-0.16528284291027245,0.07264785347323413,-0.054934703038245686,0.12351331924938652,-0.24152119985005963,0.08820670182829242,-0.5886032016167465,0.8124112510318188,0.25253207714748555,-0.5269662254409389,-0.48280303280235204,0.06223539342023201,-0.21566957489088728,-0.6771689537916961,0.40608594206702425,0.13763596621782473,0.3072274132879615,-0.35785351216634287,-0.10591985226328177,-0.6826743924404085,0.1454153903953538,0.5734034036083431,0.454797105763246,-0.8612420981769248,-0.5043460536016624,-0.7280344195678479,-0.16875366292794186,-0.13213052756911206,-0.20250439551352953,0.15199798008403173,-0.2726388965601776,0.11429769368523682,0.08700986733944177,-0.14050836899106645,-0.4047694241292883,0.5538950014400782,0.42332035870647317,0.4737070906870847, ],
[ 0.643657588103877,-1.406759258195048,-0.24654790470323337,0.5420463400004566,-0.1651631594613887,-0.7598702169712755,0.18215820920306833,-0.030160229119035938,-0.8739285437587422,0.04703559541182982,-0.070134501046649,0.4423500270791994,0.35007408798881406,0.9134240818908118,-0.16564189325693077,-0.0906003708059927,-0.2374519625879678,-0.1365588151778601,-0.049309580940646594,-1.0612331412638663,0.16241044013703157,-0.2445132860721868,0.4355280704927492,-0.20011072653582848,0.20274376241129963,-0.7665724901088401,-0.6417426529217178,0.6788445220760873,-0.5781907415637466,0.37604539639687257,-0.1752165691677341,-0.018072200781644905,1.4035278050751527,-0.3320018872071687,0.21148065417991047,0.07037386794441569,0.9770956766976673,-0.4041710068848626,-0.39004835991642556,-0.2576784654495443,0.5105695929436868,-0.7890729784992297,0.24834315643650937,-0.2159089417886572,0.4028544889471263,0.26043118477390104,0.7544844617714483,0.8249780131647525,-0.32817201684284564,-0.6871026800491571,0.15522943320392962,0.12626603857374347,0.36036686459293005,0.699190708386548,0.036742818807713705,0.15403259871507696,-0.3482788362555374,0.7858415253793352,-0.10759542054767218,-0.0033511365687810633,0.7129543050083287,0.40620562551590894,-0.17557561951438871,-0.956270756591667,-0.022739855288162386,-0.02465479047032358,-0.1251888875337778,0.08521461560616696,0.5819009284791835,-0.693685269737835,-0.013883280070666693,-0.4081205606980696,-0.49094150732653447,-1.2050926468237155,-0.14098710278660606,0.46233716304300476,0.5501848145246417,-0.35462205904644606,-0.4077615103514144,0.338704160344733,0.8462816670662918,0.3849019716143679,-1.2200530779343484,0.27251921311129285,-0.7078079167062716,-0.7477821886338842,0.6096674886205192,-0.5242135061165835,0.6452134729393834,-0.47143310515826925,-0.17569530296327304,-0.6348010128863818,0.38047368400562004,0.2834104069598323,-0.5731640367105745,0.5313945130496863,-0.8368266746043704,0.5903984533500249,0.46149937890080994,-0.12351331924938565,0.6623282061299477,0.3577338287174577,-0.3468426348689176,0.5602382242309885,0.9945694602348852,0.43816110636822153,-0.35498110939310074,-0.34959535419327276,-0.7936209495568637,-0.13608008138231795,0.635758480477463,-0.1165716792140529,0.16671904429689471,-0.25193365990306105,0.191852568562758,-0.02668940910136978,0.21375463970872532,0.08186347903738417,0.47753696105140786,-0.7877564605614956,0.004428287608747674,-0.5278040095831358,0.23278430808145117,0.11178434125865132,0.13021559238694974,0.4650898823673612,0.1347635634445818,-0.04942926438953122, ],
[ 0.06223539342023321,-0.15295544767511182,-0.3153658878121452,-0.014481697315092938,-0.44546179675021014,-0.15881993667048058,0.4101551793291155,-0.6100265389671742,-0.4253549773375193,-0.028843711181301766,-0.6424607536150263,0.3079455139812716,-0.2084885679577821,0.08449651491285551,-0.4184133373021856,-0.016276949048368673,0.3746091950102516,0.019987135963804477,0.37879811572122885,-0.07252817002434953,0.07001481759776285,-0.13045495928472012,0.1087922550365239,0.3962718992584481,0.08916416941937372,-0.9675210007868624,-0.046197811269635916,-0.6198405817757497,-0.30579121190133945,-0.29944798911043075,0.35940939700184815,-0.4457011636479798,-0.22261121492622032,-0.021064287003770322,0.1248298371871225,-0.5699325835906781,-0.024774473919208034,-0.11992281578283445,0.10723637020101862,0.1305746427336041,-0.025492574612519546,0.39339949648520783,0.4018970213560463,-0.21985849560186407,0.21770419352193232,-0.8750056947987062,0.30650931259465014,-0.16121360564818105,0.167437144990206,-0.11597326196962825,-0.3635983177128267,0.38382482057440137,-0.3865775398987586,0.37867843227234277,-0.017593466986105456,0.27587034968007346,-0.11274180884973042,0.22237184802844986,-0.13225021101799528,0.2996873560082012,0.28376945730648734,0.1324895779157663,0.25145492610752024,-0.12830065720478867,0.6746556013651088,-0.7944587336990578,-0.38071305090339125,-0.16336790772811338,0.22656076873942715,0.340858462424664,0.2270395025349676,-0.2994479891104318,-0.15654595114166434,0.1500830449018718,-0.13165179377357022,0.3407387789757785,0.3613243321840092,-0.8726120258210044,0.15499006630615872,0.24283771778779592,0.5029098522150409,-0.5293598944186408,-0.35139060592654947,-0.4504885016033825,-0.31285253538555835,-0.12291490200496166,-0.2118397045265643,-0.07348563761542963,0.30471406086137437,0.1297368585914099,0.2734766807023723,-0.4878297376555225,-0.6774083206894652,-0.5353440668628939,-0.10436396742777548,-0.05744805546483085,0.4609009616563832,-0.23601576120134646,-0.4297832649462671,-0.038897120887646325,-0.540849505511607,-0.10998908952537526,-0.48088809762018847,-0.17976454022536684,0.019269035270495023,-0.3619227494284353,0.43756268912379603,-0.27551129933341756,-0.9995961650880587,-0.5471927283025149,-0.10819383779209857,0.05194261681611782,-0.28676154352861455,0.3151265209143752,0.22344899906841528,0.31369031952775395,-0.22141438043736963,-0.21004445279328865,-0.7681283749443448,0.37879811572122896,0.055174069936015355,0.1895785830339427,-0.3408584624246634,-0.3805933674545058,-0.01855093457718458,-0.46616703340732724,-0.3838248205744016,0.06175665962469303, ],
[ 0.09299403978369448,-0.10603953571216798,-0.5878851009234378,-0.3551007928419859,-0.8794339824074541,0.061756659624693844,0.3561779438819532,-0.428586430457415,-0.5284024268275589,-0.28592375938641884,0.08461619836174242,-1.1266999878039998,0.2199781790507475,0.6111036900071386,-0.1852699788740787,0.6527535302191425,0.5686160656529412,-0.46090096165638217,0.4789731624380278,0.3516299728243193,-0.032553898096736845,-0.7429948506784811,0.10053409706345512,0.4443846457102452,0.5309157792541472,-1.1657167921405294,0.3784390653745731,-0.6486842929570508,0.5749592884438492,-0.7468247210428017,-1.2697217092216502,-1.102763298026984,0.2889158456085448,-0.6340829121930719,0.0946696080680855,-0.5586823393954803,-0.21519084109534636,-0.5385755199827907,-0.14290203796876555,-0.20082882722913897,-0.46365368098074167,1.2078453661480704,0.5865685829857,-1.1112608228978247,0.9288632467969862,0.0621157099713489,-0.8736891768609725,0.20286344586018476,0.4536002712743945,0.5395329875738717,-0.4586269761275694,-0.30674867949242124,-0.456472674047635,0.01591789870171247,-0.8191135241693808,1.4922132406989843,-0.5646665118397346,0.42619276147971513,0.0926349894370391,-0.6638840909654532,0.14409887245761932,0.7518514258959744,-0.05337881820273941,-0.27443414829345125,1.717457491500675,-1.0258068403938874,0.11956376543618046,-1.0181470996652457,-0.35534015973975686,0.3649148356505628,-0.1968792734159318,-0.28879616215965803,1.3666653028185511,0.20226502861575998,0.351031555579892,-0.16683872774577976,1.9257066925606874,0.39124519440527655,1.0971381759293861,0.06163697617580763,1.036937401140198,-0.4933351763042368,-0.29394255046171763,0.1699504974167926,-0.15451133251061808,0.8790749320607986,-0.520263952303375,0.07276753692212024,0.580105676745907,0.8998998521667995,-0.896668399046905,0.18395346093634424,-0.9972024961103574,-0.8422124298041994,-0.19532338858042542,0.6000928127097132,0.7788998853440009,-0.3640770515083673,0.013524229724010904,-0.08952321976602766,-0.11334022609415614,0.8133687186228996,0.40847961104472574,0.46389304787851027,-1.0649433281793041,-0.3784390653745741,0.6456922067349234,0.4965666294241332,-0.4957288452819376,-0.27599003312895787,0.1979564244558962,1.0722440185612927,0.14026900209329432,0.4462995808924051,0.47909284588691264,1.1003696290492828,-0.31392968642552393,-0.3811917846989294,-0.5048247873972022,0.6933262193911798,-0.23876848052570437,1.1266999878039974,0.5852520650479655,-0.0896429032149137,0.6435379046549914,-0.3278129664961922,-0.6577802350723166,0.28700091042638504, ],
[ -0.49740441356632753,-0.12806129030701896,-0.2586359330406255,-0.07061323484218938,-0.3207516430119734,0.3997427192761165,-0.2702452275824754,-0.383346086778862,0.0646290623979349,-0.049548947838416596,-0.14756969247528573,0.3801146336589647,0.14086741933772104,1.127298405048422,0.5819009284791844,-0.4781353782958322,-0.3152462043632604,-0.7827297557083229,-0.21519084109534545,-0.27251921311129074,0.08641145009501668,0.22021754594851917,0.10819383779209815,-0.05397723544716424,0.024176056674782148,0.15235703043068682,-0.3814311515967012,0.06295349411354315,0.13679818207562866,0.04380414229193399,-0.45144596919446356,0.49022340663322367,-0.10400491708112174,-0.014601380763977613,0.3767634970901832,0.12363300269827168,-0.10927098883206461,-0.16492379256361897,0.464252098225165,0.19364782029603508,0.15247671387957143,0.3134509526299853,-0.5774726408704365,0.22907412116601436,0.44414527881247373,0.06343222790908354,0.36575261979275775,-0.12506920408489364,0.5018327011750758,-0.38346577022774625,0.46832133548725713,-0.14002963519552514,-0.39866556823615007,-0.09849947843240855,-0.5491076634846768,0.4443846457102445,-0.262226436507176,-0.6446150556949569,0.35162997282432007,-0.2842481911020277,0.401059237213851,-0.23374177567253146,-0.10723637020101814,0.4271502290707958,0.05804647270925647,0.31548557126102983,-0.08353904732177482,-0.5063806722327083,-0.24319676813445226,0.6077525534383589,-0.531274829600802,-0.36024718114404464,-0.09466960806808558,0.3566566776774936,1.2304655379873488,0.17629372020770034,-0.12961717514252422,-0.15139956283960712,0.21746482662416208,0.04236794090531272,-0.04954894783841651,-0.08904448597048834,-0.48591480247336205,-0.45324122092773966,-0.46377336442962475,0.016635999395024054,-0.22297026527287617,0.378558748823459,0.9872687698528971,0.3302066354738934,-0.4516853360922335,0.6722619323874075,-0.33487428998041097,0.27132237862244013,1.187140129490956,-0.4373233222260264,-0.5130829453702708,0.7303084050966626,0.6185240638380132,0.015798215252828936,0.014362013866206724,-0.07863202591748704,0.05649058787375125,-0.4108732800224278,-0.4328950346172801,0.28412850765314324,-0.17485751882107803,0.45132628574557876,0.33702859206034175,-0.4776566445002928,0.3985458847872644,0.06618494723344104,0.7033796290975235,0.38873184197868926,-0.10472301777443205,-0.1361997648312029,0.13045495928472084,-0.0606795085847272,0.3320018872071684,0.3628802170195154,-0.1505617786974105,0.7432342175762512,0.5003964997884541,-0.32924916788281366,1.053453717086338,-0.3069880463901922,0.7945784171479439,-0.04476160988301453, ],
[ 0.6398277177395537,-0.05840552305591103,-0.2360157612013467,-0.06690304792675227,-0.6051195175628867,-0.5248119233610079,-0.39112551095638987,-0.8699789899455342,-0.49177929146872984,0.05026704853172694,-0.35450237559756126,0.24571012056103764,0.7058929815241102,0.07719582453086621,0.01651631594613842,-0.37867843227234416,0.33319872169601933,-0.8049908772009438,0.9666832166446659,-0.6866239462536141,0.16516315946138857,-0.04404350918970285,0.4125488483068168,-0.8728513927187754,-1.0307138617981766,1.007974006510013,-0.22332931561953134,0.14493665659981306,-0.1469712752308595,-0.4107535965735413,-0.5199049019567199,-0.3005251401503969,0.08820670182829238,0.08413746456620112,0.41853302075107207,-0.024654790470324147,-0.006343222790907825,0.019867452514921148,0.018670618026069927,0.9063627584065951,0.42511561043974916,-0.4940532769975457,-0.26988617723582065,-0.34636390107337556,0.22883475426824185,-0.4010592372138519,-0.48088809762018986,0.06570621343789933,-0.09407119082366093,0.5261284412987447,0.2216537473351401,-0.20226502861575857,0.3729336267258612,0.8844606872606274,-0.24762505574319837,0.022859538737046464,-0.30088419049705134,0.03973490502984129,-0.24762505574319862,-0.13260926136465162,0.15235703043068688,-0.044641926434131174,0.002872402773240632,1.1265803043551126,0.11381895988969597,-0.3948356978718277,-0.7553222459136414,0.8541807746927047,-0.21195938797544886,0.5920740216344146,0.11740946335624938,-0.5035082694594671,-0.2910701476884765,-0.04320572504750769,-0.644495372246073,0.4480948326256812,-0.5853717484968508,-0.4380414229193359,0.9934923091949199,-0.20645394932673755,0.06067950858472686,-0.8516674222661191,-0.14170520347991689,-0.5805844105414483,-0.4836408169445444,0.1358407144845487,-0.4356477539416355,-0.3450473831356413,0.49321549285535127,-0.052660717509428294,0.28221357247098194,0.6514370122814053,-0.41518188418228996,0.09574675910805151,0.37939653296565595,-0.42726991251968094,0.2989692553148911,0.6289365238910137,0.7706417273709303,-0.5416872896538024,-0.26318390409825726,-0.5012342839306511,-0.40141828756050674,0.06714241482452077,0.17796928849209007,0.8408959118664621,-0.40369227308932304,-0.22787728667716206,-0.12267553510719079,-0.38741532404095363,0.1930494030516079,-0.1310533765291452,0.5272055923387093,0.3851413385121379,0.686384579355844,-0.14565475729312394,-0.21076255348659845,1.0035457189012666,1.190730632957506,1.0887603345074313,-0.12291490200495962,-0.38454292126771195,1.0477089115398546,-0.07013450104664813,0.297892104274926,0.5337881820273865,0.5588020228443656,-0.6109840065582546, ],
[ -0.6634053571699124,-0.37281394327697664,0.34349149830013564,-1.1719403314825516,0.3404994120780093,-0.10388523363223641,0.41362599934678346,0.08545398250393628,-0.377361914334608,0.08150442869072963,-0.16995049741679114,-0.6155319776158875,0.15678531803943532,-0.010532143501885312,-0.6280987397488181,-0.03841838709210562,-0.38573975575656255,0.2838891407553744,0.13093369308026132,0.4300226318440373,-0.043086041598622365,-0.3669494542816084,-0.08880511907271789,-0.28257262281763734,0.19795642445589726,-0.2814954717776711,0.20202566171799022,0.2594737171828203,0.31536588781214536,0.4052481579248282,0.3822689357388959,-0.441392559488118,0.013524229724012439,0.27898211935108486,-0.25875561648950984,0.24977935782313052,-0.005744805546483272,0.4442649622613601,-0.17030954776344653,0.3579731956152287,-0.2750325655378781,0.009694359359690388,-0.19292971960272384,0.008018791075298896,-0.43421155255501387,0.1796448567764821,0.06020077478918645,-0.6381521494551647,-0.01938871871938075,-0.07492183900204857,0.05421660234493439,-0.11956376543618027,-0.06821956586448602,-0.2276379197793925,0.4342115525550148,0.04260730780308359,-0.27204047931575287,0.06498811274458974,-1.1022845642314452,-0.004787337955403179,-0.14290203796876655,-0.18191884230529837,-0.11788819715178823,0.5000374494418007,-0.13524229724012196,0.34157656311797463,0.15953803736379157,-0.4178149200577606,-0.4203282724843471,0.4485735664212225,0.2708436448269011,-0.26294453720048583,-0.6160107114114275,-0.08413746456620075,0.37855874882345975,-0.14086741933772082,-0.03267358154562215,-0.21961912870409359,-0.7486199727760785,0.048352113349565656,-0.020346186310461076,-0.22225216457956512,-0.4668851341006366,-0.18538966232296553,-0.5591610731910223,0.17653308710547036,-0.3540236418020218,0.2674925082581203,0.0514638830205776,0.3524677569665159,-0.5298386282141814,-0.2847269248975686,-0.6667564937386953,0.33750732585588317,-0.1388328007066746,-0.3169217726476517,-0.058644889953682125,0.103885233632236,0.21423337350426574,-0.4869919535133284,0.14409887245761788,0.424158142848669,0.23134810669482833,-0.5651452456352749,0.0726478534732346,-0.3248208802740659,-0.2485825233342797,-0.0821028459351554,-0.05373786854939482,0.4808880976201892,-0.32912948443392664,-0.010412460053000477,0.22225216457956493,-0.399263985480576,0.2921472987284431,-0.14745000902639926,-0.6423410701661418,-0.3473213686644569,-0.5237347723210425,-0.010412460052999839,-0.6950017876755704,-0.24977935782313013,-0.2927457159728682,-0.7157070243326863,0.07899107626414234,-0.2145924238509203,-0.22261121492622088,-0.405367841373714, ],
[ 0.7842856405438282,-0.7212124629813993,-0.3807130509033922,0.4150622007334051,0.4026151220493567,0.9627336628314599,1.85461472392296,0.23350240877476125,-0.8472391346573731,0.7092441180928921,0.06965576725110682,-0.125428254431547,0.2467872716010017,-0.053857551998274425,0.15822151942605625,-0.009095942115265656,-1.1600916700429298,-0.6083509706827841,0.48974467283768225,-0.08712955078832754,0.625585387322234,-0.11788819715178821,0.7517317424470902,0.8464013505151784,0.28305135661317726,-0.5710097346306428,-0.6126595748426438,0.39363886338297577,-0.1806023243675632,1.9884208197764608,1.0657811123214975,0.13847375036001977,0.7378484623764238,0.8784765148163726,-0.9332915344057344,0.6494023936503611,0.6641234578632217,1.2307049048851164,-0.14996336145298597,-1.2438700842624748,-0.09107910460153482,0.3582125625129993,0.6914112842090191,-0.15187829663514582,-0.6406655018817485,-0.03865775398987632,-0.6231917183445302,0.41195043106239226,-0.1142976936852381,-0.5835764967635738,-0.45671204094540724,-0.443786228465819,-0.03375073258558641,-0.12506920408489205,0.2946606511550295,-0.6675942778808864,0.9148602832774329,0.5653846125330447,-0.35869129630853747,-0.3018416580881324,0.26952712688916697,0.3589306632063102,0.3111769671011683,1.4700718026552475,-0.4543183719677043,0.06738178172229015,-0.15870025322159534,-0.46963785342499315,0.2538485950852215,1.1605704038384705,0.8107356827474247,-0.11788819715178787,-0.0988585287790627,0.6866239462536156,0.12554793788043295,0.04942926438953242,-0.36120464873512337,0.9417890592765717,-1.1270590381506524,0.7940996833524029,0.24379518537887768,-0.10639858605882166,-0.22955285496155464,0.7609473680112393,-0.4816061983135012,-0.16875366292794125,-0.056370904424866794,0.4126685317557036,0.19999104308694357,-0.451565652643349,-0.4741858244826262,0.5799859932970225,0.449291667114533,-0.1075954205476735,-1.2955733341808224,0.696198622164421,1.3670243531652062,-1.0773904068633524,0.21435305695314993,0.3206319595630886,-0.7693252094331958,0.1508011455951821,0.7026615284042144,-0.9043281397755495,0.6917703345556737,0.49094150732653496,-0.4800503134779928,0.18311567679414875,-0.016516315946138928,0.7209730960836273,-0.13727691587116725,-0.18766364785178113,0.7294706209544659,-0.3212303768075124,0.13428482964904095,1.626258703450259,0.25708004820512037,0.1445776062531576,0.9439433613565044,0.5791482091548272,-0.5968613595898169,0.8984636507801808,-0.2568406813073492,-0.9642895476669646,0.9076792763443304,-0.1634875911769988,0.11740946335625001,-1.0387326528734742, ],
[ 0.1315321103246855,-0.1895785830339435,0.9269483116148246,-0.3950750647695988,0.63755373221074,-0.9322143833657681,-0.0008377841421953495,0.18670618026070168,0.38119178469893095,-0.6394686673929002,-0.21148065417990827,0.5853717484968514,0.2993283056615467,-0.9060037080599377,-0.8379038256443376,0.1622907566881465,0.008976258666380028,-0.010292776604115525,-0.16085455530152745,-0.19891389204697782,-0.3797555833123103,-0.4473767319323716,-0.8875724569316379,-0.4233203587064728,0.9252727433304351,-0.4062056255159098,0.21004445279328773,0.4172165028133351,0.39794746754283816,0.17533625261662006,-0.9072005425487895,-0.3440899155445604,-0.7423964334340558,0.2021453451668739,-0.5809434608881044,-0.2878386945685805,-0.6827940758892931,0.8717742416788101,-0.061397609278037515,-0.2374519625879684,-0.023936689777012913,0.8540610912438205,0.2223718480284509,-0.5312748296008011,-0.005744805546483352,0.02285953873704768,0.2325449411836824,0.8599255802391893,0.6728603496318318,0.055772487180439326,0.38765469093872323,-0.4996783990951435,0.46102064510526863,1.1770867197846093,-0.2116003376287953,0.23876848052570332,0.015319481457287414,0.13763596621782362,0.29478033460391595,0.018431251128299474,-1.0095298913455184,0.4090780282891505,0.0733659541665444,0.02046586975934532,0.5822599788258381,-0.014481697315091331,0.2250048839039223,-0.00011968344888449141,-0.6735784503251425,-0.24953999092536105,0.03207516430119582,0.07887139281525803,-0.0929940397836948,0.16097423875041122,-0.10029473016568329,-0.44965071746118684,-0.32553898096737643,-0.3436111817490208,0.11166465780976431,0.2570800482051193,-0.008138474524184562,0.17413941812776942,0.44725704848348496,-0.06486842929570477,-0.42236289111539443,-0.21183970452656506,-0.3229059450919038,0.3035172263725236,0.9620155621381475,0.04260730780308368,-0.04356477539416383,-0.4532412209277399,-0.8168395386405652,-0.18120074161198682,0.3582125625129981,-0.1406280524399521,-0.008377841421955495,-0.08294063007734881,-0.4839998672912008,0.04404350918970431,-0.2570800482051189,-0.253609228187451,0.42475656009309404,-0.36587230324164355,0.3539039583531358,-0.14840747661747955,0.20717205002004677,0.19304940305160911,0.11800788060067333,0.4844786010867408,1.087563500018582,-0.7164251250259961,0.22261121492622013,-0.43421155255501587,0.1591789870171346,0.6714241482452108,-0.4267911787241391,-0.7666921735577232,-0.3560582604330672,0.15774278563051392,-0.6470087246726584,-0.0941908742725456,-0.32577834786514676,-0.007540057279759866,0.014002963519552422,-0.5725656194661483,0.15881993667048125,0.00730069038198911, ],
[ -0.7294706209544686,1.091872104178443,0.22057659629517407,-0.07001481759776323,0.5701719504884479,0.306269945696881,-0.027168142896909962,-0.5039870032550071,0.6454528398371513,0.6763311696495008,-0.5766348567282406,-0.258157199245084,0.26055086822278534,-1.3484734185880223,0.27910180279997127,-0.3190760747275841,0.03674281880771574,-0.6973954566532685,-0.1764134036565853,0.6863845793558436,-0.09239562253926895,-0.2654578896270731,-0.41362599934678224,-0.11405832678746547,0.8316802863023123,0.23278430808145142,-0.297174003581615,0.6726209827340627,0.42511561043974844,0.017952517332759398,0.4114716972668525,0.16324822427922814,0.037580602949910426,-1.071884968214638,0.6490433433037046,-0.31895639127869596,0.1899376333805977,1.0431609404822209,0.05529375338489897,-0.6569424509301175,1.2169413082633356,-0.45096723539892486,-0.3680266053215729,-1.1304101747194322,-0.6184043803891287,-0.62127678316237,-0.5045854204994308,0.6940443200844869,0.8315606028534264,-0.39663094960510414,0.9508850013918377,-0.531155146151914,-0.2331433584281051,0.7626229362956304,-0.09742232739244185,-0.37353204397028644,-0.20465869759346184,0.40261512204935684,-0.5462352607114355,-0.3397813113846981,-0.48388018384231396,0.22177343078402403,0.7784211515484586,-0.2398456315656707,0.5060216218860524,-0.0545756526915888,-0.5457565269158938,0.13775564966670892,-0.2802986372888199,-0.03363104913670409,0.583815863661344,-0.4202085890354618,-0.47478424172705125,-0.5299583116630667,0.21806324386858622,0.4119504310623921,0.41111264692019756,0.6941640035333732,0.7540057279759057,0.5193064847122948,0.49525011148639725,-0.8149246034584038,0.6124202079448747,0.16671904429689385,0.52840242682756,0.33068536926943387,0.0008377841421945502,-0.6222342507534513,0.4133866324490107,0.15151924628849192,0.3859791226543321,0.05804647270925501,-0.5281630599297882,-1.0468711273976585,-0.781772288117241,0.35174965627320487,-0.16109392219929886,0.18108105816310271,0.8386219263376462,-0.4041710068848629,1.1769670363357254,-0.6643628247609922,-0.8906842266026503,-0.19472497133599995,0.5109286432903409,-0.1451760234975844,-1.2103587185746578,0.09012163701045221,-0.09251530598815547,0.20214534516687369,0.28484660834645364,-0.16217107323926222,1.1758898852957576,0.0867705004416718,0.34432928244233113,0.8131293517251275,-0.4299029483951509,-0.23146779014371222,0.09969631292125827,0.258635933040623,-0.5866882664345852,-0.6081116037850126,0.010891193848540402,0.4186527041999559,-0.45587425680321153,0.4427090774258542,-0.48459828453562614,-0.1662403105013536, ],
[ 0.6577802350723135,-0.01986745251492139,-0.2534895447385662,0.6996694421820877,-0.3974687337472996,0.021662704248195556,0.6663974433920399,-0.22117501353959965,0.2734766807023727,0.35593857698418213,-0.19544307202931077,0.337148275509227,-0.16911271327459668,-0.4640127313273945,0.38430355436994185,-0.18670618026070082,0.08629176664613183,-0.19652022306927724,0.05266071750942801,-0.24379518537887607,-0.05481501958935975,-0.5686160656529422,0.21602862523754102,-0.16887334637682672,0.23410082601918686,-0.019747769066036727,-0.4987209315040644,-0.2544470123296475,-0.09443024117031637,0.025133524265863585,0.5646665118397339,-0.21734514317527756,-0.04895053059399054,0.038657753989876406,-0.3907664606097361,0.82402054557367,-0.1006537805123383,0.2755112993334193,0.245710120561037,0.018191884230529726,0.04117110641646175,0.408000877249186,-0.2047783810423451,-0.058046472709256974,0.27874275245331553,0.09251530598815512,0.10484270122331629,-0.2180632438685875,1.0633874433437989,0.04607812782075064,-0.18084169126533226,0.2579178323473141,-0.2611492854672106,-0.19735800721147176,0.12674477236928333,-0.234818926712496,-0.30674867949241996,0.2234489990684159,-0.27311763035571696,0.0496686312873013,-0.044282876087474235,0.5233757219743874,0.43480996979943853,0.533668498578503,-0.19544307202930983,0.8205497255560034,0.091797205294845,0.6942836869822596,-0.5236150888721576,-0.1547506994083889,-0.2180632438685875,0.3992639854805741,-0.34935598729550377,0.2586359330406241,0.07935012661079893,0.1896982664828269,0.17976454022536772,-0.48914625559325864,-0.025731941510288986,0.21614830868642648,0.019628085617150726,-0.11334022609415574,0.4283470635596442,0.09730264394355767,-0.07109196863772858,-0.3225468947452489,0.3097407657145466,0.48890688869548854,-0.3570157280241468,0.040572689172036894,0.6387505666995897,0.3092620319190066,-0.07049355139330356,-0.026450042203599505,-0.17629372020769898,-0.5643074614930798,0.2595934006317038,-0.08605239974836092,0.30638962914576506,0.592074021634414,0.009814042808575058,0.5647861952886191,0.041649840212002666,0.5689751159995969,-0.0635519113579691,0.3002857732526269,0.31584462160768445,-0.5248119233610078,-0.6449741060416128,-0.3646754687527926,0.01472106421286328,-0.47322835689154535,-0.29059141389293663,-0.33128378651385937,-0.051703249918348806,-0.14517602349758335,-0.21818292731747263,0.41183074761350646,-0.1661206270524702,0.20896730175332143,-0.05649058787374968,-0.09849947843240764,0.0637912782557396,-0.05517406993601523,-0.008976258666378994,0.5541343683378485,-0.35246775696651483,-0.23948658121901395, ],
[ -0.4387595236126458,0.41314726555124315,-0.2984905215193501,-0.220337229397403,-0.023218589083700843,0.05996140789141634,0.03243421464785136,0.03243421464785356,-0.30387627671917783,-0.0737250045131998,0.9787712449820548,0.48890688869548693,-0.08724923423721116,0.21686640937973642,-0.9616565117914914,-0.2823332559198673,0.5133223122680414,-0.2656972565248427,-0.4729889899937754,-0.6119414741493332,-0.5823796622747219,-1.3257335632998595,0.31345095262998307,-0.24750537229431407,0.33499397342929577,-0.304115643616949,0.11728977990736349,-0.07468247210427996,0.1995123092914014,-0.11118592401422436,0.13967058484886977,-0.6708257310007867,-1.1671529935271476,-0.48771005420663865,-1.15745863416746,0.2658169399737295,-1.2839640396389724,-0.21279717211764493,0.5567674042133209,0.3961522158095632,-0.02944212842572737,-0.4145834669378621,-0.7884745612548054,0.11298117574750134,0.6835121765826038,0.3004054567015109,0.6407851853306349,0.05481501958935856,0.302918809128096,-1.503822535240834,-0.39124519440527566,0.7749503315307926,-1.2485377387689927,0.3355923906737206,-0.16564189325692844,0.09514834186362629,-0.8145655531117485,-0.6474874584681996,-0.7468247210428035,-0.4356477539416354,-0.09287435633481028,0.27227984621352236,-0.05625122097597974,0.5834568133146901,-0.31369031952775295,0.05218198371388853,-0.6448544225927274,0.727795052670077,-0.6046407837673458,-1.1532697134564813,-0.48280303280234993,0.6905735000668236,0.7029008953019836,-0.5392936206761006,-0.8440076815374756,0.9358048868323193,-0.7811738708728142,-0.20250439551352936,0.40189702135604577,0.7406011817007786,-0.3483985197044234,0.024894157368093257,-0.1627694904836871,0.18562902922073532,-1.1081490532268117,0.8854181548517063,0.44318781122139395,-0.1365588151778591,-0.8387416097865318,0.6346813294374972,0.5611956918220679,0.014960431110632237,0.45934507682087805,0.3187170243809256,-0.4678426016917176,-0.17138669880341104,0.6280987397488182,0.3924420288941244,0.6134973589848399,0.13464387999569682,0.4397169912037263,0.8655507023367863,0.6915309676579027,-0.1316517937735718,-0.4866329031666717,0.5722065691194929,-0.11812756404955922,0.8097782151563456,0.977813777390977,0.7394043472119279,-0.42607307803082883,-0.8163608048450252,0.39184361164970044,0.7325823906254795,1.304788959744973,-0.8031956254676669,-1.1816346908422408,-0.24463296952107227,-0.2082492010600127,0.5176309164279035,-1.6442112207830155,-0.13428482964904317,0.7437129513717889,-0.6759721193028443,-0.30339754292364024,0.9845160505285395,-0.058405523055910485,-0.16707809464355106, ],
[ -0.5826190291724952,-0.6448544225927275,-0.12123933372057005,0.34193561346462975,0.16037582150598628,0.08880511907271765,-0.14278235451988222,0.11681104611182375,0.11669136266293832,0.08832638527717841,-0.0023936689777007566,-0.4902234066332249,-0.19927294239363336,0.16133328909706776,0.022141438043736843,-0.16264980703480283,0.09981599637014414,0.025492574612518998,-0.18072200781644773,-0.16935208017236644,-0.2636626378937973,0.4515656526433496,0.05816615615814135,-0.5902787699011386,-0.30962108226566265,0.0257319415102893,-0.6877010972935809,-0.5566477207644355,-0.08964290321491344,-0.15307513112399754,-0.10089314741011006,-0.09311372323258,-0.1518782966351464,-0.050386731980612075,0.21291685556652973,-0.4169771359155648,-0.2859237593864192,0.05325913475385376,0.475981076215902,-0.3361908079181466,-0.38490197161436834,0.03219484775008205,0.03291294844339289,-0.12686445581816788,0.06522747964235985,-0.34492769968675624,-0.1443382393553884,0.07695645763309673,-0.5509029152179529,-0.6671155440853495,-0.5197852185078354,0.4850770183311661,-0.28364977385760237,-0.5341472323740425,-0.2954984352972235,-0.13201084412022618,0.1619317063414928,-0.3083045643279268,-0.23589607775246288,0.18981794993171255,-0.1722244829456079,-0.15750341873274593,0.34169624656685876,-0.218781344561898,-0.1061592191610527,-0.05481501958935992,0.10939067228094954,0.03602471811440469,0.2755112993334191,-0.3943569640762877,0.3013629242925928,-0.15594753389723892,-0.21279717211764537,0.5069790894771332,0.20836888450889712,-0.32374372923409994,0.24786442264096842,-0.3685053391171131,0.39040741026308057,-0.15211766353291728,-0.11693072956070873,-0.6038029996251504,-0.33810574310030794,-0.29334413321729336,-0.34959535419327376,-0.03913648778541638,0.1107071902186847,-0.18993763338059755,-0.022739855288161154,-0.10603953571216818,0.058525206504796326,0.38645785644987357,-0.23086937289928908,0.01292581247958704,-0.5706506842839878,0.16839461258128618,0.20513743138900006,-0.5792678926037135,-0.03710186915437041,0.11405832678746669,-0.44510274640355485,-0.2677318751558902,0.1524767138795719,0.308184880879041,0.1098694060764901,-0.344688332788986,0.0215430207993106,0.23039063910374977,0.10005536326791471,0.08545398250393617,-0.37760128123237885,-0.38849247508092044,0.13464387999569727,0.15379323181730867,0.08581303285059166,-0.12494952063600717,0.07348563761543002,-0.2720404793157521,-0.34109782932243365,0.41733618626222035,-0.1387131172577899,0.32135006025639845,0.07085260173995804,-0.019987135963805466,-0.22452615010838134,0.27359636415125727,-0.01735410008833455,-0.7068504491151912, ],
[ 0.10053409706345497,0.057567738913716485,-0.031237380159001977,-0.2607902351205555,-0.12471015373823803,-0.1341651462001575,-0.05553312028267044,0.15092082904406662,0.13320767860907667,0.14338077176430777,-0.15690500148832062,0.13560134758677836,0.0838980976684299,-0.44869324987010645,0.3007645070481676,-0.6871026800491558,-0.013883280070667699,-0.10903162193429379,0.1972383237625864,0.04512066022966925,-0.020346186310460448,0.005625122097598569,0.12387236959604157,-0.5422857068982277,-0.12985654204029573,-0.1445776062531575,-0.046915911962944847,0.1571443683860895,-0.4561136237009809,0.17796928849209084,-0.09670422669913258,0.05577248718044031,-0.04296635814973803,-0.1397902682977555,0.09466960806808583,0.41482283383563406,-0.02836497738576035,0.12590698822708715,-0.18287630989637899,0.25995245097836067,0.11513547782743223,0.2813757883287869,-0.19663990651816082,0.02106428700377212,0.07396437141097024,-0.1560672173461243,-0.023218589083701977,-0.13009590893806572,-0.12159838406722587,-0.05397723544716412,0.5798663098481383,0.0076597407286441415,-0.11178434125865003,0.6280987397488191,-0.4728693065448901,-0.4186527041999554,0.34121751277131934,-0.33918289414027314,-0.32063195956308793,0.03770028639879657,0.1534341814706531,-0.048112746451796196,-0.8400581277242685,0.2819742055732118,0.10232934879673028,-0.04547971057632501,0.14230362072434166,0.19975167618917308,0.040093955376496494,0.06833924931337214,-0.002633035875471964,-0.20609489898008104,0.15893962011936572,0.13272894481353648,-0.3361908079181466,0.2469069550498884,0.06965576725110789,0.10340649983669567,-0.45587425680321136,-0.46544893271401605,-0.31883670782981205,-0.07611867349090058,-0.7409602320474352,0.06929671690445179,0.01484074766174812,-0.46293558028743026,-0.17749055469655106,-0.13189116067134116,-0.448453882972337,0.3018416580881325,0.09658454325024758,-0.21926007835743822,0.06211570997134907,0.11561421162297213,-0.09814042808575266,-0.07049355139330292,-0.010771510399656091,-0.19711864031370194,0.06008109134030201,-0.5152372474502028,-0.05936299064699239,-0.05397723544716442,-0.03913648778541621,-0.08485556525951138,0.1578624690794002,0.13260926136465168,-0.33056568582054785,0.12076059992503002,0.043564775394163244,-0.21854197766412872,-0.03255389809673728,-0.019029668372725114,0.054695336140473574,-0.5424053903471122,-0.2940622339106038,-0.20118787757579315,0.10137188120565012,0.03147674705677195,-0.09395150737477564,-0.11393864333858146,0.3162036719543411,-0.3670691377304929,0.116930729560708,-0.18395346093634404,-0.2157892583397714,-0.4130275821023583,0.11860629784509946,0.32003354231866366, ],
[ -0.5844142809057694,-0.19807610790478067,-0.2402046819123252,0.024056373225898472,0.07863202591748764,-0.03961522158095633,-0.08617208319724698,-0.0494292643895312,-0.11322054264527104,-0.09419087427254591,-0.12411173649381188,-0.0623550768691184,-0.4820849321090408,0.0748021555531654,-0.28604344283530386,-0.16540252635915853,0.05840552305591083,-0.018191884230530454,0.07216911967769371,-0.0813847452418441,0.0031117696710117448,-0.03004054567015108,0.3000464063548572,-0.04344509194527867,-0.11214339160530579,0.2083688845088979,0.09131847149930444,-0.10615921916105171,-0.6951214711244549,-0.6538306812591083,-0.019388718719380867,-0.44187129328365854,-0.3448080162378708,-0.14864684351525015,-0.028963394630185525,-0.010891193848540577,-0.5227773047299623,0.02609099185694421,-0.3219484775008243,0.03578535121663353,-0.2661759903203843,-0.11226307505419068,0.22404741631284034,-0.10723637020101806,-0.11393864333858197,-0.42703054562191045,0.27048459448024553,0.08712955078832746,-0.3166824057498806,-0.08246189628180997,-0.1551097497550433,-0.26222643650717803,-0.13356672895573246,-0.0837784142195448,0.10580016881439742,-0.08712955078832771,0.08856575217494853,-0.14314140486653767,0.0684589327622567,-0.2947803346039142,0.25947371718281975,-0.05936299064699261,0.15834120287494,-0.19975167618917225,0.199512309291403,-0.14685159178197446,-0.09909789567683416,-0.1432610883154225,-0.03841838709210599,0.45707109129206264,-0.30830456432792647,0.04559939402520998,-0.020944603554886143,0.009814042808575382,-0.23661417844577287,0.02046586975934623,-0.19472497133600056,-0.7267179016301117,0.16157265599483725,0.14792874282194002,-0.0633125444601999,-0.46497019891847585,-0.12842034065367416,-0.31273285193667366,-0.2737160476001423,-0.07623835693978637,-0.11310085919638597,-0.03135706360788694,-0.21878134456189763,0.0943105577214306,0.06079919203361282,0.2035815465534955,0.036862502256600704,-0.22835602047270342,-0.275511299333419,-0.09957662947237321,0.20944603554886335,-0.4162590352222548,-0.02010681941269087,-0.14756969247528492,0.11058750676980049,0.13440451309792714,0.021423337350426588,0.006582589688678805,-0.20944603554886337,-0.2185419776641282,-0.13129274342691663,-0.09574675910805087,0.34313244795348125,-0.2771868676178096,0.07827297557083218,0.2419999336456006,0.004907021404287903,-0.42906516425295604,-0.16791587878574535,0.32314531198967517,0.21662704248196715,0.01795251733275927,0.31177538434559393,0.1606151884037567,-0.05110483267392252,-0.05816615615814136,-0.18179915885641276,0.146013807639779,-0.08808701837940723,-0.16947176362125224,-0.2208159631929444,-0.15044209524852634, ],
[ 0.17689213745212698,0.0071810069331033725,0.3074667801857302,-0.24451328607218642,-0.3559385769841839,0.09957662947237439,-0.5676585980618611,0.228116653574933,0.19340845339826454,0.17270321674114844,-0.5693341663462521,-0.18874079889174628,0.5023114349706151,-1.1243063188262963,0.12339363580050262,-0.0014362013866214126,0.02106428700377211,-0.5571264545599764,0.16504347601250408,0.30722741328796066,-0.19544307202931024,-0.06139760927803836,-0.20023040998471256,-0.030998013261231187,-0.06642431413121111,0.17521656916773426,-0.48280303280235076,0.05732837201594543,0.15738373528385918,0.12255585165830654,0.019747769066035984,-1.2303458545384638,0.43840047326599096,-0.09155783839707483,0.251095875760865,0.06462906239793545,0.41171106416462216,-0.0475143292073715,0.1026883991433862,0.26342327099602764,-0.48962498938879917,-0.16635999395023945,-0.2495399909253598,0.06570621343790126,-0.03889712088764541,-0.03135706360788715,-0.047035595411830146,-0.16229075668814832,-0.44701768158571614,0.06690304792675168,-0.14900589386190566,-0.02142333735042579,-0.0976616942902127,-0.36371800116171166,-0.1367981820756294,-0.21148065417990902,0.0331523153411627,0.26689409101369393,-0.038179020194334744,-0.07372500451319972,-0.14050836899106503,-0.037580602949910114,-0.22823633702381774,0.2897536297507418,-0.146013807639779,-0.0549347030382437,0.23757164603685374,-0.08772796803275207,-0.29717400358161505,0.02154302079931141,-0.17784960504320643,-0.490941507326534,-0.7590324328290795,-0.6622085226810623,-0.3470820017666874,-0.12925812479586912,-0.13129274342691596,0.0599614078914167,-0.300405456701512,0.19807610790478172,0.2847269248975687,-0.2671334579114639,-0.31333126918109866,0.30148260774147745,-0.15714436838609,-0.2136349562598404,0.49740441356632886,-1.0984546938671225,0.423320358706473,0.2416408832989456,-0.1183669309473285,-0.131532110324686,-0.4625765299407748,-1.129572390577239,-0.3224272112963633,-0.18443219473188482,-0.12267553510719116,0.2726388965601768,0.3632392673661713,0.39447664752517353,-0.08689018389055778,0.047873379554026464,0.23039063910374885,-0.1695914470701371,-0.0329129484433927,0.6206783659179459,-0.08605239974836036,0.01448169731509238,-0.14996336145298667,-0.028843711181301444,-0.1564262676927791,0.23649449499688774,-0.06427001205128054,-0.7721976122064367,0.27359636415125654,-0.16300885738145826,-0.1369178655245133,-0.06582589688678481,0.08234221283292471,0.097063277045788,0.017354100088334552,-0.2576784654495434,-0.07815329212194734,0.16851429603017132,-0.3117753843455933,-0.26294453720048644,0.22548361769946207,-0.06450937894904961, ],
])

weights_dense1_b = np.array([ -0.06039104355796169,-0.09596385003730899,-0.24834782570000138,-0.031519161089840285,-0.14460759471139323,-0.17860857950909492,-0.10605659978261218,-0.06452741640439742,-0.017372765955030078,-0.0002481823707861439,-0.11126842956912121,-0.028706427554263985,-0.09232384193244556,0.08818746908600981,0.015056397161026067,-0.03573826139320473,-0.15834035256155982,-0.18712950757275254,-0.12566300707471756,-0.016628218842671644,-0.08959383585379796,-0.13294302328444446,-0.03367007496998686,-0.17422402429187306,-0.10059658762531701,-0.023246415396968815,0.05840558459167254,-0.16562036877128672,-0.01687640121345779,-0.09075202025079998,-0.16479309420199956,-0.09009020059537025,-0.03731008307485031,-0.28549245386099426,-0.018282767981245937,0.09356475378637627,-0.025562784190972826,-0.09852840120209914,-0.1768713029135919,0.007031833838940745,-0.024073689966255963,-0.06651287537068658,-0.14502123199603678,-0.09116565753544355,-0.0010754569400732903,-0.127565738584078,0.016297309014956785,-0.1812558581308138,-0.02920279229583627,-0.09257202430323169,-0.16247672540799557,-0.10638750961032703,-0.05658558053924082,-0.08446473352421766,-0.08876656128451083,-0.11871390069270552,-0.04053645389507018,-0.10076204253917445,0.028375517726549122,-0.04889192704487036,-0.07726744477141947,-0.16917764941922145,0.0028127335355762977,0.0050463748726515935,-0.024900964535543108,-0.08264472947178593,-0.03400098479770172,0.02192277608610938,-0.04732010536322478,-0.12417391285000069,-0.2450387274228528,-0.11102024719833507,-0.045582828767721774,0.05335920971902095,0.015139124617954781,0.01530457953181221,-0.2373450739284823,-0.10340932116089331,0.12334663828071354,-0.08975929076765539,-0.17190765549786904,-0.13509393716459103,-0.1417121337188882,-0.060225588644104266,-0.15610671122448455,-0.05162193312351794,0.017869130696602366,-0.004715465044936735,0.0029781884494337273,-0.035572806479347296,-0.04004008915349789,-0.013484575479380487,-0.1834894994678891,-0.026803696044903545,-0.16868128467764917,-0.15569307393984097,-0.02440459979397082,-0.014973669704097352,-0.061714682868821126,-0.01083729685766162,0.09919022085752886,-0.15230124820576368,-0.09968658559910115,-0.016297309014956785,-0.07230379735569661,0.09389566361409113,-0.08032836067778193,-0.0507946585542308,0.029285519752764985,-0.12227118134064024,-0.097701126632812,-0.04202554811978704,-0.09612930495116642,0.0003309098277148586,-0.16123581355406486,-0.039295542041139456,-0.018944587636675655,-0.10382295844553688,0.006783651468154602,-0.048643744674084215,-0.030360976692838278,-0.07048379330326487,-0.049471019243371356,-0.052201025322018944,-0.15486579937055384,-0.13170211143051372,-0.010092749745303187,0.009596385003730898, ])

weights_dense2_w = np.array([
[ -0.05118140073290741,0.5425612818619824,0.11562256360812997,0.2894087215410187,-0.5567818963334531,-0.11472576810092197,-0.25225576481375234,-0.39997079621561027,-0.0310035018206851,0.1541847704181576,-0.20767221674103228,0.05566537826895654,0.1513022134306974,0.3089460522338063,-0.15117409978681048,-0.10069732409528066,-0.1166474727592291,0.1628324413805381,-0.49957915433785083,-0.23880383220560375,-0.202932011917208,-0.005957284440750948,0.01595014866394773,-0.17077548730153985,-0.3382840766839576,-0.05502481004951968,-0.611550479095199,-0.15002107699182576,0.09409947143509402,-0.2581489924325609,0.044775718538550835,0.13375064421816057,-0.12279692766581052,0.11043396103070367,-0.23662590025952301,0.641208787655069,-0.03183624050595077,-0.01390033036175315,-0.2786471754545014,-0.02113875124137554,-0.08218490255359066,-0.33367198550402133,-0.24014902546641909,-0.12702467791408578,0.013900330361752884,0.33053320122878854,-0.11511010903258402,-0.11946597292474506,0.05707462835171474,-0.17058331683570957,-0.28985711929462465,0.21292487614040384,-0.032476808725386594,-0.22887502480435143,-0.05111734391096325,0.20786438720686276,0.29139448302126975,-0.18352279486830975,-0.06405682194356395,-0.16033422532473887,-0.05572943509090055,0.19774340933978066,-0.23111701357237546,-0.03330954741065327, ],
[ 0.1118432111134614,0.05124545755485059,-0.0021138751241384385,0.06642692435547491,-0.056177832844504755,0.048170730101559825,-0.35929471428144655,0.06316002643635353,-0.23329494551845792,0.04977215065014906,0.038370036344194926,-0.12190013215860104,0.26730911797048934,0.392668318514044,0.006405682194356135,0.1548253386375935,-0.21369355800372702,0.018576478363632836,-0.3517360092921067,0.062007003641369345,0.2325903204770782,-0.3468676908243961,-0.3423196564664028,-0.03958711596112229,-0.2572521969253505,0.21093911466015464,0.026839808394353154,0.07347317476926732,-0.17570786259119422,0.09262616453039214,0.058291707968642345,0.13061185994292535,-0.11261189297678388,-0.22208500167833342,0.07757281137365489,-0.10281119921941884,0.29344430132346355,0.16360112324386,-0.012811364388713645,0.05182196895234291,0.13138054180624884,0.0012170796169284524,0.15495345228148005,-0.02478999009215884,0.2852450281146873,-0.04451949125077613,0.2213163198150121,-0.44551519661748323,-0.3657003964758038,-0.15213495211596326,-0.1377221671786616,0.19396405684511037,-0.23271843412096507,0.15098192932097834,0.18333062440247805,0.17039114636987826,-0.04720987777240661,0.1694943508626691,-0.3876718864024459,0.31349408659179945,-0.3318143376676585,0.3468676908243954,0.2310529567504339,-0.5741412950801587, ],
[ 0.08769378924073833,0.06930948134293488,0.06879702676738805,0.09179342584512676,0.03433445656174935,-0.22022735384197067,-0.02056223984388404,0.01748751239059284,0.21004231915294508,-0.10364393790468426,-0.1409890650977828,-0.39343700037736684,-0.05982907169528823,0.3185545755253407,0.0702703336720888,0.023701024119118324,-0.636596696475133,-0.18634129503382593,-0.06604258342381476,-0.5665825900908195,0.18858328380185055,0.1668680211629831,-0.19415622731093996,-0.31407059798929127,-0.16917406675295166,-0.010505318798744454,-0.15431288406204405,-0.024405649160498186,0.009096068715986314,0.09307456228399763,-0.25129491248459945,-0.09544466469590968,-0.032220581437612895,-0.10447667658995248,0.1366972580275647,-0.19313131815984283,0.2855653122244057,-0.05105328708902056,-0.20837684178241148,-0.23733052530090196,0.04496788900438166,-0.029017740340434573,0.026071126531030334,0.043174297989961107,-0.5146325074945889,0.01185051205955941,0.025814899243255918,-0.19402811366705383,-0.10735923357741282,0.4747251074237483,-0.26359382229776357,-0.2711525272871039,-0.3573089528011966,-0.275188107069549,0.24130204826140386,0.11331651801816367,0.22317396765137418,-0.488689494607445,-0.2817219029077923,0.33232679224320644,0.34795665679743515,0.3591025438156167,-0.11299623390844608,0.11978625703446344, ],
[ -0.14169369013916275,0.18576478363633397,-0.4809386191522746,0.05393584407648158,0.07699629997616123,0.1514303270745839,0.010441261976800639,-0.2167682854570193,-0.36538011236608653,0.23118107039432043,-0.026839808394352932,0.4116291378093385,0.15597836143257665,-0.02632735381880481,-0.559408226033138,-0.11485388174480879,-0.08923115296738326,0.0415088206194294,-0.3204122233617044,0.1625762140927649,0.44782124220745106,-0.3677502147779982,-0.15264740669151092,-0.07065467460374909,0.013451932608147782,0.1651384869705067,0.5198211100720168,0.2781347208789522,-0.304654245163587,0.11075424514042125,-0.13413498514982106,-0.07923828874418802,0.10409233565829025,0.09256210770845003,-0.15642675918618262,-0.00755870498934053,0.27358668652095885,0.11543039314230204,-0.5143762802068148,0.29139448302126975,-0.1575797819811675,0.17852636275671185,-0.10210657417804012,-0.04990026429403683,-0.21875404693726944,-0.06745183350657277,-0.2760208457548145,0.0998005285880711,-0.19165801125514165,0.055985662378674354,0.19095338621376293,-0.17391427157677383,-0.23342305916234482,-0.07123118600124251,-0.25686785599368966,0.2301561612432231,0.015886091842003066,0.12029871161001207,-0.1211314502952784,0.04791450281378537,-0.3329033036406986,-0.3784477040425721,0.22131631981501237,-0.0866688800896408, ],
[ -0.2562272877742535,0.12106739347333435,0.23938034360309593,0.4594795838011798,-0.13509583747897486,-0.1575797819811662,0.09858344897114447,0.3339282127917963,0.12894638257239271,-0.2772379253717431,0.17730928313978372,-0.1181848364858748,-0.05098923026707653,0.17442672615232288,-0.03849814998808264,0.02888962669654716,-0.11863323423947901,-0.5496715890977184,0.2005619095052968,-0.44282481009585384,0.17545163530342014,-0.36108830529586666,-0.24450488935858164,-0.08385037992412499,-0.3115723819334919,-0.03644833168588727,0.11152292700374344,-0.1403484968783472,-0.32540865547330194,0.007174364057678878,-0.14476841759245407,-0.04311024116801864,-0.11792860919809928,-0.30913822269963687,0.13272573506706367,0.017679682856423365,0.02395725140689208,0.06924542452099161,-0.04746610506018053,0.18602101092410803,-0.07891800463447055,0.1345833829034265,0.015693921376172863,-0.10082543773916885,-0.4617856293911482,-0.2203554674858575,0.29229127852847914,0.10396422201440365,-0.2935083581454072,0.24117393461751663,0.08250518666331016,-0.22381453587081013,-0.17378615793288743,0.056818401063940566,0.1347755533692574,0.489522233292712,-0.20190710276611123,-0.226248695104666,-0.1074873472212995,-0.18813488604824521,-0.25270416256735717,0.017359398746705716,-0.4294369343096494,0.055857548734787335, ],
[ 0.1069748926457512,-0.1731455897134518,-0.07360128841315403,-0.18691780643131758,0.016718830527270065,-0.010569375620687686,0.1459214403874378,-0.27570056164509643,0.1812167492783415,-0.03375794516425732,-0.0367686157956059,-0.03920277502946029,-0.3261132805146818,0.03779352494670279,-0.09115285762569042,0.10223468782192734,0.10159411960249232,-0.08782190288462619,-0.2768535844400808,-0.31727343908647027,0.03465474067146809,-0.49676065417233395,0.0687970267673871,-0.09518843740813498,-0.1650744301485622,0.2988250743667231,-0.17634843081062995,-0.10671866535797733,0.0010889659730406176,-0.19851209120310398,0.03683267261754854,0.057138685173658534,-0.023060455899682423,-0.21228430792096903,0.1942843409548275,0.005572943509089455,-0.17045520319182214,0.00883984142821158,0.10716706311158086,0.15649081600812567,0.24482517346829843,-0.3492377932363076,0.3311097126262785,0.13336630328649918,0.30189980182001475,-0.26673260657299774,-0.599315626103979,-0.018512421541689507,-0.2656436405999577,-0.2762770730425889,0.07827743641503436,-0.1935797159134477,-0.2246472745560762,-0.20030568221752285,-0.3171453254425819,0.25475398086955175,0.04394297985328356,-0.15700327058367344,-0.17935910144197809,0.2772379253717428,0.05906038983196547,0.18307439711470433,-0.13496772383508793,0.0825692434852523, ],
[ -0.05694651470782847,-0.049772150650148526,-0.1715441691648641,-0.2946613809403909,0.031323785930402345,-0.025302444667707702,0.22471133137802035,-0.33757945164257946,-0.40170033040808667,-0.24053336639808082,0.31996382560809883,-0.07757281137365522,-0.26199240174917454,-0.0828895275949708,-0.21081100101626685,0.3867110340732921,0.4345614800651341,0.03939494549529133,-0.1575797819811669,0.10652649489214591,-0.2725617773698618,-0.2562913445961978,-0.2241988768024718,-0.1439356789071864,-0.0733450611253802,0.2585973901861643,-0.020498183021939956,-0.09185748266706939,0.15251929304762385,-0.04278995705830067,0.1560424182545204,0.14066878098806523,0.03772946812475817,0.08115999340249491,0.22041952430780212,-0.16334489595608698,-0.058676048900303424,0.028761513052659667,-0.16763670302630485,-0.25238387845764004,0.012939478032598657,-0.1429107697560896,-0.20190710276611154,0.03523125206896029,0.15777195244699702,-0.3621132144469629,-0.1710957714112573,-0.2769816980839687,0.03561559300062158,-0.26186428810528695,-0.00980069375736552,-0.03151595639623263,0.2767895276181378,-0.4473087876319032,0.058804162544192115,0.1603342253247382,0.19152989761125477,0.24578602579745198,0.06194294681942623,0.2832592666344369,-0.7486320780544249,-0.058547935256416495,-0.11030584738681581,-0.11997842750029378, ],
[ 0.2259924678168914,-0.05457641229591671,-0.023829137763006273,-0.20158681865639427,-0.5069456888613608,-0.2668607202168846,0.1874943178288098,-0.23239815001124864,0.04170099108525915,0.24392837796108974,-0.08103187975860807,-0.24796395774353305,0.10287525604136316,0.15930931617364166,-0.04535222993604279,0.012875421210655592,0.2155512058400912,-0.042469672948583316,-0.00768681863322777,0.1404766105222344,0.11940191610280189,0.1965263297228523,-0.08557991411660108,-0.2090814668237911,0.11677558640311599,-0.15245523622568058,-0.13644103073979053,0.045800627689648335,0.0006405682194355611,-0.3944619095284638,-0.003651238850782801,0.0900638916526505,-0.15111004296486563,-0.4649244136663828,0.27268989101374985,-0.10370799472662966,0.016911000993101045,0.00794304592100219,0.03721701354920931,0.18544449952661624,-0.16878972582128932,0.20056190950529731,0.12465457550217378,-0.2126686488526305,0.02306045589968313,-0.00032028410971777013,-0.04048391146833253,-0.13765811035671807,0.16629150976549065,-0.04080419557805019,-0.26737317479243344,-0.10428450612412149,0.11792860919809985,0.009800693757364918,0.07802120912725993,-0.1314445986281922,0.031323785930402595,0.013900330361753093,-0.21202808063319553,-0.2835795507441551,0.1752594648375904,-0.12036276843195572,-0.2625048563247221,0.10710300628963765, ],
[ 0.23086078628460263,-0.11972220021251997,0.05028460522569735,-0.1915939544331979,-0.12907449621628006,0.003651238850783354,-0.0646973901629992,0.09723825571032921,-0.13977198548085545,0.03061916088902239,0.13099620087458666,0.05022054840375371,-0.04144476379748583,0.0665550379993626,-0.18480393130717995,-0.2042131483560808,-0.34084634956170046,-0.06610664024575713,-0.06706749257491082,0.22913125209212687,-0.013515989430092005,0.34340862243944276,0.16859755535545864,0.18025589694918648,0.03145189957429032,-0.18864734062379446,-0.07244826561817005,0.18371496533413975,0.11024179056487246,0.03311737694482255,-0.3509673274287835,-0.139771985480855,-0.08583614140437419,-0.14092500827583967,0.14399973572913027,0.14060472416612163,0.20690353487771002,-0.06207106046331312,-0.15245523622568094,-0.22938747937990073,0.17993561283947032,0.27019167495794993,0.08948738025515798,-0.011786455237615992,0.09409947143509398,-0.15219900893790653,0.037985695412533264,0.19684661383256957,-0.04029174100250157,-0.3235510076369387,-0.035103138425072386,-0.11748021144449478,0.021587148994980664,0.20101030725890265,0.1315727122720791,0.014733069047019506,-0.24002091182253288,0.37838364722062856,0.2108750578382103,0.015373637266454498,0.0927542781742801,0.07814932277114707,0.2923553353504239,-0.025622728777425424, ],
[ 0.17622031716674286,-0.36371463499555307,0.019281103405013367,-0.33514529240872365,0.3108037000701698,0.057587082927263285,0.03190029732789506,0.2933802445015206,-0.008391443674606706,-0.07353723159121135,0.08660482326769811,-0.07609950446895347,-0.21849781964949475,-0.04983620747209241,-0.11914568881502706,-0.040483911468332474,-0.10434856294606515,0.18512421541689794,0.05284687810343977,0.1093449950576628,-0.017231285102818746,0.05092517344513308,-0.08827030063823026,-0.09467598283258666,-0.013259762142317751,0.10242685828775767,0.13131648498430423,0.014669012225076144,-0.09691797160061132,-0.10044109680750771,-0.056882457885884474,-0.019665444336674248,0.10665460853603298,-0.23457608195732926,-0.014989296334793754,-0.09512438058619146,0.18486798812912364,0.05547320780312567,0.015501750910342407,-0.1597577139272473,-0.03945900231723541,0.19402811366705314,-0.25308850349901874,0.048106673279616194,-0.20619890983633007,0.058099537502811,-0.12106739347333437,0.17513135119370224,0.04887535514293837,-0.05617783284450497,0.4237358771566712,-0.43975008264256227,0.14489653123634053,0.2024195573416609,0.08519557318493912,-0.09474003965453062,-0.3892733069510345,0.07725252726393805,0.11594284771784955,-0.26955110673851496,-0.1349677238350875,0.058419821612529337,0.04189316155108986,-0.05214225306206046, ],
[ -0.3368107697792562,0.11344463166205049,-0.3088179385899184,-0.06290379914857953,-0.06373653783384563,-0.09819910803948308,0.017551569212536932,0.3924120912262693,0.032028410971781454,-0.0023060455899677652,0.19524519328398163,0.02338074000940114,-0.09301050546205406,-0.09743042617615945,-0.00384340931661418,-0.020882523953600962,0.0010889659730405113,0.19454056824260163,-0.2025476709855476,0.25231982163569583,0.24578602579745235,0.11177915429151716,-0.6178280476456681,0.10864037001628297,-0.03004264949153104,-0.23912411631532152,-0.12958695079182936,-0.3870313181830093,0.3042058474099828,-0.0028185001655166436,0.024918103736046464,0.052398480349834624,-0.06770806079434631,-0.07360128841315425,-0.23335900234040186,-0.19928077306642533,0.14111717874167048,-0.35115949789461504,-0.28883221014352733,-0.045160059470212566,0.03459068384952573,-0.11113858607208266,-0.07827743641503405,-0.22676114968021416,-0.14835559962129316,0.13419904197176494,-0.01390033036175315,-0.11286812026455846,0.11619907500562367,-0.2002416253955789,-0.025622728777425087,-0.006533795838242771,-0.06757994715045915,-0.09550872151785267,-0.03939494549529161,-0.05105328708901909,0.16366518006580477,0.21017043279683087,-0.4372518665867636,-0.054448298652028757,-0.2763411298645322,-0.17570786259119475,0.17449078297426737,0.09224182359873148, ],
[ 0.29165071030904377,-0.3087538817679758,-0.7504256690688437,0.27512405024760506,0.22150849028084224,0.24476111664635555,0.14073283781000914,-0.031067558642628626,-0.027544433435732055,0.067900231260177,-0.09416352825703869,0.09813505121753933,-0.09807099439559536,-0.08942332343321378,0.08231301619747912,0.06879702676738665,-0.11088235878430776,-0.09140908491346528,-0.1664836802313218,-0.34987836145574414,-0.22138037663695506,-0.040996366043880475,-0.08083970929277731,0.04720987777240523,-0.26237674268083494,-0.06834862901378076,-0.1914017839673674,0.07251232244011391,0.11209943840123618,0.06642692435547481,0.0376654113028151,-0.44551519661748373,0.0001921704658307804,0.20818467131658083,-0.07552299307146204,0.45749382232092983,-0.11094641560625114,-0.20081813679307106,-0.570233828941601,0.0115302279498414,-0.2960065742012059,0.07526676578368727,0.02491810373604662,0.2202914106639141,-0.49419838129459237,0.013644103073978224,-0.16059045261251384,-0.43770026434036785,-0.34789259997549266,0.021651205816924313,-0.08929520978932651,-0.019665444336673263,-0.16167941858555512,0.292931846747916,-0.5145684506726446,0.2778144367692343,-0.2989531880106106,0.10601404031659739,0.10281119921941816,0.2572521969253508,0.348276940907155,0.025046217379933542,0.12625599605076498,0.15315986126706022, ],
[ -0.24930915100434864,-0.15661892965201288,0.004355863892162016,0.17064737365765226,-0.009288239181817681,-0.15296769080122968,-0.03843409316613746,0.14809937233351814,-0.5433940205472486,-0.2015868186563938,0.023957251406892956,-0.11306029073038909,-0.25712408328146336,0.024149421872723703,0.10249091510970149,0.12772930295546603,-0.2946613809403919,0.10088949456111236,-0.0014733069047029477,0.23207786590153026,0.23880383220560442,-0.19896048895670757,-0.38427687483943557,-0.011081830196235622,-0.040612025112219355,0.10889659730405786,0.07475431120813893,0.19742312523006275,0.011914568881502012,-0.20126653454667603,-0.02792877436739451,0.10197846053415247,-0.07770092501754293,0.2576365378570117,0.12798553024323908,0.21683234227896228,0.024405649160497263,-0.10018486951973331,-0.41438358115291224,-0.2814656756200174,0.031387842752345706,-0.22221311532222188,-0.027031978860183267,0.13419904197176552,-0.1295869507918286,-0.3348890651209495,0.06975787909654062,-0.03798569541253249,0.02530244466770782,0.13054780312098138,0.46748668654412523,-0.045544400401873825,-0.1466901222507597,0.1240780641046825,0.05227036670594751,-0.12926666668211054,-0.38395659072971844,-0.4782482326306441,0.13836273539809701,0.027800660723506315,0.13041968947709445,0.042854013880243624,-0.010569375620687722,0.3404620086300385, ],
[ -0.10806385861879188,0.3193873142106075,0.3231026098833331,-0.1787185332225427,-0.4952232904456902,-0.036063990754225644,-0.05355150314481917,-0.38908113648520526,0.05822765114669876,0.12241258673415131,-0.37223419231404636,-0.14239831518054077,-0.19864020484699094,-0.06770806079434598,-0.2575084242131243,-0.01383627353980983,0.3882483977999376,-0.37473240836984484,-0.1628964982024816,-0.3127894615504201,0.10697489264575019,0.1971028411203457,0.046825536840745315,0.16116696401000558,0.3481488272632661,-0.0758432771811788,0.1335584737523295,-0.09269022135233561,0.20235550051971668,0.24713121905826768,-0.011914568881501532,0.28806352828020454,-0.04650525273102689,0.11715992733477659,-0.10069732409528256,-0.029594251737926163,-0.2901133465823971,-0.06283974232663608,-0.30593538160245926,0.30202791546390134,0.3182342914156239,-0.37409184015041075,0.08967955072098906,0.3183624050595097,0.13067591676486887,-0.01486118269090771,-0.27089629999932996,0.2897930624726804,0.1495726792382212,0.4268106046099628,0.14425596301690466,-0.3532733730187529,-0.05028460522569775,-0.1566829864739552,-0.29370052861123885,-0.5688886356807854,-0.34257588375417725,0.03452662702758092,-0.5605612488281232,0.2846685167171956,-0.6485112653566352,-0.1559143046106332,0.0757792203592357,0.2554586059109303, ],
[ -0.42821985469272067,0.05912444665390854,0.137786224000605,-0.05303904856927043,-0.004868318467710388,0.09012794847459374,0.01255513710093887,0.27685358444008146,-0.27480376613788743,0.4188035018670171,0.22817039976297346,0.09506032376424829,-0.07661195904450235,0.07007816320625909,0.10063326727333775,0.10697489264575165,-0.18518827223884202,-0.1336225305742738,-0.40688893298551493,-0.07808526594920452,-0.3137503138795732,-0.08340198217051989,0.11056207467458969,-0.3247680872538666,-0.2489888668946312,0.2610315494200208,-0.0807756524708339,0.32521648500747086,-0.3357218038062156,-0.1742345556864931,-0.05604971920061811,-0.30625566571217655,-0.050220548403752924,0.08660482326769763,0.016014205485890404,-0.1648822596827319,0.21138751241375925,-0.018832705651408432,-0.2167042286350765,-0.0057010571529770545,-0.07033439049403316,-0.22112414934918118,0.14841965644323526,0.2231739676513748,-0.02504621737993312,0.17141605552097583,0.1454089858118889,-0.1305478031209819,-0.1026830855755322,-0.3477644863316049,0.4114369673435073,0.01274730756676961,0.18345873804636606,0.34629117942690385,0.361088305295867,0.23982874135670132,0.11812077966393093,-0.2883838123899227,0.11299623390844497,-0.0985193921492003,0.416497456277049,0.16616339612160352,0.2789034027422757,0.010185034689026385, ],
[ -0.10454073341189567,0.09160125537929532,-0.21965084244448024,-0.08513151636299575,-0.360319623432545,0.1178004955542132,0.026903865216296688,-0.04650525273102831,-0.16981463497238763,0.07353723159121082,0.06533795838243439,0.27031978860183775,0.19319537498178682,-0.3311737694482225,0.3739637265065236,0.05771519657115102,0.13765811035671857,-0.20959392139933938,-0.2426472415222181,-0.5458922366030471,0.02786471754545026,0.07007816320625865,0.17173633963069346,-0.259237958405601,0.09185748266706971,-0.08090376611472046,-0.03747324083698514,-0.0010889659730398526,0.2644906178049734,0.1805761810589053,-0.17455483979621014,0.292355335350423,0.09819910803948215,-0.4787606872061929,0.042597786592468705,0.12555137100938465,0.12811364388712734,-0.08308169806080118,-0.22125226299306802,0.17865447640059803,-0.10063326727333803,0.17711711267395253,0.17301747606956464,0.03708889990532306,0.08128810704638233,0.28357955074415464,-0.06444116287522432,-0.1356723488764679,-0.283899834853872,0.18025589694918714,-0.4066327056977399,-0.513671655165435,0.24469705982441223,-0.10582186985076625,0.04246967294858289,-0.10281119921941875,0.09845533532725748,-0.16001394121502166,0.00544482986520305,-0.1878146019385279,-0.13970792865891127,-0.0039074661385568605,0.06296785597052311,-0.39913805753034376, ],
[ 0.1037079947266291,0.011850512059559747,-0.16821321442379708,-0.10402827883634706,-0.05841982161252954,0.009224182359874104,0.1549534522814797,-0.06123832177804662,0.11651935911534192,0.003074727453290896,-0.12420617774856928,0.06533795838243447,0.1259357119410457,0.08115999340249488,-0.2564194582400845,-0.020754410309714887,-0.0011530227949842486,-0.2085049554262993,-0.0458006276896473,-0.21952272880059168,-0.4668461183246899,-0.07360128841315497,0.0648895606288291,-0.10703894946769468,0.07911017510030086,0.19543736374981127,0.04516005947021277,0.16347300959997346,-0.15034136110154328,0.24540168486579098,0.22163660392472995,-0.09102474398180373,-0.07308883383760534,0.08276141395108434,0.060469639914724344,-0.2731382887673543,-0.0364483316858876,-0.3200278824300426,0.382995738400566,0.241814502836952,0.10287525604136238,0.17615626034479992,-0.29491760822816604,-0.2480280145654774,0.16507443014856318,0.06886108358933062,0.18813488604824513,-0.07597139082506629,-0.24424866207080695,-0.23592127521814357,-0.05271876445955299,0.17237690785012932,0.05054083251347128,-0.12119550711722198,0.2184337628275514,0.023765080941061806,-0.09269022135233589,0.14553709945577553,-0.16436980510718294,0.12228447309026297,-0.017423455568648667,-0.20504588704134652,0.07878989099058287,0.10537347209716141, ],
[ 0.05002837793792245,-0.09640551702506302,-0.20312418238303864,-0.03612804757616892,0.08596425504826208,-0.3569246118695349,-0.17019897590404762,-0.03036293360124867,0.09403541461315165,-0.08359415263635028,0.05367961678870555,-0.09236993724261808,0.04797855963572891,0.08077565247083376,-0.6898279155102338,0.08884681203572244,0.10639838124825945,0.23214192272347312,0.11402114305954314,-0.1863412950338266,0.14848371326518,-0.05201413941817389,-0.34033389498615263,-0.021523092173037474,-0.19454056824260268,0.16526660061439433,-0.15476128181564924,-0.07725252726393769,-0.07930234556613143,-0.007622761811284583,0.328291212460762,0.16193564587332795,0.021779319460811623,0.16661179387520808,0.34488192934414524,-0.2961346878450936,-0.017743739678367645,-0.3461630657830162,0.14643389496298603,0.20799250085075036,-0.00467614800188035,0.1111385860720829,-0.17263313513790385,-0.26673260657299785,-0.04778638916989823,0.21721668321062326,-0.11933785928085835,-0.3826113974689042,0.11203538157929226,-0.0033309547410647674,-0.24674687812660615,-0.14015632641251574,0.13016346218932084,-0.35000647509963073,0.14649795178492947,0.10530941527521821,0.12459051868023047,-0.10345176743885488,-0.1623840436269335,0.24693904859243646,0.06168671953165175,-0.0461209117993661,-0.02325262636551402,-0.17628437398868618, ],
[ -0.05995718533917537,0.1210673934733347,-0.12145173440499622,-0.24066148004196838,-0.10159411960249182,-0.1209392798294473,0.008007102742945495,-0.11562256360813174,0.06565824249215259,-0.20273984145137797,-0.45281767431904946,0.12670439380436826,0.21651205816924426,-0.09134502809152166,-0.09691797160061104,0.1780139081811627,0.01799996696614131,-0.04106042286582405,-0.13099620087458716,0.007110307235736079,-0.13778622400060472,0.09512438058619226,-0.08461906178744684,-0.14707446318242157,-0.3407822927397582,0.0866688800896414,-0.11901757517114117,0.23464013877927273,0.013772216717865878,0.14675417907270363,0.36140858940558473,0.26410627687331184,-0.13644103073978953,-0.03913871820751699,0.09640551702506292,0.017423455568649437,-0.059572844407514106,-0.20927363728962256,0.16955840768461164,0.1334944169303862,0.018512421541689156,0.0031387842752346154,-0.07142335646707357,0.15437694088398835,-0.549031020878282,-0.11626313182756773,-0.05925256029779647,-0.1929391476940126,0.014284671293414557,0.1514303270745845,0.27288206147958044,-0.06501767427271661,-0.11030584738681648,0.03395011563008821,-0.07641978857867136,-0.03138784275234619,0.037024843083379,-0.12311721177552822,-0.16065450943445772,-0.20478965975357213,-0.16033422532473873,0.14662606542881595,-0.23105295675043294,0.00032028410971745745, ],
