import numpy as np

weights_dense1_w = np.array([
[ 0.30014776195956094,0.543261951935047,0.03889277318431912,0.19116553886710125,0.26235443112673945,-0.0054972117575010915,-0.27980807845680533,0.06115648080219939,-0.025699464966317725,-0.17536105506428512,0.10334758104102036,-0.22167506412123159,0.09853752075320707,-0.09207829693814135,0.3123790581200018,-0.01690392615431565,-0.3312070083894415,-0.13756772423146574,0.08259560665645453,-0.14059119069809023,0.015941914096753933,0.31457794282300006,-0.09359003017145567,0.06899000755663924,0.1614805953765947,0.04205366994488294,0.0031608967605632706,0.4973602337599127,0.4709736173239073,0.1289096157134007,0.010307272045314744,0.12918447630127636,0.16134316508265892,0.10953194426820899,-0.03957992465400781,0.34192657131656845,0.040954227593384046,-0.3875534289038289,0.09235315752601765,-0.0831453278322046,0.046314009056947464,0.25617006789955077,-0.03504472495406996,0.03848048230250812,0.029135222314754537,0.3658394424616976,-0.06995201961420155,0.3075689978321854,0.2716996911144919,-0.30853100988974913,0.28090752080830683,-0.1782470912369732,0.27486058787505446,0.22497339117573284,-0.12354983424983738,-0.17041356448253372,-0.20092308973666498,0.05263580257807314,-0.3427511530801937,0.1324828033557766,-0.07311291637476433,0.275272878756867,0.13468168805877667,0.050024626993259685,0.36432770922838675,0.5596161569136133,-0.18127055770359912,-0.30605726459887356,0.08548164282914308,0.35292099483157074,-0.014567611157377237,0.4867781011267224,0.14361465716471666,0.3742226903918867,0.27499801816899394,-0.17962139417634715,0.1640917709614097,-0.03751847024494426,-0.24366391115123628,-0.12506156748314987,-0.2607052675994893,0.25424604378442683,0.5711603016043644,0.24105273556642248,0.3285958328046291,0.01882795026944212,0.010169841751376772,0.11241798044089765,0.43716576501527504,0.011956435572565129,-0.02886036172688066,0.30138463460499787,0.610190505082623,0.2609801281873648,0.17494876418247213,0.08603136400489392,0.13440682747090105,0.1544716503857807,0.1584571289099701,0.01126928410287742,0.06459223815063869,0.12794760365583768,-0.07764811607470487,0.46094120586646653,-0.16422920125534557,-0.2913522231475581,0.26730192170849054,-0.07380006784445237,0.08905483047151713,-0.12808503394977716,0.2457253655602997,0.19350185386403998,-0.013605599099815416,0.31375336105937657,0.27252427287811687,0.09785036928352014,0.1569453956766573,0.030372094960193732,0.20161024120635349,0.15818226832209323,0.2270348455847964,-0.12588614924677455,0.13399453658908952,0.10911965338639726,-0.029135222314755238,0.14141577246171572,0.20394655620329122,0.3672137454010733, ],
[ 0.7693347854622768,0.0479631725841948,-0.36364055775869725,-0.17948396388241242,-0.1989990656215384,0.05950731727494811,-0.4073433912308318,0.7194475887629554,0.31251648841393664,-0.9199583876178097,-0.05593412963257413,-0.41545177857314436,0.6864643182179503,-0.007421235872624111,0.6007078148009299,0.4003344462400187,-0.24036558409673595,0.34783607395588084,-0.13921688775871585,0.7369012360930213,0.04040450641763312,-0.3422014319044425,0.11049395632577103,-0.3930506406613302,0.620497777127936,-0.24764938967542555,0.37422269039188566,0.5491714545743592,0.1902035268095386,0.132482803355777,-0.43922721942433984,0.36240368511326204,0.15667053508877976,-0.32309862104712544,0.8291169633251019,-0.4628652299815949,-0.5046440393386011,-0.00041229088181180245,0.6423491938640028,-0.5766575133618652,0.4099545668156441,-0.4008841674157656,-0.4076182518187061,-0.6400128788670649,0.3368416504408793,-0.05194865110838342,0.11351742279239997,0.04356540317819844,-0.28049522992649245,-0.15983143184934598,0.4353791711940863,-0.6009826753888072,-0.33285617191668965,0.3863165562583879,-1.1214311985302248,0.03367042201469435,-0.07338777696263903,-0.6001580936251816,0.9969193522228257,-0.00948269028168787,-0.5104161116839783,0.5609904598529853,1.1803887946294218,-0.05662128110226183,0.05112406934475973,-0.3937377921310166,0.049200045229633685,0.17714764888547396,0.16271746802203085,0.27760919375380366,-0.2644158855358033,0.27609746052049383,0.5673122533741144,0.6993827658480771,1.1376479732148526,0.09427718164114444,-0.21782701589098089,-0.025012313496629232,-0.13688057276177654,-0.19281470239435036,0.0672034137354505,-0.36391541834657115,1.1619731352417915,0.06225592315369963,-0.26221700083280336,-0.5579669933863615,0.4922753128842214,0.7450096234353363,0.06266821403551114,0.432767995609274,-0.4239724567972717,0.11475429543783562,-1.2470424871891221,0.6393257273973788,-1.2011407690139868,-0.11434200455602338,0.5189367899081031,-0.0013743029393739805,0.9695707237292539,-0.4465110250030267,-0.07256319519901491,0.23734211763010857,-0.3446751771953177,0.03339556142681794,-0.04480227582363517,0.7206844614083926,0.7643872948805283,-0.07256319519901232,-1.0909216732760918,0.5523323513349239,0.2822818237476819,0.7595772345927118,0.395524385952203,-0.1514481839191537,-0.41394004533983264,-0.19570073856703976,-0.13371967600121418,-0.5763826527739897,0.29355110785055744,1.0290780410042026,-0.7191727281750813,-0.8622376641640459,-0.4047322156460173,0.6874263302755095,0.08823024870789313,0.6270944312369356,0.2583689526025519,-0.8769427056153632, ],
[ 0.05387267522351036,-0.00700894499081281,-0.5488965939864858,-0.221125342945481,-0.5018954334598512,-0.3799947627372635,-0.33381818397425467,-0.05153636022657298,0.3878282894917033,-0.23541809351498422,-0.04933747552357291,0.08823024870789209,-0.4344171591365259,0.1859431876974757,-0.20394655620329,0.2135666767789175,-0.15790740773421982,-0.3417891410226321,-0.32749639045312845,-0.01965253203306628,-0.1995487867972896,-0.15598338361909364,0.12286268278014997,-0.3597925095284479,-0.21906388853641956,-0.05854530521738575,-0.09881238134108243,-0.39744841006733056,-0.0647296684445752,-0.02198884703000465,-0.3624036851132607,-0.22717227587873245,-0.05524697816288633,-0.3009723437231858,-0.33849081396813085,0.12011407690139961,-0.17110071595222257,-0.288466186974871,-0.15186047480096831,-0.27266170317205524,-0.15131075362521837,-0.3876908591977652,-0.5516451998652365,-0.27760919375380566,-0.1932269932761639,-0.3140282216472507,-0.09372746046539412,-0.10870736250458495,0.10568389603795886,-0.07572409195957834,-0.13055877924065126,-0.4149020573973964,-0.145538681279842,0.125611288658899,0.058682735511324385,-0.08644365488670466,-0.23940357203917223,-0.20188510179422808,-0.025562034672380954,0.3749098418615755,0.011269284102877399,-0.07008944990813917,-0.2597432555419272,0.1195643557256492,0.16656551625228347,0.14526382069196678,-0.007558666166564889,0.11722804072871118,-0.2976740166686853,-0.07572409195957715,-0.4313936926698988,-0.021026834972441462,-0.09029170311695597,0.13248280335577697,-0.1271230218922131,0.25108514702386325,-0.003023466466625012,-0.18869179357622493,0.15405935950396868,0.1790716730005983,-0.10128612663195795,-0.19831191415185268,-0.035182155248007205,-0.2635913037721785,-0.019515101739128113,0.0497497664053851,0.04507713641150868,-0.02432516202694221,-0.048650324053885634,-0.3437131651377567,6.379445582904708e-16,-0.06926486814451281,-0.1761856368279094,-0.30440810107162425,-0.2868170234476202,0.11269284102877365,-0.10266042957133328,-0.13990403922840425,-0.08039672195345361,-0.24545050497242457,-0.0035731876423752834,0.07132632255357627,-0.31018017341699944,-0.5194865110838548,-0.02569946496631771,0.2502605652602376,0.16189288625840703,0.1742616127127855,0.13564370011634075,-0.27541030905080593,-0.044252554647884246,-0.08053415224739141,-0.28118238139618196,0.10307272045314625,-0.35127183130432105,-0.18374430299447342,-0.0019240241151251584,-0.2359678146907352,-0.06005703845069917,-0.10527160515614581,-0.20985605884260497,-0.10595875662583344,-0.15076103244946712,-0.3498975283649451,-0.13784258481934042,-0.35608189159213444,-0.1426526451071532,-0.004947490581751007, ],
[ 0.019377671445191626,-0.7250822308143963,-0.5123401357991029,-1.0014545519227656,-0.31650196693812527,0.9692958631413813,0.17536105506428418,0.9566522760991301,0.2285465788181071,0.4139400453398313,-0.028310640551132586,0.060469329332510716,0.2400907235088614,-0.4239724567972715,-0.3019343557807487,-0.18030854564603538,-0.28283154492343215,0.5721223136619269,0.44596130382727667,-0.29066507167787026,0.3097678825351878,-0.7921482142559075,0.2913522231475576,0.5269077469564798,0.3450874680771325,0.04356540317819494,-1.058213263318962,0.14595097216165412,0.6527938962032557,0.6279190130005639,-0.471798199087534,0.05359781463563665,-0.8056163830617866,0.3057824040109995,0.09455204222902049,-0.4069311003490209,-0.25864381319042706,-0.33546734750150453,0.5686865563134891,-0.35635675218000984,-0.19157782974891455,-0.323648342222876,0.03985478524188424,0.5509580483955469,-0.6936106935027012,0.45489427293321694,1.0114869633802042,0.28214439345374565,0.15433422009184272,-1.2594112136435025,-0.8890365714818662,0.265927618769115,0.16450406184322244,-0.07270062549295292,-0.5936988698101203,-0.331481868977315,-0.8890365714818649,0.14924929921615623,-0.2798080784568042,0.5847659007041803,0.5368027281199814,-0.737450957268772,-0.4219110023882082,0.12025150719533495,-0.6342408065216895,0.06871514696876199,0.17412418241884695,-0.7573783498897156,-0.26056783730555244,0.1671152374280339,-0.8226577395100396,0.9233941449662466,-0.0824581763625163,0.2967120046111232,-0.5846284704102408,0.442525546478838,0.20325940473360435,-0.10540903545008358,-0.450908794409028,0.26785164288424074,0.24297675968154986,-0.42534675973664837,-0.24654994732392435,-0.2952002713778092,-0.22882143940598332,-0.31361593076543914,-0.7407492843232747,0.4083054032883945,-0.7393749813838976,0.2913522231475581,-1.3271643485547044,-0.34728635278013253,0.08163359459889014,0.3365667898530045,-0.1341319668830262,-0.5259457348989174,-0.4219110023882102,0.06156877168401215,-0.5744586286588659,0.11063138661970848,0.5509580483955474,0.6538933385547554,-0.0015117332333117687,-0.38604169567051533,-0.38507968361295236,-0.8994812738211192,0.5291066316594825,0.46836244173909397,-1.1226680711756638,0.5612653204408633,0.1522727656827811,-0.3413768501408177,-0.8267806483281666,-0.20724488325779142,-0.21150522236985653,0.14375208745865514,0.44335012824246467,0.9730064810776939,-0.5326798193018577,0.5016205728719754,-0.3482483648376944,0.3015220648989348,-0.16546607390078447,-0.3865914168462647,0.009620120575626855,-0.7856889904408467,-1.0127238360256394,0.45242052764234036, ],
[ 0.4256216203245232,0.8166108065767878,0.15914428037965653,1.2792011759705062,-0.4100919971095817,0.04411512435394676,0.04067936700550889,1.1801139340415492,0.4672629993875948,-0.6005703845069951,-0.049749766405383936,0.9606377546233168,0.17206272800978442,0.8410733988976657,1.8286474911327417,-0.6038687115614945,0.16464149213715762,0.4815557499570964,0.8058912436496604,-0.559203866031798,0.8964578073544904,-1.0213819445437047,0.7014442202571405,0.09798779957745696,0.6275067221187502,0.9978813642803859,0.4965356519962866,0.7194475887629561,0.8263683574463515,-0.7083157349540159,-0.585315621879927,-0.6386385759276917,1.119094883533286,0.8370879203734789,0.3509969707164436,0.1001866842804589,0.2396784326270475,-1.0858367524004036,0.409404845639894,-0.553844084568237,-0.7719459610470923,-1.1596368202448573,-0.24874883202692538,0.7873381539680941,-0.9561025549233803,-0.6521067447335693,0.23596781469073289,-1.5903433614450684,-1.0404847554010208,0.009345259987752031,-0.19322699327616455,-0.3416517107286934,-1.2621598195222534,-0.15227276568278042,-0.42878251708508563,0.4704238961481539,0.5520574907470481,-1.2749408368584436,-0.006596654109001454,-0.8651237003367361,-0.5238842804898552,-0.707903444072203,-0.6018072571524322,0.2967120046111234,0.7942096686649719,0.9485438887568157,-0.028722931432942456,-0.3684506180465105,1.5140695483097395,0.3026215072504354,0.9558276943355037,-0.5615401810287373,-1.1343496461603506,-0.4529702488180891,1.1097496235455346,-0.0028860361726880525,0.2002359382669773,0.02501231349662986,-0.7735951245743418,-0.3872785683159514,-0.42988195943658697,0.1640917709614072,0.6132139715492496,-1.24498103278006,0.33436790515000475,-0.1350939789405887,-0.019102810857315012,0.21686500383341797,0.591499985107116,0.5340541222412317,-0.9830388925351331,-0.38686627743413987,-0.5380396007654201,0.40033444624001696,-0.45118365499690577,1.2851106786098183,-1.7571837382852231,-0.5987837906858091,0.3196628636986892,-0.05249837228413513,0.5899882518738043,-1.2815374909674424,-0.7113392014206424,0.025699464966317084,0.6758821855847597,-0.39689868889157853,-1.0990300606184058,-0.3307947175076291,-0.7359392240354589,-1.2199687192834305,0.6045558630311819,0.9743807840170702,-0.08726823665032919,-0.1067833383894596,0.32667180868950346,0.39717354947945377,0.3251600754561897,-0.42136128121245886,0.12959676718308805,0.8850510929576761,0.6169245894855608,0.4289199473790234,-0.14842471745253136,1.3583610252785203,0.6428989150397526,-0.22483596088179444,0.7604018163563385,-0.5253960137231698, ],
[ 0.4220484326821489,0.25232201966929946,-1.0848747403428425,0.039717354947946065,-0.8053415224739117,0.02143912585425422,1.1461686514389793,0.20738231355172854,-1.4923555618676108,-0.48347977407222,-0.6225592315369994,-0.8744689603244891,-1.2110357501774927,0.23074546352110784,-0.6666743558909456,-0.5392764734108586,-0.5851781915859913,-0.3061946948928105,-0.1862180482853492,-0.4043199247642054,-0.5418876489956713,0.1849811756399124,0.014430180863439876,-0.6481212662093797,-0.2211253429454834,-0.7206844614083935,-0.3893400227250166,-0.27994550875074375,0.2189264582424805,0.9416723740599384,0.34714892248619444,0.2487488320269251,0.1679398191916587,1.1608736928902934,0.4800440167237838,0.11255541073483614,0.15941914096753196,-0.6101905050826222,-0.193639284157977,0.24091530527248733,-0.23390636028167044,0.06527938962032648,-0.023912871145129275,0.21123036178197993,0.43826520736677566,0.8050666618860365,0.7649370160562771,-0.3810942050887635,0.7182107161175187,-1.3176816582730122,0.6430363453336918,0.2732114243478062,0.18264486064297558,0.2069700226699179,-0.7983325774830973,0.7946219595467836,1.1204691864726608,1.566430490299939,-1.2831866544946957,0.5901256821677442,-0.6600777017819431,1.418555494023159,0.6184363227188737,-1.2812626303795707,-2.0112923517757144,-0.7397872722657103,-0.1305587792406494,-0.1217632404286485,-0.04562685758725933,0.2218124944151679,1.4964784706857364,-1.4516761948621015,-1.1982547328413016,0.6505950115002552,0.0035731876423736684,-0.9441461193508139,-0.11516658631964584,0.23060803322717094,-1.275490558034191,-1.0503797365645242,0.9787785534230717,-0.22442366999998234,-0.18498117563991237,0.4693244537966565,0.7187604372932698,-0.7375883875627097,0.5435368125229209,0.43235570472746127,0.486915531420659,-0.7107894802448926,0.15337220803428128,-0.09317773928964364,-0.657466526197131,-0.18539346652172453,-0.636027400342877,0.8792790206123006,-0.22923373028779542,0.012231296160439034,0.9477193069931893,-0.21329181619104176,0.21370410707285536,0.4520082367605301,1.789892148242358,0.664750331775821,0.8483572044763575,1.0131361269074535,0.6431737756276295,0.41586406945495774,-0.052773232872011515,0.49337475523572344,-1.3197431126820762,0.21920131883035585,-0.3257097966319412,-0.6431737756276293,-1.6183791414083253,0.24586279585423698,-0.5696485683710505,-1.2764525700917533,0.21562813118798135,0.35649418247394576,-0.960088033447567,-1.1116736476606595,0.8633371065155485,1.1399842882117917,0.22840914852416974,0.46753785997546954,0.6670866467727579,1.0132735572013916, ],
[ -0.0015117332333129563,-0.9041539038149923,1.0090132180893263,-0.5699234289589269,0.4811434590752837,-0.09125371517451639,-1.3380213417757658,-0.1309710701224635,-0.6217346497733733,0.862512524751922,0.028997792020819712,-1.0898222309245917,0.49158816141453554,-0.12423698571952728,-0.29602485314143506,-0.12602357954071267,-0.520173662553541,0.1352314092345278,0.11942692543171111,-0.3373913716166291,-0.21878902794854435,0.6886632029209495,-0.5838038886466163,0.16821467977953491,-1.0777283650580896,1.220381010165243,1.4394448987016624,0.08575650341701752,0.22703484558479536,-0.2732114243478038,-0.697183881145075,-0.5128898569748523,0.5462854184016698,-0.39827299183095466,-0.8612756521064827,0.668873240593945,-0.2483365411451127,0.432905425903213,-1.520253911536927,0.5682742654316757,0.9457952828780644,-0.2956125622596219,1.0087383575014504,-0.25768180113286415,1.0487305730372714,0.6192609044824978,0.1680772494855953,0.45214566705446635,-0.5018954334598492,-0.3371165110287558,0.5564552601530488,0.01415532027556492,0.5636016354377984,-0.12808503394977297,0.39277578007345276,0.44458700088789993,-0.8952209347090536,-0.3946998041885795,0.4793568652540955,1.1930323816716746,0.03641902789344476,0.9352131502448736,-0.3733981086282609,-0.8820276264910497,-0.190753247985289,-1.0184959083710172,0.3709243633373865,0.85028122859148,-1.1746167222840456,-0.10101126604408087,-2.0677762025840356,-1.0701696988915257,0.24654994732392457,-0.2872293143294306,0.2701879578811778,-1.1744792919901088,0.3130662095896847,-0.22236221559091918,-0.26029297671767626,0.7209593219962688,0.34811093454375674,0.5076675058052246,-1.0973808970911552,-0.11035652603183403,-1.3932683199386535,0.2285465788181084,-0.37339810862826145,-0.09468947252295581,0.00013743029393907362,-0.2972617257868718,-0.27156226082055523,0.4855412284812847,0.47317250202690475,0.5115155540354772,-0.14526382069196753,-0.9161103393875584,0.10554646574402354,0.17110071595222193,-0.07022688020207563,-0.023088289381504562,-0.04356540317819628,0.8468454712430441,1.3080615376973859,-0.177147648885472,-0.16422920125534535,0.3413768501408188,0.5882016580526166,-0.33134443868337765,0.3284584025106904,0.4062439488793328,0.45984176351496564,-0.041778809357008215,0.2843432781567463,-0.5822921554133035,0.837225350667417,-0.08287046724432832,-0.03751847024494566,0.2443510626209238,0.2755477393447432,-0.5296563528352275,-0.4208115600367111,0.08259560665645402,-0.11997664660746148,-0.6753324644090097,0.1749487641824733,0.12313754336802515,0.7367638057990831,0.6078541900856838, ],
[ -0.9342511381873099,1.3207051247396382,-0.45365740028777635,-0.22593540323329428,-0.9775416807776331,0.5238842804898535,-1.1842368428596735,0.5440865336986717,2.221698131794068,1.0885853582791554,0.24998570467236175,-0.0874056669442683,-0.04933747552357293,-0.3123790581199996,0.00027486058787564924,0.06472966844457465,0.553019502804611,-1.8135301587996124,0.10595875662583518,0.26510303700548987,-0.07586152225351442,0.07448721931414021,0.2712874002326796,0.14443923892834148,0.0435654031781959,1.327164348554703,-0.46822501144515627,-0.27458572728718017,0.48664067083278395,-1.1009540847335333,-1.3344481541333924,-0.06637883197182676,0.33354332338638065,-0.28846618697487014,0.14911186892221717,-1.1824502490384858,0.5761077921861161,0.504506609044663,1.3619342129208973,-1.248416790128499,0.5965849059828068,-0.4019836097672673,0.19680018091854157,-0.7972331351315969,-0.7270062549295204,-0.07572409195957887,-0.8190845518676642,2.357066971322533,0.23459351175135795,0.23459351175136042,-0.5678619745498642,-0.8849136626637388,0.23679239645436112,-0.09413975134720577,-0.2697756669993656,-0.9291662173116226,-0.6299804674096254,-1.137922833802727,1.4395823289955998,0.6603525623698203,-0.3419265713165681,-1.7764239794364791,-0.5877893671708045,0.9099259761603694,0.1096693745621479,-0.15241019597671795,0.1404537604041538,1.8315335273054307,-0.4896641372994096,-0.6037312812675588,-1.8801838513593128,1.2451184630739982,0.34728635278013104,-0.3446751771953189,0.48155574995709605,1.134624506748227,-0.8849136626637382,1.8140798799753617,1.3110850041640112,0.9319148231903737,-1.4553868127984153,-0.29726172578687204,-1.285797830079508,0.14100348157990283,-1.0132735572013907,-0.12712302189221392,-0.1793465335884734,-0.0788849887201408,0.27912092698711927,-0.047138590820572604,0.5337792616533579,1.4842471745252972,0.4507713641150899,-0.20614544090629133,-0.0699520196142027,-1.7980005355846715,-0.2593309646601147,0.7094151773055155,0.16739009801590846,0.5552183875076118,0.2532840317268622,-1.7108697292282797,-2.0896276193201055,-0.12093865866502343,-0.7507816957807111,0.10224813868952033,-1.591992524972319,0.9808400078321319,0.14952415980402814,-1.006402042504515,0.34811093454375797,-0.49351218552966103,-0.17013870389466004,0.50189543345985,-0.1445766692222786,-0.9321896837782482,0.5655256595529268,0.7767560213349062,0.5930117183404311,0.705017407899517,0.3768338659767014,0.23143261499079584,0.3699623512798236,-0.20765717413960316,-0.22923373028779664,-0.01882795026944025,-1.3890079808265898,0.4610786361604045, ],
[ 0.25218458937536375,-0.010169841751377487,-0.2993231801959331,-0.3743601206858241,-0.6268195706490621,0.25630749819348797,0.19047838739741288,0.45022164293933914,0.3758718539191381,0.46959931438453206,0.8087772798223486,-0.33739137161662985,-0.6657123438333831,-0.05277323287201195,-0.27637232110836774,-0.4789445743722839,0.5685491260195517,0.4052819368217685,-0.00852067822412608,-0.1007364054562082,-0.7337403393324595,-0.0020614544090617358,-0.2598806858358654,0.652656465909318,-0.13454425776484022,-0.2501231349662994,0.01003241145743937,0.024600022614817158,-0.2756851696386809,0.15007388097977953,-0.15337220803428037,-0.5369401584139207,-0.3009723437231844,-0.32598465721981446,-0.08603136400489274,0.4822429014267843,-0.31334107017756213,-0.3384908139681294,0.619948055952185,0.8836767900183023,0.3523712736558206,-0.051536360226571834,0.15021131127371964,0.7155995405327059,0.26592761876911497,-0.29836116813837255,-0.17261244918553448,0.04370283347213405,-0.27857120581136924,0.12973419747702686,0.4037702035884558,0.591087694225307,0.36625173334351174,2.177995298321936,-0.14388951775259107,0.26867622464786556,-0.7426733084383977,-0.3777958780342627,-0.4665758479179049,0.22840914852417127,0.5517826301591715,-0.09194086664420559,0.01855308968156565,-0.1313833610042776,-0.3703746421616362,0.19157782974891394,1.4162191790262215,0.03586930671769649,0.14279007540109157,-0.2561700678995525,-0.6974587417329516,0.19322699327616252,0.24874883202692458,0.3000103316656221,-0.5787189677709287,-0.08204588548070503,-0.34027740778931703,-0.382880798909952,0.1917152600428509,-0.3269466692773778,-0.21507841001223058,0.06912743785057707,0.04109165788732042,-0.061981062565824835,-0.5214105351989791,0.28365612668705653,0.16051858331903163,0.2635913037721767,1.324140882088077,-0.3000103316656231,-0.3749098418615738,-0.1770102185915358,-0.5192116504959776,0.42740821414570984,0.21988847030004405,-0.6993827658480776,0.10018668428045728,-0.218101876478857,0.5493088848682962,0.7384129693263363,-0.30798128871399993,0.855641010055045,-0.31361593076543726,-0.13316995482546357,0.08383247930189223,0.6931984026208883,0.11241798044089751,0.22497339117573156,0.03738103995100737,0.016766495860377418,0.18965380563378836,-0.1819577091732867,-0.03009723437231903,-0.010169841751378219,-0.358967927764822,-0.15337220803428028,0.44788532794240316,0.2851678599203702,0.5563178298591112,0.7568286287139623,-0.5017580031659102,0.16903926154315949,0.008245817636250992,0.4077556821126442,0.11764033161052272,0.47413451408446944,-0.20806946502141574,0.9555528337476289, ],
[ -0.23775440851192298,-1.012174114849889,0.13591856070421818,0.3617165336435737,-0.6967715902632626,0.04810060287813373,0.24352648085729725,-0.15227276568278045,0.6097782142008094,-0.5509580483955472,1.4240527057806598,0.9679215602020074,-0.48993899788728557,-1.2602357954071282,-0.9001684252908047,0.9247684479056231,-0.13014648835883771,1.07401774712178,-0.6449603694488164,-0.5324049587139812,-1.2118603319411179,-0.09743807840170551,0.4078931124065808,0.1756359156521604,0.1074704898591446,-0.6207726377158092,-0.8291169633251015,-0.10224813868952046,-0.0116815749846899,-0.31127961576850227,0.5543938057439872,-0.0612939110961375,-0.7983325774830974,-0.07531180107776499,1.152078154078295,-0.4829300528964722,0.30330865872012347,-0.38961488331289085,0.15474651097365386,-0.21961360971216745,0.08946712135333156,-0.7403369934414629,-1.0384233009919575,-0.7599895254745265,0.677531349112011,0.3610293821738848,-1.065084778015839,0.26317901289036366,0.8726823665032979,-0.319800293992625,0.01195643557256558,-0.4819680408389082,-1.2856603997855696,0.4466484552969628,-0.30248407695649676,-0.6609022835455702,-0.015254762627064992,-0.20765717413960444,-0.10719562927127017,-0.31746397899568785,0.8194968427494765,-0.334780196031817,-0.6923738208572641,-0.08754309723820783,0.07544923137170201,-0.3353299172075681,0.4752339564359707,-1.834556993772054,0.5395513339987341,0.5560429692712358,0.42727078385177286,-0.1695889827189103,0.3808193445008878,0.4077556821126423,-0.9360377320085013,-0.9672344087323208,-0.8172979580464763,-0.6901749361542644,0.36061709129207226,-0.5647010777893013,0.03229611907531907,-0.2068325923759776,0.5425748004653598,0.4367534741334618,0.6620017258970713,0.03160896760563181,1.4148448760868466,-0.1932269932761653,0.5648385080832367,-0.18401916358234954,-0.5853156218799285,-0.1001866842804578,-0.6602151320758816,0.4032204824127063,-0.3033086587201231,-0.0031608967605635118,0.8494566468278568,1.048593142743336,-0.3213120272259398,-0.09496433311083095,-0.06060675962644902,0.6637883197182571,-0.25658235878136404,1.9521973253825802,-0.2031219744396655,0.09070399399876822,0.7429481690262739,0.43730319530921086,0.22318679735454494,0.5201736625535412,-0.7708465186955928,0.30317122842618666,0.9830388925351343,-0.426858492969962,0.15172304450703092,-0.8409359686037331,-0.6970464508511396,-0.46162835733615454,-0.1421029239314034,0.30935559165337234,-0.38068191420694963,0.2781589149295546,1.0101126604408273,0.2218124944151717,0.5106909722718511,0.11365485308633641,-1.2201061495773693,0.48141831966315973, ],
[ 0.34055226837719277,-0.5677245442559269,0.4562685758725906,0.06500452903245002,0.04260339112063252,-0.061706201977950646,0.13907945746477782,0.4815557499570966,0.24545050497242432,0.40816797299445684,-0.019789962327004217,-0.27417343640536773,-0.01030727204531438,0.3409645592590069,0.24627508673604903,0.5516451998652355,-0.37133665421919954,0.40157131888545544,0.6199480559521869,0.5064306331597895,0.06582911079607616,-0.03889277318432035,-0.4028081915308931,0.11461686514389748,-0.39483723448251645,0.16780238889771998,0.27939578757499334,0.4401892314819006,0.8750186815002376,-0.2510851470238628,-0.3000103316656232,0.12959676718308885,-0.07957214018982889,-0.07819783725045365,0.012781017336190326,-0.5482094425167982,-0.2181018764788562,-0.44458700088790254,-0.40679367005508027,0.23473094204529735,0.4418383950091502,0.26043040701161546,-0.09097885458664386,0.28159467227799395,-0.3283209722167526,0.2976740166686848,-0.1754984853582225,-0.3683131877525735,-0.350996970716446,-0.0978503692835197,0.6220095103612494,-0.0997743933986453,0.006734084402939084,0.13701800305571446,0.033532991720756605,0.07792297666257843,0.5879267974647431,-0.05675871139619887,-0.19363928415797682,0.912262291157308,0.32323605134106553,-0.8692466091548622,-0.24270189909367398,-0.24146502644823536,0.586140203643555,0.17879681241272277,0.3514092615982574,-0.025012313496630394,-0.022675998499692245,0.5480720122228602,0.2657901884751783,0.7950342504285988,0.0324335493692562,-0.3608919518799476,0.13399453658908925,-0.028310640551129612,0.41929982680339617,-0.13591856070421476,-0.25562034672380163,-0.150486171861593,0.06459223815063767,0.721096752290207,-0.2541086134904898,-0.690449796742138,-0.17632306712184873,0.1323453730618382,-0.0691274378505761,0.31086732488668745,0.26276672200855283,0.5721223136619277,0.2303331726392962,0.5001088396386627,0.3454997589589444,0.6723089979423847,-0.30495782224737367,0.3668014545192606,0.252047159081426,-0.3514092615982575,0.17013870389465896,0.6082664809674964,-0.2442136323269869,-0.19336442357010147,-0.7569660590079021,-0.14279007540109132,-0.15158561421309275,0.06775313491120111,0.2539711831965509,0.1722001583037223,-0.2631790128903657,-0.13495654864665202,0.4779825623147207,0.20793203472747898,-0.14361465716471697,-0.05909502639313651,0.4830674831904094,0.3629534062890097,0.10321015074708279,-0.458467460575593,0.4313936926698985,0.18223256976116217,-0.5369401584139207,0.4157266391610201,0.5684116957256142,0.6319044915247514,0.09771293898958154,-0.1772850791794108,-0.06459223815063812,-0.03985478524188325, ],
[ 1.114834544421222,-0.5273200378382933,-0.2396784326270475,-0.934800859363063,-0.27664718169624364,0.35676904306182033,0.4954362096447849,-0.07806040695651482,-0.18580575740353716,-0.5009334214022881,-0.05689614169013608,0.2942382593202466,0.12671073101039906,-0.7069414320146412,-0.4025333309430182,0.6622765864849439,0.09276544840783137,-0.5358407160624182,1.0624736024310246,0.2049085682608527,-0.9407103620023761,-0.1884169329883495,0.23857899027554735,-0.02075197438456725,-1.2374223666134971,-0.01786593821187886,-0.8644365488670483,0.31265391870787507,0.8302164056766029,-0.3328561719166924,1.1663709046477941,-0.9210578299693092,-0.025974325554192646,1.193032381671676,0.31705168811387735,-1.2838738059643817,0.3492103768952578,-0.22414880941210902,-1.344343135296893,-0.07434978902020219,0.8063035345314741,-0.5978217786282451,0.2127420950152926,0.19528844768522644,-2.3661373707224094,-0.16780238889772067,0.02171398644212981,-0.8660857123942979,0.02322571967544197,-0.824169472743352,0.15295991715246846,0.9117125699815577,-1.3117721556336979,-0.05071177846294636,-1.0800646800550289,-1.3138336100427617,0.5111032631536636,-0.18195770917328608,0.6573290959031937,0.8572901735822964,-0.8856008141334268,-0.9730064810776939,-0.6369894124004408,-0.3177388395835662,0.4810060287813463,0.8325527206735417,0.24036558409673625,0.965722675499005,0.6390508668095038,0.2686762246478658,0.7392375510899598,-0.9937584554622615,0.8904108744212386,0.3831556594978265,0.6694229617696961,-0.24696223820573782,0.3931880709552669,-0.11544144690752457,-0.011131853808939983,0.20518342884872737,-0.21686500383341817,0.22978345146354526,0.23871642056948483,-0.7694722157562167,0.31045503400487556,1.2346737607347458,-0.23692982674829705,-0.40569422770358116,-0.9239438661419959,0.57913125865274,0.41545177857314447,0.5668999624922995,0.021026834972441417,0.7428107387323363,-1.0538154939129591,0.2542460437844255,0.9069025096937419,0.3709243633373875,0.8259560665645398,0.665849774127319,-0.5227848381383533,-0.40596908829145606,-0.8006688924800357,-0.037518470244943175,-1.461158885143791,0.3740852600979485,0.8586644765216718,0.48980156759334725,-0.43331771678502495,-0.32199917869562794,-0.7454219143171482,1.1474055240844176,0.44335012824246267,-0.11021909573789819,0.23706725704223328,-0.7895370386710966,0.3552573098285094,0.6327290732883757,0.3916763377219527,-0.7709839489895299,0.7641124342926539,0.9460701434659378,0.5394139037047948,-0.10087383575014344,0.6525190356153796,-0.04315311229638393,-0.2325320573422973,-0.6062050265584312, ],
[ -0.3857668350826392,-0.5866899248193052,0.05964474756888762,-0.5592038660317998,0.3357422080893805,0.09207829693814154,0.2640035946539912,-0.2749980181689929,-0.07723582519288964,-0.330794717507631,-0.011819005278627918,-0.3740852600979466,0.2908025019718073,0.1590068500857168,-0.3329936022106309,-0.9203706784996206,-0.1257487189528377,-0.0990872419289581,0.19666275062460134,-0.008658108518064495,0.21713986442129216,-0.22181249441516987,0.38617912596445153,0.19253984180647432,0.16354204978565778,-0.2847555690385579,0.2613924190691762,-0.4568182970483416,-0.08314532783220385,0.22827171823023368,0.18924151475197643,0.4217735720942722,-0.8126253280526028,-0.22249964588485568,-0.8002566015982241,-0.18608061799141326,0.3542952977709448,-0.6504575812063162,0.30413324048374846,-0.17357446124309786,0.5741837680709904,-0.38274336861601355,0.385217113906888,-0.77098394898953,0.1816828485854094,0.12162581013471079,-0.12313754336802486,-0.06761570461726349,-0.3839802412614497,-0.006321793521125956,-0.3740852600979494,0.3610293821738842,-0.1526850565645939,-1.7942899176483582,-0.9058030673422439,0.5127524266809131,-0.6593905503122558,-0.1438895177525914,0.41723837239433387,-0.5447736851683583,0.48265519230859477,0.8680097365094229,0.025699464966317434,-0.6259949888854363,0.14622583274953008,0.8783170085547396,-0.14814985686465507,-0.14457666922227833,0.3850796836129517,-0.27307399405386695,-0.031608967605629514,-0.2997354710777472,0.13674314246783933,-0.15392192921002973,0.7944845292528459,-0.19913649591547755,0.05455982669319633,0.213978967660729,-0.29217680491118314,0.04755088170238486,0.6626888773667566,-0.7194475887629567,-0.2919019443233065,-0.01992739262094229,-0.38824058037351444,0.5663502413165509,-0.2399532932149227,-0.018965380563378435,-1.114559683833348,0.7298922911022081,-0.18979123592772357,0.08342018842007909,-0.06308050491732624,0.14182806334352815,-0.2773343331659299,0.10128612663195777,-0.6758821855847594,0.9328768352479373,0.2899779202081824,-0.6051055842069331,-0.554393805743988,0.07146375284751252,-0.24764938967542569,-0.7775806030985313,0.46630098733003095,0.15804483802815725,0.352783564537634,-0.41091657887320693,-0.12162581013471131,-0.7839023966196572,0.16697780713409638,0.6584285382546928,0.5222351169626053,-0.9889483951744485,-0.5791312586527413,-0.8359884780219802,-0.19377671445191472,-0.1517230445070314,-0.23253205734229682,0.1745364733006596,-0.3130662095896882,0.1312459307103389,0.09991182369258227,-0.1613431650826579,-0.46478925409671806,0.6360274003428762,0.48609094965703453,0.543949103404733, ],
[ 0.7391001207960226,-1.615355674941697,-0.2831064055113072,0.6224218012430612,-0.18965380563378756,-0.8725449362093635,0.20916890737291693,-0.034632434072256545,-1.0035160063318265,0.05401010551744778,-0.08053415224739228,0.5079423663931024,0.4019836097672682,1.0488680033312094,-0.19020352680953978,-0.10403473251070718,-0.27266170317205407,-0.15680796538272038,-0.05662128110226136,-1.2185944163440556,0.1864929088732236,-0.28077009051436846,0.5001088396386615,-0.2297834514635465,0.23280691793017202,-0.8802410326698655,-0.7369012360930244,0.7795046272136571,-0.6639257500121947,0.4318059835517111,-0.20119795032453963,-0.020751974384566624,1.6116450570053855,-0.381231635382701,0.24283932938761274,0.08080901283526369,1.121980919705975,-0.46410210262702983,-0.4478853279424024,-0.29588742284749703,0.5862776339374937,-0.9060779279301179,0.28516785992037014,-0.24792425026330037,0.46259036939371667,0.2990483196080608,0.8663605729821744,0.9473070161113802,-0.37683386597669866,-0.7889873174953469,0.17824709123697413,0.14498896010409204,0.4138026150458962,0.8028677771830366,0.042191100238819605,0.17687278829759645,-0.39992215535820475,0.9023673099938074,-0.123549834249836,-0.0038480482302499074,0.8186722609858508,0.4664384176239682,-0.20161024120635174,-1.0980680485608472,-0.02611175584813028,-0.028310640551130917,-0.14375208745865406,0.09785036928352069,0.6681860891242584,-0.7965459836619104,-0.015941914096752302,-0.46863730232696776,-0.5637390657317374,-1.3837856296569648,-0.1618928862584076,0.5308932254806692,0.6317670612308138,-0.40720596093689376,-0.46822501144515544,0.3889277318432031,0.9717696084322576,0.44197582530308877,-1.4009644163991557,0.3129287792957512,-0.8127627583465371,-0.858664476521673,0.7000699173177656,-0.6019446874463713,0.7408867146172111,-0.5413379278199208,-0.2017476715002885,-0.7289302790446459,0.43689090442739975,0.32543493604406465,-0.6581536776668198,0.6101905050826215,-0.9609126152111913,0.6779436399938249,0.5299312134231073,-0.14182806334352724,0.7605392466502777,0.4107791485792693,-0.3982729918309553,0.6433112059215678,1.1420457426208528,0.5031323061052881,-0.40761825181870576,-0.4014338885915172,-0.9113002790997456,-0.1562582442069681,0.7300297213961463,-0.13385710629515185,0.1914403994549757,-0.28929076873849563,0.22030076118185613,-0.030646955548069097,0.24545050497242424,0.09400232105326896,0.5483468728107354,-0.9045661946968073,0.005084920875688901,-0.6060675962644978,0.2673019217084916,0.1283598945376519,0.1495241598040292,0.5340541222412322,0.15474651097365477,-0.056758711396198196, ],
[ 0.07146375284751388,-0.1756359156521594,-0.36212882452538514,-0.01662906556644104,-0.5115155540354771,-0.18237000005509887,0.47097361732390597,-0.7004822081995778,-0.48842726465397274,-0.03312070083894554,-0.7377258178566476,0.3536081463012588,-0.23940357203917248,0.09702578751989424,-0.48045630760559604,-0.018690519975503698,0.4301568200244605,0.02295085908756557,0.43496688031227415,-0.08328275812614212,0.08039672195345367,-0.14979902039190485,0.12492413718921269,0.4550317032271527,0.10238556898345866,-1.1109864961909723,-0.053048093459886723,-0.7117514923024554,-0.35113440101038185,-0.34385059543169294,0.4127031726943943,-0.5117904146233521,-0.25562034672380146,-0.024187731733003644,0.1433397965768414,-0.6544430597305066,-0.02844807084506778,-0.13770515452540244,0.1231375433680255,0.1499364506858411,-0.029272652608694206,0.4517333761726536,0.46149092704221667,-0.25245944996323866,0.24998570467236234,-1.0047528789772628,0.3519589827740079,-0.18511860593384843,0.19226498121860178,-0.13316995482546498,-0.41751323298220927,0.44073895265765,-0.4438998494182138,0.43482945001833534,-0.020202253208817623,0.31677682752600056,-0.12945933688915046,0.25534548613592595,-0.15186047480096676,0.34412545601956823,0.3258472269258768,0.15213533538884264,0.28874104756274477,-0.1473252751010288,0.7746945669258423,-0.912262291157307,-0.43716576501527604,-0.18759235122472517,0.26015554642373945,0.3914014771340786,0.26070526759949,-0.3438505954316941,-0.17975882447028593,0.1723375885976604,-0.15117332333127945,0.3912640468401407,0.41490205739739483,-1.0020042730985117,0.17797223064909845,0.2788460663992433,0.5774820951254901,-0.6078541900856846,-0.4034953430005807,-0.517287626380853,-0.35924278835269646,-0.14114091187384115,-0.24325162026942385,-0.08438220047764208,0.34989752836494514,0.14897443862827975,0.3140282216472501,-0.5601658780893618,-0.7778554636864055,-0.614725704782561,-0.11983921631352303,-0.065966541090013,0.5292440619534183,-0.27101253964480326,-0.4935121855296615,-0.044664845529696864,-0.621047498303687,-0.12629844012858893,-0.5521949210409846,-0.20642030149416618,0.02212627732394143,-0.4155892088670834,0.5024451546356006,-0.31636453664418707,-1.1478178149662297,-0.6283313038823756,-0.1242369857195251,0.059644747568886644,-0.3292829842743157,0.36185396393751024,0.2565823587813636,0.3602048004102595,-0.25424604378442606,-0.24119016586036118,-0.8820276264910518,0.43496688031227443,0.06335536550520081,0.21768958559704404,-0.3914014771340778,-0.43702833472133795,-0.021301695560316275,-0.5352909948866706,-0.4407389526576504,0.07091403167176386, ],
[ 0.10678333838945808,-0.12176324042865015,-0.6750576038211363,-0.4077556821126437,-1.0098377998529522,0.07091403167176485,0.4089925547580831,-0.49213788259028457,-0.6067547477341828,-0.3283209722167529,0.09716321781383404,-1.2937687871278865,0.25259688025717425,0.7017190808450143,-0.2127420950152913,0.7495448231352753,0.6529313264971924,-0.5292440619534166,0.5499960363379846,0.4037702035884555,-0.03738103995100679,-0.8531672647641716,0.11544144690752417,0.5102786813900402,0.6096407839068726,-1.338571062951518,0.4345545894304609,-0.7448721931414001,0.6602151320758811,-0.8575650341701703,-1.457997988383229,-1.266282728340378,0.33175672956519003,-0.7281056972810205,0.10870736250458361,-0.6415246121003775,-0.24709966849967469,-0.6184363227188738,-0.16409177096140598,-0.2306080332271719,-0.5324049587139834,1.3869465264175271,0.6735458705878211,-1.2760402792099426,1.0665965112491507,0.07132632255357725,-1.0032411457439518,0.2329443482241096,0.5208608140232291,0.6195357650703752,-0.526632886368608,-0.35223384336188396,-0.5241591410777291,0.018278229093689886,-0.9405729317084369,1.7134809048130926,-0.648396126797255,0.48938927671153565,0.10637104750764557,-0.7623258404714649,0.16546607390078497,0.8633371065155462,-0.061293911096137875,-0.3151276639987486,1.9721247180035184,-1.177915049338547,0.13729286364359108,-1.1691195105265482,-0.40803054270051925,0.41902496621552227,-0.22607283352723345,-0.33161929927125083,1.5693165264726259,0.23225719675442244,0.4030830521187655,-0.19157782974891316,2.211253429454815,0.449259630881778,1.2598235045253148,0.0707766013778258,1.1906960666747368,-0.5664876716104889,-0.3375288019105666,0.1951510173912902,-0.1774225094733476,1.0094255089711388,-0.5974094877464313,0.08355761871401789,0.6661246347151946,1.033338380116268,-1.0296277621799574,0.21123036178197974,-1.1450692090874783,-0.9670969784383807,-0.22428623970604492,0.6890754938027625,0.8943963529454299,-0.41806295415795963,0.015529623214938983,-0.10279785986526993,-0.13014648835883877,0.9339762775994384,0.46904959320878187,0.5326798193018569,-1.2228547554561198,-0.4345545894304621,0.7414364357929611,0.570198289546802,-0.5692362774892391,-0.3169142578199374,0.22730970617266974,1.231238003386308,0.16106830449478055,0.5124775660930393,0.5501334666319215,1.2635341224616279,-0.3604796609981341,-0.4377154861910239,-0.579680979828491,0.7961336927800979,-0.27417343640536795,1.2937687871278847,0.6720341373545096,-0.10293529015920849,0.7389626905020853,-0.3764215750948885,-0.7553168954806534,0.32955784486219125, ],
[ -0.5711603016043634,-0.1470504145131543,-0.296986865198998,-0.08108387342314258,-0.36831318775257404,0.4590171817513429,-0.31031760371093675,-0.44018923148190087,0.07421235872626496,-0.0568961416901362,-0.16945155242497267,0.436478613545587,0.16175545596446994,1.2944559385975705,0.668186089124259,-0.5490340242804217,-0.3619913942314477,-0.898794122351431,-0.2470996684996737,-0.3129287792957488,0.09922467222289494,0.25287174084505104,0.12423698571952467,-0.06198106256582501,0.027760919375379577,0.17494876418247216,-0.43799034677890086,0.0722883346111385,0.15708282597059384,0.05029948758113556,-0.5183870687323537,0.562914483968112,-0.11942692543171224,-0.016766495860377983,0.4326305653153366,0.14196549363746586,-0.12547385836496336,-0.1893789450459129,0.5330921101836686,0.22236221559092023,0.17508619447640905,0.359929939822386,-0.6631011682485702,0.2630415825964286,0.5100038208021638,0.07283805578688872,0.4199869782730844,-0.14361465716471758,0.576245222480053,-0.44032666177583757,0.5377647401775446,-0.1607934439069067,-0.4577803091059041,-0.11310513191058558,-0.6305301885853768,0.5102786813900393,-0.30110977401712224,-0.7401995631475224,0.4037702035884562,-0.32639694810162717,0.46052891498465437,-0.26840136405999176,-0.12313754336802506,0.4904887190630363,0.0666536925597011,0.36226625481932206,-0.09592634516839395,-0.5814675736496793,-0.2792583572810572,0.6978710326147658,-0.6100530747886851,-0.41366518475195824,-0.1087073625045837,0.4095422759338333,1.4129208519717205,0.20243482296997825,-0.14883700833434152,-0.17384932183097276,0.24971084408448718,0.048650324053884614,-0.056896141690136126,-0.10224813868952087,-0.5579669933863619,-0.520448523141417,-0.5325423890079183,0.019102810857316428,-0.25603263760561495,0.43469201972439936,1.1336624946906637,0.37917018097363875,-0.5186619293202289,0.7719459610470917,-0.3845299624372024,0.31155447635637346,1.3631710855663364,-0.502170294047726,-0.5891636701101796,0.8385996536067915,0.7102397590691413,0.01814079879975412,0.016491635272502053,-0.09029170311695521,0.06486709873851397,-0.4717981990875332,-0.4970853731720387,0.3262595178076901,-0.20078565944272608,0.5182496384384166,0.38700370772807746,-0.5484843031046727,0.45764287881196597,0.07599895254745315,0.8076778374708481,0.4463735947090886,-0.1202515071953372,-0.15639567450090572,0.14979902039190549,-0.06967715902632582,0.3812316353827005,0.416688651218583,-0.1728873097734086,0.8534421253520462,0.5745960589528016,-0.37807073862213936,1.209661447238117,-0.35250870394976014,0.9123997214512455,-0.05139892993263569, ],
[ 0.7347023513900204,-0.06706598344151275,-0.27101253964480343,-0.07682353431107916,-0.6948475661481395,-0.6026318389160581,-0.4491222005878387,-0.9989808066318872,-0.5647010777893003,0.057720723453761356,-0.40706853064295656,0.28214439345374387,0.8105638736435367,0.08864253958970456,0.018965380563378296,-0.4348294500183369,0.38260593832207646,-0.9243561570238087,1.110024484133409,-0.7884375963195938,0.18965380563378742,-0.050574348169008944,0.47372222320265645,-1.0022791336863874,-1.1835496913899872,1.1574379355418556,-0.25644492848742745,0.16642808595834568,-0.1687644009552841,-0.47166076879359414,-0.5969971968646188,-0.345087468077131,0.10128612663195745,0.09661349663808275,0.4805937378995353,-0.02831064055113155,-0.00728380557868836,0.02281342879363015,0.02143912585425426,1.0407596159888972,0.48815240406609706,-0.5673122533741128,-0.3099053128291246,-0.3977232706552032,0.2627667220085506,-0.4605289149846554,-0.552194921040986,0.07544923137170129,-0.10802021103489676,0.6041435721493719,0.25452090437230146,-0.23225719675442094,0.4282327959093359,1.0156098721983287,-0.2843432781567443,0.026249186142066814,-0.3454997589589431,0.0456268575872591,-0.2843432781567447,-0.15227276568278064,0.1749487641824722,-0.05126149963870016,0.0032983270544995505,1.2936313568339464,0.13069620953458813,-0.453382539699903,-0.8673225850397349,0.9808400078321332,-0.24338905056336077,0.6798676641089487,0.13481911835271584,-0.5781692465951788,-0.3342304748560662,-0.04961233611144667,-0.7400621328535858,0.5145390205021024,-0.6721715676484471,-0.5029948758113504,1.1408088699754149,-0.23706725704223633,0.06967715902632549,-0.9779539716594454,-0.16271746802203296,-0.6666743558909456,-0.5553558178015471,0.1559833836190941,-0.5002462699326008,-0.39621153742189197,0.5663502413165511,-0.06046932933251203,0.3240606331046894,0.7480330899019612,-0.47674568966928405,0.1099442351500219,0.4356540317819638,-0.4906261493569734,0.3433008742559436,0.7221961946417065,0.8849136626637392,-0.6220095103612497,-0.3022092163686233,-0.5755580710103659,-0.4609412058664676,0.07709839489895247,0.20435884708510238,0.9655852452050663,-0.4635523814512807,-0.2616672796570514,-0.14086605128596522,-0.444861861475776,0.2216750641212304,-0.15048617186159222,0.6053804447948087,0.442250685890964,0.788162735731719,-0.1672526677219713,-0.24201474762398562,1.1523530146661678,1.3672939943844598,1.2502033839496858,-0.14114091187383887,-0.4415635344212754,1.2030647931291152,-0.08053415224739158,0.34206400161050626,0.6129391109613712,0.6416620423943152,-0.7015816505510779, ],
[ -0.7617761192957146,-0.4280953656153988,0.39442494360070435,-1.3457174382362689,0.39098918625226636,-0.11928949513777447,0.4749590958480953,0.09812522987139487,-0.4333177167850235,0.09359003017145695,-0.1951510173912886,-0.7068040017207047,0.18003368505816197,-0.012093865866502074,-0.7212341825841438,-0.04411512435394622,-0.4429378373606508,0.3259846572198168,0.1503487415676559,0.4937870461175369,-0.04947490581750894,-0.4213612812124599,-0.10197327810164546,-0.3244729239865025,0.22730970617267104,-0.32323605134106387,0.2319823361665478,0.29794887725656,0.3621288245253852,0.4653389752724676,0.4389523588364625,-0.5068429240416014,0.015529623214941002,0.32035001516837586,-0.29712429549293506,0.2868170234476208,-0.006596654109001312,0.5101412510961028,-0.19556330827310126,0.41105400916714563,-0.3158148154684378,0.011131853808939919,-0.22153763382729402,0.009207829693813816,-0.4985971064053494,0.206282871200229,0.06912743785057508,-0.7327783272748973,-0.02226370761787975,-0.08603136400488987,0.0622559231537001,-0.1372928636435909,-0.0783352675443897,-0.26139241906917693,0.49859710640535054,0.048925184641760405,-0.3123790581200013,0.07462464960807708,-1.265733007164629,-0.005497211757501747,-0.16409177096140723,-0.20889404678504203,-0.13536883952846432,0.5741837680709913,-0.155296232149405,0.39222605889770407,0.18319458181872478,-0.4797691561359089,-0.48265519230859705,0.5150887416778538,0.31100475518062487,-0.3019343557807468,-0.7073537228964545,-0.09661349663808222,0.4346920197244002,-0.16175545596446952,-0.03751847024494452,-0.25218458937536314,-0.8596264885792344,0.055521838750760596,-0.023363149969379684,-0.25520805584198875,-0.5361155766502946,-0.2128795253092307,-0.6420743332761292,0.2027096835578531,-0.40651880946720725,0.30715670695037517,0.05909502639313663,0.40473221564601924,-0.6084039112614349,-0.326946669277378,-0.7656241675259666,0.3875534289038288,-0.15941914096753157,-0.3639154183465736,-0.06734084402938896,0.11928949513777384,0.24600022614817443,-0.5592038660318004,0.16546607390078333,0.4870529617145978,0.2656527581812394,-0.6489458479730048,0.08342018842007967,-0.37298581774645045,-0.2854427205082453,-0.09427718164114512,-0.061706201977950834,0.5521949210409854,-0.37793330832819966,-0.011956435572564844,0.25520805584198875,-0.45846746057559223,0.33546734750150525,-0.16931412213103364,-0.7375883875627106,-0.39882271300670435,-0.6013949662706203,-0.01195643557256397,-0.7980577168952225,-0.2868170234476204,-0.3361544989711926,-0.8218331577464145,0.0907039939987678,-0.24641251702998626,-0.25562034672380207,-0.46547640556640607, ],
[ 0.9005807161726186,-0.8281549512675414,-0.43716576501527676,0.4766082593753466,0.4623155088058417,1.105489284433472,2.1296198348559248,0.26812650347211653,-0.9728690507837583,0.8144119218737877,0.07998443107164005,-0.1440269480465279,0.2833812660991803,-0.06184363227188208,0.18168284858541253,-0.010444702339252907,-1.3321118391364533,-0.6985581840844536,0.5623647627923604,-0.1000492539865207,0.7183481464114579,-0.13536883952846404,0.86319967622161,0.9719070387261969,0.32502264516225216,-0.6556799323759436,-0.7035056746662015,0.45200823676052637,-0.20738231355172998,2.2832669034780824,1.2238167675136793,0.15900685008571958,0.8472577621248581,1.0087383575014508,-1.0716814321248405,0.7456967749050253,0.7626007010593387,1.4131957125595926,-0.17220015830372207,-1.4283130448927222,-0.10458445368645924,0.411328869755021,0.7939348080770982,-0.1743990430067212,-0.7356643634475825,-0.04438998494182196,-0.7155995405327047,0.4730350717329697,-0.1312459307103404,-0.670110113239383,-0.5244340016656057,-0.5095915299203516,-0.03875534289038062,-0.14361465716471572,0.33835338367419326,-0.7665861795835243,1.0505171668584596,0.6492207085608798,-0.4118785909307688,-0.34659920131044386,0.3094930219473139,0.41215345151864663,0.3573187642375722,1.6880563004346496,-0.5216853957868537,0.07737325548682669,-0.18223256976116115,-0.5392764734108577,0.2914896534414954,1.3326615603122034,0.9309528111328086,-0.13536883952846362,-0.11351742279239702,0.7884375963195953,0.14416437834046666,0.05675871139619975,-0.41476462710345624,1.0814389829944027,-1.294181078009695,0.9118500002754946,0.2799455087507448,-0.12217553131046097,-0.26359130377217865,0.8737818088547986,-0.5530195028046122,-0.19377671445191386,-0.06472966844457687,0.473859653496596,0.22964602116960922,-0.5185244990262918,-0.5444988245804846,0.6659872044212579,0.515913323441479,-0.12354983424983784,-1.487682931873733,0.7994320198345979,1.5697288173544375,-1.2371475060256245,0.24613765644211102,0.368175757458637,-0.8834019294304281,0.17316217036128542,0.8068532557072244,-1.0384233009919601,0.7943470989589095,0.5637390657317384,-0.5512329089834217,0.2102683497244169,-0.01896538056337879,0.8278800906796637,-0.1576325471463421,-0.21549070089404293,0.8376376415492274,-0.36886290892832274,0.15419678979790427,1.8674028340231263,0.295200271377811,0.16601579507653286,1.0839127282852798,0.6650251923636958,-0.6853648758664498,1.0316892165890204,-0.29492541078993495,-1.1072758782546588,1.042271349222209,-0.18772978151866312,0.1348191183527164,-1.1927575210838, ],
[ 0.1510358930373422,-0.2176895855970451,1.0643976265461499,-0.45365740028777923,0.7320911758052105,-1.0704445594794019,-0.000962012057562486,0.214391258542544,0.4377154861910254,-0.7342900605082099,-0.24283932938761035,0.6721715676484479,0.3437131651377567,-1.0403473251070818,-0.9621494878566306,0.18635547857928614,0.010307272045314706,-0.011819005278627382,-0.18470631505203775,-0.22840914852417118,-0.43606632266377543,-0.5137144387384781,-1.0191830598407035,-0.48609094965703425,1.0624736024310262,-0.46643841762396915,0.24119016586035982,0.4790820046662212,0.45695572734227724,0.2013353806184783,-1.0417216280464587,-0.39511209507039136,-0.8524801132944836,0.23211976646048366,-0.6670866467727599,-0.33051985691975394,-0.7840398269135948,1.00104226104095,-0.07050174078995092,-0.27266170317205496,-0.027486058787505423,0.9807025775381962,0.2553454861359271,-0.6100530747886841,-0.006596654109001543,0.02624918614206813,0.26702706112061814,0.9874366619411357,0.7726331125167784,0.06404251697488705,0.44513672206365085,-0.573771477189176,0.529381492247356,1.3516269408755819,-0.24297675968154986,0.27417343640536684,0.017591077624002464,0.1580448380281559,0.33849081396813235,0.021164265266378785,-1.1592245293630434,0.46973674467846893,0.0842447701837042,0.02350058026331634,0.6685983800060704,-0.016629065566439206,0.25836895260255294,-0.00013743029393687182,-0.773457694280404,-0.28654216285974654,0.036831318775255716,0.0905665637048312,-0.10678333838945851,0.1848437453459738,-0.1151665863196473,-0.51632561432329,-0.3738103995100756,-0.394562373894642,0.12822246424371214,0.29520027137780985,-0.009345259987752062,0.19996107767910312,0.5135770084445387,-0.07448721931413953,-0.48499150730553636,-0.24325162026942465,-0.37078693304344884,0.3485232254255697,1.1046647026698444,0.04892518464176067,-0.050024626993260435,-0.5204485231414173,-0.9379617561236253,-0.20806946502141557,0.4113288697550197,-0.16148059537659631,-0.00962012057562805,-0.09523919369870543,-0.5557681086833611,0.05057434816901084,-0.29520027137780935,-0.29121479285361973,0.48774011318428495,-0.4201244085670228,0.4063813791732688,-0.17041356448253336,0.23789183880586018,0.22167506412123192,0.1355062698224018,0.5563178298591107,1.2488290810103129,-0.8226577395100397,0.2556203467238013,-0.4985971064053518,0.18278229093691012,0.7709839489895277,-0.4900764281812218,-0.8803784629638006,-0.4088551244641444,0.18113312740965995,-0.7429481690262731,-0.10815764132883376,-0.37408526009795084,-0.00865810851806521,0.01607934439069052,-0.6574665261971308,0.18237000005509957,0.008383247930189321, ],
[ -0.8376376415492306,1.2537765715920623,0.2532840317268632,-0.08039672195345413,0.6547179203183815,0.35168412218613365,-0.03119667672381926,-0.5787189677709286,0.7411615752050836,0.7766185910409691,-0.662139156191007,-0.2964371440232463,0.29918574990199714,-1.5484271217941221,0.3204874454623149,-0.36638916363745044,0.04219110023882195,-0.8008063227739697,-0.20257225326391579,0.7881627357317185,-0.10609618691977024,-0.3048203919534359,-0.4749590958480941,-0.13097107012246265,0.9550031125718773,0.26730192170849193,-0.3412394198468805,0.7723582519289044,0.4881524040660966,0.020614544090628757,0.4724853505572204,0.18745492093078767,0.04315311229638378,-1.2308257125044957,0.7452844840232112,-0.36625173334350997,0.2181018764788564,1.197842441959488,0.06349279579913662,-0.7543548834230865,1.3973912287567796,-0.5178373475566054,-0.4225981538578964,-1.2980291262399448,-0.710102328775205,-0.7134006558297052,-0.5794061192406139,0.796958274543719,0.9548656822779388,-0.45544399410896624,1.091883685333656,-0.6099156444947441,-0.2677142125903029,0.8757058329699242,-0.11186825926514656,-0.4289199473790233,-0.2350058026331737,0.4623155088058421,-0.6272318615308763,-0.39016460448864043,-0.5556306783894216,0.25465833466623783,0.8938466317696778,-0.2754103090508067,0.5810552827678659,-0.06266821403551187,-0.6266821403551247,0.15818226832209392,-0.32186174840168785,-0.03861791259644636,0.670384973827258,-0.48251776201465907,-0.5451859760501719,-0.6085413415553728,0.2503979955541737,0.47303507173296955,0.47207305967540775,0.7970957048376581,0.8658108518064225,0.5963100453949313,0.5686865563134893,-0.935762871420624,0.7032308140783278,0.19144039945497462,0.6067547477341837,0.3797199021493891,0.0009620120575617639,-0.7145000981812064,0.47468423526021714,0.17398675212491002,0.44321269794852497,0.06665369255969927,-0.6064798871463067,-1.2021027810715514,-0.8976946799999292,0.4039076338823936,-0.18498117563991426,0.20793203472747912,0.9629740696202539,-0.4641021026270301,1.3514895105816467,-0.7628755616472133,-1.0227562474830798,-0.22359908823635732,0.5866899248193054,-0.1667029465462222,-1.389832562590216,0.10348501133495658,-0.10623361721370943,0.23211976646048355,0.3270840995713158,-0.18621804828534935,1.3502526379362054,0.0996369631047074,0.39538695565826715,0.9337014170115605,-0.4936496158235978,-0.26579018847517516,0.11447943484995986,0.2969868651989949,-0.6736833008817581,-0.6982833234965768,0.012506156748314429,0.4807311681934712,-0.523471989608043,0.5083546572749146,-0.5564552601530486,-0.19089067827922443, ],
[ 0.7553168954806495,-0.022813428793630304,-0.29107736255968275,0.8034174983587857,-0.456406006166529,0.024874883202691215,0.7652118766441534,-0.25397118319655126,0.3140282216472506,0.40871769417020704,-0.22442366999998278,0.38714113802201516,-0.19418900533372696,-0.5328172495957931,0.44128867383340037,-0.21439125854254298,0.09908724192895764,-0.2256605426454217,0.06046932933251167,-0.2799455087507431,-0.0629430746233878,-0.6529313264971935,0.24806168055723676,-0.19391414474585209,0.2688136549418045,-0.022675998499693244,-0.5726720348376777,-0.29217680491118375,-0.10843250191670964,0.02886036172688079,0.6483961267972542,-0.24957341379055045,-0.05620899022044782,0.04438998494182202,-0.44870990970602764,0.9462075737598773,-0.11557887720145954,0.31636453664418923,0.2821443934537433,0.020889404678504052,0.04727602111450893,0.46849987203303245,-0.23514323292710915,-0.06665369255970158,0.3200751545805017,0.10623361721370901,0.12038893748927372,-0.25039799555417497,1.2210681616349324,0.05291066316594886,-0.20765717413960366,0.2961622834353718,-0.29987290137168476,-0.2266225547029832,0.14553868127984163,-0.26963823670542825,-0.3522338433618824,0.2565823587813643,-0.3136159307654375,0.05703357198407339,-0.05084920875688559,0.6009826753888075,0.49928425787503644,0.6128016806674351,-0.22442366999998184,0.9422220952356894,0.10540903545008419,0.7972331351315972,-0.6012575359766829,-0.17769737006122355,-0.25039799555417497,0.45846746057559024,-0.40115902800364334,0.2969868651989963,0.0911162848805819,0.21782701589098058,0.20642030149416715,-0.5616776113226747,-0.0295475131965686,0.24819911085117435,0.02253856820575465,-0.13014648835883805,0.4918630220024088,0.1117308289712101,-0.08163359459889166,-0.3703746421616365,0.3556696007103206,0.5614027507347995,-0.4099545668156436,0.0465888696448218,0.7334654787445846,0.3551198795345708,-0.08094644312920439,-0.030372094960193864,-0.20243482296997672,-0.6479838359154423,0.2980863075504958,-0.09881238134108158,0.3518215524800703,0.6798676641089483,0.011269284102877027,0.6485335570911915,0.04782574229025987,0.6533436173790058,-0.07297548608082687,0.3448126074892564,0.36267854570113417,-0.6026318389160578,-0.7406118540293356,-0.4187501056276476,0.016903926154316136,-0.543399382228984,-0.33368075368031663,-0.38040705361907695,-0.0593698869810129,-0.16670294654622092,-0.2505354258481126,0.4728976414390311,-0.1907532479852888,0.23995329321492154,-0.06486709873851228,-0.11310513191058456,0.07325034666870235,-0.06335536550520071,-0.010307272045313606,0.6363022609307519,-0.40473221564601825,-0.27499801816899233, ],
[ -0.5038194575749748,0.4744093746723453,-0.3427511530801926,-0.25300917113898713,-0.026661477023878395,0.06885257726270011,0.037243609657068515,0.03724360965707122,-0.34893551630738107,-0.08465706106551696,1.1239049438210964,0.5614027507347974,-0.10018668428045657,0.24902369261479906,-1.1042524117880308,-0.32419806339862756,0.5894385306980549,-0.30509525254131037,-0.5431245216411091,-0.702681092902576,-0.6687358103000066,-1.5223153659459914,0.35992993982238325,-0.28420584786280767,0.3846673927311396,-0.34921037689525725,0.13468168805877737,-0.08575650341701689,0.22909629999385686,-0.12767274306796242,0.16038115302509418,-0.7702967975198414,-1.3402202264787664,-0.5600284477954254,-1.3290883726698284,0.30523268283524985,-1.4743521933617953,-0.24435106262092382,0.6393257273973786,0.4548942729332156,-0.03380785230863344,-0.47605853819959365,-0.9053907764604313,0.12973419747702647,0.7848644086772198,0.34495003778319305,0.7358017937415213,0.0629430746233868,0.34783607395587957,-1.7268116433250313,-0.44925963088177706,0.8898611532454901,-1.4336728263562857,0.38535454420082643,-0.1902035268095371,0.10925708368033422,-0.9353505805388118,-0.7434978902020242,-0.857565034170172,-0.5002462699326005,-0.1066459080955216,0.31265391870787557,-0.06459223815063722,0.669972682945447,-0.3602048004102583,0.059919608156762366,-0.7404744237353977,0.8357136174341042,-0.6942978449723883,-1.324278312382015,-0.5543938057439857,0.792972796019535,0.8071281162950988,-0.6192609044824987,-0.9691584328474444,1.0745674682975275,-0.8970075285302397,-0.23253205734229676,0.4614909270422164,0.8504186588854191,-0.4000595856521431,0.028585501139005473,-0.1869051997550366,0.21315438589710548,-1.2724670915675658,1.0167093145498272,0.5089043784506645,-0.1568079653827195,-0.9631114999141924,0.7287928487507082,0.644410648273067,0.01717878674219003,0.5274574681322308,0.36597687275563406,-0.5372150190017951,-0.19680018091853801,0.7212341825841434,0.45063393382114997,0.7044676867237647,0.15460908067971754,0.5049188999264751,0.9938958857561984,0.7940722383710335,-0.1511733233312812,-0.5587915751499859,0.6570542353153183,-0.13564370011634017,0.9298533687813094,1.1228055014695997,0.849044355946044,-0.48925184641759684,-0.9374120349478753,0.44994678235146385,0.8412108291916046,1.4982650645069242,-0.9222947026147453,-1.3568492920452078,-0.28090752080830667,-0.2391287114512983,0.5943860212798056,-1.8880173781137513,-0.1541967897979068,0.8539918465277933,-0.7762063001591551,-0.34838579513163415,1.1305015979300999,-0.06706598344151236,-0.19185269033678953, ],
[ -0.6690106708878849,-0.740474423735398,-0.13921688775871507,0.3926383497795164,0.18415659387628655,0.10197327810164505,-0.16395434066747053,0.1341319668830277,0.13399453658908977,0.1014235569258962,-0.0027486058787498813,-0.5629144839681134,-0.22882143940598448,0.18525603622778797,0.02542460437844247,-0.18676776946110005,0.11461686514389822,0.029272652608693696,-0.20751974384566674,-0.19446386592160153,-0.3027589375443732,0.5185244990262924,0.06679112285363818,-0.6778062096998859,-0.3555321704163844,0.02954751319656894,-0.7896744689650331,-0.6391882971034405,-0.10293529015920817,-0.17577334594609767,-0.11585373778933639,-0.10692076868339616,-0.17439904300672168,-0.05785815374769898,0.24448849291486127,-0.4788071440783456,-0.328320972216753,0.06115648080219974,0.5465602789895473,-0.38604169567051516,-0.4419758253030891,0.0369687490691945,0.037793330832820236,-0.14567611157377847,0.0748995101959521,-0.3960741071279546,-0.16574093448865887,0.08836767900183043,-0.6325916429944402,-0.7660364584077778,-0.5968597665706822,0.5570049813287985,-0.32570979663193933,-0.6133514018431845,-0.33931539573175457,-0.15158561421309272,0.18594318769747528,-0.3540204371830714,-0.2708751093508675,0.2179644461849189,-0.19776219297610204,-0.18085826682178724,0.39236348919164055,-0.25122257731780023,-0.12190067072258724,-0.06294307462338798,0.1256112886589007,0.04136651847519608,0.31636453664418895,-0.4528328185241531,0.3460494801346945,-0.17907167300059812,-0.24435106262092451,0.5821547251193662,0.239266141745235,-0.3717489451010122,0.2846181387446194,-0.42314787503364654,0.4482976188242147,-0.17467390359459778,-0.13426939717696518,-0.693335832914826,-0.3882405803735159,-0.3368416504408801,-0.401433888591518,-0.04493970611757172,0.12712302189221286,-0.2181018764788563,-0.026111755848128932,-0.12176324042865048,0.06720341373545063,0.4437624191242764,-0.26510303700549015,0.014842471745253133,-0.6552676414941313,0.19336442357010156,0.23555552380892145,-0.6651626226576344,-0.04260339112063395,0.13097107012246392,-0.5111032631536646,-0.30743156753824985,0.1750861944764097,0.353883006889133,0.12616100983465117,-0.3957992465400792,0.024737452908753732,0.26455331582974095,0.11489172573177389,0.09812522987139471,-0.4335925773728994,-0.4460987341212153,0.154609080679718,0.1765979277097237,0.0985375207532076,-0.14347722687077843,0.08438220047764226,-0.3123790581200005,-0.391676337721953,0.4792194349601587,-0.1592817106735944,0.3690003392222615,0.08135873401101609,-0.02295085908756679,-0.25781923142680185,0.3141656519411877,-0.01992739262094172,-0.8116633159950375, ],
[ 0.1154414469075239,0.06610397138395126,-0.035869306717694824,-0.2994606104898722,-0.14320236628290456,-0.15405935950396846,-0.06376765638701329,0.17329960065522237,0.15295991715246796,0.16464149213715845,-0.18017111535209965,0.1557085230312189,0.09633863605020637,-0.51522617197179,0.34536232866500693,-0.7889873174953456,-0.01594191409675342,-0.12519899777708757,0.22648512440904534,0.051811220814447764,-0.02336314996937908,0.006459223815064385,0.14224035422534068,-0.6226966618309373,-0.1491118689222181,-0.16601579507653275,-0.05387267522351026,0.18044597593997327,-0.5237468501959173,0.20435884708510327,-0.11104367750152264,0.06404251697488801,-0.04933747552357225,-0.1605185833190323,0.10870736250458393,0.4763333987874707,-0.032570979663194125,0.14457666922227808,-0.20999348913654242,0.2984985984323103,0.13220794276790152,0.3230986210471273,-0.22579797293935744,0.024187731733005757,0.08493192165339239,-0.179209103294536,-0.02666147702387965,-0.149386729510093,-0.13962917864052832,-0.06198106256582497,0.6658497741273214,0.00879553881200174,-0.1283598945376503,0.7212341825841447,-0.5429870913471712,-0.4807311681934708,0.3918137680158913,-0.38947745301895303,-0.36817575745863623,0.04329054259032255,0.17618563682791055,-0.055246978162886325,-0.9646232331475059,0.32378577251681445,0.11750290131658597,-0.05222351169626099,0.1634046194917201,0.22937116058173382,0.04603914846907157,0.07847269783832855,-0.003023466466626169,-0.23665496616042217,0.18250743034903644,0.15241019597671787,-0.3860416956705151,0.28351869639311944,0.07998443107164133,0.11873977396202359,-0.5234719896080428,-0.5344664131230444,-0.36611430304957326,-0.08740566694426699,-0.8508309497672335,0.07957214018982771,0.017041356448253536,-0.531580376950357,-0.20380912590935366,-0.1514481839191554,-0.5149513113839157,0.346599201310444,0.1109062472075852,-0.2517722984935504,0.07132632255357745,0.1327576639436513,-0.11269284102877224,-0.08094644312920361,-0.012368726454377772,-0.22634769411510838,0.06899000755663837,-0.5916374154010557,-0.06816542579301405,-0.06198106256582524,-0.044939706117571664,-0.09743807840170775,0.18127055770359876,0.15227276568278064,-0.3795824718554505,0.13866716658296513,0.05002462699325971,-0.25094771672992616,-0.03738103995100724,-0.021851416736066824,0.06280564432944898,-0.6228340921248744,-0.3376662322045055,-0.23102032410898338,0.11640345896508626,0.03614416730556971,-0.10788278074095906,-0.13083363982852622,0.36309083658294833,-0.42149871150639673,0.1342693971769643,-0.21123036178197957,-0.24778681996936214,-0.47427194437840803,0.13619342129209036,0.3674886059889496, ],
[ -0.6710721252969459,-0.22744713646660655,-0.27582259993261843,0.02762348908144361,0.09029170311695578,-0.04548942729332149,-0.09894981163502037,-0.05675871139619836,-0.13000905806490098,-0.10815764132883428,-0.142515214813216,-0.07160118314145157,-0.5535692239803616,0.08589393371095472,-0.3284584025106903,-0.18992866622166224,0.06706598344151274,-0.020889404678504992,0.08287046724432892,-0.0934525998775189,0.0035731876423757717,-0.03449500377831928,0.34453774690138184,-0.04988719669932278,-0.12877218541946364,0.23926614174523597,0.1048593142743338,-0.1219006707225864,-0.7981951471891598,-0.7507816957807133,-0.022263707617879835,-0.5073926452173518,-0.3959366768340165,-0.17068842507040913,-0.033258131132881556,-0.01250615674831467,-0.6002955239191207,0.029959804078381162,-0.3696874906919497,0.041091657887319895,-0.30564497371706195,-0.12890961571340095,0.25726951025105094,-0.12313754336802488,-0.1308336398285268,-0.4903512887690982,0.3105924642988118,0.10004925398652055,-0.36364055775869747,-0.09468947252295702,-0.1781096609430352,-0.3011097740171246,-0.15337220803428114,-0.09620120575626878,0.12148837984077474,-0.10004925398652087,0.10169841751377119,-0.1643666315492835,0.07861012813226548,-0.33849081396813047,0.2979488772565595,-0.06816542579301427,0.1818202788793484,-0.2293711605817328,0.22909629999385878,-0.16862697066134663,-0.11379228338027357,-0.16450406184322072,-0.044115124353946614,0.5248462925474188,-0.354020437183071,0.052360941990198376,-0.02405030143906718,0.011269284102877405,-0.27169969111449216,0.023500580263317403,-0.22359908823635785,-0.8344767447886668,0.18553089681566218,0.16986384330678425,-0.07270062549295292,-0.5339166919472944,-0.14746270539496684,-0.3591053580587593,-0.314303082235125,-0.08754309723820525,-0.12987162777096345,-0.0360067370116323,-0.25122257731779984,0.10829507162277131,0.06981458932026403,0.23376892998773502,0.04232853053275946,-0.2622170008328028,-0.3163645366441887,-0.11434200455602231,0.24050301439067362,-0.477982562314721,-0.02308828938150465,-0.16945155242497179,0.12698559159827633,0.15433422009184294,0.02460002261481745,0.007558666166564268,-0.2405030143906736,-0.2509477167299256,-0.1507610324494686,-0.10994423515002116,0.39401265271889263,-0.3182885607593138,0.08987941223514286,0.2778840543416807,0.00563464205143888,-0.4926876037660356,-0.19281470239435086,0.3710617936313253,0.24874883202692513,0.02061454409062864,0.3580059157072601,0.1844314544641619,-0.058682735511324184,-0.06679112285363836,-0.208756616491104,0.16766495860378386,-0.10114869633801994,-0.1946012962155399,-0.25355889231473855,-0.17274987947947223, ],
[ 0.20312197443966734,0.008245817636251047,0.35305842512550734,-0.280770090514368,-0.4087176941702088,0.11434200455602361,-0.651831884145693,0.2619421402449274,0.22208735500304472,0.1983119141518526,-0.6537559082608185,-0.21672757353948027,0.5767949436558021,-1.2910201812491333,0.1416906330495921,-0.001649163527251047,0.024187731733005674,-0.6397380182791915,0.18951637533985052,0.352783564537633,-0.2244236699999822,-0.07050174078995192,-0.22992088175748296,-0.03559444612981905,-0.07627381313532797,0.20119795032453977,-0.5543938057439862,0.06582911079607506,0.1807208365278478,0.1407286209920286,0.02267599849969243,-1.4127834216777835,0.5034071666931629,-0.10513417486220909,0.28832875668093244,0.07421235872626555,0.47276021114509464,-0.05455982669319945,0.11791519219839959,0.30248407695649865,-0.5622273324984254,-0.19102810857316285,-0.2865421628597451,0.07544923137170349,-0.04466484552969588,-0.03600673701163252,-0.054010105517448115,-0.18635547857928825,-0.5133021478566654,0.07682353431107854,-0.17110071595222212,-0.024600022614816516,-0.11214311985302251,-0.41765066327614664,-0.1570828259705947,-0.24283932938761096,0.03806819142069488,0.3064695554806862,-0.04384026376607047,-0.08465706106551678,-0.16134316508265636,-0.043153112296383474,-0.26207957053886466,0.3327187416227547,-0.1676649586037838,-0.06308050491732417,0.2727991334659927,-0.1007364054562073,-0.34123941984688055,0.0247374529087547,-0.20422141679116645,-0.563739065731737,-0.8715829241517995,-0.7604018163563397,-0.39854785241882995,-0.14842471745252903,-0.1507610324494679,0.0688525772627005,-0.344950037783194,0.22744713646660794,0.32694666927737803,-0.30674441606856123,-0.35979250952844655,0.34618691042863164,-0.18044597593997394,-0.2453130746784869,0.5711603016043647,-1.2613352377586273,0.4860909496570343,0.2774717634598683,-0.13591856070421443,-0.15103589303734277,-0.5311680860685444,-1.2970671141823846,-0.3702372118676986,-0.21178008295773024,-0.14086605128596577,0.3130662095896873,0.41710094210039633,0.45297024881809145,-0.0997743933986461,0.054972117575011754,0.26455331582973995,-0.19473872650947724,-0.03779333083281998,0.7127135043600187,-0.0988123813410812,0.016629065566440268,-0.1722001583037229,-0.03312070083894511,-0.17962139417634818,0.27156226082055457,-0.07380006784445325,-0.886700256484928,0.31416565194118673,-0.18718006034291276,-0.15722025626453076,-0.07558666166563935,0.0945520422290193,0.1114559683833356,0.019927392620941703,-0.295887422847496,-0.08974198194120564,0.19350185386403915,-0.3580059157072593,-0.30193435578074757,0.25891867377830224,-0.07407492843232708, ],
])

weights_dense1_b = np.array([ -0.03884091655640964,-0.06171981261018518,-0.15972661849635855,-0.020271766038345306,-0.09300537279534801,-0.11487334088395673,-0.06821103428125638,-0.04150125330684865,-0.01117341435184387,-0.00015962020502634098,-0.07156305858680954,-0.018462737048046775,-0.05937871626979885,0.056718379519359825,0.00968362577159802,-0.0229853095237931,-0.10183769080680553,-0.1203536345898611,-0.08082103047833732,-0.010694553736764846,-0.05762289401450909,-0.08550322315910999,-0.021655141148573594,-0.11205338392849137,-0.06469938977067688,-0.014951092537467271,0.037563954916198905,-0.10651988348757821,-0.010854173941791187,-0.05836778830463202,-0.1059878161374904,-0.057942134424561774,-0.023996237488959928,-0.1836164425153009,-0.011758688436940452,0.06017681729493055,-0.01644088111771312,-0.06336922139545736,-0.11375599944877234,0.004522572475746328,-0.015483159887555076,-0.042778214947059384,-0.09327140647039192,-0.05863382197967592,-0.0006916875551141442,-0.08204478538353926,0.010481726796729724,-0.1165759564042377,-0.018781977458099453,-0.05953833647482518,-0.10449802755724455,-0.0684238612212915,-0.036393406746005746,-0.05432407644396471,-0.05709082666442129,-0.07635166473759976,-0.02607130015430236,-0.06480580324069445,0.01824991010801165,-0.031445180390189176,-0.049695090498200825,-0.10880777309295576,0.001809028990298531,0.0032456108355356002,-0.016015227237642878,-0.053153528273771546,-0.021867968088608712,0.014099784777326785,-0.030434252425022346,-0.07986330924817928,-0.15759834909600734,-0.0714034383817832,-0.02931691098983796,0.03431834408066331,0.009736832506606799,0.00984324597662436,-0.15265012274019074,-0.06650841876097541,0.07933124189809147,-0.057729307484526655,-0.11056359534824553,-0.08688659826933827,-0.09114313707004071,-0.03873450308639208,-0.10040110896156848,-0.03320100264547892,0.01149265476189655,-0.0030327838955004787,0.0019154424603160917,-0.02287889605377554,-0.025752059744249677,-0.008672697806431193,-0.11801253824947476,-0.017238982142844826,-0.10848853268290308,-0.10013507528652457,-0.015695986827590196,-0.00963041903658924,-0.039692224316550125,-0.006970082286150223,0.06379487527552762,-0.09795359915116458,-0.06411411568558029,-0.010481726796729724,-0.046502686397674006,0.06038964423496567,-0.0516637396935257,-0.032668935295391124,0.018835184193108236,-0.07863955434297731,-0.06283715404536956,-0.027029021384460405,-0.06182622608020274,0.0002128269400351213,-0.10369992653211285,-0.025273199129170656,-0.012184342317010695,-0.06677445243601932,0.004362952270719987,-0.03128556018516283,-0.01952687174822238,-0.045332138227480834,-0.03181762753525064,-0.03357344979054039,-0.09960300793643677,-0.08470512213397828,-0.0064912216710712005,0.0061719812610185176, ])

weights_dense2_w = np.array([
[ -0.03871480526249056,0.41040600822690027,0.08745960387834041,0.2189155071037934,-0.421162812692824,-0.08678124683995013,-0.19081214408471442,-0.3025472391226407,-0.023451771898680304,0.1166289565291797,-0.1570881084618194,0.042106590454448194,0.11444852319149261,0.23369399972589586,-0.1143516150431511,-0.07616980459653855,-0.08823486906507517,0.12317025654224095,-0.3778933244582758,-0.18063678850884068,-0.1535025069731777,-0.00450622889788654,0.012065064468536118,-0.12917856173942324,-0.2558859656961342,-0.04162204971273893,-0.4625910461088799,-0.11347944170807577,0.07117903495694362,-0.195269918908431,0.033869397845407705,0.1011721068686859,-0.092886460185474,0.08353482387050512,-0.17898934998703278,0.48502528244997284,-0.02408167486290057,-0.010514534095069252,-0.21077522264309564,-0.01598984447637243,-0.06216657716116958,-0.25239727235583487,-0.1816543240664284,-0.09608442908074852,0.010514534095069018,0.2500230227214656,-0.0870719712849756,-0.09036684832859085,0.04317258008620621,-0.12903319951691106,-0.21925468562298983,0.16106134254382654,-0.024566215604609042,-0.17312640701236268,-0.03866635118831927,0.1572334706843316,0.2204175834030895,-0.13882092249941827,-0.04845407417082687,-0.12128054764957834,-0.0421550445286193,0.14957772696534172,-0.17482229960834095,-0.025196118568830004, ],
[ 0.08460081350226273,0.03876325933666108,-0.001598984447637905,0.050246874915146816,-0.042494223047814535,0.03643746377646164,-0.2717789020241654,0.04777571713243493,-0.17646973813015002,0.0376488156307324,0.02902399042832543,-0.0922081031470827,0.20219885151485845,0.29702347466716655,0.004845407417082461,0.11711349727088823,-0.16164279143387686,0.014051681509539197,-0.26606132127200827,0.04690354379736,0.1759367433142706,-0.26237881163502547,-0.2589385723688964,-0.029944617837570832,-0.19459156187003893,0.15955926624453198,0.02030225707757636,0.05557682307393803,-0.13290952545057683,0.07006459125101473,0.04409320749545184,0.09879785723431483,-0.0851822623923125,-0.1679902751502548,0.05867788382087063,-0.07776878904417608,0.22196811377655606,0.1237517054322901,-0.009690814834166001,0.0391993460041987,0.09937930612436534,0.0009206274092462576,0.11721040541922942,-0.018751726704109663,0.21576599228268992,-0.033675581548724055,0.16740882626020595,-0.33699808585809815,-0.27662430944124844,-0.11507842615571312,-0.10417625946727727,0.14671893658926277,-0.17603365146261202,0.11420625282063758,0.1386755602769051,0.12888783729439823,-0.03571065266389941,0.12820948025600717,-0.2932440568818419,0.2371342389920249,-0.2509921042048813,0.2623788116350252,0.17477384553417166,-0.43429386679311766, ],
[ 0.06633362753986136,0.05242730825283368,0.052039675659468376,0.06943468828679465,0.025971383755562537,-0.16658510699930124,-0.015553757808835365,0.013227962248635648,0.1588809092061405,-0.07839869200839635,-0.10664741724998894,-0.2976049235572164,-0.04525610527555196,0.24096211085152022,0.05315411936539644,0.01792800744320571,-0.4815365891096735,-0.1409529017629343,-0.04995615047012283,-0.42857628604096104,0.1426487943589131,0.12622286321500328,-0.14686429881177454,-0.23757032565956224,-0.12796720988515323,-0.007946468164015591,-0.1167258646775209,-0.01846100225908529,0.0068804785322575815,0.07040376977021089,-0.19008533297215235,-0.07219657051453154,-0.024372399307926066,-0.07902859497261835,0.10340099428054401,-0.14608903362504128,0.2160082626535445,-0.03861789711414922,-0.1576211032776984,-0.1795223448029117,0.03401476006792021,-0.02194969559938462,0.01972080818752639,0.032658045991136544,-0.38928003188842014,0.008964003721602986,0.01952699189084301,-0.14676739066343372,-0.08120902831030564,0.35909314367999523,-0.19938851521295092,-0.20510609596510848,-0.2702768257248701,-0.20815870263787117,0.18252649740150373,0.08571525720819208,0.16881399441115902,-0.3696561318492352,-0.213101018203295,0.2513797367982474,0.2632025308959285,0.2716335398016536,-0.08547298683733809,0.09060911869944549, ],
[ -0.10718041206586855,0.14051681509539707,-0.36379318887456547,0.04079833045183688,0.05824179715333189,0.1145454313398338,0.007898014089844573,-0.1639685869940775,-0.2763820390703949,0.17487075368251287,-0.02030225707757622,0.31136588062173104,0.11798567060596225,-0.019914624484209865,-0.4231494297338269,-0.08687815498829159,-0.06749652531996084,0.031398240062695815,-0.2423672790024743,0.12297644024555841,0.33874243252824743,-0.2781748398147152,-0.1154660587490789,-0.053444843810420646,0.010175355575873126,0.12491460321239084,0.393204811896257,0.21038759004972846,-0.23044757675645028,0.0837770942413591,-0.10146283131371019,-0.05993768974931238,0.07873787052759282,0.07001613717684504,-0.11832484912515877,-0.005717580752157555,0.20694735078359963,0.0873142416558299,-0.3890862155917373,0.22041758340308945,-0.11919702246023421,0.13504150471409393,-0.07723579422829746,-0.03774572377907457,-0.1654706632933727,-0.05102214010188073,-0.20878860560209128,0.07549144755814714,-0.14497458991911286,0.04234886082530228,0.14444159510323398,-0.13155281137379324,-0.17656664627849164,-0.053880930477959076,-0.19430083742501444,0.17409548849577933,0.01201661039436457,0.090996751292812,-0.09162665425703297,0.03624364747977815,-0.25181582346578496,-0.2862666702012426,0.1674088262602061,-0.06555836235312787, ],
[ -0.19381629668330588,0.09157820018286165,0.181072875176378,0.3475610740273378,-0.10218964242627268,-0.11919702246023339,0.07457082014890226,0.2525910886525186,0.0975380513058734,-0.20970923301133776,0.13412087730484784,-0.08939776684517504,-0.03856944303997786,0.13194044396716037,-0.02912089857666733,0.021852787451042806,-0.0897369453643703,-0.4157844104598623,0.15170970622885743,-0.3349630147429236,0.13271570915389358,-0.2731356161009486,-0.18494920111004481,-0.06342638308961235,-0.23568061676689972,-0.027570368203200083,0.08435854313140854,-0.10616287650828057,-0.24614669678779846,0.005426856307132399,-0.10950620762606844,-0.03260959191696655,-0.08920395054849087,-0.23383936194840851,0.10039684168195274,0.013373324471148036,0.018121823739888687,0.05237885417866315,-0.03590446896058242,0.14071063139208007,-0.05969541937845857,0.10180200983290634,0.011871248171852327,-0.07626671274488091,-0.3493054206974881,-0.16668201514764266,0.22109594044148081,0.07864096237925154,-0.22201656785072676,0.18242958925316205,0.06240884753202482,-0.16929853515286736,-0.13145590322545225,0.042978763789523027,0.10194737205541883,0.37028603481345623,-0.15272724178644465,-0.17113978997135923,-0.08130593645864695,-0.14230961583971702,-0.19115132260391013,0.013131054100294014,-0.3248361132412208,0.04225195267696073, ],
[ 0.08091830386528048,-0.13097136248374402,-0.05567373122227939,-0.1413889884304714,0.012646513358585717,-0.0079949222381862,0.11037838096114301,-0.2085463352312369,0.13707657582926852,-0.02553529708802511,-0.027812638574054763,-0.029653893392545427,-0.24667969160367803,0.028587903760787913,-0.06895014754508585,0.07733270237663924,0.07684816163493147,-0.06643053568820362,-0.20941850856631194,-0.2399930293681041,0.026213654126417314,-0.37576134519475907,0.05203967565946765,-0.072002754217848,-0.12486614913821935,0.22603825600690536,-0.13339406619228525,-0.08072448756859746,0.0008237192609041143,-0.150159175855392,0.027861092648224874,0.04322103416037723,-0.017443466701497226,-0.16057680180211886,0.14696120696011652,0.004215504452861517,-0.1289362913685692,0.006686662235573911,0.08106366608779218,0.11837330319932932,0.18519147148089815,-0.26417161237934583,0.25045910938900157,0.10088138242366086,0.22836405156710576,-0.20176276484732134,-0.45333631794225226,-0.014003227435368564,-0.20093904558641779,-0.2089824218987746,0.05921087863674979,-0.14642821214423693,-0.16992843811708802,-0.1515158899321745,-0.2398961212197615,0.1927018529773769,0.033239494881186236,-0.11876093579269542,-0.13567140767831476,0.20970923301133731,0.04467465638550206,0.13848174398022212,-0.10209273427793122,0.06245730160619464, ],
[ -0.04307567193786519,-0.03764881563073199,-0.12976001062947423,-0.22288874118580143,0.023694042269534032,-0.01913935929747655,0.1699768921912592,-0.255352970880256,-0.3038554991252533,-0.18194504851145368,0.24202810048327783,-0.05867788382087076,-0.19817716335868046,-0.06269957197704931,-0.15946235809618964,0.2925172457692794,0.32871243917488685,0.029799255615058192,-0.11919702246023384,0.08057912534608447,-0.20617208559686628,-0.19386475075747714,-0.16958925959789267,-0.10887630466184677,-0.055479914925596424,0.19560909742762572,-0.015505303734664197,-0.0694831423609648,0.11536915060073734,-0.032367321546112285,0.11803412468013325,0.10640514687913492,0.02853944968661627,0.0613913119744372,0.16673046922181423,-0.12355788913560774,-0.044383931940476636,0.02175587930270086,-0.12680431210505247,-0.19090905223305657,0.0097877229825061,-0.1081010394751138,-0.1527272417864449,0.026649740793954945,0.11934238468274573,-0.27391088128768115,-0.12942083211027722,-0.209515416714654,0.026940465238979687,-0.1980802552103385,-0.00741347334813673,-0.023839404492046242,0.2093700544921414,-0.33835479993488127,0.044480840088819376,0.12128054764957794,0.14487768177077123,0.18591828259346077,0.04685508972318954,0.2142639159833943,-0.5662827648344487,-0.04428702379213499,-0.08343791572216287,-0.0907544809219576, ],
[ 0.17094597367467562,-0.04128287119354467,-0.018024915591547952,-0.1524849714155911,-0.3834655429879207,-0.20185967299566276,0.1418250750980088,-0.17579138109175896,0.03154360228520754,0.18451311444250737,-0.06129440382609572,-0.1875657211152687,0.07781724311834765,0.12050528246284516,-0.03430548451294507,0.009739268908335683,0.16304795958483137,-0.0321250511752586,-0.005814488900499331,0.10625978465662231,0.09031839425442037,0.1486570995560955,-0.0647346430922245,-0.15815409809357783,0.08833177721341656,-0.11532069652656678,-0.1032071779838608,0.03464466303214136,0.000484540741708242,-0.2983801887439496,-0.0027618822277368435,0.06812642828418235,-0.1143031609689793,-0.35167967033185854,0.20626899374520855,-0.07844714608256842,0.0127918755810984,0.006008305197182751,0.02815181709324939,0.14027454472454276,-0.12767648544012758,0.1517097062288579,0.09429162833642786,-0.16086752624714382,0.017443466701497736,-0.00024227037085409239,-0.030622974875962647,-0.10412780539310645,0.12578677654746556,-0.03086524524681665,-0.20224730558902954,-0.07888323275010575,0.0892039505484913,0.007413473348136234,0.05901706234006647,-0.09942776019853602,0.023694042269534168,0.010514534095069186,-0.16038298550543606,-0.21450618635424876,0.13257034693138187,-0.09104520536698302,-0.19856479595204637,0.08101521201362166, ],
[ 0.17462848331165867,-0.09056066462527461,0.03803644822409884,-0.1449261358449419,-0.0976349594542152,0.002761882227737247,-0.04893861491253488,0.07355328459131455,-0.10572678984074343,0.023161047453654434,0.09908858167933982,0.03798799414992796,-0.031349785988524996,0.05034378306348883,-0.13979000398283412,-0.1544715884565954,-0.25782412866296756,-0.050004604544292716,-0.050731415656855294,0.17332022330904673,-0.010223809650044505,0.25976229162980025,0.12753112321761512,0.13634976471670499,0.023790950417876353,-0.14269724843308415,-0.05480155788720466,0.1389662847219303,0.08338946164799228,0.025050756346317486,-0.26547987238195797,-0.10572678984074312,-0.06492845938890697,-0.10659896317581828,0.10892475873601772,0.10635669280496413,0.1565066595717697,-0.046951997871531065,-0.1153206965265671,-0.1735140396057299,0.13610749434585215,0.20437928485254575,0.06769034161664446,-0.008915549647432335,0.07117903495694364,-0.1151268802298838,0.028733265983300383,0.14889936992694913,-0.030477612653449997,-0.2447415286368446,-0.0265528326456127,-0.08886477202929538,0.016329022995568338,0.1520488847480539,0.09952466834687751,0.011144437059290054,-0.1815574159180873,0.28621821612707177,0.15951081217036056,0.011628977800997786,0.0701614993993569,0.05911397048840813,0.22114439451565254,-0.01938162966833067, ],
[ 0.13329715804394357,-0.2751222331419528,0.01458467632541934,-0.2535117160617642,0.23509916787685003,0.043560212679572836,0.024130128937071962,0.2219196597023856,-0.006347483716378222,-0.055625277148109206,0.0655099082789577,-0.05756344011494194,-0.16527684699668918,-0.037697269704903086,-0.0901245779577366,-0.030622974875962664,-0.07893168682427662,0.1400322743536884,0.03997461119093188,0.08271110460960089,-0.013034145951952465,0.03852098896580714,-0.06676971420739884,-0.07161512162448153,-0.01002999335336117,0.0774780645991514,0.09933085205019371,0.011095982985119362,-0.07331101422046035,-0.07597598829985615,-0.04302721786369404,-0.014875400770443949,0.08067603349442604,-0.17743881961356672,-0.011338253355973325,-0.07195430014367717,0.13983845805700498,0.04196122823193556,0.011725885949340082,-0.12084446098204152,-0.029847709689229427,0.1467673906634332,-0.1914420470489352,0.03638900970229075,-0.15597366475589,0.043947845272938914,-0.09157820018286165,0.13247343878303944,0.036970458592340244,-0.04249422304781478,0.32052370064001656,-0.33263721918272354,0.10960311577440965,0.15311487437981203,0.06444391864719906,-0.07166357569865263,-0.29445540873611203,0.05843561345001719,0.0877018742491958,-0.20389474411083797,-0.10209273427793093,0.04419011564379342,0.03168896450772005,-0.03944161637505265, ],
[ -0.25477152199020575,0.08581216535653344,-0.23359709157755376,-0.04758190083575182,-0.048211803799972384,-0.07428009570387732,0.013276416322806853,0.29682965837048303,0.024227037085412993,-0.001744346670149363,0.14768801807267928,0.017685737072351992,-0.07035531569604002,-0.07369864681382672,-0.002907244450249903,-0.01579602817968888,0.000823719260904019,0.14715502325679958,-0.15321178252815348,0.19086059815888518,0.1859182825934609,0.08455235942809143,-0.4673395453776209,0.08217810979372125,-0.022724960786117483,-0.1808790588796947,-0.09802259204758235,-0.292759516140133,0.2301083982372551,-0.002131979263516194,0.018848634852451737,0.039635432671735776,-0.051215956398563425,-0.05567373122227954,-0.17651819220432116,-0.15074062474544084,0.10674432539833097,-0.26562523460447135,-0.2184794204362566,-0.03416012229043298,0.02616520005224741,-0.08406781868638404,-0.05921087863674965,-0.17152742256472553,-0.11221963577963442,0.10151128538788116,-0.010514534095069254,-0.0853760786889961,0.08789569054587887,-0.15146743585800346,-0.019381629668330406,-0.004942315565423815,-0.05111904825022175,-0.07224502458870202,-0.029799255615058383,-0.038617897114147995,0.12380015950646181,0.15897781735448124,-0.3307475102900615,-0.04118596304520244,-0.2090308759729452,-0.1329095254505773,0.1319888980413319,0.06977386680599022, ],
[ 0.22061139969977261,-0.23354863750338375,-0.5676394789112311,0.20811024856369986,0.1675541884827181,0.185143017406728,0.10645360095330612,-0.023500225972851167,-0.020835251893455205,0.05136131862107588,-0.07122748903111528,0.07423164162970636,-0.0741831875555352,-0.06764188754247319,0.06226348530951205,0.052039675659467384,-0.08387400238970033,-0.06914396384176966,-0.1259321387699784,-0.26465615312105467,-0.16745728033437615,-0.031010607469328922,-0.06114904160358322,0.0357106526638984,-0.19846788780370478,-0.05170049714027084,-0.14478077362242958,0.0548500119613757,0.08479462979894646,0.05024687491514675,0.02849099561244589,-0.3369980858580984,0.00014536222251256524,0.15747574105518586,-0.05712735344740513,0.34605899772804305,-0.08392245646387096,-0.15190352252554096,-0.4313381682686973,0.008721733350748757,-0.22390627674338875,0.05693353715072137,0.018848634852451838,0.16663356107347202,-0.37382318222792665,0.010320717798385455,-0.12147436394626235,-0.33108668880925685,-0.2631540768217584,0.016377477069739247,-0.06754497939413147,-0.014875400770443229,-0.12229808320716684,0.22158048118318993,-0.389231577814249,0.2101453196788743,-0.22613516415524737,0.08019149275271774,0.07776878904417567,0.19459156187003926,0.26344480126678427,0.01894554300079341,0.09550298019070018,0.1158536913424462, ],
[ -0.1885832566728564,-0.11847021134767102,0.003294877043615992,0.1290816535910813,-0.007025840754770594,-0.11570832911993388,-0.029072444502495416,0.1120258194829504,-0.41103591119112126,-0.15248497141559075,0.018121823739889287,-0.08552144091150844,-0.19449465372169736,0.018267185962401768,0.07752651867332243,0.09661742389662842,-0.22288874118580196,0.07631516681905173,-0.0011144437059297343,0.17554911072090448,0.1806367885088413,-0.15049835437458658,-0.2906759909507871,-0.008382554831552341,-0.03071988302430412,0.08237192609040511,0.05654590455735482,0.1493354565944875,0.009012457795773114,-0.15224270104473672,-0.021125976338480994,0.07713888607995542,-0.058774791969212904,0.19488228631506369,0.09681124019331086,0.1640170410682478,0.018461002259084633,-0.07578217200317276,-0.313449405811077,-0.2129072019066113,0.023742496343704674,-0.1680871832985974,-0.020447619300088392,0.10151128538788165,-0.09802259204758176,-0.2533178997650809,0.05276648677203015,-0.02873326598329968,0.019139359297476666,0.0987494031601438,0.35361783329869145,-0.03445084673545789,-0.11095982985119227,0.09385554166889107,0.03953852452339421,-0.09778032167672754,-0.29043372057993333,-0.3617581177593903,0.10466080020898529,0.021029068190138483,0.09865249501180219,0.032415775620282694,-0.007994922238186156,0.25753340421794196, ],
[ -0.08174202312618459,0.24159201381574122,0.2444023501176483,-0.13518686693660653,-0.37459844741466064,-0.02727964375817491,-0.04050760600681105,-0.2943100465136008,0.04404475342128099,0.09259573574045053,-0.28156662500667207,-0.10771340688174666,-0.15025608400373347,-0.0512159563985632,-0.1947853781667219,-0.010466080020898702,0.2936801435493792,-0.2834563338993342,-0.12321871061641161,-0.23660124417614573,0.08091830386527972,0.14909318622363385,0.035419928218874464,0.12191045061379954,0.26334789311844126,-0.05736962381825843,0.10102674464617305,-0.07011304532518549,0.15306642030564074,0.18693581815104857,-0.009012457795772862,0.2178979715462066,-0.03517765784801991,0.08862250165844099,-0.07616980459653991,-0.022385782266921714,-0.21944850191967188,-0.04753344676158108,-0.2314166582398674,0.2284609597154468,0.2407198404806667,-0.2829717931576269,0.06783570383915727,0.24081674862900734,0.09884631130848581,-0.011241345207632564,-0.20491227966842546,0.21920623154881871,0.11314026318888036,0.3228494962002166,0.10911857503270116,-0.2672242190521086,-0.038036448224099115,-0.11851866542184102,-0.22216193007323978,-0.43032063271110893,-0.2591323886655799,0.026116745978075687,-0.42402160306890246,0.21532990561515286,-0.4905490469054467,-0.11793721653179165,0.05732116974408792,0.19323484779325556, ],
[ -0.3239154858319746,0.04472311045967251,0.10422471354144792,-0.04011997341344423,-0.0036825096369824525,0.06817488235835271,0.009496998537482246,0.2094185085663122,-0.20786797819284594,0.31679273692886323,0.17259341219648439,0.07190584606950672,-0.05795107270830881,0.05300875714288468,0.07612135052236814,0.08091830386528075,-0.14008072842785949,-0.1010751987203445,-0.30778027913309003,-0.05906551641423797,-0.23732805528870782,-0.06308720457041633,0.08363173201884597,-0.24566215604609037,-0.18834098630200274,0.19745035224611795,-0.06110058752941252,0.24600133456528564,-0.25394780272930134,-0.1317950817446486,-0.04239731489947324,-0.23165892861072138,-0.037987994149927345,0.06550990827895734,0.012113518542706233,-0.12472078691570716,0.15989844476372736,-0.014245497806223473,-0.16392013291990712,-0.004312412601203576,-0.05320257343956791,-0.1672634640376933,0.11226808985380411,0.16881399441115932,-0.0189455430007931,0.1296631024811317,0.10999074836777589,-0.09874940316014424,-0.07767188089583492,-0.2630571686734162,0.31122051839921816,0.009642360759994856,0.1387724684252474,0.26194272496748794,0.27313561610094883,0.1814120536955742,0.08934931277100411,-0.21814024191706077,0.08547298683733728,-0.0745223660747309,0.31504839025871356,0.12568986839912405,0.21096903893977895,0.007704197793161283, ],
[ -0.079077049046789,0.06928932606428166,-0.16614902033176498,-0.06439546457302829,-0.27255416721089976,0.08910704240015005,0.020350711151747164,-0.03517765784802099,-0.12845175062686176,0.05562527714810878,0.0494231556542429,0.20447619300088782,0.14613748769921228,-0.25050756346317266,0.28287488500928537,0.043657120827914994,0.1041278053931068,-0.15854173068694416,-0.18354403295909066,-0.4129256200837832,0.021077522264309645,0.053008757142884326,0.12990537285198586,-0.19609363816933464,0.06948314236096498,-0.061197495677753816,-0.02834563338993387,-0.0008237192609035081,0.20006687225134262,0.13659203508756,-0.13203735211550205,0.2211443945156519,0.07428009570387657,-0.362145750352757,0.032221959323598885,0.09496998537482022,0.0969081483416533,-0.06284493419956155,-0.16736037218603467,0.13513841286243483,-0.07612135052236835,0.13397551508233496,0.13087445433540226,0.028054908944908443,0.061488220122779096,0.21450618635424848,-0.048744798615851084,-0.10262572909381097,-0.21474845672510223,0.13634976471670557,-0.307586462836406,-0.3885532207758575,0.18509456333255728,-0.08004613053020494,0.0321250511752582,-0.0777687890441761,0.07447391200056078,-0.12103827727872478,0.004118596304520234,-0.14206734546886327,-0.10567833576657217,-0.002955698524420041,0.04763035490992267,-0.30191733615842004, ],
[ 0.07844714608256806,0.008964003721603293,-0.12724039877259002,-0.07868941645342234,-0.04419011564379355,0.006977386680599736,0.11721040541922906,-0.04632209490731011,0.08813796091673345,0.0023257955601995845,-0.09395244981723239,0.049423155654242865,0.0952607098198449,0.06139131197443718,-0.19396165890581843,-0.01569912003134804,-0.0008721733350749676,-0.15771801142604053,-0.034644663032140546,-0.16605211218342225,-0.35313329255698317,-0.05567373122228013,0.049083977135046794,-0.08096675793945116,0.05984078160097079,0.14783338029519105,0.03416012229043309,0.12365479728394889,-0.11372171207892974,0.18562755814843593,0.16765109663106012,-0.06885323939674455,-0.05528609862891265,0.06260266382870816,0.04574064601726054,-0.20660817226440398,-0.027570368203200295,-0.24207655455744892,0.2897069094673718,0.18291412999487003,0.077817243118347,0.13324870396977326,-0.2230825574824852,-0.18761417518944012,0.1248661491382201,0.05208812973363845,0.14230961583971694,-0.05746653196660025,-0.18475538481336115,-0.17845635517115369,-0.039877703042590446,0.13038991359369426,0.03823026452078187,-0.0916751083312037,0.1652283929225184,0.01797646151737651,-0.07011304532518568,0.11008765651611735,-0.12433315432234025,0.09249882759210806,-0.013179508174464387,-0.15510149142081553,0.05959851123011652,0.07970695201100926, ],
[ 0.037842631927415056,-0.07292338162709391,-0.1536478691956901,-0.02732809783234555,0.06502536753724912,-0.2699861012798448,-0.1287424750718857,-0.02296723115697148,0.07113058088277377,-0.06323256679292856,0.04060451415515218,-0.06987077495433153,0.03629210155394901,0.06110058752941243,-0.5218019247456299,0.06720580087493636,0.08048221719774326,0.17559756479507474,0.08624825202407135,-0.1409529017629348,0.11231654392797576,-0.0393447082267114,-0.25743649606960145,-0.016280568921397887,-0.14715502325680044,0.12501151136073285,-0.1170650431967168,-0.0584356134500169,-0.05998614382348312,-0.005766034826328711,0.24832713012548563,0.12249189950384905,0.016474385218081047,0.12602904691831932,0.2608767353357296,-0.22400318489173082,-0.013421778545319403,-0.2618458168191459,0.11076601355450942,0.1573303788326735,-0.003537147414470441,0.08406781868638426,-0.13058372989037764,-0.20176276484732145,-0.03614673933143648,0.16430776551327245,-0.09026994018024946,-0.28941618502234673,0.08474617572477537,-0.00251961185688256,-0.1866450937060233,-0.1060175142857676,0.09845867871511947,-0.2647530612693959,0.1108144676286802,0.0796584979368388,0.09424317426225738,-0.07825332978588474,-0.12283107802304523,0.18679045592853571,0.04666127342650607,-0.03488693340299536,-0.017588828924010404,-0.13334561211811424, ],
[ -0.04535301342389359,0.09157820018286196,-0.09186892462788704,-0.18204195665979553,-0.07684816163493105,-0.09148129203452014,0.006056759271353337,-0.08745960387834166,0.04966542602509723,-0.15335714475066559,-0.34252185031357235,0.09584215870989471,0.1637747706973935,-0.06909550976759879,-0.07331101422046023,0.13465387212072677,0.013615594842002214,-0.031059061543499706,-0.09908858167934018,0.005378402232962149,-0.10422471354144758,0.07195430014367783,-0.06400783197966145,-0.11125055429621754,-0.2577756745887975,0.0655583623531283,-0.0900276698093959,0.17748727368773745,0.010417625946727564,0.11100828392536319,0.2733778864718031,0.19977614780631747,-0.10320717798386002,-0.02960543931837478,0.07292338162709389,0.013179508174464932,-0.04506228897886868,-0.1582994603160908,0.12825793433017718,0.10097829057200239,0.014003227435368318,0.0023742496343705016,-0.0540262927004719,0.1167743187516922,-0.41529986971815386,-0.08794414462005018,-0.04482001860801474,-0.14594367140252912,0.010805258540094238,0.11454543133983432,0.2064143559677211,-0.04918088528338863,-0.08343791572216337,0.025680659310537743,-0.05780571048579621,-0.02374249634370509,0.02800645487073722,-0.09312873055632792,-0.12152281802043335,-0.15490767512413217,-0.12128054764957835,0.11091137577702131,-0.17477384553417094,0.00024227037085383326, ],
